{"learner":{"attributes":{},"feature_names":["rain_n1","ws_n1","td_n1","rh_n1","tdmax_n1","tdmin_n1","u_vec_n1","v_vec_n1","rain_n2","ws_n2","td_n2","rh_n2","tdmax_n2","tdmin_n2","u_vec_n2","v_vec_n2","rain_n3","ws_n3","td_n3","rh_n3","tdmax_n3","tdmin_n3","u_vec_n3","v_vec_n3","elevation_target","tpi_local_target","tpi_regional_target","roughness_local_target","roughness_regional_target","dist_to_coast_target","elevation_n1","tpi_local_n1","tpi_regional_n1","roughness_local_n1","roughness_regional_n1","dist_to_coast_n1","elevation_n2","tpi_local_n2","tpi_regional_n2","roughness_local_n2","roughness_regional_n2","dist_to_coast_n2","elevation_n3","tpi_local_n3","tpi_regional_n3","roughness_local_n3","roughness_regional_n3","dist_to_coast_n3","dist_n1","dist_n2","dist_n3","month_sin","month_cos","day_sin","day_cos"],"feature_types":["float","float","float","float","float","float","float","float","float","float","float","float","float","float","float","float","float","float","float","float","float","float","float","float","int","float","float","float","float","float","int","float","float","float","float","float","int","float","float","float","float","float","int","float","float","float","float","float","float","float","float","float","float","float","float"],"gradient_booster":{"model":{"cats":{"enc":[],"feature_segments":[],"sorted_idx":[]},"gbtree_model_param":{"num_parallel_tree":"1","num_trees":"100"},"iteration_indptr":[0,1,2,3,4,5,6,7,8,9,10,11,12,13,14,15,16,17,18,19,20,21,22,23,24,25,26,27,28,29,30,31,32,33,34,35,36,37,38,39,40,41,42,43,44,45,46,47,48,49,50,51,52,53,54,55,56,57,58,59,60,61,62,63,64,65,66,67,68,69,70,71,72,73,74,75,76,77,78,79,80,81,82,83,84,85,86,87,88,89,90,91,92,93,94,95,96,97,98,99,100],"tree_info":[0,0,0,0,0,0,0,0,0,0,0,0,0,0,0,0,0,0,0,0,0,0,0,0,0,0,0,0,0,0,0,0,0,0,0,0,0,0,0,0,0,0,0,0,0,0,0,0,0,0,0,0,0,0,0,0,0,0,0,0,0,0,0,0,0,0,0,0,0,0,0,0,0,0,0,0,0,0,0,0,0,0,0,0,0,0,0,0,0,0,0,0,0,0,0,0,0,0,0,0],"trees":[{"base_weights":[1.6365185E-7,-1.8647467E1,1.3484437E1,-3.0780878E1,-1.1286849E1,4.74317E0,2.0708498E1,-3.892116E1,-2.5123861E1,-1.6790314E1,-6.5143085E0,-9.437574E0,6.0125675E0,1.4608949E1,2.4793222E1,-4.411146E1,-3.5575165E1,-2.8047485E1,-2.105129E1,-1.9712383E1,-1.0241791E1,-1.0135079E1,-3.2484648E0,-1.91005E1,-3.0146263E0,2.4220016E0,1.2743397E1,6.5436997E0,1.6417175E1,2.2600473E1,2.7927711E1,-4.754721E1,-4.1371986E1,-2.1438509E1,-3.6027206E1,-3.1653934E1,-2.6276234E1,-3.0231295E1,-1.9315802E1,-2.471359E1,-1.75447E1,-1.3370808E1,1.3040282E0,-1.5684305E-1,-1.1028266E1,-5.7784486E0,2.1235204E0,-2.5168823E1,-1.567456E1,-9.224007E0,6.891969E0,-2.2554152E0,5.0879717E0,1.0452519E1,2.0916899E1,1.5331751E0,9.67337E0,1.3432561E1,1.8155027E1,1.8891499E1,2.3916769E1,2.9555752E1,2.2469875E1,-1.5247119E1,-1.3902789E1,-1.257501E1,-9.507592E0,-9.023025E0,-3.7808025E0,-1.1639442E1,-1.0223679E1,-8.677687E0,-1.0310604E1,-4.947114E0,-8.0035E0,-1.0287492E1,-8.251709E0,-5.090671E0,-6.973814E0,-3.858099E0,-7.859689E0,-1.8498148E0,-5.399568E0,-4.9566636E0,-3.1674054E0,4.1180563E0,-1.9517031E0,-1.7047086E0,1.7536472E0,-3.9375622E0,-2.8335614E0,7.119566E-1,-1.9869366E0,-8.2818E-2,2.2885876E0,-8.762599E0,-6.8707314E0,-5.9975324E0,-3.8347402E0,-3.7025077E0,-1.2755562E0,5.2280235E-1,4.9323163E0,-1.1054643E0,1.1286047E0,8.763994E-1,2.3642921E0,1.3685678E0,3.7621703E0,5.059623E0,8.198841E0,-2.7107313E0,1.5746579E0,1.7142335E0,4.1491785E0,3.4988613E0,4.7658644E0,5.6948857E0,3.9057243E0,6.211067E0,4.251196E0,3.5432293E0,7.319968E0,8.019073E0,9.408327E0,1.4882387E-2,6.9972367E0],"categories":[],"categories_nodes":[],"categories_segments":[],"categories_sizes":[],"default_left":[0,0,0,0,0,0,0,0,0,0,0,0,0,0,0,0,0,0,0,0,0,0,0,0,0,0,0,0,0,0,0,0,0,0,0,0,0,0,0,0,0,0,0,0,0,0,0,0,0,0,0,0,0,0,0,0,0,0,0,0,0,0,0,0,0,0,0,0,0,0,0,0,0,0,0,0,0,0,0,0,0,0,0,0,0,0,0,0,0,0,0,0,0,0,0,0,0,0,0,0,0,0,0,0,0,0,0,0,0,0,0,0,0,0,0,0,0,0,0,0,0,0,0,0,0,0,0],"id":0,"left_children":[1,3,5,7,9,11,13,15,17,19,21,23,25,27,29,31,33,35,37,39,41,43,45,47,49,51,53,55,57,59,61,63,65,67,69,71,73,75,77,79,81,83,85,87,89,91,93,95,97,99,101,103,105,107,109,111,113,115,117,119,121,123,125,-1,-1,-1,-1,-1,-1,-1,-1,-1,-1,-1,-1,-1,-1,-1,-1,-1,-1,-1,-1,-1,-1,-1,-1,-1,-1,-1,-1,-1,-1,-1,-1,-1,-1,-1,-1,-1,-1,-1,-1,-1,-1,-1,-1,-1,-1,-1,-1,-1,-1,-1,-1,-1,-1,-1,-1,-1,-1,-1,-1,-1,-1,-1,-1],"loss_changes":[5.8884704E8,8.776909E7,8.582003E7,1.7086752E7,1.6066136E7,1.1069721E7,1.8538784E7,2.640624E6,2.60616E6,5.435888E6,3.873786E6,3.1357495E6,1.3640654E7,4.352364E6,3.062368E6,5.59288E5,5.904E5,8.13256E5,1.457064E6,2.129112E6,3.166735E6,1.384605E6,2.340973E6,4.190175E5,1.8671309E6,4.589853E6,3.676314E6,8.5710875E5,1.26424E6,1.27976E6,1.629232E6,1.02028E5,1.73648E5,2.1860038E5,4.82624E5,3.0986E5,3.35876E5,1.60025E5,7.09374E5,1.045384E6,7.07608E5,6.11148E5,1.8134639E6,4.2339725E5,4.73226E5,8.06276E5,7.2850394E5,6.59675E4,1.607735E5,2.8917638E5,5.7502675E5,1.1494434E6,1.418723E6,1.886332E6,1.116282E6,8.2536394E5,5.5368525E5,3.89384E5,6.54896E5,5.87314E5,1.131616E6,7.19848E5,8.07256E5,0E0,0E0,0E0,0E0,0E0,0E0,0E0,0E0,0E0,0E0,0E0,0E0,0E0,0E0,0E0,0E0,0E0,0E0,0E0,0E0,0E0,0E0,0E0,0E0,0E0,0E0,0E0,0E0,0E0,0E0,0E0,0E0,0E0,0E0,0E0,0E0,0E0,0E0,0E0,0E0,0E0,0E0,0E0,0E0,0E0,0E0,0E0,0E0,0E0,0E0,0E0,0E0,0E0,0E0,0E0,0E0,0E0,0E0,0E0,0E0,0E0,0E0,0E0,0E0],"parents":[2147483647,0,0,1,1,2,2,3,3,4,4,5,5,6,6,7,7,8,8,9,9,10,10,11,11,12,12,13,13,14,14,15,15,16,16,17,17,18,18,19,19,20,20,21,21,22,22,23,23,24,24,25,25,26,26,27,27,28,28,29,29,30,30,31,31,32,32,33,33,34,34,35,35,36,36,37,37,38,38,39,39,40,40,41,41,42,42,43,43,44,44,45,45,46,46,47,47,48,48,49,49,50,50,51,51,52,52,53,53,54,54,55,55,56,56,57,57,58,58,59,59,60,60,61,61,62,62],"right_children":[2,4,6,8,10,12,14,16,18,20,22,24,26,28,30,32,34,36,38,40,42,44,46,48,50,52,54,56,58,60,62,64,66,68,70,72,74,76,78,80,82,84,86,88,90,92,94,96,98,100,102,104,106,108,110,112,114,116,118,120,122,124,126,-1,-1,-1,-1,-1,-1,-1,-1,-1,-1,-1,-1,-1,-1,-1,-1,-1,-1,-1,-1,-1,-1,-1,-1,-1,-1,-1,-1,-1,-1,-1,-1,-1,-1,-1,-1,-1,-1,-1,-1,-1,-1,-1,-1,-1,-1,-1,-1,-1,-1,-1,-1,-1,-1,-1,-1,-1,-1,-1,-1,-1,-1,-1,-1],"split_conditions":[5.9666668E1,3.9166668E1,7.5E1,2.9166666E1,4.8E1,-2.01E2,8.2666664E1,2.1E1,4E1,5.3166668E1,5.4833332E1,5.3E1,7.4E1,6.6166664E1,9.0833336E1,1.7E1,3.8180482E0,2.95E1,-2.01E2,3.6333332E1,6.7166664E1,3.6642609E0,6.5333336E1,4.2666668E1,-2.53E2,6E1,1.4415039E2,3.4977066E1,7.4666664E1,2.7E1,2.1699743E1,1.1833333E1,1.4845663E2,-8.1688184E-1,2.35E1,5.846085E1,3.8180482E0,3.1E1,6.73E2,-2.01E2,1.9328351E0,4.8166668E1,-2.361655E1,2.505E1,4.7833332E1,1.9328351E0,7.3166664E1,3.6166668E1,-3.33E2,-3.33E2,6.3833332E1,1.4415039E2,6.85E1,6.8166664E1,8.6333336E1,4.6333332E1,7.3666664E1,8.3333336E1,2.4210604E1,2.6265707E1,5.0166668E1,9.1E1,5.2E1,-1.5247119E1,-1.3902789E1,-1.257501E1,-9.507592E0,-9.023025E0,-3.7808025E0,-1.1639442E1,-1.0223679E1,-8.677687E0,-1.0310604E1,-4.947114E0,-8.0035E0,-1.0287492E1,-8.251709E0,-5.090671E0,-6.973814E0,-3.858099E0,-7.859689E0,-1.8498148E0,-5.399568E0,-4.9566636E0,-3.1674054E0,4.1180563E0,-1.9517031E0,-1.7047086E0,1.7536472E0,-3.9375622E0,-2.8335614E0,7.119566E-1,-1.9869366E0,-8.2818E-2,2.2885876E0,-8.762599E0,-6.8707314E0,-5.9975324E0,-3.8347402E0,-3.7025077E0,-1.2755562E0,5.2280235E-1,4.9323163E0,-1.1054643E0,1.1286047E0,8.763994E-1,2.3642921E0,1.3685678E0,3.7621703E0,5.059623E0,8.198841E0,-2.7107313E0,1.5746579E0,1.7142335E0,4.1491785E0,3.4988613E0,4.7658644E0,5.6948857E0,3.9057243E0,6.211067E0,4.251196E0,3.5432293E0,7.319968E0,8.019073E0,9.408327E0,1.4882387E-2,6.9972367E0],"split_indices":[3,11,11,3,3,24,3,11,3,19,11,11,3,19,11,3,29,11,24,3,11,29,19,11,24,11,46,40,3,24,49,11,37,14,3,29,29,11,42,24,29,11,25,18,11,29,11,11,24,24,11,46,19,19,3,19,3,19,49,50,19,3,19,0,0,0,0,0,0,0,0,0,0,0,0,0,0,0,0,0,0,0,0,0,0,0,0,0,0,0,0,0,0,0,0,0,0,0,0,0,0,0,0,0,0,0,0,0,0,0,0,0,0,0,0,0,0,0,0,0,0,0,0,0,0,0,0],"split_type":[0,0,0,0,0,0,0,0,0,0,0,0,0,0,0,0,0,0,0,0,0,0,0,0,0,0,0,0,0,0,0,0,0,0,0,0,0,0,0,0,0,0,0,0,0,0,0,0,0,0,0,0,0,0,0,0,0,0,0,0,0,0,0,0,0,0,0,0,0,0,0,0,0,0,0,0,0,0,0,0,0,0,0,0,0,0,0,0,0,0,0,0,0,0,0,0,0,0,0,0,0,0,0,0,0,0,0,0,0,0,0,0,0,0,0,0,0,0,0,0,0,0,0,0,0,0,0],"sum_hessian":[2.341798E6,9.82756E5,1.359042E6,3.71071E5,6.11685E5,6.14946E5,7.44096E5,1.5214E5,2.18931E5,2.84087E5,3.27598E5,5.0524E4,5.64422E5,2.98445E5,4.45651E5,5.963E4,9.251E4,1.27439E5,9.1492E4,1.96433E5,8.7654E4,1.55356E5,1.72242E5,2.0173E4,3.0351E4,3.68074E5,1.96348E5,5.4658E4,2.43787E5,2.62221E5,1.8343E5,2.6446E4,3.3184E4,2.868E3,8.9642E4,4.1969E4,8.547E4,1.4544E4,7.6948E4,5.9393E4,1.3704E5,6.8964E4,1.869E4,1.2764E4,1.42592E5,1.17095E5,5.5147E4,7.277E3,1.2896E4,1.8657E4,1.1694E4,1.33627E5,2.34447E5,1.53365E5,4.2983E4,2.1015E4,3.3643E4,8.9716E4,1.54071E5,6.8689E4,1.93532E5,1.41282E5,4.2148E4,7.098E3,1.9348E4,3.1413E4,1.771E3,1.449E3,1.419E3,3.7E4,5.2642E4,2.0938E4,2.1031E4,3.375E3,8.2095E4,5.837E3,8.707E3,4.8182E4,2.8766E4,6.615E3,5.2778E4,5.257E3,1.31783E5,3.2522E4,3.6442E4,7.214E3,1.1476E4,6.646E3,6.118E3,6.1337E4,8.1255E4,1.0994E4,1.06101E5,3.8407E4,1.674E4,2.611E3,4.666E3,5.171E3,7.725E3,1.1466E4,7.191E3,7.598E3,4.096E3,1.07977E5,2.565E4,1.32029E5,1.02418E5,4.0137E4,1.13228E5,2.6343E4,1.664E4,5.466E3,1.5549E4,1.7233E4,1.641E4,5.2126E4,3.759E4,1.3268E5,2.1391E4,4.9634E4,1.9055E4,7.428E3,1.86104E5,5.5085E4,8.6197E4,1.547E3,4.0601E4],"tree_param":{"num_deleted":"0","num_feature":"55","num_nodes":"127","size_leaf_vector":"1"}},{"base_weights":[-4.8781156E-5,-1.2239558E1,1.0129135E1,-2.028271E1,-6.318325E0,3.2226362E0,1.4168334E1,-2.6318977E1,-1.60055E1,-1.0020729E1,-2.783041E0,4.656087E0,-4.488761E0,1.0652548E1,1.7933748E1,-3.0022858E1,-2.338918E1,-1.7952644E1,-1.276807E1,-1.3685537E1,-7.0686398E0,-3.905412E0,2.2372448E0,3.12572E0,1.2126608E1,-1.0738286E1,-3.764575E-1,7.2628064E0,1.2645772E1,1.5577215E1,1.98946E1,-3.2526585E1,-2.7631802E1,-1.2661228E1,-2.3744692E1,-2.074372E1,-1.6549389E1,-1.0646688E1,-1.7549665E1,-1.925414E1,-1.2417342E1,-8.44352E0,1.3985184E0,2.4392219E0,-4.699571E0,-8.8853854E-1,5.4408884E0,-2.170296E0,4.3172097E0,9.237697E0,1.7877642E1,-1.4980769E1,-7.774126E0,4.752359E0,-4.187112E0,3.789323E0,8.96181E0,1.1384081E1,1.5218569E1,1.5977115E1,-3.0933924E0,1.61612E1,2.1176657E1,-6.1906147E0,-9.852594E0,-7.4906173E0,-8.70776E0,-5.661219E0,-1.4678757E0,-7.843452E0,-6.654414E0,-2.0733993E0,-6.347232E0,-4.7990465E0,-6.3113523E0,-2.1715415E0,-3.8682208E0,-6.5204477E0,-4.632577E0,-6.7645917E0,-3.5640762E0,-5.879143E-1,-3.8807342E0,-3.063025E0,-1.9342909E0,4.927165E0,-5.177926E-1,1.7271411E0,-3.649153E-1,-2.0728803E0,-8.7411106E-1,-7.000953E-1,2.7333179E0,5.2988687E0,1.3040668E0,2.9366593E0,-1.0558316E0,7.222421E-1,1.9160819E0,1.207456E0,3.8307686E0,4.6532288E0,6.3843074E0,2.1944015E0,-4.6257644E0,-3.5612142E0,-1.5481455E0,8.3419734E-1,3.1168175E0,-2.478025E0,-5.876287E-1,-6.382942E-1,1.5335357E0,3.1239636E0,1.4272516E0,5.8148956E0,3.2029414E0,4.7582307E0,3.0971935E0,4.9742184E0,1.7719156E0,-3.8254476E0,2.7273593E0,3.8614419E0,5.4487724E0,5.996382E0,7.1538053E0],"categories":[],"categories_nodes":[],"categories_segments":[],"categories_sizes":[],"default_left":[0,0,0,0,0,0,0,0,0,0,0,0,0,0,0,0,0,0,0,0,0,0,0,0,0,0,0,0,0,0,0,0,0,0,0,0,0,0,0,0,0,0,0,0,0,0,0,0,0,0,0,0,0,0,0,0,0,0,0,0,0,0,0,0,0,0,0,0,0,0,0,0,0,0,0,0,0,0,0,0,0,0,0,0,0,0,0,0,0,0,0,0,0,0,0,0,0,0,0,0,0,0,0,0,0,0,0,0,0,0,0,0,0,0,0,0,0,0,0,0,0,0,0,0,0,0,0],"id":1,"left_children":[1,3,5,7,9,11,13,15,17,19,21,23,25,27,29,31,33,35,37,39,41,43,45,47,49,51,53,55,57,59,61,63,65,67,69,71,73,75,77,79,81,83,85,87,89,91,93,95,97,99,101,103,105,107,109,111,113,115,117,119,121,123,125,-1,-1,-1,-1,-1,-1,-1,-1,-1,-1,-1,-1,-1,-1,-1,-1,-1,-1,-1,-1,-1,-1,-1,-1,-1,-1,-1,-1,-1,-1,-1,-1,-1,-1,-1,-1,-1,-1,-1,-1,-1,-1,-1,-1,-1,-1,-1,-1,-1,-1,-1,-1,-1,-1,-1,-1,-1,-1,-1,-1,-1,-1,-1,-1],"loss_changes":[2.9032758E8,5.0503424E7,3.574585E7,1.1608784E7,7.994582E6,5.226894E6,1.0703232E7,2.02288E6,1.658752E6,3.227608E6,1.7605245E6,4.558544E6,1.9048758E6,2.824936E6,1.80364E6,4.9212E5,3.96816E5,6.4328E5,1.002425E6,9.39736E5,1.923624E6,1.2866658E6,5.716981E5,2.0882955E6,1.126181E6,3.698015E5,8.7374094E5,9.136605E5,8.54504E5,1.323932E6,1.019568E6,1.5018E5,1.55692E5,1.6111688E5,3.77568E5,3.14458E5,2.70892E5,5.2435E5,2.67601E5,5.99484E5,5.87762E5,5.0116E5,1.0837451E6,3.4456734E5,8.957105E5,4.1759862E5,3.769015E5,9.807123E5,1.067833E6,8.30724E5,1.82262E5,1.183745E5,1.8537331E5,2.117809E5,2.3277428E5,3.9796538E5,6.343835E5,9.99736E5,2.72144E5,1.055152E6,4.3776775E5,3.58415E5,5.02816E5,0E0,0E0,0E0,0E0,0E0,0E0,0E0,0E0,0E0,0E0,0E0,0E0,0E0,0E0,0E0,0E0,0E0,0E0,0E0,0E0,0E0,0E0,0E0,0E0,0E0,0E0,0E0,0E0,0E0,0E0,0E0,0E0,0E0,0E0,0E0,0E0,0E0,0E0,0E0,0E0,0E0,0E0,0E0,0E0,0E0,0E0,0E0,0E0,0E0,0E0,0E0,0E0,0E0,0E0,0E0,0E0,0E0,0E0,0E0,0E0,0E0,0E0,0E0,0E0],"parents":[2147483647,0,0,1,1,2,2,3,3,4,4,5,5,6,6,7,7,8,8,9,9,10,10,11,11,12,12,13,13,14,14,15,15,16,16,17,17,18,18,19,19,20,20,21,21,22,22,23,23,24,24,25,25,26,26,27,27,28,28,29,29,30,30,31,31,32,32,33,33,34,34,35,35,36,36,37,37,38,38,39,39,40,40,41,41,42,42,43,43,44,44,45,45,46,46,47,47,48,48,49,49,50,50,51,51,52,52,53,53,54,54,55,55,56,56,57,57,58,58,59,59,60,60,61,61,62,62],"right_children":[2,4,6,8,10,12,14,16,18,20,22,24,26,28,30,32,34,36,38,40,42,44,46,48,50,52,54,56,58,60,62,64,66,68,70,72,74,76,78,80,82,84,86,88,90,92,94,96,98,100,102,104,106,108,110,112,114,116,118,120,122,124,126,-1,-1,-1,-1,-1,-1,-1,-1,-1,-1,-1,-1,-1,-1,-1,-1,-1,-1,-1,-1,-1,-1,-1,-1,-1,-1,-1,-1,-1,-1,-1,-1,-1,-1,-1,-1,-1,-1,-1,-1,-1,-1,-1,-1,-1,-1,-1,-1,-1,-1,-1,-1,-1,-1,-1,-1,-1,-1,-1,-1,-1,-1,-1,-1],"split_conditions":[6.2E1,4.2333332E1,7.25E1,3.1333334E1,5.1E1,1.967429E1,8.5E1,2.35E1,4.35E1,4.7166668E1,7.1E1,8.1666664E1,5.5666668E1,7.5E1,8.7666664E1,1.9166666E1,3.8180482E0,3.2E1,1.7485521E1,3.2333332E1,7.3166664E1,3.382091E0,6.3833332E1,5.3166668E1,1.3567784E2,4.6833332E1,5.846085E1,7.1666664E1,8.6E1,9.52E2,2.2E1,3.8180482E0,5.0242226E1,-2.6907218E-1,2.75E1,3.6642609E0,4.359094E1,3.03E2,3.4166668E1,1.1493246E2,3.382091E0,5.1333332E1,-4.6020798E1,-8.583481E-3,5.4333332E1,8.767778E1,-4.6020798E1,3.382091E0,6.5166664E1,7.8E1,9.1333336E1,1.28E2,-2.53E2,6.6333336E1,-3.33E2,5.2833332E1,3.4629234E1,-5.18051E1,2.4210604E1,2.8620892E2,5.5E1,4.947249E1,9.4666664E1,-6.1906147E0,-9.852594E0,-7.4906173E0,-8.70776E0,-5.661219E0,-1.4678757E0,-7.843452E0,-6.654414E0,-2.0733993E0,-6.347232E0,-4.7990465E0,-6.3113523E0,-2.1715415E0,-3.8682208E0,-6.5204477E0,-4.632577E0,-6.7645917E0,-3.5640762E0,-5.879143E-1,-3.8807342E0,-3.063025E0,-1.9342909E0,4.927165E0,-5.177926E-1,1.7271411E0,-3.649153E-1,-2.0728803E0,-8.7411106E-1,-7.000953E-1,2.7333179E0,5.2988687E0,1.3040668E0,2.9366593E0,-1.0558316E0,7.222421E-1,1.9160819E0,1.207456E0,3.8307686E0,4.6532288E0,6.3843074E0,2.1944015E0,-4.6257644E0,-3.5612142E0,-1.5481455E0,8.3419734E-1,3.1168175E0,-2.478025E0,-5.876287E-1,-6.382942E-1,1.5335357E0,3.1239636E0,1.4272516E0,5.8148956E0,3.2029414E0,4.7582307E0,3.0971935E0,4.9742184E0,1.7719156E0,-3.8254476E0,2.7273593E0,3.8614419E0,5.4487724E0,5.996382E0,7.1538053E0],"split_indices":[3,11,11,3,3,48,3,11,3,19,19,3,11,19,19,3,29,11,48,3,11,29,11,19,46,11,35,3,11,42,24,29,35,14,19,29,49,42,11,34,29,11,25,54,19,39,25,29,11,19,3,30,24,11,24,19,50,38,49,32,19,33,11,0,0,0,0,0,0,0,0,0,0,0,0,0,0,0,0,0,0,0,0,0,0,0,0,0,0,0,0,0,0,0,0,0,0,0,0,0,0,0,0,0,0,0,0,0,0,0,0,0,0,0,0,0,0,0,0,0,0,0,0,0,0,0,0],"split_type":[0,0,0,0,0,0,0,0,0,0,0,0,0,0,0,0,0,0,0,0,0,0,0,0,0,0,0,0,0,0,0,0,0,0,0,0,0,0,0,0,0,0,0,0,0,0,0,0,0,0,0,0,0,0,0,0,0,0,0,0,0,0,0,0,0,0,0,0,0,0,0,0,0,0,0,0,0,0,0,0,0,0,0,0,0,0,0,0,0,0,0,0,0,0,0,0,0,0,0,0,0,0,0,0,0,0,0,0,0,0,0,0,0,0,0,0,0,0,0,0,0,0,0,0,0,0,0],"sum_hessian":[2.341798E6,1.060433E6,1.281365E6,4.49648E5,6.10785E5,4.72852E5,8.08513E5,1.86476E5,2.63172E5,2.9834E5,3.12445E5,3.98733E5,7.4119E4,4.18118E5,3.90395E5,8.2354E4,1.04122E5,1.64331E5,9.8841E4,1.33101E5,1.65239E5,2.55356E5,5.7089E4,3.3094E5,6.7793E4,2.9415E4,4.4704E4,1.54824E5,2.63294E5,1.77312E5,2.13083E5,4.0223E4,4.2131E4,3.341E3,1.00781E5,5.4974E4,1.09357E5,6.8468E4,3.0373E4,2.4687E4,1.08414E5,1.42156E5,2.3083E4,2.8407E4,2.26949E5,2.8896E4,2.8193E4,6.078E4,2.7016E5,4.5127E4,2.2666E4,1.2097E4,1.7318E4,1.9056E4,2.5648E4,5.0856E4,1.03968E5,1.76664E5,8.663E4,1.73594E5,3.718E3,5.4472E4,1.58611E5,1.041E3,3.9182E4,1.4483E4,2.7648E4,1.856E3,1.485E3,3.9745E4,6.1036E4,1.597E3,5.3377E4,9.7374E4,1.1983E4,2.7209E4,4.1259E4,1.017E4,2.0203E4,1.7062E4,7.625E3,5.121E3,1.03293E5,7.5408E4,6.6748E4,3.973E3,1.911E4,1.4891E4,1.3516E4,1.01428E5,1.25521E5,2.5248E4,3.648E3,2.315E3,2.5878E4,6.161E3,5.4619E4,1.40512E5,1.29648E5,1.8226E4,2.6901E4,1.3372E4,9.294E3,2.33E2,1.1864E4,6.744E3,1.0574E4,1.4119E4,4.937E3,9.069E3,1.6579E4,9.29E3,4.1566E4,7.7286E4,2.6682E4,1.4356E4,1.62308E5,7.658E4,1.005E4,1.63777E5,9.817E3,2.074E3,1.644E3,2.0607E4,3.3865E4,1.09747E5,4.8864E4],"tree_param":{"num_deleted":"0","num_feature":"55","num_nodes":"127","size_leaf_vector":"1"}},{"base_weights":[-4.929342E-5,-9.960583E0,6.1660495E0,-1.6380966E1,-6.7833934E0,1.8956752E0,1.0312124E1,-2.0319845E1,-1.39013195E1,-9.957941E0,-4.670455E0,-1.6318948E0,4.062211E0,6.8814344E0,1.2293864E1,-2.3148584E1,-1.8910448E1,-1.4337216E1,-4.0923204E0,-3.7189713E0,-1.1188173E1,-6.011206E0,-1.5854181E0,8.808691E-2,-4.9721684E0,2.2624242E0,6.2340107E0,-2.4034624E0,7.990548E0,1.051419E1,1.4028139E1,-7.4534464E0,-2.3465466E1,-1.9219687E1,-8.761729E0,-3.4923418E0,-1.4670625E1,-1.1361646E1,3.0330365E0,-7.3217416E0,6.476232E0,-1.676742E1,-1.0393083E1,-1.0059766E0,-6.6502185E0,-3.421946E0,1.996225E0,2.7177289E0,-1.6089344E0,-1.0197058E1,-2.2033246E0,3.0131888E0,-2.2595725E0,1.3833796E1,5.5132556E0,-7.415968E0,1.3913851E0,6.758678E0,1.2319225E1,1.1180661E1,6.642879E0,1.1195567E1,1.4896464E1,-5.253603E0,3.8471323E-1,-7.611253E0,-6.6312137E0,-4.8853235E0,-6.0021977E0,-5.8682694E0,-1.4260017E0,-3.730044E0,1.4680084E0,-5.109369E0,-4.072996E0,-1.9615464E0,-4.44263E0,1.4640242E-1,6.7507653E0,-3.3259733E0,-1.3275228E0,-4.1754836E-1,3.1777945E0,-3.7878408E0,-6.3899055E0,-1.6263365E0,-3.3003654E0,4.4459507E-1,-8.3643717E-1,-2.3263168E0,-1.509344E0,-1.4357398E0,3.626511E-1,3.6639853E0,3.1689054E-1,2.272162E0,1.4025855E-1,-9.75346E-1,3.0271977E-1,-5.499155E0,-2.7204673E0,-9.811532E-2,-1.3800049E0,2.6627576E-1,1.408357E0,-2.9733746E0,-2.9655E-1,5.1798077E0,2.149369E0,1.2642374E0,2.3893852E0,-2.9231272E0,-1.4759653E0,2.098564E0,-9.054256E-1,6.16595E-1,2.285857E0,2.198532E0,4.0169687E0,5.830918E-1,3.422371E0,2.1742551E0,-6.612669E-1,4.55812E0,2.9953723E0,1.2871099E0,4.5712767E0],"categories":[],"categories_nodes":[],"categories_segments":[],"categories_sizes":[],"default_left":[0,0,0,0,0,0,0,0,0,0,0,0,0,0,0,0,0,0,0,0,0,0,0,0,0,0,0,0,0,0,0,0,0,0,0,0,0,0,0,0,0,0,0,0,0,0,0,0,0,0,0,0,0,0,0,0,0,0,0,0,0,0,0,0,0,0,0,0,0,0,0,0,0,0,0,0,0,0,0,0,0,0,0,0,0,0,0,0,0,0,0,0,0,0,0,0,0,0,0,0,0,0,0,0,0,0,0,0,0,0,0,0,0,0,0,0,0,0,0,0,0,0,0,0,0,0,0],"id":2,"left_children":[1,3,5,7,9,11,13,15,17,19,21,23,25,27,29,31,33,35,37,39,41,43,45,47,49,51,53,55,57,59,61,63,65,67,69,71,73,75,77,79,81,83,85,87,89,91,93,95,97,99,101,103,105,107,109,111,113,115,117,119,121,123,125,-1,-1,-1,-1,-1,-1,-1,-1,-1,-1,-1,-1,-1,-1,-1,-1,-1,-1,-1,-1,-1,-1,-1,-1,-1,-1,-1,-1,-1,-1,-1,-1,-1,-1,-1,-1,-1,-1,-1,-1,-1,-1,-1,-1,-1,-1,-1,-1,-1,-1,-1,-1,-1,-1,-1,-1,-1,-1,-1,-1,-1,-1,-1,-1],"loss_changes":[1.438278E8,1.8264936E7,2.5608928E7,2.894792E6,4.017732E6,5.445524E6,4.989376E6,4.56092E5,7.77712E5,1.837146E6,1.487504E6,1.557561E6,1.7253825E6,2.767195E6,1.435584E6,1.89198E5,2.39714E5,6.29684E5,4.0099144E5,1.4482028E6,8.86744E5,8.01772E5,7.166371E5,7.9861494E5,1.3330882E6,8.1949125E5,1.0956265E6,5.454384E5,1.279882E6,5.92284E5,5.79284E5,6.636417E4,9.6254E4,1.71158E5,9.782286E4,3.8964512E5,4.3612E5,6.3614062E4,1.9373134E5,3.1764938E5,3.334513E5,4.677835E5,5.29076E5,1.2584742E5,3.97374E5,4.5485662E5,3.5462556E5,7.670054E5,4.676285E5,2.928835E5,2.7085275E5,7.3983275E5,3.342672E5,3.9649725E5,5.818255E5,7.1739E4,4.0328688E5,7.56563E5,2.840475E5,4.11104E5,1.8040488E5,2.674955E5,6.52296E5,0E0,0E0,0E0,0E0,0E0,0E0,0E0,0E0,0E0,0E0,0E0,0E0,0E0,0E0,0E0,0E0,0E0,0E0,0E0,0E0,0E0,0E0,0E0,0E0,0E0,0E0,0E0,0E0,0E0,0E0,0E0,0E0,0E0,0E0,0E0,0E0,0E0,0E0,0E0,0E0,0E0,0E0,0E0,0E0,0E0,0E0,0E0,0E0,0E0,0E0,0E0,0E0,0E0,0E0,0E0,0E0,0E0,0E0,0E0,0E0,0E0,0E0,0E0,0E0],"parents":[2147483647,0,0,1,1,2,2,3,3,4,4,5,5,6,6,7,7,8,8,9,9,10,10,11,11,12,12,13,13,14,14,15,15,16,16,17,17,18,18,19,19,20,20,21,21,22,22,23,23,24,24,25,25,26,26,27,27,28,28,29,29,30,30,31,31,32,32,33,33,34,34,35,35,36,36,37,37,38,38,39,39,40,40,41,41,42,42,43,43,44,44,45,45,46,46,47,47,48,48,49,49,50,50,51,51,52,52,53,53,54,54,55,55,56,56,57,57,58,58,59,59,60,60,61,61,62,62],"right_children":[2,4,6,8,10,12,14,16,18,20,22,24,26,28,30,32,34,36,38,40,42,44,46,48,50,52,54,56,58,60,62,64,66,68,70,72,74,76,78,80,82,84,86,88,90,92,94,96,98,100,102,104,106,108,110,112,114,116,118,120,122,124,126,-1,-1,-1,-1,-1,-1,-1,-1,-1,-1,-1,-1,-1,-1,-1,-1,-1,-1,-1,-1,-1,-1,-1,-1,-1,-1,-1,-1,-1,-1,-1,-1,-1,-1,-1,-1,-1,-1,-1,-1,-1,-1,-1,-1,-1,-1,-1,-1,-1,-1,-1,-1,-1,-1,-1,-1,-1,-1,-1,-1,-1,-1,-1,-1],"split_conditions":[5.7E1,3.5833332E1,7.75E1,2.6333334E1,4.3833332E1,6.2833332E1,8.1E1,1.9166666E1,6.7333336E1,-2.361655E1,5.9833332E1,6.73E2,7.2666664E1,-2.01E2,8.9E1,1.9328351E0,7.1E1,3.382091E0,8.131105E1,5.5833332E1,2.8166666E1,1.9814142E1,6.2166668E1,1.6008667E1,4.9E1,3.8140945E1,-5.18051E1,-3.33E2,1.3567784E2,2.4210604E1,2.7E1,-1.6710368E0,1.5666667E1,7.2E1,8.131105E1,-1.4842627E0,2.7333334E1,1.43E2,3.0535557E1,-3.588478E1,-3.588478E1,3.0304255E1,1.2696596E1,-1.8369701E-16,3.72E2,8.131105E1,-4.6020798E1,4.6454998E1,2.1961248E1,3.25E1,6.423042E1,6.7E1,4.25E1,7.8986084E1,8.05E1,6E1,2.11E1,6.1666668E1,-1.5257534E1,4.75E1,5.800958E0,-2.6227016E1,5.2833332E1,-5.253603E0,3.8471323E-1,-7.611253E0,-6.6312137E0,-4.8853235E0,-6.0021977E0,-5.8682694E0,-1.4260017E0,-3.730044E0,1.4680084E0,-5.109369E0,-4.072996E0,-1.9615464E0,-4.44263E0,1.4640242E-1,6.7507653E0,-3.3259733E0,-1.3275228E0,-4.1754836E-1,3.1777945E0,-3.7878408E0,-6.3899055E0,-1.6263365E0,-3.3003654E0,4.4459507E-1,-8.3643717E-1,-2.3263168E0,-1.509344E0,-1.4357398E0,3.626511E-1,3.6639853E0,3.1689054E-1,2.272162E0,1.4025855E-1,-9.75346E-1,3.0271977E-1,-5.499155E0,-2.7204673E0,-9.811532E-2,-1.3800049E0,2.6627576E-1,1.408357E0,-2.9733746E0,-2.9655E-1,5.1798077E0,2.149369E0,1.2642374E0,2.3893852E0,-2.9231272E0,-1.4759653E0,2.098564E0,-9.054256E-1,6.16595E-1,2.285857E0,2.198532E0,4.0169687E0,5.830918E-1,3.422371E0,2.1742551E0,-6.612669E-1,4.55812E0,2.9953723E0,1.2871099E0,4.5712767E0],"split_indices":[3,11,3,3,3,11,11,19,19,25,19,42,19,24,3,29,19,29,39,11,3,28,11,49,11,50,38,24,46,49,24,6,11,24,39,22,11,42,45,32,32,26,39,52,24,39,25,33,49,11,41,3,19,34,11,11,12,11,26,19,6,32,19,0,0,0,0,0,0,0,0,0,0,0,0,0,0,0,0,0,0,0,0,0,0,0,0,0,0,0,0,0,0,0,0,0,0,0,0,0,0,0,0,0,0,0,0,0,0,0,0,0,0,0,0,0,0,0,0,0,0,0,0,0,0,0,0],"split_type":[0,0,0,0,0,0,0,0,0,0,0,0,0,0,0,0,0,0,0,0,0,0,0,0,0,0,0,0,0,0,0,0,0,0,0,0,0,0,0,0,0,0,0,0,0,0,0,0,0,0,0,0,0,0,0,0,0,0,0,0,0,0,0,0,0,0,0,0,0,0,0,0,0,0,0,0,0,0,0,0,0,0,0,0,0,0,0,0,0,0,0,0,0,0,0,0,0,0,0,0,0,0,0,0,0,0,0,0,0,0,0,0,0,0,0,0,0,0,0,0,0,0,0,0,0,0,0],"sum_hessian":[2.341798E6,8.95398E5,1.4464E6,2.96412E5,5.98986E5,7.1252E5,7.3388E5,1.14509E5,1.81903E5,2.3936E5,3.59626E5,2.71105E5,4.41415E5,2.68709E5,4.65171E5,3.8075E4,7.6434E4,1.74163E5,7.74E3,3.9425E4,1.99935E5,2.5068E5,1.08946E5,1.78957E5,9.2148E4,2.41382E5,2.00033E5,2.8673E4,2.40036E5,2.29584E5,2.35587E5,7.54E2,3.7321E4,7.4173E4,2.261E3,5.195E3,1.68968E5,3.831E3,3.909E3,2.9131E4,1.0294E4,2.4936E4,1.74999E5,2.8381E4,2.22299E5,7.2018E4,3.6928E4,7.0191E4,1.08766E5,3.1917E4,6.0231E4,2.07013E5,3.4369E4,1.7326E4,1.82707E5,1.2354E4,1.6319E4,1.86861E5,5.3175E4,1.95863E5,3.3721E4,5.5278E4,1.80309E5,3.5E2,4.04E2,1.5546E4,2.1775E4,1.5697E4,5.8476E4,6.11E2,1.65E3,2.514E3,2.681E3,5.3503E4,1.15465E5,1.598E3,2.233E3,3.458E3,4.51E2,1.2666E4,1.6465E4,3.536E3,6.758E3,1.3032E4,1.1904E4,1.9073E4,1.55926E5,1.1845E4,1.6536E4,1.32163E5,9.0136E4,5.5633E4,1.6385E4,3.11E3,3.3818E4,2.2225E4,4.7966E4,6.6839E4,4.1927E4,3.888E3,2.8029E4,3.3784E4,2.6447E4,9.1428E4,1.15585E5,4.895E3,2.9474E4,1.1438E4,5.888E3,1.19421E5,6.3286E4,6.391E3,5.963E3,7.186E3,9.133E3,2.891E4,1.57951E5,9.394E3,4.3781E4,4.703E3,1.9116E5,3.1564E4,2.157E3,1.2848E4,4.243E4,5.619E3,1.7469E5],"tree_param":{"num_deleted":"0","num_feature":"55","num_nodes":"127","size_leaf_vector":"1"}},{"base_weights":[-5.1524057E-5,-5.55504E0,5.5329766E0,-9.5710535E0,-2.241581E0,3.090481E0,7.8772807E0,-1.2649419E1,-7.211264E0,-5.0328774E0,-9.6810883E-1,3.792098E0,-1.5812049E0,6.3498745E0,9.599037E0,-1.5501119E1,-1.147854E1,-1.1728971E1,-6.697526E0,3.4439027E0,-5.6977787E0,-3.001744E0,4.6927392E-1,2.5707188E0,6.477297E0,-5.2305694E0,9.9688417E-1,3.1837811E0,6.994377E0,8.980401E0,1.2585086E1,-1.25184555E1,-1.6283182E1,-1.0922443E1,-1.5195968E1,-1.6895655E1,-1.10824175E1,-8.021073E0,-4.8614535E0,-3.6541643E0,5.3874373E0,-1.0072623E1,-4.815317E0,-3.9967367E-1,-3.753861E0,-4.304992E-2,5.1270514E0,1.952286E0,7.888988E0,4.5574803E0,1.0113949E1,1.0149565E1,-5.5436487E0,5.4616356E0,-1.8338598E0,5.481868E0,-1.8302538E0,4.512118E0,7.9214563E0,7.6809807E0,1.056301E1,1.35526905E1,6.261623E0,-3.9598525E0,9.3117404E-1,-5.6321373E0,-4.627561E0,-3.5069973E0,-2.494135E0,-4.8545437E0,-4.0031543E0,-4.607425E0,-5.820282E0,-3.141028E0,-4.6440153E0,2.4619634E-1,-2.5559547E0,-1.682738E0,1.0341347E0,8.971644E-1,-1.7744442E0,2.721665E0,6.7587864E-1,6.52475E-2,-3.3523633E0,-1.7593015E0,-4.455077E-1,4.7078446E-1,-1.0512528E0,-1.0190567E0,-2.5336254E0,-8.440276E-2,2.8594477E0,1.9566704E0,-2.060933E0,9.998461E-1,-5.9402384E-2,3.3916705E0,1.641769E0,2.6916373E0,1.064768E0,3.6615403E0,2.4598715E0,2.3649013E0,5.0181627E0,-2.7572932E0,-1.328668E0,2.0768507E0,8.0681735E-1,5.281702E-1,-9.228566E-1,1.2039267E0,3.441474E0,-3.285502E0,2.403877E-1,5.681952E-1,1.9534084E0,2.4546683E0,8.957989E-1,2.4027681E0,-1.7123898E0,2.91679E0,3.575045E0,3.685519E0,4.4522533E0,-5.4925156E-1,2.9841833E0],"categories":[],"categories_nodes":[],"categories_segments":[],"categories_sizes":[],"default_left":[0,0,0,0,0,0,0,0,0,0,0,0,0,0,0,0,0,0,0,0,0,0,0,0,0,0,0,0,0,0,0,0,0,0,0,0,0,0,0,0,0,0,0,0,0,0,0,0,0,0,0,0,0,0,0,0,0,0,0,0,0,0,0,0,0,0,0,0,0,0,0,0,0,0,0,0,0,0,0,0,0,0,0,0,0,0,0,0,0,0,0,0,0,0,0,0,0,0,0,0,0,0,0,0,0,0,0,0,0,0,0,0,0,0,0,0,0,0,0,0,0,0,0,0,0,0,0],"id":3,"left_children":[1,3,5,7,9,11,13,15,17,19,21,23,25,27,29,31,33,35,37,39,41,43,45,47,49,51,53,55,57,59,61,63,65,67,69,71,73,75,77,79,81,83,85,87,89,91,93,95,97,99,101,103,105,107,109,111,113,115,117,119,121,123,125,-1,-1,-1,-1,-1,-1,-1,-1,-1,-1,-1,-1,-1,-1,-1,-1,-1,-1,-1,-1,-1,-1,-1,-1,-1,-1,-1,-1,-1,-1,-1,-1,-1,-1,-1,-1,-1,-1,-1,-1,-1,-1,-1,-1,-1,-1,-1,-1,-1,-1,-1,-1,-1,-1,-1,-1,-1,-1,-1,-1,-1,-1,-1,-1],"loss_changes":[7.197734E7,1.5550164E7,6.717772E6,3.83752E6,2.2760232E6,1.8833195E6,1.574264E6,7.65248E5,6.93985E5,1.130657E6,1.285285E6,1.6383405E6,7.058788E5,6.47299E5,5.1974E5,1.55436E5,3.35794E5,1.01809E5,6.52488E5,2.0130752E5,7.180755E5,3.5634612E5,6.147445E5,1.129329E6,1.0903775E6,1.4961656E5,5.5568994E5,6.1827125E5,6.06513E5,4.79326E5,2.954075E5,1.4755975E5,1.12665E5,2.8297E5,3.83925E4,1.2775875E4,7.292025E4,6.88121E5,6.987675E5,4.7139723E4,1.3228447E5,3.540255E5,5.4076075E5,2.4958403E5,2.3655925E5,5.295214E5,4.2732644E5,9.1313675E5,2.9524375E5,4.549665E5,2.15927E5,9.11148E3,1.23728625E5,6.908809E4,1.2016202E5,3.2364275E5,4.0480266E5,3.7515E5,2.46955E5,5.62669E5,1.19463E5,6.821E4,1.912328E5,0E0,0E0,0E0,0E0,0E0,0E0,0E0,0E0,0E0,0E0,0E0,0E0,0E0,0E0,0E0,0E0,0E0,0E0,0E0,0E0,0E0,0E0,0E0,0E0,0E0,0E0,0E0,0E0,0E0,0E0,0E0,0E0,0E0,0E0,0E0,0E0,0E0,0E0,0E0,0E0,0E0,0E0,0E0,0E0,0E0,0E0,0E0,0E0,0E0,0E0,0E0,0E0,0E0,0E0,0E0,0E0,0E0,0E0,0E0,0E0,0E0,0E0,0E0,0E0],"parents":[2147483647,0,0,1,1,2,2,3,3,4,4,5,5,6,6,7,7,8,8,9,9,10,10,11,11,12,12,13,13,14,14,15,15,16,16,17,17,18,18,19,19,20,20,21,21,22,22,23,23,24,24,25,25,26,26,27,27,28,28,29,29,30,30,31,31,32,32,33,33,34,34,35,35,36,36,37,37,38,38,39,39,40,40,41,41,42,42,43,43,44,44,45,45,46,46,47,47,48,48,49,49,50,50,51,51,52,52,53,53,54,54,55,55,56,56,57,57,58,58,59,59,60,60,61,61,62,62],"right_children":[2,4,6,8,10,12,14,16,18,20,22,24,26,28,30,32,34,36,38,40,42,44,46,48,50,52,54,56,58,60,62,64,66,68,70,72,74,76,78,80,82,84,86,88,90,92,94,96,98,100,102,104,106,108,110,112,114,116,118,120,122,124,126,-1,-1,-1,-1,-1,-1,-1,-1,-1,-1,-1,-1,-1,-1,-1,-1,-1,-1,-1,-1,-1,-1,-1,-1,-1,-1,-1,-1,-1,-1,-1,-1,-1,-1,-1,-1,-1,-1,-1,-1,-1,-1,-1,-1,-1,-1,-1,-1,-1,-1,-1,-1,-1,-1,-1,-1,-1,-1,-1,-1,-1,-1,-1,-1],"split_conditions":[6.5166664E1,4.5166668E1,7.9166664E1,3.375E1,4.9833332E1,1.967429E1,8.7666664E1,2.1E1,-2.01E2,3.382091E0,5.7333332E1,7.95E1,5.85E1,7.0166664E1,7.11E2,2.7E1,4.359094E1,2.4833334E1,4.6833332E1,2.03E1,3.1333334E1,2.3819742E1,8.5166664E1,1.3657826E2,1.11096146E2,1.28E2,6.505509E1,3.4629234E1,1.3E1,9.1333336E1,1.0814242E2,4.3833332E1,1.4E1,4.15E1,7.4E1,-2.53E2,2.0932286E0,3.382091E0,1.4845663E2,9.544883E0,6E0,-1.98E2,1.0858342E2,1.43E2,4.676443E1,2.8620892E2,9.769132E1,3.7704357E1,3.5830997E1,3.382091E0,5.3436337E1,7.8166664E1,4.4833332E1,1.12E2,4.694067E1,1.3424174E2,4.4666668E1,6.1037273E1,1.3421718E2,7.02E2,8.221257E1,2.8666666E0,-2.843592E-1,-3.9598525E0,9.3117404E-1,-5.6321373E0,-4.627561E0,-3.5069973E0,-2.494135E0,-4.8545437E0,-4.0031543E0,-4.607425E0,-5.820282E0,-3.141028E0,-4.6440153E0,2.4619634E-1,-2.5559547E0,-1.682738E0,1.0341347E0,8.971644E-1,-1.7744442E0,2.721665E0,6.7587864E-1,6.52475E-2,-3.3523633E0,-1.7593015E0,-4.455077E-1,4.7078446E-1,-1.0512528E0,-1.0190567E0,-2.5336254E0,-8.440276E-2,2.8594477E0,1.9566704E0,-2.060933E0,9.998461E-1,-5.9402384E-2,3.3916705E0,1.641769E0,2.6916373E0,1.064768E0,3.6615403E0,2.4598715E0,2.3649013E0,5.0181627E0,-2.7572932E0,-1.328668E0,2.0768507E0,8.0681735E-1,5.281702E-1,-9.228566E-1,1.2039267E0,3.441474E0,-3.285502E0,2.403877E-1,5.681952E-1,1.9534084E0,2.4546683E0,8.957989E-1,2.4027681E0,-1.7123898E0,2.91679E0,3.575045E0,3.685519E0,4.4522533E0,-5.4925156E-1,2.9841833E0],"split_indices":[3,11,11,3,19,48,3,3,24,29,11,19,11,19,24,24,49,11,19,5,19,33,11,26,40,30,29,50,24,19,27,19,3,19,24,24,15,29,37,27,24,24,43,36,50,26,27,27,41,41,41,3,11,24,28,44,19,33,27,24,46,1,54,0,0,0,0,0,0,0,0,0,0,0,0,0,0,0,0,0,0,0,0,0,0,0,0,0,0,0,0,0,0,0,0,0,0,0,0,0,0,0,0,0,0,0,0,0,0,0,0,0,0,0,0,0,0,0,0,0,0,0,0,0,0,0,0],"split_type":[0,0,0,0,0,0,0,0,0,0,0,0,0,0,0,0,0,0,0,0,0,0,0,0,0,0,0,0,0,0,0,0,0,0,0,0,0,0,0,0,0,0,0,0,0,0,0,0,0,0,0,0,0,0,0,0,0,0,0,0,0,0,0,0,0,0,0,0,0,0,0,0,0,0,0,0,0,0,0,0,0,0,0,0,0,0,0,0,0,0,0,0,0,0,0,0,0,0,0,0,0,0,0,0,0,0,0,0,0,0,0,0,0,0,0,0,0,0,0,0,0,0,0,0,0,0,0],"sum_hessian":[2.341798E6,1.16858E6,1.173218E6,5.28283E5,6.40297E5,5.74577E5,5.98641E5,2.29237E5,2.99046E5,2.00601E5,4.39696E5,4.99552E5,7.5025E4,3.17227E5,2.81414E5,6.6722E4,1.62515E5,3.0532E4,2.68514E5,1.459E4,1.86011E5,1.82082E5,2.57614E5,3.4337E5,1.56182E5,3.1059E4,4.3966E4,5.3655E4,2.63572E5,2.33121E5,4.8293E4,1.3864E4,5.2858E4,1.41371E5,2.1144E4,3.393E3,2.7139E4,1.56033E5,1.12481E5,3.136E3,1.1454E4,3.1221E4,1.5479E5,4.0829E4,1.41253E5,2.32087E5,2.5527E4,3.07602E5,3.5768E4,1.02221E5,5.3961E4,6.19E2,3.044E4,1.7059E4,2.6907E4,3.6792E4,1.6863E4,7.1673E4,1.91899E5,1.28017E5,1.05104E5,4.1883E4,6.41E3,1.3285E4,5.79E2,1.3538E4,3.932E4,1.09229E5,3.2142E4,1.3794E4,7.35E3,2.107E3,1.286E3,2.3825E4,3.314E3,8.332E3,1.47701E5,1.03195E5,9.286E3,7.96E2,2.34E3,5.264E3,6.19E3,3.02E3,2.8201E4,1.17711E5,3.7079E4,2.4984E4,1.5845E4,1.31266E5,9.987E3,2.26452E5,5.635E3,2.2868E4,2.659E3,1.87331E5,1.20271E5,1.4816E4,2.0952E4,1.9004E4,8.3217E4,2.5787E4,2.8174E4,4.62E2,1.57E2,7.124E3,2.3316E4,1.117E4,5.889E3,6.911E3,1.9996E4,2.9548E4,7.244E3,3.775E3,1.3088E4,3.1034E4,4.0639E4,1.82268E5,9.631E3,1.24954E5,3.063E3,6.4854E4,4.025E4,2.1115E4,2.0768E4,2.006E3,4.404E3],"tree_param":{"num_deleted":"0","num_feature":"55","num_nodes":"127","size_leaf_vector":"1"}},{"base_weights":[-3.8670656E-5,-5.366982E0,2.899129E0,-8.46016E0,-3.772593E0,4.114163E-2,4.6470094E0,2.3145175E0,-8.779288E0,-4.9667535E0,-1.820103E0,-6.0958785E-1,2.9577081E0,2.6963983E0,5.9416747E0,-8.131167E0,6.91275E0,-1.1038401E1,-7.5493097E0,-5.902624E0,-3.3553216E0,-1.104381E0,-6.667902E0,-3.939261E0,2.8495526E-1,-3.8479958E0,3.802175E0,-1.7199327E-1,3.3054574E0,4.5595317E0,6.889944E0,-1.0549789E1,-7.584983E-1,1.0429473E1,6.157491E-1,-1.2592259E1,-1.0300168E1,1.2249854E0,-7.867028E0,-8.900243E0,-5.076395E0,-3.8554754E0,6.8459716E0,-1.7356509E0,5.053048E0,-8.679121E0,3.3113105E0,-4.3556404E0,1.15164175E1,1.530955E0,-7.554226E-1,-5.5333667E0,-1.6812805E0,5.6172986E0,3.5940963E-1,1.1620736E1,-7.326568E-1,4.2360334E0,2.0192304E0,6.8986177E0,3.3249607E0,5.090451E0,7.5371623E0,-4.2926836E0,-2.3333359E0,3.1739864E0,-1.1055752E0,4.040259E0,1.4631102E0,1.0868962E0,-1.3740466E0,-2.025079E0,-3.8309665E0,-1.568745E0,-3.1373413E0,4.1678667E0,-1.513352E0,-1.2782366E0,-2.510055E0,-2.801477E0,-1.2456281E0,-1.6159176E0,-8.904058E-2,2.0011587E-2,-1.3774606E0,3.3267567E0,-1.1279378E0,-1.13040105E-1,-9.8376036E-1,2.723421E0,-1.7756274E-1,-4.4325457E0,-2.060433E0,-2.4281125E-1,1.7462262E0,4.1521736E-3,-1.7950314E0,9.978832E-1,4.6233954E0,8.143152E-1,-2.06479E-2,-6.480944E-1,2.3188846E-1,-1.8693368E0,-8.244705E-1,-3.8686553E-1,-1.6388478E0,1.1402296E0,2.1987426E0,7.653446E-1,-5.904286E-1,5.5504045E0,2.9530988E0,-3.7545994E-1,3.2368379E0,1.0579841E0,1.8785923E0,-1.1229156E0,7.196281E-1,1.6010174E0,3.1139295E0,1.2823802E0,1.13795474E-1,1.3487022E0,2.7015102E0,1.8118045E0,2.5042377E0],"categories":[],"categories_nodes":[],"categories_segments":[],"categories_sizes":[],"default_left":[0,0,0,0,0,0,0,0,0,0,0,0,0,0,0,0,0,0,0,0,0,0,0,0,0,0,0,0,0,0,0,0,0,0,0,0,0,0,0,0,0,0,0,0,0,0,0,0,0,0,0,0,0,0,0,0,0,0,0,0,0,0,0,0,0,0,0,0,0,0,0,0,0,0,0,0,0,0,0,0,0,0,0,0,0,0,0,0,0,0,0,0,0,0,0,0,0,0,0,0,0,0,0,0,0,0,0,0,0,0,0,0,0,0,0,0,0,0,0,0,0,0,0,0,0,0,0],"id":4,"left_children":[1,3,5,7,9,11,13,15,17,19,21,23,25,27,29,31,33,35,37,39,41,43,45,47,49,51,53,55,57,59,61,63,65,67,69,71,73,75,77,79,81,83,85,87,89,91,93,95,97,99,101,103,105,107,109,111,113,115,117,119,121,123,125,-1,-1,-1,-1,-1,-1,-1,-1,-1,-1,-1,-1,-1,-1,-1,-1,-1,-1,-1,-1,-1,-1,-1,-1,-1,-1,-1,-1,-1,-1,-1,-1,-1,-1,-1,-1,-1,-1,-1,-1,-1,-1,-1,-1,-1,-1,-1,-1,-1,-1,-1,-1,-1,-1,-1,-1,-1,-1,-1,-1,-1,-1,-1,-1],"loss_changes":[3.6437628E7,4.050586E6,7.595347E6,9.60606E5,1.2636575E6,1.0950896E6,2.382592E6,3.8608684E5,7.5384E5,5.07144E5,7.136462E5,1.4051195E6,6.049296E5,6.5755225E5,7.43204E5,4.3804484E4,1.2358375E5,1.09587E5,4.89765E5,5.268525E5,6.304356E5,6.966525E5,5.310909E5,6.429494E5,4.8203288E5,4.2420016E4,5.851335E5,4.3587512E5,3.715945E5,6.663385E5,3.91668E5,1.9166438E4,2.0215373E4,6.0340875E4,3.1282857E4,3.1876E4,5.1781E4,4.8771694E5,3.0556E5,9.55595E4,2.47102E5,3.4003225E5,2.599315E5,3.4095878E5,3.786725E5,2.4302112E5,4.59067E4,6.9191675E5,8.355806E4,3.2034178E5,4.3512612E5,1.2682609E4,7.5255723E3,1.9062612E5,1.649091E5,3.6402062E4,3.7625578E5,2.5887575E5,2.8503312E5,4.33375E5,4.2249688E5,2.0710875E5,3.00161E5,0E0,0E0,0E0,0E0,0E0,0E0,0E0,0E0,0E0,0E0,0E0,0E0,0E0,0E0,0E0,0E0,0E0,0E0,0E0,0E0,0E0,0E0,0E0,0E0,0E0,0E0,0E0,0E0,0E0,0E0,0E0,0E0,0E0,0E0,0E0,0E0,0E0,0E0,0E0,0E0,0E0,0E0,0E0,0E0,0E0,0E0,0E0,0E0,0E0,0E0,0E0,0E0,0E0,0E0,0E0,0E0,0E0,0E0,0E0,0E0,0E0,0E0,0E0,0E0],"parents":[2147483647,0,0,1,1,2,2,3,3,4,4,5,5,6,6,7,7,8,8,9,9,10,10,11,11,12,12,13,13,14,14,15,15,16,16,17,17,18,18,19,19,20,20,21,21,22,22,23,23,24,24,25,25,26,26,27,27,28,28,29,29,30,30,31,31,32,32,33,33,34,34,35,35,36,36,37,37,38,38,39,39,40,40,41,41,42,42,43,43,44,44,45,45,46,46,47,47,48,48,49,49,50,50,51,51,52,52,53,53,54,54,55,55,56,56,57,57,58,58,59,59,60,60,61,61,62,62],"right_children":[2,4,6,8,10,12,14,16,18,20,22,24,26,28,30,32,34,36,38,40,42,44,46,48,50,52,54,56,58,60,62,64,66,68,70,72,74,76,78,80,82,84,86,88,90,92,94,96,98,100,102,104,106,108,110,112,114,116,118,120,122,124,126,-1,-1,-1,-1,-1,-1,-1,-1,-1,-1,-1,-1,-1,-1,-1,-1,-1,-1,-1,-1,-1,-1,-1,-1,-1,-1,-1,-1,-1,-1,-1,-1,-1,-1,-1,-1,-1,-1,-1,-1,-1,-1,-1,-1,-1,-1,-1,-1,-1,-1,-1,-1,-1,-1,-1,-1,-1,-1,-1,-1,-1,-1,-1,-1],"split_conditions":[5.4666668E1,3.65E1,6.9E1,1.9328351E0,4.9833332E1,1.4415039E2,7.9666664E1,-8.1688184E-1,2.55E1,9.294143E1,9.769132E1,5.05E1,-1.32E2,6.0833332E1,8.4166664E1,2.96E1,8.332127E-3,1.7E1,-3.33E2,3.2833332E1,8E1,7.95E1,2.8620892E2,1.7581284E2,3E2,5.6333332E1,2.26E1,1.1402432E1,-5.967944E-1,7.2E1,2.2E1,7.2E1,-5.601686E-1,-1.8369701E-16,3.8963044E-1,-3.955158E1,-3.955158E1,2.75E0,-1.98E2,1.3567784E2,2.015357E2,2.8944548E1,1.1470509E0,3.32E2,2.076822E1,3.8E1,3.717914E0,7.5004067E0,5.6333332E1,1.19E2,3E2,6.0833332E1,-2.53E2,6.0833332E1,2.7063612E1,1.62E1,9.5701744E1,3.72E2,-4.327484E1,3.8184444E1,3.4629234E1,7.877632E1,-3.089426E0,-4.2926836E0,-2.3333359E0,3.1739864E0,-1.1055752E0,4.040259E0,1.4631102E0,1.0868962E0,-1.3740466E0,-2.025079E0,-3.8309665E0,-1.568745E0,-3.1373413E0,4.1678667E0,-1.513352E0,-1.2782366E0,-2.510055E0,-2.801477E0,-1.2456281E0,-1.6159176E0,-8.904058E-2,2.0011587E-2,-1.3774606E0,3.3267567E0,-1.1279378E0,-1.13040105E-1,-9.8376036E-1,2.723421E0,-1.7756274E-1,-4.4325457E0,-2.060433E0,-2.4281125E-1,1.7462262E0,4.1521736E-3,-1.7950314E0,9.978832E-1,4.6233954E0,8.143152E-1,-2.06479E-2,-6.480944E-1,2.3188846E-1,-1.8693368E0,-8.244705E-1,-3.8686553E-1,-1.6388478E0,1.1402296E0,2.1987426E0,7.653446E-1,-5.904286E-1,5.5504045E0,2.9530988E0,-3.7545994E-1,3.2368379E0,1.0579841E0,1.8785923E0,-1.1229156E0,7.196281E-1,1.6010174E0,3.1139295E0,1.2823802E0,1.13795474E-1,1.3487022E0,2.7015102E0,1.8118045E0,2.5042377E0],"split_indices":[3,19,11,29,11,46,3,14,11,40,27,11,24,19,19,4,23,11,36,11,19,19,26,37,30,19,4,28,37,42,24,30,15,52,54,31,31,1,24,46,45,33,22,36,47,3,14,48,19,36,24,11,24,19,50,5,47,24,25,25,50,45,31,0,0,0,0,0,0,0,0,0,0,0,0,0,0,0,0,0,0,0,0,0,0,0,0,0,0,0,0,0,0,0,0,0,0,0,0,0,0,0,0,0,0,0,0,0,0,0,0,0,0,0,0,0,0,0,0,0,0,0,0,0,0,0,0],"split_type":[0,0,0,0,0,0,0,0,0,0,0,0,0,0,0,0,0,0,0,0,0,0,0,0,0,0,0,0,0,0,0,0,0,0,0,0,0,0,0,0,0,0,0,0,0,0,0,0,0,0,0,0,0,0,0,0,0,0,0,0,0,0,0,0,0,0,0,0,0,0,0,0,0,0,0,0,0,0,0,0,0,0,0,0,0,0,0,0,0,0,0,0,0,0,0,0,0,0,0,0,0,0,0,0,0,0,0,0,0,0,0,0,0,0,0,0,0,0,0,0,0,0,0,0,0,0,0],"sum_hessian":[2.341798E6,8.21337E5,1.520461E6,2.79361E5,5.41976E5,5.77E5,9.43461E5,8.036E3,2.71325E5,3.36294E5,2.05682E5,4.71747E5,1.05253E5,3.76384E5,5.67077E5,2.456E3,5.58E3,9.5645E4,1.7568E5,2.12739E5,1.23555E5,1.79223E5,2.6459E4,9.9899E4,3.71848E5,1.1618E4,9.3635E4,6.5922E4,3.10462E5,2.30752E5,3.36325E5,1.849E3,6.07E2,3.58E3,2E3,3.08E4,6.4845E4,6.139E3,1.69541E5,4.5965E4,1.66774E5,1.17781E5,5.774E3,1.62558E5,1.6665E4,2.2021E4,4.438E3,9.7279E4,2.62E3,1.69203E5,2.02645E5,6.534E3,5.084E3,6.131E4,3.2325E4,2.991E3,6.2931E4,1.80134E5,1.30328E5,7.9715E4,1.51037E5,8.8969E4,2.47356E5,7.83E2,1.066E3,1.24E2,4.83E2,2.313E3,1.267E3,1.267E3,7.33E2,9.1E2,2.989E4,1.956E3,6.2889E4,2.032E3,4.107E3,2.0639E4,1.48902E5,4.2082E4,3.883E3,1.56616E5,1.0158E4,1.8611E4,9.917E4,4.124E3,1.65E3,8.6452E4,7.6106E4,9.728E3,6.937E3,5.042E3,1.6979E4,1.68E3,2.758E3,2.6404E4,7.0875E4,8.45E2,1.775E3,9.7257E4,7.1946E4,1.05588E5,9.7057E4,5.224E3,1.31E3,4.608E3,4.76E2,2.9747E4,3.1563E4,1.6648E4,1.5677E4,6.12E2,2.379E3,6.022E4,2.711E3,1.33418E5,4.6716E4,8.053E3,1.22275E5,5.5028E4,2.4687E4,1.14215E5,3.6822E4,7.7236E4,1.1733E4,8.6841E4,1.60515E5],"tree_param":{"num_deleted":"0","num_feature":"55","num_nodes":"127","size_leaf_vector":"1"}},{"base_weights":[-2.171284E-5,-2.5678236E0,3.0982013E0,-5.320339E0,-1.1511642E0,2.3025784E0,4.799058E0,-7.7832694E0,-4.6456056E0,-2.3658943E0,-2.1955419E-1,-3.4452775E0,2.5079913E0,5.336827E0,2.5034058E0,1.0546521E0,-7.996386E0,-4.871858E0,3.678413E-1,-2.9032402E0,-4.866561E-1,2.361707E0,-5.8335465E-1,-2.9441519E0,-7.0626497E0,2.175011E0,5.4264035E0,4.651244E0,6.5471807E0,-8.803837E0,3.69898E0,8.878844E0,-4.0741577E0,-9.459863E0,-7.2017007E0,-7.033306E-1,-5.0504513E0,3.969841E0,-8.938289E0,-1.5211949E0,-3.8726313E0,2.0054624E0,-2.2534058E0,5.19174E0,1.9677246E-1,-7.346784E-1,5.618264E0,-3.9767947E0,-6.334643E-1,-1.0066516E1,-5.6252503E0,2.8133085E0,4.8602515E-1,3.1921754E0,8.586479E0,4.8529E0,2.3583527E-1,6.692224E0,2.5768728E0,-1.0624174E1,2.820142E0,2.4061747E0,6.922409E0,-2.505804E0,3.2832246E0,-2.2902918E0,6.47699E-1,-3.4104483E0,-2.6201518E0,-2.4464383E0,-1.5819023E0,8.586888E-1,-1.3772326E0,-1.5573565E0,-1.610947E-1,7.266703E0,8.134123E-1,-1.6670371E0,-4.5735884E0,2.6902235E-1,-8.3927494E-1,-2.115345E0,-1.0591576E0,2.064437E0,-2.6607192E-1,-1.4731325E0,-1.3932063E-1,8.767652E-1,2.2652574E0,-9.5100534E-1,3.6090845E-1,-5.4285884E-1,-2.0084921E-2,3.8795793E0,5.231645E-1,-8.4335864E-1,-1.6669058E0,-3.4851724E-1,4.945654E-1,-1.4358056E0,-3.1106865E0,-1.4750626E0,-3.230055E0,-3.7213716E-1,9.7560316E-1,8.747637E-1,-1.3948278E-1,5.4078716E-1,2.9579897E0,1.049112E0,2.7359881E0,9.739451E-1,1.6341566E0,-1.948904E0,3.6085948E-1,8.1798285E-1,2.0508356E0,-6.058557E-1,1.8613967E0,-5.111858E0,-2.489092E0,-4.770963E0,1.2731193E0,1.5343118E0,-2.6737118E-1,7.7157825E-1,2.195049E0],"categories":[],"categories_nodes":[],"categories_segments":[],"categories_sizes":[],"default_left":[0,0,0,0,0,0,0,0,0,0,0,0,0,0,0,0,0,0,0,0,0,0,0,0,0,0,0,0,0,0,0,0,0,0,0,0,0,0,0,0,0,0,0,0,0,0,0,0,0,0,0,0,0,0,0,0,0,0,0,0,0,0,0,0,0,0,0,0,0,0,0,0,0,0,0,0,0,0,0,0,0,0,0,0,0,0,0,0,0,0,0,0,0,0,0,0,0,0,0,0,0,0,0,0,0,0,0,0,0,0,0,0,0,0,0,0,0,0,0,0,0,0,0,0,0,0,0],"id":5,"left_children":[1,3,5,7,9,11,13,15,17,19,21,23,25,27,29,31,33,35,37,39,41,43,45,47,49,51,53,55,57,59,61,63,65,67,69,71,73,75,77,79,81,83,85,87,89,91,93,95,97,99,101,103,105,107,109,111,113,115,117,119,121,123,125,-1,-1,-1,-1,-1,-1,-1,-1,-1,-1,-1,-1,-1,-1,-1,-1,-1,-1,-1,-1,-1,-1,-1,-1,-1,-1,-1,-1,-1,-1,-1,-1,-1,-1,-1,-1,-1,-1,-1,-1,-1,-1,-1,-1,-1,-1,-1,-1,-1,-1,-1,-1,-1,-1,-1,-1,-1,-1,-1,-1,-1,-1,-1,-1],"loss_changes":[1.8630478E7,4.993197E6,1.436165E6,7.23039E5,9.567049E5,8.537125E5,4.17541E5,1.76241E5,3.874185E5,3.7053875E5,4.4930688E5,4.520572E4,6.783945E5,2.27362E5,8.678758E5,8.848003E4,1.061875E5,2.43287E5,4.9443197E5,3.8229125E5,3.592588E5,3.6211944E5,3.9355144E5,5.2289188E4,1.304775E4,6.7554E5,5.0474375E5,1.5576925E5,5.70455E4,1.2992847E5,2.4192656E5,3.1159008E4,2.957483E4,4.444225E4,1.088075E5,1.8612714E5,1.99053E5,2.7096412E5,8.769775E4,3.6306284E5,1.823445E5,4.7738438E5,2.2695578E5,1.3711312E5,1.1345618E5,2.938083E5,2.830252E5,2.787014E4,8.16313E3,1.5170625E3,7.4317383E3,8.0874125E5,3.9712503E5,3.8804738E5,8.036525E4,1.59703E5,4.9758906E4,5.45325E4,5.8273953E4,7.9106E4,2.224391E4,3.700656E5,2.8498125E4,0E0,0E0,0E0,0E0,0E0,0E0,0E0,0E0,0E0,0E0,0E0,0E0,0E0,0E0,0E0,0E0,0E0,0E0,0E0,0E0,0E0,0E0,0E0,0E0,0E0,0E0,0E0,0E0,0E0,0E0,0E0,0E0,0E0,0E0,0E0,0E0,0E0,0E0,0E0,0E0,0E0,0E0,0E0,0E0,0E0,0E0,0E0,0E0,0E0,0E0,0E0,0E0,0E0,0E0,0E0,0E0,0E0,0E0,0E0,0E0,0E0,0E0,0E0,0E0],"parents":[2147483647,0,0,1,1,2,2,3,3,4,4,5,5,6,6,7,7,8,8,9,9,10,10,11,11,12,12,13,13,14,14,15,15,16,16,17,17,18,18,19,19,20,20,21,21,22,22,23,23,24,24,25,25,26,26,27,27,28,28,29,29,30,30,31,31,32,32,33,33,34,34,35,35,36,36,37,37,38,38,39,39,40,40,41,41,42,42,43,43,44,44,45,45,46,46,47,47,48,48,49,49,50,50,51,51,52,52,53,53,54,54,55,55,56,56,57,57,58,58,59,59,60,60,61,61,62,62],"right_children":[2,4,6,8,10,12,14,16,18,20,22,24,26,28,30,32,34,36,38,40,42,44,46,48,50,52,54,56,58,60,62,64,66,68,70,72,74,76,78,80,82,84,86,88,90,92,94,96,98,100,102,104,106,108,110,112,114,116,118,120,122,124,126,-1,-1,-1,-1,-1,-1,-1,-1,-1,-1,-1,-1,-1,-1,-1,-1,-1,-1,-1,-1,-1,-1,-1,-1,-1,-1,-1,-1,-1,-1,-1,-1,-1,-1,-1,-1,-1,-1,-1,-1,-1,-1,-1,-1,-1,-1,-1,-1,-1,-1,-1,-1,-1,-1,-1,-1,-1,-1,-1,-1,-1,-1,-1,-1],"split_conditions":[6.8333336E1,4.1333332E1,8.7E1,2.4166666E1,5.3333332E1,-2.53E2,3.4629234E1,1.9328351E0,7.7166664E1,1.3567784E2,1.1282859E1,7.5E1,1.3657826E2,9.4E1,5.7666668E1,-8.5688996E-1,6.457593E1,3.8180482E0,3.0044561E1,4.795931E1,7.1551955E-1,-7.972827E0,8.19E2,6.3333332E1,-3.33E2,1.1493246E2,2.1934474E0,1.3421718E2,1.3421718E2,3.472395E0,9.1833336E1,-2.7199469E1,2.5828603E-1,1.19E2,6.423042E1,3.607708E-1,2.8620892E2,1.8607819E1,1.2670551E2,-4.2450485E0,3.8975864E1,4.214191E1,3.03E2,8.8643694E-1,9.321744E-2,5.7666668E1,1.71E1,2.2245803E0,2.16E1,6.65E1,2.4243083E0,5.5333332E1,3.4869656E-2,2.3E1,4.6666668E1,1.3E1,7.85E1,1.3830803E1,9.431377E-1,3.65E1,2.2666666E1,1.12E2,-7.8029585E-1,-2.505804E0,3.2832246E0,-2.2902918E0,6.47699E-1,-3.4104483E0,-2.6201518E0,-2.4464383E0,-1.5819023E0,8.586888E-1,-1.3772326E0,-1.5573565E0,-1.610947E-1,7.266703E0,8.134123E-1,-1.6670371E0,-4.5735884E0,2.6902235E-1,-8.3927494E-1,-2.115345E0,-1.0591576E0,2.064437E0,-2.6607192E-1,-1.4731325E0,-1.3932063E-1,8.767652E-1,2.2652574E0,-9.5100534E-1,3.6090845E-1,-5.4285884E-1,-2.0084921E-2,3.8795793E0,5.231645E-1,-8.4335864E-1,-1.6669058E0,-3.4851724E-1,4.945654E-1,-1.4358056E0,-3.1106865E0,-1.4750626E0,-3.230055E0,-3.7213716E-1,9.7560316E-1,8.747637E-1,-1.3948278E-1,5.4078716E-1,2.9579897E0,1.049112E0,2.7359881E0,9.739451E-1,1.6341566E0,-1.948904E0,3.6085948E-1,8.1798285E-1,2.0508356E0,-6.058557E-1,1.8613967E0,-5.111858E0,-2.489092E0,-4.770963E0,1.2731193E0,1.5343118E0,-2.6737118E-1,7.7157825E-1,2.195049E0],"split_indices":[3,3,11,19,11,24,50,29,19,46,33,11,26,11,19,15,46,29,26,35,6,25,30,11,24,34,6,27,27,6,19,25,6,30,29,54,32,50,25,25,29,28,24,14,14,19,20,14,21,19,23,19,22,5,11,24,3,34,22,19,19,42,53,0,0,0,0,0,0,0,0,0,0,0,0,0,0,0,0,0,0,0,0,0,0,0,0,0,0,0,0,0,0,0,0,0,0,0,0,0,0,0,0,0,0,0,0,0,0,0,0,0,0,0,0,0,0,0,0,0,0,0,0,0,0,0,0],"split_type":[0,0,0,0,0,0,0,0,0,0,0,0,0,0,0,0,0,0,0,0,0,0,0,0,0,0,0,0,0,0,0,0,0,0,0,0,0,0,0,0,0,0,0,0,0,0,0,0,0,0,0,0,0,0,0,0,0,0,0,0,0,0,0,0,0,0,0,0,0,0,0,0,0,0,0,0,0,0,0,0,0,0,0,0,0,0,0,0,0,0,0,0,0,0,0,0,0,0,0,0,0,0,0,0,0,0,0,0,0,0,0,0,0,0,0,0,0,0,0,0,0,0,0,0,0,0,0],"sum_hessian":[2.341798E6,1.280512E6,1.061286E6,4.35109E5,8.45403E5,7.23058E5,3.38228E5,9.3565E4,3.41544E5,3.66943E5,4.7846E5,2.4948E4,6.9811E5,2.74033E5,6.4195E4,2.203E3,9.1362E4,3.26796E5,1.4748E4,2.8535E5,8.1593E4,5.9103E4,4.19357E5,2.1914E4,3.034E3,6.26617E5,7.1493E4,1.74944E5,9.9089E4,6.138E3,5.8057E4,8.72E2,1.331E3,3.2148E4,5.9214E4,1.3426E4,3.1337E5,1.0633E4,4.115E3,1.17638E5,1.67712E5,3.3848E4,4.7745E4,2.5616E4,3.3487E4,4.09369E5,9.988E3,1.5145E4,6.769E3,9.8E2,2.054E3,4.54756E5,1.71861E5,4.1883E4,2.961E4,1.67303E5,7.641E3,9.5596E4,3.493E3,5.307E3,8.31E2,4.1439E4,1.6618E4,9.3E1,7.79E2,8.47E2,4.84E2,8.856E3,2.3292E4,3.9628E4,1.9586E4,7.003E3,6.423E3,3.03894E5,9.476E3,6.21E2,1.0012E4,2.68E3,1.435E3,4.0644E4,7.6994E4,1.6295E4,1.51417E5,1.2602E4,2.1246E4,1.9211E4,2.8534E4,1.3058E4,1.2558E4,7.705E3,2.5782E4,1.56863E5,2.52506E5,3.458E3,6.53E3,8.716E3,6.429E3,5.497E3,1.272E3,5.4E1,9.26E2,1.807E3,2.47E2,4.4408E4,4.10348E5,4.8341E4,1.2352E5,3.4661E4,7.222E3,2.81E3,2.68E4,4.5181E4,1.22122E5,9.59E2,6.682E3,3.348E3,9.2248E4,1.541E3,1.952E3,1.411E3,3.896E3,5.8E1,7.73E2,2.2752E4,1.8687E4,1.382E3,1.5236E4],"tree_param":{"num_deleted":"0","num_feature":"55","num_nodes":"127","size_leaf_vector":"1"}},{"base_weights":[-2.0087129E-5,-2.162045E0,1.8700281E0,-4.057205E0,-1.0343019E0,7.843373E-1,2.969954E0,-5.3658457E0,-3.164806E0,3.6824555E0,-1.258368E0,1.5904253E0,-6.966652E-1,2.49279E0,4.7225685E0,-5.4802547E0,6.571477E0,-3.6660454E0,-1.502625E0,7.477398E0,4.9109107E-1,5.4303174E0,-1.415612E0,8.152767E-1,3.0178804E0,-6.060829E0,-1.5210368E-1,2.9165545E0,7.58591E-1,4.1968446E0,6.227035E0,-5.3345613E0,-1.4353643E1,-5.2332067E0,1.2276813E1,-3.4712417E0,-8.506647E0,3.31455E-1,-3.1950696E0,1.1265562E1,2.628344E0,-1.9131905E0,4.846276E0,1.1045672E1,1.0879577E0,-7.756137E-1,-2.9549828E0,-5.6612813E-1,1.5688481E0,1.7356812E0,7.2368817E0,-8.610229E0,-5.2494907E0,1.0542699E0,-2.113953E0,1.8004186E0,3.4839733E0,2.2783144E0,-1.0170664E0,3.9784236E0,6.135797E0,4.9761906E0,7.3575025E0,-1.671964E0,-8.370835E-1,-6.156363E0,-1.697878E0,-1.7478672E0,3.1101098E0,1.3814753E0,4.655993E0,2.5322735E-1,-1.0995971E0,-1.6060897E0,-4.7954774E0,2.7643929E0,-2.1583258E-1,-4.007145E-1,-1.2443489E0,1.2871127E0,3.8406131E0,2.0427915E-1,1.7030249E0,1.1186112E0,-6.850254E-1,2.0206966E0,3.0977732E-1,5.5046787E0,1.5060923E0,2.1937845E0,-2.0553592E-1,-5.1124656E-1,1.6658124E-1,-2.0549161E0,-6.55208E-1,-5.846536E-1,3.766562E-1,6.7361087E-1,-2.9492962E-1,8.922442E-1,-6.856986E-1,1.776546E0,2.881741E0,-2.7028239E0,-1.6717333E0,-1.4113876E0,-2.1256797E0,1.4013584E-1,1.1854869E0,-1.013714E0,-2.2292534E-1,2.6778138E-1,9.3753594E-1,1.3574126E0,8.256267E-1,2.8031257E-1,1.3389744E0,-8.718837E-1,2.1763709E-1,5.091893E-1,1.2561656E0,5.0743103E0,1.4694097E0,4.3047366E-1,1.8127259E0,1.9536446E0,2.5897741E0],"categories":[],"categories_nodes":[],"categories_segments":[],"categories_sizes":[],"default_left":[0,0,0,0,0,0,0,0,0,0,0,0,0,0,0,0,0,0,0,0,0,0,0,0,0,0,0,0,0,0,0,0,0,0,0,0,0,0,0,0,0,0,0,0,0,0,0,0,0,0,0,0,0,0,0,0,0,0,0,0,0,0,0,0,0,0,0,0,0,0,0,0,0,0,0,0,0,0,0,0,0,0,0,0,0,0,0,0,0,0,0,0,0,0,0,0,0,0,0,0,0,0,0,0,0,0,0,0,0,0,0,0,0,0,0,0,0,0,0,0,0,0,0,0,0,0,0],"id":6,"left_children":[1,3,5,7,9,11,13,15,17,19,21,23,25,27,29,31,33,35,37,39,41,43,45,47,49,51,53,55,57,59,61,63,65,67,69,71,73,75,77,79,81,83,85,87,89,91,93,95,97,99,101,103,105,107,109,111,113,115,117,119,121,123,125,-1,-1,-1,-1,-1,-1,-1,-1,-1,-1,-1,-1,-1,-1,-1,-1,-1,-1,-1,-1,-1,-1,-1,-1,-1,-1,-1,-1,-1,-1,-1,-1,-1,-1,-1,-1,-1,-1,-1,-1,-1,-1,-1,-1,-1,-1,-1,-1,-1,-1,-1,-1,-1,-1,-1,-1,-1,-1,-1,-1,-1,-1,-1,-1],"loss_changes":[9.46811E6,2.3212905E6,1.499516E6,4.73177E5,7.196469E5,7.5441675E5,5.216245E5,2.24401E5,2.0070975E5,3.739853E5,6.836927E5,4.527832E5,6.5061075E5,3.6029775E5,1.05548E5,2.102885E5,1.05129734E5,1.7450775E5,1.7326452E5,2.5908362E5,1.7566181E5,3.640639E5,6.257065E5,2.760707E5,7.790239E5,4.2413375E4,4.7855603E5,2.4951975E5,2.598092E5,4.1868125E4,4.8836875E4,9.7194E4,1.4080025E5,4.7692646E3,2.6103578E4,1.4902875E5,1.6874088E5,2.5009036E5,5.1421656E4,8.481494E4,3.6731227E4,2.2586191E4,4.298825E4,2.8642306E5,9.29459E4,5.543787E5,5.6000775E5,2.3578208E5,2.9625012E5,5.500606E5,1.04507625E5,5.9571875E3,1.5547375E4,2.1300145E5,1.3352466E5,1.596929E5,1.9894775E5,1.5233134E5,1.4617008E5,4.233775E4,1.3350397E5,6.1956156E4,1.9510688E4,0E0,0E0,0E0,0E0,0E0,0E0,0E0,0E0,0E0,0E0,0E0,0E0,0E0,0E0,0E0,0E0,0E0,0E0,0E0,0E0,0E0,0E0,0E0,0E0,0E0,0E0,0E0,0E0,0E0,0E0,0E0,0E0,0E0,0E0,0E0,0E0,0E0,0E0,0E0,0E0,0E0,0E0,0E0,0E0,0E0,0E0,0E0,0E0,0E0,0E0,0E0,0E0,0E0,0E0,0E0,0E0,0E0,0E0,0E0,0E0,0E0,0E0,0E0,0E0],"parents":[2147483647,0,0,1,1,2,2,3,3,4,4,5,5,6,6,7,7,8,8,9,9,10,10,11,11,12,12,13,13,14,14,15,15,16,16,17,17,18,18,19,19,20,20,21,21,22,22,23,23,24,24,25,25,26,26,27,27,28,28,29,29,30,30,31,31,32,32,33,33,34,34,35,35,36,36,37,37,38,38,39,39,40,40,41,41,42,42,43,43,44,44,45,45,46,46,47,47,48,48,49,49,50,50,51,51,52,52,53,53,54,54,55,55,56,56,57,57,58,58,59,59,60,60,61,61,62,62],"right_children":[2,4,6,8,10,12,14,16,18,20,22,24,26,28,30,32,34,36,38,40,42,44,46,48,50,52,54,56,58,60,62,64,66,68,70,72,74,76,78,80,82,84,86,88,90,92,94,96,98,100,102,104,106,108,110,112,114,116,118,120,122,124,126,-1,-1,-1,-1,-1,-1,-1,-1,-1,-1,-1,-1,-1,-1,-1,-1,-1,-1,-1,-1,-1,-1,-1,-1,-1,-1,-1,-1,-1,-1,-1,-1,-1,-1,-1,-1,-1,-1,-1,-1,-1,-1,-1,-1,-1,-1,-1,-1,-1,-1,-1,-1,-1,-1,-1,-1,-1,-1,-1,-1,-1,-1,-1,-1],"split_conditions":[6.2166668E1,4.1E1,7.9E1,2.85E1,1.3830803E1,5.9095806E1,4.91E2,1.7932678E2,1.3567784E2,3.2666667E0,-3.33E2,9.201716E1,1.1479881E1,2.9192135E0,9.4E1,6.2E1,-4.6635365E-1,6.1666668E1,2.4E1,-1.8707606E-1,5.8666668E1,3.872228E-2,3.2192608E1,8.560624E0,8.1333336E1,5.4666668E1,6.1037273E1,1.622108E1,1.67E1,9.52E2,2.5E0,1.4251779E2,6.559761E1,3.9166668E1,2.9833334E1,1.9814142E1,1.6818169E1,-8.049617E-1,8E1,6E0,6.2166668E1,3.5166668E1,6E0,5.2663857E-1,-8.1002486E-1,5.85E1,3.5166668E1,7E1,3.0535557E1,3.184786E0,2.6148394E1,5.047943E-1,8.6666664E1,8.4333336E1,6.7E1,9E1,1.6008667E1,9.5E1,-3E0,-1.141788E0,7.5E1,-3.089426E0,4.857022E1,-1.671964E0,-8.370835E-1,-6.156363E0,-1.697878E0,-1.7478672E0,3.1101098E0,1.3814753E0,4.655993E0,2.5322735E-1,-1.0995971E0,-1.6060897E0,-4.7954774E0,2.7643929E0,-2.1583258E-1,-4.007145E-1,-1.2443489E0,1.2871127E0,3.8406131E0,2.0427915E-1,1.7030249E0,1.1186112E0,-6.850254E-1,2.0206966E0,3.0977732E-1,5.5046787E0,1.5060923E0,2.1937845E0,-2.0553592E-1,-5.1124656E-1,1.6658124E-1,-2.0549161E0,-6.55208E-1,-5.846536E-1,3.766562E-1,6.7361087E-1,-2.9492962E-1,8.922442E-1,-6.856986E-1,1.776546E0,2.881741E0,-2.7028239E0,-1.6717333E0,-1.4113876E0,-2.1256797E0,1.4013584E-1,1.1854869E0,-1.013714E0,-2.2292534E-1,2.6778138E-1,9.3753594E-1,1.3574126E0,8.256267E-1,2.8031257E-1,1.3389744E0,-8.718837E-1,2.1763709E-1,5.091893E-1,1.2561656E0,5.0743103E0,1.4694097E0,4.3047366E-1,1.8127259E0,1.9536446E0,2.5897741E0],"split_indices":[19,11,3,11,28,41,24,37,46,1,36,40,27,6,3,3,22,3,5,6,11,54,50,48,19,3,27,39,4,36,1,34,34,19,19,28,26,54,30,24,11,19,24,6,53,11,19,3,39,6,31,15,19,19,3,19,49,3,24,22,11,37,47,0,0,0,0,0,0,0,0,0,0,0,0,0,0,0,0,0,0,0,0,0,0,0,0,0,0,0,0,0,0,0,0,0,0,0,0,0,0,0,0,0,0,0,0,0,0,0,0,0,0,0,0,0,0,0,0,0,0,0,0,0,0,0,0],"split_type":[0,0,0,0,0,0,0,0,0,0,0,0,0,0,0,0,0,0,0,0,0,0,0,0,0,0,0,0,0,0,0,0,0,0,0,0,0,0,0,0,0,0,0,0,0,0,0,0,0,0,0,0,0,0,0,0,0,0,0,0,0,0,0,0,0,0,0,0,0,0,0,0,0,0,0,0,0,0,0,0,0,0,0,0,0,0,0,0,0,0,0,0,0,0,0,0,0,0,0,0,0,0,0,0,0,0,0,0,0,0,0,0,0,0,0,0,0,0,0,0,0,0,0,0,0,0,0],"sum_hessian":[2.341798E6,1.08611E6,1.255688E6,4.0519E5,6.8092E5,6.31934E5,6.23754E5,1.6428E5,2.4091E5,3.0879E4,6.50041E5,4.09208E5,2.22726E5,4.90275E5,1.33479E5,1.62721E5,1.559E3,1.85093E5,5.5817E4,1.4105E4,1.6774E4,1.493E4,6.35111E5,2.65199E5,1.44009E5,2.0526E4,2.022E5,3.93998E5,9.6277E4,9.8917E4,3.4562E4,1.60094E5,2.627E3,5.08E2,1.051E3,1.77934E5,7.159E3,2.6788E4,2.9029E4,7.918E3,6.187E3,1.0808E4,5.966E3,6.51E3,8.42E3,4.48604E5,1.86507E5,9.3606E4,1.71593E5,1.10445E5,3.3564E4,4.953E3,1.5573E4,1.25208E5,7.6992E4,1.32793E5,2.61205E5,5.1877E4,4.44E4,8.8905E4,1.0012E4,1.641E4,1.8152E4,1.46364E5,1.373E4,1.536E3,1.091E3,4.9E2,1.8E1,3.13E2,7.38E2,7.658E3,1.70276E5,5.037E3,2.122E3,2.833E3,2.3955E4,9.836E3,1.9193E4,1.43E3,6.488E3,3.776E3,2.411E3,6.65E2,1.0143E4,3.989E3,1.977E3,2.942E3,3.568E3,1.866E3,6.554E3,2.64244E5,1.8436E5,3.0817E4,1.5569E5,5.3214E4,4.0392E4,1.35636E5,3.5957E4,8.444E4,2.6005E4,2.1585E4,1.1979E4,4.376E3,5.77E2,1.2012E4,3.561E3,1.04111E5,2.1097E4,4.004E4,3.6952E4,7.8796E4,5.3997E4,1.07845E5,1.5336E5,3.2121E4,1.9756E4,2.1303E4,2.3097E4,7.456E3,8.1449E4,1.03E3,8.982E3,3.798E3,1.2612E4,1.0919E4,7.233E3],"tree_param":{"num_deleted":"0","num_feature":"55","num_nodes":"127","size_leaf_vector":"1"}},{"base_weights":[-4.5853244E-6,-1.3560365E0,1.5281552E0,-2.6591048E0,-4.0249208E-1,7.6976675E-1,2.3863845E0,-4.3198013E0,-2.3258877E0,-7.894876E-1,9.333236E-1,1.0173738E0,-3.59201E0,2.6792312E0,8.98828E-1,-4.58512E0,-1.0271578E0,2.666328E0,-2.4225721E0,-1.2008762E-1,-1.4117287E0,2.4227728E-1,2.9631774E0,3.2501545E-2,1.6144916E0,-8.5750127E-1,-8.677884E0,1.2715447E0,3.0826771E0,-3.667649E-2,3.6170526E0,-4.3303986E0,-7.643337E0,4.4868755E0,-5.0094867E0,7.8439445E0,-1.81833E-2,-1.7735072E0,-3.0469465E0,-4.856739E-1,3.367131E0,9.157165E-2,-1.9925951E0,-3.925487E0,7.853096E-1,4.5242443E0,1.6489317E0,-6.7186894E0,4.2327338E-1,1.1949549E0,3.2513955E0,1.2099674E0,-2.032065E0,-4.772499E0,-9.494655E0,2.9359007E-1,2.6143603E0,2.6061397E0,4.146446E0,-2.1766057E0,1.164154E0,2.3817399E0,4.949041E0,-1.9477777E0,-1.2217387E0,-3.1986642E0,-1.2696353E0,1.9270924E0,-2.6157267E0,-9.3909883E-1,-2.110228E0,4.3451824E0,1.8713856E0,-2.170707E0,5.326445E-1,-7.059858E-1,5.775776E-1,2.0464784E-1,-9.722099E-1,2.0684917E-2,-8.0823964E-1,1.4576566E0,-8.690907E-1,2.595295E-1,-7.1154314E-1,-1.3213999E0,-4.8718736E-1,-4.353358E0,-9.4248116E-1,4.2963025E-1,-5.059554E-1,9.3957907E-1,1.9561037E0,1.3676994E-1,1.5377063E0,-8.863498E-1,-3.7533464E0,-1.5178927E0,1.7725578E-1,-1.204048E-2,5.458485E-1,1.8847501E0,6.206959E-1,3.6886342E0,2.619942E-1,-2.0677705E-1,-1.2052565E0,-9.0762454E-1,-2.3136334E0,-2.2179637E0,-3.2049367E0,-1.1153552E-1,1.3640205E0,9.81248E-1,3.9597574E-1,1.6059734E0,7.362404E-1,1.152169E0,1.9802521E0,-2.026345E0,-4.4731247E-1,1.3972033E0,-4.6571005E-2,2.5331616E-1,1.3917019E0,1.378655E0,2.5630765E0],"categories":[],"categories_nodes":[],"categories_segments":[],"categories_sizes":[],"default_left":[0,0,0,0,0,0,0,0,0,0,0,0,0,0,0,0,0,0,0,0,0,0,0,0,0,0,0,0,0,0,0,0,0,0,0,0,0,0,0,0,0,0,0,0,0,0,0,0,0,0,0,0,0,0,0,0,0,0,0,0,0,0,0,0,0,0,0,0,0,0,0,0,0,0,0,0,0,0,0,0,0,0,0,0,0,0,0,0,0,0,0,0,0,0,0,0,0,0,0,0,0,0,0,0,0,0,0,0,0,0,0,0,0,0,0,0,0,0,0,0,0,0,0,0,0,0,0],"id":7,"left_children":[1,3,5,7,9,11,13,15,17,19,21,23,25,27,29,31,33,35,37,39,41,43,45,47,49,51,53,55,57,59,61,63,65,67,69,71,73,75,77,79,81,83,85,87,89,91,93,95,97,99,101,103,105,107,109,111,113,115,117,119,121,123,125,-1,-1,-1,-1,-1,-1,-1,-1,-1,-1,-1,-1,-1,-1,-1,-1,-1,-1,-1,-1,-1,-1,-1,-1,-1,-1,-1,-1,-1,-1,-1,-1,-1,-1,-1,-1,-1,-1,-1,-1,-1,-1,-1,-1,-1,-1,-1,-1,-1,-1,-1,-1,-1,-1,-1,-1,-1,-1,-1,-1,-1,-1,-1,-1],"loss_changes":[4.852756E6,1.5417085E6,7.1662125E5,2.90122E5,3.703895E5,6.312794E5,2.2500325E5,7.6538375E4,2.1077875E5,2.3139744E5,2.2575916E5,3.2527725E5,4.3667E5,2.4508625E5,2.1604334E5,6.3131E4,1.4352256E5,1.1532322E5,1.7360175E5,3.411963E5,2.5140894E5,2.7174697E5,8.385475E4,5.5077994E5,2.3647E5,4.9592273E4,3.4975625E4,1.2624361E5,1.70022E5,1.6242506E5,3.5781062E4,4.1719125E4,6.4142625E4,7.016217E4,1.4416258E4,3.0120156E4,7.076158E4,4.5043225E5,1.5776125E5,2.9670488E5,2.3731281E5,1.5290444E5,1.8464781E5,1.1480644E5,1.6983667E5,5.1903375E4,9.20557E4,2.490294E5,1.8133264E5,2.114261E5,2.5175981E5,2.7602059E4,3.4717676E4,9.739727E3,2.259575E4,1.5741692E5,3.4419312E4,9.6718375E4,7.788075E4,7.1295016E4,1.8660517E5,3.916786E4,1.3260531E4,0E0,0E0,0E0,0E0,0E0,0E0,0E0,0E0,0E0,0E0,0E0,0E0,0E0,0E0,0E0,0E0,0E0,0E0,0E0,0E0,0E0,0E0,0E0,0E0,0E0,0E0,0E0,0E0,0E0,0E0,0E0,0E0,0E0,0E0,0E0,0E0,0E0,0E0,0E0,0E0,0E0,0E0,0E0,0E0,0E0,0E0,0E0,0E0,0E0,0E0,0E0,0E0,0E0,0E0,0E0,0E0,0E0,0E0,0E0,0E0,0E0,0E0,0E0,0E0],"parents":[2147483647,0,0,1,1,2,2,3,3,4,4,5,5,6,6,7,7,8,8,9,9,10,10,11,11,12,12,13,13,14,14,15,15,16,16,17,17,18,18,19,19,20,20,21,21,22,22,23,23,24,24,25,25,26,26,27,27,28,28,29,29,30,30,31,31,32,32,33,33,34,34,35,35,36,36,37,37,38,38,39,39,40,40,41,41,42,42,43,43,44,44,45,45,46,46,47,47,48,48,49,49,50,50,51,51,52,52,53,53,54,54,55,55,56,56,57,57,58,58,59,59,60,60,61,61,62,62],"right_children":[2,4,6,8,10,12,14,16,18,20,22,24,26,28,30,32,34,36,38,40,42,44,46,48,50,52,54,56,58,60,62,64,66,68,70,72,74,76,78,80,82,84,86,88,90,92,94,96,98,100,102,104,106,108,110,112,114,116,118,120,122,124,126,-1,-1,-1,-1,-1,-1,-1,-1,-1,-1,-1,-1,-1,-1,-1,-1,-1,-1,-1,-1,-1,-1,-1,-1,-1,-1,-1,-1,-1,-1,-1,-1,-1,-1,-1,-1,-1,-1,-1,-1,-1,-1,-1,-1,-1,-1,-1,-1,-1,-1,-1,-1,-1,-1,-1,-1,-1,-1,-1,-1,-1,-1,-1,-1],"split_conditions":[6.6E1,4.5833332E1,8.1833336E1,2.2666666E1,1.3567784E2,2.3849072E2,2.3780085E1,1.3657826E2,6.273711E0,3.7704357E1,6.4666664E1,4.1042717E1,3.94144E0,6.9245033E0,7.4E1,3.9166668E1,2.7133333E1,2.47E1,3.2333333E0,7.7833336E1,-3.089426E0,-3.588478E1,2.23E1,3.7666668E1,6.73E2,-1.1304661E0,1.56E1,8.221257E1,9.3833336E1,4.7903584E1,-1.5257534E1,1.2E1,2.1011768E1,1.1191151E1,3.38E1,-1.3549145E0,1.9E0,4.423633E1,-8.153844E1,9.486636E1,6.4079765E1,5.366667E0,4.2833332E1,3.55E1,1.7485521E1,1.19E2,2.9666667E0,4.6454998E1,-3.6646835E1,7E1,-3.089426E0,4.8E1,1.8119613E0,6.659581E0,5.4221845E0,1E-1,7.99E2,2.9268859E-2,1.4138907E2,7.4666664E1,1.21E1,8.9666664E1,9.7166664E1,-1.9477777E0,-1.2217387E0,-3.1986642E0,-1.2696353E0,1.9270924E0,-2.6157267E0,-9.3909883E-1,-2.110228E0,4.3451824E0,1.8713856E0,-2.170707E0,5.326445E-1,-7.059858E-1,5.775776E-1,2.0464784E-1,-9.722099E-1,2.0684917E-2,-8.0823964E-1,1.4576566E0,-8.690907E-1,2.595295E-1,-7.1154314E-1,-1.3213999E0,-4.8718736E-1,-4.353358E0,-9.4248116E-1,4.2963025E-1,-5.059554E-1,9.3957907E-1,1.9561037E0,1.3676994E-1,1.5377063E0,-8.863498E-1,-3.7533464E0,-1.5178927E0,1.7725578E-1,-1.204048E-2,5.458485E-1,1.8847501E0,6.206959E-1,3.6886342E0,2.619942E-1,-2.0677705E-1,-1.2052565E0,-9.0762454E-1,-2.3136334E0,-2.2179637E0,-3.2049367E0,-1.1153552E-1,1.3640205E0,9.81248E-1,3.9597574E-1,1.6059734E0,7.362404E-1,1.152169E0,1.9802521E0,-2.026345E0,-4.4731247E-1,1.3972033E0,-4.6571005E-2,2.5331616E-1,1.3917019E0,1.378655E0,2.5630765E0],"split_indices":[11,3,19,3,46,38,49,32,33,45,19,40,6,48,24,11,10,20,17,19,25,26,12,19,42,15,21,46,19,40,32,3,49,25,12,14,9,31,38,31,27,1,19,19,48,36,9,45,25,3,25,3,6,6,6,0,30,41,40,3,12,11,3,0,0,0,0,0,0,0,0,0,0,0,0,0,0,0,0,0,0,0,0,0,0,0,0,0,0,0,0,0,0,0,0,0,0,0,0,0,0,0,0,0,0,0,0,0,0,0,0,0,0,0,0,0,0,0,0,0,0,0,0,0,0,0,0],"split_type":[0,0,0,0,0,0,0,0,0,0,0,0,0,0,0,0,0,0,0,0,0,0,0,0,0,0,0,0,0,0,0,0,0,0,0,0,0,0,0,0,0,0,0,0,0,0,0,0,0,0,0,0,0,0,0,0,0,0,0,0,0,0,0,0,0,0,0,0,0,0,0,0,0,0,0,0,0,0,0,0,0,0,0,0,0,0,0,0,0,0,0,0,0,0,0,0,0,0,0,0,0,0,0,0,0,0,0,0,0,0,0,0,0,0,0,0,0,0,0,0,0,0,0,0,0,0,0],"sum_hessian":[2.341798E6,1.240778E6,1.10102E6,5.24297E5,7.16481E5,5.8451E5,5.1651E5,8.7617E4,4.3668E5,5.55538E5,1.60943E5,5.53112E5,3.1398E4,4.31552E5,8.4958E4,8.1083E4,6.534E3,8.296E3,4.28384E5,2.67628E5,2.8791E5,1.20068E5,4.0875E4,2.08771E5,3.44341E5,2.042E4,1.0978E4,9.6133E4,3.35419E5,6.3206E4,2.1752E4,7.4851E4,6.232E3,2.74E3,3.794E3,2.832E3,5.464E3,2.10041E5,2.18343E5,2.42234E5,2.5394E4,8.0242E4,2.07668E5,1.384E4,1.06228E5,1.8682E4,2.2193E4,1.1422E4,1.97349E5,2.74093E5,7.0248E4,7.398E3,1.3022E4,1.9E3,9.078E3,5.5624E4,4.0509E4,2.3165E5,1.03769E5,2.2719E4,4.0487E4,1.1287E4,1.0465E4,7.975E3,6.6876E4,3.305E3,2.927E3,2.39E3,3.5E2,1.969E3,1.825E3,5.5E2,2.282E3,1.087E3,4.377E3,1.81579E5,2.8462E4,1.0784E4,2.07559E5,1.93612E5,4.8622E4,2.051E4,4.884E3,6.1067E4,1.9175E4,2.7529E4,1.80139E5,9.53E2,1.2887E4,8.4197E4,2.2031E4,1.1007E4,7.675E3,1.6524E4,5.669E3,6.924E3,4.498E3,5.852E3,1.91497E5,9.2052E4,1.82041E5,1.9712E4,5.0536E4,2.17E2,7.181E3,7.769E3,5.253E3,1.193E3,7.07E2,3.282E3,5.796E3,4.81E4,7.524E3,2.6877E4,1.3632E4,1.2144E4,2.19506E5,9.2272E4,1.1497E4,2.958E3,1.9761E4,1.1099E4,2.9388E4,6.715E3,4.572E3,9.53E3,9.35E2],"tree_param":{"num_deleted":"0","num_feature":"55","num_nodes":"127","size_leaf_vector":"1"}},{"base_weights":[-5.906611E-6,-1.4945331E0,7.1670514E-1,-2.383247E0,-9.1555715E-1,8.9537874E-2,1.4476262E0,-1.8123915E0,-3.7057502E0,-7.132082E-1,-2.9089463E0,-1.6274904E-1,2.0303867E0,1.513252E0,-4.3288016E0,-5.799913E-1,-2.787001E0,-3.110246E0,-6.5001206E0,-8.1057954E-1,3.6051784E0,-5.4199624E0,-2.9024768E-1,1.7911367E-1,-1.9843777E0,-8.5754156E-1,4.0415277E0,1.2491939E0,2.8348048E0,-4.5261884E0,-5.23064E-1,-8.761311E-1,6.2265315E0,3.295665E0,-2.952285E0,-3.4246783E0,-1.5013405E0,-8.592908E0,-3.4374475E0,-9.065066E-1,3.5666206E0,1.106228E1,-2.0438802E0,-4.4938784E0,-9.434473E0,-1.2037561E0,2.2414763E0,1.8341154E0,-1.8590425E-1,-3.404296E0,-4.0145424E-1,-6.039826E0,2.502711E-1,2.7539325E0,5.7964845E0,8.08366E-1,2.102922E0,2.1951492E0,3.9160428E0,-4.7936645E0,-2.562629E0,6.957417E-1,-2.1197746E0,-4.1465804E-1,9.101855E-1,4.2024436E0,-7.6678324E-1,-9.630851E-1,1.9327275E0,-8.2382417E-1,-1.6394049E0,-8.335456E-1,-1.2070509E0,3.3898893E-1,-7.3619014E-1,-3.6097121E0,-2.1738675E0,-1.3446225E0,1.8859796E-1,1.0913566E0,-3.000758E-1,1.5113306E0,-2.5859284E0,1.9279538E0,4.101272E0,4.1889787E-1,-1.4230568E0,-9.3044806E-1,-1.845276E0,1.5543835E0,-2.9314692E0,3.224159E-1,-5.149746E-1,1.9443625E0,5.360761E-1,1.5414611E0,4.4352636E-1,-9.4678533E-1,6.4068898E-3,-1.9918891E0,-7.986143E-1,-3.717782E-1,3.483621E-1,7.795516E-1,-3.193091E0,-1.13656804E-1,1.3800515E0,7.209584E-1,2.107024E0,2.044884E0,7.8571635E-1,1.5023342E-1,1.0997502E0,6.678382E-1,-3.606703E-1,7.510953E-1,3.1943736E-3,1.42294E0,6.623105E-1,-7.996267E-1,-1.504703E0,-6.595388E-2,-1.3509307E0,-1.4445344E-1,6.1936057E-1,-1.2362499E0,1.8897846E-1],"categories":[],"categories_nodes":[],"categories_segments":[],"categories_sizes":[],"default_left":[0,0,0,0,0,0,0,0,0,0,0,0,0,0,0,0,0,0,0,0,0,0,0,0,0,0,0,0,0,0,0,0,0,0,0,0,0,0,0,0,0,0,0,0,0,0,0,0,0,0,0,0,0,0,0,0,0,0,0,0,0,0,0,0,0,0,0,0,0,0,0,0,0,0,0,0,0,0,0,0,0,0,0,0,0,0,0,0,0,0,0,0,0,0,0,0,0,0,0,0,0,0,0,0,0,0,0,0,0,0,0,0,0,0,0,0,0,0,0,0,0,0,0,0,0,0,0],"id":8,"left_children":[1,3,5,7,9,11,13,15,17,19,21,23,25,27,29,31,33,35,37,39,41,43,45,47,49,51,53,55,57,59,61,63,65,67,69,71,73,75,77,79,81,83,85,87,89,91,93,95,97,99,101,103,105,107,109,111,113,115,117,119,121,123,125,-1,-1,-1,-1,-1,-1,-1,-1,-1,-1,-1,-1,-1,-1,-1,-1,-1,-1,-1,-1,-1,-1,-1,-1,-1,-1,-1,-1,-1,-1,-1,-1,-1,-1,-1,-1,-1,-1,-1,-1,-1,-1,-1,-1,-1,-1,-1,-1,-1,-1,-1,-1,-1,-1,-1,-1,-1,-1,-1,-1,-1,-1,-1,-1],"loss_changes":[2.5084052E6,3.905515E5,7.2555744E5,2.2604425E5,1.853855E5,4.1710738E5,2.7708788E5,2.5120669E5,1.502045E5,1.7545281E5,2.785077E5,4.6946122E5,5.69144E5,2.5220038E5,6.16575E3,1.861739E5,1.1742469E5,3.7642875E4,1.0161269E5,1.7134188E5,3.876203E5,8.034331E4,4.795528E4,3.8344772E5,2.677354E5,2.3095048E5,1.30514125E5,2.2669512E5,8.323206E4,4.0874531E3,7.915834E2,1.7514297E5,2.632202E5,6.3281195E4,5.888875E4,2.4077625E4,3.0503686E4,4.3545E4,2.735289E4,1.701135E5,1.569311E5,4.7872938E4,4.863507E4,4.0521438E4,2.0014125E4,1.7805691E4,1.0584135E4,1.347895E5,3.201229E5,1.5077475E5,7.374648E4,2.817927E5,9.070496E4,4.988028E4,7.919194E4,3.4914494E5,8.352944E4,5.0963312E4,6.3198E4,3.2322188E3,4.26326E3,3.7323126E2,9.7100336E2,0E0,0E0,0E0,0E0,0E0,0E0,0E0,0E0,0E0,0E0,0E0,0E0,0E0,0E0,0E0,0E0,0E0,0E0,0E0,0E0,0E0,0E0,0E0,0E0,0E0,0E0,0E0,0E0,0E0,0E0,0E0,0E0,0E0,0E0,0E0,0E0,0E0,0E0,0E0,0E0,0E0,0E0,0E0,0E0,0E0,0E0,0E0,0E0,0E0,0E0,0E0,0E0,0E0,0E0,0E0,0E0,0E0,0E0,0E0,0E0,0E0,0E0,0E0,0E0],"parents":[2147483647,0,0,1,1,2,2,3,3,4,4,5,5,6,6,7,7,8,8,9,9,10,10,11,11,12,12,13,13,14,14,15,15,16,16,17,17,18,18,19,19,20,20,21,21,22,22,23,23,24,24,25,25,26,26,27,27,28,28,29,29,30,30,31,31,32,32,33,33,34,34,35,35,36,36,37,37,38,38,39,39,40,40,41,41,42,42,43,43,44,44,45,45,46,46,47,47,48,48,49,49,50,50,51,51,52,52,53,53,54,54,55,55,56,56,57,57,58,58,59,59,60,60,61,61,62,62],"right_children":[2,4,6,8,10,12,14,16,18,20,22,24,26,28,30,32,34,36,38,40,42,44,46,48,50,52,54,56,58,60,62,64,66,68,70,72,74,76,78,80,82,84,86,88,90,92,94,96,98,100,102,104,106,108,110,112,114,116,118,120,122,124,126,-1,-1,-1,-1,-1,-1,-1,-1,-1,-1,-1,-1,-1,-1,-1,-1,-1,-1,-1,-1,-1,-1,-1,-1,-1,-1,-1,-1,-1,-1,-1,-1,-1,-1,-1,-1,-1,-1,-1,-1,-1,-1,-1,-1,-1,-1,-1,-1,-1,-1,-1,-1,-1,-1,-1,-1,-1,-1,-1,-1,-1,-1,-1,-1],"split_conditions":[5.2666668E1,3.55E1,7.7166664E1,3.0304255E1,4.932069E0,1.3657826E2,5.385028E1,2.68E1,4.5666668E1,2.8620892E2,1.28E2,4.9333334E0,2.5833333E0,1.17565414E2,9.1E1,2.8620892E2,1.9328351E0,1.8338007E2,6.73E2,8.75E1,1.93E1,3.8184444E1,8.08799E1,1.9814142E1,1.28E2,4.7166668E1,7.1833336E1,8.8666664E1,1.8166667E0,1.3319708E0,9.6666664E1,5.3833332E1,2.13E1,-2.7199469E1,6.73E2,5.0242226E1,-7.963868E-1,2.5E1,-6.156835E-1,6.273711E0,4.1561153E1,4.95E1,5.317028E-1,5.561867E1,1.0205954E-1,5.2062637E1,9.544883E0,-1.5286868E0,4.0333332E1,7.5004067E0,3.0304255E1,-1.363429E0,2.37E1,4.9784994E0,6.0246365E1,1.3657826E2,6.2631226E0,2.52E1,8E1,5.3333332E1,1.1777433E0,9.916667E0,9.5833336E1,-4.1465804E-1,9.101855E-1,4.2024436E0,-7.6678324E-1,-9.630851E-1,1.9327275E0,-8.2382417E-1,-1.6394049E0,-8.335456E-1,-1.2070509E0,3.3898893E-1,-7.3619014E-1,-3.6097121E0,-2.1738675E0,-1.3446225E0,1.8859796E-1,1.0913566E0,-3.000758E-1,1.5113306E0,-2.5859284E0,1.9279538E0,4.101272E0,4.1889787E-1,-1.4230568E0,-9.3044806E-1,-1.845276E0,1.5543835E0,-2.9314692E0,3.224159E-1,-5.149746E-1,1.9443625E0,5.360761E-1,1.5414611E0,4.4352636E-1,-9.4678533E-1,6.4068898E-3,-1.9918891E0,-7.986143E-1,-3.717782E-1,3.483621E-1,7.795516E-1,-3.193091E0,-1.13656804E-1,1.3800515E0,7.209584E-1,2.107024E0,2.044884E0,7.8571635E-1,1.5023342E-1,1.0997502E0,6.678382E-1,-3.606703E-1,7.510953E-1,3.1943736E-3,1.42294E0,6.623105E-1,-7.996267E-1,-1.504703E0,-6.595388E-2,-1.3509307E0,-1.4445344E-1,6.1936057E-1,-1.2362499E0,1.8897846E-1],"split_indices":[3,3,19,26,6,26,49,5,11,32,24,1,1,46,3,32,29,28,42,11,21,37,27,28,24,19,3,11,9,15,19,11,21,25,30,41,6,3,15,33,25,19,22,45,22,34,39,6,19,48,26,23,5,14,39,38,6,12,30,11,6,10,3,0,0,0,0,0,0,0,0,0,0,0,0,0,0,0,0,0,0,0,0,0,0,0,0,0,0,0,0,0,0,0,0,0,0,0,0,0,0,0,0,0,0,0,0,0,0,0,0,0,0,0,0,0,0,0,0,0,0,0,0,0,0,0,0],"split_type":[0,0,0,0,0,0,0,0,0,0,0,0,0,0,0,0,0,0,0,0,0,0,0,0,0,0,0,0,0,0,0,0,0,0,0,0,0,0,0,0,0,0,0,0,0,0,0,0,0,0,0,0,0,0,0,0,0,0,0,0,0,0,0,0,0,0,0,0,0,0,0,0,0,0,0,0,0,0,0,0,0,0,0,0,0,0,0,0,0,0,0,0,0,0,0,0,0,0,0,0,0,0,0,0,0,0,0,0,0,0,0,0,0,0,0,0,0,0,0,0,0,0,0,0,0,0,0],"sum_hessian":[2.341798E6,7.59028E5,1.58277E6,2.99421E5,4.59607E5,8.51845E5,7.30925E5,2.09146E5,9.0275E4,4.17253E5,4.2354E4,7.53854E5,9.7991E4,7.22715E5,8.21E3,9.2359E4,1.16787E5,7.4418E4,1.5857E4,4.08053E5,9.2E3,2.1621E4,2.0733E4,6.34735E5,1.19119E5,4.0227E4,5.7764E4,6.0236E5,1.20355E5,7.805E3,4.05E2,8.8509E4,3.85E3,3.089E3,1.13698E5,6.2251E4,1.2167E4,9.419E3,6.438E3,3.99303E5,8.75E3,3.965E3,5.235E3,1.757E4,4.051E3,1.5236E4,5.497E3,1.14696E5,5.20039E5,6.2792E4,5.6327E4,7.084E3,3.3143E4,3.332E4,2.4444E4,3.97243E5,2.05117E5,7.5621E4,4.4734E4,6.868E3,9.37E2,2.3E2,1.75E2,7.8367E4,1.0142E4,2.041E3,1.809E3,1.007E3,2.082E3,1.05076E5,8.622E3,2.9944E4,3.2307E4,3.234E3,8.933E3,2.648E3,6.771E3,5.122E3,1.316E3,8.07E3,3.91233E5,7.808E3,9.42E2,1.429E3,2.536E3,2.302E3,2.933E3,9.549E3,8.021E3,9.1E1,3.96E3,2.799E3,1.2437E4,5.31E2,4.966E3,1.1146E4,1.0355E5,3.3922E4,4.86117E5,1.1716E4,5.1076E4,3.6668E4,1.9659E4,2.463E3,4.621E3,2.8956E4,4.187E3,3.0792E4,2.528E3,1.8504E4,5.94E3,3.58639E5,3.8604E4,1.97746E5,7.371E3,6.6263E4,9.358E3,3.014E4,1.4594E4,6.5E2,6.218E3,4.25E2,5.12E2,1.24E2,1.06E2,1.01E2,7.4E1],"tree_param":{"num_deleted":"0","num_feature":"55","num_nodes":"127","size_leaf_vector":"1"}},{"base_weights":[-4.8498327E-6,-6.501839E-1,8.8734096E-1,-1.8682965E0,-3.854283E-1,6.071704E-1,1.9830202E0,1.8930391E0,-2.0723214E0,-2.5057468E-1,-2.0985312E0,1.3139263E0,1.4732675E-1,1.556292E0,2.9202502E0,2.814963E0,-4.9002824E0,-5.282728E0,-1.637762E0,-1.719147E-1,-3.5441127E0,-4.1788936E0,2.64438E-1,2.7113261E0,9.1880655E-1,-3.7537909E0,2.3241103E-1,1.7584006E0,-1.8526798E0,1.8550477E0,3.6001577E0,3.900943E0,-2.1432905E0,2.0145478E0,-6.0164557E0,-3.641377E0,-7.1438055E0,-2.6666827E0,-1.2012557E0,-2.479622E-1,3.085478E0,-4.0596676E0,1.8621206E-1,-3.341799E0,-7.182361E0,-3.4970467E0,8.3483636E-1,4.3219924E0,1.764673E0,-1.7933238E-1,1.5900772E0,-4.278922E0,1.0051474E1,-5.808832E-1,6.68532E-1,3.899524E0,1.481134E0,1.1252395E1,-2.6633084E0,3.2129924E0,9.0570027E-1,2.8898578E0,4.7203474E0,1.6701092E-1,1.6916094E0,-1.1539714E0,1.3810813E-1,-2.3904307E-1,3.1229644E0,-2.7899923E0,-1.3529866E0,-9.4518155E-1,-2.4827948E0,-1.4362584E0,-2.9120061E0,-5.297683E-1,-9.7306114E-1,-5.58293E-1,2.2385694E-2,1.53019E-2,-3.3933407E-1,1.8829523E0,-9.37925E-1,-1.6498914E0,-1.0286777E0,4.5930332E-1,-5.685478E-1,-7.2897935E-1,-1.3547626E0,1.0831019E0,-2.2163143E0,9.2050225E-1,-1.173826E0,1.9066317E-3,9.1165197E-1,2.2378404E0,9.1095847E-1,-1.3615546E-1,7.4312276E-1,-2.290033E0,2.8513445E-2,6.423681E-1,-1.8120706E-1,-3.6140597E0,-1.0349824E0,-2.4787874E0,3.1577075E0,-9.423971E-2,-9.578385E-1,-2.3688616E-1,2.4960156E-1,2.415276E0,1.0689726E0,3.0002645E-1,7.513696E-1,4.3436823E0,5.345163E-1,-8.364836E0,-6.424483E-1,1.9721516E0,6.677071E-1,-7.217383E-1,3.9302915E-1,2.1397567E0,7.952726E-1,1.1242336E0,2.2044404E0],"categories":[],"categories_nodes":[],"categories_segments":[],"categories_sizes":[],"default_left":[0,0,0,0,0,0,0,0,0,0,0,0,0,0,0,0,0,0,0,0,0,0,0,0,0,0,0,0,0,0,0,0,0,0,0,0,0,0,0,0,0,0,0,0,0,0,0,0,0,0,0,0,0,0,0,0,0,0,0,0,0,0,0,0,0,0,0,0,0,0,0,0,0,0,0,0,0,0,0,0,0,0,0,0,0,0,0,0,0,0,0,0,0,0,0,0,0,0,0,0,0,0,0,0,0,0,0,0,0,0,0,0,0,0,0,0,0,0,0,0,0,0,0,0,0,0,0],"id":9,"left_children":[1,3,5,7,9,11,13,15,17,19,21,23,25,27,29,31,33,35,37,39,41,43,45,47,49,51,53,55,57,59,61,63,65,67,69,71,73,75,77,79,81,83,85,87,89,91,93,95,97,99,101,103,105,107,109,111,113,115,117,119,121,123,125,-1,-1,-1,-1,-1,-1,-1,-1,-1,-1,-1,-1,-1,-1,-1,-1,-1,-1,-1,-1,-1,-1,-1,-1,-1,-1,-1,-1,-1,-1,-1,-1,-1,-1,-1,-1,-1,-1,-1,-1,-1,-1,-1,-1,-1,-1,-1,-1,-1,-1,-1,-1,-1,-1,-1,-1,-1,-1,-1,-1,-1,-1,-1,-1],"loss_changes":[1.3510632E6,4.358655E5,3.0399394E5,1.8518138E5,2.5647862E5,2.5630278E5,8.064625E4,7.777429E4,3.19316E5,2.666328E5,3.982671E5,1.7163475E5,1.5858542E5,9.547419E4,4.5684812E4,5.8877812E4,1.1465855E4,8.3330125E4,9.054194E4,2.4900305E5,4.617072E4,1.0829975E5,8.1389875E4,1.0446919E5,1.7863938E5,7.397419E4,1.6584744E5,7.765291E4,8.242464E4,3.168725E4,3.0626094E4,5.211992E4,8.71605E3,4.8939673E3,6.2798438E3,3.295922E4,7.717244E4,3.1197688E4,1.1914744E5,2.593503E5,4.545855E5,1.9137938E4,8.1648604E3,3.6064062E4,2.0837906E4,1.3644723E4,6.014577E4,1.0227325E5,6.821164E4,1.8803583E5,1.8187781E5,6.3226297E4,3.3351172E3,1.13714336E5,7.255178E4,2.0907719E4,5.7016266E4,1.3786219E4,9.607322E4,3.354535E4,1.937943E4,2.387389E4,3.817028E4,0E0,0E0,0E0,0E0,0E0,0E0,0E0,0E0,0E0,0E0,0E0,0E0,0E0,0E0,0E0,0E0,0E0,0E0,0E0,0E0,0E0,0E0,0E0,0E0,0E0,0E0,0E0,0E0,0E0,0E0,0E0,0E0,0E0,0E0,0E0,0E0,0E0,0E0,0E0,0E0,0E0,0E0,0E0,0E0,0E0,0E0,0E0,0E0,0E0,0E0,0E0,0E0,0E0,0E0,0E0,0E0,0E0,0E0,0E0,0E0,0E0,0E0,0E0,0E0],"parents":[2147483647,0,0,1,1,2,2,3,3,4,4,5,5,6,6,7,7,8,8,9,9,10,10,11,11,12,12,13,13,14,14,15,15,16,16,17,17,18,18,19,19,20,20,21,21,22,22,23,23,24,24,25,25,26,26,27,27,28,28,29,29,30,30,31,31,32,32,33,33,34,34,35,35,36,36,37,37,38,38,39,39,40,40,41,41,42,42,43,43,44,44,45,45,46,46,47,47,48,48,49,49,50,50,51,51,52,52,53,53,54,54,55,55,56,56,57,57,58,58,59,59,60,60,61,61,62,62],"right_children":[2,4,6,8,10,12,14,16,18,20,22,24,26,28,30,32,34,36,38,40,42,44,46,48,50,52,54,56,58,60,62,64,66,68,70,72,74,76,78,80,82,84,86,88,90,92,94,96,98,100,102,104,106,108,110,112,114,116,118,120,122,124,126,-1,-1,-1,-1,-1,-1,-1,-1,-1,-1,-1,-1,-1,-1,-1,-1,-1,-1,-1,-1,-1,-1,-1,-1,-1,-1,-1,-1,-1,-1,-1,-1,-1,-1,-1,-1,-1,-1,-1,-1,-1,-1,-1,-1,-1,-1,-1,-1,-1,-1,-1,-1,-1,-1,-1,-1,-1,-1,-1,-1,-1,-1,-1,-1],"split_conditions":[7.0333336E1,3.3333332E1,9.2E1,1.9814142E1,5.209852E0,1.5134108E1,6.73E2,2.1948519E0,2.72867E1,5.385028E1,1.28E2,2.7365253E1,4E1,1.353619E2,6.004896E-2,9.441935E0,9.298451E0,3.6E1,5.2062637E1,2.8620892E2,8.966962E-1,3.8184444E1,2.1585339E1,1.7133333E1,6.9011827E-3,1.7581284E2,2.2E1,1.1282859E1,-8.09017E-1,4.423633E1,2.0360651E1,-2.013435E0,5.5333332E1,3.5E1,-5.661172E0,2.8655394E1,2.64E2,2.31E2,6.423042E1,6.867596E1,8.0959386E-1,3.85E1,1.5718592E0,5.561867E1,-1.0136731E-2,8.5860616E-1,8.08799E1,7.5E1,-1.484284E0,5.85E1,1.7896657E2,1.1282859E1,-9.8734945E-1,5.312045E0,2.1381374E1,8.1E1,5.561867E1,8.4E1,3.6166668E1,7.5E1,2.0166667E0,7.0333336E1,9.9E1,1.6701092E-1,1.6916094E0,-1.1539714E0,1.3810813E-1,-2.3904307E-1,3.1229644E0,-2.7899923E0,-1.3529866E0,-9.4518155E-1,-2.4827948E0,-1.4362584E0,-2.9120061E0,-5.297683E-1,-9.7306114E-1,-5.58293E-1,2.2385694E-2,1.53019E-2,-3.3933407E-1,1.8829523E0,-9.37925E-1,-1.6498914E0,-1.0286777E0,4.5930332E-1,-5.685478E-1,-7.2897935E-1,-1.3547626E0,1.0831019E0,-2.2163143E0,9.2050225E-1,-1.173826E0,1.9066317E-3,9.1165197E-1,2.2378404E0,9.1095847E-1,-1.3615546E-1,7.4312276E-1,-2.290033E0,2.8513445E-2,6.423681E-1,-1.8120706E-1,-3.6140597E0,-1.0349824E0,-2.4787874E0,3.1577075E0,-9.423971E-2,-9.578385E-1,-2.3688616E-1,2.4960156E-1,2.415276E0,1.0689726E0,3.0002645E-1,7.513696E-1,4.3436823E0,5.345163E-1,-8.364836E0,-6.424483E-1,1.9721516E0,6.677071E-1,-7.217383E-1,3.9302915E-1,2.1397567E0,7.952726E-1,1.1242336E0,2.2044404E0],"split_indices":[3,19,3,28,6,49,30,7,35,49,24,27,11,25,54,35,27,3,46,32,15,37,46,2,6,37,24,27,54,31,49,22,11,11,26,50,24,36,29,27,22,3,6,45,22,14,27,11,7,11,34,33,53,6,50,11,45,11,11,11,1,11,3,0,0,0,0,0,0,0,0,0,0,0,0,0,0,0,0,0,0,0,0,0,0,0,0,0,0,0,0,0,0,0,0,0,0,0,0,0,0,0,0,0,0,0,0,0,0,0,0,0,0,0,0,0,0,0,0,0,0,0,0,0,0,0,0],"split_type":[0,0,0,0,0,0,0,0,0,0,0,0,0,0,0,0,0,0,0,0,0,0,0,0,0,0,0,0,0,0,0,0,0,0,0,0,0,0,0,0,0,0,0,0,0,0,0,0,0,0,0,0,0,0,0,0,0,0,0,0,0,0,0,0,0,0,0,0,0,0,0,0,0,0,0,0,0,0,0,0,0,0,0,0,0,0,0,0,0,0,0,0,0,0,0,0,0,0,0,0,0,0,0,0,0,0,0,0,0,0,0,0,0,0,0,0,0,0,0,0,0,0,0,0,0,0,0],"sum_hessian":[2.341798E6,1.351513E6,9.90285E5,2.41302E5,1.110211E6,7.8863E5,2.01655E5,1.2415E4,2.28887E5,1.029195E6,8.1016E4,3.10857E5,4.77773E5,1.38567E5,6.3088E4,1.0932E4,1.483E3,2.7287E4,2.016E5,1.005189E6,2.4006E4,4.3084E4,3.7932E4,6.852E4,2.42337E5,1.0197E4,4.67576E5,1.30812E5,7.755E3,2.4581E4,3.8507E4,8.968E3,1.964E3,2.06E2,1.277E3,1.4501E4,1.2786E4,6.0049E4,1.41551E5,9.82258E5,2.2931E4,2.1091E4,2.915E3,3.3695E4,9.389E3,4.994E3,3.2938E4,2.5363E4,4.3157E4,9.1937E4,1.504E5,9.824E3,3.73E2,1.63212E5,3.04364E5,1.4996E4,1.15816E5,4.51E2,7.304E3,1.0113E4,1.4468E4,2.3567E4,1.494E4,3.067E3,5.901E3,1.187E3,7.77E2,1.55E2,5.1E1,4E2,8.77E2,1.3114E4,1.387E3,6.663E3,6.123E3,2.3444E4,3.6605E4,9.3305E4,4.8246E4,7.33837E5,2.48421E5,1.5149E4,7.782E3,6.422E3,1.4669E4,1.771E3,1.144E3,1.8967E4,1.4728E4,1.75E2,9.214E3,2.97E2,4.697E3,2.394E4,8.998E3,7.37E3,1.7993E4,1.049E4,3.2667E4,3.263E3,8.8674E4,1.20205E5,3.0195E4,9.46E2,8.878E3,9E0,3.64E2,1.48089E5,1.5123E4,3.0682E4,2.73682E5,1.122E3,1.3874E4,7.8786E4,3.703E4,3.36E2,1.15E2,1.47E2,7.157E3,2.295E3,7.818E3,1.574E3,1.2894E4,1.255E3,2.2312E4,1.0905E4,4.035E3],"tree_param":{"num_deleted":"0","num_feature":"55","num_nodes":"127","size_leaf_vector":"1"}},{"base_weights":[-7.5262674E-6,-9.8325956E-1,3.480307E-1,-1.0398942E0,5.34332E0,1.03807546E-1,1.0564028E0,1.6314887E0,-1.1342764E0,-2.9748206E0,9.214851E0,4.3384886E0,5.9687473E-2,3.000631E0,8.473868E-1,-1.8352723E0,3.2851312E0,-1.0343066E0,-3.217531E0,1.5293945E0,-4.2647967E0,1.0472122E1,-2.798261E0,1.9116524E0,8.817831E0,1.7857961E-1,-9.585476E-1,7.132856E0,2.7025964E0,5.50392E-1,2.416484E0,-4.1196465E0,1.2050968E0,7.3616076E0,6.1313516E-1,-1.6286224E0,-7.0219827E-1,-6.662907E-2,-4.4082565E0,7.1032357E0,-2.701619E-1,-2.6380951E0,-6.9901814E0,1.4417251E1,7.858978E0,9.384945E-1,-4.1832037E0,1.2254014E0,6.0675607E0,1.7732378E1,6.3368416E0,-5.243871E-1,4.0671563E-1,4.591475E-2,-2.7233753E0,3.836979E0,1.1778467E1,2.0423043E0,4.0806E0,-1.903136E-2,1.0295471E0,6.525601E0,1.7581465E0,-2.031738E0,-9.55912E-1,-1.2200568E0,1.2967789E0,2.6231337E0,5.8207786E-1,5.081194E-1,-9.8931944E-1,-4.4225374E-1,-1.6835148E0,-2.9825288E-1,3.1960376E-2,1.7944907E0,-3.1613934E-1,-8.3009034E-1,-1.5604501E0,4.5869703E0,1.3616152E0,3.4132364E0,-2.0423515E-1,1.3291061E0,-1.0533197E0,-1.591129E0,-2.3856955E0,5.450061E0,3.4602232E0,8.338374E-1,2.9029765E0,3.9452083E-2,2.939676E0,-7.833991E-1,-2.0508523E0,2.1456156E0,2.3151563E-1,2.607642E0,1.6585134E0,7.036212E0,2.2873926E0,2.8880835E0,1.1935446E0,-4.2291433E-1,3.5913892E-2,-8.200592E-2,2.1023624E-1,4.351976E-1,-1.8385094E-1,-1.2042338E0,2.1819308E-1,-1.1446651E0,1.6023046E0,5.0671206E0,2.8579135E0,9.234968E-1,4.901478E-1,1.1675742E0,3.148685E0,5.827938E-1,-1.3328907E-1,8.284855E-1,2.172683E-1,4.2279134E0,1.6361364E0,2.5025663E-1,7.79805E-1],"categories":[],"categories_nodes":[],"categories_segments":[],"categories_sizes":[],"default_left":[0,0,0,0,0,0,0,0,0,0,0,0,0,0,0,0,0,0,0,0,0,0,0,0,0,0,0,0,0,0,0,0,0,0,0,0,0,0,0,0,0,0,0,0,0,0,0,0,0,0,0,0,0,0,0,0,0,0,0,0,0,0,0,0,0,0,0,0,0,0,0,0,0,0,0,0,0,0,0,0,0,0,0,0,0,0,0,0,0,0,0,0,0,0,0,0,0,0,0,0,0,0,0,0,0,0,0,0,0,0,0,0,0,0,0,0,0,0,0,0,0,0,0,0,0,0,0],"id":10,"left_children":[1,3,5,7,9,11,13,15,17,19,21,23,25,27,29,31,33,35,37,39,41,43,45,47,49,51,53,55,57,59,61,63,65,67,69,71,73,75,77,79,81,83,85,87,89,91,93,95,97,99,101,103,105,107,109,111,113,115,117,119,121,123,125,-1,-1,-1,-1,-1,-1,-1,-1,-1,-1,-1,-1,-1,-1,-1,-1,-1,-1,-1,-1,-1,-1,-1,-1,-1,-1,-1,-1,-1,-1,-1,-1,-1,-1,-1,-1,-1,-1,-1,-1,-1,-1,-1,-1,-1,-1,-1,-1,-1,-1,-1,-1,-1,-1,-1,-1,-1,-1,-1,-1,-1,-1,-1,-1],"loss_changes":[8.0138575E5,2.1936438E5,2.992196E5,1.5299081E5,1.7495923E5,2.4029894E5,1.8019425E5,1.1871478E5,1.2205456E5,1.0035151E4,5.6018812E4,1.4414945E5,1.5409764E5,5.2990156E4,1.8658269E5,4.64554E4,1.527059E5,1.1038069E5,1.0068459E5,3.8636392E3,5.931166E3,3.4484344E4,1.825594E3,2.4528285E4,1.0295234E5,1.8279434E5,2.3592562E5,4.4281203E4,3.6522625E4,9.185559E4,1.723684E5,9.433496E3,4.7186918E4,4.157797E4,3.580037E4,1.23318875E5,8.471606E4,4.395631E4,2.534225E4,1.9041196E3,1.4043132E3,5.2111553E3,7.707285E2,1.4233719E4,1.8632172E4,6.8513574E2,1.0538726E3,1.9851406E4,1.6769883E3,5.8463906E4,2.8259656E4,1.5925319E5,1.7209872E5,7.848765E4,2.1500738E5,1.9529281E4,1.3665641E4,1.1482492E4,1.5700734E4,1.2834021E5,9.668064E4,7.129081E4,4.2686766E4,0E0,0E0,0E0,0E0,0E0,0E0,0E0,0E0,0E0,0E0,0E0,0E0,0E0,0E0,0E0,0E0,0E0,0E0,0E0,0E0,0E0,0E0,0E0,0E0,0E0,0E0,0E0,0E0,0E0,0E0,0E0,0E0,0E0,0E0,0E0,0E0,0E0,0E0,0E0,0E0,0E0,0E0,0E0,0E0,0E0,0E0,0E0,0E0,0E0,0E0,0E0,0E0,0E0,0E0,0E0,0E0,0E0,0E0,0E0,0E0,0E0,0E0,0E0,0E0],"parents":[2147483647,0,0,1,1,2,2,3,3,4,4,5,5,6,6,7,7,8,8,9,9,10,10,11,11,12,12,13,13,14,14,15,15,16,16,17,17,18,18,19,19,20,20,21,21,22,22,23,23,24,24,25,25,26,26,27,27,28,28,29,29,30,30,31,31,32,32,33,33,34,34,35,35,36,36,37,37,38,38,39,39,40,40,41,41,42,42,43,43,44,44,45,45,46,46,47,47,48,48,49,49,50,50,51,51,52,52,53,53,54,54,55,55,56,56,57,57,58,58,59,59,60,60,61,61,62,62],"right_children":[2,4,6,8,10,12,14,16,18,20,22,24,26,28,30,32,34,36,38,40,42,44,46,48,50,52,54,56,58,60,62,64,66,68,70,72,74,76,78,80,82,84,86,88,90,92,94,96,98,100,102,104,106,108,110,112,114,116,118,120,122,124,126,-1,-1,-1,-1,-1,-1,-1,-1,-1,-1,-1,-1,-1,-1,-1,-1,-1,-1,-1,-1,-1,-1,-1,-1,-1,-1,-1,-1,-1,-1,-1,-1,-1,-1,-1,-1,-1,-1,-1,-1,-1,-1,-1,-1,-1,-1,-1,-1,-1,-1,-1,-1,-1,-1,-1,-1,-1,-1,-1,-1,-1,-1,-1,-1],"split_conditions":[4.6666668E1,1.7932678E2,8.6166664E1,-3.955158E1,-3.6480996E-1,-3.33E2,3.382091E0,-4.065998E-1,8.19E2,-2.1772324E-1,3.184786E0,2.62E1,1.0277847E2,6.4666664E1,8.767778E1,-3.3982574E1,4.4221544E-1,3.1E1,2.46E1,1.3E0,2.4166667E0,-2.1772324E-1,-2.0543249E0,9.6166664E1,5.0666668E1,-2.0175701E1,3.0716717E0,-3.2364998E1,9.4333336E1,1.28E2,7.25E1,-1.5744156E0,-3.3924227E0,5.782978E-1,4.9784994E0,5.9666668E1,1.0277847E2,2.75E1,-2.6596713E0,3.527521E-1,2.18E1,1.4766666E1,-6.339785E-1,2.18E1,4.1833332E1,8.4E1,-7.74365E-2,-1.8399835E-1,6.2166668E1,7.85E1,7.8666664E1,4.6861988E-2,3.4977066E1,1.6033333E1,1.19E2,3.6E1,-3.0120306E-2,1.3059129E1,4.767432E0,-1.3100614E1,1.12E2,2.076822E1,9.3E1,-2.031738E0,-9.55912E-1,-1.2200568E0,1.2967789E0,2.6231337E0,5.8207786E-1,5.081194E-1,-9.8931944E-1,-4.4225374E-1,-1.6835148E0,-2.9825288E-1,3.1960376E-2,1.7944907E0,-3.1613934E-1,-8.3009034E-1,-1.5604501E0,4.5869703E0,1.3616152E0,3.4132364E0,-2.0423515E-1,1.3291061E0,-1.0533197E0,-1.591129E0,-2.3856955E0,5.450061E0,3.4602232E0,8.338374E-1,2.9029765E0,3.9452083E-2,2.939676E0,-7.833991E-1,-2.0508523E0,2.1456156E0,2.3151563E-1,2.607642E0,1.6585134E0,7.036212E0,2.2873926E0,2.8880835E0,1.1935446E0,-4.2291433E-1,3.5913892E-2,-8.200592E-2,2.1023624E-1,4.351976E-1,-1.8385094E-1,-1.2042338E0,2.1819308E-1,-1.1446651E0,1.6023046E0,5.0671206E0,2.8579135E0,9.234968E-1,4.901478E-1,1.1675742E0,3.148685E0,5.827938E-1,-1.3328907E-1,8.284855E-1,2.172683E-1,4.2279134E0,1.6361364E0,2.5025663E-1,7.79805E-1],"split_indices":[11,37,19,31,22,36,41,6,30,54,6,13,39,3,39,25,14,11,13,17,17,54,15,3,19,32,14,32,19,36,11,6,14,7,14,3,45,3,15,53,21,18,53,21,19,3,23,54,19,3,3,6,40,18,24,3,54,33,6,25,42,29,19,0,0,0,0,0,0,0,0,0,0,0,0,0,0,0,0,0,0,0,0,0,0,0,0,0,0,0,0,0,0,0,0,0,0,0,0,0,0,0,0,0,0,0,0,0,0,0,0,0,0,0,0,0,0,0,0,0,0,0,0,0,0,0,0],"split_type":[0,0,0,0,0,0,0,0,0,0,0,0,0,0,0,0,0,0,0,0,0,0,0,0,0,0,0,0,0,0,0,0,0,0,0,0,0,0,0,0,0,0,0,0,0,0,0,0,0,0,0,0,0,0,0,0,0,0,0,0,0,0,0,0,0,0,0,0,0,0,0,0,0,0,0,0,0,0,0,0,0,0,0,0,0,0,0,0,0,0,0,0,0,0,0,0,0,0,0,0,0,0,0,0,0,0,0,0,0,0,0,0,0,0,0,0,0,0,0,0,0,0,0,0,0,0,0],"sum_hessian":[2.341798E6,6.12214E5,1.729584E6,6.06783E5,5.431E3,1.28616E6,4.43424E5,2.0706E4,5.86077E5,1.725E3,3.706E3,1.3261E4,1.272899E6,4.3042E4,4.00382E5,6.687E3,1.4019E4,5.59242E5,2.6835E4,3.84E2,1.341E3,3.355E3,3.51E2,8.602E3,4.659E3,1.139812E6,1.33087E5,2.894E3,4.0148E4,3.36661E5,6.3721E4,3.818E3,2.869E3,5.55E3,8.469E3,2.00478E5,3.58764E5,7.36E3,1.9475E4,9.3E1,2.91E2,8.41E2,5E2,1.335E3,2.02E3,9.5E1,2.56E2,7.384E3,1.218E3,1.013E3,3.646E3,2.79273E5,8.60539E5,8.4815E4,4.8272E4,1.694E3,1.2E3,2.7144E4,1.3004E4,1.5384E5,1.82821E5,8.798E3,5.4923E4,9.92E2,2.826E3,1.066E3,1.803E3,4.422E3,1.128E3,6.636E3,1.833E3,1.92996E5,7.482E3,2.63597E5,9.5167E4,1.032E3,6.328E3,6.347E3,1.3128E4,2.1E1,7.2E1,9E0,2.82E2,9.2E1,7.49E2,1.84E2,3.16E2,5.78E2,7.57E2,5.33E2,1.487E3,8.8E1,7E0,1.62E2,9.4E1,5.24E2,6.86E3,2.05E2,1.013E3,6.46E2,3.67E2,1.521E3,2.125E3,1.17612E5,1.61661E5,2.59778E5,6.00761E5,2.7076E4,5.7739E4,3.5131E4,1.3141E4,2.78E2,1.416E3,3.65E2,8.35E2,7.674E3,1.947E4,1.2634E4,3.7E2,2.7408E4,1.26432E5,2.7396E4,1.55425E5,1.09E3,7.708E3,2.6175E4,2.8748E4],"tree_param":{"num_deleted":"0","num_feature":"55","num_nodes":"127","size_leaf_vector":"1"}},{"base_weights":[1.8596787E-5,-4.1265786E-1,5.122633E-1,-8.595233E-2,-8.4262085E-1,4.577943E-1,2.458694E0,-3.2818842E-1,1.0597374E0,1.2915055E0,-1.0084206E0,-2.8584979E0,4.851308E-1,2.6563811E0,-4.550535E-1,-2.055615E0,-1.2732561E-1,3.218991E-1,5.8360124E0,5.0665812E0,-1.4216093E0,-5.1633656E-1,-1.3983307E0,-5.305345E0,1.0684126E1,6.852963E-1,3.2468473E-3,3.435621E0,1.9643759E0,1.0963688E0,-1.017298E1,-3.4899342E0,-1.4357665E0,7.9803294E-1,-5.630931E-1,4.350204E0,1.23707885E-2,9.757418E0,4.698885E0,1.0576506E1,8.8755554E-1,-2.9919436E0,3.7410936E-1,-5.824579E-1,4.4488025E0,-2.6220815E0,-1.1497556E0,5.329779E0,-7.1458035E0,3.1947024E0,1.4029005E1,5.585355E-1,2.2779112E0,3.9461267E-1,-1.1232607E0,1.195048E1,3.3112195E0,5.518598E0,1.7621875E0,1.0085021E1,2.1001565E-1,-1.9876574E1,-7.5107293E0,-7.5711024E-1,-1.7732174E0,2.838748E-1,-4.6952227E-1,4.6842843E-1,-6.407032E-2,-4.2291597E-1,3.291023E-2,1.5261265E0,-3.8582498E-1,5.0489104E-1,-1.9557868E-1,5.423544E0,2.3710372E0,-2.6410823E0,1.634471E0,4.4891885E-1,3.8473487E0,1.7894136E0,-2.3656271E-1,-1.1910291E0,-2.1065521E-1,9.130031E-1,-3.0748844E-1,-2.501614E-1,1.5360627E-1,-2.6789284E-1,1.8320712E0,-9.935958E-1,-3.4392315E-1,-9.814043E-1,-2.8588927E-1,4.822706E0,9.268616E-1,-3.1741858E-1,-2.6962864E0,1.2724843E0,-3.0384626E0,5.1151876E0,2.6247637E0,2.4854705E-1,-1.0487537E-1,3.215839E-1,1.3715035E0,-2.0043653E-1,2.249368E-1,-6.625044E-2,-7.5609446E-1,3.7196007E0,-3.2608461E0,7.2119915E-1,1.2703971E0,2.6347318E0,1.2933445E0,5.668074E-1,-1.0782251E0,5.0968533E0,2.085778E0,-1.9717753E-1,1.0116987E0,-7.4607244E0,-3.9870608E0,8.0728215E-1,-2.744047E0],"categories":[],"categories_nodes":[],"categories_segments":[],"categories_sizes":[],"default_left":[0,0,0,0,0,0,0,0,0,0,0,0,0,0,0,0,0,0,0,0,0,0,0,0,0,0,0,0,0,0,0,0,0,0,0,0,0,0,0,0,0,0,0,0,0,0,0,0,0,0,0,0,0,0,0,0,0,0,0,0,0,0,0,0,0,0,0,0,0,0,0,0,0,0,0,0,0,0,0,0,0,0,0,0,0,0,0,0,0,0,0,0,0,0,0,0,0,0,0,0,0,0,0,0,0,0,0,0,0,0,0,0,0,0,0,0,0,0,0,0,0,0,0,0,0,0,0],"id":11,"left_children":[1,3,5,7,9,11,13,15,17,19,21,23,25,27,29,31,33,35,37,39,41,43,45,47,49,51,53,55,57,59,61,63,65,67,69,71,73,75,77,79,81,83,85,87,89,91,93,95,97,99,101,103,105,107,109,111,113,115,117,119,121,123,125,-1,-1,-1,-1,-1,-1,-1,-1,-1,-1,-1,-1,-1,-1,-1,-1,-1,-1,-1,-1,-1,-1,-1,-1,-1,-1,-1,-1,-1,-1,-1,-1,-1,-1,-1,-1,-1,-1,-1,-1,-1,-1,-1,-1,-1,-1,-1,-1,-1,-1,-1,-1,-1,-1,-1,-1,-1,-1,-1,-1,-1,-1,-1,-1],"loss_changes":[4.9503622E5,1.8218388E5,1.1077422E5,2.0452917E5,1.9814362E5,9.2144766E4,1.6384688E4,2.1108069E5,4.5328447E5,4.1347516E5,9.969669E4,2.7542297E5,9.723792E4,1.4356391E4,2.726966E4,5.6333906E4,2.1975762E5,1.389192E5,7.6700375E4,3.8869447E5,6.623724E4,7.541706E4,8.818369E4,1.3781595E5,3.1820328E4,1.4378794E5,1.3043598E5,1.3229797E4,1.0130039E4,1.242659E4,6.2832266E3,4.4710016E4,1.363075E4,1.3473958E5,2.1104006E5,3.3025203E4,1.14824336E5,5.9528438E4,1.3506403E5,1.486005E5,8.17074E4,2.8063344E4,4.0928934E4,6.2378766E4,2.6745367E4,4.982472E4,1.0060034E5,2.496262E4,6.727675E4,5.5384375E3,1.3873969E4,1.6173588E5,1.4524838E5,8.288019E4,9.6172305E4,1.9757422E3,1.0334531E4,2.9532969E3,9.101617E3,2.9097715E3,3.8994397E3,1.4122578E3,3.3127197E3,0E0,0E0,0E0,0E0,0E0,0E0,0E0,0E0,0E0,0E0,0E0,0E0,0E0,0E0,0E0,0E0,0E0,0E0,0E0,0E0,0E0,0E0,0E0,0E0,0E0,0E0,0E0,0E0,0E0,0E0,0E0,0E0,0E0,0E0,0E0,0E0,0E0,0E0,0E0,0E0,0E0,0E0,0E0,0E0,0E0,0E0,0E0,0E0,0E0,0E0,0E0,0E0,0E0,0E0,0E0,0E0,0E0,0E0,0E0,0E0,0E0,0E0,0E0,0E0],"parents":[2147483647,0,0,1,1,2,2,3,3,4,4,5,5,6,6,7,7,8,8,9,9,10,10,11,11,12,12,13,13,14,14,15,15,16,16,17,17,18,18,19,19,20,20,21,21,22,22,23,23,24,24,25,25,26,26,27,27,28,28,29,29,30,30,31,31,32,32,33,33,34,34,35,35,36,36,37,37,38,38,39,39,40,40,41,41,42,42,43,43,44,44,45,45,46,46,47,47,48,48,49,49,50,50,51,51,52,52,53,53,54,54,55,55,56,56,57,57,58,58,59,59,60,60,61,61,62,62],"right_children":[2,4,6,8,10,12,14,16,18,20,22,24,26,28,30,32,34,36,38,40,42,44,46,48,50,52,54,56,58,60,62,64,66,68,70,72,74,76,78,80,82,84,86,88,90,92,94,96,98,100,102,104,106,108,110,112,114,116,118,120,122,124,126,-1,-1,-1,-1,-1,-1,-1,-1,-1,-1,-1,-1,-1,-1,-1,-1,-1,-1,-1,-1,-1,-1,-1,-1,-1,-1,-1,-1,-1,-1,-1,-1,-1,-1,-1,-1,-1,-1,-1,-1,-1,-1,-1,-1,-1,-1,-1,-1,-1,-1,-1,-1,-1,-1,-1,-1,-1,-1,-1,-1,-1,-1,-1,-1],"split_conditions":[6.7666664E1,5.1226803E1,9.9166664E1,7.1166664E1,-3.33E2,2.8166666E1,2.07E1,3.6642609E0,8.767778E1,3E0,6.423042E1,3.63E2,1.1380797E1,3.8909443E1,8.3468735E1,4.5666668E1,4.4202682E1,7E0,2.076822E1,-1.3301471E-1,-7.827185E-2,8.9E1,-3.2442884E0,7.4E1,3E2,4.607181E0,2.558334E1,5.7833332E1,-1.84652E1,4.3349347E0,1.4166666E0,3.03E2,-3.1891654E0,-3.7779778E-1,8.899191E1,1.7234961E0,-4.2450485E0,5.2333332E1,-3.3924227E0,-1.2463974E0,-8.4061843E-1,1.0630574E-1,4.0666666E0,1.604E2,-1.5257534E1,5.591699E-2,-2.974689E1,6E0,2.5401688E1,9.423312E-1,6.65E1,6.867596E1,4.91E2,-2.0572633E-1,1.4398876E0,4.6666665E0,9.6833336E1,9.0333336E1,9.916667E0,7.6E1,2.6148394E1,2.06E1,1.6933332E1,-7.5711024E-1,-1.7732174E0,2.838748E-1,-4.6952227E-1,4.6842843E-1,-6.407032E-2,-4.2291597E-1,3.291023E-2,1.5261265E0,-3.8582498E-1,5.0489104E-1,-1.9557868E-1,5.423544E0,2.3710372E0,-2.6410823E0,1.634471E0,4.4891885E-1,3.8473487E0,1.7894136E0,-2.3656271E-1,-1.1910291E0,-2.1065521E-1,9.130031E-1,-3.0748844E-1,-2.501614E-1,1.5360627E-1,-2.6789284E-1,1.8320712E0,-9.935958E-1,-3.4392315E-1,-9.814043E-1,-2.8588927E-1,4.822706E0,9.268616E-1,-3.1741858E-1,-2.6962864E0,1.2724843E0,-3.0384626E0,5.1151876E0,2.6247637E0,2.4854705E-1,-1.0487537E-1,3.215839E-1,1.3715035E0,-2.0043653E-1,2.249368E-1,-6.625044E-2,-7.5609446E-1,3.7196007E0,-3.2608461E0,7.2119915E-1,1.2703971E0,2.6347318E0,1.2933445E0,5.668074E-1,-1.0782251E0,5.0968533E0,2.085778E0,-1.9717753E-1,1.0116987E0,-7.4607244E0,-3.9870608E0,8.0728215E-1,-2.744047E0],"split_indices":[11,35,11,19,36,19,18,41,39,1,41,36,38,29,27,19,28,30,29,54,14,19,15,24,30,22,50,3,43,25,1,42,14,23,28,7,43,3,14,22,53,15,1,44,32,54,31,24,50,15,3,27,24,6,22,17,3,3,1,3,25,4,2,0,0,0,0,0,0,0,0,0,0,0,0,0,0,0,0,0,0,0,0,0,0,0,0,0,0,0,0,0,0,0,0,0,0,0,0,0,0,0,0,0,0,0,0,0,0,0,0,0,0,0,0,0,0,0,0,0,0,0,0,0,0,0,0],"split_type":[0,0,0,0,0,0,0,0,0,0,0,0,0,0,0,0,0,0,0,0,0,0,0,0,0,0,0,0,0,0,0,0,0,0,0,0,0,0,0,0,0,0,0,0,0,0,0,0,0,0,0,0,0,0,0,0,0,0,0,0,0,0,0,0,0,0,0,0,0,0,0,0,0,0,0,0,0,0,0,0,0,0,0,0,0,0,0,0,0,0,0,0,0,0,0,0,0,0,0,0,0,0,0,0,0,0,0,0,0,0,0,0,0,0,0,0,0,0,0,0,0,0,0,0,0,0,0],"sum_hessian":[2.341798E6,1.296947E6,1.044851E6,7.36967E5,5.5998E5,1.016409E6,2.8442E4,6.08344E5,1.28623E5,4.0368E4,5.19612E5,8.309E3,1.0081E6,2.6635E4,1.807E3,6.3368E4,5.44976E5,1.11413E5,1.721E4,1.688E4,2.3488E4,2.2971E5,2.89902E5,7.038E3,1.271E3,7.12246E5,2.95854E5,1.2526E4,1.4109E4,1.559E3,2.48E2,1.912E4,4.4248E4,1.74475E5,3.70501E5,7.949E3,1.03464E5,3.867E3,1.3343E4,7.28E3,9.6E3,1.253E4,1.0958E4,2.26692E5,3.018E3,4.8943E4,2.40959E5,1.038E3,6E3,3.93E2,8.78E2,6.59737E5,5.2509E4,2.19572E5,7.6282E4,1.79E2,1.2347E4,7.58E2,1.3351E4,1.39E2,1.42E3,5.2E1,1.96E2,1.3667E4,5.453E3,2.278E3,4.197E4,9.9436E4,7.5039E4,1.64056E5,2.06445E5,7.03E3,9.19E2,2.9436E4,7.4028E4,7.03E2,3.164E3,7.01E2,1.2642E4,1.445E3,5.835E3,2.382E3,7.218E3,8.779E3,3.751E3,3.768E3,7.19E3,1.84346E5,4.2346E4,7.15E2,2.303E3,3.335E4,1.5593E4,2.0452E4,2.20507E5,1.78E2,8.6E2,1.394E3,4.606E3,3.65E2,2.8E1,5.57E2,3.21E2,5.08559E5,1.51178E5,3.4416E4,1.8093E4,5.5001E4,1.64571E5,4.6346E4,2.9936E4,1.76E2,3E0,6.23E3,6.117E3,2.03E2,5.55E2,1.3042E4,3.09E2,4.2E1,9.7E1,1.115E3,3.05E2,2.8E1,2.4E1,2.7E1,1.69E2],"tree_param":{"num_deleted":"0","num_feature":"55","num_nodes":"127","size_leaf_vector":"1"}},{"base_weights":[2.0636884E-5,-8.019019E-1,1.4831597E-1,-4.8614162E-1,-1.7259066E0,3.263518E-2,8.773977E-1,2.4457859E-1,-9.735955E-1,-1.1275309E0,-4.097271E0,-2.859378E0,5.6482494E-2,6.727249E-1,1.765296E0,-2.023439E-1,3.2841904E0,1.7527056E0,-1.1091564E0,-1.0021144E0,-4.2738185E0,-5.15535E0,-3.2697973E-1,-1.7829485E0,-1.0352818E1,3.8789973E-1,-1.5717854E-1,-2.8277808E-1,9.1691506E-1,4.3171782E0,1.4648933E0,-5.7219476E-1,1.581647E0,7.922555E0,-5.500138E-1,-4.334021E0,2.5988214E0,-9.449981E-1,-3.326927E0,-1.2350085E0,7.385452E-2,-5.356017E0,-4.7680786E-1,-4.725432E0,-1.3869949E1,5.540706E0,-1.4124919E0,-9.353641E0,-8.938288E-1,-1.5347028E1,-4.2377706E0,-2.6285994E-1,8.314666E-1,8.692513E-2,-1.112157E0,-1.1673353E0,1.4130403E0,5.0238412E-2,1.2606238E0,5.3781805E0,1.6429572E0,1.2272232E0,3.1750896E0,-2.016031E-1,1.5227169E0,1.6045257E0,-1.506337E-1,6.557339E0,1.3154047E0,1.0365397E0,-7.1849024E-1,-3.6766183E-1,-1.6611816E0,2.3321042E0,3.9509338E-1,-7.707766E-1,-2.2170627E-1,2.821926E-1,-1.406452E0,-4.624407E-1,-2.9270506E-2,1.8184103E-1,-2.9964057E-1,-2.835172E0,-1.4673223E0,-1.5563878E0,3.1851608E-1,-5.6287277E-1,-1.6359196E0,-1.9176849E0,-5.176612E0,2.0968874E0,-8.941615E-1,-6.98569E-1,6.4366555E-1,-1.9010558E0,-3.4770496E0,-9.272289E-2,-2.7453623E0,-6.4231133E0,-3.9302752E0,-4.8432127E-1,-7.228523E0,1.6795415E-2,-1.1232209E0,1.7142159E-1,1.0200665E0,-9.539868E-3,7.7458894E-1,-5.0553876E-1,7.2014344E-1,-1.8646363E-2,-1.1501821E0,-3.6958597E0,4.6262985E-1,1.1873046E-1,-3.1896827E-1,8.234127E-1,2.7245012E-1,-1.1519157E0,1.7243824E0,3.5744864E-2,1.0487468E0,9.9033064E-1,3.054245E-1,1.8794005E0,8.423759E-1],"categories":[],"categories_nodes":[],"categories_segments":[],"categories_sizes":[],"default_left":[0,0,0,0,0,0,0,0,0,0,0,0,0,0,0,0,0,0,0,0,0,0,0,0,0,0,0,0,0,0,0,0,0,0,0,0,0,0,0,0,0,0,0,0,0,0,0,0,0,0,0,0,0,0,0,0,0,0,0,0,0,0,0,0,0,0,0,0,0,0,0,0,0,0,0,0,0,0,0,0,0,0,0,0,0,0,0,0,0,0,0,0,0,0,0,0,0,0,0,0,0,0,0,0,0,0,0,0,0,0,0,0,0,0,0,0,0,0,0,0,0,0,0,0,0,0,0],"id":12,"left_children":[1,3,5,7,9,11,13,15,17,19,21,23,25,27,29,31,33,35,37,39,41,43,45,47,49,51,53,55,57,59,61,63,65,67,69,71,73,75,77,79,81,83,85,87,89,91,93,95,97,99,101,103,105,107,109,111,113,115,117,119,121,123,125,-1,-1,-1,-1,-1,-1,-1,-1,-1,-1,-1,-1,-1,-1,-1,-1,-1,-1,-1,-1,-1,-1,-1,-1,-1,-1,-1,-1,-1,-1,-1,-1,-1,-1,-1,-1,-1,-1,-1,-1,-1,-1,-1,-1,-1,-1,-1,-1,-1,-1,-1,-1,-1,-1,-1,-1,-1,-1,-1,-1,-1,-1,-1,-1],"loss_changes":[2.7849006E5,1.0663072E5,1.6668497E5,9.702348E4,1.320771E5,1.1763627E5,4.9181125E4,1.4807128E5,6.0388688E4,2.932568E4,7.4817E4,1.1250446E5,1.19794055E5,5.13174E4,3.8858375E4,6.2700727E4,2.484885E5,3.987285E4,5.666511E4,1.791229E4,1.1704324E4,5.4802906E4,2.6192611E4,8.210618E4,5.344075E4,1.9141747E5,2.3978347E5,6.715581E4,5.218092E4,1.5139797E4,1.8433242E4,4.4376152E4,1.2808339E5,3.1163512E5,5.653648E4,3.5277812E3,4.5070086E4,4.848522E4,6.2319812E4,2.0483133E4,7.263164E3,4.1743633E3,4.593643E3,2.8927E4,1.7306453E4,7.947342E3,1.1315189E4,8.576352E3,5.271498E4,1.28481875E4,4.1062477E4,2.983488E5,2.634332E5,2.4266919E5,4.2145125E5,8.670875E4,2.7218705E4,1.913871E4,6.560642E4,1.3049047E4,4.28552E3,1.727096E4,6.2601797E3,0E0,0E0,0E0,0E0,0E0,0E0,0E0,0E0,0E0,0E0,0E0,0E0,0E0,0E0,0E0,0E0,0E0,0E0,0E0,0E0,0E0,0E0,0E0,0E0,0E0,0E0,0E0,0E0,0E0,0E0,0E0,0E0,0E0,0E0,0E0,0E0,0E0,0E0,0E0,0E0,0E0,0E0,0E0,0E0,0E0,0E0,0E0,0E0,0E0,0E0,0E0,0E0,0E0,0E0,0E0,0E0,0E0,0E0,0E0,0E0,0E0,0E0,0E0,0E0],"parents":[2147483647,0,0,1,1,2,2,3,3,4,4,5,5,6,6,7,7,8,8,9,9,10,10,11,11,12,12,13,13,14,14,15,15,16,16,17,17,18,18,19,19,20,20,21,21,22,22,23,23,24,24,25,25,26,26,27,27,28,28,29,29,30,30,31,31,32,32,33,33,34,34,35,35,36,36,37,37,38,38,39,39,40,40,41,41,42,42,43,43,44,44,45,45,46,46,47,47,48,48,49,49,50,50,51,51,52,52,53,53,54,54,55,55,56,56,57,57,58,58,59,59,60,60,61,61,62,62],"right_children":[2,4,6,8,10,12,14,16,18,20,22,24,26,28,30,32,34,36,38,40,42,44,46,48,50,52,54,56,58,60,62,64,66,68,70,72,74,76,78,80,82,84,86,88,90,92,94,96,98,100,102,104,106,108,110,112,114,116,118,120,122,124,126,-1,-1,-1,-1,-1,-1,-1,-1,-1,-1,-1,-1,-1,-1,-1,-1,-1,-1,-1,-1,-1,-1,-1,-1,-1,-1,-1,-1,-1,-1,-1,-1,-1,-1,-1,-1,-1,-1,-1,-1,-1,-1,-1,-1,-1,-1,-1,-1,-1,-1,-1,-1,-1,-1,-1,-1,-1,-1,-1,-1,-1,-1,-1,-1],"split_conditions":[3.85E1,2.6148394E1,9E1,2.69E1,4.5166668E1,2.4166666E1,1E-1,1.0511349E1,7.762733E0,6.65E1,1.8338007E2,1.2753114E2,1.5347674E1,8E1,7.5E1,4.423633E1,6.123234E-17,-3.4578202E0,1.2753114E2,5E-1,1.1363678E0,1.7932678E2,6.44928E-3,-4.7016895E1,5.5650926E-1,1.82E1,3.3039093E0,1.41E1,-2.1990322E1,5.1226803E1,1.3657826E2,7.69E2,1.96E1,2.051045E-1,1.7166666E1,2.95E0,6E0,1.0677446E1,2.55E0,2.6377304E0,3.52E2,1.8166666E1,7.958864E1,3.8909443E1,5.2333332E1,2.2E1,3.9054778E0,-1.9491731E0,9.52E2,-2.2874248E0,9.899325E-1,1.8338007E2,1.8338007E2,1.4845663E2,6.73E2,4.6100613E-1,3.3333332E1,2.47E1,7.9166664E1,1.2430738E0,9.6833336E1,1.1402432E1,4.94509E1,-2.016031E-1,1.5227169E0,1.6045257E0,-1.506337E-1,6.557339E0,1.3154047E0,1.0365397E0,-7.1849024E-1,-3.6766183E-1,-1.6611816E0,2.3321042E0,3.9509338E-1,-7.707766E-1,-2.2170627E-1,2.821926E-1,-1.406452E0,-4.624407E-1,-2.9270506E-2,1.8184103E-1,-2.9964057E-1,-2.835172E0,-1.4673223E0,-1.5563878E0,3.1851608E-1,-5.6287277E-1,-1.6359196E0,-1.9176849E0,-5.176612E0,2.0968874E0,-8.941615E-1,-6.98569E-1,6.4366555E-1,-1.9010558E0,-3.4770496E0,-9.272289E-2,-2.7453623E0,-6.4231133E0,-3.9302752E0,-4.8432127E-1,-7.228523E0,1.6795415E-2,-1.1232209E0,1.7142159E-1,1.0200665E0,-9.539868E-3,7.7458894E-1,-5.0553876E-1,7.2014344E-1,-1.8646363E-2,-1.1501821E0,-3.6958597E0,4.6262985E-1,1.1873046E-1,-3.1896827E-1,8.234127E-1,2.7245012E-1,-1.1519157E0,1.7243824E0,3.5744864E-2,1.0487468E0,9.9033064E-1,3.054245E-1,1.8794005E0,8.423759E-1],"split_indices":[3,25,3,4,11,19,0,25,29,19,28,25,49,30,11,31,52,6,31,54,14,25,14,44,22,13,6,5,26,47,26,24,13,53,18,9,24,27,17,14,36,3,39,47,19,24,14,15,42,22,53,28,28,31,24,31,11,12,11,29,3,46,46,0,0,0,0,0,0,0,0,0,0,0,0,0,0,0,0,0,0,0,0,0,0,0,0,0,0,0,0,0,0,0,0,0,0,0,0,0,0,0,0,0,0,0,0,0,0,0,0,0,0,0,0,0,0,0,0,0,0,0,0,0,0,0,0],"split_type":[0,0,0,0,0,0,0,0,0,0,0,0,0,0,0,0,0,0,0,0,0,0,0,0,0,0,0,0,0,0,0,0,0,0,0,0,0,0,0,0,0,0,0,0,0,0,0,0,0,0,0,0,0,0,0,0,0,0,0,0,0,0,0,0,0,0,0,0,0,0,0,0,0,0,0,0,0,0,0,0,0,0,0,0,0,0,0,0,0,0,0,0,0,0,0,0,0,0,0,0,0,0,0,0,0,0,0,0,0,0,0,0,0,0,0,0,0,0,0,0,0,0,0,0,0,0,0],"sum_hessian":[2.341798E6,3.65471E5,1.976327E6,2.72389E5,9.3082E4,1.705692E6,2.70635E5,1.08997E5,1.63392E5,7.4328E4,1.8754E4,1.3949E4,1.691743E6,2.19938E5,5.0697E4,9.5026E4,1.3971E4,7.739E3,1.55653E5,7.148E4,2.848E3,1.4644E4,4.11E3,1.2198E4,1.751E3,6.63133E5,1.02861E6,4.4767E4,1.75171E5,5.338E3,4.5359E4,7.8709E4,1.6317E4,6.322E3,7.649E3,9.44E2,6.795E3,1.44927E5,1.0726E4,5.8761E4,1.2719E4,2.216E3,6.32E2,1.3957E4,6.87E2,6.41E2,3.469E3,1.281E3,1.0917E4,9.63E2,7.88E2,2.6879E5,3.94343E5,8.19211E5,2.09399E5,2.9421E4,1.5346E4,4.9743E4,1.25428E5,3.821E3,1.517E3,3.9826E4,5.533E3,7.7343E4,1.366E3,5.811E3,1.0506E4,1.279E3,5.043E3,2.412E3,5.237E3,2.64E2,6.8E2,1.348E3,5.447E3,1.6309E4,1.28618E5,2.594E3,8.132E3,4.6289E4,1.2472E4,8.501E3,4.218E3,2.24E2,1.992E3,1.55E2,4.77E2,2.84E3,1.1117E4,2.15E2,4.72E2,5.48E2,9.3E1,2.759E3,7.1E2,5.47E2,7.34E2,1.0196E4,7.21E2,2.58E2,7.05E2,6.97E2,9.1E1,2.46238E5,2.2552E4,3.58091E5,3.6252E4,7.82001E5,3.721E4,1.80033E5,2.9366E4,2.0801E4,8.62E3,1.42E2,1.5204E4,3.7963E4,1.178E4,2.407E4,1.01358E5,1.47E2,3.674E3,8.33E2,6.84E2,3.647E3,3.6179E4,5.86E2,4.947E3],"tree_param":{"num_deleted":"0","num_feature":"55","num_nodes":"127","size_leaf_vector":"1"}},{"base_weights":[2.0060427E-6,-1.5115899E-1,5.7001907E-1,6.034537E-1,-2.284031E-1,7.990394E-1,-3.6306486E-1,2.4984274E0,-8.2681763E-1,2.1750897E-1,-4.1652784E-1,4.466277E0,6.722941E-1,-4.8263764E0,2.2988018E-1,3.4616756E0,9.9100935E-1,-1.9390234E0,1.2491611E0,2.5906427E0,1.3135971E-3,-7.5565696E-1,1.1412401E-2,7.9439282E0,-6.770621E-1,1.2632295E0,4.357993E-1,-6.3982854E0,2.4719946E0,-9.894176E-1,9.484916E-1,1.4223573E0,4.9748845E0,-7.761487E-2,1.7534457E0,-4.7159142E0,-3.0959412E-1,3.1508148E0,-1.4614825E0,3.7448032E0,-1.5573414E-3,-6.5845146E0,7.9320356E-2,-6.798952E-2,-1.3644115E0,-8.260157E-1,6.822128E-1,4.3366547E0,1.1995697E1,-4.2745986E0,3.9821568E0,6.8622065E-1,2.8196487E0,-5.8471217E0,4.69462E-1,-2.5646904E0,-9.281456E0,5.5211987E0,-1.7853141E0,-4.8563714E0,-5.513528E-1,9.6755706E-2,2.5229852E0,1.588074E0,2.3492767E-1,-7.6838535E-1,1.6723549E0,-5.240286E0,-1.4613615E-3,6.201628E-1,-1.3812286E-1,-2.0854232E0,-8.881675E-1,-6.9514585E-1,3.5970563E-1,1.7185336E0,3.7001306E-1,-6.545571E-1,3.215523E-1,1.7713088E0,5.0061494E-1,-1.7610993E-2,5.341717E0,-3.0360115E0,1.3284174E-1,-4.2433262E-2,6.527343E-1,-8.7536864E-2,6.3835406E-1,-2.2072242E-1,-5.3061736E-1,9.1080636E-2,-4.306784E-1,1.382025E0,1.4121008E-1,1.5654052E0,-2.8453156E-1,5.227074E0,2.7183144E0,-2.3352492E0,-6.922475E-2,9.811121E0,1.1379579E0,1.3116069E0,1.5857291E-1,6.266361E-1,1.5263155E0,-1.4820989E0,-3.1686761E0,8.6170584E-1,1.2152822E-1,-1.2885323E0,