{"learner":{"attributes":{},"feature_names":["rain_n1","ws_n1","td_n1","rh_n1","tdmax_n1","tdmin_n1","u_vec_n1","v_vec_n1","rain_n2","ws_n2","td_n2","rh_n2","tdmax_n2","tdmin_n2","u_vec_n2","v_vec_n2","rain_n3","ws_n3","td_n3","rh_n3","tdmax_n3","tdmin_n3","u_vec_n3","v_vec_n3","elevation_target","dist_to_coast_target","elevation_n1","dist_to_coast_n1","elevation_n2","dist_to_coast_n2","elevation_n3","dist_to_coast_n3","dist_n1","dist_n2","dist_n3","month_sin","month_cos","day_sin","day_cos"],"feature_types":["float","float","float","float","float","float","float","float","float","float","float","float","float","float","float","float","float","float","float","float","float","float","float","float","int","float","int","float","int","float","int","float","float","float","float","float","float","float","float"],"gradient_booster":{"model":{"cats":{"enc":[],"feature_segments":[],"sorted_idx":[]},"gbtree_model_param":{"num_parallel_tree":"1","num_trees":"100"},"iteration_indptr":[0,1,2,3,4,5,6,7,8,9,10,11,12,13,14,15,16,17,18,19,20,21,22,23,24,25,26,27,28,29,30,31,32,33,34,35,36,37,38,39,40,41,42,43,44,45,46,47,48,49,50,51,52,53,54,55,56,57,58,59,60,61,62,63,64,65,66,67,68,69,70,71,72,73,74,75,76,77,78,79,80,81,82,83,84,85,86,87,88,89,90,91,92,93,94,95,96,97,98,99,100],"tree_info":[0,0,0,0,0,0,0,0,0,0,0,0,0,0,0,0,0,0,0,0,0,0,0,0,0,0,0,0,0,0,0,0,0,0,0,0,0,0,0,0,0,0,0,0,0,0,0,0,0,0,0,0,0,0,0,0,0,0,0,0,0,0,0,0,0,0,0,0,0,0,0,0,0,0,0,0,0,0,0,0,0,0,0,0,0,0,0,0,0,0,0,0,0,0,0,0,0,0,0,0],"trees":[{"base_weights":[-2.8087962E-7,-6.1992784E0,5.5443983E0,-9.618468E0,-3.334222E0,2.8189042E0,9.676452E0,-1.2002837E1,-7.926253E0,-4.7112937E0,-1.2199715E0,1.3427455E0,4.9846926E0,8.210908E0,1.2929436E1,-1.3876188E1,-1.0972224E1,-8.781218E0,-6.325435E0,-5.9884534E0,-3.4540744E0,2.7053397E0,-2.2056236E0,1.9803616E-1,2.8268816E0,4.3006353E0,7.493578E0,1.1832578E1,7.4615884E0,1.1806976E1,1.58714E1,-1.5815202E1,-1.2940421E1,-8.46697E0,-1.1691411E1,-9.901741E0,-8.272713E0,-7.3648443E0,-5.664318E0,-5.0075297E0,-7.9442883E0,-4.330151E0,-2.8528516E0,9.1410744E-1,5.846422E0,-5.9108715E0,-1.5663123E0,-1.0680119E0,8.186353E-1,3.6440706E0,1.2163551E0,3.148347E0,4.9285502E0,6.72216E0,9.800048E0,1.0110687E1,1.4706004E1,4.626532E0,8.231151E0,1.4395667E1,1.1070532E1,1.695572E1,1.4017796E1,-4.445083E0,-5.0186E0,-4.0958276E0,-3.662553E0,-1.3551908E0,-2.665389E0,-3.4002488E0,-4.179398E0,-1.9959713E0,-3.0254679E0,-2.1044238E0,-2.6117704E0,-1.9404658E0,-2.4109282E0,-1.8660368E0,-1.376001E0,-5.14993E-1,-1.5910369E0,-3.2373414E0,-2.114034E0,-1.2481703E0,-3.090577E0,-1.0504589E0,-6.578936E-1,-3.1220213E-2,6.3013566E-1,2.4783752E0,1.4508344E0,-1.2017691E0,-2.4038343E0,-3.7967363E-1,-1.1651472E0,-2.8638065E-1,-2.050387E0,8.128588E-2,4.6875194E-1,1.7186092E0,9.6425366E-1,5.6321952E-2,5.879922E-1,1.1650052E0,5.204567E-1,1.5114236E0,3.8503155E-1,2.2037482E0,1.4712119E0,2.5529091E0,3.438708E0,2.751365E0,3.3643553E0,4.098438E0,5.066842E0,1.7683913E0,7.2706085E-1,2.212717E0,2.8573606E0,3.9814987E0,4.949824E0,2.9074955E0,3.6249835E0,4.793136E0,5.639635E0,4.021388E0,4.8711743E0],"categories":[],"categories_nodes":[],"categories_segments":[],"categories_sizes":[],"default_left":[0,0,0,0,0,0,0,0,0,0,0,0,0,0,0,0,0,0,0,0,0,0,0,0,0,0,0,0,0,0,0,0,0,0,0,0,0,0,0,0,0,0,0,0,0,0,0,0,0,0,0,0,0,0,0,0,0,0,0,0,0,0,0,0,0,0,0,0,0,0,0,0,0,0,0,0,0,0,0,0,0,0,0,0,0,0,0,0,0,0,0,0,0,0,0,0,0,0,0,0,0,0,0,0,0,0,0,0,0,0,0,0,0,0,0,0,0,0,0,0,0,0,0,0,0,0,0],"id":0,"left_children":[1,3,5,7,9,11,13,15,17,19,21,23,25,27,29,31,33,35,37,39,41,43,45,47,49,51,53,55,57,59,61,63,65,67,69,71,73,75,77,79,81,83,85,87,89,91,93,95,97,99,101,103,105,107,109,111,113,115,117,119,121,123,125,-1,-1,-1,-1,-1,-1,-1,-1,-1,-1,-1,-1,-1,-1,-1,-1,-1,-1,-1,-1,-1,-1,-1,-1,-1,-1,-1,-1,-1,-1,-1,-1,-1,-1,-1,-1,-1,-1,-1,-1,-1,-1,-1,-1,-1,-1,-1,-1,-1,-1,-1,-1,-1,-1,-1,-1,-1,-1,-1,-1,-1,-1,-1,-1],"loss_changes":[8.204006E7,1.1039156E7,1.4189844E7,2.072856E6,1.7851035E6,2.4272425E6,2.387288E6,4.11596E5,4.1122E5,5.961545E5,9.356672E5,7.6703956E5,5.28094E5,9.36826E5,5.1343E5,1.3712E5,2.47787E5,1.11528E5,7.185025E4,3.53324E5,9.85415E4,2.730892E5,4.5787856E5,2.002732E5,2.58739E5,1.74937E5,1.1723325E5,2.926715E5,6.24071E5,2.14478E5,8.6089E4,2.22125E4,2.6451E4,5.05865E4,8.5377E4,3.6309E4,7.3365E4,2.443775E4,3.827575E4,1.194515E5,1.57109E5,7.7072375E4,4.7489938E4,3.7339016E4,4.2965E4,1.13860125E5,1.1489203E5,5.4827875E4,6.968581E4,1.16860125E5,5.061903E4,8.8603875E4,6.24795E4,5.598525E4,3.5339375E4,3.827725E4,5.03425E4,1.7060388E5,2.48854E5,5.87355E4,1.22289E5,4.8567E4,2.13635E4,0E0,0E0,0E0,0E0,0E0,0E0,0E0,0E0,0E0,0E0,0E0,0E0,0E0,0E0,0E0,0E0,0E0,0E0,0E0,0E0,0E0,0E0,0E0,0E0,0E0,0E0,0E0,0E0,0E0,0E0,0E0,0E0,0E0,0E0,0E0,0E0,0E0,0E0,0E0,0E0,0E0,0E0,0E0,0E0,0E0,0E0,0E0,0E0,0E0,0E0,0E0,0E0,0E0,0E0,0E0,0E0,0E0,0E0,0E0,0E0,0E0,0E0,0E0,0E0],"parents":[2147483647,0,0,1,1,2,2,3,3,4,4,5,5,6,6,7,7,8,8,9,9,10,10,11,11,12,12,13,13,14,14,15,15,16,16,17,17,18,18,19,19,20,20,21,21,22,22,23,23,24,24,25,25,26,26,27,27,28,28,29,29,30,30,31,31,32,32,33,33,34,34,35,35,36,36,37,37,38,38,39,39,40,40,41,41,42,42,43,43,44,44,45,45,46,46,47,47,48,48,49,49,50,50,51,51,52,52,53,53,54,54,55,55,56,56,57,57,58,58,59,59,60,60,61,61,62,62],"right_children":[2,4,6,8,10,12,14,16,18,20,22,24,26,28,30,32,34,36,38,40,42,44,46,48,50,52,54,56,58,60,62,64,66,68,70,72,74,76,78,80,82,84,86,88,90,92,94,96,98,100,102,104,106,108,110,112,114,116,118,120,122,124,126,-1,-1,-1,-1,-1,-1,-1,-1,-1,-1,-1,-1,-1,-1,-1,-1,-1,-1,-1,-1,-1,-1,-1,-1,-1,-1,-1,-1,-1,-1,-1,-1,-1,-1,-1,-1,-1,-1,-1,-1,-1,-1,-1,-1,-1,-1,-1,-1,-1,-1,-1,-1,-1,-1,-1,-1,-1,-1,-1,-1,-1,-1,-1,-1],"split_conditions":[2.0083334E1,1.4516666E1,2.78E1,1.0683333E1,1.8966667E1,2.44E1,3.14E1,8.266666E0,1.4116667E1,1.6E1,-3E0,2.2816668E1,2.81E1,-3E0,3.5783333E1,6.7E0,2.7E1,1.09E1,1.32E1,3.78E2,1.6433332E1,2.3E1,1.5516666E1,1.88E1,3.52E2,2.29E1,2.86E1,3.18E1,2.59E1,-3E0,3.59E2,3.78E2,8.316667E0,-3.33E2,8.19E2,1.9328351E0,2.7E1,8.560624E0,1.6483334E1,-2.53E2,1.19E1,9.42E2,1.8E1,2.06E1,-3.33E2,5.65E2,8.19E2,9.42E2,2.215E1,-3E0,3E2,3.72E2,9.42E2,3.72E2,3.04E1,2.94E1,3.5E1,5.65E2,3.07E1,3.5E1,8E1,3.8966667E1,3.94E1,-4.445083E0,-5.0186E0,-4.0958276E0,-3.662553E0,-1.3551908E0,-2.665389E0,-3.4002488E0,-4.179398E0,-1.9959713E0,-3.0254679E0,-2.1044238E0,-2.6117704E0,-1.9404658E0,-2.4109282E0,-1.8660368E0,-1.376001E0,-5.14993E-1,-1.5910369E0,-3.2373414E0,-2.114034E0,-1.2481703E0,-3.090577E0,-1.0504589E0,-6.578936E-1,-3.1220213E-2,6.3013566E-1,2.4783752E0,1.4508344E0,-1.2017691E0,-2.4038343E0,-3.7967363E-1,-1.1651472E0,-2.8638065E-1,-2.050387E0,8.128588E-2,4.6875194E-1,1.7186092E0,9.6425366E-1,5.6321952E-2,5.879922E-1,1.1650052E0,5.204567E-1,1.5114236E0,3.8503155E-1,2.2037482E0,1.4712119E0,2.5529091E0,3.438708E0,2.751365E0,3.3643553E0,4.098438E0,5.066842E0,1.7683913E0,7.2706085E-1,2.212717E0,2.8573606E0,3.9814987E0,4.949824E0,2.9074955E0,3.6249835E0,4.793136E0,5.639635E0,4.021388E0,4.8711743E0],"split_indices":[2,10,10,2,10,2,2,10,2,2,24,10,2,24,10,4,24,20,20,24,18,13,2,21,24,21,21,13,2,24,24,24,2,24,24,25,24,32,2,24,2,24,2,13,24,24,24,24,2,24,28,24,24,24,2,13,13,24,10,5,26,10,4,0,0,0,0,0,0,0,0,0,0,0,0,0,0,0,0,0,0,0,0,0,0,0,0,0,0,0,0,0,0,0,0,0,0,0,0,0,0,0,0,0,0,0,0,0,0,0,0,0,0,0,0,0,0,0,0,0,0,0,0,0,0,0,0],"split_type":[0,0,0,0,0,0,0,0,0,0,0,0,0,0,0,0,0,0,0,0,0,0,0,0,0,0,0,0,0,0,0,0,0,0,0,0,0,0,0,0,0,0,0,0,0,0,0,0,0,0,0,0,0,0,0,0,0,0,0,0,0,0,0,0,0,0,0,0,0,0,0,0,0,0,0,0,0,0,0,0,0,0,0,0,0,0,0,0,0,0,0,0,0,0,0,0,0,0,0,0,0,0,0,0,0,0,0,0,0,0,0,0,0,0,0,0,0,0,0,0,0,0,0,0,0,0,0],"sum_hessian":[2.386877E6,1.126887E6,1.25999E6,5.13759E5,6.13128E5,7.59215E5,5.00775E5,2.13262E5,3.00497E5,3.71293E5,2.41835E5,4.5149E5,3.07725E5,3.4524E5,1.55535E5,7.5682E4,1.3758E5,1.95878E5,1.04619E5,1.84184E5,1.87109E5,4.8537E4,1.93298E5,2.54893E5,1.96597E5,2.418E5,6.5925E4,5.9182E4,2.86058E5,1.12585E5,4.295E4,2.463E4,5.1052E4,3.0689E4,1.06891E5,6.1138E4,1.3474E5,4.0669E4,6.395E4,1.22666E5,6.1518E4,7.6146E4,1.10963E5,3.0911E4,1.7626E4,2.8443E4,1.64855E5,8.3845E4,1.71048E5,1.3042E5,6.6177E4,8.529E4,1.5651E5,4.9405E4,1.652E4,3.7009E4,2.2173E4,6.1073E4,2.24985E5,2.4931E4,8.7654E4,2.7093E4,1.5857E4,1.1777E4,1.2853E4,2.5863E4,2.5189E4,2.936E3,2.7753E4,9.2193E4,1.4698E4,3.265E3,5.7873E4,3.4518E4,1.00222E5,1.7421E4,2.3248E4,4.2187E4,2.1763E4,1.0121E4,1.12545E5,1.4743E4,4.6775E4,7.4045E4,2.101E3,5.5954E4,5.5009E4,1.6635E4,1.4276E4,5.197E3,1.2429E4,1.4922E4,1.3521E4,1.45921E5,1.8934E4,8.2229E4,1.616E3,9.8516E4,7.2532E4,2.2295E4,1.08125E5,2.7768E4,3.8409E4,5.6111E4,2.9179E4,1.51944E5,4.566E3,3.6784E4,1.2621E4,9.304E3,7.216E3,1.9998E4,1.7011E4,1.5003E4,7.17E3,3.876E4,2.2313E4,1.35424E5,8.9561E4,1.6254E4,8.677E3,3.7122E4,5.0532E4,1.7703E4,9.39E3,1.243E4,3.427E3],"tree_param":{"num_deleted":"0","num_feature":"39","num_nodes":"127","size_leaf_vector":"1"}},{"base_weights":[5.0310578E-6,-4.2273555E0,4.023166E0,-6.5974092E0,-2.0096686E0,2.2035768E0,7.006084E0,-8.329362E0,-5.357089E0,-3.093524E0,-6.2979287E-1,1.1095929E0,3.739716E0,5.8629827E0,9.523788E0,-9.755748E0,-7.40671E0,-3.6147318E0,-6.032316E0,-3.940989E0,-2.3390517E0,-1.1857443E0,5.5164E-1,1.7571845E0,-2.8185558E-1,4.834992E0,1.8033861E0,5.089061E0,7.0554338E0,1.0474937E1,7.996753E0,-1.1556709E1,-9.370968E0,-7.789572E0,-6.568893E0,-4.356911E0,-2.0972118E0,-7.0458136E0,-5.2835298E0,-4.72926E0,-3.3716424E0,-8.6322594E-1,-2.7986214E0,-2.036248E0,-6.7283016E-1,1.69837E-1,1.9685537E0,1.1544571E0,2.4727135E0,-3.5231047E0,3.3376926E-1,4.157388E0,7.0084486E0,-4.4654137E-1,2.609844E0,5.715027E0,3.92413E0,6.627803E0,9.301722E0,9.713037E0,1.2312934E1,7.215903E0,9.809401E0,-3.1861284E0,-3.7518623E0,-2.6079705E0,-3.0465093E0,-1.7105588E0,-2.3793774E0,-1.6896982E0,-2.0804255E0,-1.3984886E0,-7.2694904E-1,1.5812603E-1,-7.87993E-1,-1.9299062E0,-2.4724824E0,-1.5403049E0,-2.4989948E0,-1.3893077E0,-2.9316213E0,-6.9695014E-1,-1.1178261E0,-1.2806381E0,-2.2324622E-1,-8.035883E-1,-1.6158241E0,-4.6322703E-1,-9.191246E-1,-2.6823682E-1,1.1122046E-1,5.424728E-1,-5.823684E-2,4.337521E-1,1.0748637E0,9.335695E-2,4.6271425E-1,9.524411E-1,5.8718944E-1,-1.7243695E0,-8.541977E-1,-2.670172E-1,3.1118387E-1,9.42521E-1,1.3986316E0,1.8061626E0,2.5187469E0,3.5192615E-1,-4.062484E-1,3.9540824E-1,8.850457E-1,1.5463669E0,2.0208411E0,7.9216045E-1,1.4756266E0,2.033301E0,5.08397E-1,2.5330822E0,3.3470519E0,2.263537E0,3.023696E0,3.520894E0,4.116885E0,1.7265534E0,2.305598E0,2.3872933E0,3.2480438E0],"categories":[],"categories_nodes":[],"categories_segments":[],"categories_sizes":[],"default_left":[0,0,0,0,0,0,0,0,0,0,0,0,0,0,0,0,0,0,0,0,0,0,0,0,0,0,0,0,0,0,0,0,0,0,0,0,0,0,0,0,0,0,0,0,0,0,0,0,0,0,0,0,0,0,0,0,0,0,0,0,0,0,0,0,0,0,0,0,0,0,0,0,0,0,0,0,0,0,0,0,0,0,0,0,0,0,0,0,0,0,0,0,0,0,0,0,0,0,0,0,0,0,0,0,0,0,0,0,0,0,0,0,0,0,0,0,0,0,0,0,0,0,0,0,0,0,0],"id":1,"left_children":[1,3,5,7,9,11,13,15,17,19,21,23,25,27,29,31,33,35,37,39,41,43,45,47,49,51,53,55,57,59,61,63,65,67,69,71,73,75,77,79,81,83,85,87,89,91,93,95,97,99,101,103,105,107,109,111,113,115,117,119,121,123,125,-1,-1,-1,-1,-1,-1,-1,-1,-1,-1,-1,-1,-1,-1,-1,-1,-1,-1,-1,-1,-1,-1,-1,-1,-1,-1,-1,-1,-1,-1,-1,-1,-1,-1,-1,-1,-1,-1,-1,-1,-1,-1,-1,-1,-1,-1,-1,-1,-1,-1,-1,-1,-1,-1,-1,-1,-1,-1,-1,-1,-1,-1,-1,-1],"loss_changes":[4.0594496E7,6.1175E6,6.637922E6,1.208568E6,8.9926375E5,1.276534E6,1.333504E6,3.08909E5,3.85683E5,2.15313E5,1.7374184E5,3.9977644E5,6.70076E5,2.94062E5,2.10064E5,6.3793E4,4.568E4,1.031225E5,1.79272E5,7.116575E4,1.20832375E5,7.846645E4,4.579107E4,1.305655E5,2.811621E5,2.971775E5,2.0712675E5,1.409025E5,1.20417E5,1.24726E5,7.853475E4,1.4295E4,4.02895E4,2.88975E4,1.5284875E4,3.622325E4,4.1789953E4,7.351E4,6.171425E4,3.29035E4,3.4215875E4,1.7152217E4,4.216525E4,3.421447E4,2.5912867E4,3.9761957E4,1.5155906E4,5.3756344E4,5.0084625E4,3.3798156E4,1.0195321E5,7.8849E4,6.56845E4,4.427967E4,3.6937875E4,7.19075E4,8.623044E4,7.7889E4,3.1833E4,4.99285E4,2.10775E4,2.6574125E4,3.14105E4,0E0,0E0,0E0,0E0,0E0,0E0,0E0,0E0,0E0,0E0,0E0,0E0,0E0,0E0,0E0,0E0,0E0,0E0,0E0,0E0,0E0,0E0,0E0,0E0,0E0,0E0,0E0,0E0,0E0,0E0,0E0,0E0,0E0,0E0,0E0,0E0,0E0,0E0,0E0,0E0,0E0,0E0,0E0,0E0,0E0,0E0,0E0,0E0,0E0,0E0,0E0,0E0,0E0,0E0,0E0,0E0,0E0,0E0,0E0,0E0,0E0,0E0,0E0,0E0],"parents":[2147483647,0,0,1,1,2,2,3,3,4,4,5,5,6,6,7,7,8,8,9,9,10,10,11,11,12,12,13,13,14,14,15,15,16,16,17,17,18,18,19,19,20,20,21,21,22,22,23,23,24,24,25,25,26,26,27,27,28,28,29,29,30,30,31,31,32,32,33,33,34,34,35,35,36,36,37,37,38,38,39,39,40,40,41,41,42,42,43,43,44,44,45,45,46,46,47,47,48,48,49,49,50,50,51,51,52,52,53,53,54,54,55,55,56,56,57,57,58,58,59,59,60,60,61,61,62,62],"right_children":[2,4,6,8,10,12,14,16,18,20,22,24,26,28,30,32,34,36,38,40,42,44,46,48,50,52,54,56,58,60,62,64,66,68,70,72,74,76,78,80,82,84,86,88,90,92,94,96,98,100,102,104,106,108,110,112,114,116,118,120,122,124,126,-1,-1,-1,-1,-1,-1,-1,-1,-1,-1,-1,-1,-1,-1,-1,-1,-1,-1,-1,-1,-1,-1,-1,-1,-1,-1,-1,-1,-1,-1,-1,-1,-1,-1,-1,-1,-1,-1,-1,-1,-1,-1,-1,-1,-1,-1,-1,-1,-1,-1,-1,-1,-1,-1,-1,-1,-1,-1,-1,-1,-1,-1,-1,-1],"split_conditions":[2.095E1,1.4616667E1,2.8E1,1.1133333E1,1.8633333E1,2.535E1,3.2716667E1,8.7E0,2.7E1,1.645E1,2.16E1,3.78E2,3.59E2,3.01E1,3.59E2,5E0,1.1783334E1,1.575E1,1.2016666E1,1.3983334E1,2.7E1,1.7916666E1,2.38E1,2.23E1,1.8633333E1,2.9183332E1,2.2E1,3.59E2,3.3916668E1,3.6E1,3.6E1,3.78E2,3.72E2,1.9328351E0,7.0709934E0,3.0007507E1,-3.33E2,5.65E2,9.42E2,9.42E2,1.3E1,1.2430738E0,9.42E2,3.72E2,2.4210604E1,-1.98E2,2.6083334E1,1.85E2,5.6E1,1.34E1,3E2,1.85E2,5.65E2,2.558334E1,2.64E2,2.9416666E1,2.64E2,9.42E2,3.29E1,1.100044E1,4.91E2,2.91E1,4.5142647E1,-3.1861284E0,-3.7518623E0,-2.6079705E0,-3.0465093E0,-1.7105588E0,-2.3793774E0,-1.6896982E0,-2.0804255E0,-1.3984886E0,-7.2694904E-1,1.5812603E-1,-7.87993E-1,-1.9299062E0,-2.4724824E0,-1.5403049E0,-2.4989948E0,-1.3893077E0,-2.9316213E0,-6.9695014E-1,-1.1178261E0,-1.2806381E0,-2.2324622E-1,-8.035883E-1,-1.6158241E0,-4.6322703E-1,-9.191246E-1,-2.6823682E-1,1.1122046E-1,5.424728E-1,-5.823684E-2,4.337521E-1,1.0748637E0,9.335695E-2,4.6271425E-1,9.524411E-1,5.8718944E-1,-1.7243695E0,-8.541977E-1,-2.670172E-1,3.1118387E-1,9.42521E-1,1.3986316E0,1.8061626E0,2.5187469E0,3.5192615E-1,-4.062484E-1,3.9540824E-1,8.850457E-1,1.5463669E0,2.0208411E0,7.9216045E-1,1.4756266E0,2.033301E0,5.08397E-1,2.5330822E0,3.3470519E0,2.263537E0,3.023696E0,3.520894E0,4.116885E0,1.7265534E0,2.305598E0,2.3872933E0,3.2480438E0],"split_indices":[10,2,4,10,2,10,10,2,24,10,2,24,24,2,24,2,2,10,2,18,24,18,20,5,2,10,2,24,2,13,4,24,24,25,32,33,24,24,24,24,24,27,24,24,33,24,2,26,24,2,28,26,26,34,26,10,26,24,21,27,26,5,29,0,0,0,0,0,0,0,0,0,0,0,0,0,0,0,0,0,0,0,0,0,0,0,0,0,0,0,0,0,0,0,0,0,0,0,0,0,0,0,0,0,0,0,0,0,0,0,0,0,0,0,0,0,0,0,0,0,0,0,0,0,0,0,0],"split_type":[0,0,0,0,0,0,0,0,0,0,0,0,0,0,0,0,0,0,0,0,0,0,0,0,0,0,0,0,0,0,0,0,0,0,0,0,0,0,0,0,0,0,0,0,0,0,0,0,0,0,0,0,0,0,0,0,0,0,0,0,0,0,0,0,0,0,0,0,0,0,0,0,0,0,0,0,0,0,0,0,0,0,0,0,0,0,0,0,0,0,0,0,0,0,0,0,0,0,0,0,0,0,0,0,0,0,0,0,0,0,0,0,0,0,0,0,0,0,0,0,0,0,0,0,0,0,0],"sum_hessian":[2.386877E6,1.163901E6,1.222976E6,5.62622E5,6.01279E5,7.59612E5,4.63364E5,2.34778E5,3.27844E5,3.36761E5,2.64518E5,4.43657E5,3.15955E5,3.18679E5,1.44685E5,9.2212E4,1.42566E5,9.1568E4,2.36276E5,1.58604E5,1.78157E5,1.79874E5,8.4644E4,3.02753E5,1.40904E5,2.01804E5,1.14151E5,1.93257E5,1.25422E5,8.915E4,5.5535E4,1.6228E4,7.5984E4,9.7845E4,4.4721E4,6.1492E4,3.0076E4,1.00389E5,1.35887E5,6.6511E4,9.2093E4,4.2305E4,1.35852E5,6.7667E4,1.12207E5,6.6678E4,1.7966E4,1.64331E5,1.38422E5,2.249E4,1.18414E5,1.53844E5,4.796E4,3.012E4,8.4031E4,1.25706E5,6.7551E4,1.05367E5,2.0055E4,6.3029E4,2.6121E4,3.8818E4,1.6717E4,8.177E3,8.051E3,4.0762E4,3.5222E4,6.221E3,9.1624E4,1.2567E4,3.2154E4,5.312E4,8.372E3,5.049E3,2.5027E4,6.6379E4,3.401E4,1.29546E5,6.341E3,6.5242E4,1.269E3,2.3269E4,6.8824E4,1.428E3,4.0877E4,1.29833E5,6.019E3,4.5754E4,2.1913E4,9.2576E4,1.9631E4,1.2119E4,5.4559E4,1.3573E4,4.393E3,5.1778E4,1.12553E5,5.8597E4,7.9825E4,5.238E3,1.7252E4,4.3223E4,7.5191E4,5.1074E4,1.0277E5,2.8016E4,1.9944E4,1.0817E4,1.9303E4,1.7522E4,6.6509E4,8.1163E4,4.4543E4,2.9493E4,3.8058E4,1.0226E5,3.107E3,1.3716E4,6.339E3,9.106E3,5.3923E4,1.8546E4,7.575E3,9.444E3,2.9374E4,5.931E3,1.0786E4],"tree_param":{"num_deleted":"0","num_feature":"39","num_nodes":"127","size_leaf_vector":"1"}},{"base_weights":[4.74212E-6,-2.8792765E0,2.9219773E0,-4.8696733E0,-1.534574E0,1.6929566E0,5.0387287E0,-6.2115817E0,-4.136419E0,-2.5731661E0,-5.5512184E-1,9.909571E-1,2.924393E0,4.429797E0,6.9993434E0,-7.3626223E0,-5.660876E0,-2.4904456E0,-4.554452E0,-3.2088761E0,-1.9737642E0,1.6810049E0,-9.552813E-1,4.3186137E-1,1.830177E0,2.5622096E0,4.2362247E0,5.137543E0,3.2022595E0,7.7317057E0,5.902005E0,-5.630837E0,-7.616866E0,-6.4790606E0,-5.3516054E0,-2.9815326E0,-8.452548E-1,-5.91104E0,-4.241925E0,-1.2760968E0,-3.3649557E0,-9.405926E-1,-2.2110221E0,1.0621803E0,4.11643E0,-1.7942724E0,-5.75003E-1,-9.939502E-2,9.0904945E-1,2.8183267E0,1.4399257E0,2.9284136E0,1.6422886E0,3.697953E0,5.3665705E0,4.6503105E0,7.0538497E0,2.1292725E0,3.9026303E0,7.3065233E0,9.809395E0,4.802236E0,6.9482565E0,-2.2974498E0,-1.508427E0,-2.721282E0,-2.2088604E0,-1.9121277E0,-3.339302E0,-1.5911382E0,-2.7001653E0,-5.0196266E-1,-1.0108831E0,2.1650214E-1,-4.065328E-1,-1.479919E0,-1.9979893E0,-1.2167821E0,-1.7603049E0,-7.603975E-1,-3.0641633E-1,-9.87495E-1,-2.1062145E0,-6.7460585E-1,-2.209261E-1,-7.761617E-1,-4.9410668E-1,9.0683603E-1,1.8516654E-1,1.8373889E0,9.5539737E-1,-3.5654995E-1,-7.639037E-1,-3.7422657E-2,-3.2983336E-1,-1.3474568E-3,-1.3263798E0,5.8139277E-1,2.1959564E-1,6.34315E-1,9.881574E-1,4.8090923E-1,-1.6884873E-2,8.211798E-1,1.2237586E0,5.655945E-1,-3.8558736E-1,1.2288114E0,9.23484E-1,1.4906734E0,2.000348E0,1.3182596E0,1.7756456E0,1.8747264E0,2.4628215E0,2.510281E-1,7.9087955E-1,7.615556E-1,1.3659145E0,1.0773926E0,2.2504015E0,8.795915E-1,2.9858506E0,9.686889E-1,1.660421E0,2.1788027E0,1.2449791E0],"categories":[],"categories_nodes":[],"categories_segments":[],"categories_sizes":[],"default_left":[0,0,0,0,0,0,0,0,0,0,0,0,0,0,0,0,0,0,0,0,0,0,0,0,0,0,0,0,0,0,0,0,0,0,0,0,0,0,0,0,0,0,0,0,0,0,0,0,0,0,0,0,0,0,0,0,0,0,0,0,0,0,0,0,0,0,0,0,0,0,0,0,0,0,0,0,0,0,0,0,0,0,0,0,0,0,0,0,0,0,0,0,0,0,0,0,0,0,0,0,0,0,0,0,0,0,0,0,0,0,0,0,0,0,0,0,0,0,0,0,0,0,0,0,0,0,0],"id":2,"left_children":[1,3,5,7,9,11,13,15,17,19,21,23,25,27,29,31,33,35,37,39,41,43,45,47,49,51,53,55,57,59,61,63,65,67,69,71,73,75,77,79,81,83,85,87,89,91,93,95,97,99,101,103,105,107,109,111,113,115,117,119,121,123,125,-1,-1,-1,-1,-1,-1,-1,-1,-1,-1,-1,-1,-1,-1,-1,-1,-1,-1,-1,-1,-1,-1,-1,-1,-1,-1,-1,-1,-1,-1,-1,-1,-1,-1,-1,-1,-1,-1,-1,-1,-1,-1,-1,-1,-1,-1,-1,-1,-1,-1,-1,-1,-1,-1,-1,-1,-1,-1,-1,-1,-1,-1,-1,-1],"loss_changes":[2.0081244E7,3.217729E6,3.081915E6,4.76931E5,7.298674E5,6.4790875E5,5.19505E5,1.085285E5,2.15669E5,1.3268575E5,3.3041812E5,2.2398084E5,1.292835E5,2.88457E5,8.28295E4,2.436E4,2.9281E4,5.1291438E4,1.059545E5,5.0976375E4,4.3934E4,8.446861E4,9.992894E4,7.263023E4,7.3599375E4,7.1836E4,3.5801625E4,1.96612E5,9.124725E4,5.4561E4,4.7466E4,8.63625E3,1.77815E4,1.54945E4,1.4621E4,2.4818875E4,1.1661802E4,3.424625E4,6.140725E4,4.0458516E3,4.188175E4,8.938725E3,3.0921875E4,3.898954E4,2.1229672E4,4.450175E4,5.089296E4,5.560546E4,2.7495883E4,1.808175E4,3.339222E4,3.3541125E4,4.3205547E4,9.8265625E3,9.793375E3,5.452825E4,3.964975E4,3.1426344E4,6.5176875E4,3.71335E4,1.03320625E4,2.317925E4,1.858125E4,0E0,0E0,0E0,0E0,0E0,0E0,0E0,0E0,0E0,0E0,0E0,0E0,0E0,0E0,0E0,0E0,0E0,0E0,0E0,0E0,0E0,0E0,0E0,0E0,0E0,0E0,0E0,0E0,0E0,0E0,0E0,0E0,0E0,0E0,0E0,0E0,0E0,0E0,0E0,0E0,0E0,0E0,0E0,0E0,0E0,0E0,0E0,0E0,0E0,0E0,0E0,0E0,0E0,0E0,0E0,0E0,0E0,0E0,0E0,0E0,0E0,0E0,0E0,0E0],"parents":[2147483647,0,0,1,1,2,2,3,3,4,4,5,5,6,6,7,7,8,8,9,9,10,10,11,11,12,12,13,13,14,14,15,15,16,16,17,17,18,18,19,19,20,20,21,21,22,22,23,23,24,24,25,25,26,26,27,27,28,28,29,29,30,30,31,31,32,32,33,33,34,34,35,35,36,36,37,37,38,38,39,39,40,40,41,41,42,42,43,43,44,44,45,45,46,46,47,47,48,48,49,49,50,50,51,51,52,52,53,53,54,54,55,55,56,56,57,57,58,58,59,59,60,60,61,61,62,62],"right_children":[2,4,6,8,10,12,14,16,18,20,22,24,26,28,30,32,34,36,38,40,42,44,46,48,50,52,54,56,58,60,62,64,66,68,70,72,74,76,78,80,82,84,86,88,90,92,94,96,98,100,102,104,106,108,110,112,114,116,118,120,122,124,126,-1,-1,-1,-1,-1,-1,-1,-1,-1,-1,-1,-1,-1,-1,-1,-1,-1,-1,-1,-1,-1,-1,-1,-1,-1,-1,-1,-1,-1,-1,-1,-1,-1,-1,-1,-1,-1,-1,-1,-1,-1,-1,-1,-1,-1,-1,-1,-1,-1,-1,-1,-1,-1,-1,-1,-1,-1,-1,-1,-1,-1,-1,-1,-1],"split_conditions":[2.0733334E1,1.3616667E1,2.8516666E1,1.0133333E1,1.7783333E1,2.535E1,3.2716667E1,7.616667E0,7E0,1.4983334E1,-3E0,2.3833334E1,2.77E1,3.59E2,3.59E2,2.7E1,8.1E0,1.675E1,9.55E0,1.9328351E0,7E0,2.55E1,1.7733334E1,2.08E1,2.7E1,3.72E2,2.9416666E1,3.3366665E1,2.8E1,3.66E1,3.125E1,5.1E0,3.9833333E0,9.42E2,8.19E2,-2.53E2,-3.33E2,3.78E2,8.19E2,5.9E1,9.42E2,1.27E1,1.7066668E1,-3.33E2,-3.33E2,3.78E2,3.52E2,9.42E2,6E0,3.03E2,8.19E2,2.915E1,9.42E2,1.37083435E1,3.18E1,5.9095806E1,4.91E2,2.3E1,2.64E2,1.9328351E0,1.9328351E0,8.58E2,9.42E2,-2.2974498E0,-1.508427E0,-2.721282E0,-2.2088604E0,-1.9121277E0,-3.339302E0,-1.5911382E0,-2.7001653E0,-5.0196266E-1,-1.0108831E0,2.1650214E-1,-4.065328E-1,-1.479919E0,-1.9979893E0,-1.2167821E0,-1.7603049E0,-7.603975E-1,-3.0641633E-1,-9.87495E-1,-2.1062145E0,-6.7460585E-1,-2.209261E-1,-7.761617E-1,-4.9410668E-1,9.0683603E-1,1.8516654E-1,1.8373889E0,9.5539737E-1,-3.5654995E-1,-7.639037E-1,-3.7422657E-2,-3.2983336E-1,-1.3474568E-3,-1.3263798E0,5.8139277E-1,2.1959564E-1,6.34315E-1,9.881574E-1,4.8090923E-1,-1.6884873E-2,8.211798E-1,1.2237586E0,5.655945E-1,-3.8558736E-1,1.2288114E0,9.23484E-1,1.4906734E0,2.000348E0,1.3182596E0,1.7756456E0,1.8747264E0,2.4628215E0,2.510281E-1,7.9087955E-1,7.615556E-1,1.3659145E0,1.0773926E0,2.2504015E0,8.795915E-1,2.9858506E0,9.686889E-1,1.660421E0,2.1788027E0,1.2449791E0],"split_indices":[2,2,10,10,10,2,2,2,24,18,24,10,21,24,24,24,20,10,2,25,24,13,2,21,24,24,2,10,2,5,18,10,2,24,26,24,24,24,24,3,24,13,2,24,24,24,24,24,24,26,24,2,24,32,21,31,26,5,26,25,25,30,24,0,0,0,0,0,0,0,0,0,0,0,0,0,0,0,0,0,0,0,0,0,0,0,0,0,0,0,0,0,0,0,0,0,0,0,0,0,0,0,0,0,0,0,0,0,0,0,0,0,0,0,0,0,0,0,0,0,0,0,0,0,0,0,0],"split_type":[0,0,0,0,0,0,0,0,0,0,0,0,0,0,0,0,0,0,0,0,0,0,0,0,0,0,0,0,0,0,0,0,0,0,0,0,0,0,0,0,0,0,0,0,0,0,0,0,0,0,0,0,0,0,0,0,0,0,0,0,0,0,0,0,0,0,0,0,0,0,0,0,0,0,0,0,0,0,0,0,0,0,0,0,0,0,0,0,0,0,0,0,0,0,0,0,0,0,0,0,0,0,0,0,0,0,0,0,0,0,0,0,0,0,0,0,0,0,0,0,0,0,0,0,0,0,0],"sum_hessian":[2.386877E6,1.202221E6,1.184656E6,4.84731E5,7.1749E5,7.49491E5,4.35165E5,1.71276E5,3.13455E5,3.48231E5,3.69259E5,4.77364E5,2.72127E5,3.32042E5,1.03123E5,5.5423E4,1.15853E5,6.3487E4,2.49968E5,1.68995E5,1.79236E5,5.6049E4,3.1321E5,2.86498E5,1.90866E5,2.13253E5,5.8874E4,2.1061E5,1.21432E5,6.1843E4,4.128E4,7.098E3,4.8325E4,3.1774E4,8.4079E4,4.8892E4,1.4595E4,4.6801E4,2.03167E5,1.2628E4,1.56367E5,3.3474E4,1.45762E5,4.4694E4,1.1355E4,9.7686E4,2.15524E5,1.35569E5,1.50929E5,5.4036E4,1.3683E5,1.52531E5,6.0722E4,3.9885E4,1.8989E4,1.67919E5,4.2691E4,4.796E4,7.3472E4,5.1341E4,1.0502E4,2.0128E4,2.1152E4,1.624E3,5.474E3,7.181E3,4.1144E4,3.1073E4,7.01E2,8.2994E4,1.085E3,1.1186E4,3.7706E4,3.583E3,1.1012E4,2.03E4,2.6501E4,1.82314E5,2.0853E4,2.124E3,1.0504E4,1.53295E5,3.072E3,4.518E3,2.8956E4,8.7438E4,5.8324E4,8.266E3,3.6428E4,3.597E3,7.758E3,5.4107E4,4.3579E4,1.15964E5,9.956E4,1.32657E5,2.912E3,2.2158E4,1.28771E5,2.1788E4,3.2248E4,1.2338E5,1.345E4,1.30807E5,2.1724E4,5.6068E4,4.654E3,2.4281E4,1.5604E4,1.4548E4,4.441E3,1.39715E5,2.8204E4,2.5169E4,1.7522E4,1.3513E4,3.4447E4,2.3723E4,4.9749E4,2.559E3,4.8782E4,2.15E2,1.0287E4,6.396E3,1.3732E4,1.9014E4,2.138E3],"tree_param":{"num_deleted":"0","num_feature":"39","num_nodes":"127","size_leaf_vector":"1"}},{"base_weights":[4.4393773E-6,-1.9822017E0,2.1379936E0,-3.601327E0,-1.0991E0,1.3908718E0,3.814069E0,-4.5788217E0,-3.1279335E0,-1.8839276E0,-4.0136495E-1,8.520701E-1,2.1775615E0,3.3340037E0,5.3335013E0,-4.0604615E0,-5.1163516E0,-3.5536609E0,-2.638821E0,-1.4101872E0,-2.6486263E0,4.4589454E-1,-6.791271E-1,1.0109823E0,-8.5327095E-1,2.7034626E0,1.1359874E0,3.68868E0,2.4917119E0,4.8836346E0,6.4126735E0,-5.328266E0,-3.7712414E0,-5.8726554E0,-4.6906233E0,-3.4747314E0,-7.3914895E0,-1.7763463E0,-2.8613067E0,-2.0606022E0,-9.884168E-1,-3.4000714E0,-1.917622E0,-5.452663E-2,9.4860554E-1,-1.4139175E0,-3.8120466E-1,6.0611576E-1,1.4395785E0,-2.0019078E0,-1.5407652E-1,2.4444997E0,4.3434987E0,7.216349E-1,2.240964E0,1.9175088E0,3.8926837E0,1.5278944E0,3.177575E0,5.956332E0,4.5848656E0,6.779486E0,4.875068E0,-1.7185024E0,-1.248873E0,-1.1974847E0,-7.800015E-1,-2.0465438E0,-1.6232053E0,-1.3568437E0,-1.7759725E0,-5.9635127E-1,-1.0779892E0,-2.5164366E0,-2.0768104E0,-6.994811E-1,-3.8963625E-1,-9.256446E-1,-5.062406E-1,-9.121337E-1,-4.2938274E-1,-4.164174E-1,-1.3437128E-1,-1.1186135E0,-6.8454266E-1,-6.795343E-1,-4.7177595E-1,-1.8643484E-1,7.4758455E-2,1.8432513E-2,3.8368204E-1,-3.1918785E-1,-1.0203108E0,-9.45862E-2,-1.1027989E0,2.7127728E-1,-4.231894E-2,3.8116884E-1,6.971336E-1,-3.8751855E-1,-9.026419E-1,-2.0332855E-1,3.8738504E-1,5.2657664E-1,8.4867066E-1,1.0560993E0,1.5419072E0,-1.1790439E-1,3.5740697E-1,4.5017985E-1,8.263899E-1,7.0023215E-1,-2.0522248E-2,1.050514E0,1.3865688E0,7.970908E-1,1.7020547E-1,6.404723E-1,1.0402794E0,1.4893074E0,1.964509E0,1.3318516E0,1.9722036E0,1.8862096E0,2.3392744E0,1.1939918E0,1.6579725E0],"categories":[],"categories_nodes":[],"categories_segments":[],"categories_sizes":[],"default_left":[0,0,0,0,0,0,0,0,0,0,0,0,0,0,0,0,0,0,0,0,0,0,0,0,0,0,0,0,0,0,0,0,0,0,0,0,0,0,0,0,0,0,0,0,0,0,0,0,0,0,0,0,0,0,0,0,0,0,0,0,0,0,0,0,0,0,0,0,0,0,0,0,0,0,0,0,0,0,0,0,0,0,0,0,0,0,0,0,0,0,0,0,0,0,0,0,0,0,0,0,0,0,0,0,0,0,0,0,0,0,0,0,0,0,0,0,0,0,0,0,0,0,0,0,0,0,0],"id":3,"left_children":[1,3,5,7,9,11,13,15,17,19,21,23,25,27,29,31,33,35,37,39,41,43,45,47,49,51,53,55,57,59,61,63,65,67,69,71,73,75,77,79,81,83,85,87,89,91,93,95,97,99,101,103,105,107,109,111,113,115,117,119,121,123,125,-1,-1,-1,-1,-1,-1,-1,-1,-1,-1,-1,-1,-1,-1,-1,-1,-1,-1,-1,-1,-1,-1,-1,-1,-1,-1,-1,-1,-1,-1,-1,-1,-1,-1,-1,-1,-1,-1,-1,-1,-1,-1,-1,-1,-1,-1,-1,-1,-1,-1,-1,-1,-1,-1,-1,-1,-1,-1,-1,-1,-1,-1,-1,-1],"loss_changes":[1.0115438E7,1.7709585E6,1.4379535E6,2.022585E5,4.3887075E5,3.3666438E5,2.58235E5,3.971825E4,6.131425E4,1.3663725E5,9.9844914E4,1.2775159E5,1.7685E5,8.0366E4,4.123625E4,2.6604125E4,2.2514875E4,4.7668625E4,2.6293562E4,6.3888438E4,7.9248875E4,2.6351465E4,6.994469E4,7.482678E4,3.2272285E4,9.1105875E4,4.9594938E4,6.84E4,5.2697125E4,1.9201375E4,1.4070625E4,6.26325E3,1.5250625E4,1.1018125E4,9.215125E3,2.7191375E4,1.4239062E3,7.450047E3,2.8663375E4,5.6489875E4,3.05185E4,2.613775E4,8.7655E3,9.039092E3,1.5313816E4,6.4095625E4,4.937365E4,4.939878E4,3.1301344E4,1.0868883E4,1.890858E4,4.908575E4,1.9155625E4,4.1249816E4,1.1230766E4,1.6179414E4,4.83845E4,3.594832E4,1.4077656E4,7.6414688E3,1.3540875E4,1.00651875E4,2.788836E3,0E0,0E0,0E0,0E0,0E0,0E0,0E0,0E0,0E0,0E0,0E0,0E0,0E0,0E0,0E0,0E0,0E0,0E0,0E0,0E0,0E0,0E0,0E0,0E0,0E0,0E0,0E0,0E0,0E0,0E0,0E0,0E0,0E0,0E0,0E0,0E0,0E0,0E0,0E0,0E0,0E0,0E0,0E0,0E0,0E0,0E0,0E0,0E0,0E0,0E0,0E0,0E0,0E0,0E0,0E0,0E0,0E0,0E0,0E0,0E0,0E0,0E0,0E0,0E0],"parents":[2147483647,0,0,1,1,2,2,3,3,4,4,5,5,6,6,7,7,8,8,9,9,10,10,11,11,12,12,13,13,14,14,15,15,16,16,17,17,18,18,19,19,20,20,21,21,22,22,23,23,24,24,25,25,26,26,27,27,28,28,29,29,30,30,31,31,32,32,33,33,34,34,35,35,36,36,37,37,38,38,39,39,40,40,41,41,42,42,43,43,44,44,45,45,46,46,47,47,48,48,49,49,50,50,51,51,52,52,53,53,54,54,55,55,56,56,57,57,58,58,59,59,60,60,61,61,62,62],"right_children":[2,4,6,8,10,12,14,16,18,20,22,24,26,28,30,32,34,36,38,40,42,44,46,48,50,52,54,56,58,60,62,64,66,68,70,72,74,76,78,80,82,84,86,88,90,92,94,96,98,100,102,104,106,108,110,112,114,116,118,120,122,124,126,-1,-1,-1,-1,-1,-1,-1,-1,-1,-1,-1,-1,-1,-1,-1,-1,-1,-1,-1,-1,-1,-1,-1,-1,-1,-1,-1,-1,-1,-1,-1,-1,-1,-1,-1,-1,-1,-1,-1,-1,-1,-1,-1,-1,-1,-1,-1,-1,-1,-1,-1,-1,-1,-1,-1,-1,-1,-1,-1,-1,-1,-1,-1,-1],"split_conditions":[2.1633333E1,1.3533334E1,2.93E1,1E1,1.725E1,2.63E1,3.44E1,3.52E2,1.185E1,3.52E2,1.3E1,7.99E2,3.78E2,3.78E2,3.8066666E1,6.366667E0,7.4E0,9.42E2,6E0,2.64E2,3E2,1.83E1,8E1,2.3416666E1,4.3965088E1,3.1283333E1,8.58E2,1.9328351E0,3E2,-3E0,5.65E2,2.4210604E1,5.9095806E1,3E2,9.42E2,1.9328351E0,8.2166664E1,1.14E1,1.61E1,1.5134108E1,1.7133333E1,9.42E2,1.565E1,2.4768787E1,1.100044E1,4.66E2,8.19E2,3.52E2,2.63E1,1.5833334E0,2.34E1,2.31E2,4.91E2,2.31E1,2.26E1,7.7386476E-2,3.05E1,4.91E2,2.73E1,2.7333333E0,5.385028E1,4.0283333E1,3.36E1,-1.7185024E0,-1.248873E0,-1.1974847E0,-7.800015E-1,-2.0465438E0,-1.6232053E0,-1.3568437E0,-1.7759725E0,-5.9635127E-1,-1.0779892E0,-2.5164366E0,-2.0768104E0,-6.994811E-1,-3.8963625E-1,-9.256446E-1,-5.062406E-1,-9.121337E-1,-4.2938274E-1,-4.164174E-1,-1.3437128E-1,-1.1186135E0,-6.8454266E-1,-6.795343E-1,-4.7177595E-1,-1.8643484E-1,7.4758455E-2,1.8432513E-2,3.8368204E-1,-3.1918785E-1,-1.0203108E0,-9.45862E-2,-1.1027989E0,2.7127728E-1,-4.231894E-2,3.8116884E-1,6.971336E-1,-3.8751855E-1,-9.026419E-1,-2.0332855E-1,3.8738504E-1,5.2657664E-1,8.4867066E-1,1.0560993E0,1.5419072E0,-1.1790439E-1,3.5740697E-1,4.5017985E-1,8.263899E-1,7.0023215E-1,-2.0522248E-2,1.050514E0,1.3865688E0,7.970908E-1,1.7020547E-1,6.404723E-1,1.0402794E0,1.4893074E0,1.964509E0,1.3318516E0,1.9722036E0,1.8862096E0,2.3392744E0,1.1939918E0,1.6579725E0],"split_indices":[10,10,4,4,2,10,10,24,18,24,24,24,24,24,10,10,4,24,24,26,28,13,26,2,27,10,30,25,28,24,24,33,31,28,24,25,3,13,21,33,10,30,10,34,29,24,26,24,21,9,4,26,26,2,20,37,21,24,20,9,33,10,21,0,0,0,0,0,0,0,0,0,0,0,0,0,0,0,0,0,0,0,0,0,0,0,0,0,0,0,0,0,0,0,0,0,0,0,0,0,0,0,0,0,0,0,0,0,0,0,0,0,0,0,0,0,0,0,0,0,0,0,0,0,0,0,0],"split_type":[0,0,0,0,0,0,0,0,0,0,0,0,0,0,0,0,0,0,0,0,0,0,0,0,0,0,0,0,0,0,0,0,0,0,0,0,0,0,0,0,0,0,0,0,0,0,0,0,0,0,0,0,0,0,0,0,0,0,0,0,0,0,0,0,0,0,0,0,0,0,0,0,0,0,0,0,0,0,0,0,0,0,0,0,0,0,0,0,0,0,0,0,0,0,0,0,0,0,0,0,0,0,0,0,0,0,0,0,0,0,0,0,0,0,0,0,0,0,0,0,0,0,0,0,0,0,0],"sum_hessian":[2.386877E6,1.238562E6,1.148315E6,4.3712E5,8.01442E5,7.94267E5,3.54048E5,1.4262E5,2.945E5,3.7718E5,4.24262E5,4.71405E5,3.22862E5,2.69046E5,8.5002E4,7.2609E4,7.0011E4,1.57449E5,1.37051E5,2.32899E5,1.44281E5,1.04748E5,3.19514E5,4.31222E5,4.0183E4,2.14538E5,1.08324E5,1.89322E5,7.9724E4,5.9997E4,2.5005E4,1.3484E4,5.9125E4,2.5211E4,4.48E4,1.54278E5,3.171E3,2.8106E4,1.08945E5,9.1615E4,1.41284E5,7.1144E4,7.3137E4,5.2494E4,5.2254E4,9.2174E4,2.2734E5,2.21751E5,2.09471E5,1.5204E4,2.4979E4,1.85284E5,2.9254E4,7.8783E4,2.9541E4,1.9555E4,1.69767E5,3.3147E4,4.6577E4,1.3066E4,4.6931E4,2.0186E4,4.819E3,1.0035E4,3.449E3,4.976E4,9.365E3,8.249E3,1.6962E4,3.9423E4,5.377E3,1.1395E4,1.42883E5,1.009E3,2.162E3,1.2994E4,1.5112E4,9.1474E4,1.7471E4,3.5828E4,5.5787E4,8.1226E4,6.0058E4,5.4983E4,1.6161E4,3.6436E4,3.6701E4,1.8312E4,3.4182E4,1.4178E4,3.8076E4,7.8373E4,1.3801E4,2.22882E5,4.458E3,1.58504E5,6.3247E4,1.75858E5,3.3613E4,8.917E3,6.287E3,1.8336E4,6.643E3,6.634E4,1.18944E5,1.4386E4,1.4868E4,2.3357E4,5.5426E4,1.2102E4,1.7439E4,1.6164E4,3.391E3,1.10518E5,5.9249E4,1.5236E4,1.7911E4,1.0138E4,3.6439E4,4.887E3,8.179E3,4.3738E4,3.193E3,1.3613E4,6.573E3,2.033E3,2.786E3],"tree_param":{"num_deleted":"0","num_feature":"39","num_nodes":"127","size_leaf_vector":"1"}},{"base_weights":[2.1211517E-6,-1.6138633E0,1.3142691E0,-2.6221485E0,-1.0131412E0,5.7909834E-1,2.3145018E0,-3.4921496E0,-2.35906E0,-1.3985778E0,-4.6620324E-1,1.327837E0,2.732289E-1,1.8528507E0,3.270658E0,-2.3799329E0,-3.711019E0,-2.6831257E0,-1.8391432E0,-1.0736377E0,-1.7686019E0,2.4581936E-1,-6.319441E-1,3.1501071E0,1.1464579E0,-3.824756E-1,6.320001E-1,2.7636151E0,1.6642262E0,2.985298E0,4.302067E0,-2.7616022E0,-7.498744E-1,-4.3535495E0,-3.4241872E0,-2.848183E0,-1.7727804E0,-2.2783203E-1,-1.9747934E0,-1.8750166E0,-8.509206E-1,-2.4930274E0,-1.4156543E0,-2.5710517E-1,4.8804656E-1,-7.673675E-1,2.4537101E-1,1.2945918E0,3.7299085E0,1.4553105E0,3.0853638E-1,-8.8447636E-1,2.95098E-2,1.2643057E-1,1.0021476E0,1.9556736E0,3.1130657E0,1.1605483E0,1.9946909E0,4.0422626E0,2.6966708E0,4.0191617E0,5.5952187E0,-1.2113069E0,-7.547862E-1,2.3177214E-1,-2.5998613E-1,-1.2495096E0,-1.6698159E0,-9.8337096E-1,-1.3344374E0,-8.3202326E-1,-1.2575653E0,-3.9873305E-1,-1.0120077E0,1.02915704E-1,-2.8659278E-1,-5.397647E-1,-8.775211E-1,-9.0428764E-1,-4.9861017E-1,-3.5157564E-1,-7.116924E-2,-6.919279E-1,-1.215273E0,-4.0636632E-1,-1.4746817E0,2.3029703E-1,-1.0761159E-1,4.0552028E-2,2.6277867E-1,-2.0019984E-1,-5.9626E-1,2.4663542E-1,-1.2635167E-1,1.4948925E-1,5.992192E-1,8.2787764E-1,1.3368375E0,5.2601254E-1,1.8980558E-1,-2.378687E-1,2.179409E-1,-4.6270552E-1,-1.2484406E-1,9.2531025E-2,-2.8304023E-1,9.566592E-2,-4.8487374E-1,8.4985024E-1,2.7790198E-1,4.5460942E-1,6.712975E-1,8.4072995E-1,1.1372386E0,4.394479E-1,-2.1252017E-1,5.219101E-1,7.614313E-1,1.4814851E0,1.0601538E0,5.9582555E-1,8.8728964E-1,1.244422E0,5.074555E-1,1.4863644E0,2.1052248E0],"categories":[],"categories_nodes":[],"categories_segments":[],"categories_sizes":[],"default_left":[0,0,0,0,0,0,0,0,0,0,0,0,0,0,0,0,0,0,0,0,0,0,0,0,0,0,0,0,0,0,0,0,0,0,0,0,0,0,0,0,0,0,0,0,0,0,0,0,0,0,0,0,0,0,0,0,0,0,0,0,0,0,0,0,0,0,0,0,0,0,0,0,0,0,0,0,0,0,0,0,0,0,0,0,0,0,0,0,0,0,0,0,0,0,0,0,0,0,0,0,0,0,0,0,0,0,0,0,0,0,0,0,0,0,0,0,0,0,0,0,0,0,0,0,0,0,0],"id":4,"left_children":[1,3,5,7,9,11,13,15,17,19,21,23,25,27,29,31,33,35,37,39,41,43,45,47,49,51,53,55,57,59,61,63,65,67,69,71,73,75,77,79,81,83,85,87,89,91,93,95,97,99,101,103,105,107,109,111,113,115,117,119,121,123,125,-1,-1,-1,-1,-1,-1,-1,-1,-1,-1,-1,-1,-1,-1,-1,-1,-1,-1,-1,-1,-1,-1,-1,-1,-1,-1,-1,-1,-1,-1,-1,-1,-1,-1,-1,-1,-1,-1,-1,-1,-1,-1,-1,-1,-1,-1,-1,-1,-1,-1,-1,-1,-1,-1,-1,-1,-1,-1,-1,-1,-1,-1,-1,-1],"loss_changes":[5.06269E6,6.4890075E5,9.6737675E5,9.154225E4,1.4152681E5,1.736496E5,2.45995E5,2.2598E4,5.1739625E4,4.734925E4,3.2752168E4,7.268272E4,1.2664121E5,6.456275E4,5.3395875E4,9.499922E3,1.4285875E4,2.842225E4,2.5775219E4,3.742333E4,4.7076562E4,6.3842075E3,2.674754E4,2.1411734E4,5.176047E4,3.9374258E4,6.511342E4,1.8199781E4,5.1823375E4,4.3351875E4,1.43634375E4,3.8690234E3,5.159369E2,5.450125E3,8.02175E3,1.607875E4,2.0617664E4,3.803694E3,1.8142594E4,1.1059891E4,3.2323555E4,1.7526125E4,2.6470562E4,1.7739945E3,4.841088E3,2.380321E4,1.1573516E4,2.6522573E3,1.0675281E4,3.583197E4,2.4797367E4,2.6439477E4,2.8378684E4,4.9326727E4,2.7875219E4,2.4142734E3,9.4655E3,7.015111E4,2.6047E4,1.3870969E4,2.0698938E4,9.675344E3,6.394375E3,0E0,0E0,0E0,0E0,0E0,0E0,0E0,0E0,0E0,0E0,0E0,0E0,0E0,0E0,0E0,0E0,0E0,0E0,0E0,0E0,0E0,0E0,0E0,0E0,0E0,0E0,0E0,0E0,0E0,0E0,0E0,0E0,0E0,0E0,0E0,0E0,0E0,0E0,0E0,0E0,0E0,0E0,0E0,0E0,0E0,0E0,0E0,0E0,0E0,0E0,0E0,0E0,0E0,0E0,0E0,0E0,0E0,0E0,0E0,0E0,0E0,0E0,0E0,0E0],"parents":[2147483647,0,0,1,1,2,2,3,3,4,4,5,5,6,6,7,7,8,8,9,9,10,10,11,11,12,12,13,13,14,14,15,15,16,16,17,17,18,18,19,19,20,20,21,21,22,22,23,23,24,24,25,25,26,26,27,27,28,28,29,29,30,30,31,31,32,32,33,33,34,34,35,35,36,36,37,37,38,38,39,39,40,40,41,41,42,42,43,43,44,44,45,45,46,46,47,47,48,48,49,49,50,50,51,51,52,52,53,53,54,54,55,55,56,56,57,57,58,58,59,59,60,60,61,61,62,62],"right_children":[2,4,6,8,10,12,14,16,18,20,22,24,26,28,30,32,34,36,38,40,42,44,46,48,50,52,54,56,58,60,62,64,66,68,70,72,74,76,78,80,82,84,86,88,90,92,94,96,98,100,102,104,106,108,110,112,114,116,118,120,122,124,126,-1,-1,-1,-1,-1,-1,-1,-1,-1,-1,-1,-1,-1,-1,-1,-1,-1,-1,-1,-1,-1,-1,-1,-1,-1,-1,-1,-1,-1,-1,-1,-1,-1,-1,-1,-1,-1,-1,-1,-1,-1,-1,-1,-1,-1,-1,-1,-1,-1,-1,-1,-1,-1,-1,-1,-1,-1,-1,-1,-1,-1,-1,-1,-1],"split_conditions":[2.01E1,1.2766666E1,2.7E1,8.1E0,1.71E1,2.7E1,3.1966667E1,1.3E1,1.2383333E1,2.64E2,6E0,-3.33E2,2.145E1,-3E0,3.5216667E1,2.610891E1,5.7E0,2.4210604E1,-2.53E2,1.2383333E1,8E1,1.66E1,2.2466667E1,-3.2163498E-1,5E-1,2.7E1,2.64E2,2.4E1,8E1,-3E0,4.359094E1,5.4166665E0,-3.3164725E0,8.19E2,8.19E2,8.58E2,3.52E2,-3.33E2,7.99E2,8.716666E0,3.05E2,5.53E2,8.19E2,6.9245033E0,2.02E1,8.19E2,1.37083435E1,2.51E1,1.91E1,3.1228057E-1,3.382091E0,1.8183332E1,7.99E2,4.75E2,7.4E1,2.265E1,4.3333335E0,4.66E2,2.9283333E1,-2.2715185E0,1.5347674E1,9.42E2,3.8E1,-1.2113069E0,-7.547862E-1,2.3177214E-1,-2.5998613E-1,-1.2495096E0,-1.6698159E0,-9.8337096E-1,-1.3344374E0,-8.3202326E-1,-1.2575653E0,-3.9873305E-1,-1.0120077E0,1.02915704E-1,-2.8659278E-1,-5.397647E-1,-8.775211E-1,-9.0428764E-1,-4.9861017E-1,-3.5157564E-1,-7.116924E-2,-6.919279E-1,-1.215273E0,-4.0636632E-1,-1.4746817E0,2.3029703E-1,-1.0761159E-1,4.0552028E-2,2.6277867E-1,-2.0019984E-1,-5.9626E-1,2.4663542E-1,-1.2635167E-1,1.4948925E-1,5.992192E-1,8.2787764E-1,1.3368375E0,5.2601254E-1,1.8980558E-1,-2.378687E-1,2.179409E-1,-4.6270552E-1,-1.2484406E-1,9.2531025E-2,-2.8304023E-1,9.566592E-2,-4.8487374E-1,8.4985024E-1,2.7790198E-1,4.5460942E-1,6.712975E-1,8.4072995E-1,1.1372386E0,4.394479E-1,-2.1252017E-1,5.219101E-1,7.614313E-1,1.4814851E0,1.0601538E0,5.9582555E-1,8.8728964E-1,1.244422E0,5.074555E-1,1.4863644E0,2.1052248E0],"split_indices":[10,2,4,2,18,24,10,24,10,24,24,24,2,24,2,33,2,33,24,10,26,13,18,14,35,28,26,13,26,24,33,18,22,24,24,24,24,24,24,10,30,24,26,32,5,24,32,12,5,38,25,2,24,24,24,10,1,24,2,23,33,24,5,0,0,0,0,0,0,0,0,0,0,0,0,0,0,0,0,0,0,0,0,0,0,0,0,0,0,0,0,0,0,0,0,0,0,0,0,0,0,0,0,0,0,0,0,0,0,0,0,0,0,0,0,0,0,0,0,0,0,0,0,0,0,0,0],"split_type":[0,0,0,0,0,0,0,0,0,0,0,0,0,0,0,0,0,0,0,0,0,0,0,0,0,0,0,0,0,0,0,0,0,0,0,0,0,0,0,0,0,0,0,0,0,0,0,0,0,0,0,0,0,0,0,0,0,0,0,0,0,0,0,0,0,0,0,0,0,0,0,0,0,0,0,0,0,0,0,0,0,0,0,0,0,0,0,0,0,0,0,0,0,0,0,0,0,0,0,0,0,0,0,0,0,0,0,0,0,0,0,0,0,0,0,0,0,0,0,0,0,0,0,0,0,0,0],"sum_hessian":[2.386877E6,1.071329E6,1.315548E6,3.99979E5,6.7135E5,7.58242E5,5.57306E5,9.2867E4,3.07112E5,3.93818E5,2.77532E5,2.19913E5,5.38329E5,3.75844E5,1.81462E5,1.5272E4,7.7595E4,1.89187E5,1.17925E5,2.09685E5,1.84133E5,5.2404E4,2.25128E5,1.9906E4,2.00007E5,1.90381E5,3.47948E5,6.4482E4,3.11362E5,1.4214E5,3.9322E4,1.2374E4,2.898E3,2.3944E4,5.3651E4,1.60148E5,2.9039E4,9.157E3,1.08768E5,4.56E4,1.64085E5,6.032E4,1.23813E5,1.7035E4,3.5369E4,1.95024E5,3.0104E4,4.74E3,1.5166E4,1.4614E5,5.3867E4,8.5815E4,1.04566E5,1.47071E5,2.00877E5,1.9471E4,4.5011E4,1.23355E5,1.88007E5,3.0486E4,1.11654E5,3.2267E4,7.055E3,1.995E3,1.0379E4,2.06E2,2.692E3,2.0726E4,3.218E3,4.6948E4,6.703E3,1.51709E5,8.439E3,2.2738E4,6.301E3,5.131E3,4.026E3,9.1808E4,1.696E4,7.18E3,3.842E4,1.07733E5,5.6352E4,5.387E4,6.45E3,1.2169E5,2.123E3,1.536E3,1.5499E4,1.8521E4,1.6848E4,1.80248E5,1.4776E4,1.6139E4,1.3965E4,2.223E3,2.517E3,6.494E3,8.672E3,1.07271E5,3.8869E4,1.4817E4,3.905E4,3.5685E4,5.013E4,8.1269E4,2.3297E4,1.32445E5,1.4626E4,7.986E3,1.92891E5,7.604E3,1.1867E4,3.0868E4,1.4143E4,1.06084E5,1.7271E4,1.27965E5,6.0042E4,1.1033E4,1.9453E4,2.9993E4,8.1661E4,3.0573E4,1.694E3,4.867E3,2.188E3],"tree_param":{"num_deleted":"0","num_feature":"39","num_nodes":"127","size_leaf_vector":"1"}},{"base_weights":[1.2330369E-6,-1.1631374E0,9.171131E-1,-1.7842822E0,-6.955832E-1,3.5435748E-1,1.6010106E0,-2.4208567E0,-1.5385519E0,-1.7620935E-1,-8.880641E-1,1.23619676E-1,8.6464506E-1,1.2755845E0,2.2484233E0,-1.6933843E0,-2.6133761E0,-1.1881691E0,-1.8780729E0,-2.071255E0,-6.815642E-2,-1.007666E0,-2.014034E-2,3.7278333E-1,-1.6483158E-1,1.609042E0,7.108258E-1,2.1352828E0,1.1070725E0,1.990023E0,2.9604316E0,-2.7233372E0,-1.4388876E0,-3.3076625E0,-2.4430578E0,-2.730374E0,-1.0404489E0,-1.6498935E0,-2.5939138E0,-3.3053207E0,-3.8763687E-1,1.5256433E0,-1.835616E-1,-1.2927341E0,-6.280831E-1,1.3222454E0,-1.8944827E-1,-8.326295E-1,4.7058558E-1,-8.8824457E-1,2.8837986E-2,1.19451E0,1.8101358E0,5.735064E-1,1.4595535E0,2.4964306E0,1.4990748E0,1.2232009E0,6.2264777E-3,2.2726326E0,1.5323071E0,2.5984354E0,3.53354E0,-4.5854175E-1,-9.7241443E-1,-6.096305E-1,-2.9734436E-1,-8.120074E-1,-1.2601063E0,-9.6796197E-1,-6.9014937E-1,-1.0002369E0,-6.453348E-1,-3.7466213E-1,-4.5762524E-2,-4.6549588E-1,-1.1239277E0,-1.081174E0,-6.5368307E-1,-1.6603924E0,-8.474356E-1,-3.364129E-1,1.7091343E-2,7.111885E-2,6.189804E-1,-1.05368294E-1,1.5831193E-1,-4.5633787E-1,-2.7949482E-1,-4.1655857E-2,-2.7539036E-1,4.462235E-1,6.7724544E-3,1.3922939E-1,-1.6872528E-1,6.257433E-2,-3.3585164E-1,3.9283708E-2,2.4150907E-1,-1.467376E-1,-5.552149E-1,-1.4117011E-1,8.469249E-2,3.1864452E-1,5.323958E-1,5.5153364E-1,-4.9910462E-1,2.3202062E-1,4.6469994E-2,3.1508476E-1,6.117524E-1,6.919582E-1,1.0482918E0,4.509978E-2,5.1206803E-1,2.9724345E-1,5.146826E-1,-1.8372068E-1,1.02550514E-1,2.4863985E-1,7.304252E-1,2.5237966E-1,5.8224577E-1,8.5386705E-1,4.6013695E-1,-2.4104151E-1,1.0977161E0],"categories":[],"categories_nodes":[],"categories_segments":[],"categories_sizes":[],"default_left":[0,0,0,0,0,0,0,0,0,0,0,0,0,0,0,0,0,0,0,0,0,0,0,0,0,0,0,0,0,0,0,0,0,0,0,0,0,0,0,0,0,0,0,0,0,0,0,0,0,0,0,0,0,0,0,0,0,0,0,0,0,0,0,0,0,0,0,0,0,0,0,0,0,0,0,0,0,0,0,0,0,0,0,0,0,0,0,0,0,0,0,0,0,0,0,0,0,0,0,0,0,0,0,0,0,0,0,0,0,0,0,0,0,0,0,0,0,0,0,0,0,0,0,0,0,0,0],"id":5,"left_children":[1,3,5,7,9,11,13,15,17,19,21,23,25,27,29,31,33,35,37,39,41,43,45,47,49,51,53,55,57,59,61,63,65,67,69,71,73,75,77,79,81,83,85,87,89,91,93,95,97,99,101,103,105,107,109,111,113,115,117,119,121,123,125,-1,-1,-1,-1,-1,-1,-1,-1,-1,-1,-1,-1,-1,-1,-1,-1,-1,-1,-1,-1,-1,-1,-1,-1,-1,-1,-1,-1,-1,-1,-1,-1,-1,-1,-1,-1,-1,-1,-1,-1,-1,-1,-1,-1,-1,-1,-1,-1,-1,-1,-1,-1,-1,-1,-1,-1,-1,-1,-1,-1,-1,-1,-1,-1],"loss_changes":[2.5461512E6,3.0560475E5,5.1363738E5,7.0688E4,6.0019188E4,8.620364E4,1.26924125E5,1.7622875E4,3.8786375E4,3.324124E4,4.5470656E4,3.6235406E4,2.6102016E4,5.80795E4,3.707125E4,6.9005703E3,1.1760375E4,3.6553484E4,2.7043875E4,1.8193102E4,2.8249217E4,4.1657406E4,1.2057952E4,3.1890914E4,3.2736932E4,3.2521172E3,1.9424172E4,1.5093219E4,4.2854344E4,1.9123688E4,1.11233125E4,3.2249453E3,5.6086367E3,1.0504734E4,8.9191875E3,4.8980938E3,2.7100266E4,2.5857375E4,1.6767E4,5.3974844E3,1.2087327E3,7.1835625E3,1.7079242E4,1.8130594E4,2.3417543E4,1.2754854E3,1.14839375E4,6.0641084E3,2.842098E4,1.8954527E4,2.3332035E4,9.775547E2,2.5879766E3,1.3359262E4,6.9437227E3,7.93425E3,6.669332E3,3.469725E4,6.641672E3,2.139625E4,1.5933844E4,8.672484E3,1.1309172E4,0E0,0E0,0E0,0E0,0E0,0E0,0E0,0E0,0E0,0E0,0E0,0E0,0E0,0E0,0E0,0E0,0E0,0E0,0E0,0E0,0E0,0E0,0E0,0E0,0E0,0E0,0E0,0E0,0E0,0E0,0E0,0E0,0E0,0E0,0E0,0E0,0E0,0E0,0E0,0E0,0E0,0E0,0E0,0E0,0E0,0E0,0E0,0E0,0E0,0E0,0E0,0E0,0E0,0E0,0E0,0E0,0E0,0E0,0E0,0E0,0E0,0E0,0E0,0E0],"parents":[2147483647,0,0,1,1,2,2,3,3,4,4,5,5,6,6,7,7,8,8,9,9,10,10,11,11,12,12,13,13,14,14,15,15,16,16,17,17,18,18,19,19,20,20,21,21,22,22,23,23,24,24,25,25,26,26,27,27,28,28,29,29,30,30,31,31,32,32,33,33,34,34,35,35,36,36,37,37,38,38,39,39,40,40,41,41,42,42,43,43,44,44,45,45,46,46,47,47,48,48,49,49,50,50,51,51,52,52,53,53,54,54,55,55,56,56,57,57,58,58,59,59,60,60,61,61,62,62],"right_children":[2,4,6,8,10,12,14,16,18,20,22,24,26,28,30,32,34,36,38,40,42,44,46,48,50,52,54,56,58,60,62,64,66,68,70,72,74,76,78,80,82,84,86,88,90,92,94,96,98,100,102,104,106,108,110,112,114,116,118,120,122,124,126,-1,-1,-1,-1,-1,-1,-1,-1,-1,-1,-1,-1,-1,-1,-1,-1,-1,-1,-1,-1,-1,-1,-1,-1,-1,-1,-1,-1,-1,-1,-1,-1,-1,-1,-1,-1,-1,-1,-1,-1,-1,-1,-1,-1,-1,-1,-1,-1,-1,-1,-1,-1,-1,-1,-1,-1,-1,-1,-1,-1,-1,-1,-1,-1],"split_conditions":[1.9416666E1,1.36E1,2.67E1,9.3E0,2.7E1,2.37E1,3.055E1,1.3E1,2.64E2,1.2430738E0,7.99E2,2.64E2,-3E0,-3E0,3.4E1,5.8166666E0,8E1,1.9328351E0,3.497853E1,-7.7112824E-1,-3.33E2,1.765E1,7.4E1,1.645E1,3.8374916E1,2.34E1,7.11E2,-3.6487907E-1,8.19E2,3.52E2,3.4866665E1,3.2063072E1,1.4856691E1,1.061693E1,5.1E0,1.28E2,3.0007507E1,8.19E2,9.033334E0,1.28E1,1.3026373E-1,-4.5487147E-2,1.86E1,3.05E2,1.8659245E1,1.1879478E0,8E1,-1.32E2,1.6008667E1,2.6836023E1,1.99E1,3.3E1,6.73E2,3.72E2,2.66E1,3.4E1,-2.7521088E0,1.28E2,2.71E1,1.9328351E0,2.82E1,4.91E2,1.9328351E0,-4.5854175E-1,-9.7241443E-1,-6.096305E-1,-2.9734436E-1,-8.120074E-1,-1.2601063E0,-9.6796197E-1,-6.9014937E-1,-1.0002369E0,-6.453348E-1,-3.7466213E-1,-4.5762524E-2,-4.6549588E-1,-1.1239277E0,-1.081174E0,-6.5368307E-1,-1.6603924E0,-8.474356E-1,-3.364129E-1,1.7091343E-2,7.111885E-2,6.189804E-1,-1.05368294E-1,1.5831193E-1,-4.5633787E-1,-2.7949482E-1,-4.1655857E-2,-2.7539036E-1,4.462235E-1,6.7724544E-3,1.3922939E-1,-1.6872528E-1,6.257433E-2,-3.3585164E-1,3.9283708E-2,2.4150907E-1,-1.467376E-1,-5.552149E-1,-1.4117011E-1,8.469249E-2,3.1864452E-1,5.323958E-1,5.5153364E-1,-4.9910462E-1,2.3202062E-1,4.6469994E-2,3.1508476E-1,6.117524E-1,6.919582E-1,1.0482918E0,4.509978E-2,5.1206803E-1,2.9724345E-1,5.146826E-1,-1.8372068E-1,1.02550514E-1,2.4863985E-1,7.304252E-1,2.5237966E-1,5.8224577E-1,8.5386705E-1,4.6013695E-1,-2.4104151E-1,1.0977161E0],"split_indices":[2,20,10,10,24,21,2,24,24,27,30,24,24,24,5,10,26,29,34,14,24,18,24,10,29,10,28,23,24,24,18,31,33,32,10,24,33,24,18,5,6,14,21,28,31,15,28,24,33,25,20,4,26,24,21,13,15,28,20,25,21,24,25,0,0,0,0,0,0,0,0,0,0,0,0,0,0,0,0,0,0,0,0,0,0,0,0,0,0,0,0,0,0,0,0,0,0,0,0,0,0,0,0,0,0,0,0,0,0,0,0,0,0,0,0,0,0,0,0,0,0,0,0,0,0,0,0],"split_type":[0,0,0,0,0,0,0,0,0,0,0,0,0,0,0,0,0,0,0,0,0,0,0,0,0,0,0,0,0,0,0,0,0,0,0,0,0,0,0,0,0,0,0,0,0,0,0,0,0,0,0,0,0,0,0,0,0,0,0,0,0,0,0,0,0,0,0,0,0,0,0,0,0,0,0,0,0,0,0,0,0,0,0,0,0,0,0,0,0,0,0,0,0,0,0,0,0,0,0,0,0,0,0,0,0,0,0,0,0,0,0,0,0,0,0,0,0,0,0,0,0,0,0,0,0,0,0],"sum_hessian":[2.386877E6,1.052293E6,1.334584E6,4.51918E5,6.00375E5,7.32136E5,6.02448E5,1.25861E5,3.26057E5,1.62338E5,4.38037E5,5.04167E5,2.27969E5,4.00924E5,2.01524E5,2.634E4,9.9521E4,1.60464E5,1.65593E5,8.756E3,1.53582E5,3.84985E5,5.3052E4,2.70505E5,2.33662E5,3.9038E4,1.88931E5,6.5705E4,3.35219E5,1.47865E5,5.3659E4,5.217E3,2.1123E4,1.9601E4,7.992E4,1.4025E4,1.46439E5,1.2557E5,4.0023E4,5.052E3,3.704E3,1.0369E4,1.43213E5,2.19864E5,1.65121E5,5.941E3,4.7111E4,2.03E4,2.50205E5,4.9344E4,1.84318E5,1.2754E4,2.6284E4,1.59652E5,2.9279E4,4.1911E4,2.3794E4,3.03231E5,3.1988E4,9.1417E4,5.6448E4,3.289E4,2.0769E4,1.579E3,3.638E3,9.084E3,1.2039E4,1.1717E4,7.884E3,1.23E4,6.762E4,6.865E3,7.16E3,1.18599E5,2.784E4,1.19951E5,5.619E3,1.1653E4,2.837E4,8.94E2,4.158E3,1.397E3,2.307E3,3.053E3,7.316E3,1.15894E5,2.7319E4,1.34676E5,8.5188E4,6.1437E4,1.03684E5,5.271E3,6.7E2,1.7117E4,2.9994E4,4.385E3,1.5915E4,1.24139E5,1.26066E5,3.4881E4,1.4463E4,6.2054E4,1.22264E5,1.0387E4,2.367E3,2.6072E4,2.12E2,1.08053E5,5.1599E4,1.7163E4,1.2116E4,3.5213E4,6.698E3,3.177E3,2.0617E4,2.06009E5,9.7222E4,1.125E4,2.0738E4,9.229E3,8.2188E4,2.0973E4,3.5475E4,2.6679E4,6.211E3,5.84E2,2.0185E4],"tree_param":{"num_deleted":"0","num_feature":"39","num_nodes":"127","size_leaf_vector":"1"}},{"base_weights":[-1.4828603E-6,-6.6194844E-1,8.101982E-1,-1.1552266E0,-2.406478E-1,5.3471327E-1,1.4385911E0,-1.6476705E0,-9.485594E-1,-3.7969005E-1,1.7724283E-1,8.4438956E-1,3.0409473E-1,1.6294154E0,7.7426696E-1,-1.6066215E0,-3.757597E0,-4.8724502E-1,-1.0597427E0,-2.062161E-1,-7.0606905E-1,2.1112469E-1,-2.9973173E0,5.4021996E-1,1.1282604E0,-3.4653416E-1,4.5565328E-1,1.4250654E0,2.1564457E0,4.1764215E-1,1.3352427E0,-2.1593535E0,-1.4709575E0,-5.2381687E0,-3.4551482E0,1.08331196E-1,-7.315036E-1,-2.0128314E0,-1.0064992E0,-4.5881194E-1,-2.1280868E-2,-1.2707202E0,-3.5617268E-1,-2.148425E-2,5.683868E-1,-1.6421454E0,-3.2700853E0,3.713442E-1,1.6583999E0,8.786885E-1,1.4309944E0,-5.662087E-1,7.179955E-1,5.134023E-1,-4.7488874E-1,1.3783644E0,2.919794E0,2.0392635E0,3.2482285E0,1.2645975E-1,8.479339E-1,1.8064058E0,5.7123727E-1,2.6684469E-2,-6.6634613E-1,-4.5301297E-1,1.1828747E-2,-1.4403086E0,-1.8415445E0,-1.4020009E0,-9.351835E-1,9.144548E-2,-1.24982886E-1,-2.067342E-1,-9.2644346E-1,-7.68967E-1,-5.244965E-1,-3.333327E-1,-1.281159E-1,1.04397014E-1,-1.7269376E-1,-5.9762508E-2,1.4537336E-1,-4.5564172E-1,-1.4242274E-1,4.120373E-2,-1.6589236E-1,1.0558482E-1,-5.7202797E-2,2.6900196E-1,1.1866588E-2,-1.4038813E0,-4.3594924E-1,-1.3781073E0,-9.138108E-1,1.4095536E-1,-3.250537E-1,5.868623E-1,3.306244E-1,3.3292916E-1,-3.264923E-2,3.8323173E-1,5.641216E-1,-3.3554494E-1,-9.431436E-2,-5.081794E-3,2.9806015E-1,2.0912798E-2,1.9325821E-1,1.0006041E-1,-2.8937796E-1,3.5293376E-1,5.3694576E-1,9.369958E-1,5.7492405E-1,5.4216313E-1,7.595495E-1,-9.5698667E-1,9.961834E-1,2.6411092E-1,-3.3865254E-2,3.868577E-2,3.2651514E-1,4.923619E-1,8.202134E-1,-6.943251E-2,2.3650572E-1],"categories":[],"categories_nodes":[],"categories_segments":[],"categories_sizes":[],"default_left":[0,0,0,0,0,0,0,0,0,0,0,0,0,0,0,0,0,0,0,0,0,0,0,0,0,0,0,0,0,0,0,0,0,0,0,0,0,0,0,0,0,0,0,0,0,0,0,0,0,0,0,0,0,0,0,0,0,0,0,0,0,0,0,0,0,0,0,0,0,0,0,0,0,0,0,0,0,0,0,0,0,0,0,0,0,0,0,0,0,0,0,0,0,0,0,0,0,0,0,0,0,0,0,0,0,0,0,0,0,0,0,0,0,0,0,0,0,0,0,0,0,0,0,0,0,0,0],"id":6,"left_children":[1,3,5,7,9,11,13,15,17,19,21,23,25,27,29,31,33,35,37,39,41,43,45,47,49,51,53,55,57,59,61,63,65,67,69,71,73,75,77,79,81,83,85,87,89,91,93,95,97,99,101,103,105,107,109,111,113,115,117,119,121,123,125,-1,-1,-1,-1,-1,-1,-1,-1,-1,-1,-1,-1,-1,-1,-1,-1,-1,-1,-1,-1,-1,-1,-1,-1,-1,-1,-1,-1,-1,-1,-1,-1,-1,-1,-1,-1,-1,-1,-1,-1,-1,-1,-1,-1,-1,-1,-1,-1,-1,-1,-1,-1,-1,-1,-1,-1,-1,-1,-1,-1,-1,-1,-1,-1],"loss_changes":[1.2801052E6,2.7299525E5,1.8579325E5,6.1582688E4,4.1167363E4,5.3287453E4,4.1465875E4,1.5486906E4,2.1861594E4,3.0099367E4,1.9026273E4,2.749886E4,4.2171508E4,2.73645E4,1.4602672E4,1.3154531E4,1.5102344E3,1.2042611E4,1.7427188E4,1.6215496E4,3.64509E4,1.4544336E4,6.851328E2,2.9031969E4,1.2445344E4,1.8895496E4,1.864007E4,1.27784375E4,9.0766875E3,5.5913604E3,1.0210988E4,4.804672E3,8.3175625E3,1.9761426E2,1.1531094E3,2.4835269E3,5.862338E3,2.6409297E3,1.971725E4,1.3830482E4,1.8037602E4,1.3938125E4,1.1063914E4,6.6974736E3,1.1981709E4,1.740169E2,4.4685156E2,1.9143613E4,3.3400273E3,2.0605797E4,5.134578E3,9.314945E3,2.7990093E3,1.895289E4,8.024587E3,1.4750469E4,1.1267852E3,7.3243438E3,3.2167734E3,4.8029707E3,3.113584E3,2.6845117E3,1.8863467E3,0E0,0E0,0E0,0E0,0E0,0E0,0E0,0E0,0E0,0E0,0E0,0E0,0E0,0E0,0E0,0E0,0E0,0E0,0E0,0E0,0E0,0E0,0E0,0E0,0E0,0E0,0E0,0E0,0E0,0E0,0E0,0E0,0E0,0E0,0E0,0E0,0E0,0E0,0E0,0E0,0E0,0E0,0E0,0E0,0E0,0E0,0E0,0E0,0E0,0E0,0E0,0E0,0E0,0E0,0E0,0E0,0E0,0E0,0E0,0E0,0E0,0E0,0E0,0E0],"parents":[2147483647,0,0,1,1,2,2,3,3,4,4,5,5,6,6,7,7,8,8,9,9,10,10,11,11,12,12,13,13,14,14,15,15,16,16,17,17,18,18,19,19,20,20,21,21,22,22,23,23,24,24,25,25,26,26,27,27,28,28,29,29,30,30,31,31,32,32,33,33,34,34,35,35,36,36,37,37,38,38,39,39,40,40,41,41,42,42,43,43,44,44,45,45,46,46,47,47,48,48,49,49,50,50,51,51,52,52,53,53,54,54,55,55,56,56,57,57,58,58,59,59,60,60,61,61,62,62],"right_children":[2,4,6,8,10,12,14,16,18,20,22,24,26,28,30,32,34,36,38,40,42,44,46,48,50,52,54,56,58,60,62,64,66,68,70,72,74,76,78,80,82,84,86,88,90,92,94,96,98,100,102,104,106,108,110,112,114,116,118,120,122,124,126,-1,-1,-1,-1,-1,-1,-1,-1,-1,-1,-1,-1,-1,-1,-1,-1,-1,-1,-1,-1,-1,-1,-1,-1,-1,-1,-1,-1,-1,-1,-1,-1,-1,-1,-1,-1,-1,-1,-1,-1,-1,-1,-1,-1,-1,-1,-1,-1,-1,-1,-1,-1,-1,-1,-1,-1,-1,-1,-1,-1,-1,-1,-1,-1],"split_conditions":[2.2316668E1,1.545E1,3.0033333E1,1E1,2.1133333E1,1.01E2,4.91E2,9.42E2,6E0,3.72E2,8.19E2,2.45E1,-3E0,3.47E1,3.22E1,5.8E0,5.4E0,2.72867E1,-6.3E1,5.6E1,1.85E2,2.558334E1,1.075733E0,9.244255E1,2.72867E1,7.11E2,9.42E2,5.385028E1,4.1E1,6.73E2,8.58E2,-1.8822671E-1,5.385028E1,2.7666667E0,7.9E1,3.3E1,6.73E2,8.8E0,2.4210604E1,-2.53E2,2.1552982E1,8.58E2,1.5666667E0,7.0745783E0,4.857022E1,1.7133333E1,1.9E1,3.4629234E1,9.025161E-2,2.051045E-1,2.4017332E0,2.105E1,1.7066668E1,1.837129E1,1.75E0,1.28E2,-7.801336E-1,4.91E2,1.9328351E0,-2.94672E0,2.56E1,3.69E1,2.99E1,2.6684469E-2,-6.6634613E-1,-4.5301297E-1,1.1828747E-2,-1.4403086E0,-1.8415445E0,-1.4020009E0,-9.351835E-1,9.144548E-2,-1.24982886E-1,-2.067342E-1,-9.2644346E-1,-7.68967E-1,-5.244965E-1,-3.333327E-1,-1.281159E-1,1.04397014E-1,-1.7269376E-1,-5.9762508E-2,1.4537336E-1,-4.5564172E-1,-1.4242274E-1,4.120373E-2,-1.6589236E-1,1.0558482E-1,-5.7202797E-2,2.6900196E-1,1.1866588E-2,-1.4038813E0,-4.3594924E-1,-1.3781073E0,-9.138108E-1,1.4095536E-1,-3.250537E-1,5.868623E-1,3.306244E-1,3.3292916E-1,-3.264923E-2,3.8323173E-1,5.641216E-1,-3.3554494E-1,-9.431436E-2,-5.081794E-3,2.9806015E-1,2.0912798E-2,1.9325821E-1,1.0006041E-1,-2.8937796E-1,3.5293376E-1,5.3694576E-1,9.369958E-1,5.7492405E-1,5.4216313E-1,7.595495E-1,-9.5698667E-1,9.961834E-1,2.6411092E-1,-3.3865254E-2,3.868577E-2,3.2651514E-1,4.923619E-1,8.202134E-1,-6.943251E-2,2.3650572E-1],"split_indices":[10,10,10,20,2,24,24,24,24,24,26,5,28,10,20,20,21,31,28,28,28,34,15,29,29,26,24,33,12,30,24,37,33,17,11,26,26,5,33,24,33,30,1,32,25,10,12,34,38,37,6,18,2,25,9,28,15,26,25,7,21,20,4,0,0,0,0,0,0,0,0,0,0,0,0,0,0,0,0,0,0,0,0,0,0,0,0,0,0,0,0,0,0,0,0,0,0,0,0,0,0,0,0,0,0,0,0,0,0,0,0,0,0,0,0,0,0,0,0,0,0,0,0,0,0,0,0],"split_type":[0,0,0,0,0,0,0,0,0,0,0,0,0,0,0,0,0,0,0,0,0,0,0,0,0,0,0,0,0,0,0,0,0,0,0,0,0,0,0,0,0,0,0,0,0,0,0,0,0,0,0,0,0,0,0,0,0,0,0,0,0,0,0,0,0,0,0,0,0,0,0,0,0,0,0,0,0,0,0,0,0,0,0,0,0,0,0,0,0,0,0,0,0,0,0,0,0,0,0,0,0,0,0,0,0,0,0,0,0,0,0,0,0,0,0,0,0,0,0,0,0,0,0,0,0,0,0],"sum_hessian":[2.386877E6,1.313624E6,1.073253E6,6.0512E5,7.08504E5,7.46147E5,3.27106E5,1.7888E5,4.2624E5,5.31621E5,1.76883E5,3.18483E5,4.27664E5,2.54112E5,7.2994E4,1.75468E5,3.412E3,8.278E4,3.4346E5,3.47123E5,1.84498E5,1.75016E5,1.867E3,1.53746E5,1.64737E5,8.0799E4,3.46865E5,1.83115E5,7.0997E4,4.4626E4,2.8368E4,3.4577E4,1.40891E5,5.76E2,2.836E3,2.4076E4,5.8704E4,1.817E4,3.2529E5,1.46721E5,2.00402E5,7.0586E4,1.13912E5,1.06001E5,6.9015E4,3.14E2,1.553E3,1.33574E5,2.0172E4,9.0299E4,7.4438E4,6.6978E4,1.3821E4,3.26597E5,2.0268E4,1.77569E5,5.546E3,6.4118E4,6.879E3,2.6616E4,1.801E4,1.7546E4,1.0822E4,9.25E2,3.3652E4,1.37337E5,3.554E3,3.92E2,1.84E2,6.13E2,2.223E3,1.7519E4,6.557E3,5.7668E4,1.036E3,5.895E3,1.2275E4,2.75544E5,4.9746E4,1.8559E4,1.28162E5,1.48256E5,5.2146E4,5.3813E4,1.6773E4,3.2475E4,8.1437E4,3.3051E4,7.295E4,4.2581E4,2.6434E4,1.7E1,2.97E2,2.22E2,1.331E3,1.25104E5,8.47E3,1.3137E4,7.035E3,7.3176E4,1.7123E4,5.5484E4,1.8954E4,2.0975E4,4.6003E4,3.769E3,1.0052E4,7.4356E4,2.52241E5,7.646E3,1.2622E4,1.19117E5,5.8452E4,4.609E3,9.37E2,4.3588E4,2.053E4,7.6E1,6.803E3,6.413E3,2.0203E4,4.514E3,1.3496E4,1.4896E4,2.65E3,2.304E3,8.518E3],"tree_param":{"num_deleted":"0","num_feature":"39","num_nodes":"127","size_leaf_vector":"1"}},{"base_weights":[-3.693274E-6,-5.252133E-1,5.3193134E-1,-9.940113E-1,-3.081446E-1,2.7154493E-1,8.938883E-1,-8.3769554E-1,-1.2558576E0,-1.9490622E-1,-7.22501E-1,5.659583E-1,9.9368446E-2,7.8575474E-1,1.4460719E0,-7.884277E-1,-2.0692685E0,-1.8097477E0,-1.1041602E0,-3.793278E-1,2.5458576E-2,-1.1845363E0,-3.5078135E-1,4.592861E-1,1.7232797E0,-5.6796443E-2,3.6992386E-1,6.521113E-1,1.2092738E0,1.3301078E0,2.341774E0,-1.3782032E0,-7.1504086E-1,-3.5170996E0,-1.3475019E0,-1.1473753E0,-2.1514618E0,-1.5509433E0,-1.0041374E0,2.9006925E-1,-5.027454E-1,-3.591586E-2,9.8893565E-1,-2.2825632E0,-1.0717901E0,-6.9391266E-2,-5.1844615E-1,3.206995E-1,9.207161E-1,1.9495656E0,9.54657E-1,2.5580516E-1,-3.1604427E-1,1.1522701E0,3.108966E-1,1.7344454E-2,7.1728325E-1,1.5573903E0,6.408266E-1,1.3930979E0,-2.4033259E-1,1.8273581E0,3.019989E0,-6.2755E-1,-3.626171E-1,-2.747366E-1,-1.5690534E-1,-1.3177632E0,-8.420887E-1,-7.477081E-1,-2.6033196E-1,-1.7323028E-1,-7.487243E-1,-5.3665143E-1,-7.522678E-1,-2.5811404E-1,-5.161047E-1,-3.9687827E-1,-2.6437223E-1,2.5322744E-1,-1.131737E-1,-1.994132E-1,-3.7201226E-2,2.428957E-1,-3.0976634E-2,3.472163E-1,2.9829163E-2,-1.1844138E0,-6.31375E-1,-5.3131765E-1,-2.8075162E-1,1.1898895E-2,-2.094375E-1,-2.2878675E-1,-8.6562164E-2,2.5241467E-1,4.6749458E-2,-2.3641428E-2,3.174675E-1,6.5780115E-1,3.5549498E-1,3.8017035E-1,5.256326E-2,4.9750518E-2,2.5779244E-1,-1.23471774E-1,4.529422E-3,2.1936432E-1,4.3172213E-1,-4.4040762E-2,1.1687669E-1,1.1446106E-1,-5.3837436E-1,1.5161723E-1,2.702006E-1,7.185211E-2,4.886996E-1,2.7150545E-1,-4.7171783E-2,4.0064076E-1,7.5128555E-1,-1.3601674E-1,5.071195E-1,4.9628767E-1,7.7561086E-1,-4.0799427E-1,9.4035274E-1],"categories":[],"categories_nodes":[],"categories_segments":[],"categories_sizes":[],"default_left":[0,0,0,0,0,0,0,0,0,0,0,0,0,0,0,0,0,0,0,0,0,0,0,0,0,0,0,0,0,0,0,0,0,0,0,0,0,0,0,0,0,0,0,0,0,0,0,0,0,0,0,0,0,0,0,0,0,0,0,0,0,0,0,0,0,0,0,0,0,0,0,0,0,0,0,0,0,0,0,0,0,0,0,0,0,0,0,0,0,0,0,0,0,0,0,0,0,0,0,0,0,0,0,0,0,0,0,0,0,0,0,0,0,0,0,0,0,0,0,0,0,0,0,0,0,0,0],"id":7,"left_children":[1,3,5,7,9,11,13,15,17,19,21,23,25,27,29,31,33,35,37,39,41,43,45,47,49,51,53,55,57,59,61,63,65,67,69,71,73,75,77,79,81,83,85,87,89,91,93,95,97,99,101,103,105,107,109,111,113,115,117,119,121,123,125,-1,-1,-1,-1,-1,-1,-1,-1,-1,-1,-1,-1,-1,-1,-1,-1,-1,-1,-1,-1,-1,-1,-1,-1,-1,-1,-1,-1,-1,-1,-1,-1,-1,-1,-1,-1,-1,-1,-1,-1,-1,-1,-1,-1,-1,-1,-1,-1,-1,-1,-1,-1,-1,-1,-1,-1,-1,-1,-1,-1,-1,-1,-1,-1],"loss_changes":[6.6684E5,1.2221841E5,1.1176425E5,1.55571875E4,3.851833E4,3.4961277E4,2.9624E4,1.4440891E4,1.19369375E4,2.6201727E4,3.026064E4,3.1418766E4,1.8387389E4,2.348311E4,8.436172E3,9.904875E3,9.562199E3,6.9116016E3,4.9831875E3,2.8997156E4,1.736972E4,9.722414E3,4.6066367E3,1.4901316E4,3.7337773E3,2.2361559E4,7.354461E3,1.3047219E4,1.9692594E4,7.116578E3,3.243289E3,3.0605352E3,7.8457812E3,1.8807031E3,3.35413E3,7.9893467E3,2.5974688E3,2.385254E3,3.5696562E3,2.0200754E4,1.8178898E4,1.5724121E4,2.6357012E3,2.1597266E3,6.7709844E3,2.49981E3,3.4345527E3,1.5383611E4,7.397543E3,3.081414E3,1.1904331E3,6.7920063E3,4.7714727E3,1.3482031E3,5.3339854E3,1.937966E4,1.111375E4,5.824297E3,7.9699785E3,4.425672E3,1.142276E3,6.907461E2,2.018168E3,0E0,0E0,0E0,0E0,0E0,0E0,0E0,0E0,0E0,0E0,0E0,0E0,0E0,0E0,0E0,0E0,0E0,0E0,0E0,0E0,0E0,0E0,0E0,0E0,0E0,0E0,0E0,0E0,0E0,0E0,0E0,0E0,0E0,0E0,0E0,0E0,0E0,0E0,0E0,0E0,0E0,0E0,0E0,0E0,0E0,0E0,0E0,0E0,0E0,0E0,0E0,0E0,0E0,0E0,0E0,0E0,0E0,0E0,0E0,0E0,0E0,0E0,0E0,0E0],"parents":[2147483647,0,0,1,1,2,2,3,3,4,4,5,5,6,6,7,7,8,8,9,9,10,10,11,11,12,12,13,13,14,14,15,15,16,16,17,17,18,18,19,19,20,20,21,21,22,22,23,23,24,24,25,25,26,26,27,27,28,28,29,29,30,30,31,31,32,32,33,33,34,34,35,35,36,36,37,37,38,38,39,39,40,40,41,41,42,42,43,43,44,44,45,45,46,46,47,47,48,48,49,49,50,50,51,51,52,52,53,53,54,54,55,55,56,56,57,57,58,58,59,59,60,60,61,61,62,62],"right_children":[2,4,6,8,10,12,14,16,18,20,22,24,26,28,30,32,34,36,38,40,42,44,46,48,50,52,54,56,58,60,62,64,66,68,70,72,74,76,78,80,82,84,86,88,90,92,94,96,98,100,102,104,106,108,110,112,114,116,118,120,122,124,126,-1,-1,-1,-1,-1,-1,-1,-1,-1,-1,-1,-1,-1,-1,-1,-1,-1,-1,-1,-1,-1,-1,-1,-1,-1,-1,-1,-1,-1,-1,-1,-1,-1,-1,-1,-1,-1,-1,-1,-1,-1,-1,-1,-1,-1,-1,-1,-1,-1,-1,-1,-1,-1,-1,-1,-1,-1,-1,-1,-1,-1,-1,-1,-1],"split_conditions":[2.0383333E1,1.2866667E1,2.76E1,3.72E2,4.91E2,7.4E1,3.28E1,7.02E2,1.85E2,3.72E2,3.52E2,9.244255E1,3.72E2,4.866667E0,3.865E1,6.7833333E0,7.4666664E1,7.5004067E0,7.1E0,1.9328351E0,3.9461254E1,1.04E1,2.3856923E-1,2.8066697E0,5E-1,1.8659245E1,-2.53E2,1.9328351E0,3.32E2,9.42E2,3.7016666E1,4.016667E0,3.435174E1,5.45E1,-1.1958958E0,2.5166667E0,1.35E0,1.4833333E0,4.3965088E1,2.25E0,4.66E2,-3.33E2,9.5128036E-1,6.2E0,3.8909443E1,7.99E2,7.67E2,1.9328351E0,1.9328351E0,8.583481E-3,4.0889603E-1,3.78E2,3.63E2,2.36E1,-3E0,2.8848243E-1,9.2E1,2.5702798E0,8.58E2,5.385028E1,9.52E2,3.96E1,1.9328351E0,-6.2755E-1,-3.626171E-1,-2.747366E-1,-1.5690534E-1,-1.3177632E0,-8.420887E-1,-7.477081E-1,-2.6033196E-1,-1.7323028E-1,-7.487243E-1,-5.3665143E-1,-7.522678E-1,-2.5811404E-1,-5.161047E-1,-3.9687827E-1,-2.6437223E-1,2.5322744E-1,-1.131737E-1,-1.994132E-1,-3.7201226E-2,2.428957E-1,-3.0976634E-2,3.472163E-1,2.9829163E-2,-1.1844138E0,-6.31375E-1,-5.3131765E-1,-2.8075162E-1,1.1898895E-2,-2.094375E-1,-2.2878675E-1,-8.6562164E-2,2.5241467E-1,4.6749458E-2,-2.3641428E-2,3.174675E-1,6.5780115E-1,3.5549498E-1,3.8017035E-1,5.256326E-2,4.9750518E-2,2.5779244E-1,-1.23471774E-1,4.529422E-3,2.1936432E-1,4.3172213E-1,-4.4040762E-2,1.1687669E-1,1.1446106E-1,-5.3837436E-1,1.5161723E-1,2.702006E-1,7.185211E-2,4.886996E-1,2.7150545E-1,-4.7171783E-2,4.0064076E-1,7.5128555E-1,-1.3601674E-1,5.071195E-1,4.9628767E-1,7.7561086E-1,-4.0799427E-1,9.4035274E-1],"split_indices":[18,10,20,24,24,24,5,26,28,30,28,29,30,1,2,10,3,32,20,25,33,21,6,22,35,31,28,25,24,24,18,10,29,3,14,1,9,17,29,9,26,24,15,5,27,24,24,25,25,38,7,28,28,5,28,37,30,32,24,33,24,13,25,0,0,0,0,0,0,0,0,0,0,0,0,0,0,0,0,0,0,0,0,0,0,0,0,0,0,0,0,0,0,0,0,0,0,0,0,0,0,0,0,0,0,0,0,0,0,0,0,0,0,0,0,0,0,0,0,0,0,0,0,0,0,0,0],"split_type":[0,0,0,0,0,0,0,0,0,0,0,0,0,0,0,0,0,0,0,0,0,0,0,0,0,0,0,0,0,0,0,0,0,0,0,0,0,0,0,0,0,0,0,0,0,0,0,0,0,0,0,0,0,0,0,0,0,0,0,0,0,0,0,0,0,0,0,0,0,0,0,0,0,0,0,0,0,0,0,0,0,0,0,0,0,0,0,0,0,0,0,0,0,0,0,0,0,0,0,0,0,0,0,0,0,0,0,0,0,0,0,0,0,0,0,0,0,0,0,0,0,0,0,0,0,0,0],"sum_hessian":[2.386877E6,1.201031E6,1.185846E6,3.80111E5,8.2092E5,6.89693E5,4.96153E5,2.38022E5,1.42089E5,6.44726E5,1.76194E5,2.54503E5,4.3519E5,4.14905E5,8.1248E4,2.28868E5,9.154E3,3.0546E4,1.11543E5,3.50987E5,2.93739E5,7.8553E4,9.7641E4,2.33026E5,2.1477E4,2.75926E5,1.59264E5,3.15386E5,9.9519E4,7.1937E4,9.311E3,2.5325E4,2.03543E5,3.044E3,6.11E3,1.0397E4,2.0149E4,2.0401E4,9.1142E4,5.4638E4,2.96349E5,2.76149E5,1.759E4,7.313E3,7.124E4,3.6457E4,6.1184E4,1.79205E5,5.3821E4,1.6591E4,4.886E3,1.25091E5,1.50835E5,1.1172E4,1.48092E5,2.9366E4,2.8602E5,6.172E4,3.7799E4,6.9163E4,2.774E3,5.297E3,4.014E3,4.858E3,2.0467E4,9.9509E4,1.04034E5,1.361E3,1.683E3,1.803E3,4.307E3,7.309E3,3.088E3,9.986E3,1.0163E4,4.02E3,1.6381E4,2.5357E4,6.5785E4,2.9853E4,2.4785E4,2.07579E5,8.877E4,2.0369E4,2.5578E5,1.4789E4,2.801E3,7.04E2,6.609E3,1.1594E4,5.9646E4,3.1069E4,5.388E3,2.967E4,3.1514E4,4.3096E4,1.36109E5,6.509E3,4.7312E4,1.2587E4,4.004E3,3.487E3,1.399E3,1.08863E5,1.6228E4,1.17064E5,3.3771E4,4.528E3,6.644E3,2.1726E4,1.26366E5,2.4452E4,4.914E3,1.32698E5,1.53322E5,3.181E3,5.8539E4,2.8398E4,9.401E3,6.5755E4,3.408E3,2.499E3,2.75E2,4.315E3,9.82E2,1.02E2,3.912E3],"tree_param":{"num_deleted":"0","num_feature":"39","num_nodes":"127","size_leaf_vector":"1"}},{"base_weights":[-4.153227E-6,-3.0639398E-1,4.7428036E-1,-6.317316E-1,-9.3273506E-2,3.5946515E-1,8.393731E-1,-9.096268E-1,-5.012986E-1,-3.343231E-2,-4.8864347E-1,2.1658422E-1,5.093119E-1,7.8591275E-1,1.7922622E0,1.9340679E-2,-9.531496E-1,2.2328757E-1,-5.401026E-1,-9.150551E-2,3.4266287E-1,-1.7505933E-1,-7.71979E-1,1.0762383E-1,5.087959E-1,4.6378088E-1,1.078088E0,8.5275453E-1,1.3923182E-1,1.3696984E0,2.58714E0,4.7959512E-1,-5.287678E-1,-2.4738579E0,-9.3234503E-1,1.0704235E0,1.9520685E-2,-6.701723E-1,-3.3383033E-1,9.118152E-1,-1.10465445E-1,4.7818607E-1,-1.657771E-1,1.8118916E-1,-5.524907E-1,-1.9604946E0,-6.1540014E-1,5.2347857E-1,-3.088092E-2,3.221305E-1,1.0751017E0,1.5843921E0,4.3962732E-1,1.3340751E0,3.1745136E-1,8.1303066E-1,1.7539597E0,4.426928E-1,-1.6253844E-1,7.6776505E-1,1.9715892E0,2.323864E0,4.2112904E0,2.1932085E-1,-7.099589E-2,3.897865E-3,-2.2226655E-1,-8.709045E-1,-3.926909E-1,-4.9182832E-1,-2.6829016E-1,6.920074E-1,1.3721849E-1,-6.8312055E-1,1.7097471E-2,-7.560888E-2,-2.4922493E-1,-9.1419026E-2,-8.111632E-1,-1.065055E-1,3.8478217E-1,1.19145446E-1,-4.330754E-2,-1.2987347E-1,1.6716397E-1,-5.17294E-1,-1.5811764E-2,-1.1980437E-1,9.567866E-2,-2.9419774E-1,-1.3214345E-1,-3.1366658E-1,-7.735433E-1,-2.7644935E-1,-1.2582877E-1,3.0097076E-1,9.78812E-2,-1.9071804E-1,5.854044E-3,5.946585E-2,3.559309E-1,4.654519E-1,1.8752559E-1,1.4486498E-1,5.4602295E-1,4.8621174E-2,1.6556266E-1,-3.033538E-1,4.2054144E-1,4.8733518E-1,6.364281E-2,3.4839964E-1,2.1355323E-1,5.58323E-1,2.0259096E-1,1.883158E-1,-6.120308E-2,-7.662248E-2,2.676432E-1,1.3397634E-1,5.804406E-1,5.524941E-1,1.189511E0,6.5669477E-1,9.6481365E-1,1.1239985E0,1.5211062E0],"categories":[],"categories_nodes":[],"categories_segments":[],"categories_sizes":[],"default_left":[0,0,0,0,0,0,0,0,0,0,0,0,0,0,0,0,0,0,0,0,0,0,0,0,0,0,0,0,0,0,0,0,0,0,0,0,0,0,0,0,0,0,0,0,0,0,0,0,0,0,0,0,0,0,0,0,0,0,0,0,0,0,0,0,0,0,0,0,0,0,0,0,0,0,0,0,0,0,0,0,0,0,0,0,0,0,0,0,0,0,0,0,0,0,0,0,0,0,0,0,0,0,0,0,0,0,0,0,0,0,0,0,0,0,0,0,0,0,0,0,0,0,0,0,0,0,0],"id":8,"left_children":[1,3,5,7,9,11,13,15,17,19,21,23,25,27,29,31,33,35,37,39,41,43,45,47,49,51,53,55,57,59,61,63,65,67,69,71,73,75,77,79,81,83,85,87,89,91,93,95,97,99,101,103,105,107,109,111,113,115,117,119,121,123,125,-1,-1,-1,-1,-1,-1,-1,-1,-1,-1,-1,-1,-1,-1,-1,-1,-1,-1,-1,-1,-1,-1,-1,-1,-1,-1,-1,-1,-1,-1,-1,-1,-1,-1,-1,-1,-1,-1,-1,-1,-1,-1,-1,-1,-1,-1,-1,-1,-1,-1,-1,-1,-1,-1,-1,-1,-1,-1,-1,-1,-1,-1,-1,-1],"loss_changes":[3.4685156E5,1.0054458E5,3.926758E4,2.0803266E4,2.0729365E4,1.52580625E4,1.1415516E4,7.4125156E3,1.0982914E4,1.6620658E4,1.0233373E4,1.16153125E4,9.007734E3,9.172844E3,3.9951875E3,2.0703762E3,5.5384375E3,3.4274868E3,9.947133E3,1.2539898E4,7.013755E3,7.3512627E3,1.1258934E4,1.5305322E4,1.0473795E4,8.716664E3,5.0194805E3,6.8839688E3,1.8206846E3,2.8153545E3,1.7566309E3,8.036793E2,4.3049487E2,1.1775107E3,4.6461406E3,2.9167344E3,1.3776156E3,1.526693E4,9.888011E3,5.7433945E3,1.1130958E4,5.786707E3,3.775013E3,2.249166E3,1.2727676E3,3.9795332E3,3.2067773E3,6.2810547E3,6.0759727E3,7.9808477E3,5.265092E3,1.7631582E3,9.822383E3,3.0653398E3,8.9334125E2,6.491547E3,9.3683203E2,1.1862899E3,9.766733E2,1.456833E3,9.995586E2,4.2100195E2,2.1051172E2,0E0,0E0,0E0,0E0,0E0,0E0,0E0,0E0,0E0,0E0,0E0,0E0,0E0,0E0,0E0,0E0,0E0,0E0,0E0,0E0,0E0,0E0,0E0,0E0,0E0,0E0,0E0,0E0,0E0,0E0,0E0,0E0,0E0,0E0,0E0,0E0,0E0,0E0,0E0,0E0,0E0,0E0,0E0,0E0,0E0,0E0,0E0,0E0,0E0,0E0,0E0,0E0,0E0,0E0,0E0,0E0,0E0,0E0,0E0,0E0,0E0,0E0,0E0,0E0],"parents":[2147483647,0,0,1,1,2,2,3,3,4,4,5,5,6,6,7,7,8,8,9,9,10,10,11,11,12,12,13,13,14,14,15,15,16,16,17,17,18,18,19,19,20,20,21,21,22,22,23,23,24,24,25,25,26,26,27,27,28,28,29,29,30,30,31,31,32,32,33,33,34,34,35,35,36,36,37,37,38,38,39,39,40,40,41,41,42,42,43,43,44,44,45,45,46,46,47,47,48,48,49,49,50,50,51,51,52,52,53,53,54,54,55,55,56,56,57,57,58,58,59,59,60,60,61,61,62,62],"right_children":[2,4,6,8,10,12,14,16,18,20,22,24,26,28,30,32,34,36,38,40,42,44,46,48,50,52,54,56,58,60,62,64,66,68,70,72,74,76,78,80,82,84,86,88,90,92,94,96,98,100,102,104,106,108,110,112,114,116,118,120,122,124,126,-1,-1,-1,-1,-1,-1,-1,-1,-1,-1,-1,-1,-1,-1,-1,-1,-1,-1,-1,-1,-1,-1,-1,-1,-1,-1,-1,-1,-1,-1,-1,-1,-1,-1,-1,-1,-1,-1,-1,-1,-1,-1,-1,-1,-1,-1,-1,-1,-1,-1,-1,-1,-1,-1,-1,-1,-1,-1,-1,-1,-1,-1,-1,-1],"split_conditions":[2.35E1,1.49E1,3.145E1,1E1,7.69E2,2.5883333E1,8.19E2,1.9328351E0,-6.72949E-1,3.837237E0,4.3035382E-3,2.1961248E1,3.2766666E1,8.19E2,9.999033E-1,7.2E1,3.6642609E0,1.08E1,3.52E2,-3.33E2,3.59E2,2.1062438E0,8E1,6.9245033E0,6.9333336E1,1.2550969E1,7.67E2,5.385028E1,-2.0842438E0,2.955E1,3.18E1,1.7263967E0,8.266666E0,-6.6572964E-1,4.4E0,3.309216E1,2.9268859E-2,1.3E1,9.52E2,-5.4494226E-1,6.333333E-1,4.7990026E0,3.52E2,-1.4256233E0,1.6783333E1,1.7166667E0,1.5116667E1,2.72867E1,9.596414E0,5.385028E1,1.3E1,2.0333333E0,9.441935E0,1.9328351E0,2.6E1,-3E0,7.390796E-2,9.42E2,3.72E1,3.66E1,3.96E1,3.8066666E1,3.3583332E1,2.1932085E-1,-7.099589E-2,3.897865E-3,-2.2226655E-1,-8.709045E-1,-3.926909E-1,-4.9182832E-1,-2.6829016E-1,6.920074E-1,1.3721849E-1,-6.8312055E-1,1.7097471E-2,-7.560888E-2,-2.4922493E-1,-9.1419026E-2,-8.111632E-1,-1.065055E-1,3.8478217E-1,1.19145446E-1,-4.330754E-2,-1.2987347E-1,1.6716397E-1,-5.17294E-1,-1.5811764E-2,-1.1980437E-1,9.567866E-2,-2.9419774E-1,-1.3214345E-1,-3.1366658E-1,-7.735433E-1,-2.7644935E-1,-1.2582877E-1,3.0097076E-1,9.78812E-2,-1.9071804E-1,5.854044E-3,5.946585E-2,3.559309E-1,4.654519E-1,1.8752559E-1,1.4486498E-1,5.4602295E-1,4.8621174E-2,1.6556266E-1,-3.033538E-1,4.2054144E-1,4.8733518E-1,6.364281E-2,3.4839964E-1,2.1355323E-1,5.58323E-1,2.0259096E-1,1.883158E-1,-6.120308E-2,-7.662248E-2,2.676432E-1,1.3397634E-1,5.804406E-1,5.524941E-1,1.189511E0,6.5669477E-1,9.6481365E-1,1.1239985E0,1.5211062E0],"split_indices":[4,20,10,2,24,18,26,25,37,6,38,33,18,24,15,26,25,21,26,24,24,6,26,32,3,34,24,33,7,18,2,15,10,14,4,25,29,24,26,14,1,27,26,15,2,9,2,31,33,33,24,9,27,25,12,24,15,24,4,13,13,10,2,0,0,0,0,0,0,0,0,0,0,0,0,0,0,0,0,0,0,0,0,0,0,0,0,0,0,0,0,0,0,0,0,0,0,0,0,0,0,0,0,0,0,0,0,0,0,0,0,0,0,0,0,0,0,0,0,0,0,0,0,0,0,0,0],"split_type":[0,0,0,0,0,0,0,0,0,0,0,0,0,0,0,0,0,0,0,0,0,0,0,0,0,0,0,0,0,0,0,0,0,0,0,0,0,0,0,0,0,0,0,0,0,0,0,0,0,0,0,0,0,0,0,0,0,0,0,0,0,0,0,0,0,0,0,0,0,0,0,0,0,0,0,0,0,0,0,0,0,0,0,0,0,0,0,0,0,0,0,0,0,0,0,0,0,0,0,0,0,0,0,0,0,0,0,0,0,0,0,0,0,0,0,0,0,0,0,0,0,0,0,0,0,0,0],"sum_hessian":[2.386877E6,1.450104E6,9.36773E5,5.73947E5,8.76157E5,7.12657E5,2.24116E5,1.83335E5,3.90612E5,7.6098E5,1.15177E5,3.64809E5,3.47848E5,2.12212E5,1.1904E4,8.205E3,1.7513E5,1.9855E4,3.70757E5,6.59194E5,1.01786E5,5.4671E4,6.0506E4,2.65726E5,9.9083E4,3.22068E5,2.578E4,1.92332E5,1.988E4,7.774E3,4.13E3,4.46E3,3.745E3,2.362E3,1.72768E5,3.849E3,1.6006E4,2.27377E5,1.4338E5,1.2225E4,6.46969E5,8.0365E4,2.1421E4,2.8125E4,2.6546E4,7.042E3,5.3464E4,6.639E4,1.99336E5,7.4521E4,2.4562E4,6.794E3,3.15274E5,1.9288E4,6.492E3,1.84214E5,8.118E3,9.912E3,9.968E3,3.888E3,3.886E3,3.556E3,5.74E2,3.301E3,1.159E3,1.054E3,2.691E3,1.725E3,6.37E2,8.819E3,1.63949E5,1.275E3,2.574E3,2.56E2,1.575E4,6.3091E4,1.64286E5,1.41642E5,1.738E3,2.768E3,9.457E3,4.0493E4,6.06476E5,6.414E3,7.3951E4,1.448E3,1.9973E4,5.393E3,2.2732E4,5.503E3,2.1043E4,2.84E3,4.202E3,2.0867E4,3.2597E4,1.9339E4,4.7051E4,1.533E4,1.84006E5,6.5178E4,9.343E3,1.193E4,1.2632E4,1.198E3,5.596E3,9.0787E4,2.24487E5,5.41E2,1.8747E4,4.83E2,6.009E3,4.1467E4,1.42747E5,7.384E3,7.34E2,7.707E3,2.205E3,9.162E3,8.06E2,3.05E3,8.38E2,3.65E3,2.36E2,3.092E3,4.64E2,3.76E2,1.98E2],"tree_param":{"num_deleted":"0","num_feature":"39","num_nodes":"127","size_leaf_vector":"1"}},{"base_weights":[-2.4143208E-7,-2.1169046E-1,3.5662168E-1,-4.4116133E-1,-4.1189633E-2,3.0112383E-1,7.0799524E-1,-5.839399E-1,-3.166117E-1,-2.0919926E-2,-1.3297538E0,4.1216132E-1,1.0348368E-1,5.946891E-1,1.0691788E0,-4.653785E-1,-7.57304E-1,-6.7675054E-1,-2.470167E-1,1.367038E-1,-8.876665E-2,-2.765732E0,-7.8923106E-1,2.6714203E-1,5.772251E-1,-7.310388E-2,2.8729805E-1,5.092276E-1,1.2154194E0,9.865101E-1,2.1926255E0,-1.1148376E0,-3.9986917E-1,-9.638364E-1,-4.5961204E-1,-1.3621227E0,-5.184234E-1,-1.2108927E-1,-4.3839607E-1,-1.2398869E-1,2.6594642E-1,2.5977498E-1,-1.2893465E-1,-3.5168142E0,-2.2130003E0,5.815488E-1,-1.2279001E0,1.7362532E-1,6.4751625E-1,4.1520452E-1,8.750654E-1,-1.6712075E-1,5.662712E-1,2.4101144E-1,1.0569257E0,4.3056235E-1,1.0207481E0,1.0875149E0,2.2090654E0,-2.4835975E0,1.011479E0,1.5430229E0,2.784362E0,-1.7616825E-1,-6.3062865E-1,-4.320725E-1,-1.1157798E-1,-4.7138548E-1,-2.6142016E-1,2.646774E-2,-1.6586754E-1,-3.289884E-1,-7.953916E-1,2.5950602E-1,-1.8247698E-1,-3.144981E-1,-2.2752358E-2,-3.4181347E-1,-1.1316209E-1,-1.6871515E-1,2.1366165E-4,3.0693936E-1,5.9072677E-2,3.191149E-1,7.351519E-4,-1.0831492E-1,-6.3204877E-3,-1.1556816E0,-8.603362E-1,-3.9540404E-1,-7.460752E-1,-5.233303E-1,2.524292E-1,-2.763418E-1,-7.971477E-1,-2.934981E-2,8.720642E-2,-5.0290096E-1,2.0437185E-1,2.8921286E-2,1.7176527E-1,3.1205678E-1,1.6011558E-1,5.1359728E-2,-9.179242E-2,2.798289E-1,1.4207762E-1,1.6451398E-1,5.072223E-2,1.5466224E-1,4.8162502E-1,1.03934474E-1,2.509639E-1,2.7612096E-1,5.342902E-1,2.1570069E-1,3.6176345E-1,-7.713362E-2,7.8227365E-1,-1.2251153E0,4.217631E-1,2.316025E-1,3.7649572E-1,3.9265364E-1,5.678056E-1,8.801992E-1,4.2412558E-1],"categories":[],"categories_nodes":[],"categories_segments":[],"categories_sizes":[],"default_left":[0,0,0,0,0,0,0,0,0,0,0,0,0,0,0,0,0,0,0,0,0,0,0,0,0,0,0,0,0,0,0,0,0,0,0,0,0,0,0,0,0,0,0,0,0,0,0,0,0,0,0,0,0,0,0,0,0,0,0,0,0,0,0,0,0,0,0,0,0,0,0,0,0,0,0,0,0,0,0,0,0,0,0,0,0,0,0,0,0,0,0,0,0,0,0,0,0,0,0,0,0,0,0,0,0,0,0,0,0,0,0,0,0,0,0,0,0,0,0,0,0,0,0,0,0,0,0],"id":9,"left_children":[1,3,5,7,9,11,13,15,17,19,21,23,25,27,29,31,33,35,37,39,41,43,45,47,49,51,53,55,57,59,61,63,65,67,69,71,73,75,77,79,81,83,85,87,89,91,93,95,97,99,101,103,105,107,109,111,113,115,117,119,121,123,125,-1,-1,-1,-1,-1,-1,-1,-1,-1,-1,-1,-1,-1,-1,-1,-1,-1,-1,-1,-1,-1,-1,-1,-1,-1,-1,-1,-1,-1,-1,-1,-1,-1,-1,-1,-1,-1,-1,-1,-1,-1,-1,-1,-1,-1,-1,-1,-1,-1,-1,-1,-1,-1,-1,-1,-1,-1,-1,-1,-1,-1,-1,-1,-1],"loss_changes":[1.8019353E5,5.8601062E4,1.7337414E4,1.1353945E4,2.244416E4,1.6850031E4,4.96234E3,6.113953E3,8.546906E3,9.047395E3,1.0327201E4,1.1767898E4,8.965289E3,4.8965566E3,2.6872812E3,7.515668E3,7.4274453E3,5.9920293E3,6.8873887E3,8.577253E3,8.280209E3,1.5029375E3,5.815466E3,9.308908E3,1.1094617E4,8.468079E3,4.820704E3,3.264746E3,1.4173398E3,2.3397617E3,7.583408E2,8.42985E3,4.664586E3,4.0035938E3,2.5289414E3,3.5440469E3,5.5761865E3,7.231829E3,4.8643496E3,4.6127993E3,8.8966455E3,1.2643501E4,1.3277729E4,3.2446094E2,5.1129492E2,1.4189746E3,3.2095693E3,6.675173E3,4.048289E3,7.4697793E3,4.56525E3,5.769398E3,6.1295264E2,2.8225215E3,2.2788174E3,2.4014404E3,8.23374E2,4.3091113E2,1.2517808E3,1.2069009E3,1.5608203E3,7.514795E1,2.0853223E2,0E0,0E0,0E0,0E0,0E0,0E0,0E0,0E0,0E0,0E0,0E0,0E0,0E0,0E0,0E0,0E0,0E0,0E0,0E0,0E0,0E0,0E0,0E0,0E0,0E0,0E0,0E0,0E0,0E0,0E0,0E0,0E0,0E0,0E0,0E0,0E0,0E0,0E0,0E0,0E0,0E0,0E0,0E0,0E0,0E0,0E0,0E0,0E0,0E0,0E0,0E0,0E0,0E0,0E0,0E0,0E0,0E0,0E0,0E0,0E0,0E0,0E0,0E0,0E0],"parents":[2147483647,0,0,1,1,2,2,3,3,4,4,5,5,6,6,7,7,8,8,9,9,10,10,11,11,12,12,13,13,14,14,15,15,16,16,17,17,18,18,19,19,20,20,21,21,22,22,23,23,24,24,25,25,26,26,27,27,28,28,29,29,30,30,31,31,32,32,33,33,34,34,35,35,36,36,37,37,38,38,39,39,40,40,41,41,42,42,43,43,44,44,45,45,46,46,47,47,48,48,49,49,50,50,51,51,52,52,53,53,54,54,55,55,56,56,57,57,58,58,59,59,60,60,61,61,62,62],"right_children":[2,4,6,8,10,12,14,16,18,20,22,24,26,28,30,32,34,36,38,40,42,44,46,48,50,52,54,56,58,60,62,64,66,68,70,72,74,76,78,80,82,84,86,88,90,92,94,96,98,100,102,104,106,108,110,112,114,116,118,120,122,124,126,-1,-1,-1,-1,-1,-1,-1,-1,-1,-1,-1,-1,-1,-1,-1,-1,-1,-1,-1,-1,-1,-1,-1,-1,-1,-1,-1,-1,-1,-1,-1,-1,-1,-1,-1,-1,-1,-1,-1,-1,-1,-1,-1,-1,-1,-1,-1,-1,-1,-1,-1,-1,-1,-1,-1,-1,-1,-1,-1,-1,-1,-1,-1,-1],"split_conditions":[2.47E1,1.5316667E1,3.3866665E1,1.1433333E1,8.19E2,3.52E2,3.73E1,3.78E2,2.2E1,9.205414E0,2E1,3.2166667E0,3E2,3.59E2,8.19E2,1.3E1,3.78E2,2.076822E1,3.52E2,5.9833332E1,8.333333E-1,1.76E1,-7.5857526E-1,5.5865063E1,1.28E2,7.99E2,9.52E2,7.99E2,3.92E1,3.382091E0,3.13E1,1.061693E1,2.9268859E-2,3.9972782E1,-1.2899768E0,1.4883333E1,-5.074151E-1,2.9268859E-2,8E1,3.309216E1,1.9328351E0,3.8180482E0,8E1,9.0701383E-1,7.32056E-4,-2.352015E0,2.19E1,7E0,-4.1504564E0,9.441935E0,1.4486423E1,1.5E0,-4.35514E0,1.9E0,3.1066668E1,5.0866446E0,3.11E1,3.32E1,-1.99E2,8.305516E-1,5.9095806E1,1.3844657E-1,-2.01E2,-1.7616825E-1,-6.3062865E-1,-4.320725E-1,-1.1157798E-1,-4.7138548E-1,-2.6142016E-1,2.646774E-2,-1.6586754E-1,-3.289884E-1,-7.953916E-1,2.5950602E-1,-1.8247698E-1,-3.144981E-1,-2.2752358E-2,-3.4181347E-1,-1.1316209E-1,-1.6871515E-1,2.1366165E-4,3.0693936E-1,5.9072677E-2,3.191149E-1,7.351519E-4,-1.0831492E-1,-6.3204877E-3,-1.1556816E0,-8.603362E-1,-3.9540404E-1,-7.460752E-1,-5.233303E-1,2.524292E-1,-2.763418E-1,-7.971477E-1,-2.934981E-2,8.720642E-2,-5.0290096E-1,2.0437185E-1,2.8921286E-2,1.7176527E-1,3.1205678E-1,1.6011558E-1,5.1359728E-2,-9.179242E-2,2.798289E-1,1.4207762E-1,1.6451398E-1,5.072223E-2,1.5466224E-1,4.8162502E-1,1.03934474E-1,2.509639E-1,2.7612096E-1,5.342902E-1,2.1570069E-1,3.6176345E-1,-7.713362E-2,7.8227365E-1,-1.2251153E0,4.217631E-1,2.316025E-1,3.7649572E-1,3.9265364E-1,5.678056E-1,8.801992E-1,4.2412558E-1],"split_indices":[12,2,10,2,26,24,13,24,26,32,12,1,28,28,26,26,28,31,24,11,1,12,23,31,28,26,28,26,20,25,4,32,29,27,14,18,37,29,26,25,25,27,26,37,23,7,5,28,14,27,32,9,15,1,18,6,21,5,24,7,31,15,24,0,0,0,0,0,0,0,0,0,0,0,0,0,0,0,0,0,0,0,0,0,0,0,0,0,0,0,0,0,0,0,0,0,0,0,0,0,0,0,0,0,0,0,0,0,0,0,0,0,0,0,0,0,0,0,0,0,0,0,0,0,0,0,0],"split_type":[0,0,0,0,0,0,0,0,0,0,0,0,0,0,0,0,0,0,0,0,0,0,0,0,0,0,0,0,0,0,0,0,0,0,0,0,0,0,0,0,0,0,0,0,0,0,0,0,0,0,0,0,0,0,0,0,0,0,0,0,0,0,0,0,0,0,0,0,0,0,0,0,0,0,0,0,0,0,0,0,0,0,0,0,0,0,0,0,0,0,0,0,0,0,0,0,0,0,0,0,0,0,0,0,0,0,0,0,0,0,0,0,0,0,0,0,0,0,0,0,0,0,0,0,0,0,0],"sum_hessian":[2.386877E6,1.497791E6,8.89086E5,6.38481E5,8.5931E5,7.67815E5,1.21271E5,2.9747E5,3.41011E5,8.46003E5,1.3307E4,4.91616E5,2.76199E5,9.2314E4,2.8957E4,1.76659E5,1.20811E5,5.5225E4,2.85786E5,2.54572E5,5.91431E5,3.638E3,9.669E3,2.61699E5,2.29917E5,1.40869E5,1.3533E5,8.1144E4,1.117E4,2.6974E4,1.983E3,1.6185E4,1.60474E5,7.1325E4,4.9486E4,1.0362E4,4.4863E4,1.72369E5,1.13417E5,8.4377E4,1.70195E5,6.1116E4,5.30315E5,1.54E3,2.098E3,2.344E3,7.325E3,2.10057E5,5.1642E4,1.48913E5,8.1004E4,1.22811E5,1.8058E4,1.27654E5,7.676E3,7.033E4,1.0814E4,9.898E3,1.272E3,1.92E2,2.6782E4,9.47E2,1.036E3,1.0549E4,5.636E3,4.196E3,1.56278E5,9.418E3,6.1907E4,7.2E3,4.2286E4,8.594E3,1.768E3,2.735E3,4.2128E4,8.019E3,1.6435E5,9.104E3,1.04313E5,1.8685E4,6.5692E4,1.422E4,1.55975E5,1.4818E4,4.6298E4,1.68253E5,3.62062E5,1.012E3,5.28E2,4.93E2,1.605E3,2.35E2,2.109E3,6.032E3,1.293E3,6.3291E4,1.46766E5,7.38E2,5.0904E4,4.921E4,9.9703E4,5.4593E4,2.6411E4,3.5737E4,8.7074E4,3.643E3,1.4415E4,2.4209E4,1.03445E5,3.864E3,3.812E3,5.8261E4,1.2069E4,9.555E3,1.259E3,2.408E3,7.49E3,1.77E2,1.095E3,1.36E2,5.6E1,1.3505E4,1.3277E4,5.7E2,3.77E2,9.33E2,1.03E2],"tree_param":{"num_deleted":"0","num_feature":"39","num_nodes":"127","size_leaf_vector":"1"}},{"base_weights":[-8.438904E-7,-1.7268725E-1,2.344346E-1,-3.0315757E-1,-3.8099803E-2,1.7173634E-1,4.4130993E-1,-3.2079527E-1,5.8160734E-1,-1.3120449E-1,9.880964E-2,2.4209131E-1,3.7645966E-2,-3.323222E-1,4.931185E-1,5.6930315E-1,-3.391196E-1,7.710911E-1,-1.1133861E-1,3.082576E-1,-1.8864886E-1,6.8525724E-2,7.5854176E-1,1.2908036E-1,4.2209673E-1,-1.0509764E-1,2.632123E-1,5.8929417E-2,-1.4513234E0,5.585737E-1,1.0085252E-1,1.266441E0,3.9846543E-2,-2.616036E-1,-6.683323E-1,9.9852103E-1,6.0843974E-1,-6.805712E-1,2.1648906E-1,7.2661126E-1,-8.295378E-1,-3.4647822E-1,-9.102987E-2,4.8222765E-1,2.8503573E-2,8.1377476E-1,-1.6510466E-1,-6.0924673E-3,2.475001E-1,2.3028702E-1,7.135508E-1,-1.6826181E-1,2.4446064E-1,3.9567614E-1,2.1270612E-2,-4.918392E-1,6.4315796E-1,5.9584427E-1,-1.756857E0,4.9480918E-1,1.0163935E0,-4.1668117E-1,1.585309E-1,-1.0644182E-1,4.4956806E-1,-9.12538E-2,1.07728854E-1,-9.865055E-2,1.9277023E-2,-3.6296582E-1,-1.7279708E-1,2.2069159E-1,4.2030033E-1,3.407849E-1,1.4917207E-1,-1.2430956E-1,-4.261035E-1,-1.3714608E-2,1.2419659E-1,3.1772882E-1,-5.143324E-2,-2.9195892E-2,-3.112047E-1,-5.334103E-2,-1.9195588E-1,1.0794295E-2,-8.751862E-2,2.1747845E-1,6.2083382E-2,-3.3346347E-3,1.1791516E-1,2.2230051E-1,4.0168685E-1,-1.4655563E-1,2.1878073E-2,-2.2785713E-1,2.904175E-2,1.7659563E-1,2.3523768E-2,2.6916606E-2,1.635262E-1,1.570373E-1,2.9207358E-1,5.9749942E-2,-6.541719E-2,1.4461495E-1,-6.6395134E-2,5.803508E-1,1.1285768E-1,-1.0173018E-1,1.20517574E-1,-1.9832398E0,-1.436108E-1,4.8738904E-2,2.3882307E-1,3.443618E-2,9.673645E-1,-3.2703933E-1,-9.129076E-1,1.3489254E-1,3.3473176E-1,1.6988951E-1,3.9829347E-1,7.624512E-2,-1.7989916E-1,4.7332814E-1,3.2162312E-2],"categories":[],"categories_nodes":[],"categories_segments":[],"categories_sizes":[],"default_left":[0,0,0,0,0,0,0,0,0,0,0,0,0,0,0,0,0,0,0,0,0,0,0,0,0,0,0,0,0,0,0,0,0,0,0,0,0,0,0,0,0,0,0,0,0,0,0,0,0,0,0,0,0,0,0,0,0,0,0,0,0,0,0,0,0,0,0,0,0,0,0,0,0,0,0,0,0,0,0,0,0,0,0,0,0,0,0,0,0,0,0,0,0,0,0,0,0,0,0,0,0,0,0,0,0,0,0,0,0,0,0,0,0,0,0,0,0,0,0,0,0,0,0,0,0,0,0],"id":10,"left_children":[1,3,5,7,9,11,13,15,17,19,21,23,25,27,29,31,33,35,37,39,41,43,45,47,49,51,53,55,57,59,61,63,65,67,69,71,73,75,77,79,81,83,85,87,89,91,93,95,97,99,101,103,105,107,109,111,113,115,117,119,121,123,125,-1,-1,-1,-1,-1,-1,-1,-1,-1,-1,-1,-1,-1,-1,-1,-1,-1,-1,-1,-1,-1,-1,-1,-1,-1,-1,-1,-1,-1,-1,-1,-1,-1,-1,-1,-1,-1,-1,-1,-1,-1,-1,-1,-1,-1,-1,-1,-1,-1,-1,-1,-1,-1,-1,-1,-1,-1,-1,-1,-1,-1,-1,-1,-1],"loss_changes":[9.662997E4,2.413489E4,1.3131852E4,1.0891074E4,8.62396E3,7.3297344E3,9.438102E3,1.1160797E4,1.7911768E3,1.0166043E4,5.4713516E3,1.0366225E4,8.608911E3,6.470932E3,5.666453E3,5.094695E3,1.7109406E4,3.9564795E2,5.469153E2,2.2160346E4,5.487163E3,4.3352676E3,6.1329346E2,5.011018E3,1.0986988E4,3.6155464E3,3.3209893E3,3.5243933E3,2.396004E3,5.520828E3,9.42178E2,2.2426611E3,8.618365E2,1.1889125E4,6.38925E3,4.7138867E2,3.659353E2,2.1032587E2,9.633951E1,1.0163875E4,1.9043711E3,6.734783E3,5.609213E3,1.5429243E3,3.448139E3,4.324502E2,5.2306923E1,1.1333328E4,9.625486E3,5.244981E3,3.8552852E3,2.5375347E3,2.7734512E3,2.0069502E3,5.0268125E3,4.5002905E2,3.9056226E2,6.293789E2,2.8539453E3,4.655746E3,3.23833E3,3.8865796E2,2.0682517E3,0E0,0E0,0E0,0E0,0E0,0E0,0E0,0E0,0E0,0E0,0E0,0E0,0E0,0E0,0E0,0E0,0E0,0E0,0E0,0E0,0E0,0E0,0E0,0E0,0E0,0E0,0E0,0E0,0E0,0E0,0E0,0E0,0E0,0E0,0E0,0E0,0E0,0E0,0E0,0E0,0E0,0E0,0E0,0E0,0E0,0E0,0E0,0E0,0E0,0E0,0E0,0E0,0E0,0E0,0E0,0E0,0E0,0E0,0E0,0E0,0E0,0E0,0E0,0E0],"parents":[2147483647,0,0,1,1,2,2,3,3,4,4,5,5,6,6,7,7,8,8,9,9,10,10,11,11,12,12,13,13,14,14,15,15,16,16,17,17,18,18,19,19,20,20,21,21,22,22,23,23,24,24,25,25,26,26,27,27,28,28,29,29,30,30,31,31,32,32,33,33,34,34,35,35,36,36,37,37,38,38,39,39,40,40,41,41,42,42,43,43,44,44,45,45,46,46,47,47,48,48,49,49,50,50,51,51,52,52,53,53,54,54,55,55,56,56,57,57,58,58,59,59,60,60,61,61,62,62],"right_children":[2,4,6,8,10,12,14,16,18,20,22,24,26,28,30,32,34,36,38,40,42,44,46,48,50,52,54,56,58,60,62,64,66,68,70,72,74,76,78,80,82,84,86,88,90,92,94,96,98,100,102,104,106,108,110,112,114,116,118,120,122,124,126,-1,-1,-1,-1,-1,-1,-1,-1,-1,-1,-1,-1,-1,-1,-1,-1,-1,-1,-1,-1,-1,-1,-1,-1,-1,-1,-1,-1,-1,-1,-1,-1,-1,-1,-1,-1,-1,-1,-1,-1,-1,-1,-1,-1,-1,-1,-1,-1,-1,-1,-1,-1,-1,-1,-1,-1,-1,-1,-1,-1,-1,-1,-1,-1],"split_conditions":[2.26E1,1.62E1,2.94E1,5.385028E1,3.72E2,3.52E2,3.382091E0,-3.33E2,1.1307122E0,1.9328351E0,3.9461254E1,1.9956619E0,7.69E2,-6.021328E-2,7.69E2,-1.3842626E-1,3.4629234E1,1.48E1,6.9837666E-1,8.660254E-1,1.85E2,-1.99E2,1.2175037E0,6.35E1,3.59E2,7.11E2,3.7666667E0,4.7990026E0,7.762733E0,3.53E1,2.39E1,-5.06251E-1,5.2166668E1,1.55E1,7.9166665E0,9E0,-2.959267E-1,1.2411397E0,1.9802395E0,7.6235366E-1,-4.118589E-1,3.3E1,3.32E2,4.6286084E-2,2.8630585E1,2.7E1,4.05E1,3.382091E0,1.3E1,3.03E2,8E1,1E0,6.6666664E1,2.0083334E1,5.9095806E1,2.6183332E1,4.1833332E1,3.5E1,-7.6235366E-1,7.11E2,-6.3E1,2.5166667E0,2.4533333E1,-1.0644182E-1,4.4956806E-1,-9.12538E-2,1.07728854E-1,-9.865055E-2,1.9277023E-2,-3.6296582E-1,-1.7279708E-1,2.2069159E-1,4.2030033E-1,3.407849E-1,1.4917207E-1,-1.2430956E-1,-4.261035E-1,-1.3714608E-2,1.2419659E-1,3.1772882E-1,-5.143324E-2,-2.9195892E-2,-3.112047E-1,-5.334103E-2,-1.9195588E-1,1.0794295E-2,-8.751862E-2,2.1747845E-1,6.2083382E-2,-3.3346347E-3,1.1791516E-1,2.2230051E-1,4.0168685E-1,-1.4655563E-1,2.1878073E-2,-2.2785713E-1,2.904175E-2,1.7659563E-1,2.3523768E-2,2.6916606E-2,1.635262E-1,1.570373E-1,2.9207358E-1,5.9749942E-2,-6.541719E-2,1.4461495E-1,-6.6395134E-2,5.803508E-1,1.1285768E-1,-1.0173018E-1,1.20517574E-1,-1.9832398E0,-1.436108E-1,4.8738904E-2,2.3882307E-1,3.443618E-2,9.673645E-1,-3.2703933E-1,-9.129076E-1,1.3489254E-1,3.3473176E-1,1.6988951E-1,3.9829347E-1,7.624512E-2,-1.7989916E-1,4.7332814E-1,3.2162312E-2],"split_indices":[20,20,21,33,30,24,25,24,15,25,33,22,30,37,24,22,34,12,6,35,26,26,15,11,26,28,1,27,31,21,2,14,11,5,18,21,38,23,6,38,14,26,24,7,32,4,3,25,24,30,28,1,19,2,29,2,19,5,38,26,28,17,10,0,0,0,0,0,0,0,0,0,0,0,0,0,0,0,0,0,0,0,0,0,0,0,0,0,0,0,0,0,0,0,0,0,0,0,0,0,0,0,0,0,0,0,0,0,0,0,0,0,0,0,0,0,0,0,0,0,0,0,0,0,0,0,0],"split_type":[0,0,0,0,0,0,0,0,0,0,0,0,0,0,0,0,0,0,0,0,0,0,0,0,0,0,0,0,0,0,0,0,0,0,0,0,0,0,0,0,0,0,0,0,0,0,0,0,0,0,0,0,0,0,0,0,0,0,0,0,0,0,0,0,0,0,0,0,0,0,0,0,0,0,0,0,0,0,0,0,0,0,0,0,0,0,0,0,0,0,0,0,0,0,0,0,0,0,0,0,0,0,0,0,0,0,0,0,0,0,0,0,0,0,0,0,0,0,0,0,0,0,0,0,0,0,0],"sum_hessian":[2.386877E6,1.37445E6,1.012427E6,6.97899E5,6.76551E5,7.76955E5,2.35472E5,6.84259E5,1.364E4,4.02698E5,2.73853E5,5.09584E5,2.67371E5,1.4779E4,2.20693E5,1.3802E4,6.70457E5,1.0711E4,2.929E3,4.6553E4,3.56145E5,2.61835E5,1.2018E4,3.13048E5,1.96536E5,1.63748E5,1.03623E5,1.0951E4,3.828E3,1.89133E5,3.156E4,5.957E3,7.845E3,5.4268E5,1.27777E5,4.464E3,6.247E3,1.07E3,1.859E3,3.4038E4,1.2515E4,1.36099E5,2.20046E5,2.3095E4,2.3874E5,1.134E4,6.78E2,1.46184E5,1.66864E5,1.18531E5,7.8005E4,1.38688E5,2.506E4,6.6961E4,3.6662E4,5.637E3,5.314E3,4.97E2,3.331E3,1.66013E5,2.312E4,3.164E3,2.8396E4,7.46E2,5.211E3,3.776E3,4.069E3,4.49864E5,9.2816E4,1.8612E4,1.09165E5,2.702E3,1.762E3,1.086E3,5.161E3,7.88E2,2.82E2,7.99E2,1.06E3,2.4841E4,9.197E3,2.767E3,9.748E3,8.6416E4,4.9683E4,1.34763E5,8.5283E4,1.2273E4,1.0822E4,2.15338E5,2.3402E4,9.962E3,1.378E3,2.87E2,3.91E2,1.7565E4,1.28619E5,5.5296E4,1.11568E5,8.1943E4,3.6588E4,4.5064E4,3.2941E4,1.6552E4,1.22136E5,1.6595E4,8.465E3,8.36E2,6.6125E4,1.8828E4,1.7834E4,1.1E1,5.626E3,1.283E3,4.031E3,4.21E2,7.6E1,2.195E3,1.136E3,1.54758E5,1.1255E4,9.453E3,1.3667E4,6.78E2,2.486E3,9.9E2,2.7406E4],"tree_param":{"num_deleted":"0","num_feature":"39","num_nodes":"127","size_leaf_vector":"1"}},{"base_weights":[1.484098E-7,-1.1052344E-1,1.8550178E-1,-3.0927196E-1,-6.2373146E-2,1.5926334E-1,4.72178E-1,-8.8835603E-1,-2.7246472E-1,-8.5266426E-2,2.2265404E-1,1.3651961E-1,4.506525E-1,-5.076796E-1,5.143089E-1,-1.2620502E0,-6.029203E-1,-6.032119E-1,-2.0612095E-1,-1.789604E-2,-2.175359E-1,5.1334065E-1,1.1616825E-2,5.388559E-2,2.2252436E-1,7.912486E-1,1.7277569E-1,-1.9320615E-1,-2.038348E0,2.1659825E0,4.916331E-1,-2.0087466E0,-1.1116785E0,-1.8685901E-1,-7.017681E-1,-1.4635475E-1,-8.0424166E-1,-5.3886596E-2,-3.1853023E-1,-7.823768E-2,2.551613E-1,-2.1502346E-2,-3.3192852E-1,1.2200872E0,3.1017002E-1,2.453912E-1,-3.547649E-1,-4.5878094E-2,1.6118616E-1,3.659357E-2,2.8527427E-1,8.4346735E-1,2.066305E-1,2.851463E-1,-1.96856E-1,-6.358577E-1,1.96248E-1,1.9166894E0,-2.6410108E0,1.797085E0,3.7533123E0,1.1624376E0,4.4816998E-1,6.883513E-2,-6.3731563E-1,-2.516225E-1,-5.4622203E-1,1.5495254E-1,-9.8437734E-2,-4.5852298E-1,-1.8124166E-1,-8.728817E-2,2.665626E-1,-3.0525967E-1,-1.4502855E-1,-7.34699E-1,-1.1905101E-2,-1.4808981E-1,-3.639458E-2,-1.1762565E-1,-7.7082603E-3,1.3593935E-2,1.8742238E-1,7.716266E-2,-6.9432214E-2,-2.6554257E-1,-6.934099E-2,5.242422E-1,7.831505E-2,1.36098275E-2,1.5508233E-1,1.0535584E-1,2.176964E-2,4.4891275E-2,-2.0606735E-1,-9.0393275E-2,1.4233365E-2,3.948794E-2,1.9180216E-1,-8.9558974E-2,3.617227E-2,-1.7141536E-1,9.030883E-2,2.2117786E-1,3.4977248E-1,2.6259252E-1,-3.134385E-2,1.9591656E-1,2.7796881E-2,-1.3820058E-1,9.24468E-3,-4.4551548E-1,-1.4374568E-1,7.251748E-1,3.606317E-2,1.4793648E0,1.5723373E-1,7.0906746E-1,-9.1494703E-1,2.6420936E-1,6.5668154E-1,1.6743426E-1,1.277564E0,2.776906E-1,5.4331046E-1,-5.271658E-2,1.5995201E-1],"categories":[],"categories_nodes":[],"categories_segments":[],"categories_sizes":[],"default_left":[0,0,0,0,0,0,0,0,0,0,0,0,0,0,0,0,0,0,0,0,0,0,0,0,0,0,0,0,0,0,0,0,0,0,0,0,0,0,0,0,0,0,0,0,0,0,0,0,0,0,0,0,0,0,0,0,0,0,0,0,0,0,0,0,0,0,0,0,0,0,0,0,0,0,0,0,0,0,0,0,0,0,0,0,0,0,0,0,0,0,0,0,0,0,0,0,0,0,0,0,0,0,0,0,0,0,0,0,0,0,0,0,0,0,0,0,0,0,0,0,0,0,0,0,0,0,0],"id":11,"left_children":[1,3,5,7,9,11,13,15,17,19,21,23,25,27,29,31,33,35,37,39,41,43,45,47,49,51,53,55,57,59,61,63,65,67,69,71,73,75,77,79,81,83,85,87,89,91,93,95,97,99,101,103,105,107,109,111,113,115,117,119,121,123,125,-1,-1,-1,-1,-1,-1,-1,-1,-1,-1,-1,-1,-1,-1,-1,-1,-1,-1,-1,-1,-1,-1,-1,-1,-1,-1,-1,-1,-1,-1,-1,-1,-1,-1,-1,-1,-1,-1,-1,-1,-1,-1,-1,-1,-1,-1,-1,-1,-1,-1,-1,-1,-1,-1,-1,-1,-1,-1,-1,-1,-1,-1,-1,-1],"loss_changes":[4.8936523E4,1.4313693E4,6.7031934E3,6.217086E3,7.8565176E3,5.410699E3,3.0850781E3,1.8586357E3,6.0180527E3,9.931418E3,5.491476E3,5.382256E3,5.5943516E3,1.4826594E3,2.6822637E3,8.452705E2,4.064065E2,4.2082617E3,3.9092256E3,1.2166551E4,8.43398E3,5.4062207E3,4.442359E3,4.1345264E3,4.3296055E3,8.105879E2,1.3522103E3,4.409323E2,1.256428E3,5.6125E2,2.0600547E3,3.2763916E2,1.2148037E3,1.8885873E2,6.436626E2,2.0958364E3,2.176838E3,3.3007632E3,4.5378994E3,9.972945E3,1.0364822E4,8.109553E3,1.3243049E4,4.251667E3,1.6013606E3,5.7890356E2,3.3846167E3,4.771051E3,2.630102E3,2.63543E3,3.7449395E3,8.3405273E2,4.5339395E2,1.7679304E3,4.558895E2,1.5857721E2,2.2955402E2,2.9127277E2,9.4015283E2,2.813938E2,2.9143042E2,6.587573E2,3.5202617E3,0E0,0E0,0E0,0E0,0E0,0E0,0E0,0E0,0E0,0E0,0E0,0E0,0E0,0E0,0E0,0E0,0E0,0E0,0E0,0E0,0E0,0E0,0E0,0E0,0E0,0E0,0E0,0E0,0E0,0E0,0E0,0E0,0E0,0E0,0E0,0E0,0E0,0E0,0E0,0E0,0E0,0E0,0E0,0E0,0E0,0E0,0E0,0E0,0E0,0E0,0E0,0E0,0E0,0E0,0E0,0E0,0E0,0E0,0E0,0E0,0E0,0E0,0E0,0E0],"parents":[2147483647,0,0,1,1,2,2,3,3,4,4,5,5,6,6,7,7,8,8,9,9,10,10,11,11,12,12,13,13,14,14,15,15,16,16,17,17,18,18,19,19,20,20,21,21,22,22,23,23,24,24,25,25,26,26,27,27,28,28,29,29,30,30,31,31,32,32,33,33,34,34,35,35,36,36,37,37,38,38,39,39,40,40,41,41,42,42,43,43,44,44,45,45,46,46,47,47,48,48,49,49,50,50,51,51,52,52,53,53,54,54,55,55,56,56,57,57,58,58,59,59,60,60,61,61,62,62],"right_children":[2,4,6,8,10,12,14,16,18,20,22,24,26,28,30,32,34,36,38,40,42,44,46,48,50,52,54,56,58,60,62,64,66,68,70,72,74,76,78,80,82,84,86,88,90,92,94,96,98,100,102,104,106,108,110,112,114,116,118,120,122,124,126,-1,-1,-1,-1,-1,-1,-1,-1,-1,-1,-1,-1,-1,-1,-1,-1,-1,-1,-1,-1,-1,-1,-1,-1,-1,-1,-1,-1,-1,-1,-1,-1,-1,-1,-1,-1,-1,-1,-1,-1,-1,-1,-1,-1,-1,-1,-1,-1,-1,-1,-1,-1,-1,-1,-1,-1,-1,-1,-1,-1,-1,-1,-1,-1],"split_conditions":[2.39E1,1.15E1,3.3666668E1,3.382091E0,9.42E2,5.277554E0,1.9328351E0,7.95E1,7.15E0,3.52E2,1.4133903E0,2.5401688E1,5.6E1,5.794211E-1,3.382091E0,7.6E0,7E0,7.5004067E0,4.795931E1,4.75E0,1.8333334E0,1.71E2,2.1381374E1,1.85E2,-3E0,6.505509E1,6.0333332E1,6E0,-1.4082323E-1,5E-1,8.942014E0,7E0,1.4516666E1,-1.3298927E-1,7.1E0,5.1605167E1,5.507705E1,-6.3E1,5.1226803E1,-1.5066152E0,1.28E2,5.0493084E1,3.9972782E1,6.1385614E-1,5.1226803E1,4.91E2,4.3948197E-1,4.7833332E1,3.31E1,-7.8355485E-1,2.9268859E-2,2.31E2,2.7883333E1,1.837129E1,7E0,-8.660254E-1,1.5833333E1,-1.5564817E0,-3.8516219E0,5.6E1,1.3E1,3.7016666E1,0E0,6.883513E-2,-6.3731563E-1,-2.516225E-1,-5.4622203E-1,1.5495254E-1,-9.8437734E-2,-4.5852298E-1,-1.8124166E-1,-8.728817E-2,2.665626E-1,-3.0525967E-1,-1.4502855E-1,-7.34699E-1,-1.1905101E-2,-1.4808981E-1,-3.639458E-2,-1.1762565E-1,-7.7082603E-3,1.3593935E-2,1.8742238E-1,7.716266E-2,-6.9432214E-2,-2.6554257E-1,-6.934099E-2,5.242422E-1,7.831505E-2,1.36098275E-2,1.5508233E-1,1.0535584E-1,2.176964E-2,4.4891275E-2,-2.0606735E-1,-9.0393275E-2,1.4233365E-2,3.948794E-2,1.9180216E-1,-8.9558974E-2,3.617227E-2,-1.7141536E-1,9.030883E-2,2.2117786E-1,3.4977248E-1,2.6259252E-1,-3.134385E-2,1.9591656E-1,2.7796881E-2,-1.3820058E-1,9.24468E-3,-4.4551548E-1,-1.4374568E-1,7.251748E-1,3.606317E-2,1.4793648E0,1.5723373E-1,7.0906746E-1,-9.1494703E-1,2.6420936E-1,6.5668154E-1,1.6743426E-1,1.277564E0,2.776906E-1,5.4331046E-1,-5.271658E-2,1.5995201E-1],"split_indices":[4,20,18,29,30,6,25,11,10,24,22,34,24,37,27,20,24,32,25,1,1,26,34,26,28,31,11,24,25,35,33,24,10,7,20,27,27,30,31,14,28,25,27,38,25,24,6,11,13,6,31,28,2,31,26,36,3,7,6,24,24,18,30,0,0,0,0,0,0,0,0,0,0,0,0,0,0,0,0,0,0,0,0,0,0,0,0,0,0,0,0,0,0,0,0,0,0,0,0,0,0,0,0,0,0,0,0,0,0,0,0,0,0,0,0,0,0,0,0,0,0,0,0,0,0,0,0],"split_type":[0,0,0,0,0,0,0,0,0,0,0,0,0,0,0,0,0,0,0,0,0,0,0,0,0,0,0,0,0,0,0,0,0,0,0,0,0,0,0,0,0,0,0,0,0,0,0,0,0,0,0,0,0,0,0,0,0,0,0,0,0,0,0,0,0,0,0,0,0,0,0,0,0,0,0,0,0,0,0,0,0,0,0,0,0,0,0,0,0,0,0,0,0,0,0,0,0,0,0,0,0,0,0,0,0,0,0,0,0,0,0,0,0,0,0,0,0,0,0,0,0,0,0,0,0,0,0],"sum_hessian":[2.386877E6,1.495716E6,8.91161E5,2.91694E5,1.204022E6,8.16437E5,7.4724E4,1.7431E4,2.74263E5,1.114506E6,8.9516E4,7.57327E5,5.911E4,3.08E3,7.1644E4,7.547E3,9.884E3,4.5821E4,2.28442E5,7.38406E5,3.761E5,3.7652E4,5.1864E4,3.86233E5,3.71094E5,2.6557E4,3.2553E4,2.556E3,5.24E2,9.69E2,7.0675E4,1.263E3,6.284E3,1.898E3,7.986E3,1.4002E4,3.1819E4,9.7033E4,1.31409E5,6.04763E5,1.33643E5,1.38594E5,2.37506E5,8.406E3,2.9246E4,3.1662E4,2.0202E4,2.00146E5,1.86087E5,9.3639E4,2.77455E5,2.4379E4,2.178E3,2.4964E4,7.589E3,1.196E3,1.36E3,6.9E1,4.55E2,7.88E2,1.81E2,4.299E3,6.6376E4,6.2E1,1.201E3,4.539E3,1.745E3,3.17E2,1.581E3,8.42E2,7.144E3,1.2286E4,1.716E3,1.9111E4,1.2708E4,5.71E2,9.6462E4,6.9606E4,6.1803E4,8.6727E4,5.18036E5,8.5243E4,4.84E4,5.9544E4,7.905E4,3.6602E4,2.00904E5,5.423E3,2.983E3,1.2824E4,1.6422E4,1.9639E4,1.2023E4,8.021E3,1.2181E4,5.3556E4,1.4659E5,1.75254E5,1.0833E4,1.8763E4,7.4876E4,5.01E3,2.72445E5,1.8341E4,6.038E3,6.91E2,1.487E3,8.574E3,1.639E4,3.515E3,4.074E3,1.85E2,1.011E3,4.4E1,1.316E3,2.1E1,4.8E1,3.4E1,4.21E2,2.37E2,5.51E2,2.5E1,1.56E2,3.151E3,1.148E3,7.959E3,5.8417E4],"tree_param":{"num_deleted":"0","num_feature":"39","num_nodes":"127","size_leaf_vector":"1"}},{"base_weights":[1.3728658E-6,-7.662019E-2,1.5705834E-1,2.4469642E-1,-9.954069E-2,1.2034246E-1,3.2531592E-1,-3.5883448E-1,5.206863E-1,-1.9023821E-1,3.2175942E-3,9.1912866E-2,3.5807475E-1,4.7863492E-1,1.516513E-1,-3.278867E-2,-7.8925693E-1,9.950858E-1,2.879906E-1,-3.2724616E-1,-9.9655055E-2,-1.2019036E-1,1.0916838E-1,3.292567E-1,6.309843E-2,4.510075E-1,1.4913398E-1,3.995215E-1,8.2917136E-1,-2.0497702E-2,4.41314E-1,5.6540793E-1,-1.9887428E-1,-1.128416E0,-2.7829292E-1,1.3043107E0,5.82899E-1,4.6141934E-1,-1.9136962E-1,-9.645692E-2,-4.3803942E-1,-6.4669326E-2,-5.024523E-1,-3.282942E-1,1.2012529E-2,5.097976E-1,3.4520004E-2,1.3781949E0,2.3411393E-1,-1.2196079E-2,1.7398329E-1,1.5259088E0,4.1267696E-1,-5.918197E-2,4.8376772E-1,3.6043996E-1,1.1137773E0,6.11889E-1,1.1920784E0,8.8586897E-1,-7.463365E-2,7.6041853E-1,-2.7103867E-2,4.1065007E-1,6.659828E-2,-1.4072937E-1,-1.1064408E-3,-8.906954E-2,-3.94992E-1,1.5939909E-1,-1.5593593E-1,4.442773E-1,1.9525965E-1,9.029057E-2,3.3553523E-1,2.2746868E-1,2.3275867E-2,-2.93594E-2,-2.1964568E-1,1.40029E-1,-9.087218E-2,-1.527954E-1,3.0211287E-2,-3.965352E-2,4.857515E-2,-4.5707092E-1,-1.1763631E-1,-2.9195407E-1,-7.765193E-2,-6.572389E-2,2.5529783E-2,2.4638931E-1,1.04424134E-1,3.108791E-2,-1.1229255E-1,1.6795105E-1,5.8967483E-1,1.1677141E-1,-1.2983526E-3,1.7930588E-2,-4.8438665E-2,-1.4591373E-2,8.580756E-2,1.2719607E-1,8.1997246E-1,6.263182E-2,1.7479295E-1,2.1043612E-2,-1.00615725E-1,1.19753994E-1,3.7867182E-1,1.2783982E-1,-1.1901588E-2,1.8758275E-1,4.111144E-1,-5.152565E-1,1.8855022E-1,3.7552145E-1,7.891188E-2,9.3721725E-2,5.794141E-1,-8.7677546E-2,3.831348E-2,4.7058812E-1,2.1177424E-1,-6.0752917E-2,3.953394E-2],"categories":[],"categories_nodes":[],"categories_segments":[],"categories_sizes":[],"default_left":[0,0,0,0,0,0,0,0,0,0,0,0,0,0,0,0,0,0,0,0,0,0,0,0,0,0,0,0,0,0,0,0,0,0,0,0,0,0,0,0,0,0,0,0,0,0,0,0,0,0,0,0,0,0,0,0,0,0,0,0,0,0,0,0,0,0,0,0,0,0,0,0,0,0,0,0,0,0,0,0,0,0,0,0,0,0,0,0,0,0,0,0,0,0,0,0,0,0,0,0,0,0,0,0,0,0,0,0,0,0,0,0,0,0,0,0,0,0,0,0,0,0,0,0,0,0,0],"id":12,"left_children":[1,3,5,7,9,11,13,15,17,19,21,23,25,27,29,31,33,35,37,39,41,43,45,47,49,51,53,55,57,59,61,63,65,67,69,71,73,75,77,79,81,83,85,87,89,91,93,95,97,99,101,103,105,107,109,111,113,115,117,119,121,123,125,-1,-1,-1,-1,-1,-1,-1,-1,-1,-1,-1,-1,-1,-1,-1,-1,-1,-1,-1,-1,-1,-1,-1,-1,-1,-1,-1,-1,-1,-1,-1,-1,-1,-1,-1,-1,-1,-1,-1,-1,-1,-1,-1,-1,-1,-1,-1,-1,-1,-1,-1,-1,-1,-1,-1,-1,-1,-1,-1,-1,-1,-1,-1,-1],"loss_changes":[2.8723584E4,1.18148125E4,4.8349004E3,1.7792363E4,1.3955864E4,4.3420645E3,3.7326387E3,4.703944E3,8.091131E3,9.871232E3,9.179239E3,3.9243691E3,1.3323975E3,2.0644941E3,3.2778943E3,1.89505E3,2.5033223E3,3.073666E3,4.0884941E3,8.0946445E3,6.7475586E3,8.922148E3,1.1296646E4,6.199485E3,4.2722715E3,1.9562783E3,1.4727821E3,1.695332E3,1.0802695E3,2.0231975E3,3.6627383E3,1.143332E3,7.8741187E2,1.3585986E3,1.1274417E3,1.5894629E3,1.5610334E3,4.1141265E3,6.606219E2,1.1939698E4,8.213617E3,6.739033E3,4.310384E3,5.6426396E3,3.3495476E3,2.9883574E3,8.995908E3,2.482163E3,2.1067678E3,3.2737627E3,5.1618228E3,2.1740225E3,1.5893096E3,4.6517847E2,5.332693E2,1.5139487E3,3.9412524E2,3.329712E2,2.8417383E2,1.3927799E3,1.7134087E3,6.409346E2,2.7676706E2,0E0,0E0,0E0,0E0,0E0,0E0,0E0,0E0,0E0,0E0,0E0,0E0,0E0,0E0,0E0,0E0,0E0,0E0,0E0,0E0,0E0,0E0,0E0,0E0,0E0,0E0,0E0,0E0,0E0,0E0,0E0,0E0,0E0,0E0,0E0,0E0,0E0,0E0,0E0,0E0,0E0,0E0,0E0,0E0,0E0,0E0,0E0,0E0,0E0,0E0,0E0,0E0,0E0,0E0,0E0,0E0,0E0,0E0,0E0,0E0,0E0,0E0,0E0,0E0],"parents":[2147483647,0,0,1,1,2,2,3,3,4,4,5,5,6,6,7,7,8,8,9,9,10,10,11,11,12,12,13,13,14,14,15,15,16,16,17,17,18,18,19,19,20,20,21,21,22,22,23,23,24,24,25,25,26,26,27,27,28,28,29,29,30,30,31,31,32,32,33,33,34,34,35,35,36,36,37,37,38,38,39,39,40,40,41,41,42,42,43,43,44,44,45,45,46,46,47,47,48,48,49,49,50,50,51,51,52,52,53,53,54,54,55,55,56,56,57,57,58,58,59,59,60,60,61,61,62,62],"right_children":[2,4,6,8,10,12,14,16,18,20,22,24,26,28,30,32,34,36,38,40,42,44,46,48,50,52,54,56,58,60,62,64,66,68,70,72,74,76,78,80,82,84,86,88,90,92,94,96,98,100,102,104,106,108,110,112,114,116,118,120,122,124,126,-1,-1,-1,-1,-1,-1,-1,-1,-1,-1,-1,-1,-1,-1,-1,-1,-1,-1,-1,-1,-1,-1,-1,-1,-1,-1,-1,-1,-1,-1,-1,-1,-1,-1,-1,-1,-1,-1,-1,-1,-1,-1,-1,-1,-1,-1,-1,-1,-1,-1,-1,-1,-1,-1,-1,-1,-1,-1,-1,-1,-1,-1,-1,-1],"split_conditions":[2.47E1,1.9328351E0,5.233333E0,6.8E1,3.72E2,8.19E2,1.43E2,4.7723612E-1,-2.4492937E-16,1.85E2,5.1226803E1,3.382091E0,3.59E2,5.3551054E0,6.73E2,-5.511016E-1,6.25E1,7.2E1,2.7333333E0,3.8180482E0,1.0650493E2,1.69E1,-1.98E2,3.2E1,4.66E2,2.44E1,3.17E1,3.97E1,4.4923283E1,1.2430738E0,7.67E2,7.2E1,-1.5844159E-2,-1.4082323E-1,-1.11659005E-1,2.05E0,3.4947386E-1,7.2E1,2.02E1,1.3666667E0,4.35E0,1.4945897E0,7.8E0,-2.6590445E0,-3.762368E-1,-2.4492937E-16,4.592673E0,3.3E1,6.55E1,2.31E2,1.9806471E-1,4.91E2,1.71E2,-6.512259E-2,3.8E1,3.0007507E1,4.866667E0,1.9328351E0,6.505509E1,2.8848243E-1,5.9095806E1,-3.5631435E0,4.4923283E1,4.1065007E-1,6.659828E-2,-1.4072937E-1,-1.1064408E-3,-8.906954E-2,-3.94992E-1,1.5939909E-1,-1.5593593E-1,4.442773E-1,1.9525965E-1,9.029057E-2,3.3553523E-1,2.2746868E-1,2.3275867E-2,-2.93594E-2,-2.1964568E-1,1.40029E-1,-9.087218E-2,-1.527954E-1,3.0211287E-2,-3.965352E-2,4.857515E-2,-4.5707092E-1,-1.1763631E-1,-2.9195407E-1,-7.765193E-2,-6.572389E-2,2.5529783E-2,2.4638931E-1,1.04424134E-1,3.108791E-2,-1.1229255E-1,1.6795105E-1,5.8967483E-1,1.1677141E-1,-1.2983526E-3,1.7930588E-2,-4.8438665E-2,-1.4591373E-2,8.580756E-2,1.2719607E-1,8.1997246E-1,6.263182E-2,1.7479295E-1,2.1043612E-2,-1.00615725E-1,1.19753994E-1,3.7867182E-1,1.2783982E-1,-1.1901588E-2,1.8758275E-1,4.111144E-1,-5.152565E-1,1.8855022E-1,3.7552145E-1,7.891188E-2,9.3721725E-2,5.794141E-1,-8.7677546E-2,3.831348E-2,4.7058812E-1,2.1177424E-1,-6.0752917E-2,3.953394E-2],"split_indices":[20,25,1,3,30,30,24,14,35,26,27,29,28,14,26,37,19,26,9,27,29,4,24,19,26,2,4,12,31,27,24,26,23,25,37,9,6,26,4,1,9,22,4,15,22,35,22,24,19,24,22,24,26,7,4,33,17,25,31,37,29,14,29,0,0,0,0,0,0,0,0,0,0,0,0,0,0,0,0,0,0,0,0,0,0,0,0,0,0,0,0,0,0,0,0,0,0,0,0,0,0,0,0,0,0,0,0,0,0,0,0,0,0,0,0,0,0,0,0,0,0,0,0,0,0,0,0],"split_type":[0,0,0,0,0,0,0,0,0,0,0,0,0,0,0,0,0,0,0,0,0,0,0,0,0,0,0,0,0,0,0,0,0,0,0,0,0,0,0,0,0,0,0,0,0,0,0,0,0,0,0,0,0,0,0,0,0,0,0,0,0,0,0,0,0,0,0,0,0,0,0,0,0,0,0,0,0,0,0,0,0,0,0,0,0,0,0,0,0,0,0,0,0,0,0,0,0,0,0,0,0,0,0,0,0,0,0,0,0,0,0,0,0,0,0,0,0,0,0,0,0,0,0,0,0,0,0],"sum_hessian":[2.386877E6,1.604237E6,7.8264E5,1.06815E5,1.497422E6,6.42451E5,1.40189E5,3.3518E4,7.3297E4,7.95388E5,7.02034E5,5.7383E5,6.8621E4,7.4455E4,6.5734E4,1.9072E4,1.4446E4,2.412E4,4.9177E4,3.1657E5,4.78818E5,3.243E5,3.77734E5,6.2122E4,5.11708E5,4.7495E4,2.1126E4,6.0747E4,1.3708E4,4.1231E4,2.4503E4,4.144E3,1.4928E4,8.682E3,5.764E3,1.378E4,1.034E4,3.6112E4,1.3065E4,1.02681E5,2.13889E5,4.40554E5,3.8264E4,1.25984E5,1.98316E5,5.9327E4,3.18407E5,5.165E3,5.6957E4,3.04764E5,2.06944E5,1.634E3,4.5861E4,1.3021E4,8.105E3,5.7597E4,3.15E3,8.576E3,5.132E3,2.323E3,3.8908E4,1.4574E4,9.929E3,1.24E3,2.904E3,6.26E3,8.668E3,1.603E3,7.079E3,1.324E3,4.44E3,1.0847E4,2.933E3,6.775E3,3.565E3,2.0364E4,1.5748E4,1.114E4,1.925E3,2.7542E4,7.5139E4,1.88897E5,2.4992E4,3.39426E5,1.01128E5,3.73E3,3.4534E4,1.2248E4,1.13736E5,4.765E4,1.50666E5,2.0273E4,3.9054E4,2.72368E5,4.6039E4,2.159E3,3.006E3,3.4507E4,2.245E4,2.05627E5,9.9137E4,6.9283E4,1.37661E5,8.55E2,7.79E2,2.085E4,2.5011E4,8.869E3,4.152E3,7.312E3,7.93E2,4.9474E4,8.123E3,1.086E3,2.064E3,6E1,8.516E3,4.822E3,3.1E2,1.501E3,8.22E2,1.8746E4,2.0162E4,9.19E2,1.3655E4,4.719E3,5.21E3],"tree_param":{"num_deleted":"0","num_feature":"39","num_nodes":"127","size_leaf_vector":"1"}},{"base_weights":[3.0305814E-6,8.051587E-2,-8.751473E-2,4.2531857E-1,6.858829E-2,-7.17404E-2,-5.3592044E-1,-3.7482342E-1,6.437934E-1,6.0020003E-2,5.2480036E-1,-1.3984977E-1,8.82962E-3,-1.2543026E0,-3.5939878E-1,-7.323218E-2,-7.155911E-1,3.4650606E-1,7.66545E-1,4.4252416E-3,1.24274686E-1,5.807857E-1,-3.55643E-1,3.894997E-2,-1.7996836E-1,2.2261826E-2,-5.936345E-1,-1.6060071E0,-5.631881E-1,-2.3802893E-1,-9.983949E-1,4.5704115E-2,-7.326269E-1,-9.697158E-1,6.501274E-2,3.239781E-1,2.791597E0,9.814003E-1,5.472651E-1,3.906547E-1,-2.5703078E-2,-5.08112E-2,1.5467489E-1,8.4582543E-1,4.9319765E-1,4.577713E-1,-6.7245066E-1,7.0240065E-2,-9.6980476E-1,-6.5004414E-1,-1.6267245E-1,9.639438E-3,6.329868E-1,-1.4331211E-1,-8.5136265E-1,-2.04259E0,-1.189445E0,-1.9123503E0,-4.2757353E-1,-6.005549E-1,-1.12628564E-1,-1.7925633E0,-5.9717023E-1,-6.483895E-2,1.18818514E-1,1.82743E-1,-2.3687185E-1,-3.7412378E-1,-1.7294006E-1,-3.9626896E-2,1.8840732E-1,1.24175295E-1,-3.4407698E-2,1.074922E0,5.695161E-1,3.4692472E-1,1.6920635E-1,9.065781E-2,3.1341925E-1,-8.153668E-2,2.0973235E-1,-1.4488916E-1,-8.517652E-4,-8.894211E-2,3.4247093E-2,4.3718193E-2,2.5802153E-1,2.130261E-1,3.320299E-1,2.6038715E-1,1.17994465E-1,1.8424055E-1,9.642047E-3,-6.635582E-2,-3.7080294E-1,-4.032412E-2,6.545486E-2,-4.196804E-1,-7.827834E-2,-3.6302835E-1,-1.5427054E-1,-8.374933E-2,-3.2776594E-2,-4.3036793E-3,8.6729586E-2,-1.1583414E-1,4.6095562E-1,-1.6673699E-1,1.4284065E-1,-3.343089E-1,-2.0652172E-1,-6.3979834E-1,-6.1799936E-2,-4.3416092E-1,-1.477404E-1,-6.26657E-1,-2.406776E-1,-1.8408436E-1,1.3240982E-3,-4.9267918E-1,-1.6255604E-1,-9.809036E-2,1.4040851E-2,-7.317874E-1,-4.355828E-1,-3.7053797E-1,-1.2749304E-1],"categories":[],"categories_nodes":[],"categories_segments":[],"categories_sizes":[],"default_left":[0,0,0,0,0,0,0,0,0,0,0,0,0,0,0,0,0,0,0,0,0,0,0,0,0,0,0,0,0,0,0,0,0,0,0,0,0,0,0,0,