{"learner":{"attributes":{},"feature_names":["rain_n1","ws_n1","td_n1","rh_n1","tdmax_n1","tdmin_n1","u_vec_n1","v_vec_n1","rain_n2","ws_n2","td_n2","rh_n2","tdmax_n2","tdmin_n2","u_vec_n2","v_vec_n2","rain_n3","ws_n3","td_n3","rh_n3","tdmax_n3","tdmin_n3","u_vec_n3","v_vec_n3","elevation_target","dist_to_coast_target","elevation_n1","dist_to_coast_n1","elevation_n2","dist_to_coast_n2","elevation_n3","dist_to_coast_n3","dist_n1","dist_n2","dist_n3","month_sin","month_cos","day_sin","day_cos"],"feature_types":["float","float","float","float","float","float","float","float","float","float","float","float","float","float","float","float","float","float","float","float","float","float","float","float","int","float","int","float","int","float","int","float","float","float","float","float","float","float","float"],"gradient_booster":{"model":{"cats":{"enc":[],"feature_segments":[],"sorted_idx":[]},"gbtree_model_param":{"num_parallel_tree":"1","num_trees":"100"},"iteration_indptr":[0,1,2,3,4,5,6,7,8,9,10,11,12,13,14,15,16,17,18,19,20,21,22,23,24,25,26,27,28,29,30,31,32,33,34,35,36,37,38,39,40,41,42,43,44,45,46,47,48,49,50,51,52,53,54,55,56,57,58,59,60,61,62,63,64,65,66,67,68,69,70,71,72,73,74,75,76,77,78,79,80,81,82,83,84,85,86,87,88,89,90,91,92,93,94,95,96,97,98,99,100],"tree_info":[0,0,0,0,0,0,0,0,0,0,0,0,0,0,0,0,0,0,0,0,0,0,0,0,0,0,0,0,0,0,0,0,0,0,0,0,0,0,0,0,0,0,0,0,0,0,0,0,0,0,0,0,0,0,0,0,0,0,0,0,0,0,0,0,0,0,0,0,0,0,0,0,0,0,0,0,0,0,0,0,0,0,0,0,0,0,0,0,0,0,0,0,0,0,0,0,0,0,0,0],"trees":[{"base_weights":[-6.360764E-8,-1.5518337E0,1.8409873E0,-1.7671837E0,1.4135959E0,1.5674418E0,1.8924371E0,-1.8492578E0,6.946363E-1,1.0763032E0,1.6414065E0,1.3724279E0,1.7202392E0,1.8094852E0,1.9271762E0,-1.964924E0,-1.7013985E0,9.022975E-1,-1.8255801E-1,7.8216624E-1,1.4555483E0,1.5460806E0,1.8157563E0,1.5168735E0,1.1144149E0,1.6459144E0,1.7930851E0,1.7060393E0,1.8455986E0,1.9301424E0,1.7238493E0,-1.8828504E0,-1.978857E0,-1.883217E0,-1.5221733E0,3.2441586E-2,1.0466039E0,1.6487919E-1,-6.1987454E-1,4.555985E-1,1.1002611E0,1.0158025E0,1.5673354E0,1.3984345E0,1.6775333E0,1.6462508E0,1.8544619E0,1.3886598E0,1.6927329E0,7.4226767E-1,1.3543001E0,1.6978897E0,1.5378926E0,1.6747136E0,1.8158603E0,1.730764E0,1.1673175E0,1.8131077E0,1.8756291E0,1.9083279E0,1.9523398E0,1.546792E0,1.8175532E0,-5.6995857E-1,-4.3785188E-1,-5.9503067E-1,-5.7245475E-1,-5.740451E-1,-4.647412E-1,-5.0274074E-1,-3.5340464E-1,-1.3701579E-1,1.2398433E-1,2.3068042E-1,3.954551E-1,-8.708399E-2,1.6162112E-1,7.1510546E-2,-3.159164E-1,-9.779963E-2,1.9633389E-1,1.6951728E-1,3.5241622E-1,2.7696157E-1,5.314579E-1,4.815365E-1,3.7694016E-1,3.414056E-1,4.4432718E-1,1.4449088E-1,5.0500405E-1,3.899319E-1,5.1443946E-1,-5.074727E-2,5.569372E-1,3.618421E-1,4.6088526E-1,4.2662206E-1,5.1646054E-1,1.437192E-1,3.104292E-1,-3.7879698E-2,4.166579E-1,4.7676226E-1,5.2107E-1,4.3525103E-1,4.9090555E-1,4.6542147E-1,5.2959746E-1,5.248496E-1,5.528439E-1,4.995082E-1,5.363632E-1,1.6345659E-1,4.29568E-1,5.3229827E-1,5.527533E-1,5.5702865E-1,5.684148E-1,5.627509E-1,5.7687676E-1,5.816857E-1,5.8850974E-1,4.793031E-1,2.1577863E-1,5.5414736E-1,4.957964E-1],"categories":[],"categories_nodes":[],"categories_segments":[],"categories_sizes":[],"default_left":[0,0,0,0,0,0,0,0,0,0,0,0,0,0,0,0,0,0,0,0,0,0,0,0,0,0,0,0,0,0,0,0,0,0,0,0,0,0,0,0,0,0,0,0,0,0,0,0,0,0,0,0,0,0,0,0,0,0,0,0,0,0,0,0,0,0,0,0,0,0,0,0,0,0,0,0,0,0,0,0,0,0,0,0,0,0,0,0,0,0,0,0,0,0,0,0,0,0,0,0,0,0,0,0,0,0,0,0,0,0,0,0,0,0,0,0,0,0,0,0,0,0,0,0,0,0,0],"id":0,"left_children":[1,3,5,7,9,11,13,15,17,19,21,23,25,27,29,31,33,35,37,39,41,43,45,47,49,51,53,55,57,59,61,63,65,67,69,71,73,75,77,79,81,83,85,87,89,91,93,95,97,99,101,103,105,107,109,111,113,115,117,119,121,123,125,-1,-1,-1,-1,-1,-1,-1,-1,-1,-1,-1,-1,-1,-1,-1,-1,-1,-1,-1,-1,-1,-1,-1,-1,-1,-1,-1,-1,-1,-1,-1,-1,-1,-1,-1,-1,-1,-1,-1,-1,-1,-1,-1,-1,-1,-1,-1,-1,-1,-1,-1,-1,-1,-1,-1,-1,-1,-1,-1,-1,-1,-1,-1,-1],"loss_changes":[1.4772698E6,1.79181E5,3.325625E3,5.2854562E4,1.4579141E3,1.1134922E3,5.70125E2,4.3259375E3,1.5376265E3,8.5345215E2,1.8560938E2,6.116074E2,1.10703125E2,2.1642188E2,8.125E1,1.586875E2,3.6180312E3,8.566504E2,2.4570456E2,4.4792822E2,1.6285254E2,1.4003516E2,2.3200195E1,2.3545898E2,5.2659326E2,5.579883E1,2.5511719E1,2.0073047E2,3.909375E1,6.325E1,3.0811035E1,1.458125E2,3.546875E1,5.5475E2,2.956914E3,1.8128986E2,4.404048E2,1.5357329E2,2.6639053E2,3.315276E2,8.645337E1,4.6010193E1,2.9291016E1,7.281738E1,2.6134766E1,1.564978E1,1.34375E1,1.6265332E2,3.218457E1,1.780055E2,1.839873E2,2.6976562E1,2.6683105E1,1.6498535E1,1.2638672E1,5.1660156E1,1.09730896E2,2.0625E1,4.625E0,2.94375E1,4.796875E0,2.8665527E1,3.3886719E0,0E0,0E0,0E0,0E0,0E0,0E0,0E0,0E0,0E0,0E0,0E0,0E0,0E0,0E0,0E0,0E0,0E0,0E0,0E0,0E0,0E0,0E0,0E0,0E0,0E0,0E0,0E0,0E0,0E0,0E0,0E0,0E0,0E0,0E0,0E0,0E0,0E0,0E0,0E0,0E0,0E0,0E0,0E0,0E0,0E0,0E0,0E0,0E0,0E0,0E0,0E0,0E0,0E0,0E0,0E0,0E0,0E0,0E0,0E0,0E0,0E0,0E0,0E0,0E0],"parents":[2147483647,0,0,1,1,2,2,3,3,4,4,5,5,6,6,7,7,8,8,9,9,10,10,11,11,12,12,13,13,14,14,15,15,16,16,17,17,18,18,19,19,20,20,21,21,22,22,23,23,24,24,25,25,26,26,27,27,28,28,29,29,30,30,31,31,32,32,33,33,34,34,35,35,36,36,37,37,38,38,39,39,40,40,41,41,42,42,43,43,44,44,45,45,46,46,47,47,48,48,49,49,50,50,51,51,52,52,53,53,54,54,55,55,56,56,57,57,58,58,59,59,60,60,61,61,62,62],"right_children":[2,4,6,8,10,12,14,16,18,20,22,24,26,28,30,32,34,36,38,40,42,44,46,48,50,52,54,56,58,60,62,64,66,68,70,72,74,76,78,80,82,84,86,88,90,92,94,96,98,100,102,104,106,108,110,112,114,116,118,120,122,124,126,-1,-1,-1,-1,-1,-1,-1,-1,-1,-1,-1,-1,-1,-1,-1,-1,-1,-1,-1,-1,-1,-1,-1,-1,-1,-1,-1,-1,-1,-1,-1,-1,-1,-1,-1,-1,-1,-1,-1,-1,-1,-1,-1,-1,-1,-1,-1,-1,-1,-1,-1,-1,-1,-1,-1,-1,-1,-1,-1,-1,-1,-1,-1,-1],"split_conditions":[1E-1,1E-1,5E-1,1E-1,5E-1,2E-1,1.6E0,1.24479264E-1,5.9249413E1,2E-1,1.2E0,4.4923283E1,9E-1,2E-1,1.967429E1,1.88E1,6.6833336E1,7.6591244E0,7.02E2,2E-1,9.205414E0,1.4E0,8.560624E0,3E-1,2E-1,4.5142647E1,7.5004067E0,1.967429E1,1.2E0,3.8E0,2E-1,2.5248032E0,2.075467E0,3.9379969E0,8.7280184E-1,3E-1,6E-1,4E-1,-1.99E2,7.6591244E0,7.0745783E0,5.083722E0,5.9095806E1,9.596414E0,2.5702798E0,7.55E1,6.8166664E1,2E-1,1.1926425E1,1E-1,-2.53E2,1E-1,3E-1,3.78E2,2E-1,2E-1,6.55E1,9E-1,1.2E0,7.01E-1,2.2E0,7.69E2,7.69E2,-5.6995857E-1,-4.3785188E-1,-5.9503067E-1,-5.7245475E-1,-5.740451E-1,-4.647412E-1,-5.0274074E-1,-3.5340464E-1,-1.3701579E-1,1.2398433E-1,2.3068042E-1,3.954551E-1,-8.708399E-2,1.6162112E-1,7.1510546E-2,-3.159164E-1,-9.779963E-2,1.9633389E-1,1.6951728E-1,3.5241622E-1,2.7696157E-1,5.314579E-1,4.815365E-1,3.7694016E-1,3.414056E-1,4.4432718E-1,1.4449088E-1,5.0500405E-1,3.899319E-1,5.1443946E-1,-5.074727E-2,5.569372E-1,3.618421E-1,4.6088526E-1,4.2662206E-1,5.1646054E-1,1.437192E-1,3.104292E-1,-3.7879698E-2,4.166579E-1,4.7676226E-1,5.2107E-1,4.3525103E-1,4.9090555E-1,4.6542147E-1,5.2959746E-1,5.248496E-1,5.528439E-1,4.995082E-1,5.363632E-1,1.6345659E-1,4.29568E-1,5.3229827E-1,5.527533E-1,5.5702865E-1,5.684148E-1,5.627509E-1,5.7687676E-1,5.816857E-1,5.8850974E-1,4.793031E-1,2.1577863E-1,5.5414736E-1,4.957964E-1],"split_indices":[0,8,0,16,8,8,0,38,29,16,16,27,8,8,32,4,3,32,30,8,32,8,32,16,0,27,32,32,8,0,8,7,7,6,23,16,16,16,26,32,32,15,29,32,32,3,19,0,33,16,24,16,0,30,16,16,11,0,16,8,8,30,30,0,0,0,0,0,0,0,0,0,0,0,0,0,0,0,0,0,0,0,0,0,0,0,0,0,0,0,0,0,0,0,0,0,0,0,0,0,0,0,0,0,0,0,0,0,0,0,0,0,0,0,0,0,0,0,0,0,0,0,0,0,0,0,0],"split_type":[0,0,0,0,0,0,0,0,0,0,0,0,0,0,0,0,0,0,0,0,0,0,0,0,0,0,0,0,0,0,0,0,0,0,0,0,0,0,0,0,0,0,0,0,0,0,0,0,0,0,0,0,0,0,0,0,0,0,0,0,0,0,0,0,0,0,0,0,0,0,0,0,0,0,0,0,0,0,0,0,0,0,0,0,0,0,0,0,0,0,0,0,0,0,0,0,0,0,0,0,0,0,0,0,0,0,0,0,0,0,0,0,0,0,0,0,0,0,0,0,0,0,0,0,0,0,0],"sum_hessian":[5.1708522E5,2.8057703E5,2.3650819E5,2.6158136E5,1.8995672E4,3.7446434E4,1.9906175E5,2.5314214E5,8.43921E3,7.660052E3,1.133562E4,1.6455021E4,2.0991412E4,5.877319E4,1.4028856E5,1.4202653E5,1.111156E5,6.823768E3,1.6154425E3,4.3158237E3,3.3442283E3,7.335046E3,4.0005745E3,1.0546057E4,5.908965E3,1.0401923E4,1.058949E4,1.5221043E4,4.355215E4,1.3826305E5,2.0255126E3,2.0631625E4,1.21394914E5,5.5154055E4,5.596155E4,9.7113684E2,5.8526313E3,9.0057825E2,7.148642E2,2.1307505E3,2.1850732E3,6.79867E2,2.664361E3,3.4602122E3,3.874834E3,7.5178436E2,3.2487903E3,6.104413E3,4.441644E3,2.3176152E3,3.5913496E3,7.0129087E3,3.3890134E3,1.7207325E3,8.868757E3,1.4551011E4,6.700317E2,2.094863E4,2.2603518E4,6.977686E4,6.848619E4,7.070398E2,1.3184728E3,1.9831254E4,8.0037177E2,1.1398387E5,7.4110464E3,5.0568E4,4.5860537E3,3.868778E4,1.7273768E4,4.2502438E2,5.461124E2,2.8957654E3,2.9568657E3,4.062303E2,4.9434793E2,2.3993666E2,4.7492755E2,4.320159E2,1.6987346E3,2.679169E2,1.9171564E3,6.076363E2,7.223076E1,2.3718928E3,2.9246844E2,8.3722424E2,2.6229878E3,1.9150671E1,3.8556833E3,1.27464745E2,6.2431964E2,3.1179006E0,3.2456724E3,2.7336985E3,3.3707144E3,4.3204065E2,4.0096035E3,1.2212803E3,1.0963348E3,8.185697E1,3.5094927E3,1.8633502E3,5.1495586E3,1.8070166E3,1.581997E3,7.3653485E2,9.8419775E2,2.580666E3,6.2880913E3,6.778814E3,7.772197E3,2.0076208E2,4.6926962E2,9.060287E3,1.1888343E4,1.1416651E4,1.1186866E4,2.1667633E4,4.810923E4,2.8264814E4,4.0221375E4,6.652056E2,4.1834183E1,1.1091437E3,2.0932915E2],"tree_param":{"num_deleted":"0","num_feature":"39","num_nodes":"127","size_leaf_vector":"1"}},{"base_weights":[-1.7773568E-3,-1.4548461E0,1.7390566E0,-1.6662767E0,1.1956012E0,1.4399314E0,1.8385433E0,-1.7549607E0,5.2645856E-1,8.99878E-1,1.5016749E0,1.2134227E0,1.5997642E0,1.7454956E0,1.8835565E0,-1.9378372E0,-1.5382729E0,6.8929684E-1,-1.3478164E-1,6.236721E-1,1.2675556E0,1.3906254E0,1.7065384E0,9.313197E-1,1.3507415E0,1.5257895E0,1.7169017E0,1.6513337E0,1.7955483E0,1.8877681E0,1.588163E0,-1.80336E0,-1.9625636E0,-1.830009E0,-1.3232952E0,7.925477E-2,8.2816476E-1,-5.9982675E-1,6.519347E-2,3.2878268E-1,8.546473E-1,8.191515E-1,1.3905101E0,1.1606686E0,1.4782999E0,1.746499E0,1.3176329E0,1.1442069E0,5.4769367E-1,1.3921235E0,6.17244E-1,1.4513146E0,1.6188377E0,1.6696006E0,1.7882829E0,1.6714983E0,1.1555767E0,1.7627461E0,1.8240355E0,1.8537587E0,1.9163984E0,1.3578566E0,1.7445145E0,-5.512253E-1,-4.0543184E-1,-5.682396E-1,-5.929444E-1,-1.03847414E-1,-5.5304086E-1,-4.4111192E-1,-2.419057E-1,-3.1936985E-2,2.9205927E-1,1.3542813E-1,3.0599433E-1,-2.5195444E-1,3.356525E-2,-4.3512434E-1,4.0309943E-2,5.8863264E-2,2.9556832E-1,9.063115E-2,2.7832663E-1,9.678736E-2,2.916482E-1,3.731161E-1,4.6142724E-1,3.3186883E-1,5.250474E-1,3.992192E-1,4.7000703E-1,4.954105E-1,5.508402E-1,3.483361E-1,5.513271E-1,2.9042467E-1,4.5599273E-1,-3.7130438E-2,2.0226943E-1,3.932465E-1,4.8466688E-1,-8.2602285E-2,2.5526044E-1,3.866643E-1,4.501123E-1,4.4051176E-1,4.9551266E-1,4.4055858E-1,5.06614E-1,5.096249E-1,5.457628E-1,4.8533022E-1,5.209736E-1,2.3968689E-1,4.180309E-1,5.190738E-1,5.436081E-1,5.488822E-1,5.157991E-1,5.4135084E-1,5.6241786E-1,5.6808275E-1,5.796852E-1,4.2546082E-1,2.070802E-1,2.5275984E-1,5.266598E-1],"categories":[],"categories_nodes":[],"categories_segments":[],"categories_sizes":[],"default_left":[0,0,0,0,0,0,0,0,0,0,0,0,0,0,0,0,0,0,0,0,0,0,0,0,0,0,0,0,0,0,0,0,0,0,0,0,0,0,0,0,0,0,0,0,0,0,0,0,0,0,0,0,0,0,0,0,0,0,0,0,0,0,0,0,0,0,0,0,0,0,0,0,0,0,0,0,0,0,0,0,0,0,0,0,0,0,0,0,0,0,0,0,0,0,0,0,0,0,0,0,0,0,0,0,0,0,0,0,0,0,0,0,0,0,0,0,0,0,0,0,0,0,0,0,0,0,0],"id":1,"left_children":[1,3,5,7,9,11,13,15,17,19,21,23,25,27,29,31,33,35,37,39,41,43,45,47,49,51,53,55,57,59,61,63,65,67,69,71,73,75,77,79,81,83,85,87,89,91,93,95,97,99,101,103,105,107,109,111,113,115,117,119,121,123,125,-1,-1,-1,-1,-1,-1,-1,-1,-1,-1,-1,-1,-1,-1,-1,-1,-1,-1,-1,-1,-1,-1,-1,-1,-1,-1,-1,-1,-1,-1,-1,-1,-1,-1,-1,-1,-1,-1,-1,-1,-1,-1,-1,-1,-1,-1,-1,-1,-1,-1,-1,-1,-1,-1,-1,-1,-1,-1,-1,-1,-1,-1,-1,-1],"loss_changes":[1.0238713E6,1.23632125E5,5.477375E3,3.9732688E4,1.4739512E3,1.6621484E3,5.7553125E2,7.7788125E3,8.5536475E2,8.413345E2,1.798086E2,7.355469E2,2.3086719E2,2.0945312E2,1.128125E2,3.505625E2,5.634828E3,5.398816E2,1.4608138E2,3.2237622E2,1.949248E2,1.030918E2,4.137744E1,5.0820654E2,3.873828E2,1.1216406E2,3.2203125E1,1.5455469E2,2.4265625E1,8.584375E1,4.4992676E1,2.5226953E2,8.1875E1,7.609922E2,3.9336719E3,1.9656564E2,3.747163E2,8.0778885E1,1.1542019E2,1.8102274E2,1.0700305E2,5.801184E1,5.85166E1,4.426123E1,4.695703E1,1.8674316E1,1.9516296E1,2.6365088E2,1.8917102E2,2.178086E2,1.4305112E2,7.12832E1,3.3865234E1,2.1666016E1,8.371094E0,4.978125E1,5.106012E1,1.88125E1,6.0195312E0,4E1,1.4359375E1,2.0629456E1,6.2717285E0,0E0,0E0,0E0,0E0,0E0,0E0,0E0,0E0,0E0,0E0,0E0,0E0,0E0,0E0,0E0,0E0,0E0,0E0,0E0,0E0,0E0,0E0,0E0,0E0,0E0,0E0,0E0,0E0,0E0,0E0,0E0,0E0,0E0,0E0,0E0,0E0,0E0,0E0,0E0,0E0,0E0,0E0,0E0,0E0,0E0,0E0,0E0,0E0,0E0,0E0,0E0,0E0,0E0,0E0,0E0,0E0,0E0,0E0,0E0,0E0,0E0,0E0,0E0,0E0],"parents":[2147483647,0,0,1,1,2,2,3,3,4,4,5,5,6,6,7,7,8,8,9,9,10,10,11,11,12,12,13,13,14,14,15,15,16,16,17,17,18,18,19,19,20,20,21,21,22,22,23,23,24,24,25,25,26,26,27,27,28,28,29,29,30,30,31,31,32,32,33,33,34,34,35,35,36,36,37,37,38,38,39,39,40,40,41,41,42,42,43,43,44,44,45,45,46,46,47,47,48,48,49,49,50,50,51,51,52,52,53,53,54,54,55,55,56,56,57,57,58,58,59,59,60,60,61,61,62,62],"right_children":[2,4,6,8,10,12,14,16,18,20,22,24,26,28,30,32,34,36,38,40,42,44,46,48,50,52,54,56,58,60,62,64,66,68,70,72,74,76,78,80,82,84,86,88,90,92,94,96,98,100,102,104,106,108,110,112,114,116,118,120,122,124,126,-1,-1,-1,-1,-1,-1,-1,-1,-1,-1,-1,-1,-1,-1,-1,-1,-1,-1,-1,-1,-1,-1,-1,-1,-1,-1,-1,-1,-1,-1,-1,-1,-1,-1,-1,-1,-1,-1,-1,-1,-1,-1,-1,-1,-1,-1,-1,-1,-1,-1,-1,-1,-1,-1,-1,-1,-1,-1,-1,-1,-1,-1,-1,-1],"split_conditions":[1E-1,1E-1,8E-1,1E-1,7E-1,2E-1,2E0,1.24479264E-1,5.9249413E1,2E-1,1.2E0,2E-1,1.3E0,5E-1,1.967429E1,1.8366667E1,6.3833332E1,1.2986343E1,2E-1,2E-1,9.205414E0,7.95E1,2.1961248E1,4.4923283E1,1.967429E1,6E-1,1.5E0,7.479003E1,1E0,3.9E0,4E-1,2.024795E0,-9.326545E-1,1.4E1,1.2356918E0,1.061693E1,3E-1,2.1365855E0,4.4333332E1,7.69E2,6.55E1,1.02E1,1E0,1.1127577E2,1.4E0,2.5E0,1.87E1,5E-1,-2.01E2,9E-1,5.8666668E1,2E-1,1.3E1,1.3E1,8.560624E0,6E-1,2.2E1,2E0,2.4210604E1,7.01E-1,2.2E0,7.69E2,2.85E0,-5.512253E-1,-4.0543184E-1,-5.682396E-1,-5.929444E-1,-1.03847414E-1,-5.5304086E-1,-4.4111192E-1,-2.419057E-1,-3.1936985E-2,2.9205927E-1,1.3542813E-1,3.0599433E-1,-2.5195444E-1,3.356525E-2,-4.3512434E-1,4.0309943E-2,5.8863264E-2,2.9556832E-1,9.063115E-2,2.7832663E-1,9.678736E-2,2.916482E-1,3.731161E-1,4.6142724E-1,3.3186883E-1,5.250474E-1,3.992192E-1,4.7000703E-1,4.954105E-1,5.508402E-1,3.483361E-1,5.513271E-1,2.9042467E-1,4.5599273E-1,-3.7130438E-2,2.0226943E-1,3.932465E-1,4.8466688E-1,-8.2602285E-2,2.5526044E-1,3.866643E-1,4.501123E-1,4.4051176E-1,4.9551266E-1,4.4055858E-1,5.06614E-1,5.096249E-1,5.457628E-1,4.8533022E-1,5.209736E-1,2.3968689E-1,4.180309E-1,5.190738E-1,5.436081E-1,5.488822E-1,5.157991E-1,5.4135084E-1,5.6241786E-1,5.6808275E-1,5.796852E-1,4.2546082E-1,2.070802E-1,2.5275984E-1,5.266598E-1],"split_indices":[0,8,0,16,8,8,0,38,29,16,16,0,8,8,32,2,3,33,16,8,32,3,33,27,32,16,16,25,16,0,8,7,37,19,7,32,16,15,11,24,3,5,16,29,8,8,10,16,28,16,11,0,24,30,32,16,24,8,33,8,8,30,18,0,0,0,0,0,0,0,0,0,0,0,0,0,0,0,0,0,0,0,0,0,0,0,0,0,0,0,0,0,0,0,0,0,0,0,0,0,0,0,0,0,0,0,0,0,0,0,0,0,0,0,0,0,0,0,0,0,0,0,0,0,0,0,0],"split_type":[0,0,0,0,0,0,0,0,0,0,0,0,0,0,0,0,0,0,0,0,0,0,0,0,0,0,0,0,0,0,0,0,0,0,0,0,0,0,0,0,0,0,0,0,0,0,0,0,0,0,0,0,0,0,0,0,0,0,0,0,0,0,0,0,0,0,0,0,0,0,0,0,0,0,0,0,0,0,0,0,0,0,0,0,0,0,0,0,0,0,0,0,0,0,0,0,0,0,0,0,0,0,0,0,0,0,0,0,0,0,0,0,0,0,0,0,0,0,0,0,0,0,0,0,0,0,0],"sum_hessian":[4.0476197E5,2.2061525E5,1.8414672E5,2.0431692E5,1.6298326E4,4.5963723E4,1.38183E5,1.9637486E5,7.9420664E3,8.291326E3,8.007E3,1.9019152E4,2.694457E4,4.5065996E4,9.3117E4,1.0649174E5,8.988312E4,6.3726763E3,1.5693901E3,4.7361465E3,3.5551797E3,5.1974375E3,2.8095625E3,6.2294253E3,1.2789728E4,1.6523592E4,1.0420979E4,1.5652894E4,2.9413102E4,9.180272E4,1.3142863E3,1.6551078E4,8.9940664E4,3.8130496E4,5.1752617E4,1.1819556E3,5.1907207E3,4.713227E2,1.0980675E3,2.0813186E3,2.654828E3,7.667121E2,2.7884678E3,1.4385587E3,3.758879E3,2.5446099E3,2.6495248E2,4.0049558E3,2.2244695E3,1.2105852E4,6.838766E2,9.186999E3,7.3365923E3,6.2823447E3,4.138634E3,1.5038826E4,6.1406744E2,1.3700401E4,1.57127E4,4.1989637E4,4.981308E4,5.353695E2,7.789168E2,1.538832E4,1.1627588E3,1.5223683E4,7.4716984E4,3.4302676E2,3.778747E4,4.02882E4,1.146442E4,9.794396E2,2.0251604E2,1.7523546E3,3.4383662E3,3.523232E2,1.1899948E2,4.7057224E1,1.0510103E3,1.7326929E3,3.486256E2,3.1081937E2,2.3440083E3,1.8134415E2,5.853679E2,1.4027056E3,1.3857621E3,1.3195731E3,1.1898559E2,1.4140863E3,2.3447927E3,1.2438838E3,1.3007262E3,2.0615108E2,5.8801388E1,2.7292969E3,1.2756592E3,3.5273465E2,1.8717349E3,8.881103E3,3.2247485E3,1.418283E2,5.4204834E2,2.13742E3,7.049579E3,1.3235972E3,6.012995E3,5.520853E2,5.73026E3,1.0768962E3,3.0617378E3,8.251862E3,6.786964E3,2.4744073E2,3.666267E2,8.277543E3,5.4228584E3,1.4903201E4,8.094993E2,1.2563379E4,2.9426258E4,2.0509953E4,2.9303127E4,4.8995605E2,4.5413437E1,1.0334885E1,7.685819E2],"tree_param":{"num_deleted":"0","num_feature":"39","num_nodes":"127","size_leaf_vector":"1"}},{"base_weights":[-4.201873E-3,-1.3235186E0,1.5911729E0,-1.5270631E0,9.6482694E-1,1.2347612E0,1.7393439E0,-1.6209459E0,3.87263E-1,7.3120874E-1,1.3437319E0,1.0382075E0,1.4586017E0,1.6370523E0,1.82393E0,-1.8917922E0,-1.3319374E0,6.2855184E-1,1.1060598E-1,5.310923E-1,1.1292971E0,1.2156969E0,1.5734334E0,7.589899E-1,1.1585962E0,1.3948956E0,1.6032523E0,1.5229414E0,1.7067443E0,1.828982E0,1.4587877E0,-1.6715503E0,-1.9323689E0,-1.7272601E0,-1.0845159E0,-5.917634E-2,7.912905E-1,-2.6874486E-1,2.7775887E-1,-5.581969E-2,6.230433E-1,8.3704823E-1,1.2853917E0,1.3148358E0,9.0166235E-1,1.6281561E0,1.1167173E0,6.19016E-1,1.2386872E0,6.106932E-1,1.2144802E0,1.2829977E0,1.4773259E0,1.3606731E0,1.6336223E0,1.5467747E0,1.0176828E0,1.6522244E0,1.7374711E0,1.7865883E0,1.8639998E0,1.2128108E0,1.6320947E0,-5.87204E-1,-4.687944E-1,-5.8399993E-1,-5.1685196E-1,-5.3244686E-1,-3.158141E-1,-3.795419E-1,-1.572964E-1,-2.6601365E-1,4.5011833E-2,-1.749736E-1,2.5146934E-1,-2.1985401E-1,-1.320855E-3,1.11380905E-1,-1.13503166E-1,-7.269767E-2,1.6720983E-1,7.613506E-2,2.1818762E-1,2.1707907E-1,3.858159E-1,4.2446148E-1,3.3167443E-1,-3.1805664E-2,3.9890656E-1,1.8510853E-1,3.4329265E-1,1.3236874E-1,4.9170476E-1,3.7668967E-1,4.5158908E-2,2.4228138E-1,9.806425E-2,1.0122003E-1,3.9192086E-1,2.2389842E-3,2.2059019E-1,3.348845E-1,4.21051E-1,3.0685174E-1,4.0816936E-1,4.2720798E-1,4.7137135E-1,1.1909948E-1,4.1571167E-1,4.9504918E-1,4.106055E-1,4.4095144E-1,4.9072823E-1,2.0089333E-1,3.7689552E-1,4.848727E-1,5.18625E-1,5.153299E-1,5.350255E-1,5.256859E-1,5.490903E-1,5.527347E-1,5.707558E-1,3.7080386E-1,-4.207612E-1,8.321288E-2,4.9487028E-1],"categories":[],"categories_nodes":[],"categories_segments":[],"categories_sizes":[],"default_left":[0,0,0,0,0,0,0,0,0,0,0,0,0,0,0,0,0,0,0,0,0,0,0,0,0,0,0,0,0,0,0,0,0,0,0,0,0,0,0,0,0,0,0,0,0,0,0,0,0,0,0,0,0,0,0,0,0,0,0,0,0,0,0,0,0,0,0,0,0,0,0,0,0,0,0,0,0,0,0,0,0,0,0,0,0,0,0,0,0,0,0,0,0,0,0,0,0,0,0,0,0,0,0,0,0,0,0,0,0,0,0,0,0,0,0,0,0,0,0,0,0,0,0,0,0,0,0],"id":2,"left_children":[1,3,5,7,9,11,13,15,17,19,21,23,25,27,29,31,33,35,37,39,41,43,45,47,49,51,53,55,57,59,61,63,65,67,69,71,73,75,77,79,81,83,85,87,89,91,93,95,97,99,101,103,105,107,109,111,113,115,117,119,121,123,125,-1,-1,-1,-1,-1,-1,-1,-1,-1,-1,-1,-1,-1,-1,-1,-1,-1,-1,-1,-1,-1,-1,-1,-1,-1,-1,-1,-1,-1,-1,-1,-1,-1,-1,-1,-1,-1,-1,-1,-1,-1,-1,-1,-1,-1,-1,-1,-1,-1,-1,-1,-1,-1,-1,-1,-1,-1,-1,-1,-1,-1,-1,-1,-1],"loss_changes":[6.8553975E5,8.303853E4,7.7834688E3,2.9423594E4,1.2880859E3,1.9033438E3,8.98E2,1.2213375E4,5.1089038E2,7.172207E2,1.6140137E2,7.7414844E2,1.8428125E2,3.723125E2,1.0246875E2,7.1671875E2,7.3830938E3,4.5760876E2,2.2625943E2,3.237395E2,1.3639111E2,1.09958984E2,4.7769043E1,4.6582666E2,4.9247852E2,1.2778516E2,4.3319336E1,2.1379297E2,4.6148438E1,8.0109375E1,3.1385986E1,3.872422E2,2.0040625E2,9.305469E2,4.6983984E3,1.3573727E2,2.1380103E2,1.3390614E2,1.5208191E2,9.3153435E1,1.994425E2,5.265912E1,4.412378E1,5.7356934E1,5.8675232E1,2.208545E1,2.873108E1,2.9621265E2,9.529736E1,1.12213135E2,2.6974023E2,1.19106445E2,3.825E1,1.6186768E1,2.1795898E1,1.1450781E2,6.63114E1,2.6304688E1,1.3855469E1,3.4953125E1,2.2023438E1,2.1601044E1,1.0343018E1,0E0,0E0,0E0,0E0,0E0,0E0,0E0,0E0,0E0,0E0,0E0,0E0,0E0,0E0,0E0,0E0,0E0,0E0,0E0,0E0,0E0,0E0,0E0,0E0,0E0,0E0,0E0,0E0,0E0,0E0,0E0,0E0,0E0,0E0,0E0,0E0,0E0,0E0,0E0,0E0,0E0,0E0,0E0,0E0,0E0,0E0,0E0,0E0,0E0,0E0,0E0,0E0,0E0,0E0,0E0,0E0,0E0,0E0,0E0,0E0,0E0,0E0,0E0,0E0],"parents":[2147483647,0,0,1,1,2,2,3,3,4,4,5,5,6,6,7,7,8,8,9,9,10,10,11,11,12,12,13,13,14,14,15,15,16,16,17,17,18,18,19,19,20,20,21,21,22,22,23,23,24,24,25,25,26,26,27,27,28,28,29,29,30,30,31,31,32,32,33,33,34,34,35,35,36,36,37,37,38,38,39,39,40,40,41,41,42,42,43,43,44,44,45,45,46,46,47,47,48,48,49,49,50,50,51,51,52,52,53,53,54,54,55,55,56,56,57,57,58,58,59,59,60,60,61,61,62,62],"right_children":[2,4,6,8,10,12,14,16,18,20,22,24,26,28,30,32,34,36,38,40,42,44,46,48,50,52,54,56,58,60,62,64,66,68,70,72,74,76,78,80,82,84,86,88,90,92,94,96,98,100,102,104,106,108,110,112,114,116,118,120,122,124,126,-1,-1,-1,-1,-1,-1,-1,-1,-1,-1,-1,-1,-1,-1,-1,-1,-1,-1,-1,-1,-1,-1,-1,-1,-1,-1,-1,-1,-1,-1,-1,-1,-1,-1,-1,-1,-1,-1,-1,-1,-1,-1,-1,-1,-1,-1,-1,-1,-1,-1,-1,-1,-1,-1,-1,-1,-1,-1,-1,-1,-1,-1,-1,-1],"split_conditions":[1E-1,1E-1,9E-1,1E-1,1E0,4E-1,2.7E0,1.24479264E-1,3.2063072E1,4E-1,1.2E0,2E-1,2E0,7E-1,1.967429E1,1.88E1,6.3166668E1,7.0833336E1,2E-1,7.0709934E0,1.061693E1,1.963332E1,2.1877853E1,7.01E-1,-2.01E2,4E-1,1.6E1,1.967429E1,1.5E0,2.2E0,5E-1,7.894179E-1,2.075467E0,4.6023183E0,1.1879478E0,5.95E1,2.5702798E0,2.5136532E1,7.589207E1,1.67E1,7.3666664E1,3.2301207E0,1.837129E1,2.5702798E0,1.7485521E1,7.6166664E1,9.7833336E1,4.4923283E1,-3E0,4.91E2,6E-1,7.5004067E0,1.2E0,1.0333333E0,2.4210604E1,6E-1,7.0666664E1,2.1E0,2.6E0,4.8E0,6.1E0,2.55E1,2.85E0,-5.87204E-1,-4.687944E-1,-5.8399993E-1,-5.1685196E-1,-5.3244686E-1,-3.158141E-1,-3.795419E-1,-1.572964E-1,-2.6601365E-1,4.5011833E-2,-1.749736E-1,2.5146934E-1,-2.1985401E-1,-1.320855E-3,1.11380905E-1,-1.13503166E-1,-7.269767E-2,1.6720983E-1,7.613506E-2,2.1818762E-1,2.1707907E-1,3.858159E-1,4.2446148E-1,3.3167443E-1,-3.1805664E-2,3.9890656E-1,1.8510853E-1,3.4329265E-1,1.3236874E-1,4.9170476E-1,3.7668967E-1,4.5158908E-2,2.4228138E-1,9.806425E-2,1.0122003E-1,3.9192086E-1,2.2389842E-3,2.2059019E-1,3.348845E-1,4.21051E-1,3.0685174E-1,4.0816936E-1,4.2720798E-1,4.7137135E-1,1.1909948E-1,4.1571167E-1,4.9504918E-1,4.106055E-1,4.4095144E-1,4.9072823E-1,2.0089333E-1,3.7689552E-1,4.848727E-1,5.18625E-1,5.153299E-1,5.350255E-1,5.256859E-1,5.490903E-1,5.527347E-1,5.707558E-1,3.7080386E-1,-4.207612E-1,8.321288E-2,4.9487028E-1],"split_indices":[0,8,0,16,8,8,0,38,25,16,16,0,8,8,32,4,3,3,16,32,32,33,33,16,28,0,30,32,0,8,8,37,7,6,15,3,32,34,29,12,3,15,27,32,32,19,11,27,28,26,16,32,16,1,33,16,11,16,16,0,0,13,18,0,0,0,0,0,0,0,0,0,0,0,0,0,0,0,0,0,0,0,0,0,0,0,0,0,0,0,0,0,0,0,0,0,0,0,0,0,0,0,0,0,0,0,0,0,0,0,0,0,0,0,0,0,0,0,0,0,0,0,0,0,0,0,0],"split_type":[0,0,0,0,0,0,0,0,0,0,0,0,0,0,0,0,0,0,0,0,0,0,0,0,0,0,0,0,0,0,0,0,0,0,0,0,0,0,0,0,0,0,0,0,0,0,0,0,0,0,0,0,0,0,0,0,0,0,0,0,0,0,0,0,0,0,0,0,0,0,0,0,0,0,0,0,0,0,0,0,0,0,0,0,0,0,0,0,0,0,0,0,0,0,0,0,0,0,0,0,0,0,0,0,0,0,0,0,0,0,0,0,0,0,0,0,0,0,0,0,0,0,0,0,0,0,0],"sum_hessian":[3.2570028E5,1.782742E5,1.474261E5,1.6371258E5,1.4561624E4,4.3294477E4,1.0413162E5,1.5605923E5,7.653341E3,9.009589E3,5.552036E3,2.305531E4,2.0239164E4,4.7142156E4,5.6989465E4,8.055814E4,7.55011E4,4.0872966E3,3.566044E3,5.9971797E3,3.012409E3,3.5689863E3,1.9830496E3,6.9480312E3,1.610728E4,1.405832E4,6.1808433E3,1.788341E4,2.9258746E4,5.620778E4,7.816827E2,1.2539346E4,6.801879E4,2.90615E4,4.6439598E4,7.822349E2,3.3050618E3,1.0905195E3,2.4755244E3,8.123626E2,5.184817E3,1.0510107E3,1.9613983E3,2.7102039E3,8.5878253E2,1.768578E3,2.1447154E2,5.3803545E3,1.5676764E3,1.4919258E3,1.46153545E4,5.970302E3,8.0880186E3,6.928135E2,5.48803E3,1.707587E4,8.0754E2,1.0565916E4,1.869283E4,2.544968E4,3.0758102E4,3.2640704E2,4.5527567E2,3.45508E3,9.084266E3,6.366614E4,4.3526504E3,2.7145803E4,1.9156984E3,3.511591E4,1.13236875E4,1.57201E2,6.2503394E2,1.0876379E2,3.1962979E3,3.9509103E2,6.954285E2,2.1670942E3,3.084302E2,6.2336536E2,1.8899725E2,1.142257E3,4.04256E3,8.410992E2,2.0991147E2,1.1362942E3,8.2510406E2,2.7974085E1,2.6822297E3,3.9682913E2,4.619534E2,1.6412249E1,1.7521658E3,1.872499E2,2.7221653E1,3.2685623E3,2.1117925E3,1.0997002E2,1.4577064E3,2.556025E2,1.2363232E3,9.623041E3,4.992313E3,1.3744801E3,4.595822E3,5.1699785E3,2.91804E3,1.7967659E1,6.748458E2,5.1605947E3,3.2743515E2,9.16735E3,7.90852E3,3.300233E2,4.775167E2,7.2017812E3,3.3641345E3,1.3109193E4,5.5836377E3,1.4282843E4,1.1166837E4,1.9754535E4,1.1003566E4,3.2405954E2,2.3474889E0,6.012134E0,4.4926352E2],"tree_param":{"num_deleted":"0","num_feature":"39","num_nodes":"127","size_leaf_vector":"1"}},{"base_weights":[-7.2642905E-3,-1.1617721E0,1.3962952E0,-1.3518249E0,7.465456E-1,1.0331196E0,1.6051868E0,-1.8030187E0,-9.732011E-1,5.00108E-1,1.0476413E0,7.820317E-1,1.2101325E0,1.4731474E0,1.7104691E0,-1.8208213E0,-5.400442E-3,-1.1046233E0,3.054639E-1,2.51635E-1,7.605062E-1,9.2595154E-1,1.3607026E0,6.092062E-1,1.0066975E0,1.1108267E0,1.3676826E0,1.3463895E0,1.5657004E0,1.6400613E0,1.7698994E0,-1.5159272E0,-1.8824663E0,4.2116463E-1,-3.9735222E-1,-1.4645486E0,-7.6456076E-1,1.7002872E-1,6.8835646E-1,-8.634986E-3,4.6350604E-1,3.1280228E-1,8.5941315E-1,7.159548E-1,1.0835108E0,6.196205E-1,1.4059016E0,7.360913E-1,2.1147813E-1,1.0673285E0,4.2970747E-1,9.5343477E-1,1.2203038E0,1.2049291E0,1.4301516E0,1.3725326E0,7.8293604E-1,1.5345088E0,1.6404616E0,1.6530062E0,1.0892507E0,1.7359409E0,1.8294717E0,-4.7814736E-1,-2.098937E-1,-5.0257653E-1,-5.77679E-1,-1.6223875E-1,2.1314561E-1,-2.8686228E-1,-2.9649908E-2,-4.7210345E-1,-1.9142458E-1,-1.2951796E-1,-3.544147E-1,1.0021246E-1,-3.0362971E-2,2.7168807E-1,1.2490838E-1,-7.40327E-2,1.1407812E-1,1.6939239E-1,1.1957611E-2,1.5317352E-1,-4.5773763E-2,1.186311E-1,2.8853574E-1,1.7745882E-1,3.1424055E-1,4.6855965E-1,3.085528E-1,-3.3236094E-2,2.6946446E-1,3.3674523E-1,4.518229E-1,1.6410884E-1,3.0461034E-1,-1.7943013E-1,7.832217E-2,2.885581E-1,3.7504503E-1,2.8443137E-1,8.810115E-2,2.1304308E-1,3.1560963E-1,3.4575504E-1,4.0670243E-1,2.2248131E-1,3.732682E-1,3.8845846E-1,4.47411E-1,3.7403452E-1,4.3378657E-1,3.143337E-1,1.3373579E-1,4.39718E-1,4.7044468E-1,4.9604955E-1,4.1311207E-1,4.8053E-1,5.1603496E-1,3.5416675E-1,2.0274064E-1,5.1144356E-1,5.2959406E-1,5.247997E-1,5.5183643E-1],"categories":[],"categories_nodes":[],"categories_segments":[],"categories_sizes":[],"default_left":[0,0,0,0,0,0,0,0,0,0,0,0,0,0,0,0,0,0,0,0,0,0,0,0,0,0,0,0,0,0,0,0,0,0,0,0,0,0,0,0,0,0,0,0,0,0,0,0,0,0,0,0,0,0,0,0,0,0,0,0,0,0,0,0,0,0,0,0,0,0,0,0,0,0,0,0,0,0,0,0,0,0,0,0,0,0,0,0,0,0,0,0,0,0,0,0,0,0,0,0,0,0,0,0,0,0,0,0,0,0,0,0,0,0,0,0,0,0,0,0,0,0,0,0,0,0,0],"id":3,"left_children":[1,3,5,7,9,11,13,15,17,19,21,23,25,27,29,31,33,35,37,39,41,43,45,47,49,51,53,55,57,59,61,63,65,67,69,71,73,75,77,79,81,83,85,87,89,91,93,95,97,99,101,103,105,107,109,111,113,115,117,119,121,123,125,-1,-1,-1,-1,-1,-1,-1,-1,-1,-1,-1,-1,-1,-1,-1,-1,-1,-1,-1,-1,-1,-1,-1,-1,-1,-1,-1,-1,-1,-1,-1,-1,-1,-1,-1,-1,-1,-1,-1,-1,-1,-1,-1,-1,-1,-1,-1,-1,-1,-1,-1,-1,-1,-1,-1,-1,-1,-1,-1,-1,-1,-1,-1,-1],"loss_changes":[4.3944338E5,5.396689E4,9.2836875E3,2.311539E4,9.9951807E2,1.9855664E3,1.0776094E3,1.9758594E3,1.2365E4,4.7946497E2,2.2979785E2,7.170674E2,4.0859375E2,4.02375E2,1.7796094E2,1.1462188E3,1.0156355E2,8.1654688E3,3.555453E2,2.0927536E2,1.5999756E2,1.4383301E2,5.592285E1,5.271929E2,2.8063232E2,2.759707E2,1.0126953E2,2.1335547E2,4.3933594E1,1.3935938E2,4.421875E1,6.530078E2,4.5123438E2,8.1344284E1,5.2718338E1,2.922414E3,4.759369E3,2.254811E2,1.05509094E2,1.5790245E2,8.961246E1,6.0500328E1,1.4039722E2,7.678223E1,6.404028E1,2.0296608E1,4.3658203E1,4.1772266E2,1.01691574E2,1.3898047E2,5.3720566E1,1.5763379E2,8.5450195E1,5.0352295E1,5.8652344E1,1.2663086E2,5.737558E1,3.0261719E1,1.7813477E1,6.3757812E1,1.6474365E1,1.0652344E1,3.5703125E0,0E0,0E0,0E0,0E0,0E0,0E0,0E0,0E0,0E0,0E0,0E0,0E0,0E0,0E0,0E0,0E0,0E0,0E0,0E0,0E0,0E0,0E0,0E0,0E0,0E0,0E0,0E0,0E0,0E0,0E0,0E0,0E0,0E0,0E0,0E0,0E0,0E0,0E0,0E0,0E0,0E0,0E0,0E0,0E0,0E0,0E0,0E0,0E0,0E0,0E0,0E0,0E0,0E0,0E0,0E0,0E0,0E0,0E0,0E0,0E0,0E0,0E0,0E0,0E0],"parents":[2147483647,0,0,1,1,2,2,3,3,4,4,5,5,6,6,7,7,8,8,9,9,10,10,11,11,12,12,13,13,14,14,15,15,16,16,17,17,18,18,19,19,20,20,21,21,22,22,23,23,24,24,25,25,26,26,27,27,28,28,29,29,30,30,31,31,32,32,33,33,34,34,35,35,36,36,37,37,38,38,39,39,40,40,41,41,42,42,43,43,44,44,45,45,46,46,47,47,48,48,49,49,50,50,51,51,52,52,53,53,54,54,55,55,56,56,57,57,58,58,59,59,60,60,61,61,62,62],"right_children":[2,4,6,8,10,12,14,16,18,20,22,24,26,28,30,32,34,36,38,40,42,44,46,48,50,52,54,56,58,60,62,64,66,68,70,72,74,76,78,80,82,84,86,88,90,92,94,96,98,100,102,104,106,108,110,112,114,116,118,120,122,124,126,-1,-1,-1,-1,-1,-1,-1,-1,-1,-1,-1,-1,-1,-1,-1,-1,-1,-1,-1,-1,-1,-1,-1,-1,-1,-1,-1,-1,-1,-1,-1,-1,-1,-1,-1,-1,-1,-1,-1,-1,-1,-1,-1,-1,-1,-1,-1,-1,-1,-1,-1,-1,-1,-1,-1,-1,-1,-1,-1,-1,-1,-1,-1,-1],"split_conditions":[1E-1,1E-1,1.1E0,1.07381344E-1,7E-1,2E-1,2.8E0,1E-1,1E-1,1E-1,1.5E0,4E-1,1.3E0,9E-1,2.2E0,1.8366667E1,2.4065805E1,7.0833336E1,1.3E0,2E-1,7.6591244E0,8.5333336E1,1.9328351E0,5.9095806E1,7.589207E1,4E-1,2E-1,1.967429E1,2.6E0,1.967429E1,6.1E0,2.024795E0,-9.326545E-1,2E-1,2.8333333E0,3.9379969E0,4.4923283E1,4.4923283E1,1.837129E1,4.0833335E0,5.1226803E1,5.0242226E1,7.45E1,2.9E0,1.2430738E0,1.280872E0,8.1666664E1,2E-1,-2.53E2,5E-1,9.734379E-1,7.6591244E0,1.2E0,-3E0,8.560624E0,2E-1,5.846085E1,1.6E0,2.4210604E1,1.6E0,7.02E2,2.3E0,3.6642609E0,-4.7814736E-1,-2.098937E-1,-5.0257653E-1,-5.77679E-1,-1.6223875E-1,2.1314561E-1,-2.8686228E-1,-2.9649908E-2,-4.7210345E-1,-1.9142458E-1,-1.2951796E-1,-3.544147E-1,1.0021246E-1,-3.0362971E-2,2.7168807E-1,1.2490838E-1,-7.40327E-2,1.1407812E-1,1.6939239E-1,1.1957611E-2,1.5317352E-1,-4.5773763E-2,1.186311E-1,2.8853574E-1,1.7745882E-1,3.1424055E-1,4.6855965E-1,3.085528E-1,-3.3236094E-2,2.6946446E-1,3.3674523E-1,4.518229E-1,1.6410884E-1,3.0461034E-1,-1.7943013E-1,7.832217E-2,2.885581E-1,3.7504503E-1,2.8443137E-1,8.810115E-2,2.1304308E-1,3.1560963E-1,3.4575504E-1,4.0670243E-1,2.2248131E-1,3.732682E-1,3.8845846E-1,4.47411E-1,3.7403452E-1,4.3378657E-1,3.143337E-1,1.3373579E-1,4.39718E-1,4.7044468E-1,4.9604955E-1,4.1311207E-1,4.8053E-1,5.1603496E-1,3.5416675E-1,2.0274064E-1,5.1144356E-1,5.2959406E-1,5.247997E-1,5.5183643E-1],"split_indices":[0,8,0,38,8,8,0,16,16,16,16,0,8,8,8,2,34,3,16,8,32,3,25,29,29,0,16,32,16,32,0,7,37,16,9,6,27,27,27,1,27,25,3,8,27,22,3,16,24,16,22,32,16,24,32,16,27,0,33,16,30,16,25,0,0,0,0,0,0,0,0,0,0,0,0,0,0,0,0,0,0,0,0,0,0,0,0,0,0,0,0,0,0,0,0,0,0,0,0,0,0,0,0,0,0,0,0,0,0,0,0,0,0,0,0,0,0,0,0,0,0,0,0,0,0,0,0],"split_type":[0,0,0,0,0,0,0,0,0,0,0,0,0,0,0,0,0,0,0,0,0,0,0,0,0,0,0,0,0,0,0,0,0,0,0,0,0,0,0,0,0,0,0,0,0,0,0,0,0,0,0,0,0,0,0,0,0,0,0,0,0,0,0,0,0,0,0,0,0,0,0,0,0,0,0,0,0,0,0,0,0,0,0,0,0,0,0,0,0,0,0,0,0,0,0,0,0,0,0,0,0,0,0,0,0,0,0,0,0,0,0,0,0,0,0,0,0,0,0,0,0,0,0,0,0,0,0],"sum_hessian":[2.71189E5,1.4879598E5,1.22393016E5,1.3531955E5,1.3476425E4,4.4694246E4,7.7698766E4,6.1741004E4,7.357855E4,7.412325E3,6.064099E3,1.8482607E4,2.621164E4,3.4475906E4,4.322286E4,6.1135543E4,6.054622E2,6.672105E4,6.8575044E3,3.7940208E3,3.6183044E3,4.3695674E3,1.6945322E3,1.044864E4,8.0339683E3,1.608262E4,1.012902E4,1.4556002E4,1.9919902E4,1.9797314E4,2.3425545E4,1.028616E4,5.0849383E4,2.898936E2,3.1556863E2,3.2412281E4,3.4308766E4,5.066756E3,1.7907485E3,1.7029794E3,2.0910415E3,6.554704E2,2.962834E3,1.8754669E3,2.4941003E3,9.825478E1,1.5962773E3,7.9208433E3,2.5277969E3,7.269255E3,7.647134E2,6.601521E3,9.4811E3,2.815073E3,7.313947E3,1.3909208E4,6.467936E2,1.4070833E4,5.8490703E3,1.9340775E4,4.5654074E2,1.4939556E4,8.485989E3,9.3892E3,8.9695966E2,8.767485E3,4.2081895E4,6.68281E1,2.2306548E2,1.0910705E2,2.0646158E2,2.8630857E4,3.7814246E3,1.9077396E4,1.5231368E4,3.1573408E3,1.9094153E3,9.942275E2,7.96521E2,1.056435E3,6.4654425E2,1.6877906E3,4.032509E2,4.599187E2,1.955517E2,5.3643774E2,2.4263962E3,1.365678E3,5.097889E2,2.543749E2,2.2397253E3,2.7295328E1,7.095946E1,4.2005386E2,1.1762235E3,4.7250693E3,3.1957737E3,1.4527844E2,2.3825183E3,4.6138374E3,2.6554175E3,1.5771985E2,6.069935E2,1.9061791E3,4.695342E3,6.3239106E3,3.1571887E3,2.2165338E2,2.5934194E3,2.2854165E3,5.0285303E3,5.1340645E3,8.775144E3,3.610604E2,2.857332E2,4.6361357E3,9.434697E3,5.5682197E3,2.8085052E2,1.0981276E4,8.359499E3,3.7243707E2,8.410366E1,7.2815566E3,7.6579985E3,9.595202E2,7.526469E3],"tree_param":{"num_deleted":"0","num_feature":"39","num_nodes":"127","size_leaf_vector":"1"}},{"base_weights":[-1.0654685E-2,-9.817004E-1,1.1675144E0,-1.1522539E0,5.59274E-1,8.415042E-1,1.437829E0,-1.6874459E0,-7.663924E-1,4.1517392E-1,9.431417E-1,6.6324276E-1,1.0633904E0,1.3213959E0,1.5910362E0,-1.2343278E0,-1.7922913E0,-1.4355713E0,-5.3569233E-1,2.887339E-1,7.22895E-1,7.634956E-1,1.1351551E0,4.4761273E-1,8.0269635E-1,8.781214E-1,1.1366402E0,1.1695234E0,1.4058931E0,1.467049E0,1.642087E0,-1.8823888E0,-1.0344371E0,-1.477885E0,-1.8632314E0,3.6616912E-1,-1.5071064E0,-9.544067E-1,-2.5142166E-1,2.7071798E-2,4.044911E-1,4.7837934E-1,8.6912465E-1,3.7023363E-1,8.501163E-1,7.112683E-1,1.2537545E0,3.5008368E-1,8.6183095E-1,2.9225737E-1,8.535539E-1,7.879425E-1,1.1717016E0,1.0757575E0,1.2906387E0,1.210045E0,7.424119E-1,1.3583118E0,1.4835373E0,1.4265602E0,1.7083373E0,1.606125E0,1.7350665E0,-2.245412E-1,-5.7963836E-1,-5.230768E-1,-2.3121315E-1,-5.6330067E-1,-3.068714E-1,-5.6424415E-1,-2.3329465E-1,5.608432E-1,-5.9766585E-1,-4.893845E-1,-2.6562396E-1,-1.9614242E-1,-3.9115894E-1,-1.8184982E-1,2.2506401E-2,-5.2787542E-2,7.382225E-2,-1.3719222E-1,1.3280967E-1,1.1263304E-1,3.104912E-1,-1.2096594E-1,2.6945588E-1,-4.826125E-3,1.9391894E-1,-1.5629122E-1,2.609233E-1,1.0403159E-1,3.3328187E-1,4.4129038E-1,3.2564494E-1,1.7118105E-1,4.863899E-2,1.2028213E-1,2.9830217E-1,1.1037928E-1,-2.0841226E-1,2.9429415E-1,2.2102776E-1,1.416092E-1,2.5699648E-1,3.9807507E-1,2.8112605E-1,2.696143E-1,3.376911E-1,3.0977267E-1,4.000025E-1,3.3991736E-1,4.0887213E-1,1.6348326E-1,2.9417226E-1,3.8190058E-1,4.2140803E-1,4.4967276E-1,3.8337266E-1,4.3311098E-1,2.8211087E-1,3.513652E-2,5.186819E-1,4.6099868E-1,4.9158826E-1,4.732094E-1,5.259428E-1],"categories":[],"categories_nodes":[],"categories_segments":[],"categories_sizes":[],"default_left":[0,0,0,0,0,0,0,0,0,0,0,0,0,0,0,0,0,0,0,0,0,0,0,0,0,0,0,0,0,0,0,0,0,0,0,0,0,0,0,0,0,0,0,0,0,0,0,0,0,0,0,0,0,0,0,0,0,0,0,0,0,0,0,0,0,0,0,0,0,0,0,0,0,0,0,0,0,0,0,0,0,0,0,0,0,0,0,0,0,0,0,0,0,0,0,0,0,0,0,0,0,0,0,0,0,0,0,0,0,0,0,0,0,0,0,0,0,0,0,0,0,0,0,0,0,0,0],"id":4,"left_children":[1,3,5,7,9,11,13,15,17,19,21,23,25,27,29,31,33,35,37,39,41,43,45,47,49,51,53,55,57,59,61,63,65,67,69,71,73,75,77,79,81,83,85,87,89,91,93,95,97,99,101,103,105,107,109,111,113,115,117,119,121,123,125,-1,-1,-1,-1,-1,-1,-1,-1,-1,-1,-1,-1,-1,-1,-1,-1,-1,-1,-1,-1,-1,-1,-1,-1,-1,-1,-1,-1,-1,-1,-1,-1,-1,-1,-1,-1,-1,-1,-1,-1,-1,-1,-1,-1,-1,-1,-1,-1,-1,-1,-1,-1,-1,-1,-1,-1,-1,-1,-1,-1,-1,-1,-1,-1],"loss_changes":[2.68226E5,3.377889E4,9.333781E3,2.389525E4,7.080864E2,1.8986641E3,1.0308984E3,2.3007812E3,1.0379789E4,3.6218445E2,1.1968921E2,8.004219E2,2.8929297E2,4.206797E2,1.5584375E2,1.1784775E3,8.752656E2,2.2222812E3,5.951618E3,1.9999481E2,9.6547485E1,6.1296997E1,8.39314E1,4.2229956E2,4.1952832E2,1.596543E2,1.4231055E2,2.0281543E2,7.608594E1,6.88916E1,5.6398438E1,1.1963672E2,1.3015425E3,1.3171338E3,6.115E2,2.3403613E3,1.2784844E3,2.1231777E3,3.4492356E3,9.0141685E1,1.5093994E2,5.788353E1,6.306543E1,3.502991E1,4.03208E1,5.3688446E1,4.6543945E1,3.5092334E2,1.21315796E2,1.0979715E2,2.1812207E2,1.0038379E2,5.0584473E1,9.603906E1,4.6421875E1,1.24953125E2,4.7554504E1,5.0123047E1,2.3439453E1,5.0801758E1,3.4023438E1,2.6328125E1,1.1272461E1,0E0,0E0,0E0,0E0,0E0,0E0,0E0,0E0,0E0,0E0,0E0,0E0,0E0,0E0,0E0,0E0,0E0,0E0,0E0,0E0,0E0,0E0,0E0,0E0,0E0,0E0,0E0,0E0,0E0,0E0,0E0,0E0,0E0,0E0,0E0,0E0,0E0,0E0,0E0,0E0,0E0,0E0,0E0,0E0,0E0,0E0,0E0,0E0,0E0,0E0,0E0,0E0,0E0,0E0,0E0,0E0,0E0,0E0,0E0,0E0,0E0,0E0,0E0,0E0],"parents":[2147483647,0,0,1,1,2,2,3,3,4,4,5,5,6,6,7,7,8,8,9,9,10,10,11,11,12,12,13,13,14,14,15,15,16,16,17,17,18,18,19,19,20,20,21,21,22,22,23,23,24,24,25,25,26,26,27,27,28,28,29,29,30,30,31,31,32,32,33,33,34,34,35,35,36,36,37,37,38,38,39,39,40,40,41,41,42,42,43,43,44,44,45,45,46,46,47,47,48,48,49,49,50,50,51,51,52,52,53,53,54,54,55,55,56,56,57,57,58,58,59,59,60,60,61,61,62,62],"right_children":[2,4,6,8,10,12,14,16,18,20,22,24,26,28,30,32,34,36,38,40,42,44,46,48,50,52,54,56,58,60,62,64,66,68,70,72,74,76,78,80,82,84,86,88,90,92,94,96,98,100,102,104,106,108,110,112,114,116,118,120,122,124,126,-1,-1,-1,-1,-1,-1,-1,-1,-1,-1,-1,-1,-1,-1,-1,-1,-1,-1,-1,-1,-1,-1,-1,-1,-1,-1,-1,-1,-1,-1,-1,-1,-1,-1,-1,-1,-1,-1,-1,-1,-1,-1,-1,-1,-1,-1,-1,-1,-1,-1,-1,-1,-1,-1,-1,-1,-1,-1,-1,-1,-1,-1,-1,-1],"split_conditions":[1E-1,1E-1,1.4E0,1.07381344E-1,1.4E0,5E-1,3.8E0,1.8366667E1,5.9333332E1,5E-1,4E-1,3E-1,4E-1,7.01E-1,1.1E0,7.894179E-1,-9.326545E-1,1.7166666E1,2.05E0,9.844006E0,1.061693E1,2.1833334E0,8.560624E0,1E0,6.3833332E1,1.9E0,2.3E0,6.2093647E1,2.9E0,1.15E1,7.8E0,-6.3E1,6.7833336E1,-5.457437E-1,3.7770102E0,-4.481393E0,3.1438875E0,3.8909443E1,4.341817E-1,1.32E1,5.65E1,5.85E0,1E0,1.37E1,5.2166668E1,3.5E0,1.4856691E1,1.85E2,7.6591244E0,2.2560093E1,3.309216E1,7.0745783E0,2.4065805E1,2.2E1,1.6E1,1.4E0,3.72E2,2E0,2.4210604E1,1.884047E1,8.05E1,1.2E0,3.382091E0,-2.245412E-1,-5.7963836E-1,-5.230768E-1,-2.3121315E-1,-5.6330067E-1,-3.068714E-1,-5.6424415E-1,-2.3329465E-1,5.608432E-1,-5.9766585E-1,-4.893845E-1,-2.6562396E-1,-1.9614242E-1,-3.9115894E-1,-1.8184982E-1,2.2506401E-2,-5.2787542E-2,7.382225E-2,-1.3719222E-1,1.3280967E-1,1.1263304E-1,3.104912E-1,-1.2096594E-1,2.6945588E-1,-4.826125E-3,1.9391894E-1,-1.5629122E-1,2.609233E-1,1.0403159E-1,3.3328187E-1,4.4129038E-1,3.2564494E-1,1.7118105E-1,4.863899E-2,1.2028213E-1,2.9830217E-1,1.1037928E-1,-2.0841226E-1,2.9429415E-1,2.2102776E-1,1.416092E-1,2.5699648E-1,3.9807507E-1,2.8112605E-1,2.696143E-1,3.376911E-1,3.0977267E-1,4.000025E-1,3.3991736E-1,4.0887213E-1,1.6348326E-1,2.9417226E-1,3.8190058E-1,4.2140803E-1,4.4967276E-1,3.8337266E-1,4.3311098E-1,2.8211087E-1,3.513652E-2,5.186819E-1,4.6099868E-1,4.9158826E-1,4.732094E-1,5.259428E-1],"split_indices":[0,8,0,38,8,8,0,2,3,16,16,0,0,8,8,37,37,19,1,32,32,1,32,16,11,16,8,25,8,0,0,30,3,23,7,15,22,27,23,12,3,9,1,5,3,8,33,26,32,32,25,32,34,24,30,16,24,0,33,32,3,16,25,0,0,0,0,0,0,0,0,0,0,0,0,0,0,0,0,0,0,0,0,0,0,0,0,0,0,0,0,0,0,0,0,0,0,0,0,0,0,0,0,0,0,0,0,0,0,0,0,0,0,0,0,0,0,0,0,0,0,0,0,0,0,0,0],"split_type":[0,0,0,0,0,0,0,0,0,0,0,0,0,0,0,0,0,0,0,0,0,0,0,0,0,0,0,0,0,0,0,0,0,0,0,0,0,0,0,0,0,0,0,0,0,0,0,0,0,0,0,0,0,0,0,0,0,0,0,0,0,0,0,0,0,0,0,0,0,0,0,0,0,0,0,0,0,0,0,0,0,0,0,0,0,0,0,0,0,0,0,0,0,0,0,0,0,0,0,0,0,0,0,0,0,0,0,0,0,0,0,0,0,0,0,0,0,0,0,0,0,0,0,0,0,0,0],"sum_hessian":[2.3444978E5,1.2852214E5,1.0592764E5,1.15715164E5,1.2806976E4,4.8018945E4,5.7908695E4,4.8475703E4,6.723946E4,9.313036E3,3.4939397E3,2.6629238E4,2.1389707E4,3.2908676E4,2.5000021E4,9.111341E3,3.9364363E4,1.7236701E4,5.000276E4,6.60219E3,2.7108457E3,1.8076727E3,1.6862671E3,1.0459874E4,1.6169363E4,6.064324E3,1.5325383E4,1.1769457E4,2.1139219E4,7.3000757E3,1.7699945E4,2.145865E3,6.9654756E3,7.2507793E3,3.2113582E4,6.5806433E2,1.6578637E4,2.0218994E4,2.9783768E4,2.0253174E3,4.5768726E3,1.0160852E3,1.6947606E3,3.2724405E2,1.4804286E3,3.701847E2,1.3160824E3,8.46792E3,1.991955E3,1.4656721E3,1.470369E4,4.642098E3,1.4222261E3,1.0988938E4,4.3364443E3,1.074793E4,1.021528E3,1.3118527E4,8.0206914E3,6.2570386E3,1.0430374E3,1.2776582E4,4.923364E3,9.0846725E1,2.0550183E3,1.8866703E3,5.078805E3,3.8578357E3,3.3929436E3,3.1601035E4,5.1254816E2,4.0201508E2,2.560493E2,1.3817206E4,2.7614304E3,1.0870864E4,9.34813E3,1.4272757E4,1.5511012E4,1.0510854E3,9.7423193E2,1.9383527E2,4.383037E3,8.5891266E2,1.5717255E2,3.755809E1,1.6572025E3,1.3680751E2,1.9043655E2,2.053367E1,1.459895E3,1.94589E2,1.7559569E2,5.7111536E2,7.44967E2,3.8954646E3,4.5724546E3,4.4571387E2,1.5462411E3,1.3618799E3,1.037922E2,7.028253E3,7.675438E3,8.307073E2,3.8113906E3,8.531487E2,5.690774E2,2.419641E3,8.569297E3,6.1926483E2,3.7171797E3,7.153546E3,3.5943835E3,5.602748E2,4.612532E2,4.630353E3,8.488174E3,7.456954E3,5.637374E2,6.0420273E3,2.1501102E2,1.3417538E1,1.0296199E3,4.0880547E3,8.688527E3,5.153668E2,4.4079966E3],"tree_param":{"num_deleted":"0","num_feature":"39","num_nodes":"127","size_leaf_vector":"1"}},{"base_weights":[-1.4476043E-2,-8.032691E-1,9.2969716E-1,-1.6229893E0,-4.9821076E-1,6.49974E-1,1.2249115E0,-1.6615418E0,4.9939057E-1,-1.1852647E0,-2.1400642E-1,3.8038978E-1,7.67427E-1,1.099473E0,1.389153E0,-1.8174492E0,-1.3393086E0,6.6342735E-1,-4.2444086E-1,-1.3987311E0,-7.0995593E-1,-3.9930207E-1,4.8735303E-1,5.84314E-1,1.9119638E-1,6.398825E-1,9.142776E-1,9.7482336E-1,1.2047626E0,1.2836194E0,1.4804411E0,-1.4551119E0,-1.9270487E0,-1.9065056E0,-9.396577E-1,-6.00795E-1,7.806272E-1,-8.815188E-1,6.8681985E-1,-1.5009894E0,-3.5314292E-1,-1.2305534E0,-2.4467096E-1,-6.040814E-1,1.4792633E-1,3.6669677E-1,7.443831E-1,4.260346E-1,9.104499E-1,2.0566694E-2,3.5725883E-1,5.641997E-1,8.789707E-1,8.5734653E-1,1.0897526E0,1.0019859E0,4.6254683E-1,1.1106213E0,1.2522235E0,1.2451987E0,1.5398972E0,1.4320306E0,1.5934091E0,-5.1270276E-1,-1.00011855E-1,3.5123736E-1,-5.794538E-1,-5.837972E-1,-1.884895E-1,-3.6577764E-1,-1.2821572E-1,-8.37567E-3,-3.7670153E-1,1.2606568E-2,2.7516004E-1,-5.0523126E-1,-1.8150012E-1,-2.4903305E-1,2.6699167E-1,-4.6561494E-1,5.8579504E-2,5.2119684E-1,-2.725472E-1,-4.7555962E-1,-2.1424122E-1,3.6962226E-1,-1.3174535E-1,-2.5029248E-1,-2.6607947E-2,-1.8599443E-1,1.05219275E-1,6.452746E-2,1.7114356E-1,1.9473468E-1,3.3571124E-1,3.989892E-2,1.9776012E-1,1.5498117E-1,3.293706E-1,-2.335837E-1,1.9415945E-2,1.4729397E-1,-4.492427E-3,1.1855348E-1,1.9181581E-1,2.0904496E-1,3.0034742E-1,2.0074667E-1,2.6941776E-1,2.5768736E-1,3.4697384E-1,2.6250482E-1,3.27064E-1,2.7299914E-1,9.856009E-2,2.7723196E-1,3.455775E-1,3.6516327E-1,4.1146544E-1,3.1989312E-1,3.913041E-1,1.0363468E-3,4.6698517E-1,3.9187774E-1,4.3613207E-1,4.3814883E-1,4.8728046E-1],"categories":[],"categories_nodes":[],"categories_segments":[],"categories_sizes":[],"default_left":[0,0,0,0,0,0,0,0,0,0,0,0,0,0,0,0,0,0,0,0,0,0,0,0,0,0,0,0,0,0,0,0,0,0,0,0,0,0,0,0,0,0,0,0,0,0,0,0,0,0,0,0,0,0,0,0,0,0,0,0,0,0,0,0,0,0,0,0,0,0,0,0,0,0,0,0,0,0,0,0,0,0,0,0,0,0,0,0,0,0,0,0,0,0,0,0,0,0,0,0,0,0,0,0,0,0,0,0,0,0,0,0,0,0,0,0,0,0,0,0,0,0,0,0,0,0,0],"id":5,"left_children":[1,3,5,7,9,11,13,15,17,19,21,23,25,27,29,31,33,35,37,39,41,43,45,47,49,51,53,55,57,59,61,63,65,67,69,71,73,75,77,79,81,83,85,87,89,91,93,95,97,99,101,103,105,107,109,111,113,115,117,119,121,123,125,-1,-1,-1,-1,-1,-1,-1,-1,-1,-1,-1,-1,-1,-1,-1,-1,-1,-1,-1,-1,-1,-1,-1,-1,-1,-1,-1,-1,-1,-1,-1,-1,-1,-1,-1,-1,-1,-1,-1,-1,-1,-1,-1,-1,-1,-1,-1,-1,-1,-1,-1,-1,-1,-1,-1,-1,-1,-1,-1,-1,-1,-1,-1,-1],"loss_changes":[1.5635764E5,2.8602375E4,7.890414E3,2.5391719E3,1.6277463E4,1.5534258E3,9.562969E2,1.5282969E3,8.427083E1,2.4739727E3,7.6639746E3,5.744768E2,6.3956055E2,3.448418E2,1.9201172E2,8.1253906E2,2.251164E3,7.026274E1,4.336356E1,1.7991523E3,1.8313965E3,5.2274546E3,3.8193286E2,3.6957593E2,2.1893915E2,3.3054053E2,1.5774805E2,1.6759277E2,6.244922E1,9.00791E1,5.670508E1,1.3585635E3,2.2020312E2,2.0607422E2,8.3488965E2,1.5169886E1,4.3490417E1,1.2315735E1,8.472482E0,1.3282461E3,1.743934E3,6.5243555E2,1.147707E3,4.0277236E3,1.9785815E3,2.5905493E2,1.3976538E2,3.2973102E2,1.722539E2,1.3456729E2,1.9492105E2,1.7637256E2,9.716382E1,9.1322266E1,5.8961914E1,1.2751953E2,3.6279373E1,3.5895996E1,3.7984375E1,8.463672E1,3.1177979E1,1.877539E1,1.0862305E1,0E0,0E0,0E0,0E0,0E0,0E0,0E0,0E0,0E0,0E0,0E0,0E0,0E0,0E0,0E0,0E0,0E0,0E0,0E0,0E0,0E0,0E0,0E0,0E0,0E0,0E0,0E0,0E0,0E0,0E0,0E0,0E0,0E0,0E0,0E0,0E0,0E0,0E0,0E0,0E0,0E0,0E0,0E0,0E0,0E0,0E0,0E0,0E0,0E0,0E0,0E0,0E0,0E0,0E0,0E0,0E0,0E0,0E0,0E0,0E0,0E0,0E0,0E0,0E0],"parents":[2147483647,0,0,1,1,2,2,3,3,4,4,5,5,6,6,7,7,8,8,9,9,10,10,11,11,12,12,13,13,14,14,15,15,16,16,17,17,18,18,19,19,20,20,21,21,22,22,23,23,24,24,25,25,26,26,27,27,28,28,29,29,30,30,31,31,32,32,33,33,34,34,35,35,36,36,37,37,38,38,39,39,40,40,41,41,42,42,43,43,44,44,45,45,46,46,47,47,48,48,49,49,50,50,51,51,52,52,53,53,54,54,55,55,56,56,57,57,58,58,59,59,60,60,61,61,62,62],"right_children":[2,4,6,8,10,12,14,16,18,20,22,24,26,28,30,32,34,36,38,40,42,44,46,48,50,52,54,56,58,60,62,64,66,68,70,72,74,76,78,80,82,84,86,88,90,92,94,96,98,100,102,104,106,108,110,112,114,116,118,120,122,124,126,-1,-1,-1,-1,-1,-1,-1,-1,-1,-1,-1,-1,-1,-1,-1,-1,-1,-1,-1,-1,-1,-1,-1,-1,-1,-1,-1,-1,-1,-1,-1,-1,-1,-1,-1,-1,-1,-1,-1,-1,-1,-1,-1,-1,-1,-1,-1,-1,-1,-1,-1,-1,-1,-1,-1,-1,-1,-1,-1,-1,-1,-1,-1,-1],"split_conditions":[1E-1,-1.8399835E-1,1.6E0,1E-1,6.35E1,1E-1,3.9E0,5.4524046E-1,2.1E1,2.5568724E0,1E-1,3.309216E1,7E-1,1.3E0,2.4E0,-8.29677E-1,5.7333332E1,1.7E0,2E-1,6.3166666E0,5.123714E-1,2.3357189E0,4E-1,3.1400404E1,1E-1,1.5E0,2.1E0,1.884047E1,8E1,1.1E1,7.8E0,8.8331133E-1,-5.665476E0,4.2807446E0,2.5568724E0,1.2986343E1,1.8607819E1,3.0411482E-1,2.6666667E0,1E-1,1.7166666E1,5.3833332E1,-8.3592546E-1,1.1000496E0,7.6591244E0,3.3666666E0,3.5E0,1E-1,1.1837717E0,-2.01E2,7.589207E1,7.6591244E0,1.0334744E1,7E0,2.2E1,4E-1,-1.0875682E0,3E-1,3.7E0,1E-1,6.3833332E1,3.8180482E0,3.8180482E0,-5.1270276E-1,-1.00011855E-1,3.5123736E-1,-5.794538E-1,-5.837972E-1,-1.884895E-1,-3.6577764E-1,-1.2821572E-1,-8.37567E-3,-3.7670153E-1,1.2606568E-2,2.7516004E-1,-5.0523126E-1,-1.8150012E-1,-2.4903305E-1,2.6699167E-1,-4.6561494E-1,5.8579504E-2,5.2119684E-1,-2.725472E-1,-4.7555962E-1,-2.1424122E-1,3.6962226E-1,-1.3174535E-1,-2.5029248E-1,-2.6607947E-2,-1.8599443E-1,1.05219275E-1,6.452746E-2,1.7114356E-1,1.9473468E-1,3.3571124E-1,3.989892E-2,1.9776012E-1,1.5498117E-1,3.293706E-1,-2.335837E-1,1.9415945E-2,1.4729397E-1,-4.492427E-3,1.1855348E-1,1.9181581E-1,2.0904496E-1,3.0034742E-1,2.0074667E-1,2.6941776E-1,2.5768736E-1,3.4697384E-1,2.6250482E-1,3.27064E-1,2.7299914E-1,9.856009E-2,2.7723196E-1,3.455775E-1,3.6516327E-1,4.1146544E-1,3.1989312E-1,3.913041E-1,1.0363468E-3,4.6698517E-1,3.9187774E-1,4.3613207E-1,4.3814883E-1,4.8728046E-1],"split_indices":[0,38,0,8,11,8,0,37,5,22,16,25,0,8,8,37,3,1,16,9,38,6,8,34,16,16,16,32,24,0,0,15,6,7,22,33,34,37,9,16,19,11,37,23,32,9,8,16,23,24,29,32,32,24,24,16,23,16,16,8,19,25,25,0,0,0,0,0,0,0,0,0,0,0,0,0,0,0,0,0,0,0,0,0,0,0,0,0,0,0,0,0,0,0,0,0,0,0,0,0,0,0,0,0,0,0,0,0,0,0,0,0,0,0,0,0,0,0,0,0,0,0,0,0,0,0,0],"split_type":[0,0,0,0,0,0,0,0,0,0,0,0,0,0,0,0,0,0,0,0,0,0,0,0,0,0,0,0,0,0,0,0,0,0,0,0,0,0,0,0,0,0,0,0,0,0,0,0,0,0,0,0,0,0,0,0,0,0,0,0,0,0,0,0,0,0,0,0,0,0,0,0,0,0,0,0,0,0,0,0,0,0,0,0,0,0,0,0,0,0,0,0,0,0,0,0,0,0,0,0,0,0,0,0,0,0,0,0,0,0,0,0,0,0,0,0,0,0,0,0,0,0,0,0,0,0,0],"sum_hessian":[2.0994244E5,1.14383164E5,9.555927E4,3.1021412E4,8.336175E4,4.9068656E4,4.6490617E4,3.0468184E4,5.532296E2,2.4391936E4,5.8969816E4,1.4892001E4,3.4176652E4,2.636342E4,2.01272E4,2.053029E4,9.937895E3,4.7004898E2,8.318067E1,1.6831004E4,7.5609316E3,4.664648E4,1.2323336E4,7.165981E3,7.72602E3,1.8293508E4,1.5883146E4,1.2076556E4,1.4286863E4,9.342208E3,1.0784991E4,4.771132E3,1.5759156E4,4.106315E3,5.8315796E3,3.952887E1,4.305201E2,5.908492E1,2.4095755E1,1.5331183E4,1.4998207E3,3.5675884E3,3.9933435E3,3.3944098E4,1.2702384E4,8.388155E3,3.9351804E3,4.8260986E3,2.339882E3,3.8111626E3,3.9148577E3,1.3897609E4,4.395898E3,1.1996796E4,3.8863508E3,1.1467554E4,6.090022E2,4.796722E3,9.490141E3,8.1293345E3,1.2128737E3,7.559264E3,3.2257268E3,3.8901106E3,8.810211E2,2.230038E1,1.5736856E4,3.9827615E3,1.235534E2,3.7716245E3,2.059955E3,2.1640621E1,1.7888248E1,6.7387436E1,3.6313266E2,1.3835999E1,4.524892E1,2.4813647E0,2.1614391E1,1.4883254E4,4.4792816E2,3.1436078E2,1.1854598E3,2.1138477E3,1.4537406E3,4.640838E2,3.5292598E3,2.3462602E4,1.0481498E4,2.6533962E3,1.0048987E4,4.811014E3,3.5771414E3,3.1395774E3,7.9560297E2,2.1391843E3,2.6869146E3,7.5575635E2,1.5841256E3,1.9866463E2,3.612498E3,2.8799473E3,1.0349102E3,4.2807036E3,9.616906E3,1.7675604E3,2.6283376E3,2.1368386E3,9.859957E3,8.757377E2,3.0106133E3,4.705989E3,6.761565E3,1.3902568E2,4.6997653E2,8.738855E2,3.9228364E3,7.3459326E3,2.144208E3,2.0247357E3,6.1045986E3,1.30697E1,1.199804E3,1.1232052E3,6.436059E3,6.1692163E2,2.6088052E3],"tree_param":{"num_deleted":"0","num_feature":"39","num_nodes":"127","size_leaf_vector":"1"}},{"base_weights":[-1.772368E-2,-6.4162976E-1,7.0977557E-1,-1.4846914E0,-3.8050064E-1,5.056644E-1,1.0174038E0,-1.7071221E0,-1.0780976E0,-1.1062154E0,-1.6558331E-1,3.2159477E-1,6.334404E-1,9.3466926E-1,1.2156674E0,-9.1721076E-1,-1.8132421E0,-1.8333611E0,-6.560612E-1,-1.4005443E0,-7.6392865E-1,-1.0049973E0,-5.3192437E-2,2.1115436E-1,5.1351124E-1,5.4418445E-1,7.8924847E-1,6.8915516E-1,9.8852134E-1,1.0797949E0,1.2963241E0,-1.8344306E0,-3.2028553E-1,-1.8367374E0,3.622579E-1,-1.8912208E0,-4.459945E-1,-4.3102837E-1,-1.5292219E0,-1.489673E0,2.2011532E-1,-1.4249068E0,-4.9395433E-1,-6.8409115E-1,-1.5039392E0,1.5086052E-1,-3.7074187E-1,-1.435208E-1,2.5769427E-1,2.2943996E-1,5.967119E-1,6.759928E-1,4.560212E-1,6.74187E-1,8.514073E-1,7.249547E-1,1.2059666E-1,9.271043E-1,1.1015912E0,1.2669705E0,9.7711587E-1,1.2508941E0,1.4795431E0,-5.736856E-1,-1.3487168E-1,-3.7991136E-1,2.1791771E-1,-5.737568E-1,-4.3440545E-1,5.916186E-1,-5.3801477E-1,-5.735435E-1,1.901946E-1,2.1713115E-1,-5.2265096E-1,-1.8664543E-1,1.3118416E-1,-4.8660374E-1,4.9390927E-1,-5.1075757E-1,-3.4578913E-1,5.5749106E-1,-3.5458368E-1,1.772157E-1,-4.559867E-1,-2.9803714E-1,-7.368509E-2,-2.810623E-1,1.352351E-1,-4.7718954E-1,9.468084E-2,-5.2796532E-3,1.7074136E-1,-1.4948834E-1,1.3810648E-1,-5.959693E-2,2.2628978E-1,8.6435184E-2,-8.2547784E-2,8.639612E-2,-2.076454E-1,9.40582E-2,2.0936629E-1,1.7879018E-1,2.6030418E-1,6.651362E-2,1.5582559E-1,1.2735479E-1,2.1641602E-1,2.3665564E-1,2.9452828E-1,3.699956E-1,2.048658E-1,-6.384929E-2,1.094691E-1,2.3375429E-1,2.9150423E-1,3.0468327E-1,3.4872165E-1,3.4776694E-1,4.493836E-1,1.845067E-1,3.1616586E-1,2.7065974E-1,3.8137057E-1,4.4571963E-1,-1.4298718E-1],"categories":[],"categories_nodes":[],"categories_segments":[],"categories_sizes":[],"default_left":[0,0,0,0,0,0,0,0,0,0,0,0,0,0,0,0,0,0,0,0,0,0,0,0,0,0,0,0,0,0,0,0,0,0,0,0,0,0,0,0,0,0,0,0,0,0,0,0,0,0,0,0,0,0,0,0,0,0,0,0,0,0,0,0,0,0,0,0,0,0,0,0,0,0,0,0,0,0,0,0,0,0,0,0,0,0,0,0,0,0,0,0,0,0,0,0,0,0,0,0,0,0,0,0,0,0,0,0,0,0,0,0,0,0,0,0,0,0,0,0,0,0,0,0,0,0,0],"id":6,"left_children":[1,3,5,7,9,11,13,15,17,19,21,23,25,27,29,31,33,35,37,39,41,43,45,47,49,51,53,55,57,59,61,63,65,67,69,71,73,75,77,79,81,83,85,87,89,91,93,95,97,99,101,103,105,107,109,111,113,115,117,119,121,123,125,-1,-1,-1,-1,-1,-1,-1,-1,-1,-1,-1,-1,-1,-1,-1,-1,-1,-1,-1,-1,-1,-1,-1,-1,-1,-1,-1,-1,-1,-1,-1,-1,-1,-1,-1,-1,-1,-1,-1,-1,-1,-1,-1,-1,-1,-1,-1,-1,-1,-1,-1,-1,-1,-1,-1,-1,-1,-1,-1,-1,-1,-1,-1,-1],"loss_changes":[8.778019E4,2.2918992E4,5.6057227E3,2.2248125E3,1.2397812E4,1.2622139E3,5.83E2,1.3322227E3,2.7747217E3,1.8286523E3,5.785912E3,4.6608008E2,4.4015332E2,3.3158008E2,1.1346973E2,1.0323566E3,7.1764453E2,2.497168E2,1.097415E3,1.4106895E3,1.4980859E3,1.1584858E3,3.5048267E3,2.3051166E2,1.8972852E2,2.3379688E2,8.193555E1,9.199292E1,1.4208594E2,7.3916016E1,5.2853516E1,7.930835E1,1.1338236E3,4.0604297E2,5.2651746E2,1.5699707E2,1.92718E2,7.378883E2,3.3998657E2,6.619961E2,1.1732323E3,4.67437E2,7.396715E2,1.2652803E3,4.475039E2,2.3203198E3,2.2433647E3,8.035619E1,2.0017725E2,9.84787E1,1.7778662E2,1.2330908E2,1.792456E2,4.7433838E1,6.0271484E1,9.017261E1,2.2003918E1,8.733789E1,3.6719727E1,3.265332E1,6.966797E1,3.6253906E1,1.6451416E1,0E0,0E0,0E0,0E0,0E0,0E0,0E0,0E0,0E0,0E0,0E0,0E0,0E0,0E0,0E0,0E0,0E0,0E0,0E0,0E0,0E0,0E0,0E0,0E0,0E0,0E0,0E0,0E0,0E0,0E0,0E0,0E0,0E0,0E0,0E0,0E0,0E0,0E0,0E0,0E0,0E0,0E0,0E0,0E0,0E0,0E0,0E0,0E0,0E0,0E0,0E0,0E0,0E0,0E0,0E0,0E0,0E0,0E0,0E0,0E0,0E0,0E0,0E0,0E0],"parents":[2147483647,0,0,1,1,2,2,3,3,4,4,5,5,6,6,7,7,8,8,9,9,10,10,11,11,12,12,13,13,14,14,15,15,16,16,17,17,18,18,19,19,20,20,21,21,22,22,23,23,24,24,25,25,26,26,27,27,28,28,29,29,30,30,31,31,32,32,33,33,34,34,35,35,36,36,37,37,38,38,39,39,40,40,41,41,42,42,43,43,44,44,45,45,46,46,47,47,48,48,49,49,50,50,51,51,52,52,53,53,54,54,55,55,56,56,57,57,58,58,59,59,60,60,61,61,62,62],"right_children":[2,4,6,8,10,12,14,16,18,20,22,24,26,28,30,32,34,36,38,40,42,44,46,48,50,52,54,56,58,60,62,64,66,68,70,72,74,76,78,80,82,84,86,88,90,92,94,96,98,100,102,104,106,108,110,112,114,116,118,120,122,124,126,-1,-1,-1,-1,-1,-1,-1,-1,-1,-1,-1,-1,-1,-1,-1,-1,-1,-1,-1,-1,-1,-1,-1,-1,-1,-1,-1,-1,-1,-1,-1,-1,-1,-1,-1,-1,-1,-1,-1,-1,-1,-1,-1,-1,-1,-1,-1,-1,-1,-1,-1,-1,-1,-1,-1,-1,-1,-1,-1,-1,-1,-1,-1,-1],"split_conditions":[1E-1,-2.0089056E-1,2E0,5.4524046E-1,6.1166668E1,5E-1,5.3E0,-9.326545E-1,5.7333332E1,3.4166667E0,-8.483512E-1,5E-1,1.2E0,2E-1,1.1E0,6.5166664E1,4.2352095E0,4.2807446E0,-3.975428E-1,6.4333334E0,4.2666668E1,4.3965088E1,4.4923283E1,-3E0,2.2E1,1.71E2,8E1,1.967429E1,3.1E0,8.560624E0,1.11E1,8.3E1,2.1552982E1,3.0411482E-1,2.5702798E0,1E-1,5.794211E-1,6.423042E1,9.7736025E0,5.8333332E1,1.7166666E1,-5.8860545E0,6.2232745E-1,2.4601474E0,1E-1,3.6333334E0,1.66E1,2.25E1,7.99E2,7.02E2,1.2986343E1,1.4E0,2.2E1,1E-1,3E0,4.7990026E0,9.4666664E1,2.7E1,3.3E0,1.06E1,1E-1,1.2430738E0,1.884047E1,-5.736856E-1,-1.3487168E-1,-3.7991136E-1,2.1791771E-1,-5.737568E-1,-4.3440545E-1,5.916186E-1,-5.3801477E-1,-5.735435E-1,1.901946E-1,2.1713115E-1,-5.2265096E-1,-1.8664543E-1,1.3118416E-1,-4.8660374E-1,4.9390927E-1,-5.1075757E-1,-3.4578913E-1,5.5749106E-1,-3.5458368E-1,1.772157E-1,-4.559867E-1,-2.9803714E-1,-7.368509E-2,-2.810623E-1,1.352351E-1,-4.7718954E-1,9.468084E-2,-5.2796532E-3,1.7074136E-1,-1.4948834E-1,1.3810648E-1,-5.959693E-2,2.2628978E-1,8.6435184E-2,-8.2547784E-2,8.639612E-2,-2.076454E-1,9.40582E-2,2.0936629E-1,1.7879018E-1,2.6030418E-1,6.651362E-2,1.5582559E-1,1.2735479E-1,2.1641602E-1,2.3665564E-1,2.9452828E-1,3.699956E-1,2.048658E-1,-6.384929E-2,1.094691E-1,2.3375429E-1,2.9150423E-1,3.0468327E-1,3.4872165E-1,3.4776694E-1,4.493836E-1,1.845067E-1,3.1616586E-1,2.7065974E-1,3.8137057E-1,4.4571963E-1,-1.4298718E-1],"split_indices":[0,38,0,37,19,0,0,37,3,1,37,16,8,8,16,19,15,7,38,9,11,27,27,24,24,26,24,32,8,32,0,11,33,37,32,16,37,25,22,11,19,15,22,14,16,9,21,4,26,30,33,16,24,16,8,31,19,24,0,0,8,25,32,0,0,0,0,0,0,0,0,0,0,0,0,0,0,0,0,0,0,0,0,0,0,0,0,0,0,0,0,0,0,0,0,0,0,0,0,0,0,0,0,0,0,0,0,0,0,0,0,0,0,0,0,0,0,0,0,0,0,0,0,0,0,0,0],"split_type":[0,0,0,0,0,0,0,0,0,0,0,0,0,0,0,0,0,0,0,0,0,0,0,0,0,0,0,0,0,0,0,0,0,0,0,0,0,0,0,0,0,0,0,0,0,0,0,0,0,0,0,0,0,0,0,0,0,0,0,0,0,0,0,0,0,0,0,0,0,0,0,0,0,0,0,0,0,0,0,0,0,0,0,0,0,0,0,0,0,0,0,0,0,0,0,0,0,0,0,0,0,0,0,0,0,0,0,0,0,0,0,0,0,0,0,0,0,0,0,0,0,0,0,0,0,0,0],"sum_hessian":[1.9339277E5,1.0410879E5,8.928398E4,2.4619492E4,7.94893E4,5.367397E4,3.5610008E4,1.5911673E4,8.707819E3,1.8160914E4,6.1328387E4,2.1993875E4,3.1680092E4,2.512935E4,1.0480658E4,1.8856155E3,1.4026058E4,3.120365E3,5.587454E3,9.762847E3,8.398068E3,7.240831E3,5.4087555E4,1.3961613E4,8.032262E3,2.0144598E4,1.1535494E4,4.522927E3,2.0606422E4,3.9093872E3,6.571271E3,7.4255365E2,1.1430619E3,1.387635E4,1.4970804E2,2.9950923E3,1.2527258E2,4.4437065E3,1.1437476E3,9.254E3,5.0884668E2,2.4341821E3,5.9638857E3,4.408057E3,2.832774E3,3.2928605E4,2.115895E4,1.6192694E3,1.2342344E4,1.8204556E3,6.2118066E3,8.0711606E3,1.20734375E4,4.0501501E3,7.4853438E3,4.2547495E3,2.6817755E2,1.3359197E4,7.247225E3,1.3808575E3,2.5285295E3,5.2719023E3,1.2993691E3,7.026698E2,3.988388E1,6.002709E2,5.42791E2,1.1609105E4,2.267244E3,8.575356E1,6.3954475E1,2.9711084E3,2.398377E1,6.6079315E1,5.919327E1,3.6422878E3,8.0141876E2,1.1117515E3,3.1996094E1,5.6694976E3,3.5845022E3,2.3451295E2,2.7433374E2,1.0938232E2,2.3247998E3,1.9794479E3,3.984438E3,3.6052048E3,8.028523E2,2.704064E3,1.2871008E2,2.3475078E4,9.453527E3,1.8344004E4,2.8149458E3,1.5263163E3,9.295317E1,1.1676159E4,6.6618494E2,1.7123597E3,1.0809574E2,1.6362214E3,4.5755854E3,5.6969253E3,2.374235E3,2.5720286E3,9.501409E3,6.455252E2,3.404625E3,5.0628105E3,2.4225334E3,3.2302008E2,3.9317292E3,1.1345709E2,1.5472046E2,3.0978154E3,1.0261382E4,3.009725E3,4.2375E3,9.457114E2,4.3514618E2,4.4389136E2,2.0846382E3,2.9308554E2,4.9788164E3,1.2955109E3,3.8582897E0],"tree_param":{"num_deleted":"0","num_feature":"39","num_nodes":"127","size_leaf_vector":"1"}},{"base_weights":[-1.9974364E-2,-5.024855E-1,5.242891E-1,-1.3125445E0,-2.816352E-1,3.8618934E-1,8.217529E-1,-1.6635484E0,-9.3464285E-1,-1.0399883E0,-1.3761087E-1,2.7284464E-1,5.399146E-1,7.60943E-1,1.033635E0,-1.0636839E0,-1.9393575E0,-1.5944273E0,-5.411847E-1,-1.5467869E0,-7.507766E-1,-6.11659E-1,-3.95553E-3,1.7017283E-1,4.192604E-1,4.885603E-1,7.017054E-1,6.0094833E-1,8.2332975E-1,9.543394E-1,1.1471285E0,-1.2373679E0,1.020507E0,-1.7257922E0,-1.9801731E0,-5.823994E-1,-1.7375791E0,-8.4330124E-1,-6.6319965E-2,-1.603994E0,4.914233E-1,-1.2299132E0,-4.5095038E-1,-9.1233E-1,-2.941663E-1,-2.8902754E-1,2.4445102E-1,1.439408E-1,6.0987633E-1,1.3084789E-1,4.584945E-1,3.4125173E-1,5.429745E-1,7.455617E-1,2.5237402E-1,8.1415385E-1,4.7922984E-1,8.378656E-1,1.8468606E-1,8.4705436E-1,1.0207934E0,9.5143443E-1,1.1978172E0,1.2525932E-1,-4.2467907E-1,-5.8589077E-1,4.777795E-1,-1.3185284E-1,-5.4275566E-1,-5.4154706E-1,-5.973235E-1,2.855297E-1,-4.5190492E-1,-4.3842256E-2,-5.359741E-1,-1.8580312E-1,-5.1010495E-1,-3.650554E-1,6.346104E-2,-5.59694E-1,-4.332542E-1,-1.6460346E-1,2.701277E-1,1.2078292E-1,-4.5084298E-1,-1.7668477E-1,3.7651393E-1,-2.975932E-1,2.3556595E-1,-2.7203692E-2,-2.4039695E-1,-2.579566E-1,-2.7995985E-2,-1.7374462E-1,9.445656E-2,7.814917E-2,1.4118269E-2,2.8654896E-2,2.108039E-1,1.1546879E-1,-9.403223E-3,-5.0065637E-2,1.4293885E-1,1.0851845E-1,-1.0954618E-1,5.5370796E-2,1.6968788E-1,1.2856646E-1,2.3783982E-1,5.3095628E-2,2.6950902E-1,6.72536E-2,2.5542554E-1,5.436054E-2,1.7738712E-1,2.2859997E-1,2.7930316E-1,1.2355892E-1,-1.02774926E-1,2.2281389E-1,2.9924008E-1,-2.1894723E-1,3.079381E-1,1.9302896E-1,3.2462072E-1,3.5012847E-1,4.3313965E-1],"categories":[],"categories_nodes":[],"categories_segments":[],"categories_sizes":[],"default_left":[0,0,0,0,0,0,0,0,0,0,0,0,0,0,0,0,0,0,0,0,0,0,0,0,0,0,0,0,0,0,0,0,0,0,0,0,0,0,0,0,0,0,0,0,0,0,0,0,0,0,0,0,0,0,0,0,0,0,0,0,0,0,0,0,0,0,0,0,0,0,0,0,0,0,0,0,0,0,0,0,0,0,0,0,0,0,0,0,0,0,0,0,0,0,0,0,0,0,0,0,0,0,0,0,0,0,0,0,0,0,0,0,0,0,0,0,0,0,0,0,0,0,0,0,0,0,0],"id":7,"left_children":[1,3,5,7,9,11,13,15,17,19,21,23,25,27,29,31,33,35,37,39,41,43,45,47,49,51,53,55,57,59,61,63,65,67,69,71,73,75,77,79,81,83,85,87,89,91,93,95,97,99,101,103,105,107,109,111,113,115,117,119,121,123,125,-1,-1,-1,-1,-1,-1,-1,-1,-1,-1,-1,-1,-1,-1,-1,-1,-1,-1,-1,-1,-1,-1,-1,-1,-1,-1,-1,-1,-1,-1,-1,-1,-1,-1,-1,-1,-1,-1,-1,-1,-1,-1,-1,-1,-1,-1,-1,-1,-1,-1,-1,-1,-1,-1,-1,-1,-1,-1,-1,-1,-1,-1,-1,-1],"loss_changes":[4.7883543E4,1.7290555E4,3.5195742E3,2.7448633E3,8.29482E3,1.0194883E3,3.4923633E2,1.7737324E3,2.588043E3,1.7754834E3,4.0439585E3,5.0631738E2,2.0599902E2,2.1023438E2,5.340039E1,1.225821E3,6.0664062E1,5.386426E2,8.964208E2,5.141836E2,1.108376E3,1.3397715E3,3.5258518E3,2.2831921E2,1.5704907E2,1.5094482E2,1.1767822E2,1.5340747E2,1.4082715E2,2.4592285E1,2.3516113E1,9.217446E2,4.4670416E2,1.2656592E2,8.169922E0,6.578911E2,2.5418457E2,7.319663E2,7.773485E2,1.764043E2,5.1956596E1,1.3240356E3,1.1189299E3,9.755166E2,7.047083E2,2.5899517E3,1.5429438E3,2.1102155E2,5.313559E1,6.857533E1,1.3741064E2,7.3737E1,1.1166138E2,8.125513E1,2.5817215E1,4.7129272E1,1.2596997E2,1.0421484E2,4.0776978E1,2.0785583E1,2.2574707E1,2.007486E1,1.3205566E1,0E0,0E0,0E0,0E0,0E0,0E0,0E0,0E0,0E0,0E0,0E0,0E0,0E0,0E0,0E0,0E0,0E0,0E0,0E0,0E0,0E0,0E0,0E0,0E0,0E0,0E0,0E0,0E0,0E0,0E0,0E0,0E0,0E0,0E0,0E0,0E0,0E0,0E0,0E0,0E0,0E0,0E0,0E0,0E0,0E0,0E0,0E0,0E0,0E0,0E0,0E0,0E0,0E0,0E0,0E0,0E0,0E0,0E0,0E0,0E0,0E0,0E0,0E0,0E0],"parents":[2147483647,0,0,1,1,2,2,3,3,4,4,5,5,6,6,7,7,8,8,9,9,10,10,11,11,12,12,13,13,14,14,15,15,16,16,17,17,18,18,19,19,20,20,21,21,22,22,23,23,24,24,25,25,26,26,27,27,28,28,29,29,30,30,31,31,32,32,33,33,34,34,35,35,36,36,37,37,38,38,39,39,40,40,41,41,42,42,43,43,44,44,45,45,46,46,47,47,48,48,49,49,50,50,51,51,52,52,53,53,54,54,55,55,56,56,57,57,58,58,59,59,60,60,61,61,62,62],"right_children":[2,4,6,8,10,12,14,16,18,20,22,24,26,28,30,32,34,36,38,40,42,44,46,48,50,52,54,56,58,60,62,64,66,68,70,72,74,76,78,80,82,84,86,88,90,92,94,96,98,100,102,104,106,108,110,112,114,116,118,120,122,124,126,-1,-1,-1,-1,-1,-1,-1,-1,-1,-1,-1,-1,-1,-1,-1,-1,-1,-1,-1,-1,-1,-1,-1,-1,-1,-1,-1,-1,-1,-1,-1,-1,-1,-1,-1,-1,-1,-1,-1,-1,-1,-1,-1,-1,-1,-1,-1,-1,-1,-1,-1,-1,-1,-1,-1,-1,-1,-1,-1,-1,-1,-1,-1,-1],"split_conditions":[1E-1,-1.8399835E-1,2.5E0,3.0411482E-1,5.6666668E1,7E-1,4.6E0,-8.29677E-1,5.7333332E1,2.45E0,1.5166667E0,7E-1,3E0,3E-1,6.2E0,-8.3592546E-1,7E0,3.846651E-1,3.5666666E0,1E-1,4.3333332E1,8.5666664E1,7.95E1,3.2E0,6.7333336E1,2E-1,2.4210604E1,8.560624E0,2.0360651E1,8E1,5E-1,3.382091E0,2.8862011E0,5.5E-1,1.2430738E0,-9.008116E-1,-4.712504E0,4.66E2,1.2550969E1,4.1833332E1,9.109727E-3,-4.481393E0,9.42E2,1.2728909E0,3.03E2,-3.3201516E-2,-8.29677E-1,1.85E2,1.1926425E1,9.844006E0,2.9268859E-2,7.589207E1,1.9328351E0,1.6E1,3.727957E1,7.65E1,8.5E1,4.3E0,7.02E2,3.5E0,2.9268859E-2,2.7E1,1.66E1,1.2525932E-1,-4.2467907E-1,-5.8589077E-1,4.777795E-1,-1.3185284E-1,-5.4275566E-1,-5.4154706E-1,-5.973235E-1,2.855297E-1,-4.5190492E-1,-4.3842256E-2,-5.359741E-1,-1.8580312E-1,-5.1010495E-1,-3.650554E-1,6.346104E-2,-5.59694E-1,-4.332542E-1,-1.6460346E-1,2.701277E-1,1.2078292E-1,-4.5084298E-1,-1.7668477E-1,3.7651393E-1,-2.975932E-1,2.3556595E-1,-2.7203692E-2,-2.4039695E-1,-2.579566E-1,-2.7995985E-2,-1.7374462E-1,9.445656E-2,7.814917E-2,1.4118269E-2,2.8654896E-2,2.108039E-1,1.1546879E-1,-9.403223E-3,-5.0065637E-2,1.4293885E-1,1.0851845E-1,-1.0954618E-1,5.5370796E-2,1.6968788E-1,1.2856646E-1,2.3783982E-1,5.3095628E-2,2.6950902E-1,6.72536E-2,2.5542554E-1,5.436054E-2,1.7738712E-1,2.2859997E-1,2.7930316E-1,1.2355892E-1,-1.02774926E-1,2.2281389E-1,2.9924008E-1,-2.1894723E-1,3.079381E-1,1.9302896E-1,3.2462072E-1,3.5012847E-1,4.3313965E-1],"split_indices":[0,38,0,37,3,8,8,37,19,9,1,0,8,16,0,37,26,37,1,8,11,3,3,16,11,16,33,32,32,24,16,27,6,9,25,6,6,26,33,3,15,15,24,6,26,6,37,26,33,32,25,25,25,30,33,3,11,0,30,16,29,24,13,0,0,0,0,0,0,0,0,0,0,0,0,0,0,0,0,0,0,0,0,0,0,0,0,0,0,0,0,0,0,0,0,0,0,0,0,0,0,0,0,0,0,0,0,0,0,0,0,0,0,0,0,0,0,0,0,0,0,0,0,0,0,0,0],"split_type":[0,0,0,0,0,0,0,0,0,0,0,0,0,0,0,0,0,0,0,0,0,0,0,0,0,0,0,0,0,0,0,0,0,0,0,0,0,0,0,0,0,0,0,0,0,0,0,0,0,0,0,0,0,0,0,0,0,0,0,0,0,0,0,0,0,0,0,0,0,0,0,0,0,0,0,0,0,0,0,0,0,0,0,0,0,0,0,0,0,0,0,0,0,0,0,0,0,0,0,0,0,0,0,0,0,0,0,0,0,0,0,0,0,0,0,0,0,0,0,0,0,0,0,0,0,0,0],"sum_hessian":[1.8233286E5,9.664941E4,8.568346E4,2.0704016E4,7.594539E4,5.8518242E4,2.7165217E4,1.0732247E4,9.971768E3,1.2120303E4,6.3825086E4,3.3684656E4,2.483359E4,2.111098E4,6.0542373E3,3.3818442E3,7.3504033E3,3.723997E3,6.2477705E3,4.402049E3,7.7182544E3,1.4036591E4,4.9788492E4,1.9801393E4,1.3883263E4,1.885334E4,5.9802495E3,5.925443E3,1.5185537E4,3.5696228E3,2.4846143E3,3.1220754E3,2.5976883E2,1.1863236E3,6.1640796E3,4.6211194E2,3.261885E3,3.8179526E3,2.429818E3,4.2820757E3,1.1997338E2,2.9695962E3,4.748658E3,7.2083184E3,6.828273E3,2.3183213E4,2.6605281E4,1.8687832E4,1.1135596E3,1.662973E3,1.2220289E4,5.0875996E3,1.376574E4,5.44786E3,5.323899E2,2.151364E3,3.7740789E3,1.4847292E4,3.3824466E2,1.3706141E3,2.1990088E3,5.152312E2,1.9693832E3,3.0341846E2,2.818657E3,4.152526E1,2.1824356E2,7.261161E1,1.113712E3,3.713194E2,5.7927603E3,1.7368616E2,2.8842578E2,9.7553925E1,3.1643313E3,3.0283337E3,7.8961884E2,4.7200223E2,1.9578158E3,1.61965E3,2.6624255E3,3.3765503E1,8.620788E1,4.2524127E2,2.5443547E3,4.393889E3,3.5476886E2,6.8856655E3,3.2265283E2,4.873892E3,1.9543806E3,5.9181445E3,1.7265068E4,2.0946372E3,2.4510643E4,8.481742E3,1.0206091E4,1.705148E2,9.4304474E2,6.474585E2,1.0155145E3,3.4107358E2,1.1879216E4,4.944755E3,1.4284457E2,8.188427E2,1.2946897E4,7.078207E2,4.740039E3,4.7789258E2,5.44973E1,1.2823027E2,2.0231338E3,1.0320173E3,2.7420613E3,8.1876763E3,6.659616E3,2.3654622E2,1.0169844E2,8.127474E2,5.578668E2,6.683164E0,2.1923254E3,1.552097E2,3.6002148E2,1.7558297E3,2.1355344E2],"tree_param":{"num_deleted":"0","num_feature":"39","num_nodes":"127","size_leaf_vector":"1"}},{"base_weights":[-2.0399377E-2,-3.6878505E-1,4.344696E-1,-1.4818774E0,-2.4416946E-1,3.5250062E-1,6.535043E-1,-1.9010001E0,-1.0007894E0,-9.400838E-1,-1.06722176E-1,3.1977144E-1,5.7008564E-1,6.0795885E-1,8.67806E-1,-1.5933907E0,-1.9637583E0,-1.325984E0,-2.5784585E-1,-1.378578E0,-6.2416285E-1,-2.7809438E-1,2.1455608E-1,2.7951723E-1,4.571095E-1,3.924331E-2,6.0824835E-1,5.3018135E-1,7.1446645E-1,1.0774829E0,7.918697E-1,2.5221279E-2,-1.6878558E0,-1.6646062E0,-1.9838703E0,4.8335645E-1,-1.3920819E0,-5.692548E-1,1.0742645E0,-1.6587592E0,-1.0635257E0,5.796404E-1,-9.1895694E-1,-3.9137802E-1,2.0914303E-1,3.824301E-1,-9.321458E-2,2.2397791E-1,3.6397043E-1,5.37282E-1,3.5408553E-1,7.445811E-2,-5.3501517E-1,3.956754E-1,6.899338E-1,6.264273E-1,4.5079762E-1,7.3878E-1,3.7595782E-1,9.7601575E-1,1.2499667E0,8.861702E-1,6.0887706E-1,-3.9575097E-1,5.6113863E-1,-5.297522E-1,1.2559488E-1,2.0192282E-1,-5.8553296E-1,-5.9571207E-1,-7.204163E-2,4.5135608E-1,-5.8255076E-1,-4.340409E-1,2.2496668E-1,4.651262E-2,-3.5882145E-1,4.3495572E-1,-5.8015144E-1,-5.2099246E-1,-7.659882E-2,-3.587435E-1,1.3580887E-1,-1.8614452E-2,4.1538647E-1,-3.5748273E-1,-6.0715605E-2,-1.5507554E-1,1.2908648E-2,1.6169257E-1,4.3772005E-2,-6.502794E-2,1.4250478E-1,-2.7707672E-1,-5.2542016E-3,5.5348355E-2,1.293815E-1,2.2285635E-2,1.1753663E-1,1.4233659E-1,2.3181485E-1,-2.5027193E-2,1.166314E-1,7.953647E-2,-7.551339E-2,1.3269642E-1,-3.371593E-2,3.1169E-1,1.9455531E-1,1.550146E-1,2.2327487E-1,8.451046E-2,1.5008026E-1,2.7558652E-1,2.1340239E-1,-1.8779224E-1,1.3343751E-1,2.3517661E-1,3.1539336E-1,-1.3942239E-1,3.769473E-1,2.6785728E-1,-2.5768536E-1,4.116357E-2,2.0001158E-1],"categories":[],"categories_nodes":[],"categories_segments":[],"categories_sizes":[],"default_left":[0,0,0,0,0,0,0,0,0,0,0,0,0,0,0,0,0,0,0,0,0,0,0,0,0,0,0,0,0,0,0,0,0,0,0,0,0,0,0,0,0,0,0,0,0,0,0,0,0,0,0,0,0,0,0,0,0,0,0,0,0,0,0,0,0,0,0,0,0,0,0,0,0,0,0,0,0,0,0,0,0,0,0,0,0,0,0,0,0,0,0,0,0,0,0,0,0,0,0,0,0,0,0,0,0,0,0,0,0,0,0,0,0,0,0,0,0,0,0,0,0,0,0,0,0],"id":8,"left_children":[1,3,5,7,9,11,13,15,17,19,21,23,25,27,29,31,33,35,37,39,41,43,45,47,49,51,53,55,57,59,61,63,65,67,69,71,73,75,77,79,81,83,85,87,89,91,93,95,97,99,101,103,-1,105,107,109,111,113,115,117,119,121,123,-1,-1,-1,-1,-1,-1,-1,-1,-1,-1,-1,-1,-1,-1,-1,-1,-1,-1,-1,-1,-1,-1,-1,-1,-1,-1,-1,-1,-1,-1,-1,-1,-1,-1,-1,-1,-1,-1,-1,-1,-1,-1,-1,-1,-1,-1,-1,-1,-1,-1,-1,-1,-1,-1,-1,-1,-1,-1,-1,-1,-1,-1],"loss_changes":[2.7711578E4,1.3735353E4,1.3614775E3,2.0083867E3,8.518307E3,3.9286377E2,2.0105176E2,9.9708984E1,1.1216421E3,2.033874E3,4.0947114E3,2.651167E2,1.4614575E2,1.407456E2,5.6746582E1,1.3887134E2,2.3291016E1,3.8694385E2,5.876357E2,5.4110645E2,3.030835E3,2.6770896E3,1.3366831E3,1.7396216E2,8.962134E1,3.1261156E1,1.1660962E2,7.497388E1,5.887549E1,1.5564697E1,4.5354614E1,1.291163E2,1.4167139E2,1.9240509E2,1.2771484E1,2.8666925E2,3.6634717E2,5.2120575E2,3.0612708E2,3.5515625E2,5.817351E2,8.680746E2,1.3399756E3,2.146062E3,1.907623E2,9.287805E2,5.7399243E2,1.8315344E2,1.18587524E2,9.005371E1,7.229004E1,2.9715618E1,0E0,4.4389008E1,6.959985E1,5.7131958E1,4.5041992E1,3.243042E1,3.3635353E1,7.975525E0,4.5178833E0,2.1223877E1,2.466507E1,0E0,0E0,0E0,0E0,0E0,0E0,0E0,0E0,0E0,0E0,0E0,0E0,0E0,0E0,0E0,0E0,0E0,0E0,0E0,0E0,0E0,0E0,0E0,0E0,0E0,0E0,0E0,0E0,0E0,0E0,0E0,0E0,0E0,0E0,0E0,0E0,0E0,0E0,0E0,0E0,0E0,0E0,0E0,0E0,0E0,0E0,0E0,0E0,0E0,0E0,0E0,0E0,0E0,0E0,0E0,0E0,0E0,0E0,0E0,0E0,0E0,0E0],"parents":[2147483647,0,0,1,1,2,2,3,3,4,4,5,5,6,6,7,7,8,8,9,9,10,10,11,11,12,12,13,13,14,14,15,15,16,16,17,17,18,18,19,19,20,20,21,21,22,22,23,23,24,24,25,25,26,26,27,27,28,28,29,29,30,30,31,31,32,32,33,33,34,34,35,35,36,36,37,37,38,38,39,39,40,40,41,41,42,42,43,43,44,44,45,45,46,46,47,47,48,48,49,49,50,50,51,51,53,53,54,54,55,55,56,56,57,57,58,58,59,59,60,60,61,61,62,62],"right_children":[2,4,6,8,10,12,14,16,18,20,22,24,26,28,30,32,34,36,38,40,42,44,46,48,50,52,54,56,58,60,62,64,66,68,70,72,74,76,78,80,82,84,86,88,90,92,94,96,98,100,102,104,-1,106,108,110,112,114,116,118,120,122,124,-1,-1,-1,-1,-1,-1,-1,-1,-1,-1,-1,-1,-1,-1,-1,-1,-1,-1,-1,-1,-1,-1,-1,-1,-1,-1,-1,-1,-1,-1,-1,-1,-1,-1,-1,-1,-1,-1,-1,-1,-1,-1,-1,-1,-1,-1,-1,-1,-1,-1,-1,-1,-1,-1,-1,-1,-1,-1,-1,-1,-1,-1],"split_conditions":[1E-1,-5.8639556E-1,2.7E0,2.8848243E-1,5.8166668E1,3E0,7.5E0,7E0,7.2774804E-1,4.0542573E-1,1.1307122E0,1.9E0,1.9328351E0,2.3E0,7.0709934E0,7.6666665E-1,1.2430738E0,-3.4433668E0,4.3437046E1,5.2333332E1,-8.4061843E-1,1E-1,4.3965088E1,3.59E2,1.5478555E1,1.75E1,7.5004067E0,9.692379E0,2.4210604E1,1.1E1,3.2042328E-1,6.2546337E-1,7.6E0,2.12E1,2E-1,5.653447E-1,1E-1,1.9277937E1,5.794211E-1,3.5839338E0,2.3335726E0,-5E-1,2.1057193E0,2.9958808E0,-5.6670177E-1,-1.5474985E0,-1.4299611E0,3.0946825E0,1.3708463E1,4.8E0,1.9328351E0,4.7115952E-1,-5.3501517E-1,5.507705E1,1.634752E1,1.43E2,2.7E1,4.7990026E0,6.7E0,2.95E0,1.1166667E0,2.34E1,1.9328351E0,-3.9575097E-1,5.6113863E-1,-5.297522E-1,1.2559488E-1,2.0192282E-1,-5.8553296E-1,-5.9571207E-1,-7.204163E-2,4.5135608E-1,-5.8255076E-1,-4.340409E-1,2.2496668E-1,4.651262E-2,-3.5882145E-1,4.3495572E-1,-5.8015144E-1,-5.2099246E-1,-7.659882E-2,-3.587435E-1,1.3580887E-1,-1.8614452E-2,4.1538647E-1,-3.5748273E-1,-6.0715605E-2,-1.5507554E-1,1.2908648E-2,1.6169257E-1,4.3772005E-2,-6.502794E-2,1.4250478E-1,-2.7707672E-1,-5.2542016E-3,5.5348355E-2,1.293815E-1,2.2285635E-2,1.1753663E-1,1.4233659E-1,2.3181485E-1,-2.5027193E-2,1.166314E-1,7.953647E-2,-7.551339E-2,1.3269642E-1,-3.371593E-2,3.1169E-1,1.9455531E-1,1.550146E-1,2.2327487E-1,8.451046E-2,1.5008026E-1,2.7558652E-1,2.1340239E-1,-1.8779224E-1,1.3343751E-1,2.3517661E-1,3.1539336E-1,-1.3942239E-1,3.769473E-1,2.6785728E-1,-2.5768536E-1,4.116357E-2,2.0001158E-1],"split_indices":[8,38,0,37,19,16,0,26,7,38,15,8,25,16,32,1,25,6,34,3,37,16,27,24,33,5,32,32,33,0,37,6,9,12,0,37,16,34,37,7,15,35,14,6,37,14,14,15,34,8,25,37,0,25,34,24,24,27,20,1,17,20,25,0,0,0,0,0,0,0,0,0,0,0,0,0,0,0,0,0,0,0,0,0,0,0,0,0,0,0,0,0,0,0,0,0,0,0,0,0,0,0,0,0,0,0,0,0,0,0,0,0,0,0,0,0,0,0,0,0,0,0,0,0,0],"split_type":[0,0,0,0,0,0,0,0,0,0,0,0,0,0,0,0,0,0,0,0,0,0,0,0,0,0,0,0,0,0,0,0,0,0,0,0,0,0,0,0,0,0,0,0,0,0,0,0,0,0,0,0,0,0,0,0,0,0,0,0,0,0,0,0,0,0,0,0,0,0,0,0,0,0,0,0,0,0,0,0,0,0,0,0,0,0,0,0,0,0,0,0,0,0,0,0,0,0,0,0,0,0,0,0,0,0,0,0,0,0,0,0,0,0,0,0,0,0,0,0,0,0,0,0,0],"sum_hessian":[1.7486772E5,9.902462E4,7.584309E4,9.968954E3,8.9055664E4,5.5191484E4,2.0651611E4,5.3260034E3,4.6429507E3,1.4687089E4,7.436857E4,4.797722E4,7.214266E3,1.7035006E4,3.616606E3,9.0695557E2,4.419048E3,3.228859E3,1.4140919E3,6.1489976E3,8.538091E3,4.849899E4,2.5869584E4,3.710474E4,1.0872482E4,4.8399057E2,6.7302754E3,9.848835E3,7.1861704E3,9.580446E2,2.6585613E3,5.0053154E1,8.569024E2,2.8365317E2,4.135395E3,1.1357525E2,3.1152834E3,1.1466184E3,2.674736E2,3.2523577E3,2.89664E3,1.6793666E3,6.8587246E3,3.9350188E4,9.1488E3,1.6739018E4,9.130567E3,2.2386357E4,1.471838E4,6.1119756E3,4.760507E3,4.7575766E2,8.232919E0,1.8699313E3,4.860344E3,4.448507E3,5.400328E3,6.7035044E3,4.8266608E2,6.073922E2,3.5065234E2,1.7519147E3,9.0664655E2,2.912129E1,2.0931866E1,8.264675E2,3.0434868E1,3.0885866E1,2.5276729E2,4.1309053E3,4.4894524E0,8.0189766E1,3.338548E1,3.037996E3,7.728743E1,5.322952E2,6.143231E2,2.3824469E2,2.9228907E1,3.0811348E3,1.7122287E2,2.6643909E3,2.3224918E2,9.3497595E2,7.443906E2,4.967827E3,1.8908975E3,3.0527715E4,8.822474E3,1.4706365E3,7.678163E3,2.2401355E3,1.4498881E4,7.619031E2,8.368664E3,1.8806213E4,3.5801445E3,1.2898842E3,1.3428496E4,4.826908E3,1.2850676E3,3.495868E2,4.4109204E3,3.0036526E2,1.7539238E2,1.7128053E3,1.57126E2,5.129968E2,4.347347E3,2.306323E3,2.142184E3,1.2238174E3,4.1765107E3,8.830779E2,5.820427E3,3.050772E1,4.5215836E2,1.7425185E2,4.3314038E2,1.0629143E0,3.4958945E2,1.7457135E3,6.2012415E0,9.93871E1,8.0725946E2],"tree_param":{"num_deleted":"0","num_feature":"39","num_nodes":"125","size_leaf_vector":"1"}},{"base_weights":[-1.873081E-2,-7.026492E-1,1.1801601E-1,-1.2579749E0,-4.0152508E-1,-9.301033E-2,3.2868543E-1,-1.3393741E0,4.7381958E-1,-1.0631816E-1,-7.069997E-1,-1.120446E0,-3.69246E-2,2.4608296E-1,4.6197557E-1,-1.4697533E0,-5.6052506E-1,2.603063E-1,1.7646732E0,-3.7448514E-2,-1.3406348E0,-4.3397102E-1,-1.2865881E0,-1.7703519E0,-4.5834404E-1,-9.098288E-1,1.9056599E-3,3.709851E-1,1.9673505E-1,4.2152014E-1,6.465237E-1,-1.5966477E0,-7.6135075E-1,-3.2477453E-1,-1.7237927E0,-6.677404E-2,6.5684354E-1,-2.0041364E-1,1.8532248E0,-1.1224155E-1,1.0304221E0,3.030009E-1,-1.5488851E0,-1.4453222E0,-2.0632075E-1,-1.6842468E0,-8.9334244E-1,-7.350479E-1,-1.8501443E0,-1.2232221E0,7.999529E-2,-4.6156548E-2,-1.1850022E0,-2.900885E-1,1.1958918E-1,4.9788693E-1,2.6171365E-1,1.6151564E-1,3.833209E-1,3.920369E-1,5.6944215E-1,5.8026725E-1,8.224466E-1,-5.4647386E-1,-4.1167197E-1,4.9935737E-1,-2.9425913E-1,-2.1954109E-1,2.7665383E-1,3.7196156E-1,-5.35938E-1,9.7552456E-2,-1.0417869E-1,5.2279018E-2,3.805093E-1,5.6922126E-1,-7.966982E-2,-3.7692893E-1,-8.57587E-3,-4.7953004E-1,3.4843424E-1,-4.0591615E-1,2.537499E-1,-5.089987E-1,1.5192226E-1,-5.68631E-1,-3.2659894E-1,-2.063811E-1,5.4717217E-2,-5.2245116E-1,-1.5786374E-3,-4.6921256E-1,-1.1513466E-1,2.0546494E-1,-5.086746E-1,-4.0000075E-1,-5.867249E-1,-4.2722014E-1,3.1975648E-1,-2.081485E-1,2.5571233E-1,-1.4999191E-1,2.0875438E-1,-4.7828922E-1,-2.2596855E-1,-1.7957215E-1,2.2132453E-2,6.4018056E-2,-7.718559E-2,8.498921E-2,1.7541698E-1,4.0077776E-2,1.2453357E-1,5.4548077E-2,-3.4978855E-2,8.2891785E-2,1.6647792E-1,9.698253E-2,1.3666579E-1,5.358009E-2,1.8361552E-1,1.4047775E-1,2.049039E-1,3.0670342E-1,2.1378951E-1],"categories":[],"categories_nodes":[],"categories_segments":[],"categories_sizes":[],"default_left":[0,0,0,0,0,0,0,0,0,0,0,0,0,0,0,0,0,0,0,0,0,0,0,0,0,0,0,0,0,0,0,0,0,0,0,0,0,0,0,0,0,0,0,0,0,0,0,0,0,0,0,0,0,0,0,0,0,0,0,0,0,0,0,0,0,0,0,0,0,0,0,0,0,0,0,0,0,0,0,0,0,0,0,0,0,0,0,0,0,0,0,0,0,0,0,0,0,0,0,0,0,0,0,0,0,0,0,0,0,0,0,0,0,0,0,0,0,0,0,0,0,0,0,0,0],"id":9,"left_children":[1,3,5,7,9,11,13,15,17,19,21,23,25,27,29,31,33,35,37,39,41,43,45,47,49,51,53,55,57,59,61,63,65,67,69,71,73,-1,75,77,79,81,83,85,87,89,91,93,95,97,99,101,103,105,107,109,111,113,115,117,119,121,123,-1,-1,-1,-1,-1,-1,-1,-1,-1,-1,-1,-1,-1,-1,-1,-1,-1,-1,-1,-1,-1,-1,-1,-1,-1,-1,-1,-1,-1,-1,-1,-1,-1,-1,-1,-1,-1,-1,-1,-1,-1,-1,-1,-1,-1,-1,-1,-1,-1,-1,-1,-1,-1,-1,-1,-1,-1,-1,-1,-1,-1,-1],"loss_changes":[1.5867359E4,4.726951E3,6.2858203E3,1.4017471E3,1.6530911E3,4.0703457E3,7.789116E2,9.631914E2,1.2272432E2,7.925515E2,1.4251035E3,1.572501E3,2.2703345E3,2.6919263E2,2.0183545E2,7.297383E2,3.7321027E2,4.9936825E1,1.4865784E1,7.0554095E2,1.6911993E2,1.4100667E3,4.49562E2,1.5103662E2,7.4641846E2,6.779153E2,2.203709E3,1.7141272E2,2.0573035E2,9.662305E1,5.6233765E1,3.4554883E2,6.6045905E2,5.7648114E2,4.4827026E1,2.3387718E1,5.111914E1,0E0,6.2423706E0,7.901149E2,2.0102002E2,5.170539E1,1.3373059E2,1.7859961E2,9.364389E2,1.3775659E2,4.9577893E2,1.8346654E2,9.0836426E1,3.4576733E2,6.36959E2,2.3280266E2,3.8111572E2,2.0678545E3,1.61596E3,1.0646936E2,1.30626E2,1.4884094E2,9.115094E1,8.07334E1,6.13136E1,4.0393066E1,2.8438843E1,0E0,0E0,0E0,0E0,0E0,0E0,0E0,0E0,0E0,0E0,0E0,0E0,0E0,0E0,0E0,0E0,0E0,0E0,0E0,0E0,0E0,0E0,0E0,0E0,0E0,0E0,0E0,0E0,0E0,0E0,0E0,0E0,0E0,0E0,0E0,0E0,0E0,0E0,0E0,0E0,0E0,0E0,0E0,0E0,0E0,0E0,0E0,0E0,0E0,0E0,0E0,0E0,0E0,0E0,0E0,0E0,0E0,0E0,0E0,0E0,0E0,0E0],"parents":[2147483647,0,0,1,1,2,2,3,3,4,4,5,5,6,6,7,7,8,8,9,9,10,10,11,11,12,12,13,13,14,14,15,15,16,16,17,17,18,18,19,19,20,20,21,21,22,22,23,23,24,24,25,25,26,26,27,27,28,28,29,29,30,30,31,31,32,32,33,33,34,34,35,35,36,36,38,38,39,39,40,40,41,41,42,42,43,43,44,44,45,45,46,46,47,47,48,48,49,49,50,50,51,51,52,52,53,53,54,54,55,55,56,56,57,57,58,58,59,59,60,60,61,61,62,62],"right_children":[2,4,6,8,10,12,14,16,18,20,22,24,26,28,30,32,34,36,38,40,42,44,46,48,50,52,54,56,58,60,62,64,66,68,70,72,74,-1,76,78,80,82,84,86,88,90,92,94,96,98,100,102,104,106,108,110,112,114,116,118,120,122,124,-1,-1,-1,-1,-1,-1,-1,-1,-1,-1,-1,-1,-1,-1,-1,-1,-1,-1,-1,-1,-1,-1,-1,-1,-1,-1,-1,-1,-1,-1,-1,-1,-1,-1,-1,-1,-1,-1,-1,-1,-1,-1,-1,-1,-1,-1,-1,-1,-1,-1,-1,-1,-1,-1,-1,-1,-1,-1,-1,-1,-1,-1],"split_conditions":[6.7E1,1.24479264E-1,1E-1,1E-1,1.85E2,-6.1385614E-1,1.8E0,1.5354677E0,3.727957E1,2.54E1,8.248548E-1,2.8848243E-1,7.1666664E-1,7.762733E0,6.3E0,6.3166668E1,-1.3301471E-1,1.5039543E1,8.660254E-1,5.53E2,1.97E1,4.2166668E1,5.8166668E1,1.2430738E0,1.92E1,1.2986343E1,-4.924703E-1,2.7E1,6.016667E0,4.7E0,1.11E1,3.0411482E-1,-3.33E2,-2.344914E-1,-1.4082323E-1,7.6591244E0,3.3459668E0,-2.0041364E-1,5.0666666E0,1.3333334E0,4.35E1,1.028155E0,6.5796447E0,3.25E1,1.87E1,1E-1,1.43E1,-6.152846E-1,9.6666664E-1,1E-1,5.907228E-1,9.692379E0,8.6166664E1,1.826455E0,5.846085E1,5E-1,1.01E2,2.6265707E1,1.7485521E1,2.31E2,-3E0,1.85E2,8.560624E0,-5.4647386E-1,-4.1167197E-1,4.9935737E-1,-2.9425913E-1,-2.1954109E-1,2.7665383E-1,3.7196156E-1,-5.35938E-1,9.7552456E-2,-1.0417869E-1,5.2279018E-2,3.805093E-1,5.6922126E-1,-7.966982E-2,-3.7692893E-1,-8.57587E-3,-4.7953004E-1,3.4843424E-1,-4.0591615E-1,2.537499E-1,-5.089987E-1,1.5192226E-1,-5.68631E-1,-3.2659894E-1,-2.063811E-1,5.4717217E-2,-5.2245116E-1,-1.5786374E-3,-4.6921256E-1,-1.1513466E-1,2.0546494E-1,-5.086746E-1,-4.0000075E-1,-5.867249E-1,-4.2722014E-1,3.1975648E-1,-2.081485E-1,2.5571233E-1,-1.4999191E-1,2.0875438E-1,-4.7828922E-1,-2.2596855E-1,-1.7957215E-1,2.2132453E-2,6.4018056E-2,-7.718559E-2,8.498921E-2,1.7541698E-1,4.0077776E-2,1.2453357E-1,5.4548077E-2,-3.4978855E-2,8.2891785E-2,1.6647792E-1,9.698253E-2,1.3666579E-1,5.358009E-2,1.8361552E-1,1.4047775E-1,2.049039E-1,3.0670342E-1,2.1378951E-1],"split_indices":[3,38,16,8,26,38,0,7,32,13,38,37,1,27,0,3,38,32,35,24,21,3,3,27,21,33,7,26,9,16,0,37,24,38,25,32,6,0,9,1,19,6,22,3,4,8,20,37,1,8,23,32,19,22,29,16,28,33,33,24,28,24,32,0,0,0,0,0,0,0,0,0,0,0,0,0,0,0,0,0,0,0,0,0,0,0,0,0,0,0,0,0,0,0,0,0,0,0,0,0,0,0,0,0,0,0,0,0,0,0,0,0,0,0,0,0,0,0,0,0,0,0,0,0,0],"split_type":[0,0,0,0,0,0,0,0,0,0,0,0,0,0,0,0,0,0,0,0,0,0,0,0,0,0,0,0,0,0,0,0,0,0,0,0,0,0,0,0,0,0,0,0,0,0,0,0,0,0,0,0,0,0,0,0,0,0,0,0,0,0,0,0,0,0,0,0,0,0,0,0,0,0,0,0,0,0,0,0,0,0,0,0,0,0,0,0,0,0,0,0,0,0,0,0,0,0,0,0,0,0,0,0,0,0,0,0,0,0,0,0,0,0,0,0,0,0,0,0,0,0,0,0,0],"sum_hessian":[1.6965953E5,2.826955E4,1.4138998E5,9.938336E3,1.8331215E4,7.063544E4,7.0754555E4,9.492394E3,4.4594214E2,9.322964E3,9.008251E3,3.6552815E3,6.698016E4,4.3684977E4,2.7069576E4,8.130468E3,1.361926E3,3.8368115E2,6.226101E1,8.831248E3,4.9171594E2,6.124779E3,2.883472E3,1.843785E3,1.8114965E3,2.8516921E3,6.412846E4,1.23698125E4,3.1315162E4,2.2205188E4,4.864389E3,6.894261E3,1.2362069E3,1.1334896E3,2.2843645E2,2.1071022E2,1.7297093E2,1.9568769E0,6.0304134E1,8.254035E3,5.7721295E2,5.5243828E1,4.364721E2,1.1243651E3,5.0004136E3,1.4320591E3,1.451413E3,1.3266547E2,1.7111196E3,7.477761E2,1.0637203E3,6.8932196E2,2.16237E3,1.8421045E4,4.5707418E4,5.721556E3,6.648256E3,2.6344346E4,4.9708174E3,1.851792E4,3.6872668E3,3.5366904E3,1.3276987E3,3.4395579E3,3.4547031E3,1.0203358E2,1.1341733E3,8.548603E2,2.7862927E2,4.34133E0,2.2409512E2,8.782539E1,1.2288482E2,9.739604E1,7.557489E1,5.9174755E1,1.1293775E0,5.61408E2,7.6926274E3,2.6871477E1,5.5034143E2,1.3269397E1,4.197443E1,4.0735727E2,2.9114828E1,4.9515283E2,6.292123E2,2.2329739E3,2.76744E3,1.3847971E3,4.7261925E1,6.2573334E2,8.256796E2,5.364723E1,7.9018234E1,2.9263843E2,1.4184812E3,6.8780554E2,5.9970562E1,5.314141E2,5.323062E2,4.2792526E2,2.6139667E2,1.1086991E3,1.053671E3,9.968798E3,8.452246E3,3.6598465E4,9.108951E3,1.6495233E3,4.072033E3,3.6236155E3,3.0246406E3,2.455162E4,1.7927269E3,3.06319E3,1.9076272E3,8.894673E3,9.623247E3,3.6297983E2,3.324287E3,1.6947346E3,1.8419558E3,4.678156E2,8.5988306E2],"tree_param":{"num_deleted":"0","num_feature":"39","num_nodes":"125","size_leaf_vector":"1"}},{"base_weights":[-1.7337708E-2,-8.062076E-1,5.3174235E-2,-1.3148773E0,-4.7546703E-1,-1.1801138E-1,2.3644741E-1,-1.4790195E0,-4.9394682E-1,-1.603655E-2,-7.890734E-1,-3.8879514E-1,5.443093E-2,1.9944054E-1,4.2254502E-1,-1.5236243E0,7.0127404E-1,-1.1944517E0,2.2751074E-1,-1.1293505E0,2.6352867E-1,-1.6666496E0,-5.1978624E-1,-7.5582236E-1,-1.5759782E-1,-1.2347609E-1,2.5326848E-1,1.325925E-1,2.69747E-1,4.6044722E-1,2.6099834E-1,-1.2869829E0,-1.8096899E0,3.4247413E-1,5.1406556E-1,-1.635396E0,-3.664683E-1,4.371757E-1,-5.8460045E-1,-1.3593884E0,-2.9898062E-1,-6.976208E-1,6.548426E-1,-1.7116625E0,1.1461936E0,-1.103485E0,-2.6987058E-1,-5.336619E-1,-1.4700884E0,-5.6606644E-1,-2.6619234E-3,-4.2539415E-1,9.7032726E-2,-6.7750657E-1,3.1116325E-1,8.135755E-2,2.645474E-1,2.1361767E-1,3.2093573E-1,3.9340988E-1,5.793366E-1,2.3181736E-1,8.492277E-1,-2.7080506E-1,-5.398448E-1,-5.713101E-1,-4.3477148E-1,-2.732394E-1,1.6509312E-1,-5.2375275E-1,-9.991994E-3,-4.6025425E-1,1.0827012E-1,1.8733422E-1,-5.639158E-1,-4.445252E-1,2.886992E-1,-4.1639128E-1,2.344261E-1,-3.2546023E-1,6.556726E-2,-1.9316938E-2,3.0500257E-1,-5.259676E-1,3.4043908E-1,-4.416637E-1,5.092896E-1,-4.7542524E-1,-1.8360816E-1,-5.578681E-3,-2.9009423E-1,-3.5391724E-1,-7.148621E-2,-5.3887236E-1,-2.4740341E-1,1.3312916E-1,-2.0842026E-1,-4.7447878E-1,8.676495E-3,-2.0335676E-1,-2.907236E-2,-7.39169E-2,6.026894E-2,-1.0292254E-1,-3.7827316E-1,-2.3323996E-1,1.0745391E-1,1.362545E-2,8.55158E-2,7.646311E-2,4.9406692E-1,3.6409464E-2,8.286955E-2,3.14031E-2,1.0065181E-1,1.19669326E-1,-1.4275971E-1,1.1952513E-1,1.9075523E-1,-8.546586E-2,7.784707E-2,2.9239804E-1,-2.7100876E-1],"categories":[],"categories_nodes":[],"categories_segments":[],"categories_sizes":[],"default_left":[0,0,0,0,0,0,0,0,0,0,0,0,0,0,0,0,0,0,0,0,0,0,0,0,0,0,0,0,0,0,0,0,0,0,0,0,0,0,0,0,0,0,0,0,0,0,0,0,0,0,0,0,0,0,0,0,0,0,0,0,0,0,0,0,0,0,0,0,0,0,0,0,0,0,0,0,0,0,0,0,0,0,0,0,0,0,0,0,0,0,0,0,0,0,0,0,0,0,0,0,0,0,0,0,0,0,0,0,0,0,0,0,0,0,0,0,0,0,0,0,0,0,0],"id":10,"left_children":[1,3,5,7,9,11,13,15,17,19,21,23,25,27,29,31,33,35,37,39,41,43,45,47,49,51,53,55,57,59,61,63,65,67,-1,69,71,73,-1,75,77,79,81,83,85,87,89,91,93,95,97,99,101,103,105,107,109,111,113,115,117,119,121,-1,-1,-1,-1,-1,-1,-1,-1,-1,-1,-1,-1,-1,-1,-1,-1,-1,-1,-1,-1,-1,-1,-1,-1,-1,-1,-1,-1,-1,-1,-1,-1,-1,-1,-1,-1,-1,-1,-1,-1,-1,-1,-1,-1,-1,-1,-1,-1,-1,-1,-1,-1,-1,-1,-1,-1,-1,-1,-1,-1],"loss_changes":[9.217276E3,2.2867324E3,4.772249E3,7.210508E2,1.1872859E3,3.6724858E3,5.0583447E2,4.3514258E2,4.5210934E2,1.0411118E3,1.1565063E3,2.5964067E3,1.6997926E3,2.8796094E2,7.448389E1,2.9378516E2,3.2162422E1,1.6506989E2,2.021925E2,1.27837036E2,1.0060552E3,1.4750415E2,5.46588E2,1.875708E3,1.1881874E3,1.6884377E3,1.222947E3,2.1235577E2,8.574048E1,7.841675E1,3.9587433E1,4.7054907E2,6.473779E1,1.816695E1,0E0,5.2282043E1,1.3557703E2,1.7616748E2,0E0,1.5070105E2,1.7394907E2,2.748668E2,4.946819E2,1.358872E2,2.9505999E1,2.6478967E2,4.6003467E2,1.7213083E3,5.889678E2,6.711561E2,6.7889044E2,8.876626E2,5.228544E2,2.5887543E2,1.0936968E3,1.6564764E2,1.17020996E2,8.2269104E1,4.917688E1,3.030487E1,3.610205E1,3.1667892E1,2.487931E1,0E0,0E0,0E0,0E0,0E0,0E0,0E0,0E0,0E0,0E0,0E0,0E0,0E0,0E0,0E0,0E0,0E0,0E0,0E0,0E0,0E0,0E0,0E0,0E0,0E0,0E0,0E0,0E0,0E0,0E0,0E0,0E0,0E0,0E0,0E0,0E0,0E0,0E0,0E0,0E0,0E0,0E0,0E0,0E0,0E0,0E0,0E0,0E0,0E0,0E0,0E0,0E0,0E0,0E0,0E0,0E0,0E0,0E0,0E0,0E0],"parents":[2147483647,0,0,1,1,2,2,3,3,4,4,5,5,6,6,7,7,8,8,9,9,10,10,11,11,12,12,13,13,14,14,15,15,16,16,17,17,18,18,19,19,20,20,21,21,22,22,23,23,24,24,25,25,26,26,27,27,28,28,29,29,30,30,31,31,32,32,33,33,35,35,36,36,37,37,39,39,40,40,41,41,42,42,43,43,44,44,45,45,46,46,47,47,48,48,49,49,50,50,51,51,52,52,53,53,54,54,55,55,56,56,57,57,58,58,59,59,60,60,61,61,62,62],"right_children":[2,4,6,8,10,12,14,16,18,20,22,24,26,28,30,32,34,36,38,40,42,44,46,48,50,52,54,56,58,60,62,64,66,68,-1,70,72,74,-1,76,78,80,82,84,86,88,90,92,94,96,98,100,102,104,106,108,110,112,114,116,118,120,122,-1,-1,-1,-1,-1,-1,-1,-1,-1,-1,-1,-1,-1,-1,-1,-1,-1,-1,-1,-1,-1,-1,-1,-1,-1,-1,-1,-1,-1,-1,-1,-1,-1,-1,-1,-1,-1,-1,-1,-1,-1,-1,-1,-1,-1,-1,-1,-1,-1,-1,-1,-1,-1,-1,-1,-1,-1,-1,-1,-1],"split_conditions":[5.6666668E1,1.24479264E-1,1E-1,1.5695226E0,-6.6015214E-1,5.294339E-1,3.7E0,1E-1,4.55E0,-9.14128E-1,4.1833332E1,5.4524046E-1,1.26E1,1E0,1.9184965E1,4.66E2,7.67E2,4E2,3.24E1,5.314536E-1,2.45E0,9.922222E-1,2.6166666E0,-8.29677E-1,2.05E0,8.75E1,-2.095332E0,1.44E1,1.1027547E0,6.5E0,2.8630585E1,2.8216667E1,9.033558E-1,1.86E1,5.1406556E-1,2E-1,2.8166666E0,-1.3301471E-1,-5.8460045E-1,7.323152E0,3.7666667E0,9.1752964E-1,-6.5077215E-1,1E-1,6.73E2,5.074151E-1,4.66E2,-9.393448E-1,1.8771857E-1,0E0,4.4166668E1,1.6315668E0,1.6666666E0,3.8909443E1,1.3708463E1,7.69E2,2.84E1,1.71E2,1.2430738E0,2.01E1,8.660254E-1,7.4666664E1,5.4E0,-2.7080506E-1,-5.398448E-1,-5.713101E-1,-4.3477148E-1,-2.732394E-1,1.6509312E-1,-5.2375275E-1,-9.991994E-3,-4.6025425E-1,1.0827012E-1,1.8733422E-1,-5.639158E-1,-4.445252E-1,2.886992E-1,-4.1639128E-1,2.344261E-1,-3.2546023E-1,6.556726E-2,-1.9316938E-2,3.0500257E-1,-5.259676E-1,3.4043908E-1,-4.416637E-1,5.092896E-1,-4.7542524E-1,-1.8360816E-1,-5.578681E-3,-2.9009423E-1,-3.5391724E-1,-7.148621E-2,-5.3887236E-1,-2.4740341E-1,1.3312916E-1,-2.0842026E-1,-4.7447878E-1,8.676495E-3,-2.0335676E-1,-2.907236E-2,-7.39169E-2,6.026894E-2,-1.0292254E-1,-3.7827316E-1,-2.3323996E-1,1.0745391E-1,1.362545E-2,8.55158E-2,7.646311E-2,4.9406692E-1,3.6409464E-2,8.286955E-2,3.14031E-2,1.0065181E-1,1.19669326E-1,-1.4275971E-1,1.1952513E-1,1.9075523E-1,-8.546586E-2,7.784707E-2,2.9239804E-1,-2.7100876E-1],"split_indices":[3,38,8,7,37,38,8,16,9,37,3,37,5,0,33,26,26,24,13,23,9,37,17,37,17,3,22,4,15,8,32,10,37,4,0,8,9,38,0,22,9,7,23,0,24,37,26,23,37,30,19,22,1,31,34,24,21,24,25,21,36,3,0,0,0,0,0,0,0,0,0,0,0,0,0,0,0,0,0,0,0,0,0,0,0,0,0,0,0,0,0,0,0,0,0,0,0,0,0,0,0,0,0,0,0,0,0,0,0,0,0,0,0,0,0,0,0,0,0,0,0,0,0],"split_type":[0,0,0,0,0,0,0,0,0,0,0,0,0,0,0,0,0,0,0,0,0,0,0,0,0,0,0,0,0,0,0,0,0,0,0,0,0,0,0,0,0,0,0,0,0,0,0,0,0,0,0,0,0,0,0,0,0,0,0,0,0,0,0,0,0,0,0,0,0,0,0,0,0,0,0,0,0,0,0,0,0,0,0,0,0,0,0,0,0,0,0,0,0,0,0,0,0,0,0,0,0,0,0,0,0,0,0,0,0,0,0,0,0,0,0,0,0,0,0,0,0,0,0],"sum_hessian":[1.6570281E5,1.3594994E4,1.5210781E5,5.3554653E3,8.239529E3,7.864764E4,7.346017E4,4.462418E3,8.930471E2,3.343047E3,4.896482E3,3.0598299E4,4.804934E4,6.127689E4,1.2183285E4,4.3732505E3,8.916739E1,4.5277048E2,4.4027664E2,6.703739E2,2.672673E3,1.1484912E3,3.747991E3,1.1824523E4,1.8773775E4,2.5359592E4,2.2689748E4,3.1412484E4,2.9864404E4,9.866541E3,2.3167441E3,2.3963892E3,1.9768616E3,6.68211E1,2.2346287E1,2.9479932E2,1.5797116E2,4.0231458E2,3.796208E1,5.2444855E2,1.4592537E2,7.7306934E2,1.8996038E3,1.1307871E3,1.7704145E1,1.122615E3,2.625376E3,9.020573E3,2.8039504E3,5.1620474E3,1.3611728E4,1.0703524E4,1.4656067E4,1.3280446E3,2.1361703E4,2.2628135E4,8.784351E3,1.4247242E4,1.5617161E4,6.311838E3,3.554703E3,2.208575E3,1.08169205E2,1.3710585E3,1.0253306E3,1.5622375E3,4.1462393E2,9.023892E0,5.7797207E1,2.757029E2,1.9096424E1,6.020664E1,9.776452E1,3.7290372E2,2.9410852E1,4.9853586E2,2.59127E1,7.253202E1,7.339335E1,5.432616E2,2.2980775E2,6.3607275E2,1.263531E3,1.1148921E3,1.5895029E1,2.7894027E0,1.49147415E1,5.660648E2,5.565501E2,1.9305364E3,6.948396E2,2.829254E3,6.19132E3,1.8614827E3,9.424677E2,5.831136E2,4.5789336E3,2.6597473E2,1.3345753E4,6.0515083E3,4.652016E3,3.402948E3,1.1253119E4,8.4515466E2,4.8288992E2,8.8374445E2,2.0477959E4,1.92355E4,3.3926338E3,8.724501E3,5.984921E1,5.7614824E3,8.48576E3,9.86296E2,1.4630865E4,6.2727783E3,3.9059715E1,8.480088E2,2.706694E3,1.11798325E2,2.0967766E3,1.0135886E2,6.8103495E0],"tree_param":{"num_deleted":"0","num_feature":"39","num_nodes":"123","size_leaf_vector":"1"}},{"base_weights":[-1.550903E-2,-4.7198024E-1,6.4277455E-2,-1.0921849E0,-3.0357698E-1,-7.011122E-1,8.227895E-2,-1.684974E0,-8.8511E-1,-6.013189E-1,-8.134469E-2,-1.4922742E0,-1.7734762E-1,-3.4952503E-1,1.07957594E-1,-5.9893405E-1,-1.4563019E0,2.7463052E-1,-1.107133E0,-1.0788527E0,-4.2135933E-1,7.2474316E-2,-4.9919987E-1,-7.0640534E-1,-1.7541354E0,-6.342924E-1,4.4648397E-1,-1.1148927E-1,-8.689776E-1,-1.3568544E-1,1.407028E-1,4.216543E-1,-1.5856986E0,-1.5734491E0,6.659371E-1,-1.3506306E0,-1.4928316E-1,-1.1978245E0,1.4157796E-1,-3.98209E-2,-7.739182E-1,-5.339055E-1,1.8698075E-1,-8.547568E-1,-1.4858165E-1,-1.699592E0,1.9558145E-1,-1.1486379E0,-1.9443252E0,9.2199063E-1,-8.9191747E-1,-5.783985E-1,7.728466E-1,1.01664215E-1,-1.0431018E0,-1.0642377E0,1.5514804E-1,-4.6214426E-1,1.8286223E-2,1.496555E-1,-6.281833E-1,-3.7097728E-1,3.022781E-1,-5.165769E-1,-8.992058E-2,-5.427527E-1,2.8041001E-2,2.949335E-1,-3.8768318E-1,-4.3130648E-1,1.4878826E-1,1.0645475E-1,-5.9573627E-1,-3.7782094E-1,1.0784101E-1,-4.0101312E-2,2.8534824E-1,-7.0198774E-2,4.2489743E-1,-5.0190276E-1,-1.8219319E-1,-5.7507974E-1,-1.2339473E-1,1.3575801E-1,-1.8312441E-2,3.0089623E-1,-2.7405435E-1,-5.028916E-1,-1.7621375E-4,1.3171022E-1,-5.358372E-1,-3.9571062E-1,2.83469E-1,2.1322459E-1,-4.866615E-1,-5.8939904E-1,2.846802E-2,3.6845785E-1,-3.2513645E-1,-8.3146796E-2,-4.025755E-1,4.912182E-1,-2.5931764E-1,-1.9621533E-1,3.0508903E-1,-1.2542148E-1,1.5442358E-1,-1.762312E-1,-4.6327513E-1,-3.5071543E-1,1.5337792E-1,-3.409398E-2,2.0231535E-1,-2.8333109E-2,-2.8288928E-1,1.8359274E-2,-1.8304297E-1,2.8610455E-2,7.9251885E-2,-3.6632365E-1,6.8673147E-3],"categories":[],"categories_nodes":[],"categories_segments":[],"categories_sizes":[],"default_left":[0,0,0,0,0,0,0,0,0,0,0,0,0,0,0,0,0,0,0,0,0,0,0,0,0,0,0,0,0,0,0,0,0,0,0,0,0,0,0,0,0,0,0,0,0,0,0,0,0,0,0,0,0,0,0,0,0,0,0,0,0,0,0,0,0,0,0,0,0,0,0,0,0,0,0,0,0,0,0,0,0,0,0,0,0,0,0,0,0,0,0,0,0,0,0,0,0,0,0,0,0,0,0,0,0,0,0,0,0,0,0,0,0,0,0,0,0,0,0,0,0],"id":11,"left_children":[1,3,5,7,9,11,13,15,17,19,21,23,25,27,29,-1,31,33,35,37,39,41,43,45,47,49,51,53,55,57,59,61,63,65,67,69,71,73,75,77,79,81,83,85,87,89,91,93,95,97,99,101,103,105,107,109,111,113,115,117,119,-1,-1,-1,-1,-1,-1,-1,-1,-1,-1,-1,-1,-1,-1,-1,-1,-1,-1,-1,-1,-1,-1,-1,-1,-1,-1,-1,-1,-1,-1,-1,-1,-1,-1,-1,-1,-1,-1,-1,-1,-1,-1,-1,-1,-1,-1,-1,-1,-1,-1,-1,-1,-1,-1,-1,-1,-1,-1,-1,-1],"loss_changes":[5.920504E3,2.5258062E3,1.9066047E3,6.324614E2,1.2586573E3,1.3173915E3,1.4991074E3,9.224365E1,9.863804E2,6.982173E2,7.002284E2,2.5938257E2,5.4598224E2,9.382472E2,1.01809314E3,0E0,1.887638E2,4.466209E2,7.4951587E2,3.231753E2,7.944758E2,5.530436E2,3.6530377E2,2.8539032E2,1.0708203E2,4.440149E2,2.7136584E2,1.0337417E3,4.7701355E2,7.5996655E2,7.744319E2,5.049434E1,1.26377686E2,4.2590973E1,3.175207E2,4.1270654E2,6.04955E2,1.9484448E2,4.4358875E1,8.026836E2,4.5881995E2,2.1371951E2,4.4125516E2,1.5976062E2,3.339664E2,2.8829468E1,1.9152084E2,2.0309625E2,3.0085693E1,9.8055954E1,2.6213568E2,1.2574773E2,2.1480508E2,9.098554E2,2.204364E2,3.3133936E2,5.3491634E1,8.565758E2,2.771062E2,6.912639E2,4.9989224E2,0E0,0E0,0E0,0E0,0E0,0E0,0E0,0E0,0E0,0E0,0E0,0E0,0E0,0E0,0E0,0E0,0E0,0E0,0E0,0E0,0E0,0E0,0E0,0E0,0E0,0E0,0E0,0E0,0E0,0E0,0E0,0E0,0E0,0E0,0E0,0E0,0E0,0E0,0E0,0E0,0E0,0E0,0E0,0E0,0E0,0E0,0E0,0E0,0E0,0E0,0E0,0E0,0E0,0E0,0E0,0E0,0E0,0E0,0E0,0E0],"parents":[2147483647,0,0,1,1,2,2,3,3,4,4,5,5,6,6,7,7,8,8,9,9,10,10,11,11,12,12,13,13,14,14,16,16,17,17,18,18,19,19,20,20,21,21,22,22,23,23,24,24,25,25,26,26,27,27,28,28,29,29,30,30,31,31,32,32,33,33,34,34,35,35,36,36,37,37,38,38,39,39,40,40,41,41,42,42,43,43,44,44,45,45,46,46,47,47,48,48,49,49,50,50,51,51,52,52,53,53,54,54,55,55,56,56,57,57,58,58,59,59,60,60],"right_children":[2,4,6,8,10,12,14,16,18,20,22,24,26,28,30,-1,32,34,36,38,40,42,44,46,48,50,52,54,56,58,60,62,64,66,68,70,72,74,76,78,80,82,84,86,88,90,92,94,96,98,100,102,104,106,108,110,112,114,116,118,120,-1,-1,-1,-1,-1,-1,-1,-1,-1,-1,-1,-1,-1,-1,-1,-1,-1,-1,-1,-1,-1,-1,-1,-1,-1,-1,-1,-1,-1,-1,-1,-1,-1,-1,-1,-1,-1,-1,-1,-1,-1,-1,-1,-1,-1,-1,-1,-1,-1,-1,-1,-1,-1,-1,-1,-1,-1,-1,-1,-1],"split_conditions":[6.35E1,-1.6236614E-1,-6.1385614E-1,3.75E1,3.4166667E0,2.8848243E-1,-8.483512E-1,3.6972454E-1,-8.113844E-1,-1.0121595E0,1.85E2,7E0,3.5666666E0,4.4923283E1,1.2833333E0,-5.9893405E-1,3.846651E-1,2.2983334E1,5.380697E0,1E-1,-4.0935597E-1,4.2666668E1,1.967429E1,2.1912496E-1,9.3333334E-1,3.2042328E-1,1.8659245E1,-9.326545E-1,1E-1,8.5333336E1,9.951053E-1,-1.3298927E-1,6.155209E0,1E-1,8.171525E-1,1E-1,2.5783333E1,1E-1,2.33E1,-4.327756E-1,4.3E1,2.7666666E1,4.66E2,-6.663759E0,3.5333332E1,2.13E1,-6.3E1,-6.449761E-1,1E-1,9.6434313E-1,1.4370568E1,4.5E-1,1.2550969E1,-9.741005E-1,2.09E1,1E-1,3.2243755E0,1.7180683E1,4.75E2,1.42E1,9.997685E-1,-3.7097728E-1,3.022781E-1,-5.165769E-1,-8.992058E-2,-5.427527E-1,2.8041001E-2,2.949335E-1,-3.8768318E-1,-4.3130648E-1,1.4878826E-1,1.0645475E-1,-5.9573627E-1,-3.7782094E-1,1.0784101E-1,-4.0101312E-2,2.8534824E-1,-7.0198774E-2,4.2489743E-1,-5.0190276E-1,-1.8219319E-1,-5.7507974E-1,-1.2339473E-1,1.3575801E-1,-1.8312441E-2,3.0089623E-1,-2.7405435E-1,-5.028916E-1,-1.7621375E-4,1.3171022E-1,-5.358372E-1,-3.9571062E-1,2.83469E-1,2.1322459E-1,-4.866615E-1,-5.8939904E-1,2.846802E-2,3.6845785E-1,-3.2513645E-1,-8.3146796E-2,-4.025755E-1,4.912182E-1,-2.5931764E-1,-1.9621533E-1,3.0508903E-1,-1.2542148E-1,1.5442358E-1,-1.762312E-1,-4.6327513E-1,-3.5071543E-1,1.5337792E-1,-3.409398E-2,2.0231535E-1,-2.8333109E-2,-2.8288928E-1,1.8359274E-2,-1.8304297E-1,2.8610455E-2,7.9251885E-2,-3.6632365E-1,6.8673147E-3],"split_indices":[11,38,38,11,1,37,37,37,6,23,28,26,1,27,17,0,37,10,6,0,37,11,33,15,9,37,31,37,0,3,37,7,6,0,14,16,18,16,20,37,11,3,26,15,19,4,26,14,0,14,33,9,33,37,21,8,6,27,30,4,37,0,0,0,0,0,0,0,0,0,0,0,0,0,0,0,0,0,0,0,0,0,0,0,0,0,0,0,0,0,0,0,0,0,0,0,0,0,0,0,0,0,0,0,0,0,0,0,0,0,0,0,0,0,0,0,0,0,0,0,0],"split_type":[0,0,0,0,0,0,0,0,0,0,0,0,0,0,0,0,0,0,0,0,0,0,0,0,0,0,0,0,0,0,0,0,0,0,0,0,0,0,0,0,0,0,0,0,0,0,0,0,0,0,0,0,0,0,0,0,0,0,0,0,0,0,0,0,0,0,0,0,0,0,0,0,0,0,0,0,0,0,0,0,0,0,0,0,0,0,0,0,0,0,0,0,0,0,0,0,0,0,0,0,0,0,0,0,0,0,0,0,0,0,0,0,0,0,0,0,0,0,0,0,0],"sum_hessian":[1.62559E5,2.4185424E4,1.3837358E5,5.1635044E3,1.902192E4,3.1788062E3,1.3519478E5,1.3349197E3,3.8285845E3,8.129068E3,1.0892853E4,1.265453E3,1.9133531E3,7.5878164E3,1.2760696E5,5.618699E2,7.7304987E2,6.1514233E2,3.2134421E3,2.223604E3,5.905464E3,7.9625425E3,2.9303093E3,3.1720135E2,9.482516E2,1.1043909E3,8.089622E2,5.2042275E3,2.3835889E3,1.511791E4,1.1248905E5,4.968628E1,7.233636E2,1.0696106E2,5.0818124E2,2.561792E3,6.5165015E2,2.0261102E3,1.9749379E2,2.836703E3,3.068761E3,1.2641981E3,6.6983447E3,1.4541941E3,1.4761152E3,1.505476E2,1.6665375E2,2.2833919E2,7.199124E2,1.5648775E2,9.479032E2,1.9519995E2,6.1376227E2,4.235934E3,9.6829333E2,2.0018722E3,3.817167E2,4.8444507E3,1.0273459E4,1.11195125E5,1.2939216E3,1.2682777E1,3.70035E1,6.5376965E2,6.959389E1,9.363445E1,1.3326604E1,4.377726E2,7.040863E1,2.4466655E3,1.15126564E2,5.119291E2,1.3972107E2,1.9492251E3,7.688509E1,1.4800774E2,4.948606E1,2.50368E3,3.3302298E2,4.783459E2,2.590415E3,1.0174131E2,1.1624568E3,3.2344954E3,3.4638494E3,4.409124E1,1.4101029E3,1.2945395E2,1.3466613E3,5.696073E0,1.4485153E2,5.4907333E1,1.11746414E2,4.624898E1,1.8209021E2,7.128394E2,7.072967E0,1.360986E2,2.0389141E1,4.0129553E2,5.4660767E2,2.1774254E1,1.734257E2,8.9418594E1,5.243437E2,1.8758014E3,2.3601328E3,5.082993E2,4.5999402E2,1.8772421E3,1.2463002E2,2.5202916E2,1.2968755E2,2.745819E3,2.0986316E3,9.617637E3,6.558232E2,7.54362E4,3.5758926E4,6.7676013E2,6.171615E2],"tree_param":{"num_deleted":"0","num_feature":"39","num_nodes":"121","size_leaf_vector":"1"}},{"base_weights":[-1.3537322E-2,-2.504112E-1,8.5097514E-2,-8.9235626E-2,-5.5522865E-1,-8.462109E-1,9.6713595E-2,-3.1169053E-2,-1.1797727E0,-1.2910492E0,-4.4837275E-1,-1.7482167E0,-4.094617E-1,-1.7396471E-1,1.24818474E-1,-2.3556834E-1,1.3228671E-1,-1.5284326E0,6.884983E-2,-1.478156E0,-1.0735596E-1,-6.389721E-1,-1.4450793E-1,-5.899526E-1,-1.9463048E0,-9.9191505E-1,1.9218157E-1,-8.8058656E-1,-8.957126E-2,-5.4696476E-1,1.3377118E-1,-1.1292517E0,-1.268241E-1,-1.158006E0,1.7504476E-1,-7.820547E-1,-1.7236109E0,8.2585853E-1,-1.1194944E0,-1.6488886E0,-7.4601537E-1,1.5897938E0,-1.3334408E0,-1.3247502E0,-4.9088314E-1,-9.4102854E-1,2.0010445E-1,5.941729E-1,-5.812116E-1,-1.5043099E0,-5.974263E-1,-1.384112E0,6.8991977E-1,-1.0576897E0,6.9294953E-1,-1.8439223E-1,-1.1693188E0,-7.3175275E-1,-2.1919414E-2,-3.5524005E-1,-1.5475125E0,1.3632457E-1,-1.7969599E0,6.910077E-2,-3.6968186E-1,-5.7821188E-2,2.2040765E-1,-4.9188623E-1,-1.6731812E-1,2.9894352E-2,2.1165268E-1,1.7073868E-1,-4.6306968E-1,-5.826193E-1,-4.4097906E-1,3.6503297E-1,-4.8232102E-1,5.453905E-1,-5.555023E-1,-5.0516814E-1,5.5143997E-2,-5.6692797E-1,-1.196561E-1,-4.8121953E-1,5.1485705E-1,-5.0108576E-1,5.9339214E-2,-4.5117137E-1,-2.4523295E-1,-1.7860803E-1,6.519911E-2,-3.479844E-1,4.4266917E-2,-5.96891E-1,9.487593E-2,-5.4620326E-1,4.7437647E-1,-2.346112E-2,-5.804326E-1,-4.5962194E-1,1.1922242E-1,3.2438356E-1,-2.596579E-1,-5.351087E-1,-5.1284544E-2,3.063349E-1,-4.2106718E-1,2.9549015E-1,-2.648951E-1,-3.8480732E-1,1.4681308E-1,-3.2964364E-1,1.568374E-1,5.9893373E-3,-2.974254E-1,-4.6559927E-1,-7.254221E-2,-5.062417E-1,-5.9108343E-2,5.9252705E-2,1.6636081E-2,-5.592443E-1,8.644681E-2],"categories":[],"categories_nodes":[],"categories_segments":[],"categories_sizes":[],"default_left":[0,0,0,0,0,0,0,0,0,0,0,0,0,0,0,0,0,0,0,0,0,0,0,0,0,0,0,0,0,0,0,0,0,0,0,0,0,0,0,0,0,0,0,0,0,0,0,0,0,0,0,0,0,0,0,0,0,0,0,0,0,0,0,0,0,0,0,0,0,0,0,0,0,0,0,0,0,0,0,0,0,0,0,0,0,0,0,0,0,0,0,0,0,0,0,0,0,0,0,0,0,0,0,0,0,0,0,0,0,0,0,0,0,0,0,0,0,0,0,0,0,0,0],"id":12,"left_children":[1,3,5,7,9,11,13,15,17,19,21,23,25,27,29,31,33,35,37,39,41,43,45,47,49,51,53,55,57,59,61,63,65,67,69,71,73,75,77,79,81,83,85,87,89,91,93,95,-1,97,-1,99,101,103,105,107,109,111,113,115,117,119,121,-1,-1,-1,-1,-1,-1,-1,-1,-1,-1,-1,-1,-1,-1,-1,-1,-1,-1,-1,-1,-1,-1,-1,-1,-1,-1,-1,-1,-1,-1,-1,-1,-1,-1,-1,-1,-1,-1,-1,-1,-1,-1,-1,-1,-1,-1,-1,-1,-1,-1,-1,-1,-1,-1,-1,-1,-1,-1,-1,-1],"loss_changes":[3.742359E3,2.3134177E3,1.2234717E3,1.9505629E3,1.2800093E3,5.481521E2,8.4972424E2,9.771933E2,6.780322E2,4.571328E2,8.236636E2,1.0306702E2,3.29602E2,6.264922E2,6.0864954E2,1.2628834E3,8.9683203E2,1.759917E2,3.0756836E2,2.2162476E2,5.9079974E2,8.869844E2,1.505456E3,1.0928101E2,4.7304688E0,3.1611078E2,2.9066772E2,2.250943E2,4.0780136E2,2.547717E2,4.9253857E2,1.9773975E2,6.581496E2,1.4982965E2,6.291199E2,2.6241345E2,5.057715E1,2.0059665E2,2.8956738E2,9.300391E1,1.3383469E2,5.0838135E1,8.532736E1,1.3979272E2,5.3210925E2,3.9487634E2,9.743782E2,9.068479E1,0E0,2.4388077E1,0E0,1.0282434E2,5.634135E1,8.525508E1,2.2938902E2,2.7026093E2,1.4958167E2,4.12538E2,3.4490637E2,1.5142839E2,4.0065674E1,4.9344604E2,1.9023895E1,0E0,0E0,0E0,0E0,0E0,0E0,0E0,0E0,0E0,0E0,0E0,0E0,0E0,0E0,0E0,0E0,0E0,0E0,0E0,0E0,0E0,0E0,0E0,0E0,0E0,0E0,0E0,0E0,0E0,0E0,0E0,0E0,0E0,0E0,0E0,0E0,0E0,0E0,0E0,0E0,0E0,0E0,0E0,0E0,0E0,0E0,0E0,0E0,0E0,0E0,0E0,0E0,0E0,0E0,0E0,0E0,0E0,0E0,0E0,0E0],"parents":[2147483647,0,0,1,1,2,2,3,3,4,4,5,5,6,6,7,7,8,8,9,9,10,10,11,11,12,12,13,13,14,14,15,15,16,16,17,17,18,18,19,19,20,20,21,21,22,22,23,23,24,24,25,25,26,26,27,27,28,28,29,29,30,30,31,31,32,32,33,33,34,34,35,35,36,36,37,37,38,38,39,39,40,40,41,41,42,42,43,43,44,44,45,45,46,46,47,47,49,49,51,51,52,52,53,53,54,54,55,55,56,56,57,57,58,58,59,59,60,60,61,61,62,62],"right_children":[2,4,6,8,10,12,14,16,18,20,22,24,26,28,30,32,34,36,38,40,42,44,46,48,50,52,54,56,58,60,62,64,66,68,70,72,74,76,78,80,82,84,86,88,90,92,94,96,-1,98,-1,100,102,104,106,108,110,112,114,116,118,120,122,-1,-1,-1,-1,-1,-1,-1,-1,-1,-1,-1,-1,-1,-1,-1,-1,-1,-1,-1,-1,-1,-1,-1,-1,-1,-1,-1,-1,-1,-1,-1,-1,-1,-1,-1,-1,-1,-1,-1,-1,-1,-1,-1,-1,-1,-1,-1,-1,-1,-1,-1,-1,-1,-1,-1,-1,-1,-1,-1,-1],"split_conditions":[7.8666664E1,3.52E2,-6.1385614E-1,2.71E1,4.2166668E1,1.9667289E-1,1.1333333E0,9.7950643E-1,1.6036896E0,9.8867756E-1,1.99E1,6.6600866E0,5.7230395E-1,7.8333336E1,5E-1,9.8333335E-1,4.6666668E1,6.30808E-2,-7.583058E-1,5.766667E0,-1.3301471E-1,1.3333334E0,-5E-1,-6.2204677E-1,1.2430738E0,1E-1,1.91E1,5.6E1,4.7990026E0,1.5E1,2.43E1,-8.7380713E-1,7.02E2,3.05E2,1.7616356E1,-7.775971E-1,-1.0667456E0,-1.3301471E-1,-3.6712358E0,4.7500544E0,4.5142647E1,2.51E1,9.427922E-2,1.7946273E0,2.06E1,5.380697E0,-9.497178E-1,-6.339785E-1,-5.812116E-1,8.1166664E1,-5.974263E-1,1E-1,1.62E1,3.8374916E1,3E0,-7.851448E-1,3.6359367E0,1.3026373E-1,6.0580246E1,9.441935E0,2E-1,4.3965088E1,5E-1,6.910077E-2,-3.6968186E-1,-5.7821188E-2,2.2040765E-1,-4.9188623E-1,-1.6731812E-1,2.9894352E-2,2.1165268E-1,1.7073868E-1,-4.6306968E-1,-5.826193E-1,-4.4097906E-1,3.6503297E-1,-4.8232102E-1,5.453905E-1,-5.555023E-1,-5.0516814E-1,5.5143997E-2,-5.6692797E-1,-1.196561E-1,-4.8121953E-1,5.1485705E-1,-5.0108576E-1,5.9339214E-2,-4.5117137E-1,-2.4523295E-1,-1.7860803E-1,6.519911E-2,-3.479844E-1,4.4266917E-2,-5.96891E-1,9.487593E-2,-5.4620326E-1,4.7437647E-1,-2.346112E-2,-5.804326E-1,-4.5962194E-1,1.1922242E-1,3.2438356E-1,-2.596579E-1,-5.351087E-1,-5.1284544E-2,3.063349E-1,-4.2106718E-1,2.9549015E-1,-2.648951E-1,-3.8480732E-1,1.4681308E-1,-3.2964364E-1,1.568374E-1,5.9893373E-3,-2.974254E-1,-4.6559927E-1,-7.254221E-2,-5.062417E-1,-5.9108343E-2,5.9252705E-2,1.6636081E-2,-5.592443E-1,8.644681E-2],"split_indices":[3,26,38,13,3,37,1,6,7,37,13,32,7,11,9,9,19,22,37,1,38,9,