{"learner":{"attributes":{},"feature_names":["rain_n1","ws_n1","td_n1","rh_n1","tdmax_n1","tdmin_n1","u_vec_n1","v_vec_n1","rain_n2","ws_n2","td_n2","rh_n2","tdmax_n2","tdmin_n2","u_vec_n2","v_vec_n2","rain_n3","ws_n3","td_n3","rh_n3","tdmax_n3","tdmin_n3","u_vec_n3","v_vec_n3","elevation_target","dist_to_coast_target","elevation_n1","dist_to_coast_n1","elevation_n2","dist_to_coast_n2","elevation_n3","dist_to_coast_n3","dist_n1","dist_n2","dist_n3","month_sin","month_cos","day_sin","day_cos"],"feature_types":["float","float","float","float","float","float","float","float","float","float","float","float","float","float","float","float","float","float","float","float","float","float","float","float","int","float","int","float","int","float","int","float","float","float","float","float","float","float","float"],"gradient_booster":{"model":{"cats":{"enc":[],"feature_segments":[],"sorted_idx":[]},"gbtree_model_param":{"num_parallel_tree":"1","num_trees":"100"},"iteration_indptr":[0,1,2,3,4,5,6,7,8,9,10,11,12,13,14,15,16,17,18,19,20,21,22,23,24,25,26,27,28,29,30,31,32,33,34,35,36,37,38,39,40,41,42,43,44,45,46,47,48,49,50,51,52,53,54,55,56,57,58,59,60,61,62,63,64,65,66,67,68,69,70,71,72,73,74,75,76,77,78,79,80,81,82,83,84,85,86,87,88,89,90,91,92,93,94,95,96,97,98,99,100],"tree_info":[0,0,0,0,0,0,0,0,0,0,0,0,0,0,0,0,0,0,0,0,0,0,0,0,0,0,0,0,0,0,0,0,0,0,0,0,0,0,0,0,0,0,0,0,0,0,0,0,0,0,0,0,0,0,0,0,0,0,0,0,0,0,0,0,0,0,0,0,0,0,0,0,0,0,0,0,0,0,0,0,0,0,0,0,0,0,0,0,0,0,0,0,0,0,0,0,0,0,0,0],"trees":[{"base_weights":[-3.2568778E-7,-6.2028995E0,5.4187803E0,-9.554396E0,-3.4390254E0,2.8932986E0,9.646684E0,-1.1697464E1,-7.9867444E0,-4.848921E0,-1.2874044E0,1.3241271E0,5.04151E0,8.156736E0,1.3055946E1,-1.37752495E1,-1.0484328E1,-5.3563595E0,-8.961096E0,-5.7671194E0,-3.4540334E0,3.941618E0,-1.9653846E0,2.691965E-1,2.634871E0,9.298272E0,4.342644E0,7.1562147E0,1.0112889E1,1.625561E1,1.21939335E1,-1.5468481E1,-1.3043237E1,-8.930871E0,-1.0995094E1,-6.346294E0,-2.0524864E0,-1.0619396E1,-8.158172E0,-6.874551E0,-5.061594E0,-4.5337477E0,-2.583533E0,2.0117812E0,6.6371555E0,-3.2486446E0,-1.3059679E0,-1.2154413E0,8.3155423E-1,1.2612356E0,3.3320413E0,7.4490366E0,1.1951152E1,5.276187E0,3.0715144E0,7.8997064E0,5.767811E0,9.11453E0,1.1704706E1,1.5113238E1,1.8179605E1,1.1113168E1,1.425131E1,-4.2701597E0,-5.020396E0,-3.2939675E0,-4.0558085E0,-2.8909173E0,-2.307545E0,-3.5004294E0,-3.0409448E0,-7.930829E-1,-2.0111136E0,2.6075894E-1,-8.595992E-1,-2.9553258E0,-3.5832891E0,-2.3697739E0,-3.071194E0,-2.028847E0,-3.718238E0,-1.1001995E0,-1.6728092E0,-1.3258038E0,-3.0224113E0,-1.6272458E-1,-8.757031E-1,1.1965302E0,2.5987467E-1,2.6661143E0,1.6702102E0,-6.9425845E-1,-1.3139427E0,-1.7733818E-1,-6.5213066E-1,-4.823882E-1,1.9546176E-1,7.606068E-1,1.3345349E-1,5.749987E-1,2.8270945E-2,1.6489882E0,8.7419194E-1,1.9282001E0,2.6238496E0,3.308093E0,4.204106E0,1.3786794E0,2.0373094E0,4.7971842E-1,1.154187E0,2.1680846E0,2.7598724E0,1.1711874E0,2.0310526E0,2.989019E0,2.267688E0,4.207046E0,3.202314E0,4.400762E0,5.497303E0,5.0696087E0,5.6863256E0,3.627731E0,3.0152016E0,3.852887E0,4.997198E0],"categories":[],"categories_nodes":[],"categories_segments":[],"categories_sizes":[],"default_left":[0,0,0,0,0,0,0,0,0,0,0,0,0,0,0,0,0,0,0,0,0,0,0,0,0,0,0,0,0,0,0,0,0,0,0,0,0,0,0,0,0,0,0,0,0,0,0,0,0,0,0,0,0,0,0,0,0,0,0,0,0,0,0,0,0,0,0,0,0,0,0,0,0,0,0,0,0,0,0,0,0,0,0,0,0,0,0,0,0,0,0,0,0,0,0,0,0,0,0,0,0,0,0,0,0,0,0,0,0,0,0,0,0,0,0,0,0,0,0,0,0,0,0,0,0,0,0],"id":0,"left_children":[1,3,5,7,9,11,13,15,17,19,21,23,25,27,29,31,33,35,37,39,41,43,45,47,49,51,53,55,57,59,61,63,65,67,69,71,73,75,77,79,81,83,85,87,89,91,93,95,97,99,101,103,105,107,109,111,113,115,117,119,121,123,125,-1,-1,-1,-1,-1,-1,-1,-1,-1,-1,-1,-1,-1,-1,-1,-1,-1,-1,-1,-1,-1,-1,-1,-1,-1,-1,-1,-1,-1,-1,-1,-1,-1,-1,-1,-1,-1,-1,-1,-1,-1,-1,-1,-1,-1,-1,-1,-1,-1,-1,-1,-1,-1,-1,-1,-1,-1,-1,-1,-1,-1,-1,-1,-1],"loss_changes":[7.871294E7,1.0114352E7,1.3345784E7,1.657824E6,1.8153105E6,2.6377045E6,2.374156E6,5.25356E5,7.3041E5,4.63006E5,8.398381E5,6.252622E5,9.8258E5,6.36526E5,3.91866E5,9.5051E4,1.04345E5,2.519555E5,2.76825E5,1.703E5,1.3487212E5,1.414276E5,1.7744881E5,2.0918044E5,1.9310375E5,2.284235E5,3.366665E5,2.22098E5,1.74809E5,6.6026E4,2.48839E5,3.6013E4,5.2567E4,2.8403E4,5.7122E4,7.8431E4,4.218735E4,6.89425E4,7.5357E4,5.22345E4,9.5499E4,4.056025E4,5.4405125E4,3.587921E4,2.72545E4,7.5229375E4,8.5931234E4,5.044218E4,1.1972652E5,5.1926883E4,1.210275E5,3.632275E4,3.631175E4,1.686205E5,1.3723112E5,1.22491E5,1.40194E5,8.92495E4,1.01196E5,2.6726E4,1.082825E4,7.6271E4,1.30458E5,0E0,0E0,0E0,0E0,0E0,0E0,0E0,0E0,0E0,0E0,0E0,0E0,0E0,0E0,0E0,0E0,0E0,0E0,0E0,0E0,0E0,0E0,0E0,0E0,0E0,0E0,0E0,0E0,0E0,0E0,0E0,0E0,0E0,0E0,0E0,0E0,0E0,0E0,0E0,0E0,0E0,0E0,0E0,0E0,0E0,0E0,0E0,0E0,0E0,0E0,0E0,0E0,0E0,0E0,0E0,0E0,0E0,0E0,0E0,0E0,0E0,0E0,0E0,0E0],"parents":[2147483647,0,0,1,1,2,2,3,3,4,4,5,5,6,6,7,7,8,8,9,9,10,10,11,11,12,12,13,13,14,14,15,15,16,16,17,17,18,18,19,19,20,20,21,21,22,22,23,23,24,24,25,25,26,26,27,27,28,28,29,29,30,30,31,31,32,32,33,33,34,34,35,35,36,36,37,37,38,38,39,39,40,40,41,41,42,42,43,43,44,44,45,45,46,46,47,47,48,48,49,49,50,50,51,51,52,52,53,53,54,54,55,55,56,56,57,57,58,58,59,59,60,60,61,61,62,62],"right_children":[2,4,6,8,10,12,14,16,18,20,22,24,26,28,30,32,34,36,38,40,42,44,46,48,50,52,54,56,58,60,62,64,66,68,70,72,74,76,78,80,82,84,86,88,90,92,94,96,98,100,102,104,106,108,110,112,114,116,118,120,122,124,126,-1,-1,-1,-1,-1,-1,-1,-1,-1,-1,-1,-1,-1,-1,-1,-1,-1,-1,-1,-1,-1,-1,-1,-1,-1,-1,-1,-1,-1,-1,-1,-1,-1,-1,-1,-1,-1,-1,-1,-1,-1,-1,-1,-1,-1,-1,-1,-1,-1,-1,-1,-1,-1,-1,-1,-1,-1,-1,-1,-1,-1,-1,-1,-1],"split_conditions":[1.94E1,1.33E1,2.71E1,1.0816667E1,1.78E1,2.39E1,3.18E1,8.3E0,2.7E1,1.62E1,-2.01E2,2.21E1,-3E0,3.035E1,-3E0,5.6833334E0,1.3E1,1.61E1,1.04E1,1.33E1,1.58E1,2.4E1,1.7E1,1.85E1,2.1E1,2.9E1,3.59E2,3.52E2,3.06E1,3.6E1,3.35E1,3.78E2,7.4E1,2.1552982E1,1.01E1,-3.33E2,-3.33E2,5.65E2,8.19E2,9.42E2,2.7E1,9.42E2,-6.3E1,-3.33E2,-3.33E2,3.78E2,3.52E2,2.185E1,7E0,3.72E2,-6.3E1,2.67E1,3.23E1,2.755E1,2.3E1,2.31E2,8E1,3.72E2,-3E0,4.66E2,3.3E1,3.59E2,3.7333332E1,-4.2701597E0,-5.020396E0,-3.2939675E0,-4.0558085E0,-2.8909173E0,-2.307545E0,-3.5004294E0,-3.0409448E0,-7.930829E-1,-2.0111136E0,2.6075894E-1,-8.595992E-1,-2.9553258E0,-3.5832891E0,-2.3697739E0,-3.071194E0,-2.028847E0,-3.718238E0,-1.1001995E0,-1.6728092E0,-1.3258038E0,-3.0224113E0,-1.6272458E-1,-8.757031E-1,1.1965302E0,2.5987467E-1,2.6661143E0,1.6702102E0,-6.9425845E-1,-1.3139427E0,-1.7733818E-1,-6.5213066E-1,-4.823882E-1,1.9546176E-1,7.606068E-1,1.3345349E-1,5.749987E-1,2.8270945E-2,1.6489882E0,8.7419194E-1,1.9282001E0,2.6238496E0,3.308093E0,4.204106E0,1.3786794E0,2.0373094E0,4.7971842E-1,1.154187E0,2.1680846E0,2.7598724E0,1.1711874E0,2.0310526E0,2.989019E0,2.267688E0,4.207046E0,3.202314E0,4.400762E0,5.497303E0,5.0696087E0,5.6863256E0,3.627731E0,3.0152016E0,3.852887E0,4.997198E0],"split_indices":[5,5,2,10,13,13,13,2,24,5,24,5,24,2,24,2,24,13,5,21,21,13,5,21,21,13,24,24,21,13,5,24,24,33,5,24,24,24,24,24,24,24,24,24,24,24,24,10,24,24,24,13,13,10,5,26,26,24,24,28,30,24,10,0,0,0,0,0,0,0,0,0,0,0,0,0,0,0,0,0,0,0,0,0,0,0,0,0,0,0,0,0,0,0,0,0,0,0,0,0,0,0,0,0,0,0,0,0,0,0,0,0,0,0,0,0,0,0,0,0,0,0,0,0,0,0,0],"split_type":[0,0,0,0,0,0,0,0,0,0,0,0,0,0,0,0,0,0,0,0,0,0,0,0,0,0,0,0,0,0,0,0,0,0,0,0,0,0,0,0,0,0,0,0,0,0,0,0,0,0,0,0,0,0,0,0,0,0,0,0,0,0,0,0,0,0,0,0,0,0,0,0,0,0,0,0,0,0,0,0,0,0,0,0,0,0,0,0,0,0,0,0,0,0,0,0,0,0,0,0,0,0,0,0,0,0,0,0,0,0,0,0,0,0,0,0,0,0,0,0,0,0,0,0,0,0,0],"sum_hessian":[2.341798E6,1.091898E6,1.2499E6,4.93488E5,5.9841E5,7.82491E5,4.67409E5,2.08479E5,2.85009E5,3.61517E5,2.36893E5,4.52189E5,3.30302E5,3.25263E5,1.42146E5,7.6848E4,1.31631E5,7.7039E4,2.0797E5,2.18008E5,1.43509E5,2.7189E4,2.09704E5,2.50544E5,2.01645E5,4.6579E4,2.83723E5,2.15199E5,1.10064E5,3.0164E4,1.11982E5,2.3189E4,5.3659E4,3.2575E4,9.9056E4,5.9277E4,1.7762E4,6.7842E4,1.40128E5,8.4836E4,1.33172E5,6.4055E4,7.9454E4,1.5846E4,1.1343E4,7.118E4,1.38524E5,6.883E4,1.81714E5,6.7888E4,1.33757E5,2.7449E4,1.913E4,1.63582E5,1.20141E5,1.40146E5,7.5053E4,6.7645E4,4.2419E4,1.8932E4,1.1232E4,7.342E4,3.8562E4,1.1747E4,1.1442E4,1.0065E4,4.3594E4,2.0752E4,1.1823E4,5.5523E4,4.3533E4,5.219E3,5.4058E4,3.866E3,1.3896E4,4.2946E4,2.4896E4,1.24614E5,1.5514E4,8.3155E4,1.681E3,3.5895E4,9.7277E4,6.2761E4,1.294E3,1.1216E4,6.8238E4,5.813E3,1.0033E4,3.653E3,7.69E3,3.8981E4,3.2199E4,7.5957E4,6.2567E4,5.6873E4,1.1957E4,3.3613E4,1.48101E5,4.3472E4,2.4416E4,2.165E4,1.12107E5,1.5358E4,1.2091E4,1.3215E4,5.915E3,1.12874E5,5.0708E4,4.1457E4,7.8684E4,9.2354E4,4.7792E4,2.6249E4,4.8804E4,4.376E4,2.3885E4,1.3046E4,2.9373E4,1.6637E4,2.295E3,4.242E3,6.99E3,3.8201E4,3.5219E4,2.4328E4,1.4234E4],"tree_param":{"num_deleted":"0","num_feature":"39","num_nodes":"127","size_leaf_vector":"1"}},{"base_weights":[9.62161E-6,-4.1063E0,4.026519E0,-6.620409E0,-2.0402262E0,2.3034735E0,6.969274E0,-8.107915E0,-5.2457185E0,-2.7917373E0,-1.0167123E-1,1.1987449E0,3.8264132E0,5.9781404E0,9.414593E0,-9.917553E0,-7.547913E0,-6.2503724E0,-4.59303E0,-3.9504688E0,-1.9636004E0,3.0255518E0,-9.230132E-1,4.3768728E-1,2.0364661E0,3.081995E0,5.1134458E0,8.741961E0,5.4462233E0,8.657065E0,1.148178E1,-7.745081E0,-1.0459776E1,-6.856235E0,-8.3865595E0,-3.7517772E0,-6.437732E0,-3.1266484E0,-5.0093637E0,-3.1234703E0,-5.48202E0,-1.1502184E0,-2.5305665E0,2.0354385E0,5.4828844E0,-3.5305352E0,-4.6932024E-1,-4.1980535E-1,1.0868073E0,2.6753774E0,8.83519E-1,3.9838314E0,2.3719785E0,4.4587584E0,6.9292603E0,7.936398E0,1.1337475E1,3.2607563E0,5.8971186E0,7.2006755E0,9.660853E0,1.235909E1,1.0055949E1,-1.0561969E0,-2.4720654E0,-3.720256E0,-3.0303102E0,-2.2080336E0,-1.7820469E0,-2.4443586E0,-3.101435E0,-1.282546E0,-7.1703005E-1,-1.9047472E0,-3.245501E0,-1.2078809E0,-7.223402E-1,-1.6269841E0,-1.2172755E0,-1.5680474E-1,-1.0232433E0,-2.2013876E0,-1.4571955E0,-3.9375055E-1,3.939138E-1,-1.0873486E0,-5.8457994E-1,2.2051732E-1,8.158495E-1,2.196439E0,1.3949538E0,-5.6595916E-1,-1.4931713E0,-4.4355728E-2,-7.936788E-1,-9.125078E-2,-1.7786392E0,2.551824E-1,1.30827E0,5.1543266E-1,9.8518014E-1,-3.8949475E-2,4.7413537E-1,6.574143E-1,1.3489816E0,7.6802933E-1,-5.435102E-1,1.2589173E0,2.0467656E0,1.7744098E0,2.3315673E0,2.1714194E0,2.845131E0,3.663029E0,3.0683825E0,1.321059E0,4.8565826E-1,1.57778E0,2.0090773E0,2.40415E0,1.3790145E0,2.724532E0,3.4751122E0,3.5263019E0,4.3232355E0,2.652477E0,3.223477E0],"categories":[],"categories_nodes":[],"categories_segments":[],"categories_sizes":[],"default_left":[0,0,0,0,0,0,0,0,0,0,0,0,0,0,0,0,0,0,0,0,0,0,0,0,0,0,0,0,0,0,0,0,0,0,0,0,0,0,0,0,0,0,0,0,0,0,0,0,0,0,0,0,0,0,0,0,0,0,0,0,0,0,0,0,0,0,0,0,0,0,0,0,0,0,0,0,0,0,0,0,0,0,0,0,0,0,0,0,0,0,0,0,0,0,0,0,0,0,0,0,0,0,0,0,0,0,0,0,0,0,0,0,0,0,0,0,0,0,0,0,0,0,0,0,0,0,0],"id":1,"left_children":[1,3,5,7,9,11,13,15,17,19,21,23,25,27,29,31,33,35,37,39,41,43,45,47,49,51,53,55,57,59,61,63,65,67,69,71,73,75,77,79,81,83,85,87,89,91,93,95,97,99,101,103,105,107,109,111,113,115,117,119,121,123,125,-1,-1,-1,-1,-1,-1,-1,-1,-1,-1,-1,-1,-1,-1,-1,-1,-1,-1,-1,-1,-1,-1,-1,-1,-1,-1,-1,-1,-1,-1,-1,-1,-1,-1,-1,-1,-1,-1,-1,-1,-1,-1,-1,-1,-1,-1,-1,-1,-1,-1,-1,-1,-1,-1,-1,-1,-1,-1,-1,-1,-1,-1,-1,-1],"loss_changes":[3.8719544E7,6.022356E6,5.995288E6,1.069414E6,9.2715675E5,1.2546595E6,1.058218E6,2.54481E5,1.782035E5,4.400805E5,4.5666762E5,2.7556144E5,3.003705E5,4.56739E5,1.97109E5,6.98415E4,1.11219E5,5.0085E4,1.0057675E5,2.42098E5,1.2334256E5,8.9969875E4,1.6657981E5,1.2605886E5,1.515565E5,1.2718225E5,1.36548E5,1.047575E5,2.567485E5,1.346685E5,4.2118E4,2.477825E4,3.29515E4,4.84845E4,4.03035E4,5.312711E3,3.856625E4,2.3555094E4,5.05355E4,9.276275E4,7.7673625E4,4.391872E4,1.00330375E5,2.344889E4,1.6233125E4,4.962514E4,8.391205E4,6.215785E4,9.967806E4,7.7114875E4,5.181184E4,8.04115E4,8.747594E4,5.234325E4,2.5980625E4,4.12875E4,1.1372625E4,8.361456E4,1.101595E5,7.95975E4,6.06445E4,2.5765E4,1.0672E4,0E0,0E0,0E0,0E0,0E0,0E0,0E0,0E0,0E0,0E0,0E0,0E0,0E0,0E0,0E0,0E0,0E0,0E0,0E0,0E0,0E0,0E0,0E0,0E0,0E0,0E0,0E0,0E0,0E0,0E0,0E0,0E0,0E0,0E0,0E0,0E0,0E0,0E0,0E0,0E0,0E0,0E0,0E0,0E0,0E0,0E0,0E0,0E0,0E0,0E0,0E0,0E0,0E0,0E0,0E0,0E0,0E0,0E0,0E0,0E0,0E0,0E0,0E0,0E0],"parents":[2147483647,0,0,1,1,2,2,3,3,4,4,5,5,6,6,7,7,8,8,9,9,10,10,11,11,12,12,13,13,14,14,15,15,16,16,17,17,18,18,19,19,20,20,21,21,22,22,23,23,24,24,25,25,26,26,27,27,28,28,29,29,30,30,31,31,32,32,33,33,34,34,35,35,36,36,37,37,38,38,39,39,40,40,41,41,42,42,43,43,44,44,45,45,46,46,47,47,48,48,49,49,50,50,51,51,52,52,53,53,54,54,55,55,56,56,57,57,58,58,59,59,60,60,61,61,62,62],"right_children":[2,4,6,8,10,12,14,16,18,20,22,24,26,28,30,32,34,36,38,40,42,44,46,48,50,52,54,56,58,60,62,64,66,68,70,72,74,76,78,80,82,84,86,88,90,92,94,96,98,100,102,104,106,108,110,112,114,116,118,120,122,124,126,-1,-1,-1,-1,-1,-1,-1,-1,-1,-1,-1,-1,-1,-1,-1,-1,-1,-1,-1,-1,-1,-1,-1,-1,-1,-1,-1,-1,-1,-1,-1,-1,-1,-1,-1,-1,-1,-1,-1,-1,-1,-1,-1,-1,-1,-1,-1,-1,-1,-1,-1,-1,-1,-1,-1,-1,-1,-1,-1,-1,-1,-1,-1,-1],"split_conditions":[2E1,1.41E1,2.8266666E1,1.09E1,2.035E1,2.41E1,3.12E1,6.9E0,1.1933333E1,1.55E1,-3E0,2.22E1,2.62E1,-3E0,3.62E1,7.4E1,3.52E2,1.9328351E0,6E0,3.78E2,1.43E2,2.53E1,1.55E1,2.01E1,3.52E2,8E1,2.8866667E1,3.39E1,2.5E1,1.43E2,3.59E2,-3.33E2,3.9666667E0,2.1552982E1,9.42E2,1.29E1,9.42E2,1.19E2,1.5E1,-2.53E2,1.14E1,4.89E2,2.31E2,2.602285E1,-3.33E2,5.65E2,8.19E2,9.42E2,4.6536057E1,2.31E2,3E2,2.12E1,9.42E2,4.848896E0,2.92E1,2.1961248E1,-2.233552E0,5.65E2,3.01E1,4.91E2,3.5E1,3.96E1,5.846085E1,-1.0561969E0,-2.4720654E0,-3.720256E0,-3.0303102E0,-2.2080336E0,-1.7820469E0,-2.4443586E0,-3.101435E0,-1.282546E0,-7.1703005E-1,-1.9047472E0,-3.245501E0,-1.2078809E0,-7.223402E-1,-1.6269841E0,-1.2172755E0,-1.5680474E-1,-1.0232433E0,-2.2013876E0,-1.4571955E0,-3.9375055E-1,3.939138E-1,-1.0873486E0,-5.8457994E-1,2.2051732E-1,8.158495E-1,2.196439E0,1.3949538E0,-5.6595916E-1,-1.4931713E0,-4.4355728E-2,-7.936788E-1,-9.125078E-2,-1.7786392E0,2.551824E-1,1.30827E0,5.1543266E-1,9.8518014E-1,-3.8949475E-2,4.7413537E-1,6.574143E-1,1.3489816E0,7.6802933E-1,-5.435102E-1,1.2589173E0,2.0467656E0,1.7744098E0,2.3315673E0,2.1714194E0,2.845131E0,3.663029E0,3.0683825E0,1.321059E0,4.8565826E-1,1.57778E0,2.0090773E0,2.40415E0,1.3790145E0,2.724532E0,3.4751122E0,3.5263019E0,4.3232355E0,2.652477E0,3.223477E0],"split_indices":[5,13,10,5,10,5,5,5,18,5,24,13,21,24,10,24,24,25,24,24,24,13,5,21,24,24,2,13,5,28,24,24,2,33,24,5,24,30,2,24,5,28,28,34,24,24,24,24,34,26,28,13,24,6,21,33,23,24,13,24,5,13,29,0,0,0,0,0,0,0,0,0,0,0,0,0,0,0,0,0,0,0,0,0,0,0,0,0,0,0,0,0,0,0,0,0,0,0,0,0,0,0,0,0,0,0,0,0,0,0,0,0,0,0,0,0,0,0,0,0,0,0,0,0,0,0,0],"split_type":[0,0,0,0,0,0,0,0,0,0,0,0,0,0,0,0,0,0,0,0,0,0,0,0,0,0,0,0,0,0,0,0,0,0,0,0,0,0,0,0,0,0,0,0,0,0,0,0,0,0,0,0,0,0,0,0,0,0,0,0,0,0,0,0,0,0,0,0,0,0,0,0,0,0,0,0,0,0,0,0,0,0,0,0,0,0,0,0,0,0,0,0,0,0,0,0,0,0,0,0,0,0,0,0,0,0,0,0,0,0,0,0,0,0,0,0,0,0,0,0,0,0,0,0,0,0,0],"sum_hessian":[2.341798E6,1.15941E6,1.182388E6,5.22997E5,6.36413E5,7.45742E5,4.36646E5,2.51189E5,2.71808E5,4.58621E5,1.77792E5,4.32217E5,3.13525E5,3.10712E5,1.25934E5,5.9358E4,1.91831E5,1.07039E5,1.64769E5,1.91154E5,2.67467E5,3.6982E4,1.4081E5,2.26472E5,2.05745E5,1.98637E5,1.14888E5,5.0145E4,2.60567E5,9.2165E4,3.3769E4,1.1859E4,4.7499E4,1.05132E5,8.6699E4,7.468E3,9.9571E4,3.6438E4,1.28331E5,1.2413E5,6.7024E4,1.09861E5,1.57606E5,2.6362E4,1.062E4,2.0868E4,1.19942E5,9.7575E4,1.28897E5,1.32383E5,7.3362E4,8.7497E4,1.1114E5,8.4445E4,3.0443E4,3.8271E4,1.1874E4,4.4566E4,2.16001E5,3.7608E4,5.4557E4,2.0901E4,1.2868E4,1.245E3,1.0614E4,7.404E3,4.0095E4,6.7821E4,3.7311E4,7.7255E4,9.444E3,5.393E3,2.075E3,9.76E4,1.971E3,1.6182E4,2.0256E4,8.9433E4,3.8898E4,1.235E4,1.1178E5,1.6876E4,5.0148E4,1.03071E5,6.79E3,5.4728E4,1.02878E5,9.088E3,1.7274E4,3.309E3,7.311E3,9.769E3,1.1099E4,1.04506E5,1.5436E4,9.557E4,2.005E3,1.20225E5,8.672E3,5.1452E4,8.0931E4,2.9895E4,4.3467E4,1.9464E4,6.8033E4,1.06358E5,4.782E3,7.6011E4,8.434E3,1.3816E4,1.6627E4,2.6374E4,1.1897E4,6.641E3,5.233E3,2.6276E4,1.829E4,1.20171E5,9.583E4,2.8657E4,8.951E3,4.1934E4,1.2623E4,1.6148E4,4.753E3,4.663E3,8.205E3],"tree_param":{"num_deleted":"0","num_feature":"39","num_nodes":"127","size_leaf_vector":"1"}},{"base_weights":[1.3421028E-5,-3.3013492E0,2.489656E0,-5.0768604E0,-2.1163352E0,1.3893079E0,5.1121426E0,-6.3636985E0,-4.3563976E0,-2.837923E0,-1.2209686E0,3.1524763E-1,2.401079E0,4.4991083E0,7.131518E0,-7.4968805E0,-5.885758E0,-5.3634753E0,-3.9786875E0,-2.3464968E0,-3.7520254E0,2.6668283E-1,-1.8249685E0,-9.689277E-1,6.2669086E-1,4.5468483E0,2.070283E0,3.610695E0,5.1233974E0,7.9590755E0,5.943433E0,-8.574374E0,-7.100567E0,-5.281524E0,-6.7080894E0,-5.284201E0,-9.29615E0,-3.1421423E0,-4.3261414E0,-2.8822665E0,-1.7285001E0,-4.930195E0,-2.9684331E0,-3.9287207E-1,2.335483E0,-1.5731816E0,-3.496026E0,-3.308572E-1,-1.6135888E0,3.8447235E-2,1.2158322E0,3.8917649E0,6.5323515E0,1.1807388E0,2.538507E0,3.9870656E0,2.1069787E0,6.678479E0,4.713423E0,7.412627E0,9.312718E0,4.3848977E0,6.3252587E0,-2.516626E0,-3.2781227E0,-2.4111807E0,-2.0177186E0,-8.1168646E-1,-1.6303835E0,-2.1948996E0,-1.778882E0,-1.8552127E0,-1.4993365E0,-3.1193244E0,-2.6499372E0,-1.5758084E0,-8.865782E-1,-1.3631537E0,-9.55367E-1,-2.9036003E-1,-9.1442823E-1,-6.303009E-1,-1.6150326E-1,-1.28529E0,-1.749495E0,-1.1033037E0,-7.714445E-1,-2.3150028E-1,2.0522387E-1,1.1648934E0,5.427036E-1,-7.431408E-1,-3.414913E-1,-1.4665475E0,-8.915022E-1,-1.7255451E-1,5.8082825E-1,-8.4426665E-1,-3.2950467E-1,1.18800305E-1,-1.971931E-1,5.518657E-1,1.7684048E-1,1.0047318E0,1.6056087E0,2.095617E0,1.5327504E0,4.3163955E-1,-1.5600443E-1,9.0582156E-1,5.43916E-1,1.0633267E0,1.4769058E0,2.1253346E-1,1.058503E0,1.8830677E0,2.5094655E0,9.878352E-1,1.477833E0,1.7029672E0,2.3273654E0,4.6014193E-1,2.822919E0,1.1432161E0,1.7026708E0,1.5081242E0,2.0508003E0],"categories":[],"categories_nodes":[],"categories_segments":[],"categories_sizes":[],"default_left":[0,0,0,0,0,0,0,0,0,0,0,0,0,0,0,0,0,0,0,0,0,0,0,0,0,0,0,0,0,0,0,0,0,0,0,0,0,0,0,0,0,0,0,0,0,0,0,0,0,0,0,0,0,0,0,0,0,0,0,0,0,0,0,0,0,0,0,0,0,0,0,0,0,0,0,0,0,0,0,0,0,0,0,0,0,0,0,0,0,0,0,0,0,0,0,0,0,0,0,0,0,0,0,0,0,0,0,0,0,0,0,0,0,0,0,0,0,0,0,0,0,0,0,0,0,0,0],"id":2,"left_children":[1,3,5,7,9,11,13,15,17,19,21,23,25,27,29,31,33,35,37,39,41,43,45,47,49,51,53,55,57,59,61,63,65,67,69,71,73,75,77,79,81,83,85,87,89,91,93,95,97,99,101,103,105,107,109,111,113,115,117,119,121,123,125,-1,-1,-1,-1,-1,-1,-1,-1,-1,-1,-1,-1,-1,-1,-1,-1,-1,-1,-1,-1,-1,-1,-1,-1,-1,-1,-1,-1,-1,-1,-1,-1,-1,-1,-1,-1,-1,-1,-1,-1,-1,-1,-1,-1,-1,-1,-1,-1,-1,-1,-1,-1,-1,-1,-1,-1,-1,-1,-1,-1,-1,-1,-1,-1],"loss_changes":[1.924775E7,2.118253E6,3.8524035E6,3.73585E5,3.9009925E5,1.02197375E6,4.88448E5,7.829E4,9.825E4,1.50182E5,2.421151E5,1.8244758E5,3.43724E5,1.67867E5,9.02995E4,1.825975E4,5.051475E4,2.1918375E4,5.459725E4,7.199225E4,1.0790525E5,1.0617167E5,8.062875E4,3.662511E4,1.2723481E5,8.4104625E4,1.7475412E5,7.0694625E4,1.133075E5,3.9993E4,2.2425625E4,4.9444375E3,1.0961E4,2.311275E4,2.0358625E4,1.7771E4,6.176719E2,2.1732938E4,3.297675E4,3.6971688E4,4.4765656E4,2.7160625E4,1.9756312E4,2.4069656E4,1.5317695E4,6.5469906E4,1.8307656E4,2.478687E4,2.739596E4,4.570193E4,7.166019E4,3.8524062E4,1.03094375E4,6.350592E4,9.589425E4,4.13775E4,4.9715023E4,2.5064125E4,4.2493E4,2.3086E4,1.1736625E4,5.4830938E3,2.005825E4,0E0,0E0,0E0,0E0,0E0,0E0,0E0,0E0,0E0,0E0,0E0,0E0,0E0,0E0,0E0,0E0,0E0,0E0,0E0,0E0,0E0,0E0,0E0,0E0,0E0,0E0,0E0,0E0,0E0,0E0,0E0,0E0,0E0,0E0,0E0,0E0,0E0,0E0,0E0,0E0,0E0,0E0,0E0,0E0,0E0,0E0,0E0,0E0,0E0,0E0,0E0,0E0,0E0,0E0,0E0,0E0,0E0,0E0,0E0,0E0,0E0,0E0,0E0,0E0],"parents":[2147483647,0,0,1,1,2,2,3,3,4,4,5,5,6,6,7,7,8,8,9,9,10,10,11,11,12,12,13,13,14,14,15,15,16,16,17,17,18,18,19,19,20,20,21,21,22,22,23,23,24,24,25,25,26,26,27,27,28,28,29,29,30,30,31,31,32,32,33,33,34,34,35,35,36,36,37,37,38,38,39,39,40,40,41,41,42,42,43,43,44,44,45,45,46,46,47,47,48,48,49,49,50,50,51,51,52,52,53,53,54,54,55,55,56,56,57,57,58,58,59,59,60,60,61,61,62,62],"right_children":[2,4,6,8,10,12,14,16,18,20,22,24,26,28,30,32,34,36,38,40,42,44,46,48,50,52,54,56,58,60,62,64,66,68,70,72,74,76,78,80,82,84,86,88,90,92,94,96,98,100,102,104,106,108,110,112,114,116,118,120,122,124,126,-1,-1,-1,-1,-1,-1,-1,-1,-1,-1,-1,-1,-1,-1,-1,-1,-1,-1,-1,-1,-1,-1,-1,-1,-1,-1,-1,-1,-1,-1,-1,-1,-1,-1,-1,-1,-1,-1,-1,-1,-1,-1,-1,-1,-1,-1,-1,-1,-1,-1,-1,-1,-1,-1,-1,-1,-1,-1,-1,-1,-1,-1,-1,-1],"split_conditions":[1.86E1,1.27E1,2.7933332E1,9.2E0,1.7416666E1,2.3E1,3.33E1,6.6E0,9.616667E0,3.72E2,2.7E1,1.75E1,-3E0,2.79E1,3.59E2,4.983333E0,3.78E2,9.42E2,1.3E1,1.46E1,3E2,2.18E1,8.19E2,4.795931E1,2.14E1,3.03E1,2.34E1,4.91E2,-3E0,3.73E1,3.065E1,9.42E2,5.383333E0,-2.53E2,3.78E2,8.433333E0,8.4666664E1,1.2430738E0,1.575E1,-2.53E2,2.4210604E1,5.53E2,1.43E1,2.6782248E1,-3.33E2,7.2E1,1.5283334E1,2.6265707E1,1.4666667E1,3.72E2,1.28E2,2.1961248E1,-3.9608502E-1,8.19E2,3.52E2,2.9633333E1,8E1,3.33E1,1.9328351E0,2.6836023E1,3.382091E0,6.73E2,4.5142647E1,-2.516626E0,-3.2781227E0,-2.4111807E0,-2.0177186E0,-8.1168646E-1,-1.6303835E0,-2.1948996E0,-1.778882E0,-1.8552127E0,-1.4993365E0,-3.1193244E0,-2.6499372E0,-1.5758084E0,-8.865782E-1,-1.3631537E0,-9.55367E-1,-2.9036003E-1,-9.1442823E-1,-6.303009E-1,-1.6150326E-1,-1.28529E0,-1.749495E0,-1.1033037E0,-7.714445E-1,-2.3150028E-1,2.0522387E-1,1.1648934E0,5.427036E-1,-7.431408E-1,-3.414913E-1,-1.4665475E0,-8.915022E-1,-1.7255451E-1,5.8082825E-1,-8.4426665E-1,-3.2950467E-1,1.18800305E-1,-1.971931E-1,5.518657E-1,1.7684048E-1,1.0047318E0,1.6056087E0,2.095617E0,1.5327504E0,4.3163955E-1,-1.5600443E-1,9.0582156E-1,5.43916E-1,1.0633267E0,1.4769058E0,2.1253346E-1,1.058503E0,1.8830677E0,2.5094655E0,9.878352E-1,1.477833E0,1.7029672E0,2.3273654E0,4.6014193E-1,2.822919E0,1.1432161E0,1.7026708E0,1.5081242E0,2.0508003E0],"split_indices":[5,13,2,5,10,13,13,13,18,24,24,21,24,21,24,2,24,24,24,5,28,13,24,25,5,13,5,24,24,13,2,24,18,24,28,10,3,27,18,24,33,24,2,34,24,30,2,33,18,24,24,33,23,24,24,10,26,21,25,27,25,30,29,0,0,0,0,0,0,0,0,0,0,0,0,0,0,0,0,0,0,0,0,0,0,0,0,0,0,0,0,0,0,0,0,0,0,0,0,0,0,0,0,0,0,0,0,0,0,0,0,0,0,0,0,0,0,0,0,0,0,0,0,0,0,0,0],"split_type":[0,0,0,0,0,0,0,0,0,0,0,0,0,0,0,0,0,0,0,0,0,0,0,0,0,0,0,0,0,0,0,0,0,0,0,0,0,0,0,0,0,0,0,0,0,0,0,0,0,0,0,0,0,0,0,0,0,0,0,0,0,0,0,0,0,0,0,0,0,0,0,0,0,0,0,0,0,0,0,0,0,0,0,0,0,0,0,0,0,0,0,0,0,0,0,0,0,0,0,0,0,0,0,0,0,0,0,0,0,0,0,0,0,0,0,0,0,0,0,0,0,0,0,0,0,0,0],"sum_hessian":[2.341798E6,1.006775E6,1.335023E6,4.02982E5,6.03793E5,9.40435E5,3.94588E5,1.44636E5,2.58346E5,3.34341E5,2.69452E5,4.56176E5,4.84259E5,3.02699E5,9.1889E4,4.2902E4,1.01734E5,7.0462E4,1.87884E5,2.17445E5,1.16896E5,7.7809E4,1.91643E5,8.9039E4,3.67137E5,6.4681E4,4.19578E5,1.24926E5,1.77773E5,5.4159E4,3.773E4,1.1531E4,3.1371E4,5.8648E4,4.3086E4,6.9072E4,1.39E3,5.5139E4,1.32745E5,1.16469E5,1.00976E5,4.669E4,7.0206E4,5.9E4,1.8809E4,1.6655E5,2.5093E4,4.4749E4,4.429E4,1.83709E5,1.83428E5,4.8637E4,1.6044E4,1.44692E5,2.74886E5,9.9916E4,2.501E4,3.7086E4,1.40687E5,3.8588E4,1.5571E4,7.427E3,3.0303E4,1.0692E4,8.39E2,8.96E3,2.2411E4,3.291E3,5.5357E4,2.4183E4,1.8903E4,1.6672E4,5.24E4,4.05E2,9.85E2,4.483E3,5.0656E4,1.11482E5,2.1263E4,9.285E3,1.07184E5,7.6905E4,2.4071E4,2.7204E4,1.9486E4,2.519E4,4.5016E4,4.3648E4,1.5352E4,4.773E3,1.4036E4,5.4097E4,1.12453E5,6.862E3,1.8231E4,4.0396E4,4.353E3,1.3298E4,3.0992E4,1.21348E5,6.2361E4,9.1907E4,9.1521E4,3.5462E4,1.3175E4,1.2167E4,3.877E3,1.2563E5,1.9062E4,1.65304E5,1.09582E5,6.7838E4,3.2078E4,1.2607E4,1.2403E4,2.9957E4,7.129E3,1.8322E4,1.22365E5,6.404E3,3.2184E4,1.92E2,1.5379E4,5.143E3,2.284E3,8.559E3,2.1744E4],"tree_param":{"num_deleted":"0","num_feature":"39","num_nodes":"127","size_leaf_vector":"1"}},{"base_weights":[6.4527485E-6,-2.0580838E0,2.0060773E0,-3.5755122E0,-1.1830477E0,1.2916119E0,3.824894E0,-4.6531253E0,-3.1740196E0,-1.794733E0,-3.704614E-1,7.6153445E-1,2.2073061E0,3.3484704E0,5.0886345E0,-5.381883E0,-4.241964E0,-2.1672404E0,-3.5195842E0,-2.2181025E0,-1.33545E0,-1.1480248E0,-7.542056E-2,1.1893264E0,-1.5358083E-1,3.1270103E0,1.6619927E0,3.7976205E0,2.546459E0,5.653434E0,4.202645E0,-5.287296E0,-9.559963E0,-3.0706735E0,-4.438625E0,-2.1776131E-1,-2.3993678E0,-3.34926E0,-4.7349596E0,-2.456013E0,-1.2958708E0,-3.024566E-1,-1.5650365E0,-1.0699446E0,-5.574575E0,-3.3368316E-1,8.422476E-1,1.0083976E0,2.239672E0,-1.2319615E0,7.1882993E-1,2.6796117E0,4.3280807E0,3.26498E-1,1.9227332E0,3.3401914E0,4.7954226E0,1.5374185E0,3.2101328E0,1.7176162E0,5.7928243E0,3.4526792E0,5.092072E0,-1.8535732E0,-1.4850725E0,-3.1281126E0,-2.742287E0,-1.2230859E0,-7.8677213E-1,-1.5902536E0,-1.2654338E0,-2.767414E-1,7.818286E-2,-1.6748885E0,-6.866412E-1,-1.2291088E0,-9.4044954E-1,-1.8869778E0,-1.3113794E0,-7.1678233E-1,-1.6020766E0,-2.8570193E-1,-9.6704787E-1,-1.4180227E-1,3.275196E-1,-4.285068E-1,-7.777915E-1,-2.8105598E-2,-4.1248783E-1,-1.8710045E0,-1.4094391E0,-8.069885E-2,-1.2628709E0,1.3053305E-1,8.6232835E-1,1.770856E-1,3.8612145E-1,4.8803315E-1,1.164653E0,-1.1649901E-1,-5.8774185E-1,4.541505E-2,3.7255362E-1,5.491771E-1,9.2466956E-1,1.2076907E0,1.6953259E0,4.991084E-1,-1.6034228E-1,5.0865006E-1,1.1043631E0,6.9871414E-1,1.0647466E0,1.2781594E0,1.7604493E0,6.292931E-1,6.691053E-2,7.737981E-1,1.0775223E0,1.2473859E0,3.546496E-1,1.6334962E0,2.1500602E0,1.1217997E0,1.6286318E-1,1.6014202E0,8.7724E-1],"categories":[],"categories_nodes":[],"categories_segments":[],"categories_sizes":[],"default_left":[0,0,0,0,0,0,0,0,0,0,0,0,0,0,0,0,0,0,0,0,0,0,0,0,0,0,0,0,0,0,0,0,0,0,0,0,0,0,0,0,0,0,0,0,0,0,0,0,0,0,0,0,0,0,0,0,0,0,0,0,0,0,0,0,0,0,0,0,0,0,0,0,0,0,0,0,0,0,0,0,0,0,0,0,0,0,0,0,0,0,0,0,0,0,0,0,0,0,0,0,0,0,0,0,0,0,0,0,0,0,0,0,0,0,0,0,0,0,0,0,0,0,0,0,0,0,0],"id":3,"left_children":[1,3,5,7,9,11,13,15,17,19,21,23,25,27,29,31,33,35,37,39,41,43,45,47,49,51,53,55,57,59,61,63,65,67,69,71,73,75,77,79,81,83,85,87,89,91,93,95,97,99,101,103,105,107,109,111,113,115,117,119,121,123,125,-1,-1,-1,-1,-1,-1,-1,-1,-1,-1,-1,-1,-1,-1,-1,-1,-1,-1,-1,-1,-1,-1,-1,-1,-1,-1,-1,-1,-1,-1,-1,-1,-1,-1,-1,-1,-1,-1,-1,-1,-1,-1,-1,-1,-1,-1,-1,-1,-1,-1,-1,-1,-1,-1,-1,-1,-1,-1,-1,-1,-1,-1,-1,-1],"loss_changes":[9.668532E6,1.5348225E6,1.541033E6,1.82898E5,3.6440612E5,4.1327338E5,2.013515E5,3.43625E4,1.071535E5,8.1329625E4,7.223425E4,2.1111069E5,1.565555E5,8.74855E4,4.57965E4,1.630575E4,1.688675E4,3.5617875E4,4.745225E4,4.7750375E4,4.758172E4,2.9928672E4,5.4097043E4,6.983247E4,1.6161652E5,6.2426625E4,6.824094E4,7.1047E4,5.8389312E4,3.06665E4,2.3763062E4,1.2128125E4,2.3711719E2,4.7468984E3,1.1921375E4,2.8238967E3,2.4744469E4,3.223625E4,1.5911E4,3.3290562E4,2.9554133E4,8.658733E3,2.3051562E4,2.534336E4,8.4173047E2,4.4658797E4,4.147596E4,3.6525062E4,5.435253E4,4.71291E4,2.8183238E4,2.8934625E4,1.2595125E4,3.685711E4,6.5510375E4,2.2549E4,2.8055625E4,2.5476531E4,1.2652625E4,2.4960708E3,2.5771375E4,1.6133703E4,8.681E3,0E0,0E0,0E0,0E0,0E0,0E0,0E0,0E0,0E0,0E0,0E0,0E0,0E0,0E0,0E0,0E0,0E0,0E0,0E0,0E0,0E0,0E0,0E0,0E0,0E0,0E0,0E0,0E0,0E0,0E0,0E0,0E0,0E0,0E0,0E0,0E0,0E0,0E0,0E0,0E0,0E0,0E0,0E0,0E0,0E0,0E0,0E0,0E0,0E0,0E0,0E0,0E0,0E0,0E0,0E0,0E0,0E0,0E0,0E0,0E0,0E0,0E0,0E0,0E0],"parents":[2147483647,0,0,1,1,2,2,3,3,4,4,5,5,6,6,7,7,8,8,9,9,10,10,11,11,12,12,13,13,14,14,15,15,16,16,17,17,18,18,19,19,20,20,21,21,22,22,23,23,24,24,25,25,26,26,27,27,28,28,29,29,30,30,31,31,32,32,33,33,34,34,35,35,36,36,37,37,38,38,39,39,40,40,41,41,42,42,43,43,44,44,45,45,46,46,47,47,48,48,49,49,50,50,51,51,52,52,53,53,54,54,55,55,56,56,57,57,58,58,59,59,60,60,61,61,62,62],"right_children":[2,4,6,8,10,12,14,16,18,20,22,24,26,28,30,32,34,36,38,40,42,44,46,48,50,52,54,56,58,60,62,64,66,68,70,72,74,76,78,80,82,84,86,88,90,92,94,96,98,100,102,104,106,108,110,112,114,116,118,120,122,124,126,-1,-1,-1,-1,-1,-1,-1,-1,-1,-1,-1,-1,-1,-1,-1,-1,-1,-1,-1,-1,-1,-1,-1,-1,-1,-1,-1,-1,-1,-1,-1,-1,-1,-1,-1,-1,-1,-1,-1,-1,-1,-1,-1,-1,-1,-1,-1,-1,-1,-1,-1,-1,-1,-1,-1,-1,-1,-1,-1,-1,-1,-1,-1,-1],"split_conditions":[2.04E1,1.26E1,2.8633333E1,8.5E0,1.75E1,2.635E1,3.32E1,6.9166665E0,2.7E1,1.49E1,1.67E1,3.78E2,7.4E1,3.59E2,3.59E2,9.42E2,-6.3E1,-3.33E2,8.19E2,2.4210604E1,7E0,9.42E2,2.4210604E1,3.78E2,3E2,2.97E1,2.19E1,4E2,2.64E2,1.9328351E0,3.1916666E1,4.6E0,8.6666664E1,1.07E2,6.633333E0,9.1E0,1.2430738E0,8.8E0,8E1,8.58E2,3.52E2,5.1123824E0,8.19E2,6.9245033E0,6.1166668E1,8.19E2,8.19E2,2.25E1,3.3039093E0,4.91E2,2.36E1,1.85E2,3.4963448E0,2.863312E1,7.99E2,1.9328351E0,3.089111E0,4.75E2,2.92E1,-1.4082323E-1,3.66E1,9.42E2,9.42E2,-1.8535732E0,-1.4850725E0,-3.1281126E0,-2.742287E0,-1.2230859E0,-7.8677213E-1,-1.5902536E0,-1.2654338E0,-2.767414E-1,7.818286E-2,-1.6748885E0,-6.866412E-1,-1.2291088E0,-9.4044954E-1,-1.8869778E0,-1.3113794E0,-7.1678233E-1,-1.6020766E0,-2.8570193E-1,-9.6704787E-1,-1.4180227E-1,3.275196E-1,-4.285068E-1,-7.777915E-1,-2.8105598E-2,-4.1248783E-1,-1.8710045E0,-1.4094391E0,-8.069885E-2,-1.2628709E0,1.3053305E-1,8.6232835E-1,1.770856E-1,3.8612145E-1,4.8803315E-1,1.164653E0,-1.1649901E-1,-5.8774185E-1,4.541505E-2,3.7255362E-1,5.491771E-1,9.2466956E-1,1.2076907E0,1.6953259E0,4.991084E-1,-1.6034228E-1,5.0865006E-1,1.1043631E0,6.9871414E-1,1.0647466E0,1.2781594E0,1.7604493E0,6.292931E-1,6.691053E-2,7.737981E-1,1.0775223E0,1.2473859E0,3.546496E-1,1.6334962E0,2.1500602E0,1.1217997E0,1.6286318E-1,1.6014202E0,8.7724E-1],"split_indices":[13,5,2,13,5,10,2,18,24,21,21,24,24,24,24,24,24,24,24,33,24,24,33,28,28,13,5,26,26,25,18,13,3,30,2,5,27,5,26,24,24,6,24,32,11,26,28,13,6,24,4,26,14,34,26,25,22,24,5,25,5,24,24,0,0,0,0,0,0,0,0,0,0,0,0,0,0,0,0,0,0,0,0,0,0,0,0,0,0,0,0,0,0,0,0,0,0,0,0,0,0,0,0,0,0,0,0,0,0,0,0,0,0,0,0,0,0,0,0,0,0,0,0,0,0,0,0],"split_type":[0,0,0,0,0,0,0,0,0,0,0,0,0,0,0,0,0,0,0,0,0,0,0,0,0,0,0,0,0,0,0,0,0,0,0,0,0,0,0,0,0,0,0,0,0,0,0,0,0,0,0,0,0,0,0,0,0,0,0,0,0,0,0,0,0,0,0,0,0,0,0,0,0,0,0,0,0,0,0,0,0,0,0,0,0,0,0,0,0,0,0,0,0,0,0,0,0,0,0,0,0,0,0,0,0,0,0,0,0,0,0,0,0,0,0,0,0,0,0,0,0,0,0,0,0,0,0],"sum_hessian":[2.341798E6,1.155912E6,1.185886E6,4.2277E5,7.33142E5,8.5143E5,3.34456E5,1.14755E5,3.08015E5,4.18277E5,3.14865E5,5.39263E5,3.12167E5,2.42891E5,9.1565E4,4.1387E4,7.3368E4,7.8709E4,2.29306E5,2.17646E5,2.00631E5,8.6609E4,2.28256E5,3.67477E5,1.71786E5,1.16194E5,1.95973E5,1.55694E5,8.7197E4,5.5915E4,3.565E4,4.0473E4,9.14E2,1.055E4,6.2818E4,8.375E3,7.0334E4,2.01124E5,2.8182E4,1.73012E5,4.4634E4,3.6483E4,1.64148E5,8.5109E4,1.5E3,1.78126E5,5.013E4,3.1348E5,5.3997E4,7.6824E4,9.4962E4,8.4661E4,3.1533E4,3.2012E4,1.63961E5,1.06757E5,4.8937E4,3.4598E4,5.2599E4,1.913E3,5.4002E4,1.9344E4,1.6306E4,1.1101E4,2.9372E4,2.9E2,6.24E2,3.248E3,7.302E3,1.2789E4,5.0029E4,3.386E3,4.989E3,2.359E3,6.7975E4,4.4817E4,1.56307E5,5.339E3,2.2843E4,1.69101E5,3.911E3,3.7884E4,6.75E3,3.2514E4,3.969E3,1.4488E5,1.9268E4,2.0261E4,6.4848E4,8.51E2,6.49E2,1.75203E5,2.923E3,4.1764E4,8.366E3,1.25375E5,1.88105E5,3.9325E4,1.4672E4,3.5565E4,4.1259E4,4.5547E4,4.9415E4,2.7235E4,5.7426E4,2.5669E4,5.864E3,1.2538E4,1.9474E4,1.452E5,1.8761E4,1.8286E4,8.8471E4,3.2658E4,1.6279E4,2.4258E4,1.034E4,1.9829E4,3.277E4,3.43E2,1.57E3,4.3097E4,1.0905E4,1.7609E4,1.735E3,1.4643E4,1.663E3],"tree_param":{"num_deleted":"0","num_feature":"39","num_nodes":"127","size_leaf_vector":"1"}},{"base_weights":[1.8989773E-6,-1.6350422E0,1.2535665E0,-2.6164494E0,-1.0598129E0,4.9167114E-1,2.2591515E0,-3.2722204E0,-2.2966685E0,-1.5528829E0,-6.244065E-1,1.2950063E0,1.7281224E-1,1.8250295E0,3.1571934E0,-2.7772887E0,-3.877992E0,-2.5659542E0,-1.8039364E0,-1.518476E0,-5.3103237E0,1.0104863E-1,-8.436549E-1,1.6618816E0,3.8909152E-1,-4.0748116E-1,5.531484E-1,2.2725418E0,1.373369E0,2.745222E0,3.8700695E0,-3.1928678E0,-2.249957E0,-5.1650405E0,-3.6548119E0,-3.2643068E0,-2.3672824E0,-8.610066E-1,-2.0538158E0,-2.0025957E0,-1.2423797E0,-6.2074695E0,-3.8316681E0,-1.6768354E0,2.27066E-1,-9.464083E-1,2.8375655E-1,1.3519869E0,2.9829671E0,-7.53043E-1,7.922099E-1,-1.8927809E0,-2.8632647E-1,-7.245607E-2,8.893502E-1,2.0277758E0,3.4042695E0,8.719147E-1,1.8761342E0,3.1729736E0,2.083997E0,4.077296E0,2.019434E0,-1.0757604E0,-7.131509E-1,-1.505325E0,-6.4963627E-1,-1.1218252E0,-1.7055744E0,-1.279619E0,-9.785282E-1,-1.1374426E0,-8.6791587E-1,-7.657862E-1,-4.7005388E-1,-6.6988564E-1,-1.8819395E-1,-1.120285E0,-5.8460677E-1,-5.3719133E-1,-8.411523E-1,-2.1856914E-1,-4.290717E-1,-2.3032866E0,-1.7009767E0,-1.4460177E0,-9.794747E-1,-8.239575E-1,-8.2701355E-2,3.0130655E-1,-8.5811946E-4,-2.6183602E-1,-1.0371944E0,3.5686466E-1,-3.7923925E-2,4.970316E-1,1.7648593E-1,1.0175328E0,2.96739E-1,-6.90439E-2,-3.9431968E-1,1.6762057E-1,5.6631744E-1,-6.2856543E-1,5.823293E-1,-2.7883777E-1,-1.4070921E-2,5.6885544E-2,-6.062865E-1,7.3824525E-1,2.4974875E-1,5.376672E-1,7.499874E-1,9.4280475E-1,1.5117068E0,3.608077E-1,-1.8111704E-1,3.472827E-1,5.935242E-1,6.5207696E-1,1.037204E0,4.3449566E-1,8.662208E-1,1.1306269E0,1.4915545E0,3.7176126E-1,7.244265E-1],"categories":[],"categories_nodes":[],"categories_segments":[],"categories_sizes":[],"default_left":[0,0,0,0,0,0,0,0,0,0,0,0,0,0,0,0,0,0,0,0,0,0,0,0,0,0,0,0,0,0,0,0,0,0,0,0,0,0,0,0,0,0,0,0,0,0,0,0,0,0,0,0,0,0,0,0,0,0,0,0,0,0,0,0,0,0,0,0,0,0,0,0,0,0,0,0,0,0,0,0,0,0,0,0,0,0,0,0,0,0,0,0,0,0,0,0,0,0,0,0,0,0,0,0,0,0,0,0,0,0,0,0,0,0,0,0,0,0,0,0,0,0,0,0,0,0,0],"id":4,"left_children":[1,3,5,7,9,11,13,15,17,19,21,23,25,27,29,31,33,35,37,39,41,43,45,47,49,51,53,55,57,59,61,63,65,67,69,71,73,75,77,79,81,83,85,87,89,91,93,95,97,99,101,103,105,107,109,111,113,115,117,119,121,123,125,-1,-1,-1,-1,-1,-1,-1,-1,-1,-1,-1,-1,-1,-1,-1,-1,-1,-1,-1,-1,-1,-1,-1,-1,-1,-1,-1,-1,-1,-1,-1,-1,-1,-1,-1,-1,-1,-1,-1,-1,-1,-1,-1,-1,-1,-1,-1,-1,-1,-1,-1,-1,-1,-1,-1,-1,-1,-1,-1,-1,-1,-1,-1,-1],"loss_changes":[4.7998315E6,5.737145E5,1.0155569E6,7.874525E4,1.3755344E5,1.931747E5,2.227555E5,3.689625E4,3.3491375E4,3.8836688E4,5.4120094E4,7.121759E4,1.1915197E5,7.78525E4,5.4673625E4,1.4840281E4,1.587975E4,2.2639625E4,2.1018719E4,3.97945E4,3.5924453E3,1.7692934E4,3.0269719E4,6.2435656E4,2.8439074E4,3.846327E4,6.859268E4,5.3588875E4,4.8330562E4,3.3371062E4,2.614375E4,1.213725E4,6.973922E3,6.0429688E3,1.13071875E4,7.0640625E3,1.8849125E4,5.991208E3,1.2451625E4,1.8359094E4,1.8301E4,1.2959883E3,5.6236035E2,7.8335254E3,1.3179297E4,4.426411E4,8.1091323E3,2.8754516E4,2.3616547E4,4.729657E3,1.1676098E4,1.2515098E4,3.0430762E4,5.821317E4,1.8950125E4,1.7688812E4,1.4695906E4,4.6849812E4,7.0328438E3,2.0356125E4,2.3670688E4,1.690725E4,2.1156895E3,0E0,0E0,0E0,0E0,0E0,0E0,0E0,0E0,0E0,0E0,0E0,0E0,0E0,0E0,0E0,0E0,0E0,0E0,0E0,0E0,0E0,0E0,0E0,0E0,0E0,0E0,0E0,0E0,0E0,0E0,0E0,0E0,0E0,0E0,0E0,0E0,0E0,0E0,0E0,0E0,0E0,0E0,0E0,0E0,0E0,0E0,0E0,0E0,0E0,0E0,0E0,0E0,0E0,0E0,0E0,0E0,0E0,0E0,0E0,0E0,0E0,0E0,0E0,0E0],"parents":[2147483647,0,0,1,1,2,2,3,3,4,4,5,5,6,6,7,7,8,8,9,9,10,10,11,11,12,12,13,13,14,14,15,15,16,16,17,17,18,18,19,19,20,20,21,21,22,22,23,23,24,24,25,25,26,26,27,27,28,28,29,29,30,30,31,31,32,32,33,33,34,34,35,35,36,36,37,37,38,38,39,39,40,40,41,41,42,42,43,43,44,44,45,45,46,46,47,47,48,48,49,49,50,50,51,51,52,52,53,53,54,54,55,55,56,56,57,57,58,58,59,59,60,60,61,61,62,62],"right_children":[2,4,6,8,10,12,14,16,18,20,22,24,26,28,30,32,34,36,38,40,42,44,46,48,50,52,54,56,58,60,62,64,66,68,70,72,74,76,78,80,82,84,86,88,90,92,94,96,98,100,102,104,106,108,110,112,114,116,118,120,122,124,126,-1,-1,-1,-1,-1,-1,-1,-1,-1,-1,-1,-1,-1,-1,-1,-1,-1,-1,-1,-1,-1,-1,-1,-1,-1,-1,-1,-1,-1,-1,-1,-1,-1,-1,-1,-1,-1,-1,-1,-1,-1,-1,-1,-1,-1,-1,-1,-1,-1,-1,-1,-1,-1,-1,-1,-1,-1,-1,-1,-1,-1,-1,-1,-1],"split_conditions":[1.91E1,1.21E1,2.5933332E1,8.4E0,1.54E1,2.7E1,3.09E1,3.78E2,1.21E1,8.19E2,1.3E1,5E-1,2.09E1,1.28E2,3.46E1,9.233334E0,4.3965088E1,7.8E0,7E0,1.23E1,4.8E1,1.2430738E0,2.245E1,3.0007507E1,3.382091E0,1.44E1,1.85E2,3.7914963E0,2.64E2,3.59E2,8.19E2,2.1961248E1,2.9268859E-2,4.3965088E1,6.2E0,8E1,2.610891E1,-2.6596713E0,2.9268859E-2,3.497853E1,7E0,1.185E1,1.3916667E1,-5.07718E-1,-4.132786E-1,9.42E2,2.72867E1,3.2854238E-1,5.5824375E-1,8.660254E-1,2.789119E0,8.19E2,3E2,4.66E2,7.4E1,2.89E1,4.89E2,4.75E2,2.5E1,2.72867E1,3E2,3.8983334E1,3.06E1,-1.0757604E0,-7.131509E-1,-1.505325E0,-6.4963627E-1,-1.1218252E0,-1.7055744E0,-1.279619E0,-9.785282E-1,-1.1374426E0,-8.6791587E-1,-7.657862E-1,-4.7005388E-1,-6.6988564E-1,-1.8819395E-1,-1.120285E0,-5.8460677E-1,-5.3719133E-1,-8.411523E-1,-2.1856914E-1,-4.290717E-1,-2.3032866E0,-1.7009767E0,-1.4460177E0,-9.794747E-1,-8.239575E-1,-8.2701355E-2,3.0130655E-1,-8.5811946E-4,-2.6183602E-1,-1.0371944E0,3.5686466E-1,-3.7923925E-2,4.970316E-1,1.7648593E-1,1.0175328E0,2.96739E-1,-6.90439E-2,-3.9431968E-1,1.6762057E-1,5.6631744E-1,-6.2856543E-1,5.823293E-1,-2.7883777E-1,-1.4070921E-2,5.6885544E-2,-6.062865E-1,7.3824525E-1,2.4974875E-1,5.376672E-1,7.499874E-1,9.4280475E-1,1.5117068E0,3.608077E-1,-1.8111704E-1,3.472827E-1,5.935242E-1,6.5207696E-1,1.037204E0,4.3449566E-1,8.662208E-1,1.1306269E0,1.4915545E0,3.7176126E-1,7.244265E-1],"split_indices":[13,5,2,5,13,24,13,24,13,26,24,35,5,24,13,10,27,21,24,21,3,27,18,33,25,5,26,6,26,24,24,33,29,25,5,26,33,15,29,34,24,10,10,14,38,24,25,38,38,35,14,26,26,24,24,5,28,24,13,29,28,10,21,0,0,0,0,0,0,0,0,0,0,0,0,0,0,0,0,0,0,0,0,0,0,0,0,0,0,0,0,0,0,0,0,0,0,0,0,0,0,0,0,0,0,0,0,0,0,0,0,0,0,0,0,0,0,0,0,0,0,0,0,0,0,0,0],"split_type":[0,0,0,0,0,0,0,0,0,0,0,0,0,0,0,0,0,0,0,0,0,0,0,0,0,0,0,0,0,0,0,0,0,0,0,0,0,0,0,0,0,0,0,0,0,0,0,0,0,0,0,0,0,0,0,0,0,0,0,0,0,0,0,0,0,0,0,0,0,0,0,0,0,0,0,0,0,0,0,0,0,0,0,0,0,0,0,0,0,0,0,0,0,0,0,0,0,0,0,0,0,0,0,0,0,0,0,0,0,0,0,0,0,0,0,0,0,0,0,0,0,0,0,0,0,0,0],"sum_hessian":[2.341798E6,1.016266E6,1.325532E6,3.75543E5,6.40723E5,7.54145E5,5.71387E5,1.23098E5,2.52445E5,3.00464E5,3.40259E5,2.14281E5,5.39864E5,3.85187E5,1.862E5,6.775E4,5.5348E4,1.63232E5,8.9213E4,2.97739E5,2.725E3,7.8968E4,2.61291E5,1.52515E5,6.1766E4,2.13745E5,3.26119E5,1.9348E5,1.91707E5,1.18008E5,6.8192E4,3.7887E4,2.9863E4,8.176E3,4.7172E4,3.6149E4,1.27083E5,1.869E4,7.0523E4,1.08131E5,1.89608E5,1.694E3,1.031E3,5.226E3,7.3742E4,2.39466E5,2.1825E4,1.23538E5,2.8977E4,1.6113E4,4.5653E4,1.6119E4,1.97626E5,1.13996E5,2.12123E5,1.59078E5,3.4402E4,9.598E4,9.5727E4,7.1652E4,4.6356E4,6.1324E4,6.868E3,2.5566E4,1.2321E4,8.83E2,2.898E4,2.188E3,5.988E3,1.847E4,2.8702E4,1.4934E4,2.1215E4,1.03188E5,2.3895E4,2.719E3,1.5971E4,4.15E3,6.6373E4,8.5513E4,2.2618E4,5.0765E4,1.38843E5,4.5E2,1.244E3,3.73E2,6.58E2,2.963E3,2.263E3,1.6833E4,5.6909E4,2.32646E5,6.82E3,6.802E3,1.5023E4,8.8298E4,3.524E4,2.4046E4,4.931E3,8.343E3,7.77E3,3.7634E4,8.019E3,1.5311E4,8.08E2,5.3612E4,1.44014E5,1.00482E5,1.3514E4,7.405E3,2.04718E5,1.06136E5,5.2942E4,2.9659E4,4.743E3,7.8405E4,1.7575E4,1.193E4,8.3797E4,1.5874E4,5.5778E4,2.5881E4,2.0475E4,4.5601E4,1.5723E4,2.311E3,4.557E3],"tree_param":{"num_deleted":"0","num_feature":"39","num_nodes":"127","size_leaf_vector":"1"}},{"base_weights":[-3.3398899E-6,-1.0762936E0,9.499239E-1,-1.6387159E0,-5.056011E-1,5.434628E-1,1.8738666E0,-2.1085265E0,-1.2965797E0,-2.987118E-1,-1.2583543E0,1.8379782E-1,9.996315E-1,2.0988908E0,9.2831254E-1,-2.684418E0,-1.9062935E0,-1.0721351E0,-1.7589747E0,-7.2665334E-1,7.551127E-2,-2.0280612E0,-6.53054E-1,2.5148746E-1,-1.7246305E0,7.0450217E-1,1.4958586E0,1.8531884E0,2.797421E0,4.7110572E-1,1.67353E0,-2.6265898E0,-4.766671E0,-1.531908E0,-2.198348E0,-1.4247438E0,-6.6931593E-1,-2.3193963E0,-1.3934036E0,1.5274821E-1,-9.247708E-1,-3.457718E-1,4.2193854E-1,-3.1749978E0,-1.8220042E0,-9.692196E-1,-3.7203643E-1,-2.1642143E-1,4.7327983E-1,-2.362899E0,-9.6658E-1,9.4199157E-1,-9.5019005E-2,1.3689954E0,2.5538812E0,1.5852816E0,2.537695E0,2.6388857E0,4.188581E0,-9.86012E-2,1.4337991E0,1.5816872E0,3.3150108E0,-1.0525914E0,-7.4782455E-1,-1.7984052E0,-1.3368784E0,-9.7000355E-1,-4.208045E-1,-5.9510833E-1,-8.9470416E-1,-5.1276785E-1,-3.0084437E-1,-5.3596395E-1,-1.4073667E-1,8.7097265E-2,-7.4221545E-1,-5.2984995E-1,-3.4397942E-1,2.3616172E-1,-1.4646667E-1,-3.4410018E-1,-1.05655886E-1,2.3245648E-2,-2.0096557E-1,4.5015046E-1,9.481787E-2,-7.3484063E-1,-1.1346837E0,-8.425754E-1,-4.415855E-1,-3.586427E-1,-1.8449302E-1,-1.7800225E-1,1.885986E-3,-2.4626413E-2,-2.3369174E-1,8.985713E-2,3.194119E-1,-4.9735695E-1,-1.0894113E0,-4.8227304E-1,-1.3978672E-1,-3.999897E-3,3.107354E-1,-1.9377993E-1,4.6947006E-2,4.376662E-1,1.3974941E-1,8.343618E-1,2.8523797E-1,4.5346272E-1,9.851007E-1,7.223674E-1,1.159659E0,7.5782037E-1,1.328847E0,1.0596561E0,1.5199373E0,2.9348275E-1,-5.033042E-2,2.7505666E-1,5.693182E-1,4.2693496E-1,6.27211E-1,7.7789736E-1,1.1135356E0],"categories":[],"categories_nodes":[],"categories_segments":[],"categories_sizes":[],"default_left":[0,0,0,0,0,0,0,0,0,0,0,0,0,0,0,0,0,0,0,0,0,0,0,0,0,0,0,0,0,0,0,0,0,0,0,0,0,0,0,0,0,0,0,0,0,0,0,0,0,0,0,0,0,0,0,0,0,0,0,0,0,0,0,0,0,0,0,0,0,0,0,0,0,0,0,0,0,0,0,0,0,0,0,0,0,0,0,0,0,0,0,0,0,0,0,0,0,0,0,0,0,0,0,0,0,0,0,0,0,0,0,0,0,0,0,0,0,0,0,0,0,0,0,0,0,0,0],"id":5,"left_children":[1,3,5,7,9,11,13,15,17,19,21,23,25,27,29,31,33,35,37,39,41,43,45,47,49,51,53,55,57,59,61,63,65,67,69,71,73,75,77,79,81,83,85,87,89,91,93,95,97,99,101,103,105,107,109,111,113,115,117,119,121,123,125,-1,-1,-1,-1,-1,-1,-1,-1,-1,-1,-1,-1,-1,-1,-1,-1,-1,-1,-1,-1,-1,-1,-1,-1,-1,-1,-1,-1,-1,-1,-1,-1,-1,-1,-1,-1,-1,-1,-1,-1,-1,-1,-1,-1,-1,-1,-1,-1,-1,-1,-1,-1,-1,-1,-1,-1,-1,-1,-1,-1,-1,-1,-1,-1],"loss_changes":[2.39425E6,3.5238525E5,4.6714988E5,8.887725E4,8.48658E4,1.4173547E5,8.086E4,2.7130625E4,3.3203062E4,6.845478E4,5.4733984E4,6.2399547E4,5.5774562E4,5.268225E4,2.4891422E4,7.2788438E3,1.8851938E4,3.0593828E4,2.1416562E4,3.4742977E4,3.3281203E4,1.2216703E4,5.842826E3,4.8412E4,8.003328E3,4.5345953E4,1.906075E4,4.1643188E4,1.7606125E4,2.48341E4,4.182672E3,6.946875E3,5.9652734E2,1.6611969E4,1.62965E4,1.3784719E4,2.248686E4,1.6659172E4,5.819547E3,1.4911292E4,2.0708656E4,1.4116633E4,1.428993E4,3.4604531E3,1.5137281E4,2.4796523E3,2.915292E3,1.13364E4,3.2522305E4,8.026824E3,2.426849E3,1.6498016E4,7.578356E3,1.0296141E4,5.53875E3,2.0436844E4,1.1001094E4,1.4475094E4,4.6899375E3,2.119016E3,4.0354688E3,2.1205547E3,4.117871E2,0E0,0E0,0E0,0E0,0E0,0E0,0E0,0E0,0E0,0E0,0E0,0E0,0E0,0E0,0E0,0E0,0E0,0E0,0E0,0E0,0E0,0E0,0E0,0E0,0E0,0E0,0E0,0E0,0E0,0E0,0E0,0E0,0E0,0E0,0E0,0E0,0E0,0E0,0E0,0E0,0E0,0E0,0E0,0E0,0E0,0E0,0E0,0E0,0E0,0E0,0E0,0E0,0E0,0E0,0E0,0E0,0E0,0E0,0E0,0E0,0E0,0E0,0E0,0E0],"parents":[2147483647,0,0,1,1,2,2,3,3,4,4,5,5,6,6,7,7,8,8,9,9,10,10,11,11,12,12,13,13,14,14,15,15,16,16,17,17,18,18,19,19,20,20,21,21,22,22,23,23,24,24,25,25,26,26,27,27,28,28,29,29,30,30,31,31,32,32,33,33,34,34,35,35,36,36,37,37,38,38,39,39,40,40,41,41,42,42,43,43,44,44,45,45,46,46,47,47,48,48,49,49,50,50,51,51,52,52,53,53,54,54,55,55,56,56,57,57,58,58,59,59,60,60,61,61,62,62],"right_children":[2,4,6,8,10,12,14,16,18,20,22,24,26,28,30,32,34,36,38,40,42,44,46,48,50,52,54,56,58,60,62,64,66,68,70,72,74,76,78,80,82,84,86,88,90,92,94,96,98,100,102,104,106,108,110,112,114,116,118,120,122,124,126,-1,-1,-1,-1,-1,-1,-1,-1,-1,-1,-1,-1,-1,-1,-1,-1,-1,-1,-1,-1,-1,-1,-1,-1,-1,-1,-1,-1,-1,-1,-1,-1,-1,-1,-1,-1,-1,-1,-1,-1,-1,-1,-1,-1,-1,-1,-1,-1,-1,-1,-1,-1,-1,-1,-1,-1,-1,-1,-1,-1,-1,-1,-1,-1],"split_conditions":[1.91E1,1.57E1,2.84E1,1.06E1,4.91E2,2.39E1,5.65E2,7.7E0,3.72E2,3.72E2,3E2,9.42E2,3.52E2,3.22E1,3E2,9.42E2,2.64E2,1.19E2,3.03E2,1.9328351E0,1.84E1,3.8909443E1,6.73E2,1.12E2,9.52E2,3.78E2,5.209852E0,4.91E2,3.8E1,3.4616665E1,8.58E2,3.5E0,7.8333336E1,1.9328351E0,3.497853E1,1.39E1,3.382091E0,-3E0,1.2216666E1,2.1666667E0,4.66E2,5.5762897E1,-3.33E2,5E-1,1.32E1,1.85E1,1.8E1,3.32E2,2.3780085E1,6.123234E-17,1.53E1,7E0,2.195E1,7.69E2,1.4370568E1,5.385028E1,9.52E2,5.385028E1,5.5762897E1,-3.9499567E0,3.14E1,3.35E1,3.49E1,-1.0525914E0,-7.4782455E-1,-1.7984052E0,-1.3368784E0,-9.7000355E-1,-4.208045E-1,-5.9510833E-1,-8.9470416E-1,-5.1276785E-1,-3.0084437E-1,-5.3596395E-1,-1.4073667E-1,8.7097265E-2,-7.4221545E-1,-5.2984995E-1,-3.4397942E-1,2.3616172E-1,-1.4646667E-1,-3.4410018E-1,-1.05655886E-1,2.3245648E-2,-2.0096557E-1,4.5015046E-1,9.481787E-2,-7.3484063E-1,-1.1346837E0,-8.425754E-1,-4.415855E-1,-3.586427E-1,-1.8449302E-1,-1.7800225E-1,1.885986E-3,-2.4626413E-2,-2.3369174E-1,8.985713E-2,3.194119E-1,-4.9735695E-1,-1.0894113E0,-4.8227304E-1,-1.3978672E-1,-3.999897E-3,3.107354E-1,-1.9377993E-1,4.6947006E-2,4.376662E-1,1.3974941E-1,8.343618E-1,2.8523797E-1,4.5346272E-1,9.851007E-1,7.223674E-1,1.159659E0,7.5782037E-1,1.328847E0,1.0596561E0,1.5199373E0,2.9348275E-1,-5.033042E-2,2.7505666E-1,5.693182E-1,4.2693496E-1,6.27211E-1,7.7789736E-1,1.1135356E0],"split_indices":[21,12,13,18,24,21,24,10,24,30,28,24,28,5,28,24,24,30,28,25,13,27,28,30,24,24,6,26,5,10,28,13,11,29,34,21,27,26,2,9,26,25,24,36,21,4,13,24,33,36,5,30,2,24,32,33,26,33,27,7,21,4,20,0,0,0,0,0,0,0,0,0,0,0,0,0,0,0,0,0,0,0,0,0,0,0,0,0,0,0,0,0,0,0,0,0,0,0,0,0,0,0,0,0,0,0,0,0,0,0,0,0,0,0,0,0,0,0,0,0,0,0,0,0,0,0,0],"split_type":[0,0,0,0,0,0,0,0,0,0,0,0,0,0,0,0,0,0,0,0,0,0,0,0,0,0,0,0,0,0,0,0,0,0,0,0,0,0,0,0,0,0,0,0,0,0,0,0,0,0,0,0,0,0,0,0,0,0,0,0,0,0,0,0,0,0,0,0,0,0,0,0,0,0,0,0,0,0,0,0,0,0,0,0,0,0,0,0,0,0,0,0,0,0,0,0,0,0,0,0,0,0,0,0,0,0,0,0,0,0,0,0,0,0,0,0,0,0,0,0,0,0,0,0,0,0,0],"sum_hessian":[2.341798E6,1.097877E6,1.243921E6,5.52944E5,5.44933E5,8.63883E5,3.80038E5,2.32996E5,3.19948E5,4.27452E5,1.17481E5,4.83036E5,3.80847E5,3.06981E5,7.3057E4,6.0552E4,1.72444E5,2.15398E5,1.0455E5,1.99413E5,2.28039E5,5.1716E4,6.5765E4,4.66491E5,1.6545E4,2.38815E5,1.42032E5,2.27103E5,7.9878E4,4.5279E4,2.7778E4,5.8918E4,1.634E3,7.5573E4,9.6871E4,1.14856E5,1.00542E5,4.1273E4,6.3277E4,3.6665E4,1.62748E5,1.02902E5,1.25137E5,7.874E3,4.3842E4,3.0946E4,3.4819E4,1.50013E5,3.16478E5,8.981E3,7.564E3,1.84123E5,5.4692E4,1.26827E5,1.5205E4,1.63223E5,6.388E4,7.1709E4,8.169E3,2.8446E4,1.6833E4,2.6308E4,1.47E3,7.759E3,5.1159E4,3.26E2,1.308E3,5.333E3,7.024E4,7.6052E4,2.0819E4,6.86E4,4.6256E4,1.5277E4,8.5265E4,2.309E3,3.8964E4,2.5204E4,3.8073E4,1.8426E4,1.8239E4,1.17243E5,4.5505E4,4.4626E4,5.8276E4,1.1185E4,1.13952E5,3.59E3,4.284E3,1.148E4,3.2362E4,1.8883E4,1.2063E4,2.1968E4,1.2851E4,1.21097E5,2.8916E4,2.44614E5,7.1864E4,5.774E3,3.207E3,3.316E3,4.248E3,1.6461E4,1.67662E5,1.7142E4,3.755E4,1.15346E5,1.1481E4,1.3316E4,1.889E3,1.56433E5,6.79E3,5.8194E4,5.686E3,6.7461E4,4.248E3,4.677E3,3.492E3,1.716E3,2.673E4,7.963E3,8.87E3,2.0062E4,6.246E3,5.24E2,9.46E2],"tree_param":{"num_deleted":"0","num_feature":"39","num_nodes":"127","size_leaf_vector":"1"}},{"base_weights":[-3.6202575E-6,-6.663214E-1,7.791843E-1,-1.1163598E0,-2.2314203E-1,5.354733E-1,1.505581E0,-1.4302826E0,-8.5039E-1,-1.9651517E-1,-2.2132843E0,7.5827116E-1,1.7345047E-1,1.3252882E0,2.0815005E0,-1.8613428E0,-1.2833229E0,-6.065415E-1,-1.2154167E0,-4.7152007E-1,7.2231563E-3,-3.2894142E0,-1.0705744E0,6.3990575E-1,1.5062255E0,-1.0288389E-1,4.9164522E-1,1.2666229E0,2.8373537E0,-5.3017426E-1,2.204688E0,-1.6178347E-1,-1.9148695E0,-8.8525313E-1,-1.4251907E0,-7.861391E-1,1.00203715E-1,-1.585423E0,-8.401288E-1,-5.117991E-1,1.2410185E0,1.8753457E-1,-3.306321E-1,-2.1837034E0,-3.8378778E0,-1.4830654E0,3.411986E-1,5.2507216E-1,1.1570233E0,1.2156237E0,2.0536408E0,-2.7656996E-1,8.4046465E-1,2.1019553E-1,8.569828E-1,2.0120525E0,1.1337348E0,3.0018995E0,1.7335614E0,1.9120727E-1,-2.566766E0,2.3627663E0,1.1178961E0,1.2379574E-1,-3.4809846E-1,-6.606169E-1,-4.8300573E-1,-3.150273E-1,-5.2214067E-2,-1.3398102E-1,-4.5646676E-1,-3.997406E-1,-1.653326E-1,-1.0313082E-1,2.3830219E-1,-8.850985E-1,-4.4523647E-1,-1.3667947E-1,-3.2371625E-1,-1.11895226E-1,-2.9251137E-1,4.1701955E-1,7.256918E-2,-1.1396509E-2,2.3925434E-1,-5.9337717E-2,-2.7104008E-1,-2.6370293E-1,-7.952057E-1,-1.3643929E0,-9.561822E-1,-7.7928925E-1,-3.5794473E-1,-1.6761602E-1,3.1793004E-1,8.881828E-3,2.0391148E-1,2.4293844E-1,4.717876E-1,8.332955E-2,3.8984686E-1,5.1487297E-1,8.2448685E-1,-1.6697118E-1,1.2297812E-2,-1.755703E-1,3.261538E-1,1.2087779E-1,6.3415873E-3,2.9278034E-1,1.1567731E-1,4.7205615E-1,8.027023E-1,3.5622376E-1,-4.3372907E-2,7.6416487E-1,9.5124805E-1,6.2152183E-1,2.1036E-1,-1.19133964E-1,1.8312447E-1,3.0536315E-1,-9.001586E-1,6.6831094E-1,1.0068601E0,2.9630396E-1,6.2433237E-1],"categories":[],"categories_nodes":[],"categories_segments":[],"categories_sizes":[],"default_left":[0,0,0,0,0,0,0,0,0,0,0,0,0,0,0,0,0,0,0,0,0,0,0,0,0,0,0,0,0,0,0,0,0,0,0,0,0,0,0,0,0,0,0,0,0,0,0,0,0,0,0,0,0,0,0,0,0,0,0,0,0,0,0,0,0,0,0,0,0,0,0,0,0,0,0,0,0,0,0,0,0,0,0,0,0,0,0,0,0,0,0,0,0,0,0,0,0,0,0,0,0,0,0,0,0,0,0,0,0,0,0,0,0,0,0,0,0,0,0,0,0,0,0,0,0,0,0],"id":6,"left_children":[1,3,5,7,9,11,13,15,17,19,21,23,25,27,29,31,33,35,37,39,41,43,45,47,49,51,53,55,57,59,61,63,65,67,69,71,73,75,77,79,81,83,85,87,89,91,93,95,97,99,101,103,105,107,109,111,113,115,117,119,121,123,125,-1,-1,-1,-1,-1,-1,-1,-1,-1,-1,-1,-1,-1,-1,-1,-1,-1,-1,-1,-1,-1,-1,-1,-1,-1,-1,-1,-1,-1,-1,-1,-1,-1,-1,-1,-1,-1,-1,-1,-1,-1,-1,-1,-1,-1,-1,-1,-1,-1,-1,-1,-1,-1,-1,-1,-1,-1,-1,-1,-1,-1,-1,-1,-1],"loss_changes":[1.2158315E6,2.5176825E5,1.91099E5,5.22925E4,3.3702633E4,6.5194703E4,2.81555E4,1.8195188E4,3.017911E4,3.5164723E4,1.0322305E4,4.42965E4,2.7076027E4,1.8317094E4,2.0801719E4,6.6436094E3,1.2096969E4,2.5801078E4,1.8854047E4,1.842461E4,2.1962818E4,2.613871E3,2.3729736E3,2.5652266E4,1.08726875E4,2.7003445E4,1.4716629E4,1.9692656E4,1.3956641E3,4.280153E3,1.0604344E4,1.2801803E3,6.195203E3,6.5990195E3,1.489325E4,2.081125E4,1.269382E4,9.449469E3,6.193203E3,1.6780336E4,9.13708E2,3.2337168E4,9.546344E3,8.725791E2,1.3201992E3,1.01573193E3,5.968061E2,2.7083266E4,1.132668E4,3.5122656E3,5.5510938E3,1.2375859E4,9.014344E3,2.9457778E3,3.4918945E3,8.749656E3,1.15786875E4,5.073828E2,3.487168E2,5.309867E2,1.1878765E3,7.224625E3,9.815332E2,0E0,0E0,0E0,0E0,0E0,0E0,0E0,0E0,0E0,0E0,0E0,0E0,0E0,0E0,0E0,0E0,0E0,0E0,0E0,0E0,0E0,0E0,0E0,0E0,0E0,0E0,0E0,0E0,0E0,0E0,0E0,0E0,0E0,0E0,0E0,0E0,0E0,0E0,0E0,0E0,0E0,0E0,0E0,0E0,0E0,0E0,0E0,0E0,0E0,0E0,0E0,0E0,0E0,0E0,0E0,0E0,0E0,0E0,0E0,0E0,0E0,0E0,0E0,0E0],"parents":[2147483647,0,0,1,1,2,2,3,3,4,4,5,5,6,6,7,7,8,8,9,9,10,10,11,11,12,12,13,13,14,14,15,15,16,16,17,17,18,18,19,19,20,20,21,21,22,22,23,23,24,24,25,25,26,26,27,27,28,28,29,29,30,30,31,31,32,32,33,33,34,34,35,35,36,36,37,37,38,38,39,39,40,40,41,41,42,42,43,43,44,44,45,45,46,46,47,47,48,48,49,49,50,50,51,51,52,52,53,53,54,54,55,55,56,56,57,57,58,58,59,59,60,60,61,61,62,62],"right_children":[2,4,6,8,10,12,14,16,18,20,22,24,26,28,30,32,34,36,38,40,42,44,46,48,50,52,54,56,58,60,62,64,66,68,70,72,74,76,78,80,82,84,86,88,90,92,94,96,98,100,102,104,106,108,110,112,114,116,118,120,122,124,126,-1,-1,-1,-1,-1,-1,-1,-1,-1,-1,-1,-1,-1,-1,-1,-1,-1,-1,-1,-1,-1,-1,-1,-1,-1,-1,-1,-1,-1,-1,-1,-1,-1,-1,-1,-1,-1,-1,-1,-1,-1,-1,-1,-1,-1,-1,-1,-1,-1,-1,-1,-1,-1,-1,-1,-1,-1,-1,-1,-1,-1,-1,-1,-1],"split_conditions":[2.195E1,1.5383333E1,2.88E1,1.14E1,8.19E2,3.52E2,3.3E1,7.4333334E0,3.52E2,1.73E1,4.5166668E1,2.92E1,3E2,5.385028E1,1.9328351E0,1.9328351E0,7.5004067E0,5.5865063E1,3E2,5.385028E1,3.52E2,1.0931928E0,6.316648E-1,5.5865063E1,5.65E2,7.99E2,2.5483334E1,-1.98E2,-7.7241576E-1,2.2192152E-1,7.69E2,7.2E1,5.5865063E1,7.0709934E0,1.9328351E0,7E0,7.589207E1,6.9E0,1.8333334E0,3.4629234E1,1.0931928E0,4.03E2,1.814434E1,-7.655357E-1,3.0333334E1,1.8433332E1,3.7723258E-1,7E0,3.132156E1,7E0,2.1588545E0,2.55E1,1.63E1,5.6833332E1,3.0484901E1,3.8833334E0,8.58E2,3.06E1,6.339785E-1,3.3E1,-1.4082323E-1,3.94E1,3.98E1,1.2379574E-1,-3.4809846E-1,-6.606169E-1,-4.8300573E-1,-3.150273E-1,-5.2214067E-2,-1.3398102E-1,-4.5646676E-1,-3.997406E-1,-1.653326E-1,-1.0313082E-1,2.3830219E-1,-8.850985E-1,-4.4523647E-1,-1.3667947E-1,-3.2371625E-1,-1.11895226E-1,-2.9251137E-1,4.1701955E-1,7.256918E-2,-1.1396509E-2,2.3925434E-1,-5.9337717E-2,-2.7104008E-1,-2.6370293E-1,-7.952057E-1,-1.3643929E0,-9.561822E-1,-7.7928925E-1,-3.5794473E-1,-1.6761602E-1,3.1793004E-1,8.881828E-3,2.0391148E-1,2.4293844E-1,4.717876E-1,8.332955E-2,3.8984686E-1,5.1487297E-1,8.2448685E-1,-1.6697118E-1,1.2297812E-2,-1.755703E-1,3.261538E-1,1.2087779E-1,6.3415873E-3,2.9278034E-1,1.1567731E-1,4.7205615E-1,8.027023E-1,3.5622376E-1,-4.3372907E-2,7.6416487E-1,9.5124805E-1,6.2152183E-1,2.1036E-1,-1.19133964E-1,1.8312447E-1,3.0536315E-1,-9.001586E-1,6.6831094E-1,1.0068601E0,2.9630396E-1,6.2433237E-1],"split_indices":[10,2,5,13,26,24,21,18,24,21,3,13,28,33,25,25,32,31,28,33,24,15,22,31,26,26,10,24,15,37,24,26,31,32,25,28,29,5,1,34,15,28,32,23,3,10,14,28,33,30,14,20,5,19,34,1,24,5,37,26,25,4,12,0,0,0,0,0,0,0,0,0,0,0,0,0,0,0,0,0,0,0,0,0,0,0,0,0,0,0,0,0,0,0,0,0,0,0,0,0,0,0,0,0,0,0,0,0,0,0,0,0,0,0,0,0,0,0,0,0,0,0,0,0,0,0,0],"split_type":[0,0,0,0,0,0,0,0,0,0,0,0,0,0,0,0,0,0,0,0,0,0,0,0,0,0,0,0,0,0,0,0,0,0,0,0,0,0,0,0,0,0,0,0,0,0,0,0,0,0,0,0,0,0,0,0,0,0,0,0,0,0,0,0,0,0,0,0,0,0,0,0,0,0,0,0,0,0,0,0,0,0,0,0,0,0,0,0,0,0,0,0,0,0,0,0,0,0,0,0,0,0,0,0,0,0,0,0,0,0,0,0,0,0,0,0,0,0,0,0,0,0,0,0,0,0,0],"sum_hessian":[2.341798E6,1.262327E6,1.079471E6,6.26316E5,6.36011E5,8.08287E5,2.71184E5,2.8726E5,3.39056E5,6.27615E5,8.396E3,5.00355E5,3.07932E5,2.06532E5,6.4652E4,7.3032E4,2.14228E5,2.03269E5,1.35787E5,2.67093E5,3.60522E5,4.323E3,4.073E3,4.31993E5,6.8362E4,1.64807E5,1.43125E5,1.9882E5,7.712E3,2.912E3,6.174E4,2.23E3,7.0802E4,5.629E4,1.57938E5,1.62081E5,4.1188E4,6.8373E4,6.7414E4,2.60956E5,6.137E3,2.35068E5,1.25454E5,1.435E3,2.888E3,3.152E3,9.21E2,3.53496E5,7.8497E4,4.4658E4,2.3704E4,1.39182E5,2.5625E4,8.0845E4,6.228E4,3.0079E4,1.68741E5,6.71E3,1.002E3,2.151E3,7.61E2,5.3899E4,7.841E3,1.416E3,8.14E2,3.6454E4,3.4348E4,4.5698E4,1.0592E4,1.4159E4,1.43779E5,4.8752E4,1.13329E5,2.5121E4,1.6067E4,4.722E3,6.3651E4,2.5836E4,4.1578E4,2.00789E5,6.0167E4,5.34E3,7.97E2,1.71618E5,6.345E4,1.01839E5,2.3615E4,3.79E2,1.056E3,1.378E3,1.51E3,6.49E2,2.503E3,4.09E2,5.12E2,8.4083E4,2.69413E5,4.2768E4,3.5729E4,3.666E3,4.0992E4,1.5957E4,7.747E3,7.3965E4,6.5217E4,3.78E3,2.1845E4,4.0033E4,4.0812E4,4.973E4,1.255E4,1.8113E4,1.1966E4,1.61941E5,6.8E3,1.822E3,4.888E3,7.54E2,2.48E2,8.95E2,1.256E3,8.2E1,6.79E2,4.7451E4,6.448E3,6.909E3,9.32E2],"tree_param":{"num_deleted":"0","num_feature":"39","num_nodes":"127","size_leaf_vector":"1"}},{"base_weights":[-2.398175E-6,-4.362266E-1,6.04698E-1,-8.382423E-1,-1.589587E-1,3.485952E-1,9.4260347E-1,-8.003422E-1,-2.3922276E0,-8.349834E-1,-1.0124463E-1,7.726E-2,5.9597844E-1,7.710487E-1,1.2795365E0,-1.1507759E0,-6.622E-1,-1.9526664E0,-2.9540536E0,-2.2681907E-1,-9.8950696E-1,-9.200872E-3,-6.265015E-1,7.323205E-1,-4.9535528E-2,9.629372E-1,3.0792642E-1,7.3010397E-1,1.944413E0,-1.7303789E-2,1.3480476E0,-1.1136174E0,-2.6364899E0,-6.9589806E-1,7.089137E-1,-2.4910166E0,-1.51968E0,-3.4727476E0,-2.606364E0,-5.106697E-1,7.003948E-1,-1.2942832E0,-7.154669E-1,-9.3513034E-2,4.6022683E-1,-1.8984045E0,-4.7856605E-1,-4.4312397E-1,1.582005E0,-5.223999E-1,1.5505897E-1,6.0123855E-1,1.3718897E0,4.926872E-2,5.782328E-1,5.6291324E-1,9.8704296E-1,7.857797E-1,2.3322036E0,3.5304964E-1,-1.7184297E0,1.2009625E0,1.872855E0,-5.2331924E-1,-3.136269E-1,-1.4645551E0,-5.4279745E-1,-1.7365775E-1,-3.2089698E-1,2.8312257E-1,-1.0602126E-2,-9.3388915E-1,-6.755115E-1,-7.036421E-1,-3.9516136E-1,-1.1969038E0,-9.412453E-1,-8.828731E-1,-6.8153775E-1,-2.7987206E-1,-6.805925E-2,-1.9186686E-1,2.570432E-1,-5.5759436E-1,-3.570873E-1,-1.6267804E-2,-2.8221685E-1,-3.413591E-1,-1.6874E-2,2.091768E-1,-6.302277E-2,-2.3519205E-1,-7.675364E-1,1.4716916E-2,-2.3052864E-1,1.1333198E-1,-3.6912605E-1,5.356877E-1,9.887162E-2,2.8642717E-1,-1.8841414E-1,1.8961629E-2,2.3567756E-1,1.2098173E-1,4.4637942E-1,2.8736588E-1,4.6719778E-1,7.270618E-2,-7.4248195E-2,8.491022E-2,2.2111489E-1,7.147553E-2,2.5009477E-1,3.0560622E-2,3.2217684E-1,-1.9420671E-1,3.398317E-1,6.3554925E-1,9.263797E-1,-1.1273635E-1,2.2461465E-1,9.0480566E-2,-6.364751E-1,3.520891E-1,1.0476558E0,9.032453E-1,4.83246E-1],"categories":[],"categories_nodes":[],"categories_segments":[],"categories_sizes":[],"default_left":[0,0,0,0,0,0,0,0,0,0,0,0,0,0,0,0,0,0,0,0,0,0,0,0,0,0,0,0,0,0,0,0,0,0,0,0,0,0,0,0,0,0,0,0,0,0,0,0,0,0,0,0,0,0,0,0,0,0,0,0,0,0,0,0,0,0,0,0,0,0,0,0,0,0,0,0,0,0,0,0,0,0,0,0,0,0,0,0,0,0,0,0,0,0,0,0,0,0,0,0,0,0,0,0,0,0,0,0,0,0,0,0,0,0,0,0,0,0,0,0,0,0,0,0,0,0,0],"id":7,"left_children":[1,3,5,7,9,11,13,15,17,19,21,23,25,27,29,31,33,35,37,39,41,43,45,47,49,51,53,55,57,59,61,63,65,67,69,71,73,75,77,79,81,83,85,87,89,91,93,95,97,99,101,103,105,107,109,111,113,115,117,119,121,123,125,-1,-1,-1,-1,-1,-1,-1,-1,-1,-1,-1,-1,-1,-1,-1,-1,-1,-1,-1,-1,-1,-1,-1,-1,-1,-1,-1,-1,-1,-1,-1,-1,-1,-1,-1,-1,-1,-1,-1,-1,-1,-1,-1,-1,-1,-1,-1,-1,-1,-1,-1,-1,-1,-1,-1,-1,-1,-1,-1,-1,-1,-1,-1,-1],"loss_changes":[6.177316E5,1.5163972E5,8.492744E4,3.2702531E4,3.141279E4,3.747315E4,2.4456312E4,2.6240656E4,3.259E3,5.95116E3,3.5863367E4,2.2114176E4,3.086757E4,1.3468297E4,1.2683156E4,8.458406E3,1.7964797E4,1.7258047E3,1.0371289E3,3.3776147E3,4.216711E3,2.4981613E4,2.0810852E4,4.312503E4,2.1581088E4,1.899504E4,1.1438576E4,1.1637422E4,4.2454688E3,4.5140547E3,1.0463969E4,6.4302344E3,6.9355527E3,1.6599422E4,1.6301304E3,4.850547E2,6.849512E2,3.9042383E2,3.848203E2,1.1771504E3,6.309933E2,1.4008789E3,3.9607842E3,2.0825068E4,1.526943E4,8.47482E3,1.5153752E4,1.1709287E4,6.39075E3,1.0513885E4,9.01775E3,1.1962121E4,4.62575E3,4.7906094E3,3.7503926E3,1.4425895E4,8.21268E3,1.1802991E3,1.1372305E3,1.6970862E3,1.0438652E3,6.628375E3,8.8453125E3,0E0,0E0,0E0,0E0,0E0,0E0,0E0,0E0,0E0,0E0,0E0,0E0,0E0,0E0,0E0,0E0,0E0,0E0,0E0,0E0,0E0,0E0,0E0,0E0,0E0,0E0,0E0,0E0,0E0,0E0,0E0,0E0,0E0,0E0,0E0,0E0,0E0,0E0,0E0,0E0,0E0,0E0,0E0,0E0,0E0,0E0,0E0,0E0,0E0,0E0,0E0,0E0,0E0,0E0,0E0,0E0,0E0,0E0,0E0,0E0,0E0,0E0,0E0,0E0],"parents":[2147483647,0,0,1,1,2,2,3,3,4,4,5,5,6,6,7,7,8,8,9,9,10,10,11,11,12,12,13,13,14,14,15,15,16,16,17,17,18,18,19,19,20,20,21,21,22,22,23,23,24,24,25,25,26,26,27,27,28,28,29,29,30,30,31,31,32,32,33,33,34,34,35,35,36,36,37,37,38,38,39,39,40,40,41,41,42,42,43,43,44,44,45,45,46,46,47,47,48,48,49,49,50,50,51,51,52,52,53,53,54,54,55,55,56,56,57,57,58,58,59,59,60,60,61,61,62,62],"right_children":[2,4,6,8,10,12,14,16,18,20,22,24,26,28,30,32,34,36,38,40,42,44,46,48,50,52,54,56,58,60,62,64,66,68,70,72,74,76,78,80,82,84,86,88,90,92,94,96,98,100,102,104,106,108,110,112,114,116,118,120,122,124,126,-1,-1,-1,-1,-1,-1,-1,-1,-1,-1,-1,-1,-1,-1,-1,-1,-1,-1,-1,-1,-1,-1,-1,-1,-1,-1,-1,-1,-1,-1,-1,-1,-1,-1,-1,-1,-1,-1,-1,-1,-1,-1,-1,-1,-1,-1,-1,-1,-1,-1,-1,-1,-1,-1,-1,-1,-1,-1,-1,-1,-1,-1,-1,-1],"split_conditions":[2.17E1,1.48E1,2.68E1,9.42E2,0E0,3.72E2,3.06E1,9.4E0,1.7666667E0,-1.32E2,7.69E2,1.9328351E0,2.31E2,8.19E2,1.9328351E0,8.19E2,5.385028E1,1.0983334E1,1.05E1,3.9333334E0,1.68E1,3.603305E0,8E1,6.8E1,2.355E1,2.3836606E0,2.24E1,1.43E2,1.7753216E0,7.7386476E-2,3.47E1,4.5E0,6.9E1,3.4629234E1,1.0931928E0,8.6166664E1,7.1E0,7.2E1,-1.6853418E0,1.0666667E0,9.8333335E-1,5.2166668E1,1.78E1,2.9268859E-2,3.32E2,1.5666667E0,2.2166667E0,-2.4492937E-16,1.3727877E-1,6.6600866E0,3.4292421E0,9.244255E1,2.1699743E1,3.0484901E1,5.1226803E1,1.5347674E1,1.9328351E0,2.74E1,3.5E1,3.3E1,-1.4082323E-1,8.19E2,3.8975864E1,-5.2331924E-1,-3.136269E-1,-1.4645551E0,-5.4279745E-1,-1.7365775E-1,-3.2089698E-1,2.8312257E-1,-1.0602126E-2,-9.3388915E-1,-6.755115E-1,-7.036421E-1,-3.9516136E-1,-1.1969038E0,-9.412453E-1,-8.828731E-1,-6.8153775E-1,-2.7987206E-1,-6.805925E-2,-1.9186686E-1,2.570432E-1,-5.5759436E-1,-3.570873E-1,-1.6267804E-2,-2.8221685E-1,-3.413591E-1,-1.6874E-2,2.091768E-1,-6.302277E-2,-2.3519205E-1,-7.675364E-1,1.4716916E-2,-2.3052864E-1,1.1333198E-1,-3.6912605E-1,5.356877E-1,9.887162E-2,2.8642717E-1,-1.8841414E-1,1.8961629E-2,2.3567756E-1,1.2098173E-1,4.4637942E-1,2.8736588E-1,4.6719778E-1,7.270618E-2,-7.4248195E-2,8.491022E-2,2.2111489E-1,7.147553E-2,2.5009477E-1,3.0560622E-2,3.2217684E-1,-1.9420671E-1,3.398317E-1,6.3554925E-1,9.263797E-1,-1.1273635E-1,2.2461465E-1,9.0480566E-2,-6.364751E-1,3.520891E-1,1.0476558E0,9.032453E-1,4.83246E-1],"split_indices":[5,20,21,24,30,30,5,13,9,24,24,25,24,26,25,26,33,18,21,9,5,6,26,3,18,22,21,30,22,37,21,20,3,34,15,11,5,19,15,1,1,11,13,29,24,9,1,35,37,32,6,29,34,34,25,33,25,13,13,26,25,26,25,0,0,0,0,0,0,0,0,0,0,0,0,0,0,0,0,0,0,0,0,0,0,0,0,0,0,0,0,0,0,0,0,0,0,0,0,0,0,0,0,0,0,0,0,0,0,0,0,0,0,0,0,0,0,0,0,0,0,0,0,0,0,0,0],"split_type":[0,0,0,0,0,0,0,0,0,0,0,0,0,0,0,0,0,0,0,0,0,0,0,0,0,0,0,0,0,0,0,0,0,0,0,0,0,0,0,0,0,0,0,0,0,0,0,0,0,0,0,0,0,0,0,0,0,0,0,0,0,0,0,0,0,0,0,0,0,0,0,0,0,0,0,0,0,0,0,0,0,0,0,0,0,0,0,0,0,0,0,0,0,0,0,0,0,0,0,0,0,0,0,0,0,0,0,0,0,0,0,0,0,0,0,0,0,0,0,0,0,0,0,0,0,0,0],"sum_hessian":[2.341798E6,1.360412E6,9.81386E5,5.55288E5,8.05124E5,5.58269E5,4.23117E5,5.42069E5,1.3219E4,6.3328E4,7.41796E5,2.66246E5,2.92023E5,2.80367E5,1.4275E5,1.53265E5,3.88804E5,7.419E3,5.8E3,1.2831E4,5.0497E4,6.3119E5,1.10606E5,4.3177E4,2.23069E5,1.28421E5,1.63602E5,2.70915E5,9.452E3,7.163E3,1.35587E5,1.49527E5,3.738E3,3.79478E5,9.326E3,3.305E3,4.114E3,2.324E3,3.476E3,9.824E3,3.007E3,2.3906E4,2.6591E4,5.35086E5,9.6104E4,1.1523E4,9.9083E4,1.8116E4,2.5061E4,6.7367E4,1.55702E5,6.8149E4,6.0272E4,8.3603E4,7.9999E4,1.64123E5,1.06792E5,2.371E3,7.081E3,5.883E3,1.28E3,1.05908E5,2.9679E4,1.4586E4,1.34941E5,1.005E3,2.733E3,2.88987E5,9.0491E4,7.089E3,2.237E3,9.15E2,2.39E3,8.08E2,3.306E3,9.1E2,1.414E3,1.729E3,1.747E3,3.948E3,5.876E3,3.14E2,2.693E3,3.717E3,2.0189E4,6.757E3,1.9834E4,1.8435E4,5.16651E5,7.0998E4,2.5106E4,4.287E3,7.236E3,3.5133E4,6.395E4,8.869E3,9.247E3,2.1556E4,3.505E3,4.496E3,6.2871E4,1.35905E5,1.9797E4,5.5712E4,1.2437E4,1.8647E4,4.1625E4,5.0649E4,3.2954E4,2.7985E4,5.2014E4,7.463E4,8.9493E4,9.545E3,9.7247E4,4.62E2,1.909E3,5.523E3,1.558E3,2.07E3,3.813E3,2.13E2,1.067E3,1.04661E5,1.247E3,5.553E3,2.4126E4],"tree_param":{"num_deleted":"0","num_feature":"39","num_nodes":"127","size_leaf_vector":"1"}},{"base_weights":[-3.8843923E-6,-4.6120414E-1,3.0595985E-1,-7.3435575E-1,-3.3177644E-1,8.082143E-2,5.814836E-1,7.0846623E-1,-7.7044106E-1,9.841161E-3,-4.0810135E-1,-4.0831804E-2,2.571535E-1,7.452154E-1,3.087329E-1,1.3995092E0,9.418159E-2,7.779701E-2,-8.1870306E-1,-1.3981354E-1,5.7916105E-1,-4.8013058E-1,4.7888525E-2,-1.089867E-2,-1.5033613E0,1.20377526E-1,5.755292E-1,5.8683866E-1,1.1458057E0,-9.324565E-2,4.862962E-1,4.63745E-2,1.5379225E0,1.5124254E0,-1.4849408E-2,1.7105474E0,-1.4196803E-1,4.302754E-2,-8.683407E-1,6.7881525E-1,-2.515593E-1,-5.4118556E-1,1.084436E0,-6.163654E-1,-1.9406992E-1,6.3731945E-1,-1.5752457E-1,5.6779278E-3,-1.6926894E0,-1.0374558E0,-2.1891E0,8.5760164E-1,8.9995384E-2,7.4732167E-1,1.9790132E-2,4.5178816E-1,1.0162082E0,1.0053548E0,1.6958112E0,-3.0513453E-1,4.4547656E-1,8.088038E-1,2.934377E-1,-1.7390992E-1,1.1539563E-1,8.04003E-1,3.9322594E-1,5.238845E-1,3.3381465E-1,-2.6458174E-1,2.9203342E-2,9.613844E-1,2.6289746E-1,1.6997942E-1,-9.788708E-2,1.6039431E-1,-1.9548829E-1,-3.421021E-1,-2.1522856E-1,3.127916E-1,-6.6411205E-2,-1.614554E-1,5.1997174E-3,-3.4598187E-1,-1.991764E-2,3.7117934E-1,-2.6028636E-1,3.885765E-2,-1.9838105E-1,2.5804026E-2,-1.5657282E-1,1.3812809E-1,5.8218503E-1,9.911226E-3,-1.9264774E-1,1.4255497E-1,-1.15457885E-2,-2.760228E-1,-7.7607054E-1,-1.7099641E-1,-4.7841245E-1,-7.267554E-1,9.70648E-2,4.9758306E-1,9.474535E-2,3.487999E-2,-2.1937402E-1,1.8894292E-1,4.7373182E-1,-6.5783545E-2,5.3951252E-2,9.5368326E-2,2.3926175E-1,3.43388E-1,1.5335143E-1,2.7197573E-1,5.5824614E-1,4.7882584E-1,9.785404E-1,1.2923107E-1,-1.3399993E-1,9.8347074E-1,1.1680179E-1,2.208259E-1,3.775424E-1,1.712029E-1,1.9652696E-2],"categories":[],"categories_nodes":[],"categories_segments":[],"categories_sizes":[],"default_left":[0,0,0,0,0,0,0,0,0,0,0,0,0,0,0,0,0,0,0,0,0,0,0,0,0,0,0,0,0,0,0,0,0,0,0,0,0,0,0,0,0,0,0,0,0,0,0,0,0,0,0,0,0,0,0,0,0,0,0,0,0,0,0,0,0,0,0,0,0,0,0,0,0,0,0,0,0,0,0,0,0,0,0,0,0,0,0,0,0,0,0,0,0,0,0,0,0,0,0,0,0,0,0,0,0,0,0,0,0,0,0,0,0,0,0,0,0,0,0,0,0,0,0,0,0,0,0],"id":8,"left_children":[1,3,5,7,9,11,13,15,17,19,21,23,25,27,29,31,33,35,37,39,41,43,45,47,49,51,53,55,57,59,61,63,65,67,69,71,73,75,77,79,81,83,85,87,89,91,93,95,97,99,101,103,105,107,109,111,113,115,117,119,121,123,125,-1,-1,-1,-1,-1,-1,-1,-1,-1,-1,-1,-1,-1,-1,-1,-1,-1,-1,-1,-1,-1,-1,-1,-1,-1,-1,-1,-1,-1,-1,-1,-1,-1,-1,-1,-1,-1,-1,-1,-1,-1,-1,-1,-1,-1,-1,-1,-1,-1,-1,-1,-1,-1,-1,-1,-1,-1,-1,-1,-1,-1,-1,-1,-1],"loss_changes":[3.304527E5,3.3018656E4,8.73292E4,1.5633766E4,1.652311E4,1.6619629E4,2.8271672E4,3.1101584E3,1.1992359E4,9.860269E3,1.701271E4,2.0070576E4,1.3773451E4,2.5097719E4,1.69505E4,6.457114E2,5.9999664E2,5.659216E3,1.1855781E4,8.383241E3,1.3636967E4,1.7432414E4,8.55539E3,1.2524869E4,2.9354355E3,4.9555566E3,9.074479E3,1.6439438E4,8.656875E3,8.305749E3,1.0245008E4,6.820657E1,8.080381E2,2.394934E1,3.506907E2,2.3291772E3,1.8157178E3,5.1560713E3,1.07568125E4,3.6051172E3,6.214567E3,2.1760493E3,4.9539395E3,1.0149094E4,1.3250744E4,4.2090605E3,4.839314E3,9.224766E3,3.02713E3,1.4258354E3,2.1819668E3,3.7997812E3,4.584632E3,7.09575E3,8.5883673E2,9.984273E3,4.3989844E3,7.5426562E3,3.5552734E3,5.4393228E3,3.265062E3,2.0146367E3,6.5136533E3,0E0,0E0,0E0,0E0,0E0,0E0,0E0,0E0,0E0,0E0,0E0,0E0,0E0,0E0,0E0,0E0,0E0,0E0,0E0,0E0,0E0,0E0,0E0,0E0,0E0,0E0,0E0,0E0,0E0,0E0,0E0,0E0,0E0,0E0,0E0,0E0,0E0,0E0,0E0,0E0,0E0,0E0,0E0,0E0,0E0,0E0,0E0,0E0,0E0,0E0,0E0,0E0,0E0,0E0,0E0,0E0,0E0,0E0,0E0,0E0,0E0,0E0,0E0,0E0],"parents":[2147483647,0,0,1,1,2,2,3,3,4,4,5,5,6,6,7,7,8,8,9,9,10,10,11,11,12,12,13,13,14,14,15,15,16,16,17,17,18,18,19,19,20,20,21,21,22,22,23,23,24,24,25,25,26,26,27,27,28,28,29,29,30,30,31,31,32,32,33,33,34,34,35,35,36,36,37,37,38,38,39,39,40,40,41,41,42,42,43,43,44,44,45,45,46,46,47,47,48,48,49,49,50,50,51,51,52,52,53,53,54,54,55,55,56,56,57,57,58,58,59,59,60,60,61,61,62,62],"right_children":[2,4,6,8,10,12,14,16,18,20,22,24,26,28,30,32,34,36,38,40,42,44,46,48,50,52,54,56,58,60,62,64,66,68,70,72,74,76,78,80,82,84,86,88,90,92,94,96,98,100,102,104,106,108,110,112,114,116,118,120,122,124,126,-1,-1,-1,-1,-1,-1,-1,-1,-1,-1,-1,-1,-1,-1,-1,-1,-1,-1,-1,-1,-1,-1,-1,-1,-1,-1,-1,-1,-1,-1,-1,-1,-1,-1,-1,-1,-1,-1,-1,-1,-1,-1,-1,-1,-1,-1,-1,-1,-1,-1,-1,-1,-1,-1,-1,-1,-1,-1,-1,-1,-1,-1,-1,-1],"split_conditions":[1.79E1,1.07E1,2.55E1,-3.33E2,6E0,2.23E1,3.59E2,7.8338134E-1,-2.8023067E-1,2.610891E1,7.99E2,9.42E2,4.03E2,4.483333E0,4.5142647E1,-4.1287324E-1,1.0816667E1,-7.1013504E-1,1.9328351E0,2.9268859E-2,-1.2937833E-1,1.68E1,5.0242226E1,8.19E2,5E-1,5.1666665E-1,1.4370568E1,5.5865063E1,3.21E1,3E2,9.692379E0,-1.195482E0,-3.4211853E0,2.8833334E0,5.4E0,3.435174E1,7.8E0,7.2E1,3.72E2,5.044609E-1,7.095149E-1,5.6E1,1.1127577E2,1.9328351E0,3.8909443E1,1.6E1,5.9095806E1,1.9328351E0,2E1,2.2666667E0,9.52E2,3.8180482E0,8.19E2,2.6265707E1,2.57E1,1.28E2,-8.257405E-3,3.5733334E1,4.89E2,1.6E0,2.33E1,3.39E1,3.55E1,-1.7390992E-1,1.1539563E-1,8.04003E-1,3.9322594E-1,5.238845E-1,3.3381465E-1,-2.6458174E-1,2.9203342E-2,9.613844E-1,2.6289746E-1,1.6997942E-1,-9.788708E-2,1.6039431E-1,-1.9548829E-1,-3.421021E-1,-2.1522856E-1,3.127916E-1,-6.6411205E-2,-1.614554E-1,5.1997174E-3,-3.4598187E-1,-1.991764E-2,3.7117934E-1,-2.6028636E-1,3.885765E-2,-1.9838105E-1,2.5804026E-2,-1.5657282E-1,1.3812809E-1,5.8218503E-1,9.911226E-3,-1.9264774E-1,1.4255497E-1,-1.15457885E-2,-2.760228E-1,-7.7607054E-1,-1.7099641E-1,-4.7841245E-1,-7.267554E-1,9.70648E-2,4.9758306E-1,9.474535E-2,3.487999E-2,-2.1937402E-1,1.8894292E-1,4.7373182E-1,-6.5783545E-2,5.3951252E-2,9.5368326E-2,2.3926175E-1,3.43388E-1,1.5335143E-1,2.7197573E-1,5.5824614E-1,4.7882584E-1,9.785404E-1,1.2923107E-1,-1.3399993E-1,9.8347074E-1,1.1680179E-1,2.208259E-1,3.775424E-1,1.712029E-1,1.9652696E-2],"split_indices":[5,21,13,24,24,21,24,22,37,33,30,24,28,1,29,14,10,37,25,25,14,21,25,26,36,1,32,31,21,28,32,14,22,9,21,25,21,26,30,7,22,3,25,25,31,21,31,25,5,9,24,27,26,33,5,28,23,10,28,9,5,13,11,0,0,0,0,0,0,0,0,0,0,0,0,0,0,0,0,0,0,0,0,0,0,0,0,0,0,0,0,0,0,0,0,0,0,0,0,0,0,0,0,0,0,0,0,0,0,0,0,0,0,0,0,0,0,0,0,0,0,0,0,0,0,0,0],"split_type":[0,0,0,0,0,0,0,0,0,0,0,0,0,0,0,0,0,0,0,0,0,0,0,0,0,0,0,0,0,0,0,0,0,0,0,0,0,0,0,0,0,0,0,0,0,0,0,0,0,0,0,0,0,0,0,0,0,0,0,0,0,0,0,0,0,0,0,0,0,0,0,0,0,0,0,0,0,0,0,0,0,0,0,0,0,0,0,0,0,0,0,0,0,0,0,0,0,0,0,0,0,0,0,0,0,0,0,0,0,0,0,0,0,0,0,0,0,0,0,0,0,0,0,0,0,0,0],"sum_hessian":[2.341798E6,9.33966E5,1.407832E6,3.00265E5,6.33701E5,7.74757E5,6.33075E5,7.326E3,2.92939E5,1.15727E5,5.17974E5,4.58461E5,3.16296E5,3.95597E5,2.37478E5,3.447E3,3.879E3,1.577E4,2.77169E5,9.1639E4,2.4088E4,4.47315E5,7.0659E4,4.49267E5,9.194E3,2.21248E5,9.5048E4,2.83511E5,1.12086E5,7.276E4,1.64718E5,3.2E2,3.127E3,2.76E2,3.603E3,1.87E3,1.39E4,1.5096E4,2.62073E5,1.1006E4,8.0633E4,7.487E3,1.6601E4,3.03008E5,1.44307E5,1.826E4,5.2399E4,4.44883E5,4.384E3,5.476E3,3.718E3,8.756E3,2.12492E5,7.2604E4,2.2444E4,2.15676E5,6.7835E4,8.9288E4,2.2798E4,5.2221E4,2.0539E4,6.1639E4,1.03079E5,1.12E2,2.08E2,5.17E2,2.61E3,1.72E2,1.04E2,4.12E2,3.191E3,6.69E2,1.201E3,2.869E3,1.1031E4,8.84E3,6.256E3,9.3516E4,1.68557E5,7.838E3,3.168E3,3.9029E4,4.1604E4,3.27E3,4.217E3,1.5396E4,1.205E3,1.7206E4,2.85802E5,7.7822E4,6.6485E4,1.6079E4,2.181E3,3.7611E4,1.4788E4,3.8249E4,4.06634E5,2.353E3,2.031E3,2.979E3,2.497E3,3.402E3,3.16E2,3.532E3,5.224E3,2.05906E5,6.586E3,6.3618E4,8.986E3,9E3,1.3444E4,1.55471E5,6.0205E4,5.4082E4,1.3753E4,8.0048E4,9.24E3,2.1435E4,1.363E3,8.423E3,4.3798E4,3.98E2,2.0141E4,5.3061E4,8.578E3,4.6508E4,5.6571E4],"tree_param":{"num_deleted":"0","num_feature":"39","num_nodes":"127","size_leaf_vector":"1"}},{"base_weights":[-1.1120478E-8,-2.2360338E-1,3.1938022E-1,-4.0841234E-1,-4.3749E-2,2.196639E-1,5.6916344E-1,-3.0425906E-1,-5.948767E-1,-2.2313209E-1,1.086282E-1,1.10076636E-1,4.321655E-1,6.464201E-1,5.8241837E-2,-3.8419515E-1,1.1155278E-1,-5.2865785E-1,-1.1771394E0,-5.2395083E-2,-5.015657E-1,2.3878884E-1,-2.5996763E-1,2.0756106E-1,-1.564955E-1,6.144661E-1,2.8223553E-1,-1.6118322E-1,7.124384E-1,5.1087666E-1,-9.562561E-2,-3.4183848E-1,-1.7409599E0,-5.1972824E-1,3.688468E-1,-4.3929672E-1,-9.042271E-1,-1.7807443E0,-8.2152134E-1,-8.943896E-1,6.634399E-3,-7.129769E-1,-3.1999195E-1,9.431971E-2,4.1849825E-1,-1.1166877E0,-1.9774099E-1,8.966882E-2,4.9559042E-1,-9.06235E-2,-8.170029E-1,1.9167578E-1,8.530151E-1,4.050942E-2,3.967812E-1,2.2810008E-1,-2.189872E0,2.8089792E-1,8.2474774E-1,1.2322743E0,3.4270492E-1,-3.2725528E-1,1.4926046E-1,-1.6359435E-1,-5.8937192E-2,-8.137156E-1,-4.017204E-1,-6.90698E-2,-6.176344E-1,1.8137631E-1,-4.044563E-2,-7.370906E-2,-1.8233663E-1,1.39158135E-2,-4.0352324E-1,-4.1437387E-1,-6.4894325E-1,-1.7250909E-1,-3.3869317E-1,-4.6393624E-1,5.094318E-2,1.5625834E-1,-3.28407E-2,-5.4017264E-1,-1.8819289E-1,-4.4504434E-1,-7.135193E-2,-1.0061661E-1,6.316152E-2,7.626814E-2,2.4138556E-1,-5.8891493E-1,-1.9419E-1,-8.9915134E-2,1.6042894E-2,-1.026712E-1,7.2512046E-2,-3.316313E-3,2.6488203E-1,-6.390771E-2,4.685723E-2,1.3150755E-1,-3.606394E-1,-8.9035995E-2,1.17724754E-1,2.1934116E-1,4.0265134E-1,2.1954872E-1,-1.9598505E-2,8.6243236E-1,1.17659576E-1,-3.6004454E-2,2.4953416E-1,-3.063315E-1,-7.999519E-1,5.571682E-4,3.6946E-1,2.3673537E-1,5.545284E-1,4.3086943E-1,-9.8822914E-2,1.680755E-1,-5.5164206E-3,-1.1410062E0,-8.645481E-2,5.7268273E-2,-4.0421858E-1],"categories":[],"categories_nodes":[],"categories_segments":[],"categories_sizes":[],"default_left":[0,0,0,0,0,0,0,0,0,0,0,0,0,0,0,0,0,0,0,0,0,0,0,0,0,0,0,0,0,0,0,0,0,0,0,0,0,0,0,0,0,0,0,0,0,0,0,0,0,0,0,0,0,0,0,0,0,0,0,0,0,0,0,0,0,0,0,0,0,0,0,0,0,0,0,0,0,0,0,0,0,0,0,0,0,0,0,0,0,0,0,0,0,0,0,0,0,0,0,0,0,0,0,0,0,0,0,0,0,0,0,0,0,0,0,0,0,0,0,0,0,0,0,0,0,0,0],"id":9,"left_children":[1,3,5,7,9,11,13,15,17,19,21,23,25,27,29,31,33,35,37,39,41,43,45,47,49,51,53,55,57,59,61,63,65,67,69,71,73,75,77,79,81,83,85,87,89,91,93,95,97,99,101,103,105,107,109,111,113,115,117,119,121,123,125,-1,-1,-1,-1,-1,-1,-1,-1,-1,-1,-1,-1,-1,-1,-1,-1,-1,-1,-1,-1,-1,-1,-1,-1,-1,-1,-1,-1,-1,-1,-1,-1,-1,-1,-1,-1,-1,-1,-1,-1,-1,-1,-1,-1,-1,-1,-1,-1,-1,-1,-1,-1,-1,-1,-1,-1,-1,-1,-1,-1,-1,-1,-1,-1],"loss_changes":[1.6723845E5,4.5784133E4,2.4019766E4,1.3193586E4,1.9081158E4,1.60501875E4,1.0860477E4,1.4488285E4,9.386859E3,1.5242189E4,1.8108906E4,1.1816753E4,6.409258E3,1.2742992E4,2.5171162E3,2.1010023E4,1.1416222E4,7.336508E3,5.3350195E3,9.878477E3,4.6781523E3,7.2421396E3,5.2511055E3,1.130612E4,5.297706E3,1.0672945E4,3.5628516E3,1.4264687E4,1.0707992E4,1.1119487E3,1.5300353E3,1.0487691E4,4.3174023E3,9.06734E3,5.9289746E3,5.760418E3,1.7608469E4,1.4049219E3,1.185085E3,9.03589E3,1.1088902E4,5.2453633E3,6.2666543E3,7.722665E3,7.884709E3,2.6485322E3,2.3526604E3,1.5514367E4,1.897765E4,3.3450125E3,5.339061E3,3.7431304E3,4.0323125E3,3.0271428E3,9.9028516E2,3.1849255E3,1.61725E3,1.2103554E4,6.3929375E3,5.524619E2,5.842207E2,1.8816443E3,8.172842E2,0E0,0E0,0E0,0E0,0E0,0E0,0E0,0E0,0E0,0E0,0E0,0E0,0E0,0E0,0E0,0E0,0E0,0E0,0E0,0E0,0E0,0E0,0E0,0E0,0E0,0E0,0E0,0E0,0E0,0E0,0E0,0E0,0E0,0E0,0E0,0E0,0E0,0E0,0E0,0E0,0E0,0E0,0E0,0E0,0E0,0E0,0E0,0E0,0E0,0E0,0E0,0E0,0E0,0E0,0E0,0E0,0E0,0E0,0E0,0E0,0E0,0E0,0E0,0E0],"parents":[2147483647,0,0,1,1,2,2,3,3,4,4,5,5,6,6,7,7,8,8,9,9,10,10,11,11,12,12,13,13,14,14,15,15,16,16,17,17,18,18,19,19,20,20,21,21,22,22,23,23,24,24,25,25,26,26,27,27,28,28,29,29,30,30,31,31,32,32,33,33,34,34,35,35,36,36,37,37,38,38,39,39,40,40,41,41,42,42,43,43,44,44,45,45,46,46,47,47,48,48,49,49,50,50,51,51,52,52,53,53,54,54,55,55,56,56,57,57,58,58,59,59,60,60,61,61,62,62],"right_children":[2,4,6,8,10,12,14,16,18,20,22,24,26,28,30,32,34,36,38,40,42,44,46,48,50,52,54,56,58,60,62,64,66,68,70,72,74,76,78,80,82,84,86,88,90,92,94,96,98,100,102,104,106,108,110,112,114,116,118,120,122,124,126,-1,-1,-1,-1,-1,-1,-1,-1,-1,-1,-1,-1,-1,-1,-1,-1,-1,-1,-1,-1,-1,-1,-1,-1,-1,-1,-1,-1,-1,-1,-1,-1,-1,-1,-1,-1,-1,-1,-1,-1,-1,-1,-1,-1,-1,-1,-1,-1,-1,-1,-1,-1,-1,-1,-1,-1,-1,-1,-1,-1,-1,-1,-1,-1],"split_conditions":[2.16E1,1.58E1,2.88E1,3.72E2,3.72E2,3.72E2,7.69E2,2.9936087E0,1E-1,3.2063072E1,4.91E2,3.32E2,2.31E2,3.382091E0,1.6833333E0,7.02E2,1.28E2,1.814434E1,2.64E2,2.9268859E-2,1.963332E1,5.1605167E1,1.24E1,4.03E2,3.59E2,4.25E1,4.5789085E1,2.8848243E-1,1.6E1,1.7333333E0,2.9633333E1,1.19E2,5.6333332E1,2.64E2,1.4370568E1,5.0673395E-1,-7.5173116E-1,2.05E0,1.0334744E1,2.1666667E0,1.15E0,3.5833332E1,9.983334E0,-7.9666615E-1,9.244255E1,7.02E2,6.73E2,5.7E1,6.834199E-1,-1.263353E-1,1.4166666E0,-7.410333E-1,3.4963448E0,1.4333333E0,1.895E1,5.45E1,5.4924756E-1,2.8655394E1,3.77E1,-8.583481E-3,-4.3910593E-2,8E1,1.4154029E-1,-1.6359435E-1,-5.8937192E-2,-8.137156E-1,-4.017204E-1,-6.90698E-2,-6.176344E-1,1.8137631E-1,-4.044563E-2,-7.370906E-2,-1.8233663E-1,1.39158135E-2,-4.0352324E-1,-4.1437387E-1,-6.4894325E-1,-1.7250909E-1,-3.3869317E-1,-4.6393624E-1,5.094318E-2,1.5625834E-1,-3.28407E-2,-5.4017264E-1,-1.8819289E-1,-4.4504434E-1,-7.135193E-2,-1.0061661E-1,6.316152E-2,7.626814E-2,2.4138556E-1,-5.8891493E-1,-1.9419E-1,-8.9915134E-2,1.6042894E-2,-1.026712E-1,7.2512046E-2,-3.316313E-3,2.6488203E-1,-6.390771E-2,4.685723E-2,1.3150755E-1,-3.606394E-1,-8.9035995E-2,1.17724754E-1,2.1934116E-1,4.0265134E-1,2.1954872E-1,-1.9598505E-2,8.6243236E-1,1.17659576E-1,-3.6004454E-2,2.4953416E-1,-3.063315E-1,-7.999519E-1,5.571682E-4,3.6946E-1,2.3673537E-1,5.545284E-1,4.3086943E-1,-9.8822914E-2,1.680755E-1,-5.5164206E-3,-1.1410062E0,-8.645481E-2,5.7268273E-2,-4.0421858E-1],"split_indices":[21,13,21,24,30,30,24,6,16,31,24,24,24,25,9,26,28,32,26,29,33,27,21,26,30,19,27,37,30,1,2,30,3,24,32,22,14,1,32,17,1,11,2,22,29,24,28,11,22,7,9,6,14,1,2,19,14,34,21,38,14,26,38,0,0,0,0,0,0,0,0,0,0,0,0,0,0,0,0,0,0,0,0,0,0,0,0,0,0,0,0,0,0,0,0,0,0,0,0,0,0,0,0,0,0,0,0,0,0,0,0,0,0,0,0,0,0,0,0,0,0,0,0,0,0,0,0],"split_type":[0,0,0,0,0,0,0,0,0,0,0,0,0,0,0,0,0,0,0,0,0,0,0,0,0,0,0,0,0,0,0,0,0,0,0,0,0,0,0,0,0,0,0,0,0,0,0,0,0,0,0,0,0,0,0,0,0,0,0,0,0,0,0,0,0,0,0,0,0,0,0,0,0,0,0,0,0,0,0,0,0,0,0,0,0,0,0,0,0,0,0,0,0,0,0,0,0,0,0,0,0,0,0,0,0,0,0,0,0,0,0,0,0,0,0,0,0,0,0,0,0,0,0,0,0,0,0],"sum_hessian":[2.341798E6,1.377434E6,9.64364E5,6.79359E5,6.98075E5,6.89221E5,2.75143E5,4.35888E5,2.43471E5,3.20625E5,3.7745E5,4.54722E5,2.34499E5,2.39003E5,3.614E4,3.65604E5,7.0284E4,2.18611E5,2.486E4,1.98751E5,1.21874E5,2.78947E5,9.8503E4,3.3296E5,1.21762E5,1.05824E5,1.28675E5,1.8061E4,2.20942E5,9.168E3,2.6972E4,3.54537E5,1.1067E4,2.0351E4,4.9933E4,1.76595E5,4.2016E4,9.215E3,1.5645E4,1.302E4,1.85731E5,5.6309E4,6.5565E4,1.54636E5,1.24311E5,6.669E3,9.1834E4,2.36259E5,9.6701E4,1.10721E5,1.1041E4,3.8172E4,6.7652E4,4.1371E4,8.7304E4,1.5154E4,2.907E3,4.5627E4,1.75315E5,1.732E3,7.436E3,1.3861E4,1.3111E4,1.47747E5,2.0679E5,3.237E3,7.83E3,1.713E4,3.221E3,3.4013E4,1.592E4,8.2176E4,9.4419E4,1.3312E4,2.8704E4,4.509E3,4.706E3,8.685E3,6.96E3,8.073E3,4.947E3,3.421E4,1.51521E5,4.11E3,5.2199E4,4.323E3,6.1242E4,3.2919E4,1.21717E5,8.721E4,3.7101E4,2.378E3,4.291E3,6.5319E4,2.6515E4,6.1513E4,1.74746E5,4.1899E4,5.4802E4,7.4015E4,3.6706E4,2.592E3,8.449E3,1.1118E4,2.7054E4,5.416E4,1.3492E4,5.492E3,3.5879E4,1.6E2,8.7144E4,9.612E3,5.542E3,8.43E2,2.064E3,3.5274E4,1.0353E4,1.6942E5,5.895E3,1.532E3,2E2,4.64E3,2.796E3,1.53E2,1.3708E4,1.2757E4,3.54E2],"tree_param":{"num_deleted":"0","num_feature":"39","num_nodes":"127","size_leaf_vector":"1"}},{"base_weights":[-2.3486575E-6,-2.6728734E-1,1.4080024E-1,1.7622778E-1,-3.0333206E-1,3.186253E-2,3.2813153E-1,5.413708E-1,3.992267E-2,-7.293649E-1,-2.6996794E-1,-6.571365E-2,1.7124465E-1,2.6114798E-1,5.635822E-1,1.2129201E-1,1.388569E0,-3.47859E-1,2.925295E-1,5.1569134E-1,-7.703466E-1,-3.7591773E-1,-1.4714192E-1,2.854286E-1,-1.1498579E-1,7.950257E-1,1.3944727E-1,2.2950494E-1,9.1440874E-1,8.8158554E-1,2.6205125E-1,4.8218858E-1,-5.525381E-1,2.4873147E0,9.533122E-1,-9.225739E-1,-1.208769E-1,2.6045326E-2,5.512455E-1,1.0395582E0,-2.6783255E-1,-1.2300264E0,-6.738583E-1,9.057955E-2,-4.457649E-1,5.3854693E-2,-3.21226E-1,7.2506094E-1,-6.700855E-1,-7.0360976E-1,-7.295376E-2,9.307442E-1,-3.0439174E-2,7.899654E-2,4.1981015E-1,-4.571847E-2,2.6840928E-1,7.127087E-1,1.2905831E0,7.345017E-1,1.3529618E0,3.7261906E-1,-3.2759327E-1,1.0144254E-1,6.340688E-1,-1.075431E-1,-4.5924327E-1,1.1363631E0,4.1412726E-1,3.224643E-1,-2.9265946E-1,-4.2931673E-1,-1.7079589E-1,-1.603909E-3,-3.2104424E-1,3.02253E-1,-1.1091189E-2,4.3268508E-1,1.3555926E-1,4.0325373E-1,-4.171843E-1,-5.232749E-2,-2.522773E-1,-2.2485872E-1,-5.8044916E-1,-1.8926913E-1,-5.2714777E-1,1.4885548E-1,-9.4117746E-2,-2.874464E-1,-1.2383734E-1,-8.555023E-2,5.456186E-2,-7.311766E-2,-2.0304221E-1,-3.2563053E-2,2.9416096E-1,-2.8384396E-1,6.523353E-2,-4.1858986E-1,1.0086318E-1,-6.132741E-2,2.032683E-2,3.4443194E-1,2.4178404E-1,-1.1877727E-1,3.6526936E-1,-5.1215645E-3,5.7334904E-2,1.7925274E-1,-3.149521E-2,1.6422215E-1,-4.943293E-2,9.260092E-2,-1.2517645E-2,1.3169579E-1,3.283205E-1,3.2754257E-1,5.66664E-1,1.6351701E-1,3.302927E-1,2.8163016E-1,4.6329516E-1,-1.2794095E-2,1.5801907E-1,-5.0846845E-1,-8.262399E-2],"categories":[],"categories_nodes":[],"categories_segments":[],"categories_sizes":[],"default_left":[0,0,0,0,0,0,0,0,0,0,0,0,0,0,0,0,0,0,0,0,0,0,0,0,0,0,0,0,0,0,0,0,0,0,0,0,0,0,0,0,0,0,0,0,0,0,0,0,0,0,0,0,0,0,0,0,0,0,0,0,0,0,0,0,0,0,0,0,0,0,0,0,0,0,0,0,0,0,0,0,0,0,0,0,0,0,0,0,0,0,0,0,0,0,0,0,0,0,0,0,0,0,0,0,0,0,0,0,0,0,0,0,0,0,0,0,0,0,0,0,0,0,0,0,0,0,0],"id":10,"left_children":[1,3,5,7,9,11,13,15,17,19,21,23,25,27,29,31,33,35,37,39,41,43,45,47,49,51,53,55,57,59,61,63,65,67,69,71,73,75,77,79,81,83,85,87,89,91,93,95,97,99,101,103,105,107,109,111,113,115,117,119,121,123,125,-1,-1,-1,-1,-1,-1,-1,-1,-1,-1,-1,-1,-1,-1,-1,-1,-1,-1,-1,-1,-1,-1,-1,-1,-1,-1,-1,-1,-1,-1,-1,-1,-1,-1,-1,-1,-1,-1,-1,-1,-1,-1,-1,-1,-1,-1,-1,-1,-1,-1,-1,-1,-1,-1,-1,-1,-1,-1,-1,-1,-1,-1,-1,-1],"loss_changes":[8.813228E4,1.2916922E4,3.1301082E4,3.0226125E3,1.0621539E4,1.31900625E4,8.894551E3,5.874864E3,4.332121E3,2.769498E3,9.018137E3,9.870002E3,7.921093E3,9.075869E3,1.1977117E4,2.6842769E3,2.614539E3,2.2755886E3,1.8462991E3,7.103779E2,2.3295566E3,1.2122926E4,1.1229738E4,2.9488902E4,1.2377182E4,2.1700654E3,6.440158E3,4.484115E3,1.5381934E3,4.213961E3,4.180276E3,1.688424E3,7.3035315E2,2.228999E3,9.204729E2,8.863452E2,1.3716337E3,8.1599695E2,1.2026006E3,7.695409E2,3.700392E1,3.0850654E3,2.0200273E3,7.9458867E3,5.467039E3,6.4648896E3,4.739299E3,1.0239064E4,5.42013E3,2.3981137E4,8.637871E3,4.5031836E2,1.2484446E3,3.367017E3,6.2854766E3,3.6627473E3,4.5814316E3,1.3793604E3,8.398174E2,3.2164941E3,1.1443867E3,3.4554175E3,7.219094E2,0E0,0E0,0E0,0E0,0E0,0E0,0E0,0E0,0E0,0E0,0E0,0E0,0E0,0E0,0E0,0E0,0E0,0E0,0E0,0E0,0E0,0E0,0E0,0E0,0E0,0E0,0E0,0E0,0E0,0E0,0E0,0E0,0E0,0E0,0E0,0E0,0E0,0E0,0E0,0E0,0E0,0E0,0E0,0E0,0E0,0E0,0E0,0E0,0E0,0E0,0E0,0E0,0E0,0E0,0E0,0E0,0E0,0E0,0E0,0E0,0E0,0E0,0E0,0E0],"parents":[2147483647,0,0,1,1,2,2,3,3,4,4,5,5,6,6,7,7,8,8,9,9,10,10,11,11,12,12,13,13,14,14,15,15,16,16,17,17,18,18,19,19,20,20,21,21,22,22,23,23,24,24,25,25,26,26,27,27,28,28,29,29,30,30,31,31,32,32,33,33,34,34,35,35,36,36,37,37,38,38,39,39,40,40,41,41,42,42,43,43,44,44,45,45,46,46,47,47,48,48,49,49,50,50,51,51,52,52,53,53,54,54,55,55,56,56,57,57,58,58,59,59,60,60,61,61,62,62],"right_children":[2,4,6,8,10,12,14,16,18,20,22,24,26,28,30,32,34,36,38,40,42,44,46,48,50,52,54,56,58,60,62,64,66,68,70,72,74,76,78,80,82,84,86,88,90,92,94,96,98,100,102,104,106,108,110,112,114,116,118,120,122,124,126,-1,-1,-1,-1,-1,-1,-1,-1,-1,-1,-1,-1,-1,-1,-1,-1,-1,-1,-1,-1,-1,-1,-1,-1,-1,-1,-1,-1,-1,-1,-1,-1,-1,-1,-1,-1,-1,-1,-1,-1,-1,-1,-1,-1,-1,-1,-1,-1,-1,-1,-1,-1,-1,-1,-1,-1,-1,-1,-1,-1,-1,-1,-1,-1],"split_conditions":[1.63E1,-6.4862955E-1,2.54E1,3.435174E1,6.25E0,3.72E2,4.9333334E0,3.32E2,5.1226803E1,-1.7129314E-1,3.72E2,1.9328351E0,3.78E2,3.57E1,1.43E2,2.3E0,5.7833332E1,3.21E2,6.505509E1,3.59E2,7E0,1.9328351E0,3.52E2,5E-1,3.6642609E0,8.660254E-1,3.132156E1,0E0,3.8633335E1,4.9784994E0,8.58E2,2.6265707E1,3.4629234E1,1.8966667E1,1E-1,8.0166664E1,7.99E2,4.795931E1,-1.4630316E0,1.7461317E0,9.6333336E1,2.1E0,8.19E2,7.2E1,3.6642609E0,-6.0632193E-1,4.5340385E0,6.4666664E1,7.5166664E1,4.1303265E-1,-1.610557E-1,2.04E1,2.5833333E0,7.99E2,7.4E1,-2.1999712E0,2.2560093E1,8E1,4.0283333E1,3.03E2,1.28E2,1.3723491E1,-1.6712915E0,1.0144254E-1,6.340688E-1,-1.075431E-1,-4.5924327E-1,1.1363631E0,4.1412726E-1,3.224643E-1,-2.9265946E-1,-4.2931673E-1,-1.7079589E-1,-1.603909E-3,-3.2104424E-1,3.02253E-1,-1.1091189E-2,4.3268508E-1,1.3555926E-1,4.0325373E-1,-4.171843E-1,-5.232749E-2,-2.522773E-1,-2.2485872E-1,-5.8044916E-1,-1.8926913E-1,-5.2714777E-1,1.4885548E-1,-9.4117746E-2,-2.874464E-1,-1.2383734E-1,-8.555023E-2,5.456186E-2,-7.311766E-2,-2.0304221E-1,-3.2563053E-2,2.9416096E-1,-2.8384396E-1,6.523353E-2,-4.1858986E-1,1.0086318E-1,-6.132741E-2,2.032683E-2,3.4443194E-1,2.4178404E-1,-1.1877727E-1,3.6526936E-1,-5.1215645E-3,5.7334904E-2,1.7925274E-1,-3.149521E-2,1.6422215E-1,-4.943293E-2,9.260092E-2,-1.2517645E-2,1.3169579E-1,3.283205E-1,3.2754257E-1,5.66664E-1,1.6351701E-1,3.302927E-1,2.8163016E-1,4.6329516E-1,-1.2794095E-2,1.5801907E-1,-5.0846845E-1,-8.262399E-2],"split_indices":[21,37,21,25,18,30,1,24,27,37,30,25,30,5,24,9,3,26,29,26,26,25,24,35,25,35,33,30,2,14,24,33,34,10,8,19,26,25,14,22,11,1,24,26,25,14,22,3,3,6,7,13,1,30,24,15,32,26,10,30,26,33,14,0,0,0,0,0,0,0,0,0,0,0,0,0,0,0,0,0,0,0,0,0,0,0,0,0,0,0,0,0,0,0,0,0,0,0,0,0,0,0,0,0,0,0,0,0,0,0,0,0,0,0,0,0,0,0,0,0,0,0,0,0,0,0,0],"split_type":[0,0,0,0,0,0,0,0,0,0,0,0,0,0,0,0,0,0,0,0,0,0,0,0,0,0,0,0,0,0,0,0,0,0,0,0,0,0,0,0,0,0,0,0,0,0,0,0,0,0,0,0,0,0,0,0,0,0,0,0,0,0,0,0,0,0,0,0,0,0,0,0,0,0,0,0,0,0,0,0,0,0,0,0,0,0,0,0,0,0,0,0,0,0,0,0,0,0,0,0,0,0,0,0,0,0,0,0,0,0,0,0,0,0,0,0,0,0,0,0,0,0,0,0,0,0,0],"sum_hessian":[2.341798E6,8.07991E5,1.533807E6,6.073E4,7.47261E5,9.69829E5,5.63978E5,1.6507E4,4.4223E4,5.4269E4,6.92992E5,5.70467E5,3.99362E5,4.39069E5,1.24909E5,1.1036E4,5.471E3,1.7444E4,2.6779E4,1.729E3,5.254E4,3.72055E5,3.20937E5,7.0197E4,5.0027E5,1.9369E4,3.79993E5,4.18785E5,2.0284E4,6.0793E4,6.4116E4,7.187E3,3.849E3,1.551E3,3.92E3,4.938E3,1.2506E4,1.3192E4,1.3587E4,1.036E3,6.93E2,9.113E3,4.3427E4,4.8452E4,3.23603E5,1.48955E5,1.71982E5,4.8077E4,2.212E4,3.3341E4,4.66929E5,1.6634E4,2.735E3,3.12594E5,6.7399E4,5.1866E4,3.66919E5,1.3206E4,7.078E3,4.6337E4,1.4456E4,5.3992E4,1.0124E4,6.605E3,5.82E2,3.213E3,6.36E2,7.12E2,8.39E2,3.688E3,2.32E2,2.023E3,2.915E3,1.115E4,1.356E3,7.95E2,1.2397E4,1.362E3,1.2225E4,9.21E2,1.15E2,5.97E2,9.6E1,5.42E3,3.693E3,4.1772E4,1.655E3,2.4187E4,2.4265E4,1.9564E4,3.04039E5,4.0829E4,1.08126E5,1.41207E5,3.0775E4,1.1278E4,3.6799E4,1.6872E4,5.248E3,2.0022E4,1.3319E4,2.41389E5,2.2554E5,6.064E3,1.057E4,2.116E3,6.19E2,1.68348E5,1.44246E5,5.035E4,1.7049E4,8.67E3,4.3196E4,3.2476E5,4.2159E4,7.692E3,5.514E3,5.315E3,1.763E3,3.0548E4,1.5789E4,4.57E3,9.886E3,1.4614E4,3.9378E4,3.71E2,9.753E3],"tree_param":{"num_deleted":"0","num_feature":"39","num_nodes":"127","size_leaf_vector":"1"}},{"base_weights":[-8.178651E-7,1.3559626E-1,-1.4376791E-1,9.693497E-2,3.7496677E-1,-1.2212871E-1,-7.468424E-1,6.087591E-1,7.915985E-2,3.4136942E-1,1.0882347E0,3.2504436E-2,-2.1393867E-1,-1.2334613E0,-3.0873194E-1,-1.19549945E-1,8.688275E-1,5.859806E-2,4.9980646E-1,3.136582E-1,1.063767E0,9.8016936E-1,3.2465098E0,-4.2640588E-1,5.587483E-2,-4.2233804E-1,-1.601873E-1,-4.6869043E-1,-1.5363351E0,-1.1541172E0,-1.64314E-1,-4.6009526E-1,3.578338E-1,1.1738732E0,6.054046E-1,-2.8663206E-1,7.989866E-2,7.2577155E-1,-3.6925286E-2,2.0246147E-1,4.6827605E-1,1.2238941E0,6.0150725E-1,6.414195E-1,1.423782E0,2.9143443E0,4.236311E0,-1.3078517E0,6.526046E-2,-3.132145E-1,8.890862E-2,5.2211165E-1,-4.5019472E-1,-8.713746E-2,-3.069427E-1,-1.1972291E-1,-8.2413375E-1,-2.6370065E0,-1.444183E0,-3.3039296E-1,-1.3079305E0,4.341891E-1,-2.758278E-1,1.199348E-2,-2.3236705E-1,5.966141E-2,1.8979056E-1,4.4125906E-1,1.8631418E-1,2.3899426E-1,1.0869783E-1,-2.2748639E-1,2.5490338E-2,5.0920524E-2,7.0523465E-4,1.9276454E-1,4.2218605E-1,-3.235462E-2,3.8379535E-1,2.097555E-1,4.0193316E-2,2.2770394E-1,7.905339E-2,3.3770508E-1,4.1940585E-1,2.034552E-1,-3.5586298E-1,4.157634E-2,2.930575E-1,4.6747267E-1,1.7345819E-1,7.60591E-1,9.7156423E-1,9.5768404E-1,1.7178193E0,-6.2048846E-1,-2.3248088E-1,5.851446E-2,-3.6222616E-1,-1.292135E-1,2.062425E-2,1.1438711E-1,1.9059356E-2,2.7906507E-1,-1.747279E-2,-1.0234815E-1,-2.3958544E-1,-4.680823E-2,6.707643E-2,-2.610491E-1,-6.486596E-2,1.9929845E-2,-2.0861895E-1,-4.5719492E-1,-2.0823033E-1,-8.321002E-1,-5.2857023E-1,-6.153468E-1,-3.8893646E-1,-2.9579818E-1,-5.9335127E-2,-4.6012178E-1,-3.2590878E-1,8.487894E-3,1.8912232E-1,-1.4007613E-1,-5.118354E-2],"categories":[],"categories_nodes":[],"categories_segments":[],"categories_sizes":[],"default_left":[0,0,0,0,0,0,0,0,0,0,0,0,0,0,0,0,0,0,0,0,0,0,0,0,0,0,0,0,0,0,0,0,0,0,0,0,0,0,0,0,0,0,0,0,0,0,0,0,0,0,0,0,0,0,0,0,0,0,0,0,0,0,0,0,0,0,0,0,0,0,0,0,0,0,0,0,0,0,0,0,0,0,0,0,0,0,0,0,0,0,0,0,0,0,0,0,0,0,0,0,0,0,0,0,0,0,0,0,0,0,0,0,0,0,0,0,0,0,0,0,0,0,0,0,0,0,0],"id":11,"left_children":[1,3,5,7,9,11,13,15,17,19,21,23,25,27,29,31,33,35,37,39,41,43,45,47,49,51,53,55,57,59,61,63,65,67,69,71,73,75,77,79,81,83,85,87,89,91,93,95,97,99,101,103,105,107,109,111,113,115,117,119,121,123,125,-1,-1,-1,-1,-1,-1,-1,-1,-1,-1,-1,-1,-1,-1,-1,-1,-1,-1,-1,-1,-1,-1,-1,-1,-1,-1,-1,-1,-1,-1,-1,-1,-1,-1,-1,-1,-1,-1,-1,-1,-1,-1,-1,-1,-1,-1,-1,-1,-1,-1,-1,-1,-1,-1,-1,-1,-1,-1,-1,-1,-1,-1,-1,-1],"loss_changes":[4.5651984E4,1.1152807E4,1.4833336E4,9.439445E3,4.0154785E3,1.5578028E4,8.393447E3,6.596123E3,8.672934E3,3.2034668E3,1.7549404E3,4.384197E3,7.712369E3,4.3198574E3,2.5294907E3,1.4899634E3,2.0613047E3,7.030163E3,5.6676865E3,2.64988E3,4.3687158E2,1.0780522E3,1.056853E2,8.584855E3,4.742587E3,3.7143105E3,5.8676445E3,6.564354E2,1.3513887E3,3.8258057E2,1.1813083E3,8.41182E2,1.6656891E2,1.9512344E3,6.3993066E2,9.7375625E3,6.2731294E3,1.8643203E3,1.2926965E3,3.0497788E3,3.8382314E3,7.349951E1,2.0957166E2,6.868545E2,3.5247217E2,2.5214355E1,1.1859143E2,2.8728477E3,2.1008088E3,1.4341072E3,2.6490515E3,9.5809485E2,5.2091562E3,7.8224897E3,9.294357E3,2.863909E2,2.3755286E2,1.184126E2,1.1030234E3,4.1274757E1,1.25765625E2,2.213935E2,2.9988184E2,0E0,0E0,0E0,0E0,0E0,0E0,0E0,0E0,0E0,0E0,0E0,0E0,0E0,0E0,0E0,0E0,0E0,0E0,0E0,0E0,0E0,0E0,0E0,0E0,0E0,0E0,0E0,0E0,0E0,0E0,0E0,0E0,0E0,0E0,0E0,0E0,0E0,0E0,0E0,0E0,0E0,0E0,0E0,0E0,0E0,0E0,0E0,0E0,0E0,0E0,0E0,0E0,0E0,0E0,0E0,0E0,0E0,0E0,0E0,0E0,0E0,0E0,0E0,0E0],"parents":[2147483647,0,0,1,1,2,2,3,3,4,4,5,5,6,6,7,7,8,8,9,9,10,10,11,11,12,12,13,13,14,14,15,15,16,16,17,17,18,18,19,19,20,20,21,21,22,22,23,23,24,24,25,25,26,26,27,27,28,28,29,29,30,30,31,31,32,32,33,33,34,34,35,35,36,36,37,37,38,38,39,39,40,40,41,41,42,42,43,43,44,44,45,45,46,46,47,47,48,48,49,49,50,50,51,51,52,52,53,53,54,54,55,55,56,56,57,57,58,58,59,59,60,60,61,61,62,62],"right_children":[2,4,6,8,10,12,14,16,18,20,22,24,26,28,30,32,34,36,38,40,42,44,46,48,50,52,54,56,58,60,62,64,66,68,70,72,74,76,78,80,82,84,86,88,90,92,94,96,98,100,102,104,106,108,110,112,114,116,118,120,122,124,126,-1,-1,-1,-1,-1,-1,-1,-1,-1,-1,-1,-1,-1,-1,-1,-1,-1,-1,-1,-1,-1,-1,-1,-1,-1,-1,-1,-1,-1,-1,-1,-1,-1,-1,-1,-1,-1,-1,-1,-1,-1,-1,-1,-1,-1,-1,-1,-1,-1,-1,-1,-1,-1,-1,-1,-1,-1,-1,-1,-1,-1,-1,-1,-1],"split_conditions":[2.1516098E-2,3.04E1,9.42E2,-2.53E2,4.1E1,-4.004539E-1,9.52E2,-2.5145373E-1,6.098936E0,5.385028E1,8.19E2,3.382091E0,8.4E0,1.35E0,7.6E0,4.1E1,1.5237184E0,-1.621593E0,1.43E2,3.59E2,-1.9836428E0,6.73E2,3.55E1,-1.1657473E0,0E0,-2.53E2,3.52E2,-3.3078328E-2,-1.626219E0,1.6E0,1.3166667E0,1.7129314E-1,5.75E1,-3.33E2,1.6280702E-1,1.19E2,2.64E2,2.0932286E0,8.19E2,3.6642609E0,6.2093647E1,3.6166666E0,5.616667E0,3.63E1,2.35E1,-4.2016312E-2,1.9667289E-1,1.3E1,6.0333333E0,2.46E1,7.8333336E-1,2.0875843E0,3.4629234E1,5.0666666E0,3.435174E1,9.8333335E-1,6.5166664E1,5.8E1,6.8333334E-1,1.8598354E0,6.0333332E1,3.7904254E-1,-1.2445256E0,1.199348E-2,-2.3236705E-1,5.966141E-2,1.8979056E-1,4.4125906E-1,1.8631418E-1,2.3899426E-1,1.0869783E-1,-2.2748639E-1,2.5490338E-2,5.0920524E-2,7.0523465E-4,1.9276454E-1,4.2218605E-1,-3.235462E-2,3.8379535E-1,2.097555E-1,4.0193316E-2,2.2770394E-1,7.905339E-2,3.3770508E-1,4.1940585E-1,2.034552E-1,-3.5586298E-1,4.157634E-2,2.930575E-1,4.6747267E-1,1.7345819E-1,7.60591E-1,9.7156423E-1,9.5768404E-1,1.7178193E0,-6.2048846E-1,-2.3248088E-1,5.851446E-2,-3.6222616E-1,-1.292135E-1,2.062425E-2,1.1438711E-1,1.9059356E-2,2.7906507E-1,-1.747279E-2,-1.0234815E-1,-2.3958544E-1,-4.680823E-2,6.707643E-2,-2.610491E-1,-6.486596E-2,1.9929845E-2,-2.0861895E-1,-4.5719492E-1,-2.0823033E-1,-8.321002E-1,-5.2857023E-1,-6.153468E-1,-3.8893646E-1,-2.9579818E-1,-5.9335127E-2,-4.6012178E-1,-3.2590878E-1,8.487894E-3,1.8912232E-1,-1.4007613E-1,-5.118354E-2],"split_indices":[38,5,24,24,12,37,24,14,6,33,26,27,21,9,5,11,22,6,24,28,15,30,4,14,30,24,24,22,14,1,1,37,3,24,37,24,24,15,26,29,29,1,9,21,11,15,37,24,17,5,1,22,34,1,25,1,3,19,1,22,19,15,23,0,0,0,0,0,0,0,0,0,0,0,0,0,0,0,0,0,0,0,0,0,0,0,0,0,0,0,0,0,0,0,0,0,0,0,0,0,0,0,0,0,0,0,0,0,0,0,0,0,0,0,0,0,0,0,0,0,0,0,0,0,0,0,0],"split_type":[0,0,0,0,0,0,0,0,0,0,0,0,0,0,0,0,0,0,0,0,0,0,0,0,0,0,0,0,0,0,0,0,0,0,0,0,0,0,0,0,0,0,0,0,0,0,0,0,0,0,0,0,0,0,0,0,0,0,0,0,0,0,0,0,0,0,0,0,0,0,0,0,0,0,0,0,0,0,0,0,0,0,0,0,0,0,0,0,0,0,0,0,0,0,0,0,0,0,0,0,0,0,0,0,0,0,0,0,0,0,0,0,0,0,0,0,0,0,0,0,0,0,0,0,0,0,0],"sum_hessian":[2.341798E6,1.205142E6,1.136656E6,1.037564E6,1.67578E5,1.097285E6,3.9371E4,3.4823E4,1.002741E6,1.60041E5,7.537E3,4.08783E5,6.88502E5,1.8652E4,2.0719E4,9.163E3,2.566E4,9.56011E5,4.673E4,1.5413E5,5.911E3,7.179E3,3.58E2,1.9808E4,3.88975E5,1.41169E5,5.47333E5,5.292E3,1.336E4,3.022E3,1.7697E4,5.348E3,3.815E3,1.1889E4,1.3771E4,5.5557E4,9.00454E5,3.2885E4,1.3845E4,8.9655E4,6.4475E4,4.389E3,1.522E3,4.072E3,3.107E3,2.71E2,8.7E1,7.092E3,1.2716E4,3.1953E4,3.57022E5,4.044E3,1.37125E5,3.65434E5,1.81899E5,2.671E3,2.621E3,1.03E3,1.233E4,4.76E2,2.546E3,2.779E3,1.4918E4,2.065E3,3.283E3,2.418E3,1.397E3,7.733E3,4.156E3,7.706E3,6.065E3,2.4482E4,3.1075E4,4.17173E5,4.83281E5,2.9308E4,3.577E3,1.3138E4,7.07E2,1.0862E4,7.8793E4,2.6643E4,3.7832E4,2.811E3,1.578E3,1.46E3,6.2E1,1.63E3,2.442E3,2.68E3,4.27E2,1.29E2,1.42E2,5.3E1,3.4E1,2.921E3,4.171E3,1.154E4,1.176E3,2.4436E4,7.517E3,2.8512E4,3.2851E5,2.374E3,1.67E3,1.04443E5,3.2682E4,2.99118E5,6.6316E4,2.5234E4,1.56665E5,2.019E3,6.52E2,4.09E2,2.212E3,8.89E2,1.41E2,2.411E3,9.919E3,7.9E1,3.97E2,1.258E3,1.288E3,9.06E2,1.873E3,5.296E3,9.622E3],"tree_param":{"num_deleted":"0","num_feature":"39","num_nodes":"127","size_leaf_vector":"1"}},{"base_weights":[3.876609E-7,-7.82901E-2,1.4488429E-1,-8.986825E-2,5.211286E-1,6.023096E-2,2.3189431E-1,-2.2114979E-1,-3.8482603E-2,6.2899494E-1,-2.296103E-1,-1.899438E-1,9.964144E-2,3.467422E-1,3.535699E-2,-8.5176605E-1,-2.0114198E-1,-2.5716485E-2,-3.9072526E-1,7.9543495E-1,3.448203E-1,-6.9888073E-1,2.7002344E-1,-7.286511E-1,-1.1627606E-1,2.791436E-1,5.3969026E-2,-2.9483458E-1,3.932608E-1,-3.197847E-1,1.5057571E-1,-1.7496256E0,-7.92506E-1,1.08683184E-1,-2.34908E-1,3.5830796E-1,-4.0983222E-2,-4.7441092E-1,-1.4795962E-1,8.5247254E-1,-1.6308627E-1,5.7100505E-1,9.861412E-2,-4.5276925E-1,-1.1931522E0,6.726294E-1,-2.5498673E-1,-2.4636915E-1,-1.4505705E0,-4.727423E-1,1.5724082E-2,7.9820526E-1,2.262259E-1,-2.1920931E-1,1.04550235E-1,1.7648691E-1,-1.236609E0,2.4143223E-1,5.008215E-1,-6.886952E-1,-1.6649595E-1,4.3112267E-2,3.7983048E-1,-7.225059E-1,-3.5915303E-1,-1.7726976E-1,-3.463913E-1,-1.016598E-2,2.9361057E-1,-1.2745441E-1,-5.2265506E-2,1.5851255E-1,1.9365005E-2,-6.895822E-2,-3.8625605E-3,-9.527623E-2,-1.7280354E-1,-9.368361E-2,4.2750863E-3,2.2649106E-1,4.4888029E-1,3.455389E-2,-3.0600312E-1,1.1813274E-1,2.4560578E-1,1.09724045E-1,-1.5474734E-3,-4.129751E-3,-2.1954097E-1,-5.7209486E-1,-2.4765547E-1,1.3328964E-1,3.0515397E-1,-3.2071196E-2,-2.6857218E-1,-3.1537226E-1,2.7716698E-2,-5.600003E-1,-2.1520887E-1,-1.8426722E-1,-4.964802E-2,-7.594646E-2,9.1058716E-2,-2.7386118E-2,3.4263226E-1,1.6342449E-3,9.09005E-2,1.6476306E-3,-4.2522496E-1,-4.28193E-2,4.8819233E-2,8.521706E-2,-7.9345524E-2,1.8382542E-1,-4.1662648E-1,2.3101948E-2,1.5008315E-1,1.8370213E-1,5.071563E-2,-1.5966487E-1,-3.3865085E-1,3.7096314E-2,-8.3345465E-2,5.4075737E-2,-4.8870288E-2,6.0356304E-2,1.579293E-1],"categories":[],"categories_nodes":[],"categories_segments":[],"categories_sizes":[],"default_left":[0,0,0,0,0,0,0,0,0,0,0,0,0,0,0,0,0,0,0,0,0,0,0,0,0,0,0,0,0,0,0,0,0,0,0,0,0,0,0,0,0,0,0,0,0,0,0,0,0,0,0,0,0,0,0,0,0,0,0,0,0,0,0,0,0,0,0,0,0,0,0,0,0,0,0,0,0,0,0,0,0,0,0,0,0,0,0,0,0,0,0,0,0,0,0,0,0,0,0,0,0,0,0,0,0,0,0,0,0,0,0,0,0,0,0,0,0,0,0,0,0,0,0,0,0,0,0],"id":12,"left_children":[1,3,5,7,9,11,13,15,17,19,21,23,25,27,29,31,33,35,37,39,41,43,45,47,49,51,53,55,57,59,61,63,65,67,69,71,73,75,77,79,81,83,85,87,89,91,93,95,97,99,101,103,105,107,109,111,113,115,117,119,121,123,125,-1,-1,-1,-1,-1,-1,-1,-1,-1,-1,-1,-1,-1,-1,-1,-1,-1,-1,-1,-1,-1,-1,-1,-1,-1,-1,-1,-1,-1,-1,-1,-1,-1,-1,-1,-1,-1,-1,-1,-1,-1,-1,-1,-1,-1,-1,-1,-1,-1,-1,-1,-1,-1,-1,-1,-1,-1,-1,-1,-1,-1,-1,-1,-1],"loss_changes":[2.656311E4,1.0551083E4,6.050994E3,1.0061488E4,2.333082E3,4.1054883E3,9.144248E3,5.293574E3,4.820151E3,1.1911631E3,8.4894604E2,2.2488438E3,2.9491501E3,7.6314863E3,6.1141616E3,6.850928E2,4.2543535E3,6.064653E3,7.6157666E2,8.6859863E2,5.181769E2,2.2657263E2,3.709184E2,2.3731084E3,2.3457703E3,2.0039614E3,3.9624666E3,7.6735474E3,3.893336E3,2.0697227E3,2.7794495E3,2.8751953E2,8.8308203E2,4.957227E3,4.2270117E3,1.9758784E3,5.281772E3,4.440249E2,2.562044E2,9.400039E2,2.1305579E2,2.125747E2,1.2355434E2,1.52866E2,1.6113135E2,7.766882E1,7.2149925E1,1.1147181E3,8.3154443E2,5.8552783E2,2.8154866E3,2.0649185E3,1.1223708E3,1.2062445E4,3.4811626E3,5.4662494E2,1.6232432E3,4.207689E3,5.163004E3,7.3936865E2,8.3528485E2,2.1702317E3,9.4285986E2,0E0,0E0,0E0,0E0,0E0,0E0,0E0,0E0,0E0,0E0,0E0,0E0,0E0,0E0,0E0,0E0,0E0,0E0,0E0,0E0,0E0,0E0,0E0,0E0,0E0,0E0,0E0,0E0,0E0,0E0,0E0,0E0,0E0,0E0,0E0,0E0,0E0,0E0,0E0,0E0,0E0,0E0,0E0,0E0,0E0,0E0,0E0,0E0,0E0,0E0,0E0,0E0,0E0,0E0,0E0,0E0,0E0,0E0,0E0,0E0,0E0,0E0,0E0,0E0],"parents":[2147483647,0,0,1,1,2,2,3,3,4,4,5,5,6,6,7,7,8,8,9,9,10,10,11,11,12,12,13,13,14,14,15,15,16,16,17,17,18,18,19,19,20,20,21,21,22,22,23,23,24,24,25,25,26,26,27,27,28,28,29,29,30,30,31,31,32,32,33,33,34,34,35,35,36,36,37,37,38,38,39,39,40,40,41,41,42,42,43,43,44,44,45,45,46,46,47,47,48,48,49,49,50,50,51,51,52,52,53,53,54,54,55,55,56,56,57,57,58,58,59,59,60,60,61,61,62,62],"right_children":[2,4,6,8,10,12,14,16,18,20,22,24,26,28,30,32,34,36,38,40,42,44,46,48,50,52,54,56,58,60,62,64,66,68,70,72,74,76,78,80,82,84,86,88,90,92,94,96,98,100,102,104,106,108,110,112,114,116,118,120,122,124,126,-1,-1,-1,-1,-1,-1,-1,-1,-1,-1,-1,-1,-1,-1,-1,-1,-1,-1,-1,-1,-1,-1,-1,-1,-1,-1,-1,-1,-1,-1,-1,-1,-1,-1,-1,-1,-1,-1,-1,-1,-1,-1,-1,-1,-1,-1,-1,-1,-1,-1,-1,-1,-1,-1,-1,-1,-1,-1,-1,-1,-1,-1,-1,-1],"split_conditions":[2.29E1,5.385028E1,3.15E0,1.27E1,1.2074635E0,7E0,3.52E2,1.9328351E0,3.1585495E1,2.09E1,1.1234902E0,3.6666668E1,1.2E0,1.9328351E0,4.3965088E1,6.7E0,4.844032E0,-1.99E2,1.398798E0,1.0836511E0,-4.2889193E-1,9.5366836E-1,1.16E1,3.63E2,1.837129E1,1.9328351E0,3.6642609E0,3.43276E-2,1.28E2,1.43E2,7.02E2,3.3E1,1.41E1,1.39E1,1.71E2,2.41E1,2.2E1,-1.19E2,1.61E1,1.75E1,7.3334545E-1,2.52E1,-3.1225836E0,4.497148E-1,1.2E1,3.0693064E0,2.35E1,2.55E1,4.3035382E-3,2.65E1,8.353874E-1,-1.4082323E-1,2.2942474E1,3.527521E-1,-6.3E1,1.5855938E-1,-2.0420141E0,3.03E2,1.4486423E1,-1.0356176E0,-2.089855E0,5.65E2,2.87E1,-7.225059E-1,-3.5915303E-1,-1.7726976E-1,-3.463913E-1,-1.016598E-2,2.9361057E-1,-1.2745441E-1,-5.2265506E-2,1.5851255E-1,1.9365005E-2,-6.895822E-2,-3.8625605E-3,-9.527623E-2,-1.7280354E-1,-9.368361E-2,4.2750863E-3,2.2649106E-1,4.4888029E-1,3.455389E-2,-3.0600312E-1,1.1813274E-1,2.4560578E-1,1.09724045E-1,-1.5474734E-3,-4.129751E-3,-2.1954097E-1,-5.7209486E-1,-2.4765547E-1,1.3328964E-1,3.0515397E-1,-3.2071196E-2,-2.6857218E-1,-3.1537226E-1,2.7716698E-2,-5.600003E-1,-2.1520887E-1,-1.8426722E-1,-4.964802E-2,-7.594646E-2,9.1058716E-2,-2.7386118E-2,3.4263226E-1,1.6342449E-3,9.09005E-2,1.6476306E-3,-4.2522496E-1,-4.28193E-2,4.8819233E-2,8.521706E-2,-7.9345524E-2,1.8382542E-1,-4.1662648E-1,2.3101948E-2,1.5008315E-1,1.8370213E-1,5.071563E-2,-1.5966487E-1,-3.3865085E-1,3.7096314E-2,-8.3345465E-2,5.4075737E-2,-4.8870288E-2,6.0356304E-2,1.579293E-1],"split_indices":[21,33,1,18,15,30,24,29,32,5,6,11,9,25,29,21,25,26,6,23,38,23,20,28,25,25,25,37,28,28,26,24,13,2,30,5,26,24,13,21,7,5,15,7,13,6,4,5,38,4,6,25,34,37,28,38,14,30,32,23,15,24,20,0,0,0,0,0,0,0,0,0,0,0,0,0,0,0,0,0,0,0,0,0,0,0,0,0,0,0,0,0,0,0,0,0,0,0,0,0,0,0,0,0,0,0,0,0,0,0,0,0,0,0,0,0,0,0,0,0,0,0,0,0,0,0,0],"split_type":[0,0,0,0,0,0,0,0,0,0,0,0,0,0,0,0,0,0,0,0,0,0,0,0,0,0,0,0,0,0,0,0,0,0,0,0,0,0,0,0,0,0,0,0,0,0,0,0,0,0,0,0,0,0,0,0,0,0,0,0,0,0,0,0,0,0,0,0,0,0,0,0,0,0,0,0,0,0,0,0,0,0,0,0,0,0,0,0,0,0,0,0,0,0,0,0,0,0,0,0,0,0,0,0,0,0,0,0,0,0,0,0,0,0,0,0,0,0,0,0,0,0,0,0,0,0,0],"sum_hessian":[2.341798E6,1.520286E6,8.21512E5,1.491478E6,2.8808E4,4.16396E5,4.05116E5,4.19563E5,1.071915E6,2.5189E4,3.619E3,5.6668E4,3.59728E5,2.55697E5,1.49419E5,1.2901E4,4.06662E5,1.034426E6,3.7489E4,1.5884E4,9.305E3,1.866E3,1.753E3,6.816E3,4.9852E4,7.2963E4,2.86765E5,1.7286E4,2.38411E5,3.6601E4,1.12818E5,7.97E2,1.2104E4,3.9964E4,3.66698E5,3.955E4,9.94876E5,2.7878E4,9.611E3,1.4992E4,8.92E2,4.849E3,4.456E3,1.247E3,6.19E2,9.92E2,7.61E2,4.087E3,2.729E3,1.3471E4,3.6381E4,6.749E3,6.6214E4,4.4801E4,2.41964E5,1.1521E4,5.765E3,9.8863E4,1.39548E5,1.0743E4,2.5858E4,7.6813E4,3.6005E4,3.62E2,4.35E2,7.777E3,4.327E3,3.4338E4,5.626E3,8.8794E4,2.77904E5,2.5048E4,1.4502E4,1.28874E5,8.66002E5,1.0962E4,1.6916E4,4.774E3,4.837E3,1.3022E4,1.97E3,6.74E2,2.18E2,2.828E3,2.021E3,1.246E3,3.21E3,4.85E2,7.62E2,2.09E2,4.1E2,5.98E2,3.94E2,6.19E2,1.42E2,1.21E3,2.877E3,1.74E3,9.89E2,9.223E3,4.248E3,1.8809E4,1.7572E4,1.882E3,4.867E3,1.7085E4,4.9129E4,3.7727E4,7.074E3,4.6086E4,1.95878E5,9.262E3,2.259E3,4.38E2,5.327E3,6.0459E4,3.8404E4,1.04441E5,3.5107E4,7.927E3,2.816E3,7.17E3,1.8688E4,4.6115E4,3.0698E4,1.623E4,1.9775E4],"tree_param":{"num_deleted":"0","num_feature":"39","num_nodes":"127","size_leaf_vector":"1"}},{"base_weights":[-1.1205723E-6,-5.3230237E-2,1.1828357E-1,3.0244583E-1,-6.6170834E-2,1.2687128E-2,1.7948566E-1,-2.762535E-1,4.7734192E-1,2.198152E-1,-8.229294E-2,-1.2972274E-1,1.3150103E-1,1.6215788E-1,6.1100596E-1,-8.574833E-1,-1.1584469E-1,1.8224523E0,3.7793317E-1,8.77589E-1,-1.04793504E-1,2.8251093E-2,-1.3063097E-1,-5.641327E-1,-4.3532215E-2,1.1759878E-1,1.3720938E0,2.712846E-1,8.700089E-2,7.761629E-1,8.443867E-2,-1.004142E0,1.2057505E-1,4.3779796E-1,-2.5206771E-1,2.1310072E0,5.362368E-1,4.5765495E-1,-1.7200938E-1,-1.9098139E0,9.164334E-1,-4.5850435E-1,1.2577745E-1,-1.5994518E-1,1.7202589E-1,-2.7406085E-1,-6.262647E-2,-1.2916027E0,-4.4422624E-1,2.8207526E-1,-1.0961061E-1,2.658447E-1,1.0576945E-2,-1.145164E0,1.5376717E0,2.2797728E-1,7.901493E-1,-2.1322474E-2,2.2321843E-1,1.0823374E0,5.420363E-1,-7.7970254E-1,2.0564191E-1,-3.3972156E-1,-1.6174175E-1,-8.595025E-2,1.450935E-1,2.2907439E-1,8.3800875E-2,2.599214E-1,-9.077601E-2,6.913714E-1,2.2633281E-1,3.069145E-1,-3.236103E-2,1.7399432E-1,4.1536015E-2,-1.7066792E-1,2.6383603E-2,-7.4491435E-1,4.9564478E-1,2.983895E-1,-3.710457E-2,-1.8876375E-1,1.8211417E-2,1.4572857E-1,-1.4978966E-2,-7.395056E-2,6.9608994E-2,3.0229107E-2,1.765424E-1,-8.320569E-3,-1.10099815E-1,-7.146434E-2,5.2683833E-3,3.4897376E-2,-5.311457E-1,5.000454E-2,-1.9441453E-1,-8.288699E-3,1.5759046E-1,1.1536948E-2,-1.316652E-1,2.4003418E-2,1.2327557E-1,4.470804E-2,-5.2437704E-2,-5.495967E-1,7.7255005E-1,3.845888E-1,6.491312E-1,4.7522027E-2,1.4180107E-1,1.5823072E-1,3.1256005E-1,-1.6204158E-2,1.5351069E-1,9.8563015E-2,9.630564E-3,2.4924637E-1,5.4161257E-1,1.1540261E-1,2.8520957E-1,-3.7992227E-1,1.960019E-1,2.7292838E-2,2.900734E-1],"categories":[],"categories_nodes":[],"categories_segments":[],"categories_sizes":[],"default_left":[0,0,0,0,0,0,0,0,0,0,0,0,0,0,0,0,0,0,0,0,0,0,0,0,0,0,0,0,0,0,0,0,0,0,0,0,0,0,0,0,0,0,0,0,0,0,0,0,0,0,0,0,0,0,0,0,0,0,0,0,0,0,0,0,0,0,0,0,0,0,0,0,0,0,0,0,0,0,0,0,0,0,0,0,0,0,0,0,0,0,0,0,0,0,0,0,0,0,0,0,0,0,0,0,0,0,0,0,0,0,0,0,0,0,0,0,0,0,0,0,0,0,0,0,0,0,0],