{"learner":{"attributes":{},"feature_names":["rain_n1","ws_n1","td_n1","rh_n1","tdmax_n1","tdmin_n1","u_vec_n1","v_vec_n1","rain_n2","ws_n2","td_n2","rh_n2","tdmax_n2","tdmin_n2","u_vec_n2","v_vec_n2","rain_n3","ws_n3","td_n3","rh_n3","tdmax_n3","tdmin_n3","u_vec_n3","v_vec_n3","elevation_target","dist_to_coast_target","elevation_n1","dist_to_coast_n1","elevation_n2","dist_to_coast_n2","elevation_n3","dist_to_coast_n3","dist_n1","dist_n2","dist_n3","month_sin","month_cos","day_sin","day_cos"],"feature_types":["float","float","float","float","float","float","float","float","float","float","float","float","float","float","float","float","float","float","float","float","float","float","float","float","int","float","int","float","int","float","int","float","float","float","float","float","float","float","float"],"gradient_booster":{"model":{"cats":{"enc":[],"feature_segments":[],"sorted_idx":[]},"gbtree_model_param":{"num_parallel_tree":"1","num_trees":"100"},"iteration_indptr":[0,1,2,3,4,5,6,7,8,9,10,11,12,13,14,15,16,17,18,19,20,21,22,23,24,25,26,27,28,29,30,31,32,33,34,35,36,37,38,39,40,41,42,43,44,45,46,47,48,49,50,51,52,53,54,55,56,57,58,59,60,61,62,63,64,65,66,67,68,69,70,71,72,73,74,75,76,77,78,79,80,81,82,83,84,85,86,87,88,89,90,91,92,93,94,95,96,97,98,99,100],"tree_info":[0,0,0,0,0,0,0,0,0,0,0,0,0,0,0,0,0,0,0,0,0,0,0,0,0,0,0,0,0,0,0,0,0,0,0,0,0,0,0,0,0,0,0,0,0,0,0,0,0,0,0,0,0,0,0,0,0,0,0,0,0,0,0,0,0,0,0,0,0,0,0,0,0,0,0,0,0,0,0,0,0,0,0,0,0,0,0,0,0,0,0,0,0,0,0,0,0,0,0,0],"trees":[{"base_weights":[2.0268992E-7,-6.2363844E0,5.410962E0,-9.522422E0,-3.410182E0,2.6981435E0,9.484093E0,-1.1846534E1,-7.8315926E0,-4.6988163E0,-1.2685748E0,1.1926457E0,4.784799E0,8.026958E0,1.2718979E1,-1.3718065E1,-1.0841531E1,-8.645901E0,-6.2478766E0,-6.0435853E0,-3.5356212E0,2.618067E0,-2.2671678E0,1.2400692E-1,2.7728186E0,4.1217613E0,7.3087044E0,1.1654965E1,7.2694197E0,1.1574597E1,1.5665209E1,-1.564054E1,-1.2780008E1,-8.381827E0,-1.152331E1,-9.662856E0,-8.117217E0,-7.157243E0,-5.5455313E0,-5.0637584E0,-7.9983745E0,-4.407022E0,-2.9381316E0,8.87866E-1,5.766584E0,-5.915509E0,-1.6230885E0,-1.1439866E0,7.60012E-1,3.609464E0,1.1572752E0,2.873512E0,4.7211456E0,6.5656786E0,9.538721E0,9.964968E0,1.45664835E1,4.4195385E0,8.027575E0,1.4136927E1,1.0864024E1,1.6794405E1,1.3776698E1,-4.413894E0,-4.9605474E0,-4.046586E0,-3.619211E0,-1.2844064E0,-2.6457129E0,-3.3560276E0,-4.1153755E0,-1.9764556E0,-2.9565144E0,-1.9744465E0,-2.533368E0,-1.8754994E0,-2.3523355E0,-1.8214084E0,-1.3581737E0,-4.951357E-1,-1.6157178E0,-3.2166085E0,-2.136456E0,-1.271726E0,-3.0855758E0,-1.0602136E0,-6.593274E-1,9.376997E-1,9.841417E-2,2.479259E0,1.416166E0,-1.2081275E0,-2.3734741E0,-3.9472917E-1,-1.1967375E0,-3.100788E-1,-2.0634649E0,3.743217E-2,4.2008117E-1,1.7085176E0,9.3982655E-1,3.5480436E-2,5.612807E-1,1.080186E0,4.485155E-1,1.5378655E0,1.1025442E0,2.1615708E0,1.40921E0,2.5280192E0,3.4607754E0,2.7134242E0,3.3268344E0,4.0598083E0,5.0227737E0,1.7142769E0,6.8013376E-1,2.142453E0,2.7786698E0,3.8996475E0,4.8888183E0,2.8601983E0,3.5583124E0,4.735324E0,5.6044974E0,3.950721E0,4.8351045E0],"categories":[],"categories_nodes":[],"categories_segments":[],"categories_sizes":[],"default_left":[0,0,0,0,0,0,0,0,0,0,0,0,0,0,0,0,0,0,0,0,0,0,0,0,0,0,0,0,0,0,0,0,0,0,0,0,0,0,0,0,0,0,0,0,0,0,0,0,0,0,0,0,0,0,0,0,0,0,0,0,0,0,0,0,0,0,0,0,0,0,0,0,0,0,0,0,0,0,0,0,0,0,0,0,0,0,0,0,0,0,0,0,0,0,0,0,0,0,0,0,0,0,0,0,0,0,0,0,0,0,0,0,0,0,0,0,0,0,0,0,0,0,0,0,0,0,0],"id":0,"left_children":[1,3,5,7,9,11,13,15,17,19,21,23,25,27,29,31,33,35,37,39,41,43,45,47,49,51,53,55,57,59,61,63,65,67,69,71,73,75,77,79,81,83,85,87,89,91,93,95,97,99,101,103,105,107,109,111,113,115,117,119,121,123,125,-1,-1,-1,-1,-1,-1,-1,-1,-1,-1,-1,-1,-1,-1,-1,-1,-1,-1,-1,-1,-1,-1,-1,-1,-1,-1,-1,-1,-1,-1,-1,-1,-1,-1,-1,-1,-1,-1,-1,-1,-1,-1,-1,-1,-1,-1,-1,-1,-1,-1,-1,-1,-1,-1,-1,-1,-1,-1,-1,-1,-1,-1,-1,-1],"loss_changes":[8.054485E7,1.0297988E7,1.412162E7,2.014728E6,1.6452015E6,2.4098205E6,2.408168E6,4.05978E5,3.82708E5,5.82171E5,8.692104E5,7.524669E5,5.3798E5,9.68018E5,5.34776E5,1.35839E5,2.35498E5,1.05305E5,6.433325E4,3.3059E5,1.03894E5,2.49379E5,4.186722E5,2.1438117E5,2.4298762E5,1.90484E5,1.10765E5,2.99235E5,6.2959E5,2.0792E5,9.442E4,2.028E4,2.55615E4,5.462975E4,8.109E4,3.9551E4,6.478E4,2.71495E4,3.0424375E4,1.2636E5,1.37568E5,8.009025E4,5.2228312E4,3.7011832E4,4.237625E4,1.00743375E5,1.1011447E5,5.620247E4,7.200288E4,1.1773675E5,4.548179E4,8.278475E4,7.286425E4,5.99175E4,3.702225E4,3.973975E4,5.0039E4,1.7063575E5,2.51737E5,6.0749E4,1.18535E5,5.26425E4,2.34135E4,0E0,0E0,0E0,0E0,0E0,0E0,0E0,0E0,0E0,0E0,0E0,0E0,0E0,0E0,0E0,0E0,0E0,0E0,0E0,0E0,0E0,0E0,0E0,0E0,0E0,0E0,0E0,0E0,0E0,0E0,0E0,0E0,0E0,0E0,0E0,0E0,0E0,0E0,0E0,0E0,0E0,0E0,0E0,0E0,0E0,0E0,0E0,0E0,0E0,0E0,0E0,0E0,0E0,0E0,0E0,0E0,0E0,0E0,0E0,0E0,0E0,0E0,0E0,0E0],"parents":[2147483647,0,0,1,1,2,2,3,3,4,4,5,5,6,6,7,7,8,8,9,9,10,10,11,11,12,12,13,13,14,14,15,15,16,16,17,17,18,18,19,19,20,20,21,21,22,22,23,23,24,24,25,25,26,26,27,27,28,28,29,29,30,30,31,31,32,32,33,33,34,34,35,35,36,36,37,37,38,38,39,39,40,40,41,41,42,42,43,43,44,44,45,45,46,46,47,47,48,48,49,49,50,50,51,51,52,52,53,53,54,54,55,55,56,56,57,57,58,58,59,59,60,60,61,61,62,62],"right_children":[2,4,6,8,10,12,14,16,18,20,22,24,26,28,30,32,34,36,38,40,42,44,46,48,50,52,54,56,58,60,62,64,66,68,70,72,74,76,78,80,82,84,86,88,90,92,94,96,98,100,102,104,106,108,110,112,114,116,118,120,122,124,126,-1,-1,-1,-1,-1,-1,-1,-1,-1,-1,-1,-1,-1,-1,-1,-1,-1,-1,-1,-1,-1,-1,-1,-1,-1,-1,-1,-1,-1,-1,-1,-1,-1,-1,-1,-1,-1,-1,-1,-1,-1,-1,-1,-1,-1,-1,-1,-1,-1,-1,-1,-1,-1,-1,-1,-1,-1,-1,-1,-1,-1,-1,-1,-1],"split_conditions":[1.94E1,1.4516666E1,2.77E1,1.03E1,1.905E1,2.36E1,3.06E1,7.8E0,1.37E1,1.52E1,-3E0,2.23E1,2.8E1,-3E0,3.5E1,5.8E0,2.7E1,1.0633333E1,1.25E1,3.78E2,1.58E1,2.3E1,1.49E1,1.88E1,3.52E2,2.25E1,2.85E1,3.18E1,2.51E1,-3E0,3.59E2,3.78E2,7.9E0,-3.33E2,8.19E2,1.9328351E0,7E0,8.560624E0,1.6483334E1,-2.53E2,1.12E1,9.42E2,1.75E1,-3.33E2,-3.33E2,5.65E2,8.19E2,9.42E2,2.12E1,-3E0,3E2,3.72E2,3.72E2,3.72E2,3.03E1,2.94E1,3.5E1,5.65E2,2.98E1,3.5E1,8E1,3.82E1,3.94E1,-4.413894E0,-4.9605474E0,-4.046586E0,-3.619211E0,-1.2844064E0,-2.6457129E0,-3.3560276E0,-4.1153755E0,-1.9764556E0,-2.9565144E0,-1.9744465E0,-2.533368E0,-1.8754994E0,-2.3523355E0,-1.8214084E0,-1.3581737E0,-4.951357E-1,-1.6157178E0,-3.2166085E0,-2.136456E0,-1.271726E0,-3.0855758E0,-1.0602136E0,-6.593274E-1,9.376997E-1,9.841417E-2,2.479259E0,1.416166E0,-1.2081275E0,-2.3734741E0,-3.9472917E-1,-1.1967375E0,-3.100788E-1,-2.0634649E0,3.743217E-2,4.2008117E-1,1.7085176E0,9.3982655E-1,3.5480436E-2,5.612807E-1,1.080186E0,4.485155E-1,1.5378655E0,1.1025442E0,2.1615708E0,1.40921E0,2.5280192E0,3.4607754E0,2.7134242E0,3.3268344E0,4.0598083E0,5.0227737E0,1.7142769E0,6.8013376E-1,2.142453E0,2.7786698E0,3.8996475E0,4.8888183E0,2.8601983E0,3.5583124E0,4.735324E0,5.6044974E0,3.950721E0,4.8351045E0],"split_indices":[5,10,10,5,10,5,5,13,5,5,24,13,2,24,13,5,24,18,21,24,21,13,5,21,24,21,21,13,5,24,24,24,5,24,24,25,24,32,2,24,5,24,5,24,24,24,24,24,5,24,28,24,24,24,5,13,13,24,13,5,26,13,4,0,0,0,0,0,0,0,0,0,0,0,0,0,0,0,0,0,0,0,0,0,0,0,0,0,0,0,0,0,0,0,0,0,0,0,0,0,0,0,0,0,0,0,0,0,0,0,0,0,0,0,0,0,0,0,0,0,0,0,0,0,0,0,0],"split_type":[0,0,0,0,0,0,0,0,0,0,0,0,0,0,0,0,0,0,0,0,0,0,0,0,0,0,0,0,0,0,0,0,0,0,0,0,0,0,0,0,0,0,0,0,0,0,0,0,0,0,0,0,0,0,0,0,0,0,0,0,0,0,0,0,0,0,0,0,0,0,0,0,0,0,0,0,0,0,0,0,0,0,0,0,0,0,0,0,0,0,0,0,0,0,0,0,0,0,0,0,0,0,0,0,0,0,0,0,0,0,0,0,0,0,0,0,0,0,0,0,0,0,0,0,0,0,0],"sum_hessian":[2.386877E6,1.108862E6,1.278015E6,5.12719E5,5.96143E5,7.67104E5,5.10911E5,2.15921E5,2.96798E5,3.7219E5,2.23953E5,4.45606E5,3.21498E5,3.52247E5,1.58664E5,7.5434E4,1.40487E5,1.9601E5,1.00788E5,1.7262E5,1.9957E5,4.5778E4,1.78175E5,2.65831E5,1.79775E5,2.54613E5,6.6885E4,6.0843E4,2.91404E5,1.1428E5,4.4384E4,2.4732E4,5.0702E4,3.0492E4,1.09995E5,6.7039E4,1.28971E5,4.3917E4,5.6871E4,1.14987E5,5.7633E4,8.1175E4,1.18395E5,2.9544E4,1.6234E4,2.6734E4,1.51441E5,8.8797E4,1.77034E5,1.18438E5,6.1337E4,8.26E4,1.72013E5,5.0172E4,1.6713E4,3.85E4,2.2343E4,6.1234E4,2.3017E5,2.4807E4,8.9473E4,2.7771E4,1.6613E4,1.2151E4,1.2581E4,2.5473E4,2.5229E4,2.939E3,2.7553E4,9.5375E4,1.462E4,3.946E3,6.3093E4,2.2664E4,1.06307E5,1.89E4,2.5017E4,3.7501E4,1.937E4,9.912E3,1.05075E5,1.4033E4,4.36E4,7.8922E4,2.253E3,6.5595E4,5.28E4,5.911E3,2.3633E4,4.79E3,1.1444E4,1.3739E4,1.2995E4,1.34033E5,1.7408E4,8.7121E4,1.676E3,8.8866E4,8.8168E4,2.2033E4,9.6405E4,2.4976E4,3.6361E4,5.4075E4,2.8525E4,1.23992E5,4.8021E4,3.7375E4,1.2797E4,1.0739E4,5.974E3,2.1178E4,1.7322E4,1.5152E4,7.191E3,3.8234E4,2.3E4,1.34006E5,9.6164E4,1.6249E4,8.558E3,3.8339E4,5.1134E4,1.8096E4,9.675E3,1.3194E4,3.419E3],"tree_param":{"num_deleted":"0","num_feature":"39","num_nodes":"127","size_leaf_vector":"1"}},{"base_weights":[5.493633E-6,-4.2153735E0,3.9614913E0,-6.792633E0,-2.2563365E0,2.1609788E0,6.870185E0,-8.448021E0,-5.6419845E0,-3.378013E0,-7.620048E-1,1.0565461E0,3.6590443E0,5.6972027E0,9.343458E0,-9.869732E0,-7.589135E0,-3.857557E0,-6.323947E0,-4.246145E0,-2.5256655E0,-1.3584739E0,3.6455333E-1,1.698013E0,-2.8977752E-1,4.7394133E0,1.7525135E0,4.9259157E0,6.8388367E0,1.0284552E1,7.821638E0,-1.1462088E1,-9.454162E0,-8.4910555E0,-7.272753E0,-7.0712924E-1,-4.2365556E0,-7.2196317E0,-5.6249356E0,-4.9492435E0,-3.6691806E0,-1.0150298E0,-3.015873E0,-2.1576138E0,-8.320469E-1,-1.4288383E0,6.5841776E-1,1.1251191E0,2.415426E0,-3.6111944E0,3.133153E-1,4.1103115E0,7.1141057E0,-4.1381586E-1,2.5682852E0,5.5477777E0,3.7203212E0,7.542229E0,5.429018E0,9.529748E0,1.2237871E1,7.055314E0,9.675807E0,-2.6726146E0,-3.5370607E0,-2.6461086E0,-3.058746E0,-2.5177274E0,-3.9954896E0,-1.919185E0,-2.2624347E0,-6.34279E-1,2.2538066E-2,-1.4192952E0,-8.4104425E-1,-1.9908122E0,-2.499684E0,-1.6413422E0,-2.6367035E0,-6.6020906E-1,-1.5477982E0,-7.8169185E-1,-1.2039926E0,-1.4215697E0,-2.6782465E-1,-8.679461E-1,-1.7041091E0,-6.194062E-1,-2.0204463E0,6.7233145E-2,-3.1121063E-1,-9.64873E-1,-2.9905453E-1,4.6080703E-1,2.1531954E-2,8.624306E-2,4.5707145E-1,9.666948E-1,5.9471524E-1,-1.7500321E0,-8.622811E-1,-2.801526E-1,3.028906E-1,9.200421E-1,1.3806412E0,3.004E0,1.9782095E0,3.4363958E-1,-3.9076355E-1,3.7486783E-1,8.735624E-1,1.5017364E0,1.9662589E0,7.3868054E-1,1.4306386E0,2.11386E0,2.8356004E0,1.130428E0,1.9171201E0,2.7470098E0,3.4581137E0,3.497051E0,4.101208E0,1.677034E0,2.2574763E0,2.325201E0,3.2146065E0],"categories":[],"categories_nodes":[],"categories_segments":[],"categories_sizes":[],"default_left":[0,0,0,0,0,0,0,0,0,0,0,0,0,0,0,0,0,0,0,0,0,0,0,0,0,0,0,0,0,0,0,0,0,0,0,0,0,0,0,0,0,0,0,0,0,0,0,0,0,0,0,0,0,0,0,0,0,0,0,0,0,0,0,0,0,0,0,0,0,0,0,0,0,0,0,0,0,0,0,0,0,0,0,0,0,0,0,0,0,0,0,0,0,0,0,0,0,0,0,0,0,0,0,0,0,0,0,0,0,0,0,0,0,0,0,0,0,0,0,0,0,0,0,0,0,0,0],"id":1,"left_children":[1,3,5,7,9,11,13,15,17,19,21,23,25,27,29,31,33,35,37,39,41,43,45,47,49,51,53,55,57,59,61,63,65,67,69,71,73,75,77,79,81,83,85,87,89,91,93,95,97,99,101,103,105,107,109,111,113,115,117,119,121,123,125,-1,-1,-1,-1,-1,-1,-1,-1,-1,-1,-1,-1,-1,-1,-1,-1,-1,-1,-1,-1,-1,-1,-1,-1,-1,-1,-1,-1,-1,-1,-1,-1,-1,-1,-1,-1,-1,-1,-1,-1,-1,-1,-1,-1,-1,-1,-1,-1,-1,-1,-1,-1,-1,-1,-1,-1,-1,-1,-1,-1,-1,-1,-1,-1],"loss_changes":[3.985888E7,5.8385E6,6.444262E6,9.5118E5,1.101217E6,1.2574765E6,1.364818E6,2.4998E5,3.58495E5,2.77685E5,1.8929216E5,3.778308E5,6.643395E5,2.80962E5,2.16673E5,5.0923E4,3.6367E4,9.7265625E4,1.33412E5,7.54035E4,1.4022938E5,7.748234E4,5.1394816E4,1.2178281E5,2.8280603E5,3.075305E5,2.0617325E5,1.42767E5,1.275525E5,1.37754E5,8.210775E4,1.3263E4,2.866E4,1.567E4,2.21855E4,9.630527E3,5.150975E4,6.0611E4,5.821225E4,4.8376E4,3.736675E4,2.1121137E4,4.6733625E4,3.1097875E4,2.40795E4,1.0598285E4,4.3138555E4,5.4987625E4,4.5963625E4,3.5513156E4,1.03765914E5,8.35175E4,6.494475E4,4.4228613E4,3.8396562E4,6.8502E4,8.547881E4,8.12475E4,6.8367625E4,5.0153E4,2.1536E4,2.8117125E4,3.37585E4,0E0,0E0,0E0,0E0,0E0,0E0,0E0,0E0,0E0,0E0,0E0,0E0,0E0,0E0,0E0,0E0,0E0,0E0,0E0,0E0,0E0,0E0,0E0,0E0,0E0,0E0,0E0,0E0,0E0,0E0,0E0,0E0,0E0,0E0,0E0,0E0,0E0,0E0,0E0,0E0,0E0,0E0,0E0,0E0,0E0,0E0,0E0,0E0,0E0,0E0,0E0,0E0,0E0,0E0,0E0,0E0,0E0,0E0,0E0,0E0,0E0,0E0,0E0,0E0],"parents":[2147483647,0,0,1,1,2,2,3,3,4,4,5,5,6,6,7,7,8,8,9,9,10,10,11,11,12,12,13,13,14,14,15,15,16,16,17,17,18,18,19,19,20,20,21,21,22,22,23,23,24,24,25,25,26,26,27,27,28,28,29,29,30,30,31,31,32,32,33,33,34,34,35,35,36,36,37,37,38,38,39,39,40,40,41,41,42,42,43,43,44,44,45,45,46,46,47,47,48,48,49,49,50,50,51,51,52,52,53,53,54,54,55,55,56,56,57,57,58,58,59,59,60,60,61,61,62,62],"right_children":[2,4,6,8,10,12,14,16,18,20,22,24,26,28,30,32,34,36,38,40,42,44,46,48,50,52,54,56,58,60,62,64,66,68,70,72,74,76,78,80,82,84,86,88,90,92,94,96,98,100,102,104,106,108,110,112,114,116,118,120,122,124,126,-1,-1,-1,-1,-1,-1,-1,-1,-1,-1,-1,-1,-1,-1,-1,-1,-1,-1,-1,-1,-1,-1,-1,-1,-1,-1,-1,-1,-1,-1,-1,-1,-1,-1,-1,-1,-1,-1,-1,-1,-1,-1,-1,-1,-1,-1,-1,-1,-1,-1,-1,-1,-1,-1,-1,-1,-1,-1,-1,-1,-1,-1,-1,-1],"split_conditions":[2.03E1,1.34E1,2.715E1,1.0733334E1,1.78E1,2.46E1,3.18E1,8.316667E0,2.7E1,1.56E1,2.07E1,3.78E2,3.59E2,2.995E1,3.59E2,5E0,7.9166665E0,-3.33E2,1.155E1,1.3783334E1,2.7E1,1.73E1,1.6E1,2.23E1,1.845E1,2.88E1,2.15E1,3.59E2,3.59E2,3.6E1,3.6E1,2.7E1,3.78E2,9.42E2,1.3E1,9.3E0,1.52E1,5.65E2,9.42E2,1.9328351E0,1.3E1,1.2430738E0,9.42E2,9.42E2,7E0,1.41E1,1.3E1,1.85E2,2.2E1,1.28E1,3E2,1.85E2,-3.33E2,2.558334E1,2.64E2,2.86E1,2.64E2,3.3583332E1,1.85E2,3.45E1,4.91E2,2.91E1,4.5142647E1,-2.6726146E0,-3.5370607E0,-2.6461086E0,-3.058746E0,-2.5177274E0,-3.9954896E0,-1.919185E0,-2.2624347E0,-6.34279E-1,2.2538066E-2,-1.4192952E0,-8.4104425E-1,-1.9908122E0,-2.499684E0,-1.6413422E0,-2.6367035E0,-6.6020906E-1,-1.5477982E0,-7.8169185E-1,-1.2039926E0,-1.4215697E0,-2.6782465E-1,-8.679461E-1,-1.7041091E0,-6.194062E-1,-2.0204463E0,6.7233145E-2,-3.1121063E-1,-9.64873E-1,-2.9905453E-1,4.6080703E-1,2.1531954E-2,8.624306E-2,4.5707145E-1,9.666948E-1,5.9471524E-1,-1.7500321E0,-8.622811E-1,-2.801526E-1,3.028906E-1,9.200421E-1,1.3806412E0,3.004E0,1.9782095E0,3.4363958E-1,-3.9076355E-1,3.7486783E-1,8.735624E-1,1.5017364E0,1.9662589E0,7.3868054E-1,1.4306386E0,2.11386E0,2.8356004E0,1.130428E0,1.9171201E0,2.7470098E0,3.4581137E0,3.497051E0,4.101208E0,1.677034E0,2.2574763E0,2.325201E0,3.2146065E0],"split_indices":[13,5,2,10,5,13,13,2,24,13,5,24,24,2,24,2,18,24,2,18,24,21,21,5,2,13,5,24,24,13,4,24,24,24,24,5,13,24,24,25,24,27,24,24,24,13,24,26,24,5,28,26,24,34,26,13,26,2,28,5,26,5,29,0,0,0,0,0,0,0,0,0,0,0,0,0,0,0,0,0,0,0,0,0,0,0,0,0,0,0,0,0,0,0,0,0,0,0,0,0,0,0,0,0,0,0,0,0,0,0,0,0,0,0,0,0,0,0,0,0,0,0,0,0,0,0,0],"split_type":[0,0,0,0,0,0,0,0,0,0,0,0,0,0,0,0,0,0,0,0,0,0,0,0,0,0,0,0,0,0,0,0,0,0,0,0,0,0,0,0,0,0,0,0,0,0,0,0,0,0,0,0,0,0,0,0,0,0,0,0,0,0,0,0,0,0,0,0,0,0,0,0,0,0,0,0,0,0,0,0,0,0,0,0,0,0,0,0,0,0,0,0,0,0,0,0,0,0,0,0,0,0,0,0,0,0,0,0,0,0,0,0,0,0,0,0,0,0,0,0,0,0,0,0,0,0,0],"sum_hessian":[2.386877E6,1.156382E6,1.230495E6,4.99392E5,6.5699E5,7.6003E5,4.70465E5,2.04779E5,2.94613E5,3.75289E5,2.81701E5,4.37494E5,3.22536E5,3.19121E5,1.51344E5,7.7117E4,1.27662E5,8.1463E4,2.1315E5,1.85921E5,1.89368E5,1.84183E5,9.7518E4,2.96313E5,1.41181E5,2.05873E5,1.16663E5,1.90455E5,1.28666E5,9.3511E4,5.7833E4,1.5955E4,6.1162E4,3.3146E4,9.4516E4,8.748E3,7.2715E4,9.3427E4,1.19723E5,8.3797E4,1.02124E5,4.6396E4,1.42972E5,7.3144E4,1.11039E5,1.3729E4,8.3789E4,1.64752E5,1.31561E5,2.1695E4,1.19486E5,1.62758E5,4.3115E4,3.1914E4,8.4749E4,1.25643E5,6.4812E4,8.5836E4,4.283E4,6.7452E4,2.6059E4,4.0924E4,1.6909E4,1.82E3,1.4135E4,3.2986E4,2.8176E4,3.2485E4,6.61E2,2.2202E4,7.2314E4,3.125E3,5.623E3,5.4061E4,1.8654E4,6.1288E4,3.2139E4,1.14176E5,5.547E3,5.951E3,7.7846E4,2.4968E4,7.7156E4,1.474E3,4.4922E4,1.36679E5,6.293E3,7.169E4,1.454E3,1.8073E4,9.2966E4,2.671E3,1.1058E4,3.3569E4,5.022E4,5.3108E4,1.11644E5,4.5945E4,8.5616E4,5.401E3,1.6294E4,4.281E4,7.6676E4,5.214E4,1.10618E5,6.555E3,3.656E4,1.1586E4,2.0328E4,1.7518E4,6.7231E4,8.1668E4,4.3975E4,2.9463E4,3.5349E4,6.8142E4,1.7694E4,1.5704E4,2.7126E4,5.6841E4,1.0611E4,1.8547E4,7.512E3,9.936E3,3.0988E4,5.932E3,1.0977E4],"tree_param":{"num_deleted":"0","num_feature":"39","num_nodes":"127","size_leaf_vector":"1"}},{"base_weights":[3.3064873E-6,-2.8822627E0,2.866626E0,-4.9002194E0,-1.6120012E0,1.6370684E0,4.9484906E0,-6.3019304E0,-4.185754E0,-2.6147711E0,-6.525513E-1,9.3225044E-1,2.82769E0,4.3447185E0,6.8829904E0,-7.276041E0,-5.8240094E0,-4.728235E0,-3.5380847E0,-1.2712036E0,-3.164288E0,2.9714646E0,-8.700056E-1,3.801476E-1,1.7609286E0,2.3152459E0,3.7143888E0,5.046711E0,3.1236289E0,6.4751196E0,8.953113E0,-5.4743533E0,-7.614052E0,-5.275864E0,-6.4312763E0,-4.6318345E0,-7.074393E0,-4.1331735E0,-3.1794655E0,-1.9831665E0,-1.6373315E-1,-4.4256067E0,-2.8146694E0,1.7169738E0,4.3924227E0,-1.3186014E0,-2.7118218E-1,-1.6774963E-1,8.4795415E-1,2.8273146E0,1.3330549E0,2.4255385E0,-2.024337E0,3.315958E0,4.9191585E0,4.5406103E0,7.0837574E0,2.0915341E0,3.8663788E0,6.6401715E0,2.519044E0,8.324505E0,1.0031908E1,-1.8045571E0,-8.903973E-1,-2.2313669E0,-2.9665766E0,-1.71614E0,-1.2873522E0,-1.8762183E0,-2.3352182E0,-1.6529071E0,-1.3267499E0,-2.581483E0,-1.6051799E0,-1.2191409E0,-2.6582146E0,-9.3845826E-1,-2.3097014E0,-1.0330575E0,-5.05959E-1,5.953737E-1,-1.8499574E-1,-1.1203177E0,-1.6504495E0,-7.870663E-1,-1.3120568E0,9.40933E-1,2.8962803E-1,1.8446921E0,1.0368825E0,-2.7983528E-1,-6.192325E-1,8.344833E-2,-2.8108743E-1,-2.3833929E-2,-1.3426387E0,2.7151924E-1,-8.1400925E-1,9.3101615E-1,5.1518446E-1,4.5206413E-1,-7.848267E-2,8.882013E-1,5.847944E-1,-1.7880723E-1,-7.61976E-1,9.5798844E-1,1.3188298E0,1.379078E0,1.9595455E0,1.275474E0,1.6646285E0,1.8653693E0,2.4901614E0,4.5690122E-1,9.3566334E-1,7.872637E-1,1.3463155E0,1.9086188E0,2.550589E0,3.6273977E-1,1.1480377E0,5.148316E-1,2.5186255E0,1.8317807E-1,3.0394502E0],"categories":[],"categories_nodes":[],"categories_segments":[],"categories_sizes":[],"default_left":[0,0,0,0,0,0,0,0,0,0,0,0,0,0,0,0,0,0,0,0,0,0,0,0,0,0,0,0,0,0,0,0,0,0,0,0,0,0,0,0,0,0,0,0,0,0,0,0,0,0,0,0,0,0,0,0,0,0,0,0,0,0,0,0,0,0,0,0,0,0,0,0,0,0,0,0,0,0,0,0,0,0,0,0,0,0,0,0,0,0,0,0,0,0,0,0,0,0,0,0,0,0,0,0,0,0,0,0,0,0,0,0,0,0,0,0,0,0,0,0,0,0,0,0,0,0,0],"id":2,"left_children":[1,3,5,7,9,11,13,15,17,19,21,23,25,27,29,31,33,35,37,39,41,43,45,47,49,51,53,55,57,59,61,63,65,67,69,71,73,75,77,79,81,83,85,87,89,91,93,95,97,99,101,103,105,107,109,111,113,115,117,119,121,123,125,-1,-1,-1,-1,-1,-1,-1,-1,-1,-1,-1,-1,-1,-1,-1,-1,-1,-1,-1,-1,-1,-1,-1,-1,-1,-1,-1,-1,-1,-1,-1,-1,-1,-1,-1,-1,-1,-1,-1,-1,-1,-1,-1,-1,-1,-1,-1,-1,-1,-1,-1,-1,-1,-1,-1,-1,-1,-1,-1,-1,-1,-1,-1,-1],"loss_changes":[1.9721276E7,3.050851E6,3.063238E6,4.6043E5,7.0273525E5,6.313471E5,5.18957E5,7.22235E4,1.069865E5,2.6368E5,2.9416175E5,2.1621662E5,1.2710975E5,2.902715E5,8.91825E4,3.10705E4,3.463175E4,3.745075E4,2.961275E4,8.174275E4,1.1176425E5,3.7658344E4,9.459541E4,7.269656E4,8.62165E4,8.48645E4,4.9167125E4,2.216515E5,9.475825E4,5.763825E4,1.1712125E4,1.0926734E4,1.7162E4,2.394075E4,1.1794625E4,2.923E4,1.7206125E4,1.7082062E4,2.0048812E4,2.7330578E4,3.9475344E4,4.0888125E4,5.9115375E4,1.1970711E4,1.6269719E4,5.790475E4,5.5160727E4,4.969008E4,3.1119812E4,1.6576062E4,3.7381844E4,4.4057812E4,3.2350234E3,1.0188125E4,1.320125E4,5.016475E4,4.503025E4,3.0212984E4,5.5470375E4,4.383425E4,6.056088E3,5.1385625E3,5.9979375E3,0E0,0E0,0E0,0E0,0E0,0E0,0E0,0E0,0E0,0E0,0E0,0E0,0E0,0E0,0E0,0E0,0E0,0E0,0E0,0E0,0E0,0E0,0E0,0E0,0E0,0E0,0E0,0E0,0E0,0E0,0E0,0E0,0E0,0E0,0E0,0E0,0E0,0E0,0E0,0E0,0E0,0E0,0E0,0E0,0E0,0E0,0E0,0E0,0E0,0E0,0E0,0E0,0E0,0E0,0E0,0E0,0E0,0E0,0E0,0E0,0E0,0E0,0E0,0E0],"parents":[2147483647,0,0,1,1,2,2,3,3,4,4,5,5,6,6,7,7,8,8,9,9,10,10,11,11,12,12,13,13,14,14,15,15,16,16,17,17,18,18,19,19,20,20,21,21,22,22,23,23,24,24,25,25,26,26,27,27,28,28,29,29,30,30,31,31,32,32,33,33,34,34,35,35,36,36,37,37,38,38,39,39,40,40,41,41,42,42,43,43,44,44,45,45,46,46,47,47,48,48,49,49,50,50,51,51,52,52,53,53,54,54,55,55,56,56,57,57,58,58,59,59,60,60,61,61,62,62],"right_children":[2,4,6,8,10,12,14,16,18,20,22,24,26,28,30,32,34,36,38,40,42,44,46,48,50,52,54,56,58,60,62,64,66,68,70,72,74,76,78,80,82,84,86,88,90,92,94,96,98,100,102,104,106,108,110,112,114,116,118,120,122,124,126,-1,-1,-1,-1,-1,-1,-1,-1,-1,-1,-1,-1,-1,-1,-1,-1,-1,-1,-1,-1,-1,-1,-1,-1,-1,-1,-1,-1,-1,-1,-1,-1,-1,-1,-1,-1,-1,-1,-1,-1,-1,-1,-1,-1,-1,-1,-1,-1,-1,-1,-1,-1,-1,-1,-1,-1,-1,-1,-1,-1,-1,-1,-1,-1],"split_conditions":[2.01E1,1.33E1,2.8416666E1,9.3E0,1.64E1,2.5183332E1,3.19E1,6.6E0,1.23E1,2.7E1,-2.01E2,2.31E1,2.62E1,3.59E2,3.73E1,2.7E1,3.52E2,9.42E2,1.13E1,1.72E1,1.22E1,2.53E1,1.93E1,2.06E1,2.7E1,9.42E2,2.86E1,3.26E1,2.74E1,9.42E2,3.96E1,3.0007507E1,9.42E2,2.1552982E1,9.42E2,8.6E0,9.52E2,9.42E2,8.19E2,-2.53E2,-3.33E2,5.65E2,8.19E2,-3.33E2,-3.33E2,3.72E2,3.52E2,9.42E2,8.19E2,4.0148798E-1,8.19E2,8E1,1.6333333E0,4.270041E0,3.18E1,4.91E2,4.91E2,6.73E2,2.64E2,4.359094E1,3.46E1,3.382091E0,1.9328351E0,-1.8045571E0,-8.903973E-1,-2.2313669E0,-2.9665766E0,-1.71614E0,-1.2873522E0,-1.8762183E0,-2.3352182E0,-1.6529071E0,-1.3267499E0,-2.581483E0,-1.6051799E0,-1.2191409E0,-2.6582146E0,-9.3845826E-1,-2.3097014E0,-1.0330575E0,-5.05959E-1,5.953737E-1,-1.8499574E-1,-1.1203177E0,-1.6504495E0,-7.870663E-1,-1.3120568E0,9.40933E-1,2.8962803E-1,1.8446921E0,1.0368825E0,-2.7983528E-1,-6.192325E-1,8.344833E-2,-2.8108743E-1,-2.3833929E-2,-1.3426387E0,2.7151924E-1,-8.1400925E-1,9.3101615E-1,5.1518446E-1,4.5206413E-1,-7.848267E-2,8.882013E-1,5.847944E-1,-1.7880723E-1,-7.61976E-1,9.5798844E-1,1.3188298E0,1.379078E0,1.9595455E0,1.275474E0,1.6646285E0,1.8653693E0,2.4901614E0,4.5690122E-1,9.3566334E-1,7.872637E-1,1.3463155E0,1.9086188E0,2.550589E0,3.6273977E-1,1.1480377E0,5.148316E-1,2.5186255E0,1.8317807E-1,3.0394502E0],"split_indices":[5,13,10,5,5,2,5,5,5,24,24,13,21,24,13,24,24,24,21,13,5,13,13,21,24,24,5,13,5,24,13,33,24,33,24,13,24,24,26,28,24,24,24,24,24,24,24,24,26,37,24,24,9,6,21,26,26,30,26,33,12,25,25,0,0,0,0,0,0,0,0,0,0,0,0,0,0,0,0,0,0,0,0,0,0,0,0,0,0,0,0,0,0,0,0,0,0,0,0,0,0,0,0,0,0,0,0,0,0,0,0,0,0,0,0,0,0,0,0,0,0,0,0,0,0,0,0],"split_type":[0,0,0,0,0,0,0,0,0,0,0,0,0,0,0,0,0,0,0,0,0,0,0,0,0,0,0,0,0,0,0,0,0,0,0,0,0,0,0,0,0,0,0,0,0,0,0,0,0,0,0,0,0,0,0,0,0,0,0,0,0,0,0,0,0,0,0,0,0,0,0,0,0,0,0,0,0,0,0,0,0,0,0,0,0,0,0,0,0,0,0,0,0,0,0,0,0,0,0,0,0,0,0,0,0,0,0,0,0,0,0,0,0,0,0,0,0,0,0,0,0,0,0,0,0,0,0],"sum_hessian":[2.386877E6,1.190191E6,1.196686E6,4.59778E5,7.30413E5,7.52348E5,4.44338E5,1.55228E5,3.0455E5,3.57143E5,3.7327E5,4.72589E5,2.79759E5,3.38647E5,1.05691E5,5.1087E4,1.04141E5,1.6573E5,1.3882E5,1.03671E5,2.53472E5,2.1129E4,3.52141E5,2.83626E5,1.88963E5,1.77298E5,1.02461E5,2.15027E5,1.2362E5,8.8298E4,1.7393E4,8.073E3,4.3014E4,5.474E4,4.9401E4,1.59192E5,6.538E3,5.2196E4,8.6624E4,6.3103E4,4.0568E4,5.5008E4,1.98464E5,1.1223E4,9.906E3,2.01323E5,1.50818E5,1.30631E5,1.52995E5,5.4107E4,1.34856E5,1.72904E5,4.394E3,7.7E4,2.5461E4,1.72238E5,4.2789E4,5.1735E4,7.1885E4,8.4761E4,3.537E3,1.0995E4,6.398E3,6.639E3,1.434E3,3.9926E4,3.088E3,3.7709E4,1.7031E4,4.3684E4,5.717E3,3.0647E4,1.28545E5,3.461E3,3.077E3,5.1443E4,7.53E2,8.5654E4,9.7E2,1.0652E4,5.2451E4,7.063E3,3.3505E4,3.3494E4,2.1514E4,1.76792E5,2.1672E4,3.884E3,7.339E3,3.442E3,6.464E3,1.32667E5,6.8656E4,8.2635E4,6.8183E4,1.28008E5,2.623E3,1.50581E5,2.414E3,4.3329E4,1.0778E4,1.21601E5,1.3255E4,8.1414E4,9.149E4,1.166E3,3.228E3,6.9151E4,7.849E3,2.1224E4,4.237E3,1.33865E5,3.8373E4,2.5003E4,1.7786E4,3.3306E4,1.8429E4,2.397E4,4.7915E4,7.3749E4,1.1012E4,1.768E3,1.769E3,1.17E2,1.0878E4,6.7E1,6.331E3],"tree_param":{"num_deleted":"0","num_feature":"39","num_nodes":"127","size_leaf_vector":"1"}},{"base_weights":[8.1648363E-7,-1.9918687E0,2.0825272E0,-3.1710649E0,-8.4457487E-1,1.3561167E0,3.783184E0,-4.010032E0,-2.4720914E0,-1.4538376E0,-2.113791E-1,8.044504E-1,2.1504438E0,3.2875595E0,5.185935E0,-4.7359114E0,-3.537109E0,-1.9685335E0,-3.2567675E0,-1.8706292E0,-9.5548844E-1,7.970355E-1,-4.4561127E-1,9.6527296E-1,-9.269564E-1,3.1020699E0,1.5615128E0,3.6404243E0,2.4298422E0,6.4433775E0,4.7930827E0,-5.826731E0,-4.455511E0,-2.0162687E0,-3.6404943E0,-2.1972113E0,-7.091448E-1,-3.8984077E0,-2.609652E0,-9.0747297E-1,-2.1219296E0,-3.037758E-1,-1.396505E0,-1.8337874E-1,1.1171323E0,-5.9050816E-1,6.749039E-1,1.730787E0,7.2168636E-1,-2.1318371E0,-1.9663069E-1,2.773337E0,4.6173124E0,2.8413975E-1,1.8942637E0,2.016571E0,3.834437E0,1.2260717E0,3.0218556E0,5.6934476E0,6.9542418E0,4.6237392E0,6.9782653E0,-2.1261208E0,-1.639182E0,-9.68952E-1,-1.4032805E0,-4.1778666E-1,-8.256766E-1,-1.1433347E0,-7.932478E-1,-7.368903E-1,-3.4657064E-1,-4.3267745E-1,3.7667237E-3,-1.8212394E0,-1.106004E0,-8.8833916E-1,-6.853286E-1,-4.443323E-1,-9.501142E-2,-1.19278535E-1,-6.915938E-1,-1.9090593E-1,3.2802498E-1,-5.9989226E-1,-2.5846988E-1,3.552188E-1,-9.3712926E-2,2.1335928E-1,4.8142833E-1,-1.553386E-1,-7.989372E-1,4.246203E-1,-5.400347E-2,3.7075478E-1,7.131541E-1,-8.305082E-2,2.9769415E-1,-4.0341738E-1,-9.421523E-1,-2.1865058E-1,3.477019E-1,7.4729145E-1,1.3166974E0,1.7079247E0,1.2337857E0,3.572564E-1,-1.3461515E-1,5.229682E-1,9.6658653E-1,7.254012E-1,-9.291941E-2,1.0990257E0,1.7045804E0,8.875996E-1,5.9869066E-2,1.1698312E0,8.004673E-1,1.6033756E0,2.1492715E0,2.0266547E0,2.6053011E0,1.3163636E0,1.7603805E0,1.9328378E0,2.4755316E0],"categories":[],"categories_nodes":[],"categories_segments":[],"categories_sizes":[],"default_left":[0,0,0,0,0,0,0,0,0,0,0,0,0,0,0,0,0,0,0,0,0,0,0,0,0,0,0,0,0,0,0,0,0,0,0,0,0,0,0,0,0,0,0,0,0,0,0,0,0,0,0,0,0,0,0,0,0,0,0,0,0,0,0,0,0,0,0,0,0,0,0,0,0,0,0,0,0,0,0,0,0,0,0,0,0,0,0,0,0,0,0,0,0,0,0,0,0,0,0,0,0,0,0,0,0,0,0,0,0,0,0,0,0,0,0,0,0,0,0,0,0,0,0,0,0,0,0],"id":3,"left_children":[1,3,5,7,9,11,13,15,17,19,21,23,25,27,29,31,33,35,37,39,41,43,45,47,49,51,53,55,57,59,61,63,65,67,69,71,73,75,77,79,81,83,85,87,89,91,93,95,97,99,101,103,105,107,109,111,113,115,117,119,121,123,125,-1,-1,-1,-1,-1,-1,-1,-1,-1,-1,-1,-1,-1,-1,-1,-1,-1,-1,-1,-1,-1,-1,-1,-1,-1,-1,-1,-1,-1,-1,-1,-1,-1,-1,-1,-1,-1,-1,-1,-1,-1,-1,-1,-1,-1,-1,-1,-1,-1,-1,-1,-1,-1,-1,-1,-1,-1,-1,-1,-1,-1,-1,-1,-1],"loss_changes":[9.901062E6,1.6505085E6,1.441536E6,3.527965E5,2.3855331E5,3.5829238E5,2.427895E5,9.38485E4,1.296755E5,6.5454625E4,7.162352E4,1.3436022E5,1.8780875E5,7.8097E4,4.501E4,3.296625E4,2.6025375E4,5.7572188E4,5.32575E4,4.1534812E4,4.125182E4,1.793764E4,3.995228E4,8.232797E4,3.608743E4,6.3799625E4,8.7988E4,5.759625E4,5.360528E4,8.27475E3,2.56775E4,1.004525E4,2.334375E4,4.8344375E3,2.6344E4,4.5672875E4,1.6255198E4,2.9605688E4,7.2947188E3,1.2034021E4,4.3035438E4,2.691836E4,2.7616656E4,2.4820955E3,8.528129E3,3.2836664E4,1.7838055E4,3.4093625E4,9.051056E4,1.2283547E4,1.842374E4,4.8015125E4,1.2375594E4,2.8428846E4,3.2927062E4,1.822586E4,5.15835E4,4.410851E4,1.56385E4,4.4765312E3,4.3779375E3,1.8897125E4,3.3530625E3,0E0,0E0,0E0,0E0,0E0,0E0,0E0,0E0,0E0,0E0,0E0,0E0,0E0,0E0,0E0,0E0,0E0,0E0,0E0,0E0,0E0,0E0,0E0,0E0,0E0,0E0,0E0,0E0,0E0,0E0,0E0,0E0,0E0,0E0,0E0,0E0,0E0,0E0,0E0,0E0,0E0,0E0,0E0,0E0,0E0,0E0,0E0,0E0,0E0,0E0,0E0,0E0,0E0,0E0,0E0,0E0,0E0,0E0,0E0,0E0,0E0,0E0,0E0,0E0],"parents":[2147483647,0,0,1,1,2,2,3,3,4,4,5,5,6,6,7,7,8,8,9,9,10,10,11,11,12,12,13,13,14,14,15,15,16,16,17,17,18,18,19,19,20,20,21,21,22,22,23,23,24,24,25,25,26,26,27,27,28,28,29,29,30,30,31,31,32,32,33,33,34,34,35,35,36,36,37,37,38,38,39,39,40,40,41,41,42,42,43,43,44,44,45,45,46,46,47,47,48,48,49,49,50,50,51,51,52,52,53,53,54,54,55,55,56,56,57,57,58,58,59,59,60,60,61,61,62,62],"right_children":[2,4,6,8,10,12,14,16,18,20,22,24,26,28,30,32,34,36,38,40,42,44,46,48,50,52,54,56,58,60,62,64,66,68,70,72,74,76,78,80,82,84,86,88,90,92,94,96,98,100,102,104,106,108,110,112,114,116,118,120,122,124,126,-1,-1,-1,-1,-1,-1,-1,-1,-1,-1,-1,-1,-1,-1,-1,-1,-1,-1,-1,-1,-1,-1,-1,-1,-1,-1,-1,-1,-1,-1,-1,-1,-1,-1,-1,-1,-1,-1,-1,-1,-1,-1,-1,-1,-1,-1,-1,-1,-1,-1,-1,-1,-1,-1,-1,-1,-1,-1,-1,-1,-1,-1,-1,-1],"split_conditions":[2.1466667E1,1.45E1,2.8566668E1,1.12E1,1.76E1,2.6216667E1,3.34E1,8.6E0,3.52E2,1.65E1,6E0,7.99E2,7.4E1,3.78E2,-3E0,5.3E0,1.9328351E0,5.9095806E1,3E2,7.030033E0,1.43E2,1.73E1,2.36E1,1.3E1,4.3965088E1,3.07E1,2.26E1,1.9328351E0,4.5142647E1,2.7333333E0,5.385028E1,3.5E0,2.7E1,7.2E1,1.33E1,1.605E1,7.589207E1,7.2E0,1.31E1,1.6966667E1,1.9328351E0,3.0007507E1,2.31E2,6.9245033E0,2.17E1,9.42E2,1.37083435E1,6.8166664E1,7E0,1.5E0,2.2466667E1,9.244255E1,-2.5211146E0,2.8655394E1,7.99E2,1.3727877E-1,3.36E1,2.1699743E1,9.596414E0,4.0283333E1,3.8383335E1,3.73E1,3.57E1,-2.1261208E0,-1.639182E0,-9.68952E-1,-1.4032805E0,-4.1778666E-1,-8.256766E-1,-1.1433347E0,-7.932478E-1,-7.368903E-1,-3.4657064E-1,-4.3267745E-1,3.7667237E-3,-1.8212394E0,-1.106004E0,-8.8833916E-1,-6.853286E-1,-4.443323E-1,-9.501142E-2,-1.19278535E-1,-6.915938E-1,-1.9090593E-1,3.2802498E-1,-5.9989226E-1,-2.5846988E-1,3.552188E-1,-9.3712926E-2,2.1335928E-1,4.8142833E-1,-1.553386E-1,-7.989372E-1,4.246203E-1,-5.400347E-2,3.7075478E-1,7.131541E-1,-8.305082E-2,2.9769415E-1,-4.0341738E-1,-9.421523E-1,-2.1865058E-1,3.477019E-1,7.4729145E-1,1.3166974E0,1.7079247E0,1.2337857E0,3.572564E-1,-1.3461515E-1,5.229682E-1,9.6658653E-1,7.254012E-1,-9.291941E-2,1.0990257E0,1.7045804E0,8.875996E-1,5.9869066E-2,1.1698312E0,8.004673E-1,1.6033756E0,2.1492715E0,2.0266547E0,2.6053011E0,1.3163636E0,1.7603805E0,1.9328378E0,2.4755316E0],"split_indices":[10,5,2,13,21,10,13,5,24,13,24,24,24,24,24,13,25,31,28,32,24,13,21,24,27,13,5,25,29,9,33,5,24,26,21,18,29,5,13,2,25,33,28,32,5,24,32,11,28,9,2,29,23,34,26,37,21,34,32,10,18,2,5,0,0,0,0,0,0,0,0,0,0,0,0,0,0,0,0,0,0,0,0,0,0,0,0,0,0,0,0,0,0,0,0,0,0,0,0,0,0,0,0,0,0,0,0,0,0,0,0,0,0,0,0,0,0,0,0,0,0,0,0,0,0,0,0],"split_type":[0,0,0,0,0,0,0,0,0,0,0,0,0,0,0,0,0,0,0,0,0,0,0,0,0,0,0,0,0,0,0,0,0,0,0,0,0,0,0,0,0,0,0,0,0,0,0,0,0,0,0,0,0,0,0,0,0,0,0,0,0,0,0,0,0,0,0,0,0,0,0,0,0,0,0,0,0,0,0,0,0,0,0,0,0,0,0,0,0,0,0,0,0,0,0,0,0,0,0,0,0,0,0,0,0,0,0,0,0,0,0,0,0,0,0,0,0,0,0,0,0,0,0,0,0,0,0],"sum_hessian":[2.386877E6,1.219993E6,1.166884E6,6.01631E5,6.18362E5,8.17642E5,3.49242E5,2.73431E5,3.282E5,3.15136E5,3.03226E5,4.82526E5,3.35116E5,2.58065E5,9.1177E4,1.07864E5,1.65567E5,1.99912E5,1.28288E5,1.71609E5,1.43527E5,5.7156E4,2.4607E5,4.41516E5,4.101E4,1.28108E5,2.07008E5,1.82841E5,7.5224E4,2.1701E4,6.9476E4,2.2053E4,8.5811E4,1.054E4,1.55027E5,1.6919E5,3.0722E4,6.4414E4,6.3874E4,3.5511E4,1.36098E5,5.7927E4,8.56E4,1.4068E4,4.3088E4,2.17894E5,2.8176E4,1.06576E5,3.3494E5,1.5476E4,2.5534E4,1.05272E5,2.2836E4,4.2781E4,1.64227E5,1.9515E4,1.63326E5,2.48E4,5.0424E4,8.798E3,1.2903E4,6.4482E4,4.994E3,4.925E3,1.7128E4,1.3166E4,7.2645E4,5.707E3,4.833E3,1.32358E5,2.2669E4,1.35497E5,3.3693E4,1.524E4,1.5482E4,5.718E3,5.8696E4,3.0694E4,3.318E4,1.8016E4,1.7495E4,1.3083E4,1.23015E5,4.679E4,1.1137E4,4.0234E4,4.5366E4,1.212E3,1.2856E4,2.3515E4,1.9573E4,2.1051E5,7.384E3,1.5098E4,1.3078E4,6.0361E4,4.6215E4,7.1421E4,2.63519E5,8.694E3,6.782E3,1.8336E4,7.198E3,8.9613E4,1.5659E4,7.289E3,1.5547E4,1.9122E4,2.3659E4,1.47455E5,1.6772E4,1.6643E4,2.872E3,1.49491E5,1.3835E4,9.226E3,1.5574E4,1.448E4,3.5944E4,7.115E3,1.683E3,1.1578E4,1.325E3,5.421E4,1.0272E4,3.52E3,1.474E3],"tree_param":{"num_deleted":"0","num_feature":"39","num_nodes":"127","size_leaf_vector":"1"}},{"base_weights":[5.6705812E-6,-1.6494206E0,1.2589422E0,-2.6410038E0,-1.1234145E0,5.1434845E-1,2.255794E0,-3.2603042E0,-2.2980535E0,-3.500028E-1,-1.418852E0,1.1072402E-1,1.1472474E0,1.776836E0,3.183882E0,-4.214264E0,-2.9930463E0,-1.649102E0,-2.5029268E0,-5.554836E-1,1.2400434E0,-1.8698134E0,-9.9186563E-1,-1.2796848E-1,4.9883983E-1,2.3133106E0,8.991339E-1,1.4274421E0,2.2709308E0,4.213657E0,2.9019103E0,-4.140086E0,-7.203159E0,-2.897806E0,-5.190767E0,-2.2823792E0,-1.1842526E0,-2.6273575E0,-1.3710088E0,-2.5754976E0,-4.5835304E-1,2.5165389E0,8.446341E-1,-1.7161567E0,-2.974105E0,-1.4955287E0,-6.4196754E-1,1.1175319E0,-2.5050172E-1,7.629097E-1,1.23954214E-1,3.664854E0,1.952076E0,1.0301512E0,-2.1644634E-1,1.5017214E0,-1.3318309E0,3.110024E0,2.0825639E0,4.973624E0,3.809724E0,2.5895133E0,3.7113261E0,-1.4724257E0,-1.1559219E0,-2.4906993E0,-1.9060941E0,-7.755063E-1,-9.983213E-1,-1.7504009E0,-8.568916E-1,-9.944303E-1,-5.940456E-1,-5.302972E-1,-2.1105723E-1,-7.5768054E-1,-1.2684631E0,-5.698431E-1,-9.722822E-2,-1.124839E0,-1.9866878E-1,-2.1887073E-1,3.043482E-2,4.232385E-1,9.1394436E-1,1.8816288E-1,7.8357685E-1,-6.7192245E-1,-4.149724E-1,-1.4271855E0,-7.9928976E-1,-3.8821134E-1,-9.659494E-1,-4.7523003E-2,-2.7420935E-1,-2.9670421E-2,5.939398E-1,-5.7954494E-2,-8.344237E-1,1.8396607E-1,6.151595E-1,6.127765E-2,-4.4565263E-1,5.6762874E-1,1.2461926E0,4.5877662E-1,7.749262E-1,1.781807E-1,3.8158435E-1,-4.7665417E-1,-1.9069742E-2,9.790703E-2,4.8363617E-1,-4.5819905E-2,-5.129076E-1,8.480355E-1,1.1381831E0,2.3648208E-1,6.531103E-1,1.3832309E0,1.767402E0,1.1068989E0,1.7299541E0,5.5518794E-1,8.6298615E-1,8.6676556E-1,1.3078432E0],"categories":[],"categories_nodes":[],"categories_segments":[],"categories_sizes":[],"default_left":[0,0,0,0,0,0,0,0,0,0,0,0,0,0,0,0,0,0,0,0,0,0,0,0,0,0,0,0,0,0,0,0,0,0,0,0,0,0,0,0,0,0,0,0,0,0,0,0,0,0,0,0,0,0,0,0,0,0,0,0,0,0,0,0,0,0,0,0,0,0,0,0,0,0,0,0,0,0,0,0,0,0,0,0,0,0,0,0,0,0,0,0,0,0,0,0,0,0,0,0,0,0,0,0,0,0,0,0,0,0,0,0,0,0,0,0,0,0,0,0,0,0,0,0,0,0,0],"id":4,"left_children":[1,3,5,7,9,11,13,15,17,19,21,23,25,27,29,31,33,35,37,39,41,43,45,47,49,51,53,55,57,59,61,63,65,67,69,71,73,75,77,79,81,83,85,87,89,91,93,95,97,99,101,103,105,107,109,111,113,115,117,119,121,123,125,-1,-1,-1,-1,-1,-1,-1,-1,-1,-1,-1,-1,-1,-1,-1,-1,-1,-1,-1,-1,-1,-1,-1,-1,-1,-1,-1,-1,-1,-1,-1,-1,-1,-1,-1,-1,-1,-1,-1,-1,-1,-1,-1,-1,-1,-1,-1,-1,-1,-1,-1,-1,-1,-1,-1,-1,-1,-1,-1,-1,-1,-1,-1,-1],"loss_changes":[4.9564095E6,5.38894E5,1.00476425E6,7.6052E4,1.5425412E5,1.9794644E5,2.5727725E5,3.2527375E4,3.0639375E4,6.09677E4,9.405894E4,4.3832188E4,8.729641E4,6.5904E4,5.7196125E4,6.1623438E3,2.0854E4,1.6278469E4,2.46695E4,3.2421113E4,1.0776559E4,4.0306938E4,4.4218312E4,4.471165E4,1.783661E4,2.5838969E4,3.636536E4,4.583797E4,2.4988562E4,1.2981125E4,3.9100625E4,5.9888125E3,5.7753906E2,1.28425625E4,6.2064453E3,7.298047E3,8.94457E3,2.569875E4,9.59957E3,1.7025281E4,2.3938246E4,2.9549043E3,6.2639746E3,3.6350312E4,1.6018016E4,3.5731625E4,1.9478527E4,2.7524133E4,3.8694234E4,2.0374047E4,9.624703E3,9.672375E3,1.1142078E4,2.3483766E4,5.4865186E3,2.8257812E4,2.6119111E3,5.6050312E3,1.578975E4,4.8659062E3,6.4760938E3,2.3670125E4,2.2937188E4,0E0,0E0,0E0,0E0,0E0,0E0,0E0,0E0,0E0,0E0,0E0,0E0,0E0,0E0,0E0,0E0,0E0,0E0,0E0,0E0,0E0,0E0,0E0,0E0,0E0,0E0,0E0,0E0,0E0,0E0,0E0,0E0,0E0,0E0,0E0,0E0,0E0,0E0,0E0,0E0,0E0,0E0,0E0,0E0,0E0,0E0,0E0,0E0,0E0,0E0,0E0,0E0,0E0,0E0,0E0,0E0,0E0,0E0,0E0,0E0,0E0,0E0,0E0,0E0],"parents":[2147483647,0,0,1,1,2,2,3,3,4,4,5,5,6,6,7,7,8,8,9,9,10,10,11,11,12,12,13,13,14,14,15,15,16,16,17,17,18,18,19,19,20,20,21,21,22,22,23,23,24,24,25,25,26,26,27,27,28,28,29,29,30,30,31,31,32,32,33,33,34,34,35,35,36,36,37,37,38,38,39,39,40,40,41,41,42,42,43,43,44,44,45,45,46,46,47,47,48,48,49,49,50,50,51,51,52,52,53,53,54,54,55,55,56,56,57,57,58,58,59,59,60,60,61,61,62,62],"right_children":[2,4,6,8,10,12,14,16,18,20,22,24,26,28,30,32,34,36,38,40,42,44,46,48,50,52,54,56,58,60,62,64,66,68,70,72,74,76,78,80,82,84,86,88,90,92,94,96,98,100,102,104,106,108,110,112,114,116,118,120,122,124,126,-1,-1,-1,-1,-1,-1,-1,-1,-1,-1,-1,-1,-1,-1,-1,-1,-1,-1,-1,-1,-1,-1,-1,-1,-1,-1,-1,-1,-1,-1,-1,-1,-1,-1,-1,-1,-1,-1,-1,-1,-1,-1,-1,-1,-1,-1,-1,-1,-1,-1,-1,-1,-1,-1,-1,-1,-1,-1,-1,-1,-1,-1,-1,-1],"split_conditions":[1.87E1,1.21E1,2.6083334E1,8.866667E0,2.7E1,2.36E1,3.09E1,6.366667E0,1.3E1,2.17E1,1.63E1,2.16E1,-3E0,2.77E1,-3E0,9.42E2,8.19E2,1.4856691E1,1.5766666E1,1.2430738E0,-3.33E2,8.19E2,2.64E2,1.9328351E0,1.37083435E1,-3.33E2,8.19E2,9.42E2,-3E0,-2.1765187E0,3.35E1,3.5E0,5.4166665E0,3.72E2,5.846085E1,-2.2136314E0,1.07E2,9.42E2,3.4629234E1,-4.874821E-1,1.62E1,6.6166664E1,2.86E1,2.7E1,8E1,4.75E2,3.52E2,6.8833336E1,9.42E2,2.64E1,7.99E2,-3.0380896E-1,2.55E1,8E1,8E1,-3E0,-4.2671254E-1,4.3166666E0,6E0,3.73E1,3.865E1,1.5347674E1,8E1,-1.4724257E0,-1.1559219E0,-2.4906993E0,-1.9060941E0,-7.755063E-1,-9.983213E-1,-1.7504009E0,-8.568916E-1,-9.944303E-1,-5.940456E-1,-5.302972E-1,-2.1105723E-1,-7.5768054E-1,-1.2684631E0,-5.698431E-1,-9.722822E-2,-1.124839E0,-1.9866878E-1,-2.1887073E-1,3.043482E-2,4.232385E-1,9.1394436E-1,1.8816288E-1,7.8357685E-1,-6.7192245E-1,-4.149724E-1,-1.4271855E0,-7.9928976E-1,-3.8821134E-1,-9.659494E-1,-4.7523003E-2,-2.7420935E-1,-2.9670421E-2,5.939398E-1,-5.7954494E-2,-8.344237E-1,1.8396607E-1,6.151595E-1,6.127765E-2,-4.4565263E-1,5.6762874E-1,1.2461926E0,4.5877662E-1,7.749262E-1,1.781807E-1,3.8158435E-1,-4.7665417E-1,-1.9069742E-2,9.790703E-2,4.8363617E-1,-4.5819905E-2,-5.129076E-1,8.480355E-1,1.1381831E0,2.3648208E-1,6.531103E-1,1.3832309E0,1.767402E0,1.1068989E0,1.7299541E0,5.5518794E-1,8.6298615E-1,8.6676556E-1,1.3078432E0],"split_indices":[5,13,2,18,24,13,13,10,24,13,4,21,24,21,24,24,24,33,18,27,24,24,26,25,32,24,24,24,24,23,5,13,18,24,25,6,30,24,34,14,21,3,12,28,26,24,24,3,24,21,26,14,21,30,26,28,22,9,24,13,2,33,26,0,0,0,0,0,0,0,0,0,0,0,0,0,0,0,0,0,0,0,0,0,0,0,0,0,0,0,0,0,0,0,0,0,0,0,0,0,0,0,0,0,0,0,0,0,0,0,0,0,0,0,0,0,0,0,0,0,0,0,0,0,0,0,0],"split_type":[0,0,0,0,0,0,0,0,0,0,0,0,0,0,0,0,0,0,0,0,0,0,0,0,0,0,0,0,0,0,0,0,0,0,0,0,0,0,0,0,0,0,0,0,0,0,0,0,0,0,0,0,0,0,0,0,0,0,0,0,0,0,0,0,0,0,0,0,0,0,0,0,0,0,0,0,0,0,0,0,0,0,0,0,0,0,0,0,0,0,0,0,0,0,0,0,0,0,0,0,0,0,0,0,0,0,0,0,0,0,0,0,0,0,0,0,0,0,0,0,0,0,0,0,0,0,0],"sum_hessian":[2.386877E6,1.033202E6,1.353675E6,3.58113E5,6.75089E5,7.74882E5,5.78793E5,1.2763E5,2.30483E5,1.866E5,4.88489E5,4.73142E5,3.0174E5,3.81774E5,1.97019E5,2.7928E4,9.9702E4,5.5306E4,1.75177E5,1.65246E5,2.1354E4,2.37573E5,2.50916E5,2.92967E5,1.80175E5,5.2938E4,2.48802E5,2.23636E5,1.58138E5,4.2348E4,1.54671E5,2.7254E4,6.74E2,9.5563E4,4.139E3,2.341E4,3.1896E4,1.57826E5,1.7351E4,7.58E3,1.57666E5,5.049E3,1.6305E4,2.08556E5,2.9017E4,1.02856E5,1.4806E5,2.624E4,2.66727E5,1.05711E5,7.4464E4,1.1163E4,4.1775E4,2.22653E5,2.6149E4,2.17774E5,5.862E3,2.8989E4,1.29149E5,1.4693E4,2.7655E4,1.11602E5,4.3069E4,7.41E3,1.9844E4,2.9E2,3.84E2,5.5322E4,4.0241E4,3.243E3,8.96E2,5.299E3,1.8111E4,1.4408E4,1.7488E4,1.48396E5,9.43E3,1.153E4,5.821E3,4.697E3,2.883E3,1.06209E5,5.1457E4,1.637E3,3.412E3,1.452E4,1.785E3,8.1062E4,1.27494E5,4.293E3,2.4724E4,9.2096E4,1.076E4,5.331E4,9.475E4,1.0885E4,1.5355E4,2.60821E5,5.906E3,9.4703E4,1.1008E4,7.0926E4,3.538E3,2.415E3,8.748E3,2.5016E4,1.6759E4,7.9405E4,1.43248E5,2.62E3,2.3529E4,1.8699E4,1.99075E5,1.423E3,4.439E3,2.0503E4,8.486E3,8.786E3,1.20363E5,1.0534E4,4.159E3,2.6059E4,1.596E3,3.1232E4,8.037E4,1.8989E4,2.408E4],"tree_param":{"num_deleted":"0","num_feature":"39","num_nodes":"127","size_leaf_vector":"1"}},{"base_weights":[1.975862E-6,-9.089319E-1,1.1474046E0,-1.522159E0,-2.493028E-1,7.724223E-1,1.9661347E0,-1.9859711E0,-1.117972E0,5.297426E-1,-4.2517394E-1,4.392716E-1,1.1921693E0,2.1900203E0,1.105397E0,-2.5932784E0,-1.8103151E0,-1.0880204E0,-4.2134423E0,9.079135E-2,1.0848691E0,-1.7924444E-1,-7.508541E-1,3.912215E-1,2.4070556E0,1.8779062E0,1.0537604E0,1.923957E0,2.916987E0,6.332286E-1,1.8401418E0,-2.2187016E0,-3.0427072E0,-2.82044E-1,-1.8571259E0,-8.8696843E-1,-1.4911127E0,-5.1603026E0,-3.032452E0,4.888763E-1,-3.8443112E-1,2.0922787E0,7.995663E-1,-6.1393887E-1,1.1069054E-1,-1.0231156E0,-2.446861E-1,9.4780684E-1,2.6304662E-1,2.5095096E0,1.073889E0,1.3798022E0,2.0343912E0,1.7923604E0,9.752281E-1,1.5825678E0,2.3469296E0,-1.7838173E0,2.9703794E0,2.589314E-1,1.4104471E0,2.2068522E0,3.9829555E-1,-1.8241152E-1,-6.974827E-1,-1.0272745E0,-7.0499516E-1,4.4855306E-1,-1.3182452E-1,-5.6696624E-1,1.6345148E-3,-6.7019725E-1,-2.5051212E-1,-6.858339E-1,-3.3502758E-1,-1.1683254E0,-1.6611451E0,-1.0296956E0,-6.7594016E-1,2.0941143E-1,-1.933749E-2,-3.5590994E-1,-5.1252693E-2,1.8177798E-1,7.3025775E-1,4.1467503E-2,3.2304734E-1,-2.9504564E-1,-1.2659475E-2,8.79228E-3,4.3023732E-1,-3.690683E-1,4.0325016E-2,-1.8736584E-1,-3.8532853E-2,6.2369215E-1,2.0656593E-1,1.1516136E-2,2.3491326E-1,8.049061E-1,6.983887E-1,1.9330856E-1,4.2857745E-1,4.0083882E-1,6.972466E-1,3.4363002E-1,6.451092E-1,3.473083E-1,6.9684577E-1,2.6515466E-1,4.957674E-1,6.5349495E-1,4.0593228E-1,4.7287124E-1,7.9783607E-1,-2.1506782E-1,-1.1428562E0,8.4990823E-1,1.2718029E0,2.0114375E-2,2.5246271E-1,2.9869857E-1,4.8497483E-1,7.475542E-1,4.7677842E-1,6.894056E-1,7.413446E-2],"categories":[],"categories_nodes":[],"categories_segments":[],"categories_sizes":[],"default_left":[0,0,0,0,0,0,0,0,0,0,0,0,0,0,0,0,0,0,0,0,0,0,0,0,0,0,0,0,0,0,0,0,0,0,0,0,0,0,0,0,0,0,0,0,0,0,0,0,0,0,0,0,0,0,0,0,0,0,0,0,0,0,0,0,0,0,0,0,0,0,0,0,0,0,0,0,0,0,0,0,0,0,0,0,0,0,0,0,0,0,0,0,0,0,0,0,0,0,0,0,0,0,0,0,0,0,0,0,0,0,0,0,0,0,0,0,0,0,0,0,0,0,0,0,0,0,0],"id":5,"left_children":[1,3,5,7,9,11,13,15,17,19,21,23,25,27,29,31,33,35,37,39,41,43,45,47,49,51,53,55,57,59,61,63,65,67,69,71,73,75,77,79,81,83,85,87,89,91,93,95,97,99,101,103,105,107,109,111,113,115,117,119,121,123,125,-1,-1,-1,-1,-1,-1,-1,-1,-1,-1,-1,-1,-1,-1,-1,-1,-1,-1,-1,-1,-1,-1,-1,-1,-1,-1,-1,-1,-1,-1,-1,-1,-1,-1,-1,-1,-1,-1,-1,-1,-1,-1,-1,-1,-1,-1,-1,-1,-1,-1,-1,-1,-1,-1,-1,-1,-1,-1,-1,-1,-1,-1,-1,-1],"loss_changes":[2.4893075E6,5.387321E5,3.2390525E5,1.29386625E5,8.791304E4,1.0118981E5,6.3864375E4,3.4280375E4,3.4189E4,2.879602E4,4.1926938E4,3.8143875E4,3.0388406E4,5.0865125E4,2.3732906E4,1.21310625E4,1.7833562E4,2.9601312E4,3.9361836E3,1.2484861E4,1.49963125E4,3.7589953E4,3.1037055E4,2.8094324E4,1.3107383E3,4.1885625E3,1.5451844E4,2.7799188E4,1.7691375E4,1.2116064E4,1.415032E4,6.7284844E3,8.653969E3,2.0731086E3,1.4759875E4,1.7045688E4,3.6174188E4,9.134453E2,4.8307324E2,4.156371E3,5.152546E3,5.851004E3,7.4566465E3,2.521384E4,1.9270418E4,3.5108953E4,3.4782944E3,2.1615883E4,3.7394586E4,2.7501953E2,1.0389923E2,5.271914E2,4.21575E3,8.617266E3,1.49038125E4,1.45625E4,2.0708312E4,1.7089966E3,1.2132E4,3.142792E3,1.155918E3,3.7515781E3,1.5583616E3,0E0,0E0,0E0,0E0,0E0,0E0,0E0,0E0,0E0,0E0,0E0,0E0,0E0,0E0,0E0,0E0,0E0,0E0,0E0,0E0,0E0,0E0,0E0,0E0,0E0,0E0,0E0,0E0,0E0,0E0,0E0,0E0,0E0,0E0,0E0,0E0,0E0,0E0,0E0,0E0,0E0,0E0,0E0,0E0,0E0,0E0,0E0,0E0,0E0,0E0,0E0,0E0,0E0,0E0,0E0,0E0,0E0,0E0,0E0,0E0,0E0,0E0,0E0,0E0],"parents":[2147483647,0,0,1,1,2,2,3,3,4,4,5,5,6,6,7,7,8,8,9,9,10,10,11,11,12,12,13,13,14,14,15,15,16,16,17,17,18,18,19,19,20,20,21,21,22,22,23,23,24,24,25,25,26,26,27,27,28,28,29,29,30,30,31,31,32,32,33,33,34,34,35,35,36,36,37,37,38,38,39,39,40,40,41,41,42,42,43,43,44,44,45,45,46,46,47,47,48,48,49,49,50,50,51,51,52,52,53,53,54,54,55,55,56,56,57,57,58,58,59,59,60,60,61,61,62,62],"right_children":[2,4,6,8,10,12,14,16,18,20,22,24,26,28,30,32,34,36,38,40,42,44,46,48,50,52,54,56,58,60,62,64,66,68,70,72,74,76,78,80,82,84,86,88,90,92,94,96,98,100,102,104,106,108,110,112,114,116,118,120,122,124,126,-1,-1,-1,-1,-1,-1,-1,-1,-1,-1,-1,-1,-1,-1,-1,-1,-1,-1,-1,-1,-1,-1,-1,-1,-1,-1,-1,-1,-1,-1,-1,-1,-1,-1,-1,-1,-1,-1,-1,-1,-1,-1,-1,-1,-1,-1,-1,-1,-1,-1,-1,-1,-1,-1,-1,-1,-1,-1,-1,-1,-1,-1,-1,-1],"split_conditions":[2.1833334E1,1.645E1,2.91E1,1.16E1,6E0,2.47E1,4.91E2,7.616667E0,8.19E2,2.09E1,3.78E2,5.385028E1,-3E0,3.4E1,3.1633333E1,3.78E2,-2.53E2,3.72E2,4.9666668E1,2.4333334E0,-3.33E2,1.85E2,3.59E2,6.9245033E0,9.0617615E-1,2.39E1,4.7990026E0,1.01E2,1.9328351E0,3.52E2,9.42E2,-2.53E2,6.73E2,-3.002559E0,5.385028E1,8E0,8E1,1.1307122E0,-6.0431904E-1,7.721566E-1,-2.8500764E0,-3.9360917E-1,-2.1268682E0,1.6008667E1,9.244255E1,7.99E2,1.73E1,-1.99E2,2.1961248E1,-4.2889193E-1,3.5166668E1,4.8286834E0,-4.495474E-1,1.6600078E0,3.01E1,-3E0,2.6836023E1,5.794211E-1,4.1E1,3.43E1,2.7583334E1,8.19E2,1.6666666E0,-1.8241152E-1,-6.974827E-1,-1.0272745E0,-7.0499516E-1,4.4855306E-1,-1.3182452E-1,-5.6696624E-1,1.6345148E-3,-6.7019725E-1,-2.5051212E-1,-6.858339E-1,-3.3502758E-1,-1.1683254E0,-1.6611451E0,-1.0296956E0,-6.7594016E-1,2.0941143E-1,-1.933749E-2,-3.5590994E-1,-5.1252693E-2,1.8177798E-1,7.3025775E-1,4.1467503E-2,3.2304734E-1,-2.9504564E-1,-1.2659475E-2,8.79228E-3,4.3023732E-1,-3.690683E-1,4.0325016E-2,-1.8736584E-1,-3.8532853E-2,6.2369215E-1,2.0656593E-1,1.1516136E-2,2.3491326E-1,8.049061E-1,6.983887E-1,1.9330856E-1,4.2857745E-1,4.0083882E-1,6.972466E-1,3.4363002E-1,6.451092E-1,3.473083E-1,6.9684577E-1,2.6515466E-1,4.957674E-1,6.5349495E-1,4.0593228E-1,4.7287124E-1,7.9783607E-1,-2.1506782E-1,-1.1428562E0,8.4990823E-1,1.2718029E0,2.0114375E-2,2.5246271E-1,2.9869857E-1,4.8497483E-1,7.475542E-1,4.7677842E-1,6.894056E-1,7.413446E-2],"split_indices":[2,10,13,5,24,21,24,2,26,13,24,33,24,13,18,24,24,24,3,9,24,26,28,32,15,13,31,28,25,28,24,24,28,22,33,13,26,15,14,38,15,14,15,33,31,26,13,26,33,38,3,14,14,22,21,24,27,37,12,13,18,24,9,0,0,0,0,0,0,0,0,0,0,0,0,0,0,0,0,0,0,0,0,0,0,0,0,0,0,0,0,0,0,0,0,0,0,0,0,0,0,0,0,0,0,0,0,0,0,0,0,0,0,0,0,0,0,0,0,0,0,0,0,0,0,0,0],"split_type":[0,0,0,0,0,0,0,0,0,0,0,0,0,0,0,0,0,0,0,0,0,0,0,0,0,0,0,0,0,0,0,0,0,0,0,0,0,0,0,0,0,0,0,0,0,0,0,0,0,0,0,0,0,0,0,0,0,0,0,0,0,0,0,0,0,0,0,0,0,0,0,0,0,0,0,0,0,0,0,0,0,0,0,0,0,0,0,0,0,0,0,0,0,0,0,0,0,0,0,0,0,0,0,0,0,0,0,0,0,0,0,0,0,0,0,0,0,0,0,0,0,0,0,0,0,0,0],"sum_hessian":[2.386877E6,1.331839E6,1.055038E6,6.90195E5,6.41644E5,7.23619E5,3.31419E5,3.2139E5,3.68805E5,1.18174E5,5.2347E5,4.03425E5,3.20194E5,2.63007E5,6.8412E4,7.21E4,2.4929E5,3.65272E5,3.533E3,6.5993E4,5.2181E4,2.98253E5,2.25217E5,3.9381E5,9.615E3,5.3772E4,2.66422E5,1.92542E5,7.0465E4,4.1649E4,2.6763E4,3.9328E4,3.2772E4,7.409E3,2.41881E5,2.43716E5,1.21556E5,1.959E3,1.574E3,3.5911E4,3.0082E4,1.1515E4,4.0666E4,1.19335E5,1.78918E5,1.46445E5,7.8772E4,7.3713E4,3.20097E5,8.928E3,6.87E2,1.2857E4,4.0915E4,2.5603E4,2.40819E5,1.06549E5,8.5993E4,7.91E2,6.9674E4,2.8112E4,1.3537E4,2.1336E4,5.427E3,2.434E3,3.6894E4,2.113E4,1.1642E4,6.02E2,6.807E3,2.377E5,4.181E3,9.045E3,2.34671E5,3.8913E4,8.2643E4,4.52E2,1.507E3,1.038E3,5.36E2,2.606E4,9.851E3,6.326E3,2.3756E4,2.154E3,9.361E3,1.2013E4,2.8653E4,7.2484E4,4.6851E4,1.68554E5,1.0364E4,1.24219E5,2.2226E4,1.8456E4,6.0316E4,1.3743E4,5.997E4,2.23526E5,9.6571E4,4.558E3,4.37E3,3.12E2,3.75E2,1.2291E4,5.66E2,4.723E3,3.6192E4,1.1658E4,1.3945E4,2.12194E5,2.8625E4,2.9625E4,7.6924E4,2.4812E4,6.1181E4,5.19E2,2.72E2,6.2872E4,6.802E3,2.1148E4,6.964E3,4.496E3,9.041E3,1.4597E4,6.739E3,3.99E2,5.028E3],"tree_param":{"num_deleted":"0","num_feature":"39","num_nodes":"127","size_leaf_vector":"1"}},{"base_weights":[3.2592097E-6,-7.6303995E-1,7.0988935E-1,-1.1711065E0,-3.3278197E-1,2.6231775E-1,1.1020732E0,-1.6732293E0,-9.824121E-1,-5.707604E-1,2.4664093E-2,9.172439E-1,1.5349922E-1,8.6991686E-1,1.5718415E0,-4.8715565E-1,-1.7349722E0,-9.127713E-1,-2.2387555E0,2.2928011E-1,-6.735834E-1,4.4736522E-1,-3.0294666E-1,1.97877E0,7.892121E-1,-2.909299E-2,3.8894188E-1,6.223049E-1,1.1460147E0,1.4347477E0,2.5012698E0,1.0040995E-1,-1.1291289E0,-1.283171E0,-1.8913342E0,-1.849681E0,-8.2321364E-1,-3.2802315E0,-1.7904441E0,6.7090744E-1,-6.177086E-1,-6.103071E-1,-1.666555E0,2.256335E-1,1.3324796E0,-5.655493E-1,7.859244E-2,9.334926E-1,2.434222E0,5.3580135E-1,1.2444181E0,6.383169E-1,-1.0987106E-1,4.7140848E-2,5.709282E-1,8.724404E-1,1.6079525E-2,1.4282678E0,8.252171E-1,2.3516352E-1,1.502774E0,2.0789778E0,3.23837E0,1.23659074E-1,-2.4775241E-1,-2.9903734E-1,-7.5422376E-1,-4.9999455E-1,-2.1897498E-1,-6.313036E-1,-4.5637488E-1,-3.9100933E-1,-7.438304E-1,-1.6454127E-1,-3.2864803E-1,-1.3292594E0,-8.7721115E-1,-8.1046873E-1,-4.3841323E-1,3.701107E-1,-2.6179262E-2,-2.7299652E-1,-1.572542E-2,-1.9978116E-1,-4.7887083E-2,-7.512856E-1,-4.3322513E-1,-1.7518995E-2,2.0472874E-1,4.6450955E-1,1.676884E-1,-2.7701226E-1,-1.2992999E-1,9.1353245E-2,-6.8946555E-2,3.3094144E-1,-1.05950065E-1,8.207862E-1,5.185943E-1,-2.024254E-1,1.9596457E-1,5.546845E-1,3.2511115E-1,7.6220274E-2,3.346389E-1,-5.7112575E-1,-2.5337962E-2,3.586596E-2,-4.5916605E-1,2.3086967E-1,1.1752219E-1,2.951634E-1,9.7696096E-2,7.17342E-2,-2.921029E-1,-3.3011177E-1,4.5012552E-1,3.7632897E-1,1.669552E-1,1.6254844E-1,-4.3382552E-1,5.302829E-1,3.2205263E-1,6.913393E-1,3.0535856E-1,-4.8725882E-1,1.0110618E0],"categories":[],"categories_nodes":[],"categories_segments":[],"categories_sizes":[],"default_left":[0,0,0,0,0,0,0,0,0,0,0,0,0,0,0,0,0,0,0,0,0,0,0,0,0,0,0,0,0,0,0,0,0,0,0,0,0,0,0,0,0,0,0,0,0,0,0,0,0,0,0,0,0,0,0,0,0,0,0,0,0,0,0,0,0,0,0,0,0,0,0,0,0,0,0,0,0,0,0,0,0,0,0,0,0,0,0,0,0,0,0,0,0,0,0,0,0,0,0,0,0,0,0,0,0,0,0,0,0,0,0,0,0,0,0,0,0,0,0,0,0,0,0,0,0,0,0],"id":6,"left_children":[1,3,5,7,9,11,13,15,17,19,21,23,25,27,29,31,33,35,37,39,41,43,45,47,49,51,53,55,57,59,61,63,65,67,69,71,73,75,77,79,81,83,85,87,89,91,93,95,97,99,101,103,105,107,109,111,113,115,117,119,121,123,125,-1,-1,-1,-1,-1,-1,-1,-1,-1,-1,-1,-1,-1,-1,-1,-1,-1,-1,-1,-1,-1,-1,-1,-1,-1,-1,-1,-1,-1,-1,-1,-1,-1,-1,-1,-1,-1,-1,-1,-1,-1,-1,-1,-1,-1,-1,-1,-1,-1,-1,-1,-1,-1,-1,-1,-1,-1,-1,-1,-1,-1,-1,-1,-1],"loss_changes":[1.2929098E6,2.0197438E5,2.1704475E5,5.5938375E4,4.7632707E4,4.1155613E4,7.18725E4,1.1809E4,3.7544938E4,2.7653188E4,3.0992973E4,1.1180898E4,2.128866E4,3.0152781E4,2.776975E4,3.0105576E3,1.0826469E4,3.4115812E4,1.0517234E4,1.4320676E4,1.8714812E4,1.917822E4,1.2632899E4,4.2133594E3,8.469203E3,1.5036366E4,1.3454318E4,3.5260484E4,1.8880938E4,1.55004375E4,8.714156E3,1.2040299E3,6.965293E2,8.360879E3,8.97375E3,1.2201758E4,2.7762703E4,2.7662344E3,4.7206016E3,1.0737461E4,2.1678423E3,7.0206797E3,3.3219883E3,1.0138992E4,3.2681562E3,3.5391016E3,3.5816484E3,5.873335E2,1.3081914E3,6.704839E3,2.549039E3,5.520542E3,1.1340983E4,8.585889E3,5.0235586E3,1.0029781E4,1.4993769E4,2.0240219E4,1.1256141E4,5.257115E3,2.0434E4,4.2601953E3,6.546211E3,0E0,0E0,0E0,0E0,0E0,0E0,0E0,0E0,0E0,0E0,0E0,0E0,0E0,0E0,0E0,0E0,0E0,0E0,0E0,0E0,0E0,0E0,0E0,0E0,0E0,0E0,0E0,0E0,0E0,0E0,0E0,0E0,0E0,0E0,0E0,0E0,0E0,0E0,0E0,0E0,0E0,0E0,0E0,0E0,0E0,0E0,0E0,0E0,0E0,0E0,0E0,0E0,0E0,0E0,0E0,0E0,0E0,0E0,0E0,0E0,0E0,0E0,0E0,0E0],"parents":[2147483647,0,0,1,1,2,2,3,3,4,4,5,5,6,6,7,7,8,8,9,9,10,10,11,11,12,12,13,13,14,14,15,15,16,16,17,17,18,18,19,19,20,20,21,21,22,22,23,23,24,24,25,25,26,26,27,27,28,28,29,29,30,30,31,31,32,32,33,33,34,34,35,35,36,36,37,37,38,38,39,39,40,40,41,41,42,42,43,43,44,44,45,45,46,46,47,47,48,48,49,49,50,50,51,51,52,52,53,53,54,54,55,55,56,56,57,57,58,58,59,59,60,60,61,61,62,62],"right_children":[2,4,6,8,10,12,14,16,18,20,22,24,26,28,30,32,34,36,38,40,42,44,46,48,50,52,54,56,58,60,62,64,66,68,70,72,74,76,78,80,82,84,86,88,90,92,94,96,98,100,102,104,106,108,110,112,114,116,118,120,122,124,126,-1,-1,-1,-1,-1,-1,-1,-1,-1,-1,-1,-1,-1,-1,-1,-1,-1,-1,-1,-1,-1,-1,-1,-1,-1,-1,-1,-1,-1,-1,-1,-1,-1,-1,-1,-1,-1,-1,-1,-1,-1,-1,-1,-1,-1,-1,-1,-1,-1,-1,-1,-1,-1,-1,-1,-1,-1,-1,-1,-1,-1,-1,-1,-1],"split_conditions":[1.94E1,1.39E1,2.45E1,9.4E0,3.72E2,-3E0,2.98E1,1.9328351E0,8.19E2,1.9328351E0,3.52E2,-3.33E2,2.2E1,2.64E2,3.645E1,7.2E1,7.0709934E0,3.382091E0,8E1,8.660254E-1,9.42E2,9.244255E1,9.42E2,4.2610765E-3,4.2116737E0,4.7990026E0,1.85E2,2.31E2,3.52E2,1.9328351E0,3.53E1,2.0666666E0,1.34E1,9.55E0,5.507705E1,2.6265707E1,2.64E2,7.0333336E1,9.066667E0,7.498264E-1,7.6666664E1,4.331385E0,-1.5387703E0,1.8836161E0,7.040655E-1,-3E0,4.91E2,7.6235366E-1,1.8836161E0,-3.2447462E0,-1.1826966E0,2.64E2,4.844032E0,5.53E2,3.52E2,3.6171374E-1,4.75E2,2.36E1,9.596414E0,7.7386476E-2,3.52E2,4.91E2,1.9328351E0,1.23659074E-1,-2.4775241E-1,-2.9903734E-1,-7.5422376E-1,-4.9999455E-1,-2.1897498E-1,-6.313036E-1,-4.5637488E-1,-3.9100933E-1,-7.438304E-1,-1.6454127E-1,-3.2864803E-1,-1.3292594E0,-8.7721115E-1,-8.1046873E-1,-4.3841323E-1,3.701107E-1,-2.6179262E-2,-2.7299652E-1,-1.572542E-2,-1.9978116E-1,-4.7887083E-2,-7.512856E-1,-4.3322513E-1,-1.7518995E-2,2.0472874E-1,4.6450955E-1,1.676884E-1,-2.7701226E-1,-1.2992999E-1,9.1353245E-2,-6.8946555E-2,3.3094144E-1,-1.05950065E-1,8.207862E-1,5.185943E-1,-2.024254E-1,1.9596457E-1,5.546845E-1,3.2511115E-1,7.6220274E-2,3.346389E-1,-5.7112575E-1,-2.5337962E-2,3.586596E-2,-4.5916605E-1,2.3086967E-1,1.1752219E-1,2.951634E-1,9.7696096E-2,7.17342E-2,-2.921029E-1,-3.3011177E-1,4.5012552E-1,3.7632897E-1,1.669552E-1,1.6254844E-1,-4.3382552E-1,5.302829E-1,3.2205263E-1,6.913393E-1,3.0535856E-1,-4.8725882E-1,1.0110618E0],"split_indices":[21,21,5,13,30,24,5,25,24,25,24,24,5,26,2,26,32,29,26,35,24,29,30,14,6,31,26,24,24,25,21,1,5,2,27,34,24,3,2,38,3,6,15,22,38,28,24,38,22,15,23,24,31,24,24,37,24,13,32,37,24,24,25,0,0,0,0,0,0,0,0,0,0,0,0,0,0,0,0,0,0,0,0,0,0,0,0,0,0,0,0,0,0,0,0,0,0,0,0,0,0,0,0,0,0,0,0,0,0,0,0,0,0,0,0,0,0,0,0,0,0,0,0,0,0,0,0],"split_type":[0,0,0,0,0,0,0,0,0,0,0,0,0,0,0,0,0,0,0,0,0,0,0,0,0,0,0,0,0,0,0,0,0,0,0,0,0,0,0,0,0,0,0,0,0,0,0,0,0,0,0,0,0,0,0,0,0,0,0,0,0,0,0,0,0,0,0,0,0,0,0,0,0,0,0,0,0,0,0,0,0,0,0,0,0,0,0,0,0,0,0,0,0,0,0,0,0,0,0,0,0,0,0,0,0,0,0,0,0,0,0,0,0,0,0,0,0,0,0,0,0,0,0,0,0,0,0],"sum_hessian":[2.386877E6,1.150368E6,1.236509E6,5.90409E5,5.59959E5,5.77477E5,6.59032E5,1.61266E5,4.29143E5,3.36155E5,2.23804E5,8.2278E4,4.95199E5,4.41064E5,2.17968E5,7.98E3,1.53286E5,4.06606E5,2.2537E4,3.8283E4,2.97872E5,9.772E4,1.26084E5,8.854E3,7.3424E4,2.78903E5,2.16296E5,2.32529E5,2.08535E5,1.89952E5,2.8016E4,4.167E3,3.813E3,3.9413E4,1.13873E5,3.5474E4,3.71132E5,6.78E3,1.5757E4,2.5163E4,1.312E4,2.80029E5,1.7843E4,7.8145E4,1.9575E4,7.4682E4,5.1402E4,2.688E3,6.166E3,4.7168E4,2.6256E4,3.0111E4,2.48792E5,7.5151E4,1.41145E5,1.64609E5,6.792E4,1.1093E5,9.7605E4,1.0194E4,1.79758E5,1.7814E4,1.0202E4,3.118E3,1.049E3,3.482E3,3.31E2,2.3277E4,1.6136E4,7.2271E4,4.1602E4,1.8997E4,1.6477E4,1.84732E5,1.864E5,1.6E3,5.18E3,4.179E3,1.1578E4,1.4442E4,1.0721E4,8.648E3,4.472E3,2.49261E5,3.0768E4,3.742E3,1.4101E4,4.8185E4,2.996E4,1.5303E4,4.272E3,2.0174E4,5.4508E4,2.9669E4,2.1733E4,2.375E3,3.13E2,4.317E3,1.849E3,4.17E3,4.2998E4,5.512E3,2.0744E4,1.668E4,1.3431E4,3.474E3,2.45318E5,7.1854E4,3.297E3,6.6938E4,7.4207E4,1.3674E5,2.7869E4,5.543E4,1.249E4,3.077E3,1.07853E5,3.7577E4,6.0028E4,8.622E3,1.572E3,1.11169E5,6.8589E4,1.4691E4,3.123E3,2.69E2,9.933E3],"tree_param":{"num_deleted":"0","num_feature":"39","num_nodes":"127","size_leaf_vector":"1"}},{"base_weights":[6.5464366E-7,-6.814523E-1,4.0504614E-1,-9.949394E-1,-4.6222004E-1,1.5614393E-1,8.199844E-1,-1.6215893E0,-9.0672946E-1,-1.05284676E-1,-5.4589915E-1,2.7611047E-1,-2.8732523E-1,5.9908766E-1,1.1200681E0,5.333776E-1,-1.6824083E0,-8.7136084E-1,-2.4640632E0,3.2679877E-1,-2.8459147E-1,-6.3433695E-1,-8.514331E-2,7.0577346E-2,5.384314E-1,-7.8598815E-1,7.048136E-2,6.759083E-1,-2.0587105E-1,9.483744E-1,1.509864E0,1.255654E0,-6.0273254E-1,-1.6294076E0,-3.4606314E0,6.6753477E-1,-9.005177E-1,-3.1774027E0,-1.9694583E0,5.6191134E-1,-2.3311014E-1,1.2000759E0,-3.3787057E-1,-6.977053E-1,-8.673221E-2,-3.3062226E-1,2.3339348E-1,3.7815726E-1,-1.24255285E-1,2.7951992E-1,8.069108E-1,-1.5570399E0,-6.1004305E-1,-1.1448444E-1,4.7860768E-1,5.370293E-1,1.1235884E0,2.6893735E-1,-4.5850047E-1,9.979992E-1,-4.8592308E-1,-5.661656E-1,1.6165905E0,9.7232014E-1,3.2694852E-1,-1.6756456E-1,-9.469021E-1,-7.271572E-1,-4.549108E-1,-1.1481855E0,-5.103884E-1,3.4519544E-1,1.2518232E-2,-2.3109078E-1,-4.1626057E-1,-1.1653266E0,-8.602686E-1,-7.0256925E-1,-4.7432876E-1,2.8187686E-1,9.849641E-2,-2.3924671E-1,-1.8825722E-3,-9.291534E-2,4.7769886E-1,-1.4404714E-1,5.445205E-2,1.3429807E-2,-2.2459204E-1,2.1045285E-1,-1.4957535E-1,-3.1981993E-2,-1.3925402E-1,1.9118477E-1,-5.152856E-3,-2.7880878E-3,2.0701607E-1,1.5044609E-2,-1.4697166E-1,1.9697024E-1,2.1240935E-2,3.068927E-1,1.485457E-1,-3.889206E-1,-7.661872E-1,-3.7227166E-1,-1.3382046E-1,1.06255315E-1,-8.321166E-2,2.2378905E-1,9.413383E-2,1.1321807E-1,2.3965982E-1,2.5633108E-2,3.7055612E-1,1.6309348E-1,-1.2055137E-1,-5.438048E-1,-1.0968253E-1,2.8707245E-1,6.519218E-1,3.0843502E-1,-2.0819055E-1,-7.998438E-2,-7.094148E-1,4.4821584E-1,8.079934E-1],"categories":[],"categories_nodes":[],"categories_segments":[],"categories_sizes":[],"default_left":[0,0,0,0,0,0,0,0,0,0,0,0,0,0,0,0,0,0,0,0,0,0,0,0,0,0,0,0,0,0,0,0,0,0,0,0,0,0,0,0,0,0,0,0,0,0,0,0,0,0,0,0,0,0,0,0,0,0,0,0,0,0,0,0,0,0,0,0,0,0,0,0,0,0,0,0,0,0,0,0,0,0,0,0,0,0,0,0,0,0,0,0,0,0,0,0,0,0,0,0,0,0,0,0,0,0,0,0,0,0,0,0,0,0,0,0,0,0,0,0,0,0,0,0,0,0,0],"id":7,"left_children":[1,3,5,7,9,11,13,15,17,19,21,23,25,27,29,31,33,35,37,39,41,43,45,47,49,51,53,55,57,59,61,63,65,67,69,71,73,75,77,79,81,83,85,87,89,91,93,95,97,99,101,103,105,107,109,111,113,115,117,119,121,123,125,-1,-1,-1,-1,-1,-1,-1,-1,-1,-1,-1,-1,-1,-1,-1,-1,-1,-1,-1,-1,-1,-1,-1,-1,-1,-1,-1,-1,-1,-1,-1,-1,-1,-1,-1,-1,-1,-1,-1,-1,-1,-1,-1,-1,-1,-1,-1,-1,-1,-1,-1,-1,-1,-1,-1,-1,-1,-1,-1,-1,-1,-1,-1,-1],"loss_changes":[6.5882494E5,6.1154156E4,1.5461408E5,2.0240531E4,1.5639867E4,4.9783082E4,3.7207125E4,5.9229766E3,1.767925E4,7.704799E3,1.7284844E4,3.97092E4,3.554925E4,1.9993133E4,1.5926469E4,1.01910345E3,4.136047E3,1.4084297E4,2.5086523E3,3.8395906E3,5.5598345E3,1.2349281E4,5.3414365E3,2.4746918E4,2.249086E4,1.1291078E4,8.757129E3,1.8349734E4,3.3788909E3,1.17605E4,1.61250625E4,2.4635522E2,5.2733276E1,3.8286797E3,8.1336816E2,1.7646987E3,1.9534312E4,6.278711E2,6.0552734E2,1.811856E3,1.1043026E3,1.442554E3,5.014083E3,1.2062672E4,1.198343E4,1.1541968E3,3.0088584E3,1.935216E4,1.6122125E4,1.29623125E4,1.0699094E4,4.0147695E3,7.0102637E3,6.094124E3,1.5940508E3,9.4155625E3,8.096E3,1.8029026E3,2.3121636E3,7.708953E3,1.741343E3,1.9168075E3,9.128125E3,0E0,0E0,0E0,0E0,0E0,0E0,0E0,0E0,0E0,0E0,0E0,0E0,0E0,0E0,0E0,0E0,0E0,0E0,0E0,0E0,0E0,0E0,0E0,0E0,0E0,0E0,0E0,0E0,0E0,0E0,0E0,0E0,0E0,0E0,0E0,0E0,0E0,0E0,0E0,0E0,0E0,0E0,0E0,0E0,0E0,0E0,0E0,0E0,0E0,0E0,0E0,0E0,0E0,0E0,0E0,0E0,0E0,0E0,0E0,0E0,0E0,0E0,0E0,0E0],"parents":[2147483647,0,0,1,1,2,2,3,3,4,4,5,5,6,6,7,7,8,8,9,9,10,10,11,11,12,12,13,13,14,14,15,15,16,16,17,17,18,18,19,19,20,20,21,21,22,22,23,23,24,24,25,25,26,26,27,27,28,28,29,29,30,30,31,31,32,32,33,33,34,34,35,35,36,36,37,37,38,38,39,39,40,40,41,41,42,42,43,43,44,44,45,45,46,46,47,47,48,48,49,49,50,50,51,51,52,52,53,53,54,54,55,55,56,56,57,57,58,58,59,59,60,60,61,61,62,62],"right_children":[2,4,6,8,10,12,14,16,18,20,22,24,26,28,30,32,34,36,38,40,42,44,46,48,50,52,54,56,58,60,62,64,66,68,70,72,74,76,78,80,82,84,86,88,90,92,94,96,98,100,102,104,106,108,110,112,114,116,118,120,122,124,126,-1,-1,-1,-1,-1,-1,-1,-1,-1,-1,-1,-1,-1,-1,-1,-1,-1,-1,-1,-1,-1,-1,-1,-1,-1,-1,-1,-1,-1,-1,-1,-1,-1,-1,-1,-1,-1,-1,-1,-1,-1,-1,-1,-1,-1,-1,-1,-1,-1,-1,-1,-1,-1,-1,-1,-1,-1,-1,-1,-1,-1,-1,-1,-1],"split_conditions":[1.78E1,1.2083333E1,2.55E1,6.3E0,6E0,4.91E2,2.9E1,-1.8822671E-1,9.42E2,2.72867E1,7.11E2,3.72E2,3E2,8.58E2,3.26E1,1.71E2,8.19E2,-3.33E2,8.3833336E1,3.3E1,-3.33E2,7.99E2,1.65E1,2.7E1,2.4266666E1,1.64E1,2.3416666E1,4.7E0,2.3833334E0,8.58E2,1.9328351E0,5.7E1,2.0333334E1,4.016667E0,5.846085E1,8.492775E-1,3.4629234E1,9.35E0,9.8E0,5E-1,6.8166664E1,-9.6800745E-2,2.9221694E0,1.9328351E0,5.0242226E1,6.0120295E-3,3.32E2,6.7333336E1,1.8659245E1,4.795931E1,2.31E2,2.8566449E0,3.8909443E1,1.5666667E0,1.4791757E0,4.66E2,6.190793E0,-3.008198E-1,8E1,5.385028E1,1.5833334E0,5.794211E-1,3.8E1,9.7232014E-1,3.2694852E-1,-1.6756456E-1,-9.469021E-1,-7.271572E-1,-4.549108E-1,-1.1481855E0,-5.103884E-1,3.4519544E-1,1.2518232E-2,-2.3109078E-1,-4.1626057E-1,-1.1653266E0,-8.602686E-1,-7.0256925E-1,-4.7432876E-1,2.8187686E-1,9.849641E-2,-2.3924671E-1,-1.8825722E-3,-9.291534E-2,4.7769886E-1,-1.4404714E-1,5.445205E-2,1.3429807E-2,-2.2459204E-1,2.1045285E-1,-1.4957535E-1,-3.1981993E-2,-1.3925402E-1,1.9118477E-1,-5.152856E-3,-2.7880878E-3,2.0701607E-1,1.5044609E-2,-1.4697166E-1,1.9697024E-1,2.1240935E-2,3.068927E-1,1.485457E-1,-3.889206E-1,-7.661872E-1,-3.7227166E-1,-1.3382046E-1,1.06255315E-1,-8.321166E-2,2.2378905E-1,9.413383E-2,1.1321807E-1,2.3965982E-1,2.5633108E-2,3.7055612E-1,1.6309348E-1,-1.2055137E-1,-5.438048E-1,-1.0968253E-1,2.8707245E-1,6.519218E-1,3.0843502E-1,-2.0819055E-1,-7.998438E-2,-7.094148E-1,4.4821584E-1,8.079934E-1],"split_indices":[13,18,21,20,24,24,5,37,24,31,28,30,28,24,21,26,24,24,11,26,24,30,21,24,10,21,2,1,17,24,25,3,2,10,25,22,34,18,18,35,11,14,6,25,25,6,24,3,31,25,24,14,27,1,14,26,32,38,26,33,9,37,5,0,0,0,0,0,0,0,0,0,0,0,0,0,0,0,0,0,0,0,0,0,0,0,0,0,0,0,0,0,0,0,0,0,0,0,0,0,0,0,0,0,0,0,0,0,0,0,0,0,0,0,0,0,0,0,0,0,0,0,0,0,0,0,0],"split_type":[0,0,0,0,0,0,0,0,0,0,0,0,0,0,0,0,0,0,0,0,0,0,0,0,0,0,0,0,0,0,0,0,0,0,0,0,0,0,0,0,0,0,0,0,0,0,0,0,0,0,0,0,0,0,0,0,0,0,0,0,0,0,0,0,0,0,0,0,0,0,0,0,0,0,0,0,0,0,0,0,0,0,0,0,0,0,0,0,0,0,0,0,0,0,0,0,0,0,0,0,0,0,0,0,0,0,0,0,0,0,0,0,0,0,0,0,0,0,0,0,0,0,0,0,0,0,0],"sum_hessian":[2.386877E6,8.89825E5,1.497052E6,3.66192E5,5.23633E5,9.35744E5,5.61308E5,4.5184E4,3.21008E5,9.9446E4,4.24187E5,7.36506E5,1.99238E5,3.23314E5,2.37994E5,1.24E3,4.3944E4,3.13881E5,7.127E3,2.9165E4,7.0281E4,3.55879E5,6.8308E4,4.12952E5,3.23554E5,8.3235E4,1.16003E5,2.95147E5,2.8167E4,1.65222E5,7.2772E4,7.58E2,4.82E2,4.2674E4,1.27E3,5.836E3,3.08045E5,2.916E3,4.211E3,2.054E4,8.625E3,2.434E3,6.7847E4,3.18968E5,3.6911E4,3.8578E4,2.973E4,1.6014E5,2.52812E5,1.64713E5,1.58841E5,1.5463E4,6.7772E4,7.9826E4,3.6177E4,2.25267E5,6.988E4,9.782E3,1.8385E4,1.59697E5,5.525E3,3.558E3,6.9214E4,5.7E1,7.01E2,4.75E2,7E0,5.313E3,3.7361E4,1.05E3,2.2E2,3.293E3,2.543E3,2.4306E5,6.4985E4,8.85E2,2.031E3,2.147E3,2.064E3,7.848E3,1.2692E4,2.472E3,6.153E3,5.02E2,1.932E3,5.3257E4,1.459E4,2.0477E4,2.98491E5,1.2667E4,2.4244E4,1.441E4,2.4168E4,1.1382E4,1.8348E4,7.142E4,8.872E4,1.7117E5,8.1642E4,5.8689E4,1.06024E5,9.3818E4,6.5023E4,1.226E4,3.203E3,1.398E4,5.3792E4,2.0588E4,5.9238E4,1.3796E4,2.2381E4,1.39947E5,8.532E4,6.783E3,6.3097E4,6.94E3,2.842E3,1.179E3,1.7206E4,1.54303E5,5.394E3,6.67E2,4.858E3,3.051E3,5.07E2,6.2144E4,7.07E3],"tree_param":{"num_deleted":"0","num_feature":"39","num_nodes":"127","size_leaf_vector":"1"}},{"base_weights":[-1.5981655E-6,-3.6528754E-1,3.8903877E-1,-7.1486163E-1,-2.1281345E-1,2.7728632E-1,8.007487E-1,-5.666135E-1,-9.4588697E-1,-3.7743238E-1,-5.090481E-2,8.3131395E-2,3.9793798E-1,8.740356E-1,4.138636E-2,-1.3579565E0,-4.7234288E-1,-1.1647046E0,-6.254619E-1,-3.5334814E-1,-2.5210629E0,4.5309335E-2,-4.0690768E-1,2.217466E-1,-1.7194082E-1,2.911076E-1,5.779903E-1,8.156358E-1,1.7291301E0,2.5844762E-1,-2.4656834E-1,-7.7348167E-1,-2.4947162E0,-1.7216139E0,-4.3347386E-1,-1.9326534E0,-1.0348985E0,-3.532267E-2,-7.3881257E-1,1.1794339E-1,-4.0698949E-1,-1.8887172E0,-4.2402124E0,-1.1074504E0,8.580737E-2,-1.1055858E0,-2.1300599E-1,1.15363725E-1,5.5784214E-1,-7.505631E-1,-7.835603E-2,4.2951354E-1,-4.251309E-2,7.570487E-1,4.6408388E-1,7.723068E-1,1.8601192E0,8.8767093E-1,2.2696033E0,4.022256E-1,-1.6882046E-1,-1.6691763E0,-1.9882682E-1,-3.3189398E-1,1.777183E-2,-8.340782E-1,-2.8684652E-1,-6.2559754E-1,-2.8450835E-1,-1.6754961E-1,-3.4138475E-2,-4.983286E-1,-7.7724916E-1,-6.096703E-1,-2.801976E-1,1.8541184E-1,-8.662475E-2,-5.4000145E-1,-1.9985496E-1,-5.395732E-2,1.6891666E-1,-2.1864212E-1,-9.046629E-2,-1.0953494E0,-4.928623E-1,-1.1241548E0,-1.8445113E0,-4.9610272E-1,-1.50373215E-2,-7.5507932E-3,9.848044E-2,-2.485422E-1,-5.1353467E-1,9.304923E-2,-1.07848175E-1,2.7241427E-1,1.9723423E-2,-1.0910816E-1,2.2166236E-1,-3.5896683E-1,-1.3527168E-1,-7.462583E-2,6.84636E-2,1.6047972E-1,-1.4794923E-3,5.9528787E-2,-9.42101E-2,1.7102352E-1,3.747499E-1,2.2380126E-1,1.2241813E-1,2.0135273E-1,3.682444E-1,6.0615665E-1,2.389083E-1,8.034746E-2,4.608812E-1,5.7176954E-1,8.4999144E-1,8.900895E-2,3.4878972E-1,-7.568719E-1,-4.5384973E-2,-8.9472175E-1,-2.933854E-1,-1.2820141E-1,2.6852217E-2],"categories":[],"categories_nodes":[],"categories_segments":[],"categories_sizes":[],"default_left":[0,0,0,0,0,0,0,0,0,0,0,0,0,0,0,0,0,0,0,0,0,0,0,0,0,0,0,0,0,0,0,0,0,0,0,0,0,0,0,0,0,0,0,0,0,0,0,0,0,0,0,0,0,0,0,0,0,0,0,0,0,0,0,0,0,0,0,0,0,0,0,0,0,0,0,0,0,0,0,0,0,0,0,0,0,0,0,0,0,0,0,0,0,0,0,0,0,0,0,0,0,0,0,0,0,0,0,0,0,0,0,0,0,0,0,0,0,0,0,0,0,0,0,0,0,0,0],"id":8,"left_children":[1,3,5,7,9,11,13,15,17,19,21,23,25,27,29,31,33,35,37,39,41,43,45,47,49,51,53,55,57,59,61,63,65,67,69,71,73,75,77,79,81,83,85,87,89,91,93,95,97,99,101,103,105,107,109,111,113,115,117,119,121,123,125,-1,-1,-1,-1,-1,-1,-1,-1,-1,-1,-1,-1,-1,-1,-1,-1,-1,-1,-1,-1,-1,-1,-1,-1,-1,-1,-1,-1,-1,-1,-1,-1,-1,-1,-1,-1,-1,-1,-1,-1,-1,-1,-1,-1,-1,-1,-1,-1,-1,-1,-1,-1,-1,-1,-1,-1,-1,-1,-1,-1,-1,-1,-1,-1],"loss_changes":[3.392017E5,6.561455E4,5.3180297E4,1.2804031E4,2.2845977E4,2.1295703E4,1.3732484E4,1.6988406E4,1.0245328E4,2.194196E4,1.4801797E4,1.231905E4,1.0784539E4,1.1236531E4,1.3576465E3,1.6103973E4,9.880508E3,8.653898E3,3.9667773E3,1.0625531E4,5.1252617E3,1.5881975E4,1.2455596E4,8.071334E3,6.6429316E3,1.6248754E4,4.258047E3,9.532109E3,6.540535E3,7.609001E2,6.337455E2,4.4376074E3,3.6134453E3,1.7248398E3,7.8877812E3,2.2395117E3,7.4734766E3,1.5824539E3,3.832912E3,5.693334E3,1.2803629E4,1.4905684E3,1.1708105E3,6.668175E3,8.84318E3,3.3537305E3,5.515756E3,6.7442256E3,9.054682E3,2.2819854E3,5.5163574E3,1.1390734E4,6.750312E3,7.4684023E3,2.0152207E3,9.309992E3,1.4299746E3,2.262224E3,1.7903789E3,7.4328613E2,1.2838354E2,2.721277E2,5.952667E2,0E0,0E0,0E0,0E0,0E0,0E0,0E0,0E0,0E0,0E0,0E0,0E0,0E0,0E0,0E0,0E0,0E0,0E0,0E0,0E0,0E0,0E0,0E0,0E0,0E0,0E0,0E0,0E0,0E0,0E0,0E0,0E0,0E0,0E0,0E0,0E0,0E0,0E0,0E0,0E0,0E0,0E0,0E0,0E0,0E0,0E0,0E0,0E0,0E0,0E0,0E0,0E0,0E0,0E0,0E0,0E0,0E0,0E0,0E0,0E0,0E0,0E0,0E0,0E0],"parents":[2147483647,0,0,1,1,2,2,3,3,4,4,5,5,6,6,7,7,8,8,9,9,10,10,11,11,12,12,13,13,14,14,15,15,16,16,17,17,18,18,19,19,20,20,21,21,22,22,23,23,24,24,25,25,26,26,27,27,28,28,29,29,30,30,31,31,32,32,33,33,34,34,35,35,36,36,37,37,38,38,39,39,40,40,41,41,42,42,43,43,44,44,45,45,46,46,47,47,48,48,49,49,50,50,51,51,52,52,53,53,54,54,55,55,56,56,57,57,58,58,59,59,60,60,61,61,62,62],"right_children":[2,4,6,8,10,12,14,16,18,20,22,24,26,28,30,32,34,36,38,40,42,44,46,48,50,52,54,56,58,60,62,64,66,68,70,72,74,76,78,80,82,84,86,88,90,92,94,96,98,100,102,104,106,108,110,112,114,116,118,120,122,124,126,-1,-1,-1,-1,-1,-1,-1,-1,-1,-1,-1,-1,-1,-1,-1,-1,-1,-1,-1,-1,-1,-1,-1,-1,-1,-1,-1,-1,-1,-1,-1,-1,-1,-1,-1,-1,-1,-1,-1,-1,-1,-1,-1,-1,-1,-1,-1,-1,-1,-1,-1,-1,-1,-1,-1,-1,-1,-1,-1,-1,-1,-1,-1,-1],"split_conditions":[2.01E1,1.19E1,3.05E1,3.78E2,1.69E1,2.3E1,8.19E2,1.3E1,3.78E2,8.19E2,4.91E2,3.72E2,3.05E2,8.19E2,-1.7912017E0,1.061693E1,2.9268859E-2,3.9972782E1,-1.257229E0,-1.32E2,1.64E1,2.9268859E-2,8E1,1.9956619E0,1.6E1,2.64E2,7.0709934E0,5.385028E1,4E0,9.42E2,-2.0687463E0,5.3436337E1,1E-1,2.1666667E0,2.1961248E1,5.8653206E-1,5.7E0,5.65E2,3.6E0,4.795931E1,2.7E1,1.09E1,2.065E1,2.2E0,7.5166664E1,2.7E0,4.4923283E1,5.833333E-1,4.7990026E0,2.2566668E1,-1.156877E-1,3.0411482E-1,5.7E1,3.9333334E0,1.8659245E1,3.59E2,-7.5928897E-1,-2.3154454E0,9.286672E-1,3.38E1,-2.3677888E0,8E1,3.24E1,-3.3189398E-1,1.777183E-2,-8.340782E-1,-2.8684652E-1,-6.2559754E-1,-2.8450835E-1,-1.6754961E-1,-3.4138475E-2,-4.983286E-1,-7.7724916E-1,-6.096703E-1,-2.801976E-1,1.8541184E-1,-8.662475E-2,-5.4000145E-1,-1.9985496E-1,-5.395732E-2,1.6891666E-1,-2.1864212E-1,-9.046629E-2,-1.0953494E0,-4.928623E-1,-1.1241548E0,-1.8445113E0,-4.9610272E-1,-1.50373215E-2,-7.5507932E-3,9.848044E-2,-2.485422E-1,-5.1353467E-1,9.304923E-2,-1.07848175E-1,2.7241427E-1,1.9723423E-2,-1.0910816E-1,2.2166236E-1,-3.5896683E-1,-1.3527168E-1,-7.462583E-2,6.84636E-2,1.6047972E-1,-1.4794923E-3,5.9528787E-2,-9.42101E-2,1.7102352E-1,3.747499E-1,2.2380126E-1,1.2241813E-1,2.0135273E-1,3.682444E-1,6.0615665E-1,2.389083E-1,8.034746E-2,4.608812E-1,5.7176954E-1,8.4999144E-1,8.900895E-2,3.4878972E-1,-7.568719E-1,-4.5384973E-2,-8.9472175E-1,-2.933854E-1,-1.2820141E-1,2.6852217E-2],"split_indices":[21,5,13,24,13,5,24,26,28,26,24,24,28,26,7,32,29,27,14,24,5,29,26,22,30,24,32,33,17,24,14,27,8,17,33,14,2,24,21,27,26,13,2,17,3,1,29,1,27,10,7,37,19,1,31,28,15,15,15,4,14,26,20,0,0,0,0,0,0,0,0,0,0,0,0,0,0,0,0,0,0,0,0,0,0,0,0,0,0,0,0,0,0,0,0,0,0,0,0,0,0,0,0,0,0,0,0,0,0,0,0,0,0,0,0,0,0,0,0,0,0,0,0,0,0,0,0],"split_type":[0,0,0,0,0,0,0,0,0,0,0,0,0,0,0,0,0,0,0,0,0,0,0,0,0,0,0,0,0,0,0,0,0,0,0,0,0,0,0,0,0,0,0,0,0,0,0,0,0,0,0,0,0,0,0,0,0,0,0,0,0,0,0,0,0,0,0,0,0,0,0,0,0,0,0,0,0,0,0,0,0,0,0,0,0,0,0,0,0,0,0,0,0,0,0,0,0,0,0,0,0,0,0,0,0,0,0,0,0,0,0,0,0,0,0,0,0,0,0,0,0,0,0,0,0,0,0],"sum_hessian":[2.386877E6,1.231021E6,1.155856E6,3.73865E5,8.57156E5,9.09097E5,2.46759E5,2.27733E5,1.46132E5,4.2502E5,4.32136E5,3.48418E5,5.60679E5,2.2504E5,2.1719E4,2.424E4,2.03493E5,8.6832E4,5.93E4,4.20299E5,4.721E3,3.40195E5,9.1941E4,2.25742E5,1.22676E5,3.51893E5,2.08786E5,2.10655E5,1.4385E4,1.2384E4,9.335E3,1.601E4,8.23E3,6.139E3,1.97354E5,1.2553E4,7.4279E4,9.555E3,4.9745E4,4.2949E4,3.7735E5,3.453E3,1.268E3,1.1545E4,3.2865E5,1.9972E4,7.1969E4,1.71469E5,5.4273E4,1.7078E4,1.05598E5,2.48712E5,1.03181E5,8.1175E4,1.27611E5,2.02266E5,8.389E3,5.627E3,8.758E3,9.266E3,3.118E3,3.02E2,9.033E3,1.1438E4,4.572E3,6.941E3,1.289E3,4.174E3,1.965E3,1.41869E5,5.5485E4,8.889E3,3.664E3,6.823E3,6.7456E4,2.67E3,6.885E3,3.185E3,4.656E4,2.5733E4,1.7216E4,9.3119E4,2.84231E5,4.21E2,3.032E3,1.01E3,2.58E2,7.612E3,3.933E3,2.25457E5,1.03193E5,1.3708E4,6.264E3,1.5743E4,5.6226E4,1.01E4,1.61369E5,8.911E3,4.5362E4,6.862E3,1.0216E4,6.7873E4,3.7725E4,2.00146E5,4.8566E4,5.4669E4,4.8512E4,5.8827E4,2.2348E4,2.1153E4,1.06458E5,1.65498E5,3.6768E4,7.289E3,1.1E3,2.878E3,2.749E3,5.326E3,3.432E3,8.138E3,1.128E3,2.2E1,3.096E3,1.03E2,1.99E2,5.039E3,3.994E3],"tree_param":{"num_deleted":"0","num_feature":"39","num_nodes":"127","size_leaf_vector":"1"}},{"base_weights":[-4.780902E-6,-3.6012825E-1,2.0579422E-1,-6.616575E-1,-2.779217E-1,4.0439043E-2,3.8137713E-1,-6.8827194E-1,7.4430704E-1,-4.3398386E-1,-1.4557934E-1,5.629507E-2,-1.759406E0,3.022059E-1,6.669782E-1,-1.4823298E0,-6.470666E-1,1.1342103E0,-3.233574E-1,1.3887489E-1,-5.308893E-1,2.193242E-2,-3.302553E-1,3.32104E-2,1.0746189E0,-2.713389E0,5.9425724E-1,1.846232E-1,4.6096224E-1,-4.808976E-1,7.3376703E-1,-3.7377841E0,-1.3898436E0,-1.5256478E0,-6.123345E-1,1.2615131E0,-1.5099671E-1,-8.244259E-1,2.784548E-1,6.5348864E-1,-3.3776706E-1,-4.6755114E-1,-1.1392909E0,-1.16196595E-1,3.3989367E-1,-9.853283E-1,-2.809643E-1,9.731619E-1,1.541355E-2,9.5171094E-1,2.2299135E0,-3.401294E0,-1.9357475E0,-9.685406E-1,1.5758386E0,1.3049236E-1,5.144166E-1,6.2618387E-1,1.2776963E-1,-2.052681E-1,-1.7330923E0,8.486062E-1,8.8798754E-2,-1.4044507E0,-1.0587796E0,-4.5728025E-1,-2.3665683E-1,-5.34696E-1,-2.2157124E-1,-1.7547306E-1,-4.7602585E-1,4.471579E-1,2.2304441E-1,-4.3999773E-4,-4.4706067E-1,-1.3312905E-1,-5.861781E-1,1.494482E-1,-1.2953477E-1,3.1897324E-1,-9.678181E-2,-2.759061E-1,-6.9231525E-2,-3.4080213E-1,-1.2140288E-1,-1.9325577E-1,-3.9778095E-1,-9.923419E-2,1.035962E-1,3.4158904E-2,2.1341196E-1,-3.7712047E-1,-1.673209E-1,-3.396944E-2,-1.3266812E-1,-1.6746469E-2,3.5632104E-1,2.5036871E-2,-8.591079E-2,3.0850938E-1,-1.8064547E-2,7.181672E-1,5.0848603E-1,-7.9266495E-1,-1.2046664E0,-4.4374678E-1,-9.805386E-1,-1.3374925E-1,-9.731922E-1,6.027649E-1,1.2814364E-1,-1.8560075E-3,7.25783E-2,3.4709394E-2,2.174645E-1,9.103153E-2,2.5300854E-1,-6.050084E-2,1.2388733E-1,-1.5816386E-1,3.626087E-2,2.0770809E-1,-6.543069E-1,1.851254E-1,3.1996685E-1,-7.040487E-2,8.9865044E-2],"categories":[],"categories_nodes":[],"categories_segments":[],"categories_sizes":[],"default_left":[0,0,0,0,0,0,0,0,0,0,0,0,0,0,0,0,0,0,0,0,0,0,0,0,0,0,0,0,0,0,0,0,0,0,0,0,0,0,0,0,0,0,0,0,0,0,0,0,0,0,0,0,0,0,0,0,0,0,0,0,0,0,0,0,0,0,0,0,0,0,0,0,0,0,0,0,0,0,0,0,0,0,0,0,0,0,0,0,0,0,0,0,0,0,0,0,0,0,0,0,0,0,0,0,0,0,0,0,0,0,0,0,0,0,0,0,0,0,0,0,0,0,0,0,0,0,0],"id":9,"left_children":[1,3,5,7,9,11,13,15,17,19,21,23,25,27,29,31,33,35,37,39,41,43,45,47,49,51,53,55,57,59,61,63,65,67,69,71,73,75,77,79,81,83,85,87,89,91,93,95,97,99,101,103,105,107,109,111,113,115,117,119,121,123,125,-1,-1,-1,-1,-1,-1,-1,-1,-1,-1,-1,-1,-1,-1,-1,-1,-1,-1,-1,-1,-1,-1,-1,-1,-1,-1,-1,-1,-1,-1,-1,-1,-1,-1,-1,-1,-1,-1,-1,-1,-1,-1,-1,-1,-1,-1,-1,-1,-1,-1,-1,-1,-1,-1,-1,-1,-1,-1,-1,-1,-1,-1,-1,-1],"loss_changes":[1.7689888E5,2.1515375E4,4.4098594E4,6.958453E3,1.4086711E4,2.2323572E4,1.6656703E4,5.9701016E3,1.4386346E3,1.7374352E4,1.1417424E4,1.822772E4,1.5339629E4,1.0766578E4,1.22580625E4,1.8726074E3,5.293172E3,4.142881E2,2.7916248E2,1.1107775E4,1.0315023E4,8.499857E3,5.667865E3,1.26834375E4,2.4384863E3,2.5937773E3,3.0250662E3,5.915333E3,1.3510336E4,3.0341309E3,1.119118E4,5.313916E1,6.975254E2,1.331415E3,4.458992E3,2.7211108E2,4.5855404E1,2.1626205E2,6.590932E1,8.709475E3,1.4635837E3,1.0189664E4,2.3315527E3,1.3361813E4,4.921321E3,1.426624E3,4.4159795E3,3.110833E3,1.5279891E4,1.2052324E3,1.4085742E2,1.1914375E3,1.3849932E3,9.0368066E2,6.0199927E2,4.335317E3,3.9204023E3,1.1499441E4,7.643651E3,7.567866E2,1.7245952E3,6.47125E3,1.5570328E3,0E0,0E0,0E0,0E0,0E0,0E0,0E0,0E0,0E0,0E0,0E0,0E0,0E0,0E0,0E0,0E0,0E0,0E0,0E0,0E0,0E0,0E0,0E0,0E0,0E0,0E0,0E0,0E0,0E0,0E0,0E0,0E0,0E0,0E0,0E0,0E0,0E0,0E0,0E0,0E0,0E0,0E0,0E0,0E0,0E0,0E0,0E0,0E0,0E0,0E0,0E0,0E0,0E0,0E0,0E0,0E0,0E0,0E0,0E0,0E0,0E0,0E0,0E0,0E0],"parents":[2147483647,0,0,1,1,2,2,3,3,4,4,5,5,6,6,7,7,8,8,9,9,10,10,11,11,12,12,13,13,14,14,15,15,16,16,17,17,18,18,19,19,20,20,21,21,22,22,23,23,24,24,25,25,26,26,27,27,28,28,29,29,30,30,31,31,32,32,33,33,34,34,35,35,36,36,37,37,38,38,39,39,40,40,41,41,42,42,43,43,44,44,45,45,46,46,47,47,48,48,49,49,50,50,51,51,52,52,53,53,54,54,55,55,56,56,57,57,58,58,59,59,60,60,61,61,62,62],"right_children":[2,4,6,8,10,12,14,16,18,20,22,24,26,28,30,32,34,36,38,40,42,44,46,48,50,52,54,56,58,60,62,64,66,68,70,72,74,76,78,80,82,84,86,88,90,92,94,96,98,100,102,104,106,108,110,112,114,116,118,120,122,124,126,-1,-1,-1,-1,-1,-1,-1,-1,-1,-1,-1,-1,-1,-1,-1,-1,-1,-1,-1,-1,-1,-1,-1,-1,-1,-1,-1,-1,-1,-1,-1,-1,-1,-1,-1,-1,-1,-1,-1,-1,-1,-1,-1,-1,-1,-1,-1,-1,-1,-1,-1,-1,-1,-1,-1,-1,-1,-1,-1,-1,-1,-1,-1,-1],"split_conditions":[1.71E1,9.85E0,2.38E1,5.385028E1,3.21E2,9.52E2,3.07E1,3.9833333E0,1.2480838E0,1.9328351E0,3.72E2,5.385028E1,2.16E1,2.168933E0,3.382091E0,-3.33E2,-6.3E1,1.12E1,7.974813E-1,7.2E1,1.8425346E1,5.9095806E1,4E2,-3.33E2,2.845E1,2.0016666E1,-2.8539982E-2,7.02E2,3.52E2,2.8848243E-1,7.69E2,7.5E0,8.116667E0,1E-1,5.385028E1,1.1666666E0,1.3366667E1,1.1561286E0,1.12E1,2.6666667E0,5.5666668E1,3.6642609E0,1.12E2,1.3327104E0,6.505509E1,5.322042E-1,2.65E0,-6.245834E-1,3.497853E1,1.075733E0,-3.975428E-1,1.94E1,2.2E1,2.32E1,6.9833336E1,5.8666668E1,-6.234866E-1,1.837129E1,5.846085E1,6E0,7.762733E0,9.2E1,3E1,-1.4044507E0,-1.0587796E0,-4.5728025E-1,-2.3665683E-1,-5.34696E-1,-2.2157124E-1,-1.7547306E-1,-4.7602585E-1,4.471579E-1,2.2304441E-1,-4.3999773E-4,-4.4706067E-1,-1.3312905E-1,-5.861781E-1,1.494482E-1,-1.2953477E-1,3.1897324E-1,-9.678181E-2,-2.759061E-1,-6.9231525E-2,-3.4080213E-1,-1.2140288E-1,-1.9325577E-1,-3.9778095E-1,-9.923419E-2,1.035962E-1,3.4158904E-2,2.1341196E-1,-3.7712047E-1,-1.673209E-1,-3.396944E-2,-1.3266812E-1,-1.6746469E-2,3.5632104E-1,2.5036871E-2,-8.591079E-2,3.0850938E-1,-1.8064547E-2,7.181672E-1,5.0848603E-1,-7.9266495E-1,-1.2046664E0,-4.4374678E-1,-9.805386E-1,-1.3374925E-1,-9.731922E-1,6.027649E-1,1.2814364E-1,-1.8560075E-3,7.25783E-2,3.4709394E-2,2.174645E-1,9.103153E-2,2.5300854E-1,-6.050084E-2,1.2388733E-1,-1.5816386E-1,3.626087E-2,2.0770809E-1,-6.543069E-1,1.851254E-1,3.1996685E-1,-7.040487E-2,8.9865044E-2],"split_indices":[5,2,21,33,26,26,21,2,15,25,24,33,13,22,25,28,30,13,6,26,32,31,24,24,2,10,14,30,24,37,24,21,18,8,34,1,18,23,13,9,3,25,24,22,29,6,1,14,34,15,38,5,5,5,19,11,6,25,29,24,31,30,4,0,0,0,0,0,0,0,0,0,0,0,0,0,0,0,0,0,0,0,0,0,0,0,0,0,0,0,0,0,0,0,0,0,0,0,0,0,0,0,0,0,0,0,0,0,0,0,0,0,0,0,0,0,0,0,0,0,0,0,0,0,0,0,0],"split_type":[0,0,0,0,0,0,0,0,0,0,0,0,0,0,0,0,0,0,0,0,0,0,0,0,0,0,0,0,0,0,0,0,0,0,0,0,0,0,0,0,0,0,0,0,0,0,0,0,0,0,0,0,0,0,0,0,0,0,0,0,0,0,0,0,0,0,0,0,0,0,0,0,0,0,0,0,0,0,0,0,0,0,0,0,0,0,0,0,0,0,0,0,0,0,0,0,0,0,0,0,0,0,0,0,0,0,0,0,0,0,0,0,0,0,0,0,0,0,0,0,0,0,0,0,0,0,0],"sum_hessian":[2.386877E6,8.67993E5,1.518884E6,1.85946E5,6.82047E5,7.82225E5,7.36659E5,1.82492E5,3.454E3,3.12975E5,3.69072E5,7.75395E5,6.83E3,5.76774E5,1.59885E5,9.001E3,1.73491E5,2.53E3,9.24E2,4.5283E4,2.67692E5,1.9353E5,1.75542E5,7.58208E5,1.7187E4,4.86E3,1.97E3,3.31357E5,2.45417E5,8.791E3,1.51094E5,3.53E2,8.648E3,6.596E3,1.66895E5,2.302E3,2.28E2,5.04E2,4.2E2,2.1774E4,2.3509E4,2.42453E5,2.5239E4,1.34919E5,5.8611E4,1.2283E4,1.63259E5,1.4088E4,7.4412E5,1.5536E4,1.651E3,2.577E3,2.283E3,7.6E2,1.21E3,2.84639E5,4.6718E4,1.64062E5,8.1355E4,7.206E3,1.585E3,1.28257E5,2.2837E4,6E1,2.93E2,7.066E3,1.582E3,4.973E3,1.623E3,1.62328E5,4.567E3,1.595E3,7.07E2,2.06E2,2.2E1,3.78E2,1.26E2,3.21E2,9.9E1,1.5336E4,6.438E3,3.65E3,1.9859E4,2.0843E4,2.2161E5,6.911E3,1.8328E4,9.2098E4,4.2821E4,3.644E4,2.2171E4,7.509E3,4.774E3,8.0025E4,8.3234E4,2.431E3,1.1657E4,6.07213E5,1.36907E5,1.4442E4,1.094E3,1.261E3,3.9E2,1.155E3,1.422E3,1.702E3,5.81E2,6.19E2,1.41E2,8.78E2,3.32E2,1.2784E5,1.56799E5,1.6141E4,3.0577E4,6.5993E4,9.8069E4,3.7749E4,4.3606E4,3.626E3,3.58E3,2.47E2,1.338E3,6.2194E4,6.6063E4,9.009E3,1.3828E4],"tree_param":{"num_deleted":"0","num_feature":"39","num_nodes":"127","size_leaf_vector":"1"}},{"base_weights":[-6.91514E-6,-1.6763453E-1,2.2561906E-1,-3.0700266E-1,-3.1709082E-2,2.0277397E-1,8.163051E-1,2.1007654E-1,-3.4142432E-1,1.2414013E-1,-9.874987E-2,2.841679E-1,6.1449412E-2,6.780915E-1,1.6715269E0,5.921967E-1,-1.8980443E-1,-4.8387647E-1,-2.1078783E-1,9.5792913E-1,7.093584E-2,-1.8103534E-1,7.802708E-2,1.9441333E-1,5.089915E-1,-1.04878284E-1,2.418873E-1,9.797554E-1,5.140788E-1,1.2048775E0,2.0592527E0,9.511647E-1,-3.544424E-2,-4.1087285E-1,2.4772958E-1,-6.922703E-1,-3.5913426E-1,-9.495743E-2,-5.073145E-1,1.8742968E0,-2.7893397E-1,-2.828069E-3,7.523439E-1,2.2060245E-1,-2.4716641E-1,3.681507E-1,-1.7175932E-1,1.1036077E-1,5.398972E-1,3.5196954E-1,8.0836046E-1,-3.0931768E-1,1.16977826E-1,3.6373648E-1,5.5344675E-2,3.5738367E-1,1.1604625E0,3.1184784E-1,8.286389E-1,1.5882975E0,8.5504735E-1,1.8261765E0,2.6879473E0,3.258882E-1,5.2906577E-2,8.508761E-2,-1.07331425E-1,-2.6434016E-1,-9.3835816E-2,1.9833304E-1,4.231044E-2,-1.354207E-1,-2.6749426E-1,-2.5789538E-1,-8.56152E-2,-8.602495E-2,2.1796774E-2,-1.1263174E-1,-3.13185E-1,1.9073029E-1,6.259918E-1,1.5925106E-1,-1.9758351E-1,-3.1994853E-2,7.879787E-2,6.4333165E-1,2.075054E-1,1.6508174E-1,-8.546643E-2,-2.2059885E-1,-4.9711287E-2,2.6415557E-1,6.3076265E-2,-9.75193E-2,2.4936443E-2,-4.1415162E-2,6.2084418E-2,-4.485574E-1,1.6997226E-1,5.410323E-2,2.2568631E-1,2.971973E-1,1.2563275E-1,5.7680126E-2,-1.4742078E-1,8.799696E-2,-1.6392455E-2,9.490099E-2,3.483935E-1,-2.1449625E-2,8.0113284E-2,-6.495122E-1,1.2760028E-1,3.4260008E-1,1.2663217E0,3.2894656E-2,1.8636295E-1,2.0418976E-1,3.818706E-1,6.495881E-1,3.4889707E-1,2.0094295E-1,3.7685543E-1,5.119845E-1,7.6496935E-1,7.266344E-1,9.793583E-1],"categories":[],"categories_nodes":[],"categories_segments":[],"categories_sizes":[],"default_left":[0,0,0,0,0,0,0,0,0,0,0,0,0,0,0,0,0,0,0,0,0,0,0,0,0,0,0,0,0,0,0,0,0,0,0,0,0,0,0,0,0,0,0,0,0,0,0,0,0,0,0,0,0,0,0,0,0,0,0,0,0,0,0,0,0,0,0,0,0,0,0,0,0,0,0,0,0,0,0,0,0,0,0,0,0,0,0,0,0,0,0,0,0,0,0,0,0,0,0,0,0,0,0,0,0,0,0,0,0,0,0,0,0,0,0,0,0,0,0,0,0,0,0,0,0,0,0],"id":10,"left_children":[1,3,5,7,9,11,13,15,17,19,21,23,25,27,29,31,33,35,37,39,41,43,45,47,49,51,53,55,57,59,61,63,65,67,69,71,73,75,77,79,81,83,85,87,89,91,93,95,97,99,101,103,105,107,109,111,113,115,117,119,121,123,125,-1,-1,-1,-1,-1,-1,-1,-1,-1,-1,-1,-1,-1,-1,-1,-1,-1,-1,-1,-1,-1,-1,-1,-1,-1,-1,-1,-1,-1,-1,-1,-1,-1,-1,-1,-1,-1,-1,-1,-1,-1,-1,-1,-1,-1,-1,-1,-1,-1,-1,-1,-1,-1,-1,-1,-1,-1,-1,-1,-1,-1,-1,-1,-1],"loss_changes":[9.02745E4,2.5942445E4,1.3729277E4,1.2034906E4,7.243681E3,1.1267637E4,4.476879E3,6.4488394E3,1.17975625E4,9.250473E3,7.051462E3,1.2542387E4,1.0743716E4,1.6131787E3,9.5103125E2,4.862298E3,1.9948604E3,7.8832812E3,1.1358336E4,1.4177355E4,9.85267E3,8.786057E3,1.1158468E4,1.2899615E4,8.336117E3,8.448748E3,3.902914E3,1.2913809E3,1.3439019E3,3.1975366E2,4.1666895E2,1.4372266E3,8.0774164E2,6.3170215E2,3.052495E2,5.452961E3,7.0025664E3,7.6447617E3,6.5734824E3,1.8882754E3,1.6372238E3,4.875288E3,1.6153555E3,7.7934814E3,1.1294604E4,5.762885E3,3.2330513E3,8.572788E3,4.7200566E3,7.9922236E3,4.3328125E3,8.854E3,2.7036145E3,3.926207E3,1.8218408E3,4.4416156E2,4.9813867E2,8.045469E2,5.4278564E2,2.774839E2,9.233801E1,1.7753223E2,1.110332E2,0E0,0E0,0E0,0E0,0E0,0E0,0E0,0E0,0E0,0E0,0E0,0E0,0E0,0E0,0E0,0E0,0E0,0E0,0E0,0E0,0E0,0E0,0E0,0E0,0E0,0E0,0E0,0E0,0E0,0E0,0E0,0E0,0E0,0E0,0E0,0E0,0E0,0E0,0E0,0E0,0E0,0E0,0E0,0E0,0E0,0E0,0E0,0E0,0E0,0E0,0E0,0E0,0E0,0E0,0E0,0E0,0E0,0E0,0E0,0E0,0E0,0E0,0E0,0E0],"parents":[2147483647,0,0,1,1,2,2,3,3,4,4,5,5,6,6,7,7,8,8,9,9,10,10,11,11,12,12,13,13,14,14,15,15,16,16,17,17,18,18,19,19,20,20,21,21,22,22,23,23,24,24,25,25,26,26,27,27,28,28,29,29,30,30,31,31,32,32,33,33,34,34,35,35,36,36,37,37,38,38,39,39,40,40,41,41,42,42,43,43,44,44,45,45,46,46,47,47,48,48,49,49,50,50,51,51,52,52,53,53,54,54,55,55,56,56,57,57,58,58,59,59,60,60,61,61,62,62],"right_children":[2,4,6,8,10,12,14,16,18,20,22,24,26,28,30,32,34,36,38,40,42,44,46,48,50,52,54,56,58,60,62,64,66,68,70,72,74,76,78,80,82,84,86,88,90,92,94,96,98,100,102,104,106,108,110,112,114,116,118,120,122,124,126,-1,-1,-1,-1,-1,-1,-1,-1,-1,-1,-1,-1,-1,-1,-1,-1,-1,-1,-1,-1,-1,-1,-1,-1,-1,-1,-1,-1,-1,-1,-1,-1,-1,-1,-1,-1,-1,-1,-1,-1,-1,-1,-1,-1,-1,-1,-1,-1,-1,-1,-1,-1,-1,-1,-1,-1,-1,-1,-1,-1,-1,-1,-1,-1],"split_conditions":[2.2816668E1,1.49E1,3.66E1,1.9328351E0,9.450865E0,3.52E2,7.99E2,7.2E1,3.72E2,1.9328351E0,3.0484901E1,4.3333335E0,3E2,-2.2762127E0,3.06E1,2.3166666E0,-9.32776E-2,1.71E2,4.91E2,-2.0779838E-1,5.3436337E1,9.3333334E-1,4.2377605E1,5.5865063E1,1.28E2,5.846085E1,5.0833332E1,4.3965088E1,3.46E1,3E2,5.233333E0,2.664542E-1,3.3833334E0,6.15E1,1.5E0,7.762733E0,-6.3E1,5.0493084E1,4.918589E0,8.4923035E-1,5E-1,2.435674E0,2.5166666E1,4.857022E1,2.2E1,4.9666668E1,-6.512259E-2,7E0,-4.1504564E0,3.1283333E1,1.4486423E1,1.6E0,4.91E2,9.52E2,4.857022E1,1.3E1,1.1127577E2,-1.32E2,5.1833334E0,2.715E1,2.8E1,3.4716667E1,3.3E1,3.258882E-1,5.2906577E-2,8.508761E-2,-1.07331425E-1,-2.6434016E-1,-9.3835816E-2,1.9833304E-1,4.231044E-2,-1.354207E-1,-2.6749426E-1,-2.5789538E-1,-8.56152E-2,-8.602495E-2,2.1796774E-2,-1.1263174E-1,-3.13185E-1,1.9073029E-1,6.259918E-1,1.5925106E-1,-1.9758351E-1,-3.1994853E-2,7.879787E-2,6.4333165E-1,2.075054E-1,1.6508174E-1,-8.546643E-2,-2.2059885E-1,-4.9711287E-2,2.6415557E-1,6.3076265E-2,-9.75193E-2,2.4936443E-2,-4.1415162E-2,6.2084418E-2,-4.485574E-1,1.6997226E-1,5.410323E-2,2.2568631E-1,2.971973E-1,1.2563275E-1,5.7680126E-2,-1.4742078E-1,8.799696E-2,-1.6392455E-2,9.490099E-2,3.483935E-1,-2.1449625E-2,8.0113284E-2,-6.495122E-1,1.2760028E-1,3.4260008E-1,1.2663217E0,3.2894656E-2,1.8636295E-1,2.0418976E-1,3.818706E-1,6.495881E-1,3.4889707E-1,2.0094295E-1,3.7685543E-1,5.119845E-1,7.6496935E-1,7.266344E-1,9.793583E-1],"split_indices":[10,21,13,25,32,24,26,26,30,25,34,1,28,15,4,9,6,26,24,22,27,1,34,31,28,29,19,27,21,24,1,22,9,11,9,27,28,27,22,23,35,6,19,25,26,19,7,28,14,10,32,9,24,28,31,24,25,28,1,2,5,2,4,0,0,0,0,0,0,0,0,0,0,0,0,0,0,0,0,0,0,0,0,0,0,0,0,0,0,0,0,0,0,0,0,0,0,0,0,0,0,0,0,0,0,0,0,0,0,0,0,0,0,0,0,0,0,0,0,0,0,0,0,0,0,0,0],"split_type":[0,0,0,0,0,0,0,0,0,0,0,0,0,0,0,0,0,0,0,0,0,0,0,0,0,0,0,0,0,0,0,0,0,0,0,0,0,0,0,0,0,0,0,0,0,0,0,0,0,0,0,0,0,0,0,0,0,0,0,0,0,0,0,0,0,0,0,0,0,0,0,0,0,0,0,0,0,0,0,0,0,0,0,0,0,0,0,0,0,0,0,0,0,0,0,0,0,0,0,0,0,0,0,0,0,0,0,0,0,0,0,0,0,0,0,0,0,0,0,0,0,0,0,0,0,0,0],"sum_hessian":[2.386877E6,1.369451E6,1.017426E6,6.76162E5,6.93289E5,9.79543E5,3.7883E4,4.2202E4,6.3396E5,2.08527E5,4.84762E5,6.21562E5,3.57981E5,3.2614E4,5.269E3,2.158E4,2.0622E4,3.03264E5,3.30696E5,1.2507E4,1.9602E5,3.30788E5,1.53974E5,4.44221E5,1.77341E5,1.86274E5,1.71707E5,1.1485E4,2.1129E4,2.393E3,2.876E3,1.3728E4,7.852E3,1.37E4,6.922E3,1.13555E5,1.89709E5,2.37805E5,9.2891E4,7.184E3,5.323E3,1.76874E5,1.9146E4,4.6765E4,2.84023E5,7.1235E4,8.2739E4,3.57296E5,8.6925E4,1.16328E5,6.1013E4,9.6942E4,8.9332E4,1.03863E5,6.7844E4,2.585E3,8.9E3,1.2862E4,8.267E3,1.14E3,1.253E3,2.101E3,7.75E2,1.1689E4,2.039E3,3.946E3,3.906E3,2.363E3,1.1337E4,1.419E3,5.503E3,5.1428E4,6.2127E4,2.4362E4,1.65347E5,1.10903E5,1.26902E5,7.4568E4,1.8323E4,1.052E3,6.132E3,1.699E3,3.624E3,1.27151E5,4.9723E4,7.98E2,1.8348E4,2.8305E4,1.846E4,4.0617E4,2.43406E5,1.678E4,5.4455E4,5.1664E4,3.1075E4,1.0003E5,2.57266E5,1.124E3,8.5801E4,8.1422E4,3.4906E4,4.1563E4,1.945E4,2.5819E4,7.1123E4,4.4059E4,4.5273E4,9.8038E4,5.825E3,4.2425E4,2.5419E4,6.7E1,2.518E3,8.848E3,5.2E1,7.779E3,5.083E3,6.203E3,2.064E3,4.82E2,6.58E2,8.59E2,3.94E2,1.806E3,2.95E2,5.34E2,2.41E2],"tree_param":{"num_deleted":"0","num_feature":"39","num_nodes":"127","size_leaf_vector":"1"}},{"base_weights":[-1.4121968E-6,1.4149068E-1,-1.4690787E-1,9.525914E-2,3.3170807E-1,-1.09761514E-1,-5.4171157E-1,8.3726215E-1,8.231616E-2,-3.070562E-1,3.7549752E-1,-3.722619E-1,-5.1035352E-2,-1.3282319E0,-3.6065406E-1,1.2636561E0,3.6692068E-1,6.886693E-2,7.848974E-1,7.347276E-2,-1.3321705E0,3.449659E-1,1.0907885E0,5.27692E-1,-4.211324E-1,-1.5135488E-1,1.3267658E-2,-6.9024366E-1,-1.8604529E0,-1.1780757E-2,-5.397503E-1,1.7948548E0,1.0079064E0,8.425139E-1,-2.174745E-1,3.8556102E-1,4.4602804E-2,8.4169644E-1,-2.962887E-1,-1.4691055E-1,3.9912304E-1,-9.3889385E-1,-2.1702294E0,3.1736326E-1,1.096366E0,1.893477E0,7.330298E-1,9.911977E-1,-1.9982787E-2,-4.0420225E-1,-2.0137289E0,5.8215356E-1,-1.8254921E-1,9.7422644E-2,-1.6284692E-1,-3.1508073E-1,-1.088801E0,-2.058538E0,-1.0806285E0,4.0083188E-1,-1.9473223E-1,-4.55261E-1,-8.9432925E-1,6.421077E-1,3.4142512E-1,2.3157114E-1,5.79176E-1,1.4146793E-1,4.408463E-1,-1.7134236E-1,1.7815468E-1,3.4382057E-1,-8.561941E-2,-1.1368983E-1,1.8156791E-2,3.7699872E-1,2.3370205E-1,-3.2331058E-1,7.58587E-3,-1.2632713E-1,1.6686069E-2,5.4827742E-2,1.8229377E-1,4.0411815E-1,-3.013812E-1,-2.35433E-1,-9.6069473E-1,2.3147197E-1,8.328906E-2,2.533173E-1,4.182209E-1,-1.5596664E-1,6.9728744E-1,5.199639E-1,1.8677746E-1,6.9791245E-1,1.6597728E-1,1.2553433E-2,-7.3941237E-1,-3.2183945E-1,-1.08610086E-1,-2.424001E-1,-1.0214645E0,2.774145E-1,-1.5265484E-1,-7.453273E-2,5.9509788E-2,8.028774E-2,1.1631234E-2,-2.470317E-1,-3.376954E-2,5.054334E-3,-2.0000093E-1,-4.114367E-1,-2.2164373E-1,-7.308504E-1,-4.5993987E-1,-4.2649937E-1,-1.9614355E-1,3.957909E-2,2.3580386E-1,-9.997521E-2,-1.1137471E-2,-1.7893586E-1,-1.0134536E-1,-2.2015204E-1,-3.7876227E-1],"categories":[],"categories_nodes":[],"categories_segments":[],"categories_sizes":[],"default_left":[0,0,0,0,0,0,0,0,0,0,0,0,0,0,0,0,0,0,0,0,0,0,0,0,0,0,0,0,0,0,0,0,0,0,0,0,0,0,0,0,0,0,0,0,0,0,0,0,0,0,0,0,0,0,0,0,0,0,0,0,0,0,0,0,0,0,0,0,0,0,0,0,0,0,0,0,0,0,0,0,0,0,0,0,0,0,0,0,0,0,0,0,0,0,0,0,0,0,0,0,0,0,0,0,0,0,0,0,0,0,0,0,0,0,0,0,0,0,0,0,0,0,0,0,0,0,0],"id":11,"left_children":[1,3,5,7,9,11,13,15,17,19,21,23,25,27,29,31,33,35,37,39,41,43,45,47,49,51,53,55,57,59,61,63,65,67,69,71,73,75,77,79,81,83,85,87,89,91,93,95,97,99,101,103,105,107,109,111,113,115,117,119,121,123,125,-1,-1,-1,-1,-1,-1,-1,-1,-1,-1,-1,-1,-1,-1,-1,-1,-1,-1,-1,-1,-1,-1,-1,-1,-1,-1,-1,-1,-1,-1,-1,-1,-1,-1,-1,-1,-1,-1,-1,-1,-1,-1,-1,-1,-1,-1,-1,-1,-1,-1,-1,-1,-1,-1,-1,-1,-1,-1,-1,-1,-1,-1,-1,-1],"loss_changes":[4.961391E4,1.0692164E4,1.7173762E4,9.393518E3,6.6496113E3,1.6499805E4,1.4340457E4,3.3625732E3,9.083921E3,5.9496846E3,4.8582715E3,8.606281E3,5.6422676E3,6.397211E3,5.1148857E3,1.1930264E3,2.21671E3,7.24855E3,1.1091357E3,7.984046E2,1.3588354E3,4.42508E3,2.6138594E3,2.5585781E3,5.0034453E3,7.8174575E3,7.899685E3,1.2813765E3,1.5846641E3,2.0963823E3,1.6201162E3,6.458672E2,1.2917559E3,1.02195483E3,1.0272904E3,3.4254207E4,5.9081445E3,4.4531836E2,2.2668442E2,3.6846405E2,2.0246344E2,4.2374463E2,1.8821035E3,3.7140898E3,5.659287E2,2.9196826E3,6.9492017E2,3.1907407E3,6.985737E2,5.1773145E3,3.2714404E3,5.2092227E3,8.225533E3,3.6004316E3,5.724377E3,5.1548584E2,4.1012256E2,1.6214297E3,3.0227148E2,8.835011E2,4.2002618E2,7.242012E2,6.14124E2,0E0,0E0,0E0,0E0,0E0,0E0,0E0,0E0,0E0,0E0,0E0,0E0,0E0,0E0,0E0,0E0,0E0,0E0,0E0,0E0,0E0,0E0,0E0,0E0,0E0,0E0,0E0,0E0,0E0,0E0,0E0,0E0,0E0,0E0,0E0,0E0,0E0,0E0,0E0,0E0,0E0,0E0,0E0,0E0,0E0,0E0,0E0,0E0,0E0,0E0,0E0,0E0,0E0,0E0,0E0,0E0,0E0,0E0,0E0,0E0,0E0,0E0,0E0,0E0],"parents":[2147483647,0,0,1,1,2,2,3,3,4,4,5,5,6,6,7,7,8,8,9,9,10,10,11,11,12,12,13,13,14,14,15,15,16,16,17,17,18,18,19,19,20,20,21,21,22,22,23,23,24,24,25,25,26,26,27,27,28,28,29,29,30,30,31,31,32,32,33,33,34,34,35,35,36,36,37,37,38,38,39,39,40,40,41,41,42,42,43,43,44,44,45,45,46,46,47,47,48,48,49,49,50,50,51,51,52,52,53,53,54,54,55,55,56,56,57,57,58,58,59,59,60,60,61,61,62,62],"right_children":[2,4,6,8,10,12,14,16,18,20,22,24,26,28,30,32,34,36,38,40,42,44,46,48,50,52,54,56,58,60,62,64,66,68,70,72,74,76,78,80,82,84,86,88,90,92,94,96,98,100,102,104,106,108,110,112,114,116,118,120,122,124,126,-1,-1,-1,-1,-1,-1,-1,-1,-1,-1,-1,-1,-1,-1,-1,-1,-1,-1,-1,-1,-1,-1,-1,-1,-1,-1,-1,-1,-1,-1,-1,-1,-1,-1,-1,-1,-1,-1,-1,-1,-1,-1,-1,-1,-1,-1,-1,-1,-1,-1,-1,-1,-1,-1,-1,-1,-1,-1,-1,-1,-1,-1,-1,-1],"split_conditions":[4.3035382E-3,2.91E1,7.99E2,-3.33E2,3.382091E0,9.5E0,8E1,1.5495647E0,5.385028E1,-6.021328E-2,3.77E1,-2.636655E-1,3.309216E1,1.7833333E0,2.3333333E0,1.95E0,1.6280702E-1,1.9328351E0,1.1307122E0,5.4166668E1,-7.4410397E-1,7.99E2,1.71E2,3.59E2,9.52E2,6.333333E-1,6.423042E1,1.2333333E0,8.1002486E-1,-8.8332194E-1,5.9E0,-3.762368E-1,3.12E1,4.95E0,6.5833336E1,5.1619668E-2,3.6642609E0,-3.496145E0,2.5166666E1,3.3E1,4.7990026E0,-1.8883965E0,7.4576735E-1,3.382091E0,3.36E1,-1.32E2,-2.01E2,-6.9794416E-1,2.22E1,3.382091E0,5E0,2.2538267E1,3.03E2,3.8975864E1,8.9E0,-4.815781E-2,8.45E1,2.9396415E-1,1.4283334E1,6.675799E-1,2.2025439E-1,1.39E1,5.1605167E1,6.421077E-1,3.4142512E-1,2.3157114E-1,5.79176E-1,1.4146793E-1,4.408463E-1,-1.7134236E-1,1.7815468E-1,3.4382057E-1,-8.561941E-2,-1.1368983E-1,1.8156791E-2,3.7699872E-1,2.3370205E-1,-3.2331058E-1,7.58587E-3,-1.2632713E-1,1.6686069E-2,5.4827742E-2,1.8229377E-1,4.0411815E-1,-3.013812E-1,-2.35433E-1,-9.6069473E-1,2.3147197E-1,8.328906E-2,2.533173E-1,4.182209E-1,-1.5596664E-1,6.9728744E-1,5.199639E-1,1.8677746E-1,6.9791245E-1,1.6597728E-1,1.2553433E-2,-7.3941237E-1,-3.2183945E-1,-1.08610086E-1,-2.424001E-1,-1.0214645E0,2.774145E-1,-1.5265484E-1,-7.453273E-2,5.9509788E-2,8.028774E-2,1.1631234E-2,-2.470317E-1,-3.376954E-2,5.054334E-3,-2.0000093E-1,-4.114367E-1,-2.2164373E-1,-7.308504E-1,-4.5993987E-1,-4.2649937E-1,-1.9614355E-1,3.957909E-2,2.3580386E-1,-9.997521E-2,-1.1137471E-2,-1.7893586E-1,-1.0134536E-1,-2.2015204E-1,-3.7876227E-1],"split_indices":[38,21,24,24,25,21,26,22,33,37,21,37,29,9,1,9,37,25,15,19,38,26,26,26,26,1,25,9,37,14,1,22,13,9,19,37,25,7,19,26,27,14,14,29,13,24,28,37,4,29,2,34,26,25,5,22,3,14,18,7,22,4,25,0,0,0,0,0,0,0,0,0,0,0,0,0,0,0,0,0,0,0,0,0,0,0,0,0,0,0,0,0,0,0,0,0,0,0,0,0,0,0,0,0,0,0,0,0,0,0,0,0,0,0,0,0,0,0,0,0,0,0,0,0,0,0,0],"split_type":[0,0,0,0,0,0,0,0,0,0,0,0,0,0,0,0,0,0,0,0,0,0,0,0,0,0,0,0,0,0,0,0,0,0,0,0,0,0,0,0,0,0,0,0,0,0,0,0,0,0,0,0,0,0,0,0,0,0,0,0,0,0,0,0,0,0,0,0,0,0,0,0,0,0,0,0,0,0,0,0,0,0,0,0,0,0,0,0,0,0,0,0,0,0,0,0,0,0,0,0,0,0,0,0,0,0,0,0,0,0,0,0,0,0,0,0,0,0,0,0,0,0,0,0,0,0,0],"sum_hessian":[2.386877E6,1.215844E6,1.171033E6,9.78118E5,2.37726E5,1.070329E6,1.00704E5,1.6768E4,9.6135E5,1.5251E4,2.22475E5,1.95675E5,8.74654E5,1.8843E4,8.1861E4,8.794E3,7.974E3,9.43294E5,1.8056E4,1.1123E4,4.128E3,2.13369E5,9.106E3,1.0078E4,1.85597E5,3.41647E5,5.33007E5,8.571E3,1.0272E4,2.7769E4,5.4092E4,2.856E3,5.938E3,4.396E3,3.578E3,6.7128E4,8.76166E5,1.7155E4,9.01E2,6.634E3,4.489E3,2.811E3,1.317E3,2.0581E5,7.559E3,2.806E3,6.3E3,5.458E3,4.62E3,1.83646E5,1.951E3,1.3936E4,3.27711E5,3.60666E5,1.72341E5,4.416E3,4.155E3,8.19E3,2.082E3,8.53E3,1.9239E4,4.3685E4,1.0407E4,1.87E3,9.86E2,4.73E3,1.208E3,2.763E3,1.633E3,2.492E3,1.086E3,3.1464E4,3.5664E4,3.1737E4,8.44429E5,2.249E3,1.4906E4,2.62E2,6.39E2,2.818E3,3.816E3,2.204E3,2.285E3,7.8E1,2.733E3,5.63E2,7.54E2,1.6554E4,1.89256E5,4.096E3,3.463E3,4.25E2,2.381E3,6.25E2,5.675E3,1.347E3,4.111E3,4.507E3,1.13E2,1.0894E4,1.72752E5,1.046E3,9.05E2,1.0606E4,3.33E3,2.79382E5,4.8329E4,9.2432E4,2.68234E5,1.2189E4,1.60152E5,2.272E3,2.144E3,2.297E3,1.858E3,4.763E3,3.427E3,1.156E3,9.26E2,5.024E3,3.506E3,1.0239E4,9E3,1.9835E4,2.385E4,7.25E3,3.157E3],"tree_param":{"num_deleted":"0","num_feature":"39","num_nodes":"127","size_leaf_vector":"1"}},{"base_weights":[-1.0908437E-6,-9.510014E-2,1.2760516E-1,-4.4781983E-1,-7.4784495E-2,1.0223245E-1,3.969789E-1,5.0601935E-1,-4.877887E-1,5.0939485E-2,-1.181093E-1,2.0680776E-2,1.843948E-1,5.7856166E-1,5.3894413E-3,9.473434E-1,-3.568348E-2,5.187816E-2,-5.6263626E-1,4.86498E-1,-7.1635485E-2,-3.5635818E-2,-2.6916128E-1,-1.06046245E-1,1.2637272E-1,6.381504E-2,3.3627656E-1,6.542481E-1,-6.1562933E-2,-9.860891E-2,6.343882E-1,1.2305113E0,-9.7014934E-1,6.8798647E-3,-2.380501E0,-4.7926307E-1,2.0098062E-1,6.709837E-1,-6.0265356E-1,-7.6757723E-1,5.799078E-1,-2.888121E-1,1.20687015E-1,-1.1808746E-1,1.2431661E-1,-9.462632E-1,-2.1804345E-1,6.395614E-1,-1.6334698E-1,-1.6550682E-1,1.728746E-1,4.2228445E-2,8.689371E-1,4.4907576E-1,8.020483E-2,5.5653757E-1,1.0326049E0,-3.8805717E-1,4.4629794E-1,-2.1568899E-1,6.885013E-1,1.1318129E-1,7.6822495E-1,6.1158884E-1,2.8528056E-1,-2.3640974E-1,-7.546308E-1,1.0311409E-1,-3.1757317E-2,-1.0092589E0,1.467216E-1,-2.4920763E-1,-2.1252207E-2,1.5599596E-2,1.489509E-1,5.572167E-1,4.6838716E-2,-3.0593914E-1,-1.4260626E-1,-6.955575E-1,-3.4188803E-2,2.1776643E-1,3.514733E-2,-1.259483E-1,5.3994555E-2,-3.081631E-1,4.2505026E-2,-2.1435648E-2,-2.4601634E-1,-2.5048172E-2,1.3478357E-1,-9.529525E-2,-4.479043E-1,-8.697691E-2,5.7676002E-2,3.191653E-1,-1.2891343E-1,-1.275966E-1,-2.5903117E-2,-6.965327E-2,1.7856222E-1,4.1729804E-2,1.9451891E-1,2.146276E-2,-1.3813424E-1,1.4967713E-1,3.6751246E-1,1.753517E-1,3.4490354E-2,-4.6870452E-3,1.8301558E-1,1.21236935E-1,3.042475E-1,1.7928554E-1,3.4060344E-1,-2.0899217E-1,-3.925998E-2,2.036569E-1,9.7049784E-4,-8.551264E-2,2.8766665E-1,3.293579E-2,2.3393376E-1,2.2632137E-1,2.3062744E-3,3.2715884E-1,1.9263953E-1],"categories":[],"categories_nodes":[],"categories_segments":[],"categories_sizes":[],"default_left":[0,0,0,0,0,0,0,0,0,0,0,0,0,0,0,0,0,0,0,0,0,0,0,0,0,0,0,0,0,0,0,0,0,0,0,0,0,0,0,0,0,0,0,0,0,0,0,0,0,0,0,0,0,0,0,0,0,0,0,0,0,0,0,0,0,0,0,0,0,0,0,0,0,0,0,0,0,0,0,0,0,0,0,0,0,0,0,0,0,0,0,0,0,0,0,0,0,0,0,0,0,0,0,0,0,0,0,0,0,0,0,0,0,0,0,0,0,0,0,0,0,0,0,0,0,0,0],"id":12,"left_children":[1,3,5,7,9,11,13,15,17,19,21,23,25,27,29,31,33,35,37,39,41,43,45,47,49,51,53,55,57,59,61,63,65,67,69,71,73,75,77,79,81,83,85,87,89,91,93,95,97,99,101,103,105,107,109,111,113,115,117,119,121,123,125,-1,-1,-1,-1,-1,-1,-1,-1,-1,-1,-1,-1,-1,-1,-1,-1,-1,-1,-1,-1,-1,-1,-1,-1,-1,-1,-1,-1,-1,-1,-1,-1,-1,-1,-1,-1,-1,-1,-1,-1,-1,-1,-1,-1,-1,-1,-1,-1,-1,-1,-1,-1,-1,-1,-1,-1,-1,-1,-1,-1,-1,-1,-1,-1],"loss_changes":[2.8965336E4,9.8001045E3,6.9661953E3,2.83979E3,7.0438003E3,6.241499E3,6.238758E3,7.1627704E2,2.887586E3,1.7694021E4,1.1981154E4,6.2615728E3,8.497851E3,2.9042031E3,1.8183988E3,8.97641E2,1.343516E2,6.8972174E2,3.0996074E3,8.5266875E3,1.08026875E4,8.204311E3,1.1755928E4,9.0827705E3,3.4597727E3,4.4954683E3,5.93149E3,1.9811719E3,1.0512659E3,2.198412E3,2.7503308E2,3.2317554E2,5.7960846E1,5.0275753E1,6.9392166E1,2.739427E2,2.993612E2,1.2048701E3,3.2285488E3,5.1149766E3,4.575916E3,7.460616E3,3.3061042E3,1.3437926E4,1.4289357E4,8.193889E3,9.314027E3,6.88425E3,3.9824824E3,1.7767677E3,3.5312285E3,3.712034E3,8.8931885E2,6.450332E3,3.1884868E3,2.971204E3,4.909619E2,3.0617743E2,2.5563516E2,1.6918848E3,1.6308752E2,5.4583736E1,1.2682947E2,0E0,0E0,0E0,0E0,0E0,0E0,0E0,0E0,0E0,0E0,0E0,0E0,0E0,0E0,0E0,0E0,0E0,0E0,0E0,0E0,0E0,0E0,0E0,0E0,0E0,0E0,0E0,0E0,0E0,0E0,0E0,0E0,0E0,0E0,0E0,0E0,0E0,0E0,0E0,0E0,0E0,0E0,0E0,0E0,0E0,0E0,0E0,0E0,0E0,0E0,0E0,0E0,0E0,0E0,0E0,0E0,0E0,0E0,0E0,0E0,0E0,0E0,0E0,0E0],"parents":[2147483647,0,0,1,1,2,2,3,3,4,4,5,5,6,6,7,7,8,8,9,9,10,10,11,11,12,12,13,13,14,14,15,15,16,16,17,17,18,18,19,19,20,20,21,21,22,22,23,23,24,24,25,25,26,26,27,27,28,28,29,29,30,30,31,31,32,32,33,33,34,34,35,35,36,36,37,37,38,38,39,39,40,40,41,41,42,42,43,43,44,44,45,45,46,46,47,47,48,48,49,49,50,50,51,51,52,52,53,53,54,54,55,55,56,56,57,57,58,58,59,59,60,60,61,61,62,62],"right_children":[2,4,6,8,10,12,14,16,18,20,22,24,26,28,30,32,34,36,38,40,42,44,46,48,50,52,54,56,58,60,62,64,66,68,70,72,74,76,78,80,82,84,86,88,90,92,94,96,98,100,102,104,106,108,110,112,114,116,118,120,122,124,126,-1,-1,-1,-1,-1,-1,-1,-1,-1,-1,-1,-1,-1,-1,-1,-1,-1,-1,-1,-1,-1,-1,-1,-1,-1,-1,-1,-1,-1,-1,-1,-1,-1,-1,-1,-1,-1,-1,-1,-1,-1,-1,-1,-1,-1,-1,-1,-1,-1,-1,-1,-1,-1,-1,-1,-1,-1,-1,-1,-1,-1,-1,-1,-1],"split_conditions":[2.13E1,6.95E0,5.179105E0,-1.7129314E-1,1.4333333E0,2.5401688E1,1.43E2,1.71E2,7.0709934E0,9.441935E0,3.72E2,1.85E2,1.5226984E0,8.05E1,6.505509E1,1.4674476E0,2.145E1,2.4E0,-3.33E2,1.3E1,3.72E2,1.6600078E0,2.6836023E1,6.666667E-1,1.3E1,3.66E1,2.6265707E1,3.47E1,3.5830997E1,7.69E2,3.02E1,8.8333336E1,4.66E2,7.69E2,7.3E1,5.8E0,9.6E0,1.0733334E1,2.2E1,6.3333332E1,2.1365268E-2,4.795931E1,-4.957481E0,7.02E2,1.28E2,2.4666667E0,7.99E2,1.8659245E1,4.3666668E1,8.0666664E1,3.31E1,7.99E2,3.63E1,4.66E2,4.676443E1,1.28E2,1.2409676E1,2.39E1,6.73E2,8.19E2,2.4E0,2.9396415E-1,2.51E1,6.1158884E-1,2.8528056E-1,-2.3640974E-1,-7.546308E-1,1.0311409E-1,-3.1757317E-2,-1.0092589E0,1.467216E-1,-2.4920763E-1,-2.1252207E-2,1.5599596E-2,1.489509E-1,5.572167E-1,4.6838716E-2,-3.0593914E-1,-1.4260626E-1,-6.955575E-1,-3.4188803E-2,2.1776643E-1,3.514733E-2,-1.259483E-1,5.3994555E-2,-3.081631E-1,4.2505026E-2,-2.1435648E-2,-2.4601634E-1,-2.5048172E-2,1.3478357E-1,-9.529525E-2,-4.479043E-1,-8.697691E-2,5.7676002E-2,3.191653E-1,-1.2891343E-1,-1.275966E-1,-2.5903117E-2,-6.965327E-2,1.7856222E-1,4.1729804E-2,1.9451891E-1,2.146276E-2,-1.3813424E-1,1.4967713E-1,3.6751246E-1,1.753517E-1,3.4490354E-2,-4.6870452E-3,1.8301558E-1,1.21236935E-1,3.042475E-1,1.7928554E-1,3.4060344E-1,-2.0899217E-1,-3.925998E-2,2.036569E-1,9.7049784E-4,-8.551264E-2,2.8766665E-1,3.293579E-2,2.3393376E-1,2.2632137E-1,2.3062744E-3,3.2715884E-1,1.9263953E-1],"split_indices":[21,18,6,37,1,34,24,26,33,27,24,26,22,19,29,22,2,21,24,26,30,22,25,1,30,5,33,10,31,28,12,19,24,30,19,13,13,10,28,11,14,31,14,26,28,1,26,29,11,19,13,26,21,24,33,28,33,21,26,26,17,14,5,0,0,0,0,0,0,0,0,0,0,0,0,0,0,0,0,0,0,0,0,0,0,0,0,0,0,0,0,0,0,0,0,0,0,0,0,0,0,0,0,0,0,0,0,0,0,0,0,0,0,0,0,0,0,0,0,0,0,0,0,0,0,0,0],"split_type":[0,0,0,0,0,0,0,0,0,0,0,0,0,0,0,0,0,0,0,0,0,0,0,0,0,0,0,0,0,0,0,0,0,0,0,0,0,0,0,0,0,0,0,0,0,0,0,0,0,0,0,0,0,0,0,0,0,0,0,0,0,0,0,0,0,0,0,0,0,0,0,0,0,0,0,0,0,0,0,0,0,0,0,0,0,0,0,0,0,0,0,0,0,0,0,0,0,0,0,0,0,0,0,0,0,0,0,0,0,0,0,0,0,0,0,0,0,0,0,0,0,0,0,0,0,0,0],"sum_hessian":[2.386877E6,1.367639E6,1.019238E6,7.4481E4,1.293158E6,9.315E5,8.7738E4,2.995E3,7.1486E4,3.31418E5,9.6174E5,4.67488E5,4.64012E5,5.9942E4,2.7796E4,1.65E3,1.345E3,8.707E3,6.2779E4,7.2784E4,2.58634E5,6.22086E5,3.39654E5,2.12589E5,2.54899E5,2.58661E5,2.05351E5,5.3604E4,6.338E3,2.3853E4,3.943E3,1.438E3,2.12E2,1.322E3,2.3E1,1.908E3,6.799E3,1.972E3,6.0807E4,5.045E3,6.7739E4,1.21468E5,1.37166E5,4.10489E5,2.11597E5,2.3841E4,3.15813E5,1.5171E4,1.97418E5,3.5029E4,2.1987E5,2.51908E5,6.753E3,1.42555E5,6.2796E4,4.2604E4,1.1E4,3.858E3,2.48E3,2.0765E4,3.088E3,8.06E2,3.137E3,3.68E2,1.07E3,1.91E2,2.1E1,3.31E2,9.91E2,1.7E1,6E0,1.025E3,8.83E2,4.521E3,2.278E3,5.96E2,1.376E3,1.4216E4,4.6591E4,1.495E3,3.55E3,5.1494E4,1.6245E4,9.4936E4,2.6532E4,2.463E3,1.34703E5,3.84918E5,2.5571E4,1.29063E5,8.2534E4,1.1091E4,1.275E4,2.68734E5,4.7079E4,1.0861E4,4.31E3,4.4845E4,1.52573E5,3.2207E4,2.822E3,2.0529E5,1.458E4,2.38028E5,1.388E4,3.313E3,3.44E3,1.01437E5,4.1118E4,5.3179E4,9.617E3,3.1961E4,1.0643E4,2.103E3,8.897E3,1.753E3,2.105E3,1.626E3,8.54E2,1.9608E4,1.157E3,4.21E2,2.667E3,1.13E2,6.93E2,8.8E2,2.257E3],"tree_param":{"num_deleted":"0","num_feature":"39","num_nodes":"127","size_leaf_vector":"1"}},{"base_weights":[-4.5420933E-7,-1.1082161E-1,6.1087146E-2,5.33312E-1,-1.23458594E-1,4.9951747E-2,3.5239002E-1,1.1358385E0,2.2524887E-1,1.8933104E-1,-1.4617342E-1,1.2111293E-2,1.2801929E-1,8.906814E-1,2.888716E-1,-1.7493945E-1,1.3397069E0,-3.9407986E-1,4.1135594E-1,6.2855524E-1,2.2178737E-2,1.8161209E-1,-1.6939273E-1,-1.8345917E-2,1.8813069E-1,2.6182246E-1,7.1160965E-2,-4.24544E-1,1.0722504E0,5.8643647E-2,3.9933816E-1,1.843134E0,-3.1676513E-1,1.4687817E0,-1.08229674E-1,-1.0168678E0,-9.700055E-2,6.566364E-1,3.0803794E-2,-9.004004E-2,1.1959866E0,-3.1764558E-1,2.5208363E-1,9.102644E-1,1.0487489E-1,-1.8153596E-1,4.2307922E-1,3.7653735E-1,-2.8284173E-2,2.6239708E-1,-4.866691E-1,3.1848413E-1,-1.02895595E-1,2.4135299E-1,2.5694655E-2,-9.137345E-1,1.6295942E0,8.293583E-1,1.7650336E0,2.0003816E-2,1.0924864E0,-7.87565E-2,4.703983E-1,7.194376E-1,3.3344597E-1,-2.9057932E-1,-3.0782705E-2,4.9308527E-1,1.2294972E-1,2.4139017E-2,-3.1244346E-1,-1.7309904E-2,-3.462596E-1,1.6532569E-1,-6.5024056E-2,9.012001E-2,2.6543128E-1,4.253312E-2,-1.9527657E-1,1.6512305E-2,-4.829879E-1,8.167025E-1,3.1510478E-1,-2.68185E-1,-2.422048E-2,-2.942488E-1,8.4892124E-2,1.6495053E-1,4.539924E-1,-1.0556595E-1,5.815134E-2,-4.17613E-2,-1.02417864E-1,1.8561447E-1,-7.607736E-2,2.3734136E-1,-5.9106607E-2,-2.0820333E-2,2.0382926E-2,3.7627846E-2,1.509459E-1,-6.134861E-1,-1.362499E-1,1.5868385E-1,4.7914997E-2,-8.7911785E-2,1.8259047E-1,5.4719932E-2,2.381229E-1,-2.0091817E-1,1.1345761E-2,2.2498527E-1,-4.2082968E-1,1.1395596E-1,1.0662317E0,2.1998869E-1,4.698609E-1,4.8265165E-1,1.0290778E0,-2.5320396E-1,3.168027E-2,-3.1197729E-2,4.712274E-1,-4.596299E-2,2.8307113E-1,1.15074605E-1,2.8199813E-1],"categories":[],"categories_nodes":[],"categories_segments":[],"categories_sizes":[],"default_left":[0,0,0,0,0,0,0,0,0,0,0,0,0,0,0,0,0,0,0,0,0,0,0,0,0,0,0,0,0,0,0,0,0,0,0,0,0,0,0,0,0,0,0,0,0,0,0,0,0,0,0,0,0,0,0,0,0,0,0,0,0,0,0,0,0,0,0,0,0,0,0,0,0,0,0,0,0,0,0,0,0,0,0,0,0,0,0,0,0,0,0,0,0,0,0,0,0,0,0,0,0,0,0,0,0,0,0,0,0,0,0,0,0,0,0,0,0,0,0,0,0,0,0,0,0,0,0],