{"learner":{"attributes":{"best_iteration":"344","best_score":"0.47078737727564285"},"feature_names":["rain","ws","td","rh","tdmax","tdmin","u_vec","v_vec","month_sin","month_cos","day_sin","day_cos","rain_t-1h","rain_t-2h","rain_t-3h","rain_t-6h","rain_t-12h","rain_t-24h","u_vec_t-1h","u_vec_t-2h","u_vec_t-3h","u_vec_t-6h","u_vec_t-12h","u_vec_t-24h","v_vec_t-1h","v_vec_t-2h","v_vec_t-3h","v_vec_t-6h","v_vec_t-12h","v_vec_t-24h","td_t-1h","td_t-2h","td_t-3h","td_t-6h","td_t-12h","td_t-24h","rh_t-1h","rh_t-2h","rh_t-3h","rh_t-6h","rh_t-12h","rh_t-24h","rain_tel_aviv","u_vec_tel_aviv","v_vec_tel_aviv","rh_tel_aviv","u_convergence_tel_aviv","v_convergence_tel_aviv","moisture_flux_tel_aviv","rain_tel_aviv_t-1h","rain_tel_aviv_t-2h","rain_tel_aviv_t-3h","u_vec_tel_aviv_t-1h","u_vec_tel_aviv_t-2h","u_vec_tel_aviv_t-3h","v_vec_tel_aviv_t-1h","v_vec_tel_aviv_t-2h","v_vec_tel_aviv_t-3h","rh_tel_aviv_t-1h","rh_tel_aviv_t-2h","rh_tel_aviv_t-3h","u_convergence_tel_aviv_t-1h","u_convergence_tel_aviv_t-2h","u_convergence_tel_aviv_t-3h","v_convergence_tel_aviv_t-1h","v_convergence_tel_aviv_t-2h","v_convergence_tel_aviv_t-3h","moisture_flux_tel_aviv_t-1h","moisture_flux_tel_aviv_t-2h","moisture_flux_tel_aviv_t-3h","rain_haifa","u_vec_haifa","v_vec_haifa","rh_haifa","u_convergence_haifa","v_convergence_haifa","moisture_flux_haifa","rain_haifa_t-1h","rain_haifa_t-2h","rain_haifa_t-3h","u_vec_haifa_t-1h","u_vec_haifa_t-2h","u_vec_haifa_t-3h","v_vec_haifa_t-1h","v_vec_haifa_t-2h","v_vec_haifa_t-3h","rh_haifa_t-1h","rh_haifa_t-2h","rh_haifa_t-3h","u_convergence_haifa_t-1h","u_convergence_haifa_t-2h","u_convergence_haifa_t-3h","v_convergence_haifa_t-1h","v_convergence_haifa_t-2h","v_convergence_haifa_t-3h","moisture_flux_haifa_t-1h","moisture_flux_haifa_t-2h","moisture_flux_haifa_t-3h"],"feature_types":["float","float","float","float","float","float","float","float","float","float","float","float","float","float","float","float","float","float","float","float","float","float","float","float","float","float","float","float","float","float","float","float","float","float","float","float","float","float","float","float","float","float","float","float","float","float","float","float","float","float","float","float","float","float","float","float","float","float","float","float","float","float","float","float","float","float","float","float","float","float","float","float","float","float","float","float","float","float","float","float","float","float","float","float","float","float","float","float","float","float","float","float","float","float","float","float","float","float"],"gradient_booster":{"model":{"cats":{"enc":[],"feature_segments":[],"sorted_idx":[]},"gbtree_model_param":{"num_parallel_tree":"1","num_trees":"395"},"iteration_indptr":[0,1,2,3,4,5,6,7,8,9,10,11,12,13,14,15,16,17,18,19,20,21,22,23,24,25,26,27,28,29,30,31,32,33,34,35,36,37,38,39,40,41,42,43,44,45,46,47,48,49,50,51,52,53,54,55,56,57,58,59,60,61,62,63,64,65,66,67,68,69,70,71,72,73,74,75,76,77,78,79,80,81,82,83,84,85,86,87,88,89,90,91,92,93,94,95,96,97,98,99,100,101,102,103,104,105,106,107,108,109,110,111,112,113,114,115,116,117,118,119,120,121,122,123,124,125,126,127,128,129,130,131,132,133,134,135,136,137,138,139,140,141,142,143,144,145,146,147,148,149,150,151,152,153,154,155,156,157,158,159,160,161,162,163,164,165,166,167,168,169,170,171,172,173,174,175,176,177,178,179,180,181,182,183,184,185,186,187,188,189,190,191,192,193,194,195,196,197,198,199,200,201,202,203,204,205,206,207,208,209,210,211,212,213,214,215,216,217,218,219,220,221,222,223,224,225,226,227,228,229,230,231,232,233,234,235,236,237,238,239,240,241,242,243,244,245,246,247,248,249,250,251,252,253,254,255,256,257,258,259,260,261,262,263,264,265,266,267,268,269,270,271,272,273,274,275,276,277,278,279,280,281,282,283,284,285,286,287,288,289,290,291,292,293,294,295,296,297,298,299,300,301,302,303,304,305,306,307,308,309,310,311,312,313,314,315,316,317,318,319,320,321,322,323,324,325,326,327,328,329,330,331,332,333,334,335,336,337,338,339,340,341,342,343,344,345,346,347,348,349,350,351,352,353,354,355,356,357,358,359,360,361,362,363,364,365,366,367,368,369,370,371,372,373,374,375,376,377,378,379,380,381,382,383,384,385,386,387,388,389,390,391,392,393,394,395],"tree_info":[0,0,0,0,0,0,0,0,0,0,0,0,0,0,0,0,0,0,0,0,0,0,0,0,0,0,0,0,0,0,0,0,0,0,0,0,0,0,0,0,0,0,0,0,0,0,0,0,0,0,0,0,0,0,0,0,0,0,0,0,0,0,0,0,0,0,0,0,0,0,0,0,0,0,0,0,0,0,0,0,0,0,0,0,0,0,0,0,0,0,0,0,0,0,0,0,0,0,0,0,0,0,0,0,0,0,0,0,0,0,0,0,0,0,0,0,0,0,0,0,0,0,0,0,0,0,0,0,0,0,0,0,0,0,0,0,0,0,0,0,0,0,0,0,0,0,0,0,0,0,0,0,0,0,0,0,0,0,0,0,0,0,0,0,0,0,0,0,0,0,0,0,0,0,0,0,0,0,0,0,0,0,0,0,0,0,0,0,0,0,0,0,0,0,0,0,0,0,0,0,0,0,0,0,0,0,0,0,0,0,0,0,0,0,0,0,0,0,0,0,0,0,0,0,0,0,0,0,0,0,0,0,0,0,0,0,0,0,0,0,0,0,0,0,0,0,0,0,0,0,0,0,0,0,0,0,0,0,0,0,0,0,0,0,0,0,0,0,0,0,0,0,0,0,0,0,0,0,0,0,0,0,0,0,0,0,0,0,0,0,0,0,0,0,0,0,0,0,0,0,0,0,0,0,0,0,0,0,0,0,0,0,0,0,0,0,0,0,0,0,0,0,0,0,0,0,0,0,0,0,0,0,0,0,0,0,0,0,0,0,0,0,0,0,0,0,0,0,0,0,0,0,0,0,0,0,0,0,0,0,0,0,0,0,0,0,0,0,0,0,0,0,0,0,0,0,0,0,0,0,0,0,0,0,0,0,0,0,0,0,0,0,0,0,0],"trees":[{"base_weights":[-4.5139043E-8,-1.2511778E0,7.387366E-1,-1.7621882E0,-2.5622058E-1,1.3422018E0,3.582947E-1,-1.9323366E0,-1.0092044E0,-1.0092044E0,-2.5622058E-1,1.5165097E0,6.115721E-1,1.3717136E-1,7.491541E-1,-1.9616246E0,-1.4707705E0,-1.4707705E0,-1.0092044E0,-1.0092044E0,-2.5622058E-1,-1.0092044E0,-2.5622058E-1,1.2445234E0,8.002209E-2,1.0873465E-1,9.485555E-1,-2.2504625E-1,2.5146484E-1,5.029492E-1,1.0177003E0,-1.9774237E0,-8.580988E-2,-1.7161975E0,-1.4707705E0,-1.4707705E0,-1.2399874E0,-1.0092044E0,-6.199937E-2,-1.0092044E0,-3.1635623E-2,-1.2811029E-2,-5.9282047E-1,-2.5622058E-1,-1.0092044E0,-1.0092044E0,-2.5622058E-1,-1.2811029E-2,1.2538913E0,-2.4301857E-1,4.7052777E-1,2.6432255E-2,1.0248356E0,3.1780335E-1,-2.5622058E-1,-3.8928906E-3,4.0980294E-1,4.4316274E-1,6.77881E-1,7.845114E-1,1.1570125E0,-9.9474564E-2,-9.234053E-2,-8.580988E-2,-7.353853E-2,-8.580988E-2,-7.353853E-2,-7.353853E-2,-6.199937E-2,-7.353853E-2,-6.199937E-2,-5.046022E-2,-5.6229796E-2,-5.046022E-2,-4.1047923E-2,-3.1635623E-2,-2.1856999E-2,-5.046022E-2,-1.2811029E-2,-1.9906482E-2,-5.046022E-2,-5.046022E-2,-1.6106062E-2,-1.2811029E-2,-4.2023513E-2,6.7220025E-2,5.823272E-2,-1.2811029E-2,6.744732E-3,2.6432255E-2,-1.2811029E-2,2.6432255E-2,5.4003447E-2,2.2158137E-2,-1.2811029E-2,-1.2811029E-2,1.6293425E-2,-1.2811029E-2,1.6910508E-2,-9.117293E-3,2.2158137E-2,2.2158137E-2,2.8026093E-2,2.8026093E-2,4.30565E-2,2.2158137E-2,4.46164E-2,4.8538096E-2,6.03227E-2],"categories":[],"categories_nodes":[],"categories_segments":[],"categories_sizes":[],"default_left":[0,0,0,1,0,0,0,1,0,0,0,0,0,1,0,1,0,0,0,0,0,0,0,0,0,0,0,0,1,0,0,1,0,0,0,0,0,0,0,0,0,0,0,0,0,0,0,0,0,0,0,0,0,0,1,1,0,0,0,0,0,0,0,0,0,0,0,0,0,0,0,0,0,0,0,0,0,0,0,0,0,0,0,0,0,0,0,0,0,0,0,0,0,0,0,0,0,0,0,0,0,0,0,0,0,0,0,0,0],"id":0,"left_children":[1,3,5,7,9,11,13,15,17,19,21,23,25,27,29,31,33,35,37,39,41,43,45,47,-1,49,51,53,55,57,59,61,-1,63,65,67,69,71,-1,73,-1,-1,75,77,79,81,83,-1,85,87,89,-1,91,93,95,97,99,101,103,105,107,-1,-1,-1,-1,-1,-1,-1,-1,-1,-1,-1,-1,-1,-1,-1,-1,-1,-1,-1,-1,-1,-1,-1,-1,-1,-1,-1,-1,-1,-1,-1,-1,-1,-1,-1,-1,-1,-1,-1,-1,-1,-1,-1,-1,-1,-1,-1,-1],"loss_changes":[9.923702E4,2.9263066E4,1.5498035E4,4.3009688E3,7.580824E2,3.3233125E3,3.5785322E3,5.286094E2,1.1034409E3,1.3030957E2,3.999402E2,4.7908984E2,8.5212744E2,1.0949065E3,9.886465E2,1.6485156E2,1.7384521E1,1.13563965E2,4.358911E1,9.713989E0,1.7079005E0,6.6579834E1,1.3803296E2,1.0574414E2,0E0,2.570854E2,1.6097363E2,4.9615857E2,8.1284106E2,2.4559656E2,2.31521E2,5.7429688E1,0E0,1.0091553E0,9.318176E0,5.2250977E0,4.295877E1,1.4952637E1,0E0,4.1102295E0,0E0,0E0,1.1080742E-1,2.2189583E1,9.306885E0,6.579071E0,1.1455664E2,0E0,3.8487305E1,7.1391754E1,1.0223485E2,0E0,1.0531958E2,2.572207E2,9.991199E1,8.197486E2,5.818821E2,2.8935638E1,1.2533008E2,1.6242712E2,6.900244E1,0E0,0E0,0E0,0E0,0E0,0E0,0E0,0E0,0E0,0E0,0E0,0E0,0E0,0E0,0E0,0E0,0E0,0E0,0E0,0E0,0E0,0E0,0E0,0E0,0E0,0E0,0E0,0E0,0E0,0E0,0E0,0E0,0E0,0E0,0E0,0E0,0E0,0E0,0E0,0E0,0E0,0E0,0E0,0E0,0E0,0E0,0E0,0E0],"parents":[2147483647,0,0,1,1,2,2,3,3,4,4,5,5,6,6,7,7,8,8,9,9,10,10,11,11,12,12,13,13,14,14,15,15,16,16,17,17,18,18,19,19,20,20,21,21,22,22,23,23,25,25,26,26,27,27,28,28,29,29,30,30,31,31,33,33,34,34,35,35,36,36,37,37,39,39,42,42,43,43,44,44,45,45,46,46,48,48,49,49,50,50,52,52,53,53,54,54,55,55,56,56,57,57,58,58,59,59,60,60],"right_children":[2,4,6,8,10,12,14,16,18,20,22,24,26,28,30,32,34,36,38,40,42,44,46,48,-1,50,52,54,56,58,60,62,-1,64,66,68,70,72,-1,74,-1,-1,76,78,80,82,84,-1,86,88,90,-1,92,94,96,98,100,102,104,106,108,-1,-1,-1,-1,-1,-1,-1,-1,-1,-1,-1,-1,-1,-1,-1,-1,-1,-1,-1,-1,-1,-1,-1,-1,-1,-1,-1,-1,-1,-1,-1,-1,-1,-1,-1,-1,-1,-1,-1,-1,-1,-1,-1,-1,-1,-1,-1,-1],"split_conditions":[1E-1,1E-1,-6.339785E-1,3.1312125E0,1.4679809E-1,-3.0871148E0,2.2E0,1E-1,7.3666664E1,1.0464342E1,5.5406916E-1,1.9E0,8.4833336E1,-3.4161112E-1,2.3469756E0,1E-1,-1.5094525E0,2.2407103E0,1.915E1,3.670526E0,7.733333E0,-3.0966027E0,1.25E0,9.3166664E1,8.002209E-2,1.2348228E0,1.3882993E-1,-8.821651E-1,4.8841316E-2,2.6E0,3.0461138E-1,2.364978E0,-8.580988E-2,9.994106E-1,9.927155E-1,2.8E0,6.9166664E1,1.9998317E0,-6.199937E-2,1.5E0,-3.1635623E-2,-1.2811029E-2,3E-1,-3.1930816E0,-4.2797365E0,2.2E0,9.3985605E-1,-1.2811029E-2,2.0666666E0,1.7E0,2.2228749E0,2.6432255E-2,-2.5834537E-1,1.1433333E1,4.3504117E2,3.1414256E0,5E-1,8.7E0,7E-1,1.2E0,6.1E0,-9.9474564E-2,-9.234053E-2,-8.580988E-2,-7.353853E-2,-8.580988E-2,-7.353853E-2,-7.353853E-2,-6.199937E-2,-7.353853E-2,-6.199937E-2,-5.046022E-2,-5.6229796E-2,-5.046022E-2,-4.1047923E-2,-3.1635623E-2,-2.1856999E-2,-5.046022E-2,-1.2811029E-2,-1.9906482E-2,-5.046022E-2,-5.046022E-2,-1.6106062E-2,-1.2811029E-2,-4.2023513E-2,6.7220025E-2,5.823272E-2,-1.2811029E-2,6.744732E-3,2.6432255E-2,-1.2811029E-2,2.6432255E-2,5.4003447E-2,2.2158137E-2,-1.2811029E-2,-1.2811029E-2,1.6293425E-2,-1.2811029E-2,1.6910508E-2,-9.117293E-3,2.2158137E-2,2.2158137E-2,2.8026093E-2,2.8026093E-2,4.30565E-2,2.2158137E-2,4.46164E-2,4.8538096E-2,6.03227E-2],"split_indices":[70,0,10,46,24,20,12,50,73,62,85,0,45,54,29,49,52,44,33,47,2,22,1,39,0,26,54,80,72,0,93,44,0,11,57,78,58,56,0,49,0,0,0,22,20,49,10,0,1,50,26,0,27,34,67,21,70,78,16,70,13,0,0,0,0,0,0,0,0,0,0,0,0,0,0,0,0,0,0,0,0,0,0,0,0,0,0,0,0,0,0,0,0,0,0,0,0,0,0,0,0,0,0,0,0,0,0,0,0],"split_type":[0,0,0,0,0,0,0,0,0,0,0,0,0,0,0,0,0,0,0,0,0,0,0,0,0,0,0,0,0,0,0,0,0,0,0,0,0,0,0,0,0,0,0,0,0,0,0,0,0,0,0,0,0,0,0,0,0,0,0,0,0,0,0,0,0,0,0,0,0,0,0,0,0,0,0,0,0,0,0,0,0,0,0,0,0,0,0,0,0,0,0,0,0,0,0,0,0,0,0,0,0,0,0,0,0,0,0,0,0],"sum_hessian":[1.0736358E5,3.9857445E4,6.750614E4,3.029991E4,9.557534E3,2.6101248E4,4.1404887E4,2.520764E4,5.0922695E3,1.0458135E3,8.511721E3,2.1072793E4,5.0284556E3,2.6445219E4,1.495967E4,2.4492059E4,7.1558307E2,2.691122E3,2.4011477E3,8.761337E2,1.6967975E2,6.744568E2,7.8372637E3,4.9730835E3,1.6099709E4,2.0182302E3,3.0102253E3,6.342781E3,2.0102438E4,7.805975E3,7.1536953E3,2.407785E4,4.1420734E2,1.5849355E2,5.570895E2,2.1395493E3,5.515726E2,2.2533708E3,1.4777701E2,8.4743445E2,2.8699266E1,1.5502612E2,1.465362E1,9.8642944E1,5.7581384E2,1.4813777E2,7.689126E3,1.5123205E1,4.9579604E3,1.0234802E3,9.9475E2,1.9972092E2,2.8105044E3,1.523686E3,4.8190947E3,7.694388E3,1.240805E4,2.8390212E3,4.9669536E3,2.6779001E3,4.475795E3,2.316515E4,9.1270087E2,1.4685182E2,1.1641727E1,6.910866E1,4.8798083E2,2.1236829E3,1.5866464E1,2.5836642E2,2.9320618E2,2.0728782E3,1.8049265E2,7.669624E2,8.047208E1,1.6388915E0,1.3014729E1,1.4910181E1,8.3732765E1,2.665143E1,5.491624E2,1.330441E2,1.5093666E1,7.3543315E3,3.3479416E2,2.4544514E3,2.503509E3,5.56183E2,4.6729727E2,8.514356E2,1.433144E2,1.8773245E2,2.622772E3,1.1940013E3,3.2968472E2,4.5250254E3,2.9406918E2,3.9886338E3,3.7057544E3,1.5219941E3,1.0886056E4,2.0883232E3,7.506982E2,2.820347E3,2.146607E3,3.256544E2,2.3522458E3,4.2210184E2,4.0536934E3],"tree_param":{"num_deleted":"0","num_feature":"98","num_nodes":"109","size_leaf_vector":"1"}},{"base_weights":[3.4450244E-3,-1.2026361E0,7.216012E-1,-1.737125E0,-2.4051747E-1,3.2353532E-1,1.3581294E0,-1.9171267E0,-9.8882127E-1,-9.8882127E-1,-2.4051747E-1,2.1646537E-1,8.4083235E-1,8.6029375E-1,1.5409397E0,-1.9493294E0,-1.452974E0,-1.452974E0,-9.8882127E-1,-4.9441066E-2,-3.0014703E-2,-2.4051747E-1,-9.8882127E-1,7.7577695E-2,5.2864885E-1,5.2864885E-1,8.4083235E-1,8.4083235E-1,1.1757588E0,6.0030837E-2,1.5502247E0,-1.9692891E0,-1.7011516E0,-8.505758E-2,-1.452974E0,-1.452974E0,-1.2208977E0,-9.8882127E-1,-6.1044883E-2,-7.9717726E-1,-2.4051747E-1,-9.8882127E-1,-4.9047595E-1,-2.4051747E-1,2.1351774E-1,-2.4051747E-1,5.2864885E-1,2.6432443E-2,3.188629E-2,3.423703E-2,4.204162E-2,1.0644755E0,4.204162E-2,5.9430756E-2,4.204162E-2,7.1855724E-2,7.853659E-2,-9.93355E-2,-9.1761015E-2,-9.1761015E-2,-8.505758E-2,-7.26487E-2,-8.505758E-2,-7.26487E-2,-6.1044883E-2,-7.26487E-2,-6.1044883E-2,-4.9441066E-2,-5.5242974E-2,-4.9441066E-2,-1.2025873E-2,-4.9441066E-2,-1.2025873E-2,-4.9441066E-2,-1.609926E-2,-1.52610345E-2,-3.2536577E-2,-6.749932E-4,-1.2025873E-2,-6.749932E-4,1.6423594E-2,-1.2025873E-2,-4.4940542E-3,7.2032847E-3,2.6432443E-2,5.5994447E-2,4.996654E-2],"categories":[],"categories_nodes":[],"categories_segments":[],"categories_sizes":[],"default_left":[0,0,0,1,1,0,1,0,0,1,0,0,0,1,0,1,0,0,0,0,0,1,1,0,0,0,0,0,0,0,0,1,0,0,1,0,0,0,0,1,0,1,0,0,0,0,0,0,0,0,0,0,0,0,0,0,0,0,0,0,0,0,0,0,0,0,0,0,0,0,0,0,0,0,0,0,0,0,0,0,0,0,0,0,0,0,0],"id":1,"left_children":[1,3,5,7,9,11,13,15,17,19,21,23,25,27,29,31,33,35,37,-1,-1,39,41,43,45,47,49,51,53,-1,55,57,59,-1,61,63,65,67,-1,69,71,73,75,77,79,81,83,-1,-1,-1,-1,85,-1,-1,-1,-1,-1,-1,-1,-1,-1,-1,-1,-1,-1,-1,-1,-1,-1,-1,-1,-1,-1,-1,-1,-1,-1,-1,-1,-1,-1,-1,-1,-1,-1,-1,-1],"loss_changes":[9.118645E4,2.9519383E4,1.6719145E4,4.4866094E3,2.4440088E2,2.7398857E3,2.3092422E3,5.752969E2,1.065562E3,9.931946E-1,1.6219067E2,1.8533724E3,1.6443994E2,2.2763281E2,1.0167969E2,1.9909375E2,8.884796E0,1.2006299E2,4.3398193E1,0E0,0E0,1.39052E2,6.030426E0,1.4901812E3,3.6500366E2,5.417427E0,1.607666E1,5.238623E1,1.56796875E1,0E0,4.0503906E1,1.015E2,4.9090576E0,0E0,5.362015E0,5.567871E0,4.297934E1,1.5442139E1,0E0,9.8503845E1,1.0333667E2,5.5238953E0,6.391649E-1,3.8892725E2,7.595089E2,5.8665237E0,1.2927979E2,0E0,0E0,0E0,0E0,2.7127686E0,0E0,0E0,0E0,0E0,0E0,0E0,0E0,0E0,0E0,0E0,0E0,0E0,0E0,0E0,0E0,0E0,0E0,0E0,0E0,0E0,0E0,0E0,0E0,0E0,0E0,0E0,0E0,0E0,0E0,0E0,0E0,0E0,0E0,0E0,0E0],"parents":[2147483647,0,0,1,1,2,2,3,3,4,4,5,5,6,6,7,7,8,8,9,9,10,10,11,11,12,12,13,13,14,14,15,15,16,16,17,17,18,18,21,21,22,22,23,23,24,24,25,25,26,26,27,27,28,28,30,30,31,31,32,32,34,34,35,35,36,36,37,37,39,39,40,40,41,41,42,42,43,43,44,44,45,45,46,46,51,51],"right_children":[2,4,6,8,10,12,14,16,18,20,22,24,26,28,30,32,34,36,38,-1,-1,40,42,44,46,48,50,52,54,-1,56,58,60,-1,62,64,66,68,-1,70,72,74,76,78,80,82,84,-1,-1,-1,-1,86,-1,-1,-1,-1,-1,-1,-1,-1,-1,-1,-1,-1,-1,-1,-1,-1,-1,-1,-1,-1,-1,-1,-1,-1,-1,-1,-1,-1,-1,-1,-1,-1,-1,-1,-1],"split_conditions":[1E-1,2E-1,6E0,3.1312125E0,-5.3615683E-1,8.8E0,3.749588E0,2E-1,7.3666664E1,3.5570807E0,8.149856E0,2.714518E0,9.35E1,2.8719754E0,1.0292434E0,1E-1,-1.0947533E-2,2.2407103E0,1.915E1,-4.9441066E-2,-3.0014703E-2,1.2833333E0,1.2266432E0,6E-1,-1.3553402E-1,8.660254E-1,1.3E0,-1.4827996E0,1.6833333E0,6.0030837E-2,6.2E0,3.1235318E0,8.1333336E1,-8.505758E-2,1.6282188E0,2.8E0,6.9166664E1,9.158643E-1,-6.1044883E-2,4.157101E-1,-2.911725E0,2.521764E0,2.05E0,-4.161247E-1,3E-1,2.2862396E0,8.92594E-2,2.6432443E-2,3.188629E-2,3.423703E-2,4.204162E-2,2.2333333E0,4.204162E-2,5.9430756E-2,4.204162E-2,7.1855724E-2,7.853659E-2,-9.93355E-2,-9.1761015E-2,-9.1761015E-2,-8.505758E-2,-7.26487E-2,-8.505758E-2,-7.26487E-2,-6.1044883E-2,-7.26487E-2,-6.1044883E-2,-4.9441066E-2,-5.5242974E-2,-4.9441066E-2,-1.2025873E-2,-4.9441066E-2,-1.2025873E-2,-4.9441066E-2,-1.609926E-2,-1.52610345E-2,-3.2536577E-2,-6.749932E-4,-1.2025873E-2,-6.749932E-4,1.6423594E-2,-1.2025873E-2,-4.4940542E-3,7.2032847E-3,2.6432443E-2,5.5994447E-2,4.996654E-2],"split_indices":[0,70,0,46,27,70,91,42,73,65,54,7,3,29,6,79,25,44,33,0,0,1,72,0,74,8,12,72,1,0,0,56,73,0,72,78,58,11,0,18,6,64,1,10,70,28,27,0,0,0,0,1,0,0,0,0,0,0,0,0,0,0,0,0,0,0,0,0,0,0,0,0,0,0,0,0,0,0,0,0,0,0,0,0,0,0,0],"split_type":[0,0,0,0,0,0,0,0,0,0,0,0,0,0,0,0,0,0,0,0,0,0,0,0,0,0,0,0,0,0,0,0,0,0,0,0,0,0,0,0,0,0,0,0,0,0,0,0,0,0,0,0,0,0,0,0,0,0,0,0,0,0,0,0,0,0,0,0,0,0,0,0,0,0,0,0,0,0,0,0,0,0,0,0,0,0,0],"sum_hessian":[1.0527535E5,3.9290195E4,6.598516E4,2.9416447E4,9.873748E3,4.0597926E4,2.538723E4,2.4321717E4,5.0947305E3,2.056533E2,9.668095E3,3.489772E4,5.7002065E3,6.8201265E3,1.8567105E4,2.361177E4,7.099465E2,2.6476528E3,2.447078E3,1.935969E2,1.2056423E1,9.417729E3,2.5036583E2,2.582568E4,9.072041E3,8.844624E2,4.815744E3,4.762542E3,2.057584E3,1.2949707E2,1.8437607E4,2.3036684E4,5.750859E2,8.461016E1,6.253363E2,2.1007546E3,5.468982E2,2.3024902E3,1.4458754E2,4.4793E2,8.969799E3,2.2314648E2,2.7219345E1,5.9210776E3,1.9904602E4,5.0451456E2,8.567526E3,4.06644E2,4.7781836E2,3.7675217E1,4.778069E3,1.0605205E3,3.7020217E3,2.0436829E3,1.3901243E1,2.8406548E3,1.5596953E4,2.2612137E4,4.245475E2,1.9286876E2,3.8221716E2,5.5581964E2,6.951667E1,2.0849868E3,1.5767835E1,2.543305E2,2.9256772E2,2.1609468E3,1.4154352E2,2.5256134E2,1.9536867E2,1.21787704E2,8.848011E3,2.0952515E2,1.3621342E1,1.3972144E1,1.3247202E1,1.653082E3,4.2679956E3,4.6386885E3,1.5265914E4,2.4442911E2,2.6008545E2,2.564114E2,8.311115E3,5.643141E2,4.9620645E2],"tree_param":{"num_deleted":"0","num_feature":"98","num_nodes":"87","size_leaf_vector":"1"}},{"base_weights":[7.4156993E-3,-1.1940925E0,6.8650806E-1,-1.725304E0,-2.5379223E-1,1.280106E0,3.2577506E-1,-1.9191258E0,-9.895481E-1,-9.895481E-1,-2.5379223E-1,1.4569172E0,5.6771195E-1,1.7723824E-1,8.306324E-1,-1.9537733E0,-1.4543369E0,-1.4543369E0,-9.895481E-1,-9.895481E-1,-2.5379223E-1,-9.895481E-1,-2.5379223E-1,1.1992073E0,7.698502E-2,9.6673444E-2,8.881227E-1,-1.7134552E-1,2.804786E-1,5.0393534E-1,1.0074352E0,-1.972654E0,-8.520275E-2,-1.7040551E0,-1.4543369E0,-1.4543369E0,-1.2219424E0,-9.895481E-1,-6.1097123E-2,-9.895481E-1,-3.1083507E-2,-1.2689612E-2,-5.725021E-1,-2.5379223E-1,-9.895481E-1,-9.895481E-1,-2.5379223E-1,-1.2689612E-2,1.2085555E0,-9.604659E-2,2.4619903E-2,2.4619903E-2,9.6360654E-1,3.648217E-1,-2.5379223E-1,-2.5379223E-1,3.40774E-1,5.0393534E-1,7.28985E-1,7.838918E-1,5.6668337E-2,-9.936731E-2,-9.191773E-2,-7.271685E-2,-8.520275E-2,-8.520275E-2,-7.271685E-2,-7.271685E-2,-6.1097123E-2,-7.271685E-2,-6.1097123E-2,-4.9477406E-2,-5.5287268E-2,-4.9477406E-2,-4.0280458E-2,-3.1083507E-2,-2.0862287E-2,-4.9477406E-2,-1.2689612E-2,-4.9477406E-2,-2.299102E-2,-4.9477406E-2,-1.5314872E-2,-4.9477406E-2,-1.2689612E-2,6.568026E-2,5.5214603E-2,-1.2689612E-2,7.5984127E-3,2.9645313E-2,5.3298403E-2,-1.2689612E-2,2.5196766E-2,-1.2689612E-2,1.3096E-2,-1.2689612E-2,1.0909046E-2,6.231115E-3,2.3416048E-2,2.5196766E-2,3.0823011E-2,4.109731E-2,3.125545E-2,4.1069876E-2,2.5196766E-2],"categories":[],"categories_nodes":[],"categories_segments":[],"categories_sizes":[],"default_left":[0,0,0,1,0,0,0,1,0,0,0,0,0,1,0,1,0,0,0,0,0,0,0,0,0,0,0,0,0,0,0,1,0,0,0,1,0,0,0,0,0,0,0,0,0,0,0,0,0,0,0,0,0,0,1,0,0,0,0,0,0,0,0,0,0,0,0,0,0,0,0,0,0,0,0,0,0,0,0,0,0,0,0,0,0,0,0,0,0,0,0,0,0,0,0,0,0,0,0,0,0,0,0,0,0],"id":2,"left_children":[1,3,5,7,9,11,13,15,17,19,21,23,25,27,29,31,33,35,37,39,41,43,45,47,-1,49,51,53,55,57,59,61,-1,63,65,67,69,71,-1,73,-1,-1,75,77,79,81,83,-1,85,87,-1,-1,89,91,93,95,97,99,101,103,-1,-1,-1,-1,-1,-1,-1,-1,-1,-1,-1,-1,-1,-1,-1,-1,-1,-1,-1,-1,-1,-1,-1,-1,-1,-1,-1,-1,-1,-1,-1,-1,-1,-1,-1,-1,-1,-1,-1,-1,-1,-1,-1,-1,-1],"loss_changes":[8.431857E4,2.7310098E4,1.4137199E4,4.7274062E3,6.995469E2,3.1426367E3,3.0795508E3,5.9159375E2,9.883491E2,1.2807788E2,3.6483887E2,4.246914E2,7.4910706E2,1.1420659E3,5.596553E2,1.8598438E2,1.53836975E1,1.3336426E2,4.1051025E1,9.925049E0,1.5191808E0,6.4973755E1,1.27930176E2,1.0048047E2,0E0,2.3570847E2,1.4877417E2,7.511071E2,9.326676E2,8.22193E1,1.719331E2,6.813281E1,0E0,1.5430908E0,8.721191E0,6.486328E0,3.8139343E1,1.3472412E1,0E0,4.4178467E0,0E0,0E0,1.6009474E-1,2.1119862E1,1.0032959E1,6.521866E0,1.03138916E2,0E0,5.167578E1,1.3579327E2,0E0,0E0,1.0389624E2,2.8265125E2,8.153418E1,1.0267612E2,6.177029E2,6.0575714E0,1.5210632E1,3.887146E1,0E0,0E0,0E0,0E0,0E0,0E0,0E0,0E0,0E0,0E0,0E0,0E0,0E0,0E0,0E0,0E0,0E0,0E0,0E0,0E0,0E0,0E0,0E0,0E0,0E0,0E0,0E0,0E0,0E0,0E0,0E0,0E0,0E0,0E0,0E0,0E0,0E0,0E0,0E0,0E0,0E0,0E0,0E0,0E0,0E0],"parents":[2147483647,0,0,1,1,2,2,3,3,4,4,5,5,6,6,7,7,8,8,9,9,10,10,11,11,12,12,13,13,14,14,15,15,16,16,17,17,18,18,19,19,20,20,21,21,22,22,23,23,25,25,26,26,27,27,28,28,29,29,30,30,31,31,33,33,34,34,35,35,36,36,37,37,39,39,42,42,43,43,44,44,45,45,46,46,48,48,49,49,52,52,53,53,54,54,55,55,56,56,57,57,58,58,59,59],"right_children":[2,4,6,8,10,12,14,16,18,20,22,24,26,28,30,32,34,36,38,40,42,44,46,48,-1,50,52,54,56,58,60,62,-1,64,66,68,70,72,-1,74,-1,-1,76,78,80,82,84,-1,86,88,-1,-1,90,92,94,96,98,100,102,104,-1,-1,-1,-1,-1,-1,-1,-1,-1,-1,-1,-1,-1,-1,-1,-1,-1,-1,-1,-1,-1,-1,-1,-1,-1,-1,-1,-1,-1,-1,-1,-1,-1,-1,-1,-1,-1,-1,-1,-1,-1,-1,-1,-1,-1],"split_conditions":[1E-1,1E-1,-6.339785E-1,3.1312125E0,1.4679809E-1,-3.0871148E0,3.9E0,1E-1,7.3666664E1,1.0464342E1,5.5406916E-1,1.9E0,8.4833336E1,-3.4161112E-1,4.2425013E0,1E-1,-1.5094525E0,2.2407103E0,1.915E1,3.670526E0,7.733333E0,-3.0966027E0,1.25E0,9.3166664E1,7.698502E-2,1.1192001E1,1.3882993E-1,-8.821651E-1,-1.521109E0,9.85E1,6.1E0,2.3442E0,-8.520275E-2,-2.101404E0,9.927155E-1,3.487872E2,6.9166664E1,9.158643E-1,-6.1097123E-2,1.5E0,-3.1083507E-2,-1.2689612E-2,3E-1,-3.1930816E0,6.983333E0,2.2E0,8.0833336E1,-1.2689612E-2,2.0666666E0,2.9E0,2.4619903E-2,2.4619903E-2,-7.453867E-1,8E-1,4.3504117E2,8.3930554E2,7.35E1,3.6230428E0,2.1666667E0,-1.1797124E0,5.6668337E-2,-9.936731E-2,-9.191773E-2,-7.271685E-2,-8.520275E-2,-8.520275E-2,-7.271685E-2,-7.271685E-2,-6.1097123E-2,-7.271685E-2,-6.1097123E-2,-4.9477406E-2,-5.5287268E-2,-4.9477406E-2,-4.0280458E-2,-3.1083507E-2,-2.0862287E-2,-4.9477406E-2,-1.2689612E-2,-4.9477406E-2,-2.299102E-2,-4.9477406E-2,-1.5314872E-2,-4.9477406E-2,-1.2689612E-2,6.568026E-2,5.5214603E-2,-1.2689612E-2,7.5984127E-3,2.9645313E-2,5.3298403E-2,-1.2689612E-2,2.5196766E-2,-1.2689612E-2,1.3096E-2,-1.2689612E-2,1.0909046E-2,6.231115E-3,2.3416048E-2,2.5196766E-2,3.0823011E-2,4.109731E-2,3.125545E-2,4.1069876E-2,2.5196766E-2],"split_indices":[70,0,10,46,24,20,12,50,73,62,85,0,45,54,55,49,52,44,33,47,2,22,1,39,0,61,54,80,44,39,13,44,0,71,57,96,58,11,0,49,0,0,0,22,1,49,3,0,1,1,0,0,65,0,67,67,45,28,1,21,0,0,0,0,0,0,0,0,0,0,0,0,0,0,0,0,0,0,0,0,0,0,0,0,0,0,0,0,0,0,0,0,0,0,0,0,0,0,0,0,0,0,0,0,0],"split_type":[0,0,0,0,0,0,0,0,0,0,0,0,0,0,0,0,0,0,0,0,0,0,0,0,0,0,0,0,0,0,0,0,0,0,0,0,0,0,0,0,0,0,0,0,0,0,0,0,0,0,0,0,0,0,0,0,0,0,0,0,0,0,0,0,0,0,0,0,0,0,0,0,0,0,0,0,0,0,0,0,0,0,0,0,0,0,0,0,0,0,0,0,0,0,0,0,0,0,0,0,0,0,0,0,0],"sum_hessian":[1.0333782E5,3.7315426E4,6.60224E4,2.7848586E4,9.466839E3,2.4955219E4,4.1067176E4,2.2917691E4,4.9308936E3,1.030254E3,8.436585E3,1.9992238E4,4.96298E3,3.1732373E4,9.334803E3,2.2228295E4,6.893962E2,2.5325308E3,2.398363E3,8.606729E2,1.6958105E2,6.65352E2,7.771233E3,4.8644233E3,1.5127815E4,2.0097424E3,2.9532375E3,7.250594E3,2.448178E4,3.1967324E3,6.1380703E3,2.1831389E4,3.969063E2,1.4615599E2,5.432402E2,1.9976455E3,5.348852E2,2.258431E3,1.39932E2,8.32065E2,2.8607925E1,1.5499084E2,1.45902E1,9.834171E1,5.6701025E2,1.4545934E2,7.6257734E3,1.4988432E1,4.849435E3,1.5897635E3,4.1997885E2,1.995474E2,2.7536902E3,2.0907146E3,5.1598794E3,2.0753538E3,2.2406426E4,1.5693485E3,1.6273839E3,2.2144255E3,3.923645E3,2.0959057E4,8.723317E2,1.1216256E1,1.3493973E2,6.336893E1,4.7987125E2,1.9225474E3,7.5098145E1,2.4267143E2,2.9221378E2,2.1522842E3,1.0614681E2,7.521712E2,7.989381E1,1.6091554E0,1.2981045E1,1.4599235E1,8.374248E1,5.2876685E2,3.8243378E1,1.3039122E2,1.5068115E1,1.00038635E2,7.525735E3,2.4098298E3,2.4396052E3,5.251654E2,1.0645981E3,5.973153E2,2.1563748E3,4.103819E2,1.6803326E3,4.854071E3,3.0580902E2,1.6151346E3,4.602191E2,8.315783E3,1.4090642E4,1.2117875E3,3.5756113E2,8.551642E2,7.7221967E2,2.1100962E3,1.0432946E2],"tree_param":{"num_deleted":"0","num_feature":"98","num_nodes":"105","size_leaf_vector":"1"}},{"base_weights":[1.0821153E-2,-1.1447358E0,6.70546E-1,-1.6971548E0,-2.3709491E-1,2.9666322E-1,1.2912257E0,-1.9014771E0,-9.671248E-1,-9.671248E-1,-2.3709491E-1,1.9749735E-1,7.939445E-1,7.939445E-1,1.4817086E0,-1.939426E0,-1.4343009E0,-1.4343009E0,-9.671248E-1,-4.8356242E-2,-2.9739503E-2,-2.3709491E-1,-9.671248E-1,6.514954E-2,4.9572092E-1,4.9572092E-1,7.939445E-1,7.939445E-1,1.098069E0,5.689133E-2,1.4916477E0,-1.9801003E0,-1.6868634E0,-8.434317E-2,-1.4343009E0,-1.4343009E0,-1.2007129E0,-9.671248E-1,-6.0035646E-2,-7.740746E-1,-2.3709491E-1,-9.671248E-1,-4.658237E-1,-2.3709491E-1,1.9279714E-1,-2.3709491E-1,4.9572092E-1,2.4786046E-2,2.9516837E-2,3.224164E-2,3.9697226E-2,9.8617053E-1,3.9697226E-2,5.554947E-2,3.9697226E-2,7.039529E-2,7.537032E-2,-9.924432E-2,-8.434317E-2,-8.434317E-2,-9.985071E-2,-7.171505E-2,-8.434317E-2,-7.171505E-2,-6.0035646E-2,-7.171505E-2,-6.0035646E-2,-4.8356242E-2,-5.419594E-2,-4.8356242E-2,-1.1854745E-2,-4.8356242E-2,-1.1854745E-2,-4.8356242E-2,-1.5652044E-2,-1.3986851E-2,-3.1448454E-2,-1.1074443E-3,-1.1854745E-2,-1.1074443E-3,1.4970739E-2,-1.1854745E-2,-4.2486084E-3,6.4656506E-3,2.4786046E-2,5.2138835E-2,4.6004172E-2],"categories":[],"categories_nodes":[],"categories_segments":[],"categories_sizes":[],"default_left":[0,0,0,1,1,0,1,0,0,1,0,0,0,1,0,1,0,0,0,0,0,1,1,0,0,0,0,0,0,0,0,0,0,0,1,1,0,0,0,0,0,1,0,0,0,0,0,0,0,0,0,0,0,0,0,0,0,0,0,0,0,0,0,0,0,0,0,0,0,0,0,0,0,0,0,0,0,0,0,0,0,0,0,0,0,0,0],"id":3,"left_children":[1,3,5,7,9,11,13,15,17,19,21,23,25,27,29,31,33,35,37,-1,-1,39,41,43,45,47,49,51,53,-1,55,57,59,-1,61,63,65,67,-1,69,71,73,75,77,79,81,83,-1,-1,-1,-1,85,-1,-1,-1,-1,-1,-1,-1,-1,-1,-1,-1,-1,-1,-1,-1,-1,-1,-1,-1,-1,-1,-1,-1,-1,-1,-1,-1,-1,-1,-1,-1,-1,-1,-1,-1],"loss_changes":[7.737365E4,2.7347629E4,1.4992637E4,4.8940156E3,2.3122461E2,2.3886516E3,2.3194375E3,6.3914844E2,9.5337573E2,8.728943E-1,1.4971436E2,1.6813052E3,1.5681494E2,1.835669E2,1.04625E2,2.4846875E2,7.8884277E0,1.396753E2,4.096875E1,0E0,0E0,1.2814233E2,6.133545E0,1.3151261E3,3.33448E2,4.006157E0,1.5317383E1,3.7535645E1,1.3950684E1,0E0,2.09375E1,3.1148438E1,1.5927832E2,0E0,4.7398224E0,7.2192383E0,3.8306915E1,1.4454102E1,0E0,9.191031E1,9.5052734E1,5.315155E0,6.780262E-1,3.723241E2,6.565313E2,5.9850693E0,1.20427246E2,0E0,0E0,0E0,0E0,2.904541E0,0E0,0E0,0E0,0E0,0E0,0E0,0E0,0E0,0E0,0E0,0E0,0E0,0E0,0E0,0E0,0E0,0E0,0E0,0E0,0E0,0E0,0E0,0E0,0E0,0E0,0E0,0E0,0E0,0E0,0E0,0E0,0E0,0E0,0E0,0E0],"parents":[2147483647,0,0,1,1,2,2,3,3,4,4,5,5,6,6,7,7,8,8,9,9,10,10,11,11,12,12,13,13,14,14,15,15,16,16,17,17,18,18,21,21,22,22,23,23,24,24,25,25,26,26,27,27,28,28,30,30,31,31,32,32,34,34,35,35,36,36,37,37,39,39,40,40,41,41,42,42,43,43,44,44,45,45,46,46,51,51],"right_children":[2,4,6,8,10,12,14,16,18,20,22,24,26,28,30,32,34,36,38,-1,-1,40,42,44,46,48,50,52,54,-1,56,58,60,-1,62,64,66,68,-1,70,72,74,76,78,80,82,84,-1,-1,-1,-1,86,-1,-1,-1,-1,-1,-1,-1,-1,-1,-1,-1,-1,-1,-1,-1,-1,-1,-1,-1,-1,-1,-1,-1,-1,-1,-1,-1,-1,-1,-1,-1,-1,-1,-1,-1],"split_conditions":[1E-1,2E-1,6E0,3.1312125E0,-5.3615683E-1,8.8E0,3.749588E0,2E-1,7.3666664E1,3.5570807E0,8.149856E0,2.714518E0,9.35E1,2.8719754E0,1.0292434E0,1.9860287E0,-1.0947533E-2,2.2407103E0,1.915E1,-4.8356242E-2,-2.9739503E-2,1.2833333E0,1.2266432E0,6E-1,-1.3553402E-1,8.660254E-1,1.3E0,-1.4827996E0,1.6833333E0,5.689133E-2,6.2E0,1E-1,1.6466667E1,-8.434317E-2,1.6282188E0,3.487872E2,6.9166664E1,9.158643E-1,-6.0035646E-2,3.722091E2,-2.911725E0,2.521764E0,2.05E0,-4.161247E-1,3E-1,2.2862396E0,8.92594E-2,2.4786046E-2,2.9516837E-2,3.224164E-2,3.9697226E-2,2.2333333E0,3.9697226E-2,5.554947E-2,3.9697226E-2,7.039529E-2,7.537032E-2,-9.924432E-2,-8.434317E-2,-8.434317E-2,-9.985071E-2,-7.171505E-2,-8.434317E-2,-7.171505E-2,-6.0035646E-2,-7.171505E-2,-6.0035646E-2,-4.8356242E-2,-5.419594E-2,-4.8356242E-2,-1.1854745E-2,-4.8356242E-2,-1.1854745E-2,-4.8356242E-2,-1.5652044E-2,-1.3986851E-2,-3.1448454E-2,-1.1074443E-3,-1.1854745E-2,-1.1074443E-3,1.4970739E-2,-1.1854745E-2,-4.2486084E-3,6.4656506E-3,2.4786046E-2,5.2138835E-2,4.6004172E-2],"split_indices":[0,70,0,46,27,70,91,42,73,65,54,7,3,29,6,72,25,44,33,0,0,1,72,0,74,8,12,72,1,0,0,12,33,0,72,96,58,11,0,48,6,64,1,10,70,28,27,0,0,0,0,1,0,0,0,0,0,0,0,0,0,0,0,0,0,0,0,0,0,0,0,0,0,0,0,0,0,0,0,0,0,0,0,0,0,0,0],"split_type":[0,0,0,0,0,0,0,0,0,0,0,0,0,0,0,0,0,0,0,0,0,0,0,0,0,0,0,0,0,0,0,0,0,0,0,0,0,0,0,0,0,0,0,0,0,0,0,0,0,0,0,0,0,0,0,0,0,0,0,0,0,0,0,0,0,0,0,0,0,0,0,0,0,0,0,0,0,0,0,0,0,0,0,0,0,0,0],"sum_hessian":[1.0149164E5,3.688467E4,6.460697E4,2.7081852E4,9.802821E3,4.0320395E4,2.4286576E4,2.2139064E4,4.9427866E3,2.0217497E2,9.600646E3,3.474344E4,5.5769536E3,6.685528E3,1.7601049E4,2.1450426E4,6.8863983E2,2.4960564E3,2.44673E3,1.9013142E2,1.204356E1,9.353266E3,2.473807E2,2.5737082E4,9.006359E3,8.8035364E2,4.6966E3,4.695023E3,1.9905048E3,1.2897044E2,1.7472078E4,1.8834963E4,2.6154631E3,7.817722E1,6.104626E2,1.9646893E3,5.313671E2,2.3096777E3,1.370524E2,4.4359763E2,8.909668E3,2.2025177E2,2.712895E1,5.899026E3,1.9838055E4,5.0404657E2,8.502313E3,4.063958E2,4.7395782E2,3.7897892E1,4.658702E3,1.0318853E3,3.6631377E3,1.9765472E3,1.3957554E1,2.781484E3,1.4690594E4,1.8617295E4,2.1766646E2,9.31066E2,1.6843972E3,5.453981E2,6.506452E1,1.8908291E3,7.386029E1,2.3923497E2,2.9213217E2,2.1734473E3,1.3623044E2,2.3979918E2,2.0379846E2,1.19964E2,8.789704E3,2.0664188E2,1.3609894E1,1.3941574E1,1.3187375E1,1.6508639E3,4.248162E3,4.6254844E3,1.521257E4,2.4398634E2,2.6006024E2,2.5634586E2,8.245968E3,5.478503E2,4.8403494E2],"tree_param":{"num_deleted":"0","num_feature":"98","num_nodes":"87","size_leaf_vector":"1"}},{"base_weights":[1.4734787E-2,-1.1340021E0,6.362414E-1,-1.68361E0,-2.4888036E-1,1.2164263E0,2.954009E-1,-1.9035382E0,-9.662452E-1,-9.662452E-1,-2.4888036E-1,1.3939294E0,5.272698E-1,1.5820843E-1,7.6797736E-1,-1.9444396E0,-1.4348917E0,-1.4348917E0,-9.662452E-1,-9.662452E-1,-2.4888036E-1,-9.6152496E-1,-2.4888036E-1,1.0276321E0,1.4466124E0,8.730315E-2,8.3053386E-1,-1.7303373E-1,2.5637513E-1,4.630929E-1,9.416974E-1,-1.9669607E0,-8.448329E-2,-8.448329E-2,-1.4348917E0,-1.4348917E0,-1.2005684E0,-9.662452E-1,-1.2005684E0,-9.662452E-1,-3.0378139E-2,-1.2444018E-2,-5.525316E-1,-2.4888036E-1,-9.662452E-1,-9.662452E-1,-2.4888036E-1,1.0444015E0,-1.2444018E-2,6.406965E-2,7.369608E-2,-2.4017838E-1,4.2514566E-1,2.2945926E-2,9.0497994E-1,3.3156577E-1,-2.4888036E-1,-2.7258188E-2,3.810963E-1,4.630929E-1,6.6797733E-1,7.3460376E-1,5.3020537E-2,-9.923209E-2,-9.141566E-2,-7.8113936E-2,-7.174458E-2,-7.174458E-2,-6.0028423E-2,-7.174458E-2,-6.0028423E-2,-4.8312258E-2,-5.417034E-2,-5.417034E-2,-6.0028423E-2,-4.8312258E-2,-3.93452E-2,-3.0378139E-2,-2.00353E-2,-4.8312258E-2,-1.2444018E-2,-4.8312258E-2,-3.2322798E-2,-4.8312258E-2,-2.2653922E-2,-4.8312258E-2,-1.2444018E-2,4.6694458E-2,5.3566337E-2,1.518333E-2,-1.2444018E-2,2.2945926E-2,-1.2444018E-2,2.6648898E-2,5.043931E-2,-1.2444018E-2,2.3154644E-2,-1.2444018E-2,1.2129664E-2,-1.2444018E-2,2.3154644E-2,7.956217E-3,2.3154644E-2,2.3154644E-2,2.8276756E-2,2.8276756E-2,3.6198117E-2,3.8596712E-2,2.3154644E-2],"categories":[],"categories_nodes":[],"categories_segments":[],"categories_sizes":[],"default_left":[0,0,0,1,0,0,0,1,0,0,0,0,0,1,0,1,0,0,0,0,0,0,0,0,0,0,0,0,1,0,0,1,0,0,0,1,0,0,0,0,0,0,0,0,0,0,0,0,0,0,0,0,0,0,0,0,1,0,0,0,0,0,0,0,0,0,0,0,0,0,0,0,0,0,0,0,0,0,0,0,0,0,0,0,0,0,0,0,0,0,0,0,0,0,0,0,0,0,0,0,0,0,0,0,0,0,0,0,0],"id":4,"left_children":[1,3,5,7,9,11,13,15,17,19,21,23,25,27,29,31,33,35,37,39,41,43,45,47,49,51,53,55,57,59,61,63,-1,-1,65,67,69,71,73,75,-1,-1,77,79,81,83,85,87,-1,-1,-1,89,91,-1,93,95,97,99,101,103,105,107,-1,-1,-1,-1,-1,-1,-1,-1,-1,-1,-1,-1,-1,-1,-1,-1,-1,-1,-1,-1,-1,-1,-1,-1,-1,-1,-1,-1,-1,-1,-1,-1,-1,-1,-1,-1,-1,-1,-1,-1,-1,-1,-1,-1,-1,-1,-1],"loss_changes":[7.123265E4,2.5347457E4,1.280282E4,5.1229062E3,6.47208E2,2.9301445E3,2.644183E3,6.589219E2,8.837893E2,1.2492944E2,3.3401514E2,3.6615625E2,6.5488696E2,1.027926E3,5.219551E2,2.09625E2,1.3971283E1,1.5321582E2,3.884204E1,1.003064E1,1.3699985E0,6.2886353E1,1.1878247E2,7.978711E1,7.326172E1,2.2182693E2,1.3699329E2,6.590394E2,8.626168E2,6.728662E1,1.4681055E2,8.01875E1,0E0,0E0,4.0131226E0,8.606934E0,3.4737762E1,1.2657227E1,9.829712E-2,4.609375E0,0E0,0E0,1.9773626E-1,2.012539E1,1.0539307E1,6.609558E0,9.608447E1,6.095703E0,0E0,0E0,0E0,6.171842E1,9.020688E1,0E0,1.0396924E2,2.4846466E2,7.406671E1,8.6414386E2,4.7330078E2,8.243942E0,1.3387512E1,3.7305176E1,0E0,0E0,0E0,0E0,0E0,0E0,0E0,0E0,0E0,0E0,0E0,0E0,0E0,0E0,0E0,0E0,0E0,0E0,0E0,0E0,0E0,0E0,0E0,0E0,0E0,0E0,0E0,0E0,0E0,0E0,0E0,0E0,0E0,0E0,0E0,0E0,0E0,0E0,0E0,0E0,0E0,0E0,0E0,0E0,0E0,0E0,0E0],"parents":[2147483647,0,0,1,1,2,2,3,3,4,4,5,5,6,6,7,7,8,8,9,9,10,10,11,11,12,12,13,13,14,14,15,15,16,16,17,17,18,18,19,19,20,20,21,21,22,22,23,23,24,24,25,25,26,26,27,27,28,28,29,29,30,30,31,31,34,34,35,35,36,36,37,37,38,38,39,39,42,42,43,43,44,44,45,45,46,46,47,47,51,51,52,52,54,54,55,55,56,56,57,57,58,58,59,59,60,60,61,61],"right_children":[2,4,6,8,10,12,14,16,18,20,22,24,26,28,30,32,34,36,38,40,42,44,46,48,50,52,54,56,58,60,62,64,-1,-1,66,68,70,72,74,76,-1,-1,78,80,82,84,86,88,-1,-1,-1,90,92,-1,94,96,98,100,102,104,106,108,-1,-1,-1,-1,-1,-1,-1,-1,-1,-1,-1,-1,-1,-1,-1,-1,-1,-1,-1,-1,-1,-1,-1,-1,-1,-1,-1,-1,-1,-1,-1,-1,-1,-1,-1,-1,-1,-1,-1,-1,-1,-1,-1,-1,-1,-1,-1],"split_conditions":[1E-1,1E-1,-6.339785E-1,3.1312125E0,1.4679809E-1,-3.0871148E0,3.9E0,1E-1,7.3666664E1,1.0464342E1,5.5406916E-1,1.06502E0,8.4833336E1,-3.4161112E-1,4.2425013E0,1E-1,2.4269603E-1,2.2407103E0,1.915E1,3.670526E0,7.733333E0,-3.0966027E0,1.25E0,1.88E1,1E-1,1.2348228E0,1.3882993E-1,-8.821651E-1,-1.9418193E-1,9.85E1,6.1E0,2.3442E0,-8.448329E-2,-8.448329E-2,-1.5094525E0,3.487872E2,1.2647192E0,9.158643E-1,-1.0721861E0,1.5E0,-3.0378139E-2,-1.2444018E-2,3E-1,-3.1930816E0,3.2837033E2,1.2085334E0,8.0833336E1,1E-1,-1.2444018E-2,6.406965E-2,7.369608E-2,-2.8625715E0,2.2228749E0,2.2945926E-2,-7.453867E-1,8E-1,4.3504117E2,2.2E0,7.3666664E1,2.5E0,2.704256E0,-1.1797124E0,5.3020537E-2,-9.923209E-2,-9.141566E-2,-7.8113936E-2,-7.174458E-2,-7.174458E-2,-6.0028423E-2,-7.174458E-2,-6.0028423E-2,-4.8312258E-2,-5.417034E-2,-5.417034E-2,-6.0028423E-2,-4.8312258E-2,-3.93452E-2,-3.0378139E-2,-2.00353E-2,-4.8312258E-2,-1.2444018E-2,-4.8312258E-2,-3.2322798E-2,-4.8312258E-2,-2.2653922E-2,-4.8312258E-2,-1.2444018E-2,4.6694458E-2,5.3566337E-2,1.518333E-2,-1.2444018E-2,2.2945926E-2,-1.2444018E-2,2.6648898E-2,5.043931E-2,-1.2444018E-2,2.3154644E-2,-1.2444018E-2,1.2129664E-2,-1.2444018E-2,2.3154644E-2,7.956217E-3,2.3154644E-2,2.3154644E-2,2.8276756E-2,2.8276756E-2,3.6198117E-2,3.8596712E-2,2.3154644E-2],"split_indices":[70,0,10,46,24,20,12,50,73,62,85,71,45,54,55,49,66,44,33,47,2,22,1,2,0,26,54,80,72,39,13,44,0,0,52,96,7,11,26,49,0,0,0,22,96,24,3,0,0,0,0,6,26,0,65,0,67,0,45,16,47,21,0,0,0,0,0,0,0,0,0,0,0,0,0,0,0,0,0,0,0,0,0,0,0,0,0,0,0,0,0,0,0,0,0,0,0,0,0,0,0,0,0,0,0,0,0,0,0],"split_type":[0,0,0,0,0,0,0,0,0,0,0,0,0,0,0,0,0,0,0,0,0,0,0,0,0,0,0,0,0,0,0,0,0,0,0,0,0,0,0,0,0,0,0,0,0,0,0,0,0,0,0,0,0,0,0,0,0,0,0,0,0,0,0,0,0,0,0,0,0,0,0,0,0,0,0,0,0,0,0,0,0,0,0,0,0,0,0,0,0,0,0,0,0,0,0,0,0,0,0,0,0,0,0,0,0,0,0,0,0],"sum_hessian":[9.977094E4,3.502783E4,6.4743113E4,2.5644775E4,9.383052E3,2.3958295E4,4.0784816E4,2.0853963E4,4.790812E3,1.01556287E3,8.367489E3,1.9050514E4,4.9077817E3,3.1609639E4,9.175179E3,2.018606E4,6.679033E2,2.389079E3,2.4017327E3,8.460707E2,1.6949217E2,6.568108E2,7.7106787E3,2.3980095E3,1.6652504E4,2.0030717E3,2.90471E3,7.226072E3,2.4383568E4,3.1728455E3,6.002333E3,1.9803494E4,3.825667E2,1.0761043E2,5.602929E2,1.8683226E3,5.207566E2,2.269006E3,1.3272656E2,8.175426E2,2.8528118E1,1.5496207E2,1.4530118E1,9.805513E1,5.587557E2,1.4293927E2,7.5677393E3,2.383939E3,1.4070628E1,2.3688672E3,1.4283637E4,1.01727936E3,9.8579224E2,1.9940128E2,2.7053086E3,2.0786667E3,5.1474053E3,7.447559E3,1.6936008E4,1.5658197E3,1.6070258E3,2.1896707E3,3.8126626E3,1.899421E4,8.0928265E2,8.374745E1,4.7654544E2,1.7956115E3,7.27111E1,1.9090424E2,3.2985236E2,2.167477E3,1.01528984E2,1.1691601E1,1.2103496E2,7.381905E2,7.935208E1,1.5803323E0,1.2949786E1,1.4301125E1,8.3754005E1,4.4756757E2,1.1118808E2,1.1529509E2,2.7644175E1,9.820894E1,7.4695303E3,4.7402518E2,1.9099138E3,2.0160666E2,8.1567267E2,8.4270215E2,1.4309009E2,5.9155084E2,2.1137578E3,4.088143E2,1.6698524E3,4.8415127E3,3.0589252E2,5.108435E3,2.3391238E3,6.356253E3,1.0579756E4,1.0956165E3,4.7020325E2,3.8955576E2,1.21747E3,2.085451E3,1.0421978E2],"tree_param":{"num_deleted":"0","num_feature":"98","num_nodes":"109","size_leaf_vector":"1"}},{"base_weights":[1.8646184E-2,-1.0833815E0,6.2209105E-1,-1.6521639E0,-2.3064524E-1,2.7260116E-1,1.2223247E0,-1.8831402E0,-9.414046E-1,-9.414046E-1,-2.3064524E-1,1.8105994E-1,7.474629E-1,7.474629E-1,1.4188313E0,-1.9277613E0,-1.4122725E0,-1.4122725E0,-9.414046E-1,-4.707023E-2,-2.7968204E-2,-2.3064524E-1,-9.414046E-1,5.4318782E-2,4.6426144E-1,4.6426144E-1,7.474629E-1,7.474629E-1,1.0208923E0,5.4157358E-2,1.4293784E0,-1.9759815E0,-1.6700169E0,-8.350085E-2,-1.4122725E0,-1.4122725E0,-1.1768385E0,-1.1768385E0,-9.414046E-1,-7.4367887E-1,-2.3064524E-1,-9.414046E-1,-4.600604E-1,-2.3064524E-1,1.7355374E-1,-2.3064524E-1,4.6426144E-1,2.3213072E-2,2.7271708E-2,3.029311E-2,3.7373148E-2,9.09023E-1,3.7373148E-2,5.1686138E-2,3.7373148E-2,6.8904676E-2,7.196661E-2,-9.908532E-2,-8.350085E-2,-8.350085E-2,-9.9824786E-2,-7.061362E-2,-8.350085E-2,-7.061362E-2,-5.8841925E-2,-7.061362E-2,-5.8841925E-2,-5.8841925E-2,-5.2956082E-2,-4.707023E-2,-5.2956082E-2,-4.707023E-2,-1.1532262E-2,-4.707023E-2,-1.1532262E-2,-4.707023E-2,-1.5302819E-2,-1.44053325E-2,-3.0469382E-2,-1.4272876E-3,-1.1532262E-2,-1.4272876E-3,1.378834E-2,-1.1532262E-2,-2.2522246E-3,5.8404054E-3,2.3213072E-2,4.8314758E-2,4.212965E-2],"categories":[],"categories_nodes":[],"categories_segments":[],"categories_sizes":[],"default_left":[0,0,0,1,1,0,1,0,1,1,0,0,0,1,0,1,0,0,0,0,0,1,1,0,0,0,0,0,0,0,0,0,0,0,1,0,0,0,0,1,0,1,0,0,0,0,0,0,0,0,0,0,0,0,0,0,0,0,0,0,0,0,0,0,0,0,0,0,0,0,0,0,0,0,0,0,0,0,0,0,0,0,0,0,0,0,0,0,0],"id":5,"left_children":[1,3,5,7,9,11,13,15,17,19,21,23,25,27,29,31,33,35,37,-1,-1,39,41,43,45,47,49,51,53,-1,55,57,59,-1,61,63,65,67,69,71,73,75,77,79,81,83,85,-1,-1,-1,-1,87,-1,-1,-1,-1,-1,-1,-1,-1,-1,-1,-1,-1,-1,-1,-1,-1,-1,-1,-1,-1,-1,-1,-1,-1,-1,-1,-1,-1,-1,-1,-1,-1,-1,-1,-1,-1,-1],"loss_changes":[6.5255574E4,2.5240043E4,1.3300848E4,5.2686484E3,2.1768347E2,2.064415E3,2.2927812E3,7.0746094E2,8.520554E2,1.0059814E0,1.3735718E2,1.5354714E3,1.4599902E2,1.4409326E2,1.03953125E2,3.0098438E2,6.9949036E0,8.5523926E1,7.691943E1,0E0,0E0,1.1585669E2,5.621338E0,1.1477925E3,3.0028198E2,2.8922195E0,1.4489014E1,2.5770508E1,1.2188721E1,0E0,6.5039062E0,3.7765625E1,1.5993018E2,0E0,4.2057495E0,7.3305664E0,6.37619E0,4.5507812E0,2.4064453E1,8.919783E1,8.731421E1,5.007782E0,5.4563713E-1,3.5173083E2,5.8960785E2,6.3782005E0,1.0933667E2,0E0,0E0,0E0,0E0,3.0234985E0,0E0,0E0,0E0,0E0,0E0,0E0,0E0,0E0,0E0,0E0,0E0,0E0,0E0,0E0,0E0,0E0,0E0,0E0,0E0,0E0,0E0,0E0,0E0,0E0,0E0,0E0,0E0,0E0,0E0,0E0,0E0,0E0,0E0,0E0,0E0,0E0,0E0],"parents":[2147483647,0,0,1,1,2,2,3,3,4,4,5,5,6,6,7,7,8,8,9,9,10,10,11,11,12,12,13,13,14,14,15,15,16,16,17,17,18,18,21,21,22,22,23,23,24,24,25,25,26,26,27,27,28,28,30,30,31,31,32,32,34,34,35,35,36,36,37,37,38,38,39,39,40,40,41,41,42,42,43,43,44,44,45,45,46,46,51,51],"right_children":[2,4,6,8,10,12,14,16,18,20,22,24,26,28,30,32,34,36,38,-1,-1,40,42,44,46,48,50,52,54,-1,56,58,60,-1,62,64,66,68,70,72,74,76,78,80,82,84,86,-1,-1,-1,-1,88,-1,-1,-1,-1,-1,-1,-1,-1,-1,-1,-1,-1,-1,-1,-1,-1,-1,-1,-1,-1,-1,-1,-1,-1,-1,-1,-1,-1,-1,-1,-1,-1,-1,-1,-1,-1,-1],"split_conditions":[1E-1,2E-1,6E0,3.1312125E0,-5.3615683E-1,8.8E0,3.749588E0,2E-1,6.7833336E1,3.5570807E0,8.149856E0,2.714518E0,9.35E1,2.8719754E0,1.0292434E0,1.9860287E0,-1.0947533E-2,5.7483263E0,6.358011E-1,-4.707023E-2,-2.7968204E-2,1.2833333E0,1.2266432E0,6E-1,-1.3553402E-1,8.660254E-1,1.3E0,-1.4827996E0,1.6833333E0,5.4157358E-2,6.2E0,1E-1,1.6466667E1,-8.350085E-2,1.6282188E0,2.4E0,7.2833336E1,2E-1,5.6519103E-1,4.157101E-1,-2.911725E0,2.521764E0,2.05E0,-4.161247E-1,-8.092778E-2,2.3622708E0,8.92594E-2,2.3213072E-2,2.7271708E-2,3.029311E-2,3.7373148E-2,2.2333333E0,3.7373148E-2,5.1686138E-2,3.7373148E-2,6.8904676E-2,7.196661E-2,-9.908532E-2,-8.350085E-2,-8.350085E-2,-9.9824786E-2,-7.061362E-2,-8.350085E-2,-7.061362E-2,-5.8841925E-2,-7.061362E-2,-5.8841925E-2,-5.8841925E-2,-5.2956082E-2,-4.707023E-2,-5.2956082E-2,-4.707023E-2,-1.1532262E-2,-4.707023E-2,-1.1532262E-2,-4.707023E-2,-1.5302819E-2,-1.44053325E-2,-3.0469382E-2,-1.4272876E-3,-1.1532262E-2,-1.4272876E-3,1.378834E-2,-1.1532262E-2,-2.2522246E-3,5.8404054E-3,2.3213072E-2,4.8314758E-2,4.212965E-2],"split_indices":[0,70,0,46,27,70,91,42,58,65,54,7,3,29,6,72,25,21,90,0,0,1,72,0,74,8,12,72,1,0,0,12,33,0,72,12,3,77,28,18,6,64,1,10,53,28,27,0,0,0,0,1,0,0,0,0,0,0,0,0,0,0,0,0,0,0,0,0,0,0,0,0,0,0,0,0,0,0,0,0,0,0,0,0,0,0,0,0,0],"split_type":[0,0,0,0,0,0,0,0,0,0,0,0,0,0,0,0,0,0,0,0,0,0,0,0,0,0,0,0,0,0,0,0,0,0,0,0,0,0,0,0,0,0,0,0,0,0,0,0,0,0,0,0,0,0,0,0,0,0,0,0,0,0,0,0,0,0,0,0,0,0,0,0,0,0,0,0,0,0,0,0,0,0,0,0,0,0,0,0,0],"sum_hessian":[9.8124766E4,3.471906E4,6.3405703E4,2.4983777E4,9.735281E3,4.0073887E4,2.3331818E4,2.0172625E4,4.8111514E3,1.9850365E2,9.536777E3,3.4603676E4,5.4702085E3,6.571895E3,1.6759924E4,1.950115E4,6.7147546E2,1.9307424E3,2.880409E3,1.8653923E2,1.19644165E1,9.292597E3,2.4418073E2,2.5652152E4,8.951523E3,8.7694714E2,4.5932617E3,4.638104E3,1.9337908E3,1.2869714E2,1.6631227E4,1.7083412E4,2.4177373E3,7.237782E1,5.9909766E2,1.7197026E3,2.1103976E2,2.612707E2,2.6191384E3,4.393809E2,8.853216E3,2.1709355E2,2.708718E1,5.8768022E3,1.9775352E4,5.0341235E2,8.448111E3,4.0629016E2,4.7065698E2,3.8120247E1,4.555141E3,1.00772107E3,3.630383E3,1.919798E3,1.3992753E1,2.725888E3,1.3905339E4,1.687905E4,2.0436273E2,8.921244E2,1.5256129E3,5.3807214E2,6.102549E1,1.7048818E3,1.4820764E1,3.1503761E1,1.79536E2,2.117924E2,4.9478283E1,2.3068784E3,3.1225983E2,2.4482668E2,1.9455421E2,1.1817727E2,8.735039E3,2.0349236E2,1.3601196E1,1.3951302E1,1.3135877E1,1.6490223E3,4.22778E3,4.6870894E3,1.5088262E4,3.1771158E2,1.8570078E2,2.563357E2,8.1917754E3,5.3388745E2,4.7383365E2],"tree_param":{"num_deleted":"0","num_feature":"98","num_nodes":"89","size_leaf_vector":"1"}},{"base_weights":[2.2468932E-2,-1.0719178E0,5.8961886E-1,-1.636773E0,-2.4114946E-1,1.2893127E0,3.3182484E-1,-1.885134E0,-9.389612E-1,-9.389612E-1,-2.4114946E-1,1.3807917E0,1.2054597E-1,1.8707573E-1,7.445304E-1,-1.9333017E0,-1.4120476E0,-1.4120476E0,-9.389612E-1,-9.389612E-1,-2.4114946E-1,-9.342647E-1,-2.4114946E-1,1.2468802E0,7.018687E-2,-2.4069475E-1,5.162865E-1,-1.4452055E-1,2.7934653E-1,8.4016955E-1,4.6580306E-1,-1.9601171E0,-8.3633736E-2,-8.3633736E-2,-1.4120476E0,-1.4120476E0,-1.1755044E0,-5.8775224E-2,-9.389612E-1,-9.389612E-1,-2.9502768E-2,-1.2057473E-2,-2.9502768E-2,-2.4114946E-1,-9.389612E-1,-2.4114946E-1,-8.127134E-1,6.2552236E-2,-1.2057473E-2,-2.4114946E-1,1.3779587E-1,6.562352E-1,6.8897936E-3,3.449716E-1,-2.4114946E-1,-2.4114946E-1,3.3740556E-1,5.6460184E-1,9.3637985E-1,4.6580306E-1,7.043774E-1,-9.9068426E-2,-9.08198E-2,-7.711806E-2,-7.060238E-2,-7.060238E-2,-5.8775224E-2,-7.060238E-2,-5.8775224E-2,-4.694806E-2,-5.8775224E-2,-3.8225412E-2,-4.694806E-2,-4.694806E-2,-1.2057473E-2,-1.4975968E-2,-4.694806E-2,-1.2057473E-2,-4.694806E-2,-4.694806E-2,-1.2057473E-2,-1.2057473E-2,9.955537E-4,6.8897936E-3,-1.2057473E-2,2.776514E-2,3.4298137E-2,-1.2057473E-2,2.3290154E-2,-1.2057473E-2,2.3290154E-2,-1.2057473E-2,3.2654E-3,1.9133363E-3,2.1988764E-2,2.3290154E-2,3.301188E-2,2.984379E-2,4.9393516E-2,2.3290154E-2,3.2540012E-2,2.3290154E-2,3.814677E-2],"categories":[],"categories_nodes":[],"categories_segments":[],"categories_sizes":[],"default_left":[0,0,0,1,0,0,0,1,1,0,0,0,0,1,1,1,0,0,0,0,0,0,0,0,0,0,0,0,0,0,0,1,0,0,0,0,0,0,0,0,0,0,0,0,0,1,0,0,0,0,0,0,0,0,0,0,1,0,0,1,0,0,0,0,0,0,0,0,0,0,0,0,0,0,0,0,0,0,0,0,0,0,0,0,0,0,0,0,0,0,0,0,0,0,0,0,0,0,0,0,0,0,0],"id":6,"left_children":[1,3,5,7,9,11,13,15,17,19,21,23,25,27,29,31,33,35,37,39,41,43,45,47,-1,49,51,53,55,57,59,61,-1,-1,63,65,67,-1,69,71,-1,-1,-1,73,75,77,79,-1,-1,81,83,85,-1,87,89,91,93,95,97,99,101,-1,-1,-1,-1,-1,-1,-1,-1,-1,-1,-1,-1,-1,-1,-1,-1,-1,-1,-1,-1,-1,-1,-1,-1,-1,-1,-1,-1,-1,-1,-1,-1,-1,-1,-1,-1,-1,-1,-1,-1,-1,-1],"loss_changes":[5.995874E4,2.3340293E4,1.1476494E4,5.4797656E3,6.094618E2,1.8314062E3,2.7775771E3,7.3090625E2,8.036609E2,1.1831311E2,3.126565E2,4.706836E1,1.7804694E2,1.0533436E3,3.9384424E2,2.3616406E2,1.293631E1,9.147168E1,7.434204E1,1.0023804E1,3.986927E0,6.0121887E1,1.1200708E2,2.2243164E1,0E0,5.3574825E1,4.4637527E1,5.5956757E2,8.891052E2,2.5145215E2,5.4160553E1,9.4109375E1,0E0,0E0,3.5130005E0,9.428223E0,5.770874E0,0E0,4.4035645E1,3.3167725E0,0E0,0E0,0E0,1.9392094E1,1.0320923E1,1.1031641E2,8.4350876E1,0E0,0E0,6.7757416E0,4.413948E0,1.0678711E0,0E0,2.4266167E2,6.729132E1,1.030446E2,7.488347E2,5.0645386E1,1.2253467E2,1.3555847E1,2.15878E1,0E0,0E0,0E0,0E0,0E0,0E0,0E0,0E0,0E0,0E0,0E0,0E0,0E0,0E0,0E0,0E0,0E0,0E0,0E0,0E0,0E0,0E0,0E0,0E0,0E0,0E0,0E0,0E0,0E0,0E0,0E0,0E0,0E0,0E0,0E0,0E0,0E0,0E0,0E0,0E0,0E0,0E0],"parents":[2147483647,0,0,1,1,2,2,3,3,4,4,5,5,6,6,7,7,8,8,9,9,10,10,11,11,12,12,13,13,14,14,15,15,16,16,17,17,18,18,19,19,20,20,21,21,22,22,23,23,25,25,26,26,27,27,28,28,29,29,30,30,31,31,34,34,35,35,36,36,38,38,39,39,43,43,44,44,45,45,46,46,49,49,50,50,51,51,53,53,54,54,55,55,56,56,57,57,58,58,59,59,60,60],"right_children":[2,4,6,8,10,12,14,16,18,20,22,24,26,28,30,32,34,36,38,40,42,44,46,48,-1,50,52,54,56,58,60,62,-1,-1,64,66,68,-1,70,72,-1,-1,-1,74,76,78,80,-1,-1,82,84,86,-1,88,90,92,94,96,98,100,102,-1,-1,-1,-1,-1,-1,-1,-1,-1,-1,-1,-1,-1,-1,-1,-1,-1,-1,-1,-1,-1,-1,-1,-1,-1,-1,-1,-1,-1,-1,-1,-1,-1,-1,-1,-1,-1,-1,-1,-1,-1,-1],"split_conditions":[1E-1,1E-1,-3.9405828E0,3.1312125E0,1.4679809E-1,-6.339785E-1,3.8E0,1E-1,6.7833336E1,1.1727696E1,5.5406916E-1,2E-1,2.4E0,-5.004558E-1,1.4996811E0,1E-1,2.4269603E-1,5.7483263E0,-5.687043E-1,3.670526E0,8.333333E0,-3.0966027E0,9.3985605E-1,-3.2566488E0,7.018687E-2,3.8575008E0,-5.9635425E-1,-8.821651E-1,-1.521109E0,-2.7589145E-1,5.138312E0,2.3442E0,-8.3633736E-2,-8.3633736E-2,-1.5094525E0,1.3E0,7.2833336E1,-5.8775224E-2,2.0483334E1,-2.8153281E0,-2.9502768E-2,-1.2057473E-2,-2.9502768E-2,-3.1930816E0,-4.2797365E0,2.1043248E0,1.5E0,6.2552236E-2,-1.2057473E-2,3E0,-9.307114E-1,1.6166667E0,6.8897936E-3,8E-1,1.96E1,7.878719E0,8.902196E-2,3.565301E0,3.3548696E0,8.8333336E1,1.5E0,-9.9068426E-2,-9.08198E-2,-7.711806E-2,-7.060238E-2,-7.060238E-2,-5.8775224E-2,-7.060238E-2,-5.8775224E-2,-4.694806E-2,-5.8775224E-2,-3.8225412E-2,-4.694806E-2,-4.694806E-2,-1.2057473E-2,-1.4975968E-2,-4.694806E-2,-1.2057473E-2,-4.694806E-2,-4.694806E-2,-1.2057473E-2,-1.2057473E-2,9.955537E-4,6.8897936E-3,-1.2057473E-2,2.776514E-2,3.4298137E-2,-1.2057473E-2,2.3290154E-2,-1.2057473E-2,2.3290154E-2,-1.2057473E-2,3.2654E-3,1.9133363E-3,2.1988764E-2,2.3290154E-2,3.301188E-2,2.984379E-2,4.9393516E-2,2.3290154E-2,3.2540012E-2,2.3290154E-2,3.814677E-2],"split_indices":[70,0,20,46,24,10,12,50,58,63,85,0,78,54,80,49,66,21,71,47,2,22,10,21,0,52,6,80,44,23,55,44,0,0,52,16,3,0,33,53,0,0,0,22,20,23,14,0,0,70,6,1,0,0,70,46,89,44,43,45,0,0,0,0,0,0,0,0,0,0,0,0,0,0,0,0,0,0,0,0,0,0,0,0,0,0,0,0,0,0,0,0,0,0,0,0,0,0,0,0,0,0,0],"split_type":[0,0,0,0,0,0,0,0,0,0,0,0,0,0,0,0,0,0,0,0,0,0,0,0,0,0,0,0,0,0,0,0,0,0,0,0,0,0,0,0,0,0,0,0,0,0,0,0,0,0,0,0,0,0,0,0,0,0,0,0,0,0,0,0,0,0,0,0,0,0,0,0,0,0,0,0,0,0,0,0,0,0,0,0,0,0,0,0,0,0,0,0,0,0,0,0,0,0,0,0,0,0,0],"sum_hessian":[9.659946E4,3.2973016E4,6.3626445E4,2.3666248E4,9.306769E3,1.7129707E4,4.649674E4,1.8994068E4,4.672179E3,1.0030253E3,8.303743E3,1.5886124E4,1.2435835E3,3.4424434E4,1.2072303E4,1.8343166E4,6.5090265E2,1.8300807E3,2.8420986E3,8.237672E2,1.7925812E2,6.4993475E2,7.6538086E3,2.3319775E3,1.3554146E4,6.50335E2,5.932484E2,7.493664E3,2.693077E4,9.50325E3,2.5690527E3,1.7972162E4,3.7100284E2,9.932159E1,5.5158105E2,1.6219037E3,2.0817697E2,1.7624794E2,2.6658508E3,7.9530725E2,2.8459919E1,1.6845207E2,1.0806051E1,9.784798E1,5.520868E2,7.3117725E3,3.4203632E2,2.328989E3,2.9885445E0,4.368351E2,2.1349992E2,4.818706E2,1.1137782E2,1.8317075E3,5.6619565E3,2.4776938E3,2.4453076E4,2.4610684E3,7.0421816E3,1.6146816E3,9.543712E2,1.7218668E4,7.534939E2,7.7670654E1,4.739104E2,1.5313301E3,9.0573616E1,2.976355E1,1.7841342E2,2.5430503E3,1.2280054E2,2.872742E1,7.6657983E2,1.4080831E1,8.376714E1,2.6397633E1,5.2568915E2,7.1769727E3,1.3480005E2,2.4350914E2,9.852715E1,3.3756174E2,9.927338E1,2.000509E2,1.3449011E1,1.1411179E2,3.6775882E2,4.13653E2,1.4180546E3,5.5505664E3,1.1139013E2,1.3808768E3,1.0968171E3,6.234973E3,1.8218104E4,4.809647E2,1.9801038E3,9.290504E2,6.1131313E3,1.2132488E3,4.014329E2,9.24846E1,8.618866E2],"tree_param":{"num_deleted":"0","num_feature":"98","num_nodes":"103","size_leaf_vector":"1"}},{"base_weights":[2.598983E-2,-1.0197517E0,5.7562774E-1,-1.6020073E0,-2.2206196E-1,2.4964893E-1,1.1528869E0,-1.8616295E0,-9.1203463E-1,-9.1203463E-1,-2.2206196E-1,1.6526587E-1,7.012679E-1,7.012679E-1,1.3529291E0,-1.9150666E0,-1.386832E0,-1.386832E0,-9.1203463E-1,-4.5601733E-2,-2.6864065E-2,-2.2206196E-1,-9.1203463E-1,4.4086624E-2,4.3326688E-1,4.3326688E-1,3.5063397E-2,7.012679E-1,9.4524896E-1,5.1354926E-2,6.820204E-2,-1.971424E0,-1.6509492E0,-1.6509492E0,-1.386832E0,-1.386832E0,-1.1494334E0,-1.1494334E0,-9.1203463E-1,-7.204479E-1,-2.2206196E-1,-9.1203463E-1,-1.3195989E-2,-2.2206196E-1,1.5614337E-1,-2.2206196E-1,4.3326688E-1,4.3326688E-1,2.8363371E-2,8.431625E-1,3.5063397E-2,4.788901E-2,3.5063397E-2,-9.890407E-2,-8.254746E-2,-8.254746E-2,-9.9793576E-2,-8.254746E-2,-6.93416E-2,-6.93416E-2,-8.254746E-2,-6.93416E-2,-5.747167E-2,-6.93416E-2,-5.747167E-2,-5.747167E-2,-4.5601733E-2,-4.5601733E-2,-5.747167E-2,-4.5601733E-2,-1.1634924E-2,-4.5601733E-2,-1.1103098E-2,-4.5601733E-2,-1.4694283E-2,-1.6479649E-3,-1.1103098E-2,2.1663344E-2,3.42559E-3,-1.1103098E-2,-1.8925209E-3,5.280123E-3,2.1663344E-2,2.1663344E-2,2.4936197E-2,4.4491787E-2,3.946447E-2],"categories":[],"categories_nodes":[],"categories_segments":[],"categories_sizes":[],"default_left":[0,0,0,1,1,0,1,0,0,1,0,0,0,1,0,1,0,0,0,0,0,1,1,0,0,0,0,0,0,0,0,0,0,0,1,0,1,0,0,0,0,1,0,0,0,0,0,0,0,0,0,0,0,0,0,0,0,0,0,0,0,0,0,0,0,0,0,0,0,0,0,0,0,0,0,0,0,0,0,0,0,0,0,0,0,0,0],"id":7,"left_children":[1,3,5,7,9,11,13,15,17,19,21,23,25,27,29,31,33,35,37,-1,-1,39,41,43,45,47,-1,49,51,-1,-1,53,55,57,59,61,63,65,67,69,71,73,-1,75,77,79,81,83,-1,85,-1,-1,-1,-1,-1,-1,-1,-1,-1,-1,-1,-1,-1,-1,-1,-1,-1,-1,-1,-1,-1,-1,-1,-1,-1,-1,-1,-1,-1,-1,-1,-1,-1,-1,-1,-1,-1],"loss_changes":[5.4694484E4,2.313591E4,1.1736859E4,5.5936523E3,2.0611255E2,1.7763406E3,2.2163574E3,7.817617E2,7.839629E2,9.824219E-1,1.2751941E2,1.3975879E3,1.3913647E2,1.1183765E2,1.0241016E2,3.5208984E2,6.01355E0,9.147998E1,6.7208984E1,0E0,0E0,1.0846484E2,5.437088E0,1.00908185E3,2.7119043E2,1.866333E1,0E0,1.9452148E1,1.042334E1,0E0,0E0,4.4476562E1,1.6153125E2,2.5379639E0,3.892395E0,2.5273438E0,1.1772507E1,7.6379395E0,4.8840576E1,8.3356186E1,8.0279785E1,4.741852E0,0E0,3.2895636E2,5.1969006E2,6.2856216E0,9.9718506E1,1.8199539E0,0E0,1.7883911E0,0E0,0E0,0E0,0E0,0E0,0E0,0E0,0E0,0E0,0E0,0E0,0E0,0E0,0E0,0E0,0E0,0E0,0E0,0E0,0E0,0E0,0E0,0E0,0E0,0E0,0E0,0E0,0E0,0E0,0E0,0E0,0E0,0E0,0E0,0E0,0E0,0E0],"parents":[2147483647,0,0,1,1,2,2,3,3,4,4,5,5,6,6,7,7,8,8,9,9,10,10,11,11,12,12,13,13,14,14,15,15,16,16,17,17,18,18,21,21,22,22,23,23,24,24,25,25,27,27,28,28,31,31,32,32,33,33,34,34,35,35,36,36,37,37,38,38,39,39,40,40,41,41,43,43,44,44,45,45,46,46,47,47,49,49],"right_children":[2,4,6,8,10,12,14,16,18,20,22,24,26,28,30,32,34,36,38,-1,-1,40,42,44,46,48,-1,50,52,-1,-1,54,56,58,60,62,64,66,68,70,72,74,-1,76,78,80,82,84,-1,86,-1,-1,-1,-1,-1,-1,-1,-1,-1,-1,-1,-1,-1,-1,-1,-1,-1,-1,-1,-1,-1,-1,-1,-1,-1,-1,-1,-1,-1,-1,-1,-1,-1,-1,-1,-1,-1],"split_conditions":[1E-1,2E-1,6E0,3.1312125E0,-5.3615683E-1,8.8E0,3.749588E0,1E-1,6.35E1,3.5570807E0,8.149856E0,2.714518E0,8.8333336E1,2.8719754E0,1.0292434E0,1.9860287E0,-1.0947533E-2,3.020373E0,-4.4964164E-2,-4.5601733E-2,-2.6864065E-2,1.2833333E0,1.3809445E0,6E-1,-1.3553402E-1,9.7E1,3.5063397E-2,-1.4827996E0,1.6833333E0,5.1354926E-2,6.820204E-2,1E-1,1.6466667E1,2.465734E0,1.6282188E0,4E-1,8.824657E-1,6.924289E2,2.0483334E1,3.5761E2,-2.911725E0,2.521764E0,-1.3195989E-2,-4.161247E-1,-2.281947E0,2.3622708E0,8.92594E-2,8.660254E-1,2.8363371E-2,2.2333333E0,3.5063397E-2,4.788901E-2,3.5063397E-2,-9.890407E-2,-8.254746E-2,-8.254746E-2,-9.9793576E-2,-8.254746E-2,-6.93416E-2,-6.93416E-2,-8.254746E-2,-6.93416E-2,-5.747167E-2,-6.93416E-2,-5.747167E-2,-5.747167E-2,-4.5601733E-2,-4.5601733E-2,-5.747167E-2,-4.5601733E-2,-1.1634924E-2,-4.5601733E-2,-1.1103098E-2,-4.5601733E-2,-1.4694283E-2,-1.6479649E-3,-1.1103098E-2,2.1663344E-2,3.42559E-3,-1.1103098E-2,-1.8925209E-3,5.280123E-3,2.1663344E-2,2.1663344E-2,2.4936197E-2,4.4491787E-2,3.946447E-2],"split_indices":[0,70,0,46,27,70,91,42,73,65,54,7,88,29,6,72,25,56,83,0,0,1,72,0,74,3,0,72,1,0,0,12,33,7,72,42,72,68,33,69,6,64,0,10,21,28,27,8,0,1,0,0,0,0,0,0,0,0,0,0,0,0,0,0,0,0,0,0,0,0,0,0,0,0,0,0,0,0,0,0,0,0,0,0,0,0,0],"split_type":[0,0,0,0,0,0,0,0,0,0,0,0,0,0,0,0,0,0,0,0,0,0,0,0,0,0,0,0,0,0,0,0,0,0,0,0,0,0,0,0,0,0,0,0,0,0,0,0,0,0,0,0,0,0,0,0,0,0,0,0,0,0,0,0,0,0,0,0,0,0,0,0,0,0,0,0,0,0,0,0,0,0,0,0,0,0,0],"sum_hessian":[9.515534E4,3.2782492E4,6.2372848E4,2.3103324E4,9.679168E3,3.9863387E4,2.2509463E4,1.8400945E4,4.70238E3,1.9523706E2,9.483931E3,3.448429E4,5.379096E3,6.4787217E3,1.6030742E4,1.7674693E4,7.2625146E2,1.4850398E3,3.2173403E3,1.8331886E2,1.1918193E1,9.242392E3,2.4153925E2,2.558089E4,8.903398E3,1.3265874E3,4.0525088E3,4.592685E3,1.8860364E3,1.2861801E2,1.5902124E4,1.5459228E4,2.2154658E3,9.787198E1,6.283795E2,1.2914414E3,1.9359842E2,2.8057513E2,2.9367651E3,4.358726E2,8.806519E3,2.2761522E2,1.3924025E1,5.858452E3,1.9722438E4,5.0290125E2,8.400497E3,9.113787E2,4.1520865E2,9.895571E2,3.6031282E3,1.8720538E3,1.3982507E1,1.5277463E4,1.8176447E2,8.3582306E2,1.3796427E3,8.153078E1,1.6341198E1,5.562952E2,7.2084274E1,1.278248E3,1.3193401E1,3.9821056E1,1.5377737E2,2.3367012E2,4.6905025E1,2.778154E3,1.5861118E2,2.197022E2,2.161704E2,1.16499435E2,8.69002E3,2.1402867E2,1.358654E1,1.6479589E3,4.210493E3,4.4311084E3,1.529133E4,3.1721667E2,1.8568457E2,2.5639737E2,8.1441E3,4.4380563E2,4.6757312E2,5.2189435E2,4.6766275E2],"tree_param":{"num_deleted":"0","num_feature":"98","num_nodes":"87","size_leaf_vector":"1"}},{"base_weights":[3.0041872E-2,-1.0072981E0,5.4515237E-1,-1.584744E0,-2.3107287E-1,1.0889096E0,2.4359782E-1,-1.9039409E0,-9.0790844E-1,-9.0790844E-1,-2.3107287E-1,1.2609439E0,4.6420473E-1,8.208403E-2,5.39491E-1,-1.9590414E0,-1.4059247E0,-1.4059247E0,-9.0790844E-1,-9.0790844E-1,-2.3107287E-1,-9.0396017E-1,-2.3107287E-1,9.1568625E-1,1.3132852E0,6.07545E-1,-2.3107287E-1,-2.3107287E-1,1.5466484E-1,3.107875E-1,7.178162E-1,-1.9763802E0,-1.682483E0,-8.412415E-2,-1.4059247E0,-1.4059247E0,-1.1569166E0,-9.0790844E-1,-1.1569166E0,-9.0790844E-1,-2.8474534E-2,-1.1553644E-2,-2.8474534E-2,-2.3107287E-1,-9.0790844E-1,-9.0790844E-1,-2.3107287E-1,4.6608265E-2,-1.1553644E-2,6.0905404E-2,6.650359E-2,7.918395E-1,1.221608E-1,-2.3107287E-1,7.222911E-2,2.028585E-1,-2.3107287E-1,3.107875E-1,-3.6015336E-3,4.8031884E-1,3.107875E-1,5.80083E-1,8.8844067E-1,-9.9175684E-2,-9.1471575E-2,-8.412415E-2,-9.1471575E-2,-7.0296235E-2,-8.412415E-2,-7.0296235E-2,-5.784583E-2,-7.0296235E-2,-5.784583E-2,-4.5395423E-2,-5.162063E-2,-5.784583E-2,-5.162063E-2,-3.693498E-2,-4.5395423E-2,-4.5395423E-2,-1.1553644E-2,-4.5395423E-2,-2.9074853E-2,-4.5395423E-2,-1.3652644E-2,-1.1553644E-2,-3.753824E-2,-1.1553644E-2,4.1670557E-2,-5.954832E-3,1.3434465E-2,-1.1553644E-2,-3.971094E-3,8.619876E-3,-3.971094E-3,-7.053595E-4,1.5539375E-2,-1.1553644E-2,-7.053595E-4,-1.0775474E-2,1.5539375E-2,-1.1553644E-2,9.03315E-3,1.5539375E-2,2.78225E-2,1.5539375E-2,2.959681E-2,2.5188833E-2,3.6713094E-2,3.6713094E-2,4.590767E-2],"categories":[],"categories_nodes":[],"categories_segments":[],"categories_sizes":[],"default_left":[0,0,0,1,0,0,0,0,0,0,0,0,0,1,0,1,0,0,0,0,0,0,0,0,0,0,0,0,0,0,0,1,0,0,1,0,0,0,0,0,0,0,0,0,0,0,0,0,0,0,0,0,0,0,0,0,0,0,0,0,1,0,0,0,0,0,0,0,0,0,0,0,0,0,0,0,0,0,0,0,0,0,0,0,0,0,0,0,0,0,0,0,0,0,0,0,0,0,0,0,0,0,0,0,0,0,0,0,0,0,0],"id":8,"left_children":[1,3,5,7,9,11,13,15,17,19,21,23,25,27,29,31,33,35,37,39,41,43,45,47,49,51,53,55,57,59,61,63,65,-1,67,69,71,73,75,77,-1,-1,-1,79,81,83,85,-1,-1,-1,-1,87,89,91,93,95,97,99,101,103,105,107,109,-1,-1,-1,-1,-1,-1,-1,-1,-1,-1,-1,-1,-1,-1,-1,-1,-1,-1,-1,-1,-1,-1,-1,-1,-1,-1,-1,-1,-1,-1,-1,-1,-1,-1,-1,-1,-1,-1,-1,-1,-1,-1,-1,-1,-1,-1,-1,-1],"loss_changes":[5.0126305E4,2.1367041E4,1.0277965E4,5.7886445E3,5.72787E2,2.4025605E3,1.9270098E3,7.616094E2,1.3317383E3,1.124823E2,2.9143066E2,3.156211E2,5.1836365E2,7.0695105E2,6.4092725E2,1.2606641E2,4.4832764E0,1.9711035E2,9.246045E1,9.860596E0,3.7295823E0,5.7020935E1,1.0877832E2,6.915662E1,2.2701172E1,3.6281677E2,2.4278564E1,1.5952936E2,6.0493164E2,9.162244E1,1.9605273E2,1.6902344E1,2.9981995E-1,0E0,1.5394287E0,1.940625E1,4.02406E1,1.7259521E1,1.8843384E0,3.1534424E0,0E0,0E0,0E0,1.8588411E1,1.1004089E1,5.6204987E0,8.828955E1,0E0,0E0,0E0,0E0,1.8756348E2,3.9542603E1,1.56462555E1,5.271702E0,6.1892235E1,2.5789429E1,3.8808118E2,6.367758E2,9.2170044E1,3.834195E1,8.434668E1,3.376831E1,0E0,0E0,0E0,0E0,0E0,0E0,0E0,0E0,0E0,0E0,0E0,0E0,0E0,0E0,0E0,0E0,0E0,0E0,0E0,0E0,0E0,0E0,0E0,0E0,0E0,0E0,0E0,0E0,0E0,0E0,0E0,0E0,0E0,0E0,0E0,0E0,0E0,0E0,0E0,0E0,0E0,0E0,0E0,0E0,0E0,0E0,0E0,0E0],"parents":[2147483647,0,0,1,1,2,2,3,3,4,4,5,5,6,6,7,7,8,8,9,9,10,10,11,11,12,12,13,13,14,14,15,15,16,16,17,17,18,18,19,19,20,20,21,21,22,22,23,23,24,24,25,25,26,26,27,27,28,28,29,29,30,30,31,31,32,32,34,34,35,35,36,36,37,37,38,38,39,39,43,43,44,44,45,45,46,46,51,51,52,52,53,53,54,54,55,55,56,56,57,57,58,58,59,59,60,60,61,61,62,62],"right_children":[2,4,6,8,10,12,14,16,18,20,22,24,26,28,30,32,34,36,38,40,42,44,46,48,50,52,54,56,58,60,62,64,66,-1,68,70,72,74,76,78,-1,-1,-1,80,82,84,86,-1,-1,-1,-1,88,90,92,94,96,98,100,102,104,106,108,110,-1,-1,-1,-1,-1,-1,-1,-1,-1,-1,-1,-1,-1,-1,-1,-1,-1,-1,-1,-1,-1,-1,-1,-1,-1,-1,-1,-1,-1,-1,-1,-1,-1,-1,-1,-1,-1,-1,-1,-1,-1,-1,-1,-1,-1,-1,-1,-1],"split_conditions":[1E-1,1E-1,-6.339785E-1,1.9503266E0,1.4679809E-1,-3.0871148E0,2.2E0,2E-1,7.3666664E1,1.1727696E1,5.5406916E-1,1.06502E0,9.924818E-1,-9.138034E-1,4.088423E0,1E-1,-2.120763E-2,2.2407103E0,1.915E1,3.670526E0,8.333333E0,-3.0966027E0,1.25E0,1.88E1,1E-1,2.4E0,3.7552085E0,5.7166667E0,2.8960495E0,-1.4705813E0,6.1E0,4.8414874E0,1.35E1,-8.412415E-2,1.6282188E0,2E-1,1.2423835E0,9.158643E-1,2E-1,-2.8153281E0,-2.8474534E-2,-1.1553644E-2,-2.8474534E-2,-3.1930816E0,3.2837033E2,2.2E0,9.3985605E-1,4.6608265E-2,-1.1553644E-2,6.0905404E-2,6.650359E-2,9.1751814E-2,4.7015687E-3,3.8365135E0,-1.59856E0,6E-1,5.128791E0,5E-1,9.8618525E-1,1.9E0,4.3185134E0,7.4427323E0,1.0292897E0,-9.9175684E-2,-9.1471575E-2,-8.412415E-2,-9.1471575E-2,-7.0296235E-2,-8.412415E-2,-7.0296235E-2,-5.784583E-2,-7.0296235E-2,-5.784583E-2,-4.5395423E-2,-5.162063E-2,-5.784583E-2,-5.162063E-2,-3.693498E-2,-4.5395423E-2,-4.5395423E-2,-1.1553644E-2,-4.5395423E-2,-2.9074853E-2,-4.5395423E-2,-1.3652644E-2,-1.1553644E-2,-3.753824E-2,-1.1553644E-2,4.1670557E-2,-5.954832E-3,1.3434465E-2,-1.1553644E-2,-3.971094E-3,8.619876E-3,-3.971094E-3,-7.053595E-4,1.5539375E-2,-1.1553644E-2,-7.053595E-4,-1.0775474E-2,1.5539375E-2,-1.1553644E-2,9.03315E-3,1.5539375E-2,2.78225E-2,1.5539375E-2,2.959681E-2,2.5188833E-2,3.6713094E-2,3.6713094E-2,4.590767E-2],"split_indices":[70,0,10,46,24,20,12,42,73,63,85,71,84,54,55,78,25,44,33,47,2,22,1,2,0,1,93,33,82,21,13,53,5,0,72,12,7,11,42,53,0,0,0,22,96,49,10,0,0,0,0,54,85,22,19,79,25,70,7,0,85,19,7,0,0,0,0,0,0,0,0,0,0,0,0,0,0,0,0,0,0,0,0,0,0,0,0,0,0,0,0,0,0,0,0,0,0,0,0,0,0,0,0,0,0,0,0,0,0,0,0],"split_type":[0,0,0,0,0,0,0,0,0,0,0,0,0,0,0,0,0,0,0,0,0,0,0,0,0,0,0,0,0,0,0,0,0,0,0,0,0,0,0,0,0,0,0,0,0,0,0,0,0,0,0,0,0,0,0,0,0,0,0,0,0,0,0,0,0,0,0,0,0,0,0,0,0,0,0,0,0,0,0,0,0,0,0,0,0,0,0,0,0,0,0,0,0,0,0,0,0,0,0,0,0,0,0,0,0,0,0,0,0,0,0],"sum_hessian":[9.38069E4,3.112526E4,6.2681637E4,2.189428E4,9.23098E3,2.2359969E4,4.0321668E4,1.5945114E4,5.9491646E3,9.9069464E2,8.240285E3,1.753114E4,4.828829E3,2.6084615E4,1.4237053E4,1.5422207E4,5.229077E2,3.0234192E3,2.925745E3,8.115693E2,1.7912532E2,6.427692E2,7.597516E3,2.3102966E3,1.5220843E4,4.0560032E3,7.728257E2,4.1414634E3,2.1943152E4,5.873655E3,8.363398E3,1.5148313E4,2.7389273E2,4.8558495E1,4.743492E2,2.4571472E3,5.6627203E2,2.658581E3,2.6716406E2,7.831622E2,2.8407137E1,1.6842226E2,1.0703075E1,9.761195E1,5.451573E2,1.3958377E2,7.4579326E3,2.2964229E3,1.3873862E1,2.2930728E3,1.29277705E4,2.9393403E3,1.1166628E3,5.093251E2,2.6350058E2,8.4650757E2,3.2949556E3,1.0411413E4,1.1531739E4,3.1902424E3,2.6834126E3,4.63018E3,3.733218E3,1.463119E4,5.171239E2,2.0517764E2,6.871507E1,4.377128E2,3.663643E1,2.3082146E3,1.4893257E2,1.9983151E2,3.664405E2,2.5336152E3,1.24965904E2,2.551371E2,1.2026974E1,2.8651833E1,7.545103E2,1.3830395E1,8.378156E1,4.3513818E2,1.10019066E2,1.245933E2,1.499047E1,7.131834E3,3.2609872E2,5.96013E1,2.879739E3,4.2201212E2,6.946508E2,3.1719125E2,1.9213385E2,1.7815884E2,8.534175E1,3.0574203E2,5.4076556E2,3.0272717E3,2.676838E2,1.4004218E3,9.010991E3,4.2561733E3,7.275566E3,1.426008E2,3.0476416E3,2.1981233E3,4.8528937E2,3.66921E3,9.609701E2,9.471474E1,3.6385034E3],"tree_param":{"num_deleted":"0","num_feature":"98","num_nodes":"111","size_leaf_vector":"1"}},{"base_weights":[3.3291932E-2,-9.5544726E-1,5.326568E-1,-1.5471717E0,-2.1139523E-1,2.306643E-1,1.0822947E0,-1.879813E0,-8.792835E-1,-8.792835E-1,-2.1139523E-1,4.9003273E-1,8.379861E-2,6.564795E-1,1.2851188E0,-1.9397786E0,-1.3795482E0,-1.3795482E0,-8.792835E-1,-4.3964174E-2,-2.522259E-2,-2.1139523E-1,-8.792835E-1,-1.8320744E-1,5.553937E-1,-1.752546E-1,2.4875258E-1,6.564795E-1,8.716217E-1,4.853996E-2,6.481861E-2,-1.9702275E0,-8.298317E-2,-8.298317E-2,-1.3795482E0,-1.3795482E0,-1.1294159E0,-8.792835E-1,-1.1294159E0,-6.9425154E-1,-2.1139523E-1,-8.792835E-1,-1.2061242E-2,-2.1139523E-1,1.8609312E-1,6.564795E-1,2.2486134E-1,4.8595637E-1,-2.1139523E-1,-2.1139523E-1,2.9646972E-1,6.564795E-1,4.0979635E-2,4.4197038E-2,3.2823976E-2,-9.8848075E-2,-9.0747274E-2,-6.897741E-2,-8.260046E-2,-6.897741E-2,-5.6470793E-2,-6.897741E-2,-5.6470793E-2,-4.3964174E-2,-5.0217487E-2,-5.6470793E-2,-5.0217487E-2,-4.3964174E-2,-1.05697615E-2,-4.3964174E-2,-1.05697615E-2,-4.3964174E-2,-3.3565935E-2,4.7033834E-3,-1.05697615E-2,-1.05697615E-2,9.304657E-3,9.304657E-3,3.2823976E-2,3.2823976E-2,9.304657E-3,-5.7697743E-3,3.2823976E-2,-1.05697615E-2,3.2823976E-2,-1.05697615E-2,2.4509056E-2,1.6497564E-2,-1.05697615E-2,3.2823976E-2,3.5994597E-2],"categories":[],"categories_nodes":[],"categories_segments":[],"categories_sizes":[],"default_left":[0,0,0,1,1,0,1,0,0,1,0,0,0,1,0,1,0,1,0,0,0,1,1,0,0,0,0,0,0,0,0,0,0,0,1,0,0,0,0,1,0,0,0,0,0,0,0,1,0,0,1,0,0,0,0,0,0,0,0,0,0,0,0,0,0,0,0,0,0,0,0,0,0,0,0,0,0,0,0,0,0,0,0,0,0,0,0,0,0,0,0],"id":9,"left_children":[1,3,5,7,9,11,13,15,17,19,21,23,25,27,29,31,33,35,37,-1,-1,39,41,43,45,47,49,51,53,-1,-1,55,-1,-1,57,59,61,63,65,67,69,71,-1,73,75,77,79,81,83,85,87,89,-1,-1,-1,-1,-1,-1,-1,-1,-1,-1,-1,-1,-1,-1,-1,-1,-1,-1,-1,-1,-1,-1,-1,-1,-1,-1,-1,-1,-1,-1,-1,-1,-1,-1,-1,-1,-1,-1,-1],"loss_changes":[4.5685082E4,2.1043418E4,1.0204348E4,5.8968125E3,1.9510522E2,1.5114299E3,2.1263906E3,8.060664E2,1.3050046E3,1.0327454E0,1.17553955E2,6.3133374E2,1.0826624E3,8.506177E1,9.8115234E1,2.3260938E2,4.7977295E0,2.0532373E2,9.491846E1,0E0,0E0,1.01041016E2,5.293213E0,1.723148E2,5.4914844E2,8.215345E2,4.214615E2,1.3227051E1,8.914795E0,0E0,0E0,2.3953125E1,0E0,0E0,2.039856E0,8.768555E0,4.9485413E1,1.8363037E1,2.0229492E0,7.927283E1,7.54292E1,4.5146484E0,0E0,8.293152E0,3.4067917E0,3.8476025E2,4.831489E2,2.2731668E2,4.3826416E2,1.0760251E2,3.5045935E2,1.4248657E0,0E0,0E0,0E0,0E0,0E0,0E0,0E0,0E0,0E0,0E0,0E0,0E0,0E0,0E0,0E0,0E0,0E0,0E0,0E0,0E0,0E0,0E0,0E0,0E0,0E0,0E0,0E0,0E0,0E0,0E0,0E0,0E0,0E0,0E0,0E0,0E0,0E0,0E0,0E0],"parents":[2147483647,0,0,1,1,2,2,3,3,4,4,5,5,6,6,7,7,8,8,9,9,10,10,11,11,12,12,13,13,14,14,15,15,16,16,17,17,18,18,21,21,22,22,23,23,24,24,25,25,26,26,27,27,28,28,31,31,34,34,35,35,36,36,37,37,38,38,39,39,40,40,41,41,43,43,44,44,45,45,46,46,47,47,48,48,49,49,50,50,51,51],"right_children":[2,4,6,8,10,12,14,16,18,20,22,24,26,28,30,32,34,36,38,-1,-1,40,42,44,46,48,50,52,54,-1,-1,56,-1,-1,58,60,62,64,66,68,70,72,-1,74,76,78,80,82,84,86,88,90,-1,-1,-1,-1,-1,-1,-1,-1,-1,-1,-1,-1,-1,-1,-1,-1,-1,-1,-1,-1,-1,-1,-1,-1,-1,-1,-1,-1,-1,-1,-1,-1,-1,-1,-1,-1,-1,-1,-1],"split_conditions":[1E-1,2E-1,6E0,1.9503266E0,-5.3615683E-1,-1.5430883E-1,4.9789605E0,2E-1,7.3666664E1,3.5570807E0,8.149856E0,-7.589425E1,9.083711E-1,2.8719754E0,1.2084277E0,1E-1,-2.120763E-2,1.9681743E0,1.915E1,-4.3964174E-2,-2.522259E-2,1.2833333E0,1.3809445E0,3.5526192E0,2.1765354E0,-4.374763E0,5.1358837E-1,5.648556E0,1.6833333E0,4.853996E-2,6.481861E-2,1E-1,-8.298317E-2,-8.298317E-2,1.6282188E0,4E-1,6.5E1,9.158643E-1,2E-1,4.157101E-1,7.0666664E1,8.4166664E1,-1.2061242E-2,-3.1840284E0,4E-1,7.1333336E1,1.0116667E1,1.2409374E0,6.483333E0,9.087534E2,2.4804544E0,1.1967377E1,4.0979635E-2,4.4197038E-2,3.2823976E-2,-9.8848075E-2,-9.0747274E-2,-6.897741E-2,-8.260046E-2,-6.897741E-2,-5.6470793E-2,-6.897741E-2,-5.6470793E-2,-4.3964174E-2,-5.0217487E-2,-5.6470793E-2,-5.0217487E-2,-4.3964174E-2,-1.05697615E-2,-4.3964174E-2,-1.05697615E-2,-4.3964174E-2,-3.3565935E-2,4.7033834E-3,-1.05697615E-2,-1.05697615E-2,9.304657E-3,9.304657E-3,3.2823976E-2,3.2823976E-2,9.304657E-3,-5.7697743E-3,3.2823976E-2,-1.05697615E-2,3.2823976E-2,-1.05697615E-2,2.4509056E-2,1.6497564E-2,-1.05697615E-2,3.2823976E-2,3.5994597E-2],"split_indices":[0,70,0,46,27,10,90,42,73,65,54,67,25,29,18,49,25,56,33,0,0,1,72,54,71,23,24,27,1,0,0,12,0,0,72,42,58,11,42,18,73,40,0,21,0,45,34,94,1,68,72,46,0,0,0,0,0,0,0,0,0,0,0,0,0,0,0,0,0,0,0,0,0,0,0,0,0,0,0,0,0,0,0,0,0,0,0,0,0,0,0],"split_type":[0,0,0,0,0,0,0,0,0,0,0,0,0,0,0,0,0,0,0,0,0,0,0,0,0,0,0,0,0,0,0,0,0,0,0,0,0,0,0,0,0,0,0,0,0,0,0,0,0,0,0,0,0,0,0,0,0,0,0,0,0,0,0,0,0,0,0,0,0,0,0,0,0,0,0,0,0,0,0,0,0,0,0,0,0,0,0,0,0,0,0],"sum_hessian":[9.2526305E4,3.1048857E4,6.147745E4,2.1426508E4,9.622349E3,3.9678152E4,2.1799299E4,1.5438503E4,5.9880054E3,1.9218782E2,9.430161E3,1.4343984E4,2.5334168E4,6.4161387E3,1.538316E4,1.4884466E4,5.540364E2,2.9871404E3,3.000865E3,1.8033409E2,1.1853725E1,9.191331E3,2.3882967E2,1.2691812E3,1.3074803E4,9.855873E3,1.5478294E4,4.5700957E3,1.8460427E3,1.10601616E2,1.5272559E4,1.4549145E4,3.353222E2,4.7404976E1,5.0663144E2,2.2338013E3,7.5333923E2,2.7305208E3,2.703443E2,4.325657E2,8.758766E3,2.2492896E2,1.3900719E1,8.017904E2,4.673907E2,9.4085205E3,3.6662827E3,1.7149263E3,8.1409473E3,1.1378995E3,1.4340395E4,4.0577427E3,5.12353E2,1.8320303E3,1.4012484E1,1.4402546E4,1.4659831E2,4.5451578E2,5.211566E1,2.179678E3,5.412312E1,2.5929303E2,4.9404623E2,2.5763079E3,1.5421286E2,2.5833032E2,1.2013974E1,2.3865358E2,1.9391211E2,5.553375E1,8.703231E3,1.0366576E2,1.212632E2,8.835886E1,7.134316E2,2.184624E0,4.6520605E2,6.2674756E2,8.781773E3,1.3743336E3,2.291949E3,4.6500824E2,1.249918E3,7.652934E3,4.8801297E2,9.2019745E2,2.1770206E2,1.3817294E4,5.231004E2,3.5972004E3,4.6054236E2],"tree_param":{"num_deleted":"0","num_feature":"98","num_nodes":"91","size_leaf_vector":"1"}},{"base_weights":[3.545436E-2,-9.4319546E-1,5.0189245E-1,-1.5283566E0,-2.206515E-1,1.0232464E0,2.1977852E-1,-1.8858862E0,-8.74504E-1,-8.74504E-1,-2.206515E-1,1.1918026E0,4.273832E-1,1.1376297E-1,5.9579045E-1,-1.9505903E0,-1.3801951E0,-1.3801951E0,-8.74504E-1,-8.74504E-1,-2.206515E-1,-8.74504E-1,-2.206515E-1,8.5983855E-1,1.2432655E0,5.6419265E-1,-2.206515E-1,-1.9852133E-1,1.8963493E-1,3.547767E-1,7.53339E-1,-1.9713393E0,-1.6653926E0,-8.326963E-2,-1.3801951E0,-1.3801951E0,-1.1273496E0,-8.74504E-1,-1.1273496E0,-8.74504E-1,-2.7378887E-2,-1.1032576E-2,-2.7378887E-2,-2.206515E-1,-8.74504E-1,-8.74504E-1,-2.206515E-1,4.380638E-2,-1.1032576E-2,5.9299033E-2,6.2680565E-2,7.389414E-1,1.0932642E-1,-2.206515E-1,6.50182E-2,-2.206515E-1,-4.4431984E-3,-4.4431984E-3,2.78616E-1,3.547767E-1,5.580235E-1,5.906187E-1,4.2509843E-2,-9.899779E-2,-9.09183E-2,-8.326963E-2,-9.09183E-2,-6.900976E-2,-8.326963E-2,-6.900976E-2,-5.6367483E-2,-6.900976E-2,-5.6367483E-2,-4.3725204E-2,-5.0046343E-2,-5.6367483E-2,-5.0046343E-2,-3.5552043E-2,-4.3725204E-2,-4.3725204E-2,-1.1032576E-2,-1.1784432E-2,-4.3725204E-2,-4.3725204E-2,-2.0696959E-2,-4.3725204E-2,-1.1032576E-2,-1.1032576E-2,3.8964212E-2,1.6711771E-2,-2.0926173E-3,-1.1032576E-2,-3.8908327E-3,7.7346526E-3,-3.8908327E-3,-1.1032576E-2,-2.2215993E-4,-1.1032576E-2,-2.2215993E-4,1.7738836E-2,-2.2215993E-4,-2.2215993E-4,1.7738836E-2,1.7738836E-2,2.1813294E-2,2.8561458E-2,2.2820005E-2,3.134278E-2,1.7738836E-2],"categories":[],"categories_nodes":[],"categories_segments":[],"categories_sizes":[],"default_left":[0,0,0,1,0,0,0,0,0,0,0,0,0,0,0,1,0,0,0,0,0,0,0,0,0,0,0,0,1,0,0,1,0,0,1,0,0,0,0,0,0,0,0,0,0,0,0,0,0,0,0,0,0,0,0,1,0,0,0,0,0,0,0,0,0,0,0,0,0,0,0,0,0,0,0,0,0,0,0,0,0,0,0,0,0,0,0,0,0,0,0,0,0,0,0,0,0,0,0,0,0,0,0,0,0,0,0,0,0],"id":10,"left_children":[1,3,5,7,9,11,13,15,17,19,21,23,25,27,29,31,33,35,37,39,41,43,45,47,49,51,53,55,57,59,61,63,65,-1,67,69,71,73,75,77,-1,-1,-1,79,81,83,85,-1,-1,-1,-1,87,89,91,93,95,97,99,101,103,105,107,-1,-1,-1,-1,-1,-1,-1,-1,-1,-1,-1,-1,-1,-1,-1,-1,-1,-1,-1,-1,-1,-1,-1,-1,-1,-1,-1,-1,-1,-1,-1,-1,-1,-1,-1,-1,-1,-1,-1,-1,-1,-1,-1,-1,-1,-1,-1],"loss_changes":[4.1681434E4,1.9364168E4,9.094956E3,6.1658555E3,5.3217957E2,2.1801855E3,1.5995017E3,8.4064844E2,1.2245684E3,1.0883777E2,2.7426697E2,2.880625E2,4.640796E2,7.4170703E2,3.9302563E2,1.444336E2,3.9610596E0,2.2073584E2,8.973096E1,9.725525E0,3.4898367E0,5.30224E1,1.0230127E2,6.404382E1,7.1914062E0,3.1934082E2,2.1521133E1,4.336183E2,4.9571216E2,4.7288727E1,8.936572E1,2.1515625E1,1.8182373E-1,0E0,1.0466919E0,2.3967773E1,3.740851E1,1.6614258E1,2.2055664E0,3.0213623E0,0E0,0E0,0E0,1.7912737E1,1.03654175E1,5.2661896E0,8.505005E1,0E0,0E0,0E0,0E0,1.7035779E2,3.7976917E1,1.3869324E1,4.2798595E0,4.364789E1,8.508393E1,2.7677567E2,5.226647E2,7.9730377E0,2.8806152E0,3.1379578E1,0E0,0E0,0E0,0E0,0E0,0E0,0E0,0E0,0E0,0E0,0E0,0E0,0E0,0E0,0E0,0E0,0E0,0E0,0E0,0E0,0E0,0E0,0E0,0E0,0E0,0E0,0E0,0E0,0E0,0E0,0E0,0E0,0E0,0E0,0E0,0E0,0E0,0E0,0E0,0E0,0E0,0E0,0E0,0E0,0E0,0E0,0E0],"parents":[2147483647,0,0,1,1,2,2,3,3,4,4,5,5,6,6,7,7,8,8,9,9,10,10,11,11,12,12,13,13,14,14,15,15,16,16,17,17,18,18,19,19,20,20,21,21,22,22,23,23,24,24,25,25,26,26,27,27,28,28,29,29,30,30,31,31,32,32,34,34,35,35,36,36,37,37,38,38,39,39,43,43,44,44,45,45,46,46,51,51,52,52,53,53,54,54,55,55,56,56,57,57,58,58,59,59,60,60,61,61],"right_children":[2,4,6,8,10,12,14,16,18,20,22,24,26,28,30,32,34,36,38,40,42,44,46,48,50,52,54,56,58,60,62,64,66,-1,68,70,72,74,76,78,-1,-1,-1,80,82,84,86,-1,-1,-1,-1,88,90,92,94,96,98,100,102,104,106,108,-1,-1,-1,-1,-1,-1,-1,-1,-1,-1,-1,-1,-1,-1,-1,-1,-1,-1,-1,-1,-1,-1,-1,-1,-1,-1,-1,-1,-1,-1,-1,-1,-1,-1,-1,-1,-1,-1,-1,-1,-1,-1,-1,-1,-1,-1,-1],"split_conditions":[1E-1,1E-1,-6.339785E-1,1.9503266E0,1.4679809E-1,-3.0871148E0,3.9E0,2E-1,7.3666664E1,1.1727696E1,5.5406916E-1,1.06502E0,9.924818E-1,5E-1,4.2425013E0,1E-1,-2.120763E-2,2.2407103E0,1.915E1,3.670526E0,8.333333E0,-3.0966027E0,1.25E0,1.88E1,1E-1,2.4E0,3.7552085E0,2.5675561E0,2.0136466E-2,6.8E0,6.1E0,4.8414874E0,1.35E1,-8.326963E-2,1.6282188E0,2E-1,1.2423835E0,9.158643E-1,2E-1,-2.8153281E0,-2.7378887E-2,-1.1032576E-2,-2.7378887E-2,-3.1930816E0,-4.2797365E0,1.2085334E0,8.0833336E1,4.380638E-2,-1.1032576E-2,5.9299033E-2,6.2680565E-2,9.1751814E-2,2.0829682E0,3.8365135E0,-1.59856E0,8.912493E0,2E-1,-1.500554E-1,-3.4161112E-1,5.3E0,2.7333333E0,-1.1797124E0,4.2509843E-2,-9.899779E-2,-9.09183E-2,-8.326963E-2,-9.09183E-2,-6.900976E-2,-8.326963E-2,-6.900976E-2,-5.6367483E-2,-6.900976E-2,-5.6367483E-2,-4.3725204E-2,-5.0046343E-2,-5.6367483E-2,-5.0046343E-2,-3.5552043E-2,-4.3725204E-2,-4.3725204E-2,-1.1032576E-2,-1.1784432E-2,-4.3725204E-2,-4.3725204E-2,-2.0696959E-2,-4.3725204E-2,-1.1032576E-2,-1.1032576E-2,3.8964212E-2,1.6711771E-2,-2.0926173E-3,-1.1032576E-2,-3.8908327E-3,7.7346526E-3,-3.8908327E-3,-1.1032576E-2,-2.2215993E-4,-1.1032576E-2,-2.2215993E-4,1.7738836E-2,-2.2215993E-4,-2.2215993E-4,1.7738836E-2,1.7738836E-2,2.1813294E-2,2.8561458E-2,2.2820005E-2,3.134278E-2,1.7738836E-2],"split_indices":[70,0,10,46,24,20,12,42,73,63,85,71,84,70,55,78,25,44,33,47,2,22,1,2,0,1,93,28,72,78,13,53,5,0,72,12,7,11,42,53,0,0,0,22,20,24,3,0,0,0,0,54,43,22,19,61,12,11,54,0,1,21,0,0,0,0,0,0,0,0,0,0,0,0,0,0,0,0,0,0,0,0,0,0,0,0,0,0,0,0,0,0,0,0,0,0,0,0,0,0,0,0,0,0,0,0,0,0,0],"split_type":[0,0,0,0,0,0,0,0,0,0,0,0,0,0,0,0,0,0,0,0,0,0,0,0,0,0,0,0,0,0,0,0,0,0,0,0,0,0,0,0,0,0,0,0,0,0,0,0,0,0,0,0,0,0,0,0,0,0,0,0,0,0,0,0,0,0,0,0,0,0,0,0,0,0,0,0,0,0,0,0,0,0,0,0,0,0,0,0,0,0,0,0,0,0,0,0,0,0,0,0,0,0,0,0,0,0,0,0,0],"sum_hessian":[9.1308586E4,2.9471787E4,6.1836793E4,2.0320164E4,9.151624E3,2.1711234E4,4.012556E4,1.4520934E4,5.79923E3,9.785478E2,8.1730757E3,1.692308E4,4.7881553E3,3.130149E4,8.824069E3,1.4002806E4,5.181278E2,2.8627158E3,2.9365144E3,7.995508E2,1.78997E2,6.364592E2,7.5366167E3,2.273766E3,1.4649313E4,4.01752E3,7.706352E2,6.1181104E3,2.518338E4,3.1230356E3,5.701033E3,1.3740441E4,2.6236438E2,4.5038776E1,4.7308902E2,2.3069304E3,5.557854E2,2.6821865E3,2.543279E2,7.7119617E2,2.8354603E1,1.6838498E2,1.0612012E1,9.742281E1,5.390364E2,1.3763167E2,7.398985E3,2.2599807E3,1.3785594E1,2.2586304E3,1.2390683E4,2.9020117E3,1.1155083E3,5.0732248E2,2.6331274E2,3.6103574E3,2.507753E3,7.1580454E3,1.8025336E4,1.9762415E3,1.1467942E3,2.1299075E3,3.571126E3,1.3264645E4,4.7579727E2,1.9961974E2,6.274464E1,4.3901575E2,3.4073288E1,2.1623394E3,1.4459094E2,1.8863702E2,3.671484E2,2.562021E3,1.2016546E2,2.423189E2,1.2009009E1,2.8593903E1,7.426023E2,1.3636253E1,8.378656E1,2.6274143E1,5.1276227E2,1.1019996E2,2.7431705E1,9.513081E1,7.303854E3,5.9092224E1,2.8429194E3,4.4792233E2,6.67586E2,3.1533685E2,1.9198561E2,1.7802759E2,8.528515E1,3.10932E3,5.010373E2,2.6766235E2,2.2400906E3,9.7293665E2,6.185109E3,4.376918E3,1.3648417E4,7.576128E2,1.2186287E3,1.1322438E3,1.4550457E1,2.0256873E3,1.0422009E2],"tree_param":{"num_deleted":"0","num_feature":"98","num_nodes":"109","size_leaf_vector":"1"}},{"base_weights":[3.8486376E-2,-8.9008826E-1,4.899144E-1,-1.487318E0,-2.0008694E-1,2.0934986E-1,1.0126495E0,-1.8581235E0,-8.437025E-1,-8.437025E-1,-2.0008694E-1,1.3718595E-1,6.109997E-1,6.109997E-1,1.215291E0,-1.9282631E0,-1.350913E0,-1.350913E0,-8.437025E-1,-4.2185124E-2,-2.4901025E-2,-5.513806E-1,-2.0008694E-1,2.5370987E-2,3.7409282E-1,3.7409282E-1,3.0549986E-2,6.109997E-1,8.0095917E-1,4.565727E-2,1.2272097E0,-1.9643723E0,-8.197941E-2,-8.197941E-2,-1.350913E0,-1.350913E0,-1.0973078E0,-8.437025E-1,-1.0973078E0,-8.437025E-1,-2.0008694E-1,-2.0008694E-1,-8.437025E-1,-2.0008694E-1,1.2647304E-1,-2.0008694E-1,3.7409282E-1,1.8704642E-2,4.9254626E-1,6.109997E-1,3.760812E-2,4.0645104E-2,3.0549986E-2,6.074062E-2,6.425791E-2,-9.864302E-2,-9.0099014E-2,-6.754565E-2,-8.0407284E-2,-6.754565E-2,-5.486539E-2,-6.754565E-2,-5.486539E-2,-4.2185124E-2,-4.8525255E-2,-5.486539E-2,-4.8525255E-2,-4.2185124E-2,-2.6094735E-2,-2.6094735E-2,-1.0004347E-2,-1.0004347E-2,-4.1440796E-2,-4.2185124E-2,-2.3896478E-2,-1.8403474E-3,-1.0004347E-2,-1.8403474E-3,1.0792643E-2,-1.0004347E-2,-1.3735482E-3,4.350147E-3,1.8704642E-2,2.1665977E-2,2.4627313E-2,3.0549986E-2,3.269748E-2],"categories":[],"categories_nodes":[],"categories_segments":[],"categories_sizes":[],"default_left":[0,0,0,1,1,0,1,0,0,1,1,0,0,1,0,1,0,1,0,0,0,1,0,0,0,0,0,0,0,0,0,0,0,0,1,0,0,0,0,0,0,0,0,0,0,0,0,0,0,0,0,0,0,0,0,0,0,0,0,0,0,0,0,0,0,0,0,0,0,0,0,0,0,0,0,0,0,0,0,0,0,0,0,0,0,0,0],"id":11,"left_children":[1,3,5,7,9,11,13,15,17,19,21,23,25,27,29,31,33,35,37,-1,-1,39,41,43,45,47,-1,49,51,-1,53,55,-1,-1,57,59,61,63,65,67,69,71,73,75,77,79,81,-1,83,85,-1,-1,-1,-1,-1,-1,-1,-1,-1,-1,-1,-1,-1,-1,-1,-1,-1,-1,-1,-1,-1,-1,-1,-1,-1,-1,-1,-1,-1,-1,-1,-1,-1,-1,-1,-1,-1],"loss_changes":[3.7802895E4,1.8978453E4,8.899389E3,6.235754E3,1.8548535E2,1.3184523E3,2.007416E3,8.862539E2,1.2004375E3,8.227234E-1,1.1705847E2,1.1693821E3,1.15086914E2,6.50708E1,9.561133E1,2.601836E2,4.3135986E0,2.3209082E2,9.237988E1,0E0,0E0,1.3730661E2,7.151416E1,7.9852875E2,2.2884229E2,1.5702469E1,0E0,9.696899E0,7.543579E0,0E0,9.025391E0,2.8589844E1,0E0,0E0,1.4893188E0,1.0267578E1,4.5684265E1,1.7680908E1,2.3362427E0,2.7830383E1,3.6218155E1,6.0757202E1,1.0606842E0,2.7244492E2,4.3059232E2,5.523876E0,8.2586914E1,0E0,4.1404724E-1,4.6722412E-1,0E0,0E0,0E0,0E0,0E0,0E0,0E0,0E0,0E0,0E0,0E0,0E0,0E0,0E0,0E0,0E0,0E0,0E0,0E0,0E0,0E0,0E0,0E0,0E0,0E0,0E0,0E0,0E0,0E0,0E0,0E0,0E0,0E0,0E0,0E0,0E0,0E0],"parents":[2147483647,0,0,1,1,2,2,3,3,4,4,5,5,6,6,7,7,8,8,9,9,10,10,11,11,12,12,13,13,14,14,15,15,16,16,17,17,18,18,21,21,22,22,23,23,24,24,25,25,27,27,28,28,30,30,31,31,34,34,35,35,36,36,37,37,38,38,39,39,40,40,41,41,42,42,43,43,44,44,45,45,46,46,48,48,49,49],"right_children":[2,4,6,8,10,12,14,16,18,20,22,24,26,28,30,32,34,36,38,-1,-1,40,42,44,46,48,-1,50,52,-1,54,56,-1,-1,58,60,62,64,66,68,70,72,74,76,78,80,82,-1,84,86,-1,-1,-1,-1,-1,-1,-1,-1,-1,-1,-1,-1,-1,-1,-1,-1,-1,-1,-1,-1,-1,-1,-1,-1,-1,-1,-1,-1,-1,-1,-1,-1,-1,-1,-1,-1,-1],"split_conditions":[1E-1,2E-1,6E0,1.9503266E0,-5.3615683E-1,8.8E0,3.749588E0,2E-1,7.3666664E1,3.5570807E0,2.2373523E-1,2.714518E0,8.8333336E1,2.8719754E0,1.0292434E0,1E-1,-2.120763E-2,1.9681743E0,1.915E1,-4.2185124E-2,-2.4901025E-2,2.6682866E0,4.401959E0,6E-1,-1.3553402E-1,1.5E0,3.0549986E-2,5.648556E0,1.6833333E0,4.565727E-2,2.2833333E0,1E-1,-8.197941E-2,-8.197941E-2,1.6282188E0,4E-1,6.5E1,9.158643E-1,2E-1,9.9764323E-1,9.0833336E1,8.149856E0,6.983333E0,-4.161247E-1,-8.092778E-2,2.3622708E0,8.92594E-2,1.8704642E-2,8E-1,1.0072635E1,3.760812E-2,4.0645104E-2,3.0549986E-2,6.074062E-2,6.425791E-2,-9.864302E-2,-9.0099014E-2,-6.754565E-2,-8.0407284E-2,-6.754565E-2,-5.486539E-2,-6.754565E-2,-5.486539E-2,-4.2185124E-2,-4.8525255E-2,-5.486539E-2,-4.8525255E-2,-4.2185124E-2,-2.6094735E-2,-2.6094735E-2,-1.0004347E-2,-1.0004347E-2,-4.1440796E-2,-4.2185124E-2,-2.3896478E-2,-1.8403474E-3,-1.0004347E-2,-1.8403474E-3,1.0792643E-2,-1.0004347E-2,-1.3735482E-3,4.350147E-3,1.8704642E-2,2.1665977E-2,2.4627313E-2,3.0549986E-2,3.269748E-2],"split_indices":[0,70,0,46,27,70,91,42,73,65,26,7,88,29,6,77,25,56,33,0,0,74,27,0,74,14,0,27,1,0,1,14,0,0,72,42,58,11,42,11,39,54,1,10,53,28,27,0,0,46,0,0,0,0,0,0,0,0,0,0,0,0,0,0,0,0,0,0,0,0,0,0,0,0,0,0,0,0,0,0,0,0,0,0,0,0,0],"split_type":[0,0,0,0,0,0,0,0,0,0,0,0,0,0,0,0,0,0,0,0,0,0,0,0,0,0,0,0,0,0,0,0,0,0,0,0,0,0,0,0,0,0,0,0,0,0,0,0,0,0,0,0,0,0,0,0,0,0,0,0,0,0,0,0,0,0,0,0,0,0,0,0,0,0,0,0,0,0,0,0,0,0,0,0,0,0,0],"sum_hessian":[9.017992E4,2.949944E4,6.0680484E4,1.9929246E4,9.570193E3,3.948782E4,2.1192666E4,1.4082279E4,5.8469673E3,1.89572E2,9.380621E3,3.4249703E4,5.2381157E3,6.3325586E3,1.4860106E4,1.3532551E4,5.497288E2,2.8337056E3,3.0132615E3,1.7773032E2,1.1841679E1,9.4787994E2,8.432741E3,2.5423855E4,8.825849E3,1.3170077E3,3.921108E3,4.519928E3,1.8126305E3,1.2871608E2,1.4731391E4,1.3182495E4,3.5005542E2,4.4032684E1,5.0569617E2,2.0967144E3,7.3699133E2,2.7553496E3,2.5791202E2,4.457236E2,5.0215637E2,8.349642E3,8.3099335E1,5.817591E3,1.9606264E4,5.0305154E2,8.322798E3,4.4386E2,8.731477E2,4.015577E3,5.043512E2,1.7986187E3,1.4011799E1,1.2153303E4,2.578088E3,1.2995853E4,1.8664284E2,4.5660745E2,4.90887E1,2.04386E3,5.2854343E1,2.4550912E2,4.9148224E2,2.6062178E3,1.4913174E2,2.4590042E2,1.2011594E1,3.701128E2,7.56108E1,8.411245E1,4.180439E2,8.196842E3,1.5280014E2,7.0850945E1,1.22483835E1,1.6386969E3,4.178894E3,4.6734385E3,1.4932826E4,3.1731982E2,1.8573174E2,2.5632376E2,8.0664736E3,1.1317973E2,7.59968E2,3.560939E3,4.5463794E2],"tree_param":{"num_deleted":"0","num_feature":"98","num_nodes":"87","size_leaf_vector":"1"}},{"base_weights":[4.1738525E-2,-8.7578225E-1,4.6197134E-1,-1.4664521E0,-2.0690545E-1,1.0853014E0,2.5204027E-1,-1.8647075E0,-8.366788E-1,-8.366788E-1,-2.0690545E-1,1.1719201E0,9.376136E-2,1.4171869E-1,5.75155E-1,-1.9416134E0,-1.3506931E0,-1.3506931E0,-8.366788E-1,-8.366788E-1,-2.0690545E-1,-8.366788E-1,-2.0690545E-1,-1.0345273E-2,5.8628004E-2,-2.0690545E-1,4.7945598E-1,-1.340401E-1,2.1876338E-1,6.6579324E-1,3.5843685E-1,-1.9658691E0,-1.6461532E0,-1.6461532E0,-1.3506931E0,-1.3506931E0,-1.093686E0,-8.366788E-1,-1.093686E0,-8.366788E-1,-2.6089607E-2,-1.0345273E-2,-2.6089607E-2,-2.0690545E-1,-8.366788E-1,-8.366788E-1,-2.0690545E-1,-2.0690545E-1,1.3627526E-1,6.1777675E-1,6.813763E-3,2.9262787E-1,-2.0690545E-1,-2.0690545E-1,2.6980528E-1,4.7252184E-1,7.4176884E-1,3.5843685E-1,3.311561E-2,-9.881623E-2,-9.030056E-2,-8.230766E-2,-9.030056E-2,-8.230766E-2,-6.7534655E-2,-8.230766E-2,-6.7534655E-2,-6.7534655E-2,-5.46843E-2,-6.7534655E-2,-5.46843E-2,-4.183394E-2,-4.825912E-2,-5.46843E-2,-4.825912E-2,-3.3961773E-2,-4.183394E-2,-4.183394E-2,-1.0345273E-2,-4.183394E-2,-2.6392838E-2,-4.183394E-2,-1.9896751E-2,-1.0345273E-2,-3.527149E-2,-1.0345273E-2,4.6166504E-4,6.813763E-3,-1.0345273E-2,2.47707E-2,3.2709606E-2,-1.0345273E-2,1.7921843E-2,-1.0345273E-2,1.7921843E-2,-1.0345273E-2,2.5340158E-3,4.8898975E-4,1.7921843E-2,1.7921843E-2,2.6860345E-2,3.0357266E-2,3.9582793E-2,1.7921843E-2,2.3429884E-2],"categories":[],"categories_nodes":[],"categories_segments":[],"categories_sizes":[],"default_left":[0,0,0,1,0,0,0,0,0,0,0,0,0,1,0,1,0,1,0,0,0,0,0,0,0,0,0,0,0,0,0,1,0,1,0,0,0,0,0,0,0,0,0,0,0,0,0,0,0,0,0,1,0,0,1,0,0,0,0,0,0,0,0,0,0,0,0,0,0,0,0,0,0,0,0,0,0,0,0,0,0,0,0,0,0,0,0,0,0,0,0,0,0,0,0,0,0,0,0,0,0,0,0,0,0],"id":12,"left_children":[1,3,5,7,9,11,13,15,17,19,21,23,25,27,29,31,33,35,37,39,41,43,45,-1,-1,47,49,51,53,55,57,59,61,63,65,67,69,71,73,75,-1,-1,-1,77,79,81,83,85,87,89,-1,91,93,95,97,99,101,103,-1,-1,-1,-1,-1,-1,-1,-1,-1,-1,-1,-1,-1,-1,-1,-1,-1,-1,-1,-1,-1,-1,-1,-1,-1,-1,-1,-1,-1,-1,-1,-1,-1,-1,-1,-1,-1,-1,-1,-1,-1,-1,-1,-1,-1,-1,-1],"loss_changes":[3.436681E4,1.7472928E4,7.9993096E3,6.4913906E3,5.0700928E2,1.3226523E3,1.630112E3,9.271211E2,1.1285146E3,9.984912E1,2.6037012E2,1.9527344E1,1.6645508E2,7.2436926E2,2.9700415E2,1.6163672E2,5.80896E0,2.4689551E2,8.765527E1,9.398804E0,3.2849312E0,4.9099762E1,9.673706E1,0E0,0E0,3.834922E1,4.157953E1,4.1289453E2,6.6796204E2,1.3080981E2,3.9907257E1,2.6960938E1,5.8288574E-3,1.8156433E-1,8.629761E-1,6.480957E0,4.5705322E1,1.6129395E1,2.5291138E0,2.819336E0,0E0,0E0,0E0,1.7257938E1,9.80127E0,4.7634583E0,8.04187E1,4.6450806E0,4.7392855E0,1.8133087E0,0E0,1.8846295E2,5.575296E1,7.2684494E1,5.6298035E2,2.9582214E1,6.3648926E1,1.3733444E1,0E0,0E0,0E0,0E0,0E0,0E0,0E0,0E0,0E0,0E0,0E0,0E0,0E0,0E0,0E0,0E0,0E0,0E0,0E0,0E0,0E0,0E0,0E0,0E0,0E0,0E0,0E0,0E0,0E0,0E0,0E0,0E0,0E0,0E0,0E0,0E0,0E0,0E0,0E0,0E0,0E0,0E0,0E0,0E0,0E0,0E0,0E0],"parents":[2147483647,0,0,1,1,2,2,3,3,4,4,5,5,6,6,7,7,8,8,9,9,10,10,11,11,12,12,13,13,14,14,15,15,16,16,17,17,18,18,19,19,20,20,21,21,22,22,25,25,26,26,27,27,28,28,29,29,30,30,31,31,32,32,33,33,34,34,35,35,36,36,37,37,38,38,39,39,43,43,44,44,45,45,46,46,47,47,48,48,49,49,51,51,52,52,53,53,54,54,55,55,56,56,57,57],"right_children":[2,4,6,8,10,12,14,16,18,20,22,24,26,28,30,32,34,36,38,40,42,44,46,-1,-1,48,50,52,54,56,58,60,62,64,66,68,70,72,74,76,-1,-1,-1,78,80,82,84,86,88,90,-1,92,94,96,98,100,102,104,-1,-1,-1,-1,-1,-1,-1,-1,-1,-1,-1,-1,-1,-1,-1,-1,-1,-1,-1,-1,-1,-1,-1,-1,-1,-1,-1,-1,-1,-1,-1,-1,-1,-1,-1,-1,-1,-1,-1,-1,-1,-1,-1,-1,-1,-1,-1],"split_conditions":[1E-1,1E-1,-3.9405828E0,1.9503266E0,1.4679809E-1,-6.339785E-1,3.8E0,1E-1,7.3666664E1,1.1727696E1,5.5406916E-1,-1.214126E-1,2.4E0,-5.004558E-1,6.451918E-1,1E-1,-2.120763E-2,1.9681743E0,1.915E1,3.670526E0,8.333333E0,-3.0966027E0,1.25E0,-1.0345273E-2,5.8628004E-2,3.8575008E0,-5.9635425E-1,-8.821651E-1,-1.521109E0,7.5E1,3.6357908E0,4.8414874E0,1.35E1,2.1763173E2,4.0812957E-1,4E-1,6.8E1,9.158643E-1,2E-1,-2.8153281E0,-2.6089607E-2,-1.0345273E-2,-2.6089607E-2,-3.1930816E0,3.2837033E2,1.2085334E0,9.3985605E-1,3E0,-9.307114E-1,1.6166667E0,6.813763E-3,8.9333336E1,1.96E1,7.878719E0,8.902196E-2,5E-1,1.7882133E0,9.85E1,3.311561E-2,-9.881623E-2,-9.030056E-2,-8.230766E-2,-9.030056E-2,-8.230766E-2,-6.7534655E-2,-8.230766E-2,-6.7534655E-2,-6.7534655E-2,-5.46843E-2,-6.7534655E-2,-5.46843E-2,-4.183394E-2,-4.825912E-2,-5.46843E-2,-4.825912E-2,-3.3961773E-2,-4.183394E-2,-4.183394E-2,-1.0345273E-2,-4.183394E-2,-2.6392838E-2,-4.183394E-2,-1.9896751E-2,-1.0345273E-2,-3.527149E-2,-1.0345273E-2,4.6166504E-4,6.813763E-3,-1.0345273E-2,2.47707E-2,3.2709606E-2,-1.0345273E-2,1.7921843E-2,-1.0345273E-2,1.7921843E-2,-1.0345273E-2,2.5340158E-3,4.8898975E-4,1.7921843E-2,1.7921843E-2,2.6860345E-2,3.0357266E-2,3.9582793E-2,1.7921843E-2,2.3429884E-2],"split_indices":[70,0,20,46,24,10,12,42,73,63,85,28,78,54,18,78,25,56,33,47,2,22,1,0,0,52,6,80,44,59,7,53,5,76,84,42,59,11,42,53,0,0,0,22,96,24,10,70,6,1,0,39,70,46,89,78,65,39,0,0,0,0,0,0,0,0,0,0,0,0,0,0,0,0,0,0,0,0,0,0,0,0,0,0,0,0,0,0,0,0,0,0,0,0,0,0,0,0,0,0,0,0,0,0,0],"split_type":[0,0,0,0,0,0,0,0,0,0,0,0,0,0,0,0,0,0,0,0,0,0,0,0,0,0,0,0,0,0,0,0,0,0,0,0,0,0,0,0,0,0,0,0,0,0,0,0,0,0,0,0,0,0,0,0,0,0,0,0,0,0,0,0,0,0,0,0,0,0,0,0,0,0,0,0,0,0,0,0,0,0,0,0,0,0,0,0,0,0,0,0,0,0,0,0,0,0,0,0,0,0,0,0,0],"sum_hessian":[8.912987E4,2.799831E4,6.113156E4,1.8908898E4,9.089413E3,1.5400382E4,4.573118E4,1.3238455E4,5.6704424E3,9.683496E2,8.1210635E3,1.4162956E4,1.2374257E3,3.40924E4,1.163878E4,1.2676903E4,5.615524E2,2.7178457E3,2.9525967E3,7.8945087E2,1.7889873E2,6.306929E2,7.4903706E3,2.8575208E0,1.4160099E4,6.473475E2,5.900782E2,7.4448857E3,2.6647512E4,8.931288E3,2.7074924E3,1.2434008E4,2.428953E2,5.9042877E1,5.0250955E2,2.0141741E3,7.036716E2,2.7099685E3,2.4262825E2,7.6113184E2,2.8319014E1,1.6837422E2,1.0524515E1,9.724544E1,5.3344745E2,1.3579155E2,7.354579E3,4.346774E2,2.1267006E2,4.786817E2,1.11396515E2,1.8122639E3,5.6326216E3,2.4615864E3,2.4185926E4,2.5222505E3,6.4090376E3,2.2749248E3,4.3256772E2,1.1996065E4,4.3794208E2,1.8635507E2,5.6540226E1,4.568107E1,1.3361807E1,2.1056467E1,4.8145306E2,1.9729958E3,4.1178288E1,2.7042413E2,4.3324744E2,2.5941526E3,1.1581591E2,2.3060696E2,1.202128E1,2.8530952E1,7.326009E2,1.3443392E1,8.380205E1,4.2433737E2,1.0911009E2,1.08409195E2,2.7382353E1,7.0318247E3,3.227545E2,3.3532855E2,9.934883E1,1.991105E2,1.3559549E1,1.13133965E2,3.6554773E2,2.1856952E2,1.5936945E3,5.5215527E3,1.1106892E2,1.3664778E3,1.0951085E3,6.194292E3,1.7991633E4,5.6598224E2,1.9562682E3,1.1172202E3,5.2918174E3,1.1336537E3,1.141271E3],"tree_param":{"num_deleted":"0","num_feature":"98","num_nodes":"105","size_leaf_vector":"1"}},{"base_weights":[4.4646576E-2,-8.2259834E-1,4.5079255E-1,-1.433341E0,-1.859029E-1,1.9126166E-1,9.44661E-1,-1.8528184E0,-8.0962193E-1,-6.4416283E-1,-1.859029E-1,4.2560488E-1,5.9568632E-2,5.6796134E-1,1.1455672E0,-1.9359409E0,-1.3312201E0,-1.3312201E0,-8.0962193E-1,-8.0962193E-1,-1.9258206E-1,-8.0962193E-1,-1.859029E-1,-1.859029E-1,4.8675567E-1,-1.8301092E-1,2.0493662E-1,5.6796134E-1,7.3324686E-1,4.2838212E-2,1.1574864E0,-1.9624237E0,-1.6335804E0,-1.6335804E0,-1.3312201E0,-1.3312201E0,-1.070421E0,-8.0962193E-1,-5.352105E-2,-8.0962193E-1,-5.01102E-1,-2.50551E-2,-1.859029E-1,-4.0481098E-2,-2.488812E-2,-4.977624E-1,-1.859029E-1,-1.859029E-1,1.5042639E-1,5.6796134E-1,1.8553744E-1,4.493518E-1,-1.859029E-1,1.3266695E-1,5.249961E-1,5.6796134E-1,3.466072E-2,3.724503E-2,2.8398067E-2,5.6837853E-2,6.26489E-2,-9.8694526E-2,-8.99001E-2,-8.1679024E-2,-8.99001E-2,-8.1679024E-2,-6.6561006E-2,-8.1679024E-2,-6.6561006E-2,-6.6561006E-2,-5.352105E-2,-6.6561006E-2,-5.352105E-2,-4.7001075E-2,-4.0481098E-2,-2.50551E-2,-4.0481098E-2,-4.0481098E-2,-2.50551E-2,-9.295145E-3,-1.7175121E-2,-1.7091632E-2,-2.488812E-2,-1.7091632E-2,-9.295145E-3,5.1074233E-3,-9.295145E-3,-9.295145E-3,7.5213197E-3,7.5213197E-3,2.8398067E-2,2.8398067E-2,7.5213197E-3,-9.295145E-3,2.8398067E-2,-9.295145E-3,2.8398067E-2,-9.295145E-3,1.0217815E-2,-5.8488906E-3,2.8398067E-2,2.8398067E-2,3.042436E-2],"categories":[],"categories_nodes":[],"categories_segments":[],"categories_sizes":[],"default_left":[0,0,0,1,1,0,1,0,1,1,0,0,0,1,0,1,0,0,0,0,0,1,1,0,0,0,0,0,0,0,0,1,0,1,0,0,0,0,0,0,0,0,0,0,0,0,0,0,0,0,0,0,0,0,0,0,0,0,0,0,0,0,0,0,0,0,0,0,0,0,0,0,0,0,0,0,0,0,0,0,0,0,0,0,0,0,0,0,0,0,0,0,0,0,0,0,0,0,0,0,0,0,0],"id":13,"left_children":[1,3,5,7,9,11,13,15,17,19,21,23,25,27,29,31,33,35,37,39,41,43,45,47,49,51,53,55,57,-1,59,61,63,65,67,69,71,73,-1,75,77,-1,79,-1,-1,81,83,85,87,89,91,93,95,97,99,101,-1,-1,-1,-1,-1,-1,-1,-1,-1,-1,-1,-1,-1,-1,-1,-1,-1,-1,-1,-1,-1,-1,-1,-1,-1,-1,-1,-1,-1,-1,-1,-1,-1,-1,-1,-1,-1,-1,-1,-1,-1,-1,-1,-1,-1,-1,-1],"loss_changes":[3.104608E4,1.7018168E4,7.694006E3,6.659035E3,2.336853E2,1.2144185E3,1.8632363E3,9.774297E2,1.1038904E3,1.618688E2,1.036781E2,5.404602E2,8.884889E2,4.8463013E1,9.022656E1,1.7348047E2,5.65271E0,1.2351514E2,1.496084E2,2.491278E1,3.8147865E1,8.020523E0,6.850305E1,1.2688754E2,4.4797974E2,6.3955005E2,3.6434143E2,7.508789E0,6.3598633E0,0E0,2.6820312E1,2.9960938E1,1.7120361E-2,4.4638062E-1,8.4033203E-1,1.780957E1,8.181763E0,3.4397705E1,0E0,5.9544067E0,2.661852E0,0E0,4.9425144E0,0E0,0E0,1.4326691E1,3.4714844E1,7.3795776E0,2.7752E0,3.1162524E2,4.31763E2,1.841485E2,3.739557E2,3.9880145E2,2.4010767E2,4.1970825E-1,0E0,0E0,0E0,0E0,0E0,0E0,0E0,0E0,0E0,0E0,0E0,0E0,0E0,0E0,0E0,0E0,0E0,0E0,0E0,0E0,0E0,0E0,0E0,0E0,0E0,0E0,0E0,0E0,0E0,0E0,0E0,0E0,0E0,0E0,0E0,0E0,0E0,0E0,0E0,0E0,0E0,0E0,0E0,0E0,0E0,0E0,0E0],"parents":[2147483647,0,0,1,1,2,2,3,3,4,4,5,5,6,6,7,7,8,8,9,9,10,10,11,11,12,12,13,13,14,14,15,15,16,16,17,17,18,18,19,19,20,20,21,21,22,22,23,23,24,24,25,25,26,26,27,27,28,28,30,30,31,31,32,32,33,33,34,34,35,35,36,36,37,37,39,39,40,40,42,42,45,45,46,46,47,47,48,48,49,49,50,50,51,51,52,52,53,53,54,54,55,55],"right_children":[2,4,6,8,10,12,14,16,18,20,22,24,26,28,30,32,34,36,38,40,42,44,46,48,50,52,54,56,58,-1,60,62,64,66,68,70,72,74,-1,76,78,-1,80,-1,-1,82,84,86,88,90,92,94,96,98,100,102,-1,-1,-1,-1,-1,-1,-1,-1,-1,-1,-1,-1,-1,-1,-1,-1,-1,-1,-1,-1,-1,-1,-1,-1,-1,-1,-1,-1,-1,-1,-1,-1,-1,-1,-1,-1,-1,-1,-1,-1,-1,-1,-1,-1,-1,-1,-1],"split_conditions":[1E-1,1E-1,6E0,1.9503266E0,2.2373523E-1,-1.5430883E-1,4.9789605E0,1E-1,6.7833336E1,2.6682866E0,7.0666664E1,-7.589425E1,8.6799675E-1,2.8719754E0,1.2084277E0,1E-1,-2.120763E-2,5.574745E0,2.29E1,9.994074E-1,9.0833336E1,7.5762362E0,-1.1409769E0,3.5526192E0,2.1765354E0,-4.374763E0,5.9166665E0,5.648556E0,1.6833333E0,4.2838212E-2,2.2833333E0,4.8414874E0,1.35E1,2.1763173E2,4.0812957E-1,1.3E0,7.2833336E1,-3.2517147E1,-5.352105E-2,-1.0615975E0,1.4055476E-1,-2.50551E-2,2.2557874E0,-4.0481098E-2,-2.488812E-2,-2.7754722E0,1.3166667E0,-3.1840284E0,4E-1,7.1333336E1,1.0116667E1,5.260599E0,6.483333E0,-2.007161E0,1.4027244E0,1.1967377E1,3.466072E-2,3.724503E-2,2.8398067E-2,5.6837853E-2,6.26489E-2,-9.8694526E-2,-8.99001E-2,-8.1679024E-2,-8.99001E-2,-8.1679024E-2,-6.6561006E-2,-8.1679024E-2,-6.6561006E-2,-6.6561006E-2,-5.352105E-2,-6.6561006E-2,-5.352105E-2,-4.7001075E-2,-4.0481098E-2,-2.50551E-2,-4.0481098E-2,-4.0481098E-2,-2.50551E-2,-9.295145E-3,-1.7175121E-2,-1.7091632E-2,-2.488812E-2,-1.7091632E-2,-9.295145E-3,5.1074233E-3,-9.295145E-3,-9.295145E-3,7.5213197E-3,7.5213197E-3,2.8398067E-2,2.8398067E-2,7.5213197E-3,-9.295145E-3,2.8398067E-2,-9.295145E-3,2.8398067E-2,-9.295145E-3,1.0217815E-2,-5.8488906E-3,2.8398067E-2,2.8398067E-2,3.042436E-2],"split_indices":[0,70,0,46,26,10,90,42,58,74,73,67,25,29,18,78,25,21,35,11,39,62,65,54,71,23,1,27,1,0,1,53,5,76,84,16,3,76,0,80,6,0,82,0,0,57,1,21,0,45,34,46,1,93,28,46,0,0,0,0,0,0,0,0,0,0,0,0,0,0,0,0,0,0,0,0,0,0,0,0,0,0,0,0,0,0,0,0,0,0,0,0,0,0,0,0,0,0,0,0,0,0,0],"split_type":[0,0,0,0,0,0,0,0,0,0,0,0,0,0,0,0,0,0,0,0,0,0,0,0,0,0,0,0,0,0,0,0,0,0,0,0,0,0,0,0,0,0,0,0,0,0,0,0,0,0,0,0,0,0,0,0,0,0,0,0,0,0,0,0,0,0,0,0,0,0,0,0,0,0,0,0,0,0,0,0,0,0,0,0,0,0,0,0,0,0,0,0,0,0,0,0,0,0,0,0,0,0,0],"sum_hessian":[8.8139945E4,2.8111768E4,6.002818E4,1.8259102E4,9.852665E3,3.935059E4,2.0677588E4,1.2646127E4,5.6129746E3,1.1119412E3,8.740724E3,1.4156808E4,2.5193783E4,6.297613E3,1.4379976E4,1.2085912E4,5.6021533E2,2.0563633E3,3.5566113E3,6.060498E2,5.058914E2,1.1775177E2,8.622973E3,1.262596E3,1.2894212E4,9.440276E3,1.5753507E4,4.5128604E3,1.7847526E3,1.1156031E2,1.4268415E4,1.1846516E4,2.3939629E2,5.7032936E1,5.031824E2,1.8363098E3,2.200535E2,3.2796833E3,2.769279E2,5.2003375E2,8.601607E1,8.640253E1,4.1948886E2,9.167608E1,2.6075686E1,3.608087E2,8.262164E3,7.989429E2,4.6365308E2,9.248408E3,3.6458032E3,1.5840969E3,7.856179E3,1.2852759E4,2.9007483E3,4.0146777E3,4.9818274E2,1.7707164E3,1.4036129E1,1.1734069E4,2.5343455E3,1.1424736E4,4.217788E2,1.8523314E2,5.4163143E1,4.3944286E1,1.3088646E1,2.030044E1,4.8288196E2,1.747341E3,8.896885E1,3.108452E1,1.8896898E2,1.3643718E2,3.1432463E3,5.6786358E1,4.6324738E2,1.1843947E1,7.417212E1,4.084956E2,1.099326E1,1.7444502E2,1.8636365E2,2.59168E2,8.0029956E3,8.8355576E1,7.105873E2,2.1072407E0,4.6154584E2,6.2537634E2,8.623032E3,1.3578738E3,2.2879294E3,2.6013724E2,1.3239597E3,7.372281E3,4.8389853E2,1.6699294E3,1.1182829E4,5.2290735E2,2.3778408E3,3.563665E3,4.5101248E2],"tree_param":{"num_deleted":"0","num_feature":"98","num_nodes":"103","size_leaf_vector":"1"}},{"base_weights":[4.6600617E-2,-1.2955222E0,2.879736E-1,-1.6452342E0,-5.037743E-1,8.404723E-1,-3.2886185E-2,-1.8933967E0,-1.0745043E0,-1.0745043E0,-5.037743E-1,1.0575526E0,2.900477E-1,-5.037743E-1,1.9414988E-1,-1.9408917E0,-1.1418915E0,-1.8185558E0,-1.0745043E0,-7.891393E-1,-5.3725213E-2,-7.891393E-1,-5.037743E-1,-5.037743E-1,1.0725027E0,-6.883665E-2,5.270307E-1,-5.037743E-1,-1.548122E-1,-1.548122E-1,2.701375E-1,-1.9538598E0,-7.706958E-2,-1.0745043E0,-7.706958E-2,-1.936945E0,-1.0745043E0,-1.0745043E0,-1.9598796E0,-5.3725213E-2,-3.9456964E-2,-7.891393E-1,-2.5188714E-2,-7.891393E-1,-5.037743E-1,-2.5188714E-2,-1.1256827E-2,7.522301E-1,1.1221106E0,-3.6536115E-1,2.2909702E-1,2.43882E-1,6.86072E-1,-5.037743E-1,-1.548122E-1,-5.037743E-1,-1.548122E-1,5.7662643E-2,-1.548122E-1,3.8839036E-1,1.2585299E-1,-9.1374755E-2,-9.896966E-2,-5.3725213E-2,-6.53974E-2,-9.817495E-2,-5.947414E-2,-5.3725213E-2,-8.292057E-2,-7.58596E-2,-5.3725213E-2,-7.58596E-2,-9.9392705E-2,-3.9456964E-2,-3.232284E-2,-3.9456964E-2,-2.5188714E-2,-2.5188714E-2,-3.9456964E-2,1.4218211E-2,3.7993517E-2,5.500829E-2,6.1172277E-2,-2.5188714E-2,-3.4066034E-3,1.1454851E-2,-3.4066034E-3,1.1454851E-2,2.324885E-2,3.577886E-2,2.324885E-2,-2.5188714E-2,-1.6464664E-2,-7.7406103E-3,-1.6464664E-2,-2.5188714E-2,-7.7406103E-3,-2.5188714E-2,-7.7406103E-3,-7.7406103E-3,2.8831323E-3,-7.7406103E-3,2.8831323E-3,7.2376244E-3,2.4867324E-2,2.8831323E-3,2.3503771E-2],"categories":[],"categories_nodes":[],"categories_segments":[],"categories_sizes":[],"default_left":[1,0,0,1,0,0,0,1,1,0,0,0,0,1,0,0,0,0,0,1,0,0,0,0,0,0,0,1,0,0,0,0,0,0,0,1,0,0,0,0,0,0,0,0,0,0,0,0,0,0,0,0,1,0,0,0,0,0,0,0,1,0,0,0,0,0,0,0,0,0,0,0,0,0,0,0,0,0,0,0,0,0,0,0,0,0,0,0,0,0,0,0,0,0,0,0,0,0,0,0,0,0,0,0,0,0,0],"id":14,"left_children":[1,3,5,7,9,11,13,15,17,19,21,23,25,27,29,31,33,35,37,39,-1,41,43,45,47,49,51,53,55,57,59,61,-1,63,-1,65,67,69,71,-1,-1,73,-1,75,77,-1,-1,79,81,83,85,87,89,91,93,95,97,99,101,103,105,-1,-1,-1,-1,-1,-1,-1,-1,-1,-1,-1,-1,-1,-1,-1,-1,-1,-1,-1,-1,-1,-1,-1,-1,-1,-1,-1,-1,-1,-1,-1,-1,-1,-1,-1,-1,-1,-1,-1,-1,-1,-1,-1,-1,-1,-1],"loss_changes":[2.8246553E4,5.1403184E3,1.310106E4,2.0490547E3,1.0689545E2,3.2438398E3,6.958873E3,2.8617773E2,3.4273816E2,6.708832E0,5.064209E1,5.080625E2,6.53274E2,1.6849507E3,1.0698184E3,5.813867E1,3.9547302E1,7.7264404E1,1.3211957E2,3.3220253E0,0E0,4.5821777E1,3.6503784E1,6.124359E0,3.0592578E2,2.911125E2,2.0815674E2,2.2775E2,2.9526138E2,1.25137726E2,5.1028638E2,2.052539E1,0E0,9.709778E0,0E0,8.933838E0,8.4168625E-1,6.0871094E1,8.560791E-1,0E0,0E0,9.463196E-1,0E0,4.4896545E0,1.9470093E1,0E0,0E0,1.696289E1,3.582617E1,1.5285605E2,8.244159E1,6.654473E1,3.849463E1,6.312744E1,5.7337067E1,3.3109802E1,1.14150085E2,2.3608467E1,2.9979736E1,4.362793E2,4.672389E2,0E0,0E0,0E0,0E0,0E0,0E0,0E0,0E0,0E0,0E0,0E0,0E0,0E0,0E0,0E0,0E0,0E0,0E0,0E0,0E0,0E0,0E0,0E0,0E0,0E0,0E0,0E0,0E0,0E0,0E0,0E0,0E0,0E0,0E0,0E0,0E0,0E0,0E0,0E0,0E0,0E0,0E0,0E0,0E0,0E0,0E0],"parents":[2147483647,0,0,1,1,2,2,3,3,4,4,5,5,6,6,7,7,8,8,9,9,10,10,11,11,12,12,13,13,14,14,15,15,16,16,17,17,18,18,19,19,21,21,22,22,23,23,24,24,25,25,26,26,27,27,28,28,29,29,30,30,31,31,33,33,35,35,36,36,37,37,38,38,41,41,43,43,44,44,47,47,48,48,49,49,50,50,51,51,52,52,53,53,54,54,55,55,56,56,57,57,58,58,59,59,60,60],"right_children":[2,4,6,8,10,12,14,16,18,20,22,24,26,28,30,32,34,36,38,40,-1,42,44,46,48,50,52,54,56,58,60,62,-1,64,-1,66,68,70,72,-1,-1,74,-1,76,78,-1,-1,80,82,84,86,88,90,92,94,96,98,100,102,104,106,-1,-1,-1,-1,-1,-1,-1,-1,-1,-1,-1,-1,-1,-1,-1,-1,-1,-1,-1,-1,-1,-1,-1,-1,-1,-1,-1,-1,-1,-1,-1,-1,-1,-1,-1,-1,-1,-1,-1,-1,-1,-1,-1,-1,-1,-1],"split_conditions":[7.4E1,1E-1,-2.1662889E0,1.6751368E0,6.1666668E1,-5.653447E-1,1E-1,4.069385E2,6.001122E-1,-3.195549E0,3.2996345E-1,2.4590642E0,7.0070105E0,1.8600724E0,-3.31166E1,2E-1,1.8683332E1,8.274384E0,2.2616667E1,-3.802206E-1,-5.3725213E-2,1E2,-6.2985146E-1,3.9E0,5.7811685E-2,1E-1,6.734556E-1,4E-1,-3.849367E-1,-8.638055E-1,2.8771678E-1,1.2733334E1,-7.706958E-2,3.5911877E0,-7.706958E-2,2.6143684E0,8.347157E-1,5.6666668E1,-3.6619065E0,-5.3725213E-2,-3.9456964E-2,3.7824492E0,-2.5188714E-2,9.240257E0,1.8616667E1,-2.5188714E-2,-1.1256827E-2,2.5881143E0,-5.794211E-1,3.6E0,-1.1803241E0,3.3509212E0,-2.1507704E0,4E-1,3.1044433E-1,1.7E0,7.85E1,-8.57354E-1,7.538755E0,7.3666664E1,1.6538241E0,-9.1374755E-2,-9.896966E-2,-5.3725213E-2,-6.53974E-2,-9.817495E-2,-5.947414E-2,-5.3725213E-2,-8.292057E-2,-7.58596E-2,-5.3725213E-2,-7.58596E-2,-9.9392705E-2,-3.9456964E-2,-3.232284E-2,-3.9456964E-2,-2.5188714E-2,-2.5188714E-2,-3.9456964E-2,1.4218211E-2,3.7993517E-2,5.500829E-2,6.1172277E-2,-2.5188714E-2,-3.4066034E-3,1.1454851E-2,-3.4066034E-3,1.1454851E-2,2.324885E-2,3.577886E-2,2.324885E-2,-2.5188714E-2,-1.6464664E-2,-7.7406103E-3,-1.6464664E-2,-2.5188714E-2,-7.7406103E-3,-2.5188714E-2,-7.7406103E-3,-7.7406103E-3,2.8831323E-3,-7.7406103E-3,2.8831323E-3,7.2376244E-3,2.4867324E-2,2.8831323E-3,2.3503771E-2],"split_indices":[73,0,19,56,87,10,70,68,7,18,18,91,62,55,69,42,34,43,30,71,0,40,85,0,28,16,93,79,52,81,10,35,0,23,0,27,84,58,43,0,0,56,0,61,32,0,0,55,10,70,54,64,23,42,19,77,39,74,61,59,83,0,0,0,0,0,0,0,0,0,0,0,0,0,0,0,0,0,0,0,0,0,0,0,0,0,0,0,0,0,0,0,0,0,0,0,0,0,0,0,0,0,0,0,0,0,0],"split_type":[0,0,0,0,0,0,0,0,0,0,0,0,0,0,0,0,0,0,0,0,0,0,0,0,0,0,0,0,0,0,0,0,0,0,0,0,0,0,0,0,0,0,0,0,0,0,0,0,0,0,0,0,0,0,0,0,0,0,0,0,0,0,0,0,0,0,0,0,0,0,0,0,0,0,0,0,0,0,0,0,0,0,0,0,0,0,0,0,0,0,0,0,0,0,0,0,0,0,0,0,0,0,0,0,0,0,0],"sum_hessian":[8.719144E4,1.3289966E4,7.390148E4,1.0338921E4,2.9510442E3,2.7149781E4,4.675169E4,8.078914E3,2.2600076E3,2.0370012E2,2.747344E3,1.9470104E4,7.6796777E3,1.118314E4,3.556855E4,7.59719E3,4.8172415E2,6.201794E2,1.6398281E3,5.940567E1,1.4429445E2,3.9887054E2,2.3484734E3,1.6301015E2,1.9307094E4,3.0545745E3,4.625103E3,7.1051133E3,4.0780261E3,5.659032E3,2.990952E4,7.4825933E3,1.14596245E2,4.009068E2,8.081735E1,5.667727E2,5.3406628E1,1.4708116E3,1.6901639E2,2.268988E1,3.671579E1,3.106797E2,8.819087E1,1.5791096E2,2.1905625E3,8.185893E1,8.115121E1,2.5916082E3,1.6715486E4,1.5904612E3,1.4641133E3,1.6644093E3,2.9606938E3,5.9407534E3,1.1643597E3,6.1423346E2,3.4637927E3,1.114055E3,4.5449775E3,1.6436652E4,1.3472867E4,1.2699933E3,6.2126E3,3.3299854E2,6.7908264E1,5.457574E2,2.1015343E1,4.8551632E1,4.8549957E0,2.0710706E2,1.2637046E3,5.353699E0,1.6366269E2,2.865509E2,2.412878E1,1.2085769E2,3.705327E1,2.1344888E3,5.6073856E1,7.265247E0,2.5843428E3,1.3749738E4,2.9657476E3,9.128935E2,6.775677E2,1.1617389E3,3.023744E2,8.9987463E2,7.6453467E2,2.9207493E3,3.9944534E1,5.4734595E3,4.672943E2,8.275155E2,3.3684424E2,4.2789395E2,1.863395E2,1.6846246E2,3.2953303E3,1.6492064E2,9.491344E2,4.344851E3,2.001264E2,5.0798584E3,1.1356795E4,1.0358384E4,3.1144832E3],"tree_param":{"num_deleted":"0","num_feature":"98","num_nodes":"107","size_leaf_vector":"1"}},{"base_weights":[4.305843E-2,-7.908435E-1,4.0507406E-1,-1.5604182E0,-1.9288471E-1,8.639966E-1,1.6885334E-1,-1.7713104E0,-1.9288471E-1,-1.4972075E0,-1.9288471E-1,1.053438E0,4.5360875E-1,4.855876E-2,3.928867E-1,-1.9168237E0,-9.8209757E-1,-8.5052574E-1,-1.9288471E-1,-1.8712622E0,-3.4095576E-1,-1.9288471E-1,-1.9406184E0,7.8129435E-1,5.3132333E-2,5.5226725E-1,-1.9288471E-1,-1.9288471E-1,1.1937672E-1,2.3292546E-1,5.8196723E-1,-1.9461665E0,-1.4494606E0,-7.2473034E-2,-9.8209757E-1,-9.8209757E-1,-5.217052E-1,-5.217052E-1,-1.9288471E-1,-1.961355E0,-1.3427105E0,-1.081891E0,-1.9288471E-1,-1.0667516E0,-1.9288471E-1,-1.0667516E0,-1.9747683E0,4.0123206E-2,-9.6442355E-3,1.0332738E-3,6.3766915E-1,-1.9288471E-1,7.531338E-2,-1.9288471E-1,-3.6753997E-2,-3.6753997E-2,2.2072273E-1,4.470482E-1,2.2072273E-1,2.2072273E-1,6.232376E-1,-9.8111406E-2,-7.2473034E-2,-9.025269E-2,-7.2473034E-2,-6.0788956E-2,-4.910488E-2,